,0,1,2,3,4,5,6,7,8,9,10,11,12,13,14,15,16,17,18,19,20,21,22,23,24,25,26,27,28,29,30,31,32,33,34,35,36,37,38,39,40,41,42,43,44,45,46,47,48,49,50,51,52,53,54,55,56,57,58,59,60,61,62,63,64,65,66,67,68,69,70,71,72,73,74,75,76,77,78,79,80,81,82,83,84,85,86,87,88,89,90,91,92,93,94,95,96,97,98,99,100,101,102,103,104,105,106,107,108,109,110,111,112,113,114,115,116,117,118,119,120,121,122,123,124,125,126,127,128,129,130,131,132,133,134,135,136,137,138,139,140,141,142,143,144,145,146,147,148,149,150,151,152,153,154,155,156,157,158,159,160,161,162,163,164,165,166,167,168,169,170,171,172,173,174,175,176,177,178,179,180,181,182,183,184,185,186,187,188,189,190,191,192,193,194,195,196,197,198,199,200,201,202,203,204,205,206,207,208,209,210,211,212,213,214,215,216,217,218,219,220,221,222,223,224,225,226,227,228,229,230,231,232,233,234,235,236,237,238,239,240,241,242,243,244,245,246,247,248,249,250,251,252,253,254,255,256,257,258,259,260,261,262,263,264,265,266,267,268,269,270,271,272,273,274,275,276,277,278,279,280,281,282,283,284,285,286,287,288,289,290,291,292,293,294,295,296,297,298,299
sepsis,-0.00017995393,8.228863e-05,0.0017004994,0.002999257,-0.0031044742,-0.0023767569,0.0021570448,0.0029892763,-0.0016692664,-0.0012526702,0.002464076,-0.000513471,-0.0015090371,0.0021841621,-0.0016194808,-0.00060957007,0.0009600372,0.00032961054,-0.0027596778,-0.003150817,0.0024394055,0.0016902898,0.002247224,0.00025328423,0.0021185745,-0.0011385147,-0.00031834014,0.0019182657,-0.0025103125,-0.0013177559,-0.002506498,-0.0003119335,0.003179192,-0.0024400402,-0.000780986,-0.00063823414,0.0026980205,-0.0019834125,1.481399e-05,-0.0015841882,-0.00320095,0.0016694926,-0.002923449,-0.001466872,-1.0213968e-05,-9.748921e-05,-0.002551311,0.0032053469,0.0016611334,0.0030763464,-0.0027122581,0.0014935929,-0.0013797802,0.00027721366,0.0028309242,-0.0014851319,0.0015089224,-0.0022590777,-0.0011844472,0.0031310576,-0.00052379136,0.000107407555,-0.0013824662,-0.0025605864,-0.00050312304,0.0008238049,-0.0002945221,0.0018432215,-0.00091497577,0.0007508345,0.0018178353,0.002787399,-0.00048158472,-0.0030769485,0.0014565693,0.00019647011,0.0024772142,-0.00027267658,-0.0008787243,-0.0029095071,-0.00028338569,0.00094256556,0.0017998854,0.0023578533,-0.0019002876,0.0006210077,0.002025777,-0.001595394,-0.0010355581,0.0022700191,0.00054677227,6.3296866e-05,0.0011574266,7.599508e-05,0.00320557,0.0016863252,-0.00297241,-0.002346673,0.00030623408,0.002134995,-0.0028697173,0.0012178547,0.0017347811,0.0019152601,0.0024920611,-0.0020611319,0.00037130815,0.002010633,-0.00095273124,-0.0020568285,-0.00013913697,-0.002790741,-0.001869651,0.0023726774,0.0011159745,0.0024106342,0.0022630314,0.0025087777,-0.0012630933,-0.00018934804,0.00078036066,-0.0015059941,0.0028015568,-0.0032870425,0.002253945,0.0009775251,-0.0016392079,0.0014661136,-0.0005802378,0.0022417374,0.0033269546,-0.001453562,-0.00020116848,-0.001900953,0.001278828,0.0009332889,0.0022973127,0.0020336919,0.0031761033,0.003089942,0.0026280787,-0.0023337852,-0.003055166,-0.00011864073,-0.0010258345,0.0026301509,0.001978164,-0.000518993,0.00050563534,0.00059623824,0.0026055777,-0.0031783509,-7.540986e-05,0.0011564676,-0.00031776534,0.0027973165,0.0029981597,0.0021788473,-0.00024608517,0.0025743803,-0.0028544671,0.0010683167,-0.0015449236,-0.0016900621,0.0011946114,0.0017879746,0.0025884546,-0.0019210395,0.0024760864,0.0022117854,-0.0012441749,-0.00291431,0.0018112169,0.0021726813,-0.0002658783,-0.0022365144,-0.0023625519,-0.00083376246,0.001715906,-0.0012137642,-0.003121407,0.0012745265,0.001624037,-0.0021435842,0.00039694275,-0.0006938419,7.0350607e-06,-0.0032890916,0.000892979,-0.0015866279,0.0003605073,-0.0005221017,0.00072759547,-0.0026285842,-0.0009022167,0.0008916345,0.001782622,-0.00080010726,-0.0031689254,0.0015027175,2.461981e-05,0.0010241806,-0.0022683095,-0.00045628662,0.0025546919,0.0024533072,-0.0012266331,0.0008786304,-0.0027738505,0.0020733834,-0.0015461365,-0.0010525461,0.003108382,0.00029258602,0.0025015352,-0.0020300373,0.0017130439,0.003304131,-0.002824467,-0.0017148458,-0.0023512505,-0.0016231022,-0.0012635568,-0.0028445146,0.002653376,-0.0016139296,0.0028083117,0.0017512608,-0.0021825759,0.0013218069,0.0018239709,-0.0024747606,-0.0024705045,-0.00082384096,-0.002880915,-0.0005250461,-0.00013440766,0.0010976513,0.00047835323,-0.00029483892,-0.0018613153,0.0005822106,-0.0002936019,0.0022640629,0.0013262396,0.0015065151,0.00048069077,-0.00090462284,-0.0014566999,-0.00034315616,0.0004776511,-0.00088200107,-0.0023532817,-0.0026020405,-0.0030437305,-0.00197906,-0.00061261095,-0.0014416431,-0.0021572828,-0.0012443329,0.0014372023,-0.0012401415,0.0027949978,0.0005023283,-0.0024128447,0.0031376865,0.0025481195,0.0018314451,-0.0022858125,0.0019448849,0.0013346255,0.0017295578,0.0014182226,0.0006433676,-0.0010527573,0.0027867518,0.0032117658,0.0012656652,-0.00094549096,-2.0378352e-06,0.00040684856,-0.002820465,-0.0027430404,-7.936498e-05,0.0004147734,-0.0019131204,-0.0015827579,-0.0024465036,0.0027796035,3.871504e-05,-0.0015029218,0.0018995376,0.003062001,-0.0013702761,0.002651822,0.0017934527,0.0019664203,0.00016835789,0.0027438318,-0.002338945
failure,-0.0027619542,0.003100232,-5.4232805e-05,-0.0006622186,0.0015270934,-0.0013718698,0.0009296925,0.002333996,0.0020055894,-0.0025131477,0.0031341321,0.0015519169,0.0013224751,-0.002099069,0.0028268339,-0.000719364,0.00295082,-0.0017866014,-0.002709128,0.0022688692,0.00054547534,-0.00074387144,0.00316792,0.0031664332,-0.0032588206,0.000823877,0.00203336,0.0012770782,0.00066201465,0.00012651682,0.00023717985,-0.0012659486,-0.0023698474,-0.0006903144,0.0013045302,0.0029494055,0.0030970054,-0.0020120465,-0.0031356572,0.0032641797,0.0011517172,0.001725467,0.0020875991,-0.0009308615,0.0024673392,0.0009639543,0.0009680569,-0.0007731425,-0.0010436039,-0.0007762012,0.0014383926,1.5096056e-05,-0.0031944676,-0.0032230392,-0.002050366,-6.6894577e-06,0.0006705209,0.003155991,0.0018691525,-0.0014395077,8.8684e-05,0.0016544583,0.0025486427,-0.00038970698,0.0014423697,-0.001924759,-0.00027531871,0.0027100341,-0.00078734,-0.0032354554,0.0019203018,-0.0013063452,-0.00039257895,0.0033150031,-0.0007591494,-0.0015763369,-0.0017927481,0.0023327142,-0.0019055902,0.0007398131,-0.0017409846,0.002027688,0.001462122,0.00091170985,-0.00048018587,-0.00091111823,0.002979221,0.001749595,-0.0007154908,-0.003157062,-0.002461836,-0.00034246055,-0.0002731986,-0.0008501756,0.0032300293,-0.0001353944,0.0019685135,-0.0024837523,-0.0008318228,-0.001842834,-0.0023777355,0.0004081186,-0.0023718344,-0.00074642536,0.001229813,0.0019308202,0.00041058587,0.00071042747,-0.0013815758,0.0024276406,-0.0021133153,0.00156129,-0.0027459422,0.0006835453,-0.0016690971,-0.0014259802,-0.001050318,0.001879428,0.0019391701,-0.0016778643,0.00025274383,-0.0028331087,0.0026179224,0.0030851313,-0.00091040647,0.0002952775,0.00025639735,0.0018005846,-0.002847237,0.0002167723,0.0022994562,0.00075500924,0.0003730309,-0.0031305717,0.0028304115,-0.002087106,-0.0010034258,0.0011715251,-0.00027521932,0.0004610521,0.000588715,-0.002310336,-0.0032487973,0.0030211257,0.0020798345,-0.0023123084,0.0011225716,6.0096725e-05,0.0015991144,-0.0023816926,0.0013482745,0.0014246667,0.0032981276,-0.0014919286,-0.00047559943,-0.0024433045,-0.0032695702,-0.0030439608,-0.00036845624,-0.0021479088,0.0016142839,-0.0020520093,0.0008356928,0.0002614975,-0.0011469001,-0.00032013305,0.0033184795,0.0030578314,-0.0015117765,0.0030440094,-0.0019045256,0.0019826947,-0.0010284708,0.0011381286,0.0010015229,0.0022991847,-0.000790944,0.0029218988,0.0025230856,-0.0031709867,-0.002661645,-0.0025451754,0.0009560777,-0.0009361099,-0.002323034,-0.0027050602,0.002780525,0.00069710286,-0.0031146836,-0.0016117779,0.0010345383,-0.001564556,0.0017583034,-0.0014112626,0.00090395723,-0.0026920843,0.0020799416,0.0016138926,0.0002583394,0.0010039107,-0.0029436157,0.0007056113,-0.0002950279,-0.0030986841,-0.0031610718,-0.00048089345,0.0014824921,0.0012259108,-0.0021751586,-0.0022907637,-0.0016816009,-0.0007676388,-0.002415872,-0.0031937517,-0.0009062501,-0.002801169,-0.002010678,-0.0019037044,-0.00080242835,-0.000572637,-0.002974718,-0.00026006124,0.0026948354,0.0025570346,-0.0024307098,-0.0012423323,0.0010411978,-0.003192175,0.00048805898,0.0021928719,0.001933804,-0.002920931,-0.0015067733,-0.0027130998,5.033427e-06,0.003108686,0.001992028,0.0016897531,0.0016832477,-0.0010963428,0.0032070547,-0.0024475055,-0.0024095173,-0.00073235517,-0.000256483,-0.0010798451,-0.00019544263,0.002495807,-0.00022227662,-0.0005457631,0.00090834504,-0.0027856568,0.0026345581,0.0028524646,-0.0032195034,0.0008165031,0.0033089092,-0.002567137,-0.002349089,-0.0025857352,0.00282761,-0.00021009985,0.0030601588,-0.0027671338,0.001225842,0.00085730065,0.00026125312,0.00077739626,-0.0025124957,-0.0031160405,0.00077866274,0.0020458899,0.0026679214,0.0019022389,-0.00023155262,0.002776585,-0.0030956056,0.0011507891,6.515159e-05,0.0012677406,0.0024604718,-0.0022337008,0.0018722146,-0.0031479364,-0.00027192512,-0.0028834406,-0.0017296321,0.003107932,-0.00061250885,0.0009741861,0.003034149,0.0029934812,-0.0027244093,-0.0010141218,0.0032862395,0.0017132523,-0.0005261947,-0.0029046342,0.0010091938,-0.0022132234
pneumonia,0.0027107573,-0.0014857781,-0.00035611907,0.00033545494,-6.370465e-05,0.0003827258,0.0020379536,-6.75718e-06,-0.0010819884,-0.0005035762,0.0019657663,0.00050470076,-0.00024142067,0.0031110824,-0.0016404279,-0.00027946988,0.0030584706,0.0022498092,0.000500952,-0.0029608535,0.00038291534,-0.0007627519,0.0031227458,0.00040330927,0.0004966879,0.00080213667,-0.0006120022,-0.0016665447,7.74765e-05,-0.00067139347,0.002200311,0.002980041,-0.00022491813,0.0009923383,-0.002035885,0.0005664416,-0.0023087442,-0.0028980088,-0.0019667344,-0.0029854917,0.002425865,-0.0019240105,0.002758784,-0.002414515,0.0011405583,0.0032249994,-0.0025951492,-0.0033150192,-0.0014430487,-0.00089437683,-9.0429785e-05,-0.0029438504,-0.0028725192,0.00093340356,-0.002735469,-0.0030231122,-0.00078015524,-0.0028772692,-0.0023522167,-0.0028003836,-0.000100442965,-0.0015214328,0.0022090583,0.00050905347,-0.0011138252,0.002036324,-0.0020044283,-0.0015520565,-0.002402503,-0.0014455267,-0.00060311,0.0021632144,-0.0009234643,0.0016396558,0.0023014809,-0.0024879018,0.0015216168,0.0020423261,-0.0009848248,0.0022083407,0.0020419597,-0.0021478282,-0.0022548505,0.0008463196,-0.000541273,-0.0020217092,0.003166403,-0.0017100489,-0.002184699,-3.9961735e-05,-0.000900476,0.00014813343,-0.0011791528,-0.00013977686,-0.00023620526,0.00027427357,0.0027316057,-0.0019122359,-0.000553176,0.0018572025,0.0027227069,-0.0014810109,0.0029951446,0.0027512216,-0.0014784074,0.00010103504,0.0014248304,-0.0013087734,-0.0018533218,-0.0021707742,-0.00022357941,-9.864052e-05,0.001487695,-0.0008246847,-5.7536363e-05,0.0008206252,0.001622533,-1.0269483e-05,-0.0021131365,-0.0030869357,8.885861e-06,0.0022206313,0.00048867427,-0.0029888407,-0.0026462015,0.0021839675,-0.0012618935,0.0020849975,-0.0022270107,0.002826554,-0.002172108,0.0010960066,-0.0003523286,-0.0022625092,-0.0010958656,-0.00038713732,-0.0018236466,-0.00040378253,-0.0025211044,0.0008822199,0.0030233827,-0.00079241674,-0.00032550335,0.0011711871,0.0028883624,-0.0019739508,-0.0022958592,-0.0009776616,0.003049232,0.0002887559,-0.0028928001,-0.00048232634,0.0031598217,-0.0025164958,-0.0017860329,0.0031055207,-0.002991242,0.0012753026,0.00022181352,0.0022202337,0.0027709177,-0.0009502618,-0.001330771,0.0029659725,0.0006965486,0.0020829805,-0.0031485716,0.003196708,-0.0004494361,-0.0020173716,0.0009975116,-0.00015220363,0.0015688308,-0.0007610071,-0.0013792809,0.0007592996,0.0027847947,-0.001665202,0.00088955957,-0.0026635183,-0.0022577823,-0.00015588959,-0.002922576,0.0009298126,0.0005328651,-0.0007732308,0.0016679303,0.0032495956,0.0028180892,-0.0006267417,0.0006860506,-0.0013345631,-0.0027471352,0.002092652,-0.0006497272,-0.00022206824,-0.000590444,-0.0015118885,0.0013539032,-0.0014233935,-0.0031928488,0.0029810385,0.0013883563,0.0030782449,0.002214501,0.00097491225,0.0032680067,-0.0014748804,-0.0022677705,0.0014091269,0.001243,-0.0018882037,0.00323492,-0.0011861023,0.0031831355,0.00027824202,-0.0021128189,-0.000659039,-0.0024590183,-0.0009931743,0.00034723242,0.003160896,0.0031186158,-0.0021986258,0.0011583837,0.0007585235,-0.0008297841,-0.0030763908,0.00034237542,-0.0027219022,0.0021067297,-0.0019333601,0.0018451464,0.0032779078,-5.3333442e-05,0.0015094975,-0.00060313346,0.002453587,0.0013133656,-0.0030034415,-0.0007995013,0.0012095897,-3.3189455e-05,-0.0004004236,-0.00035181284,-0.0005572005,0.00020165085,0.001388365,-0.0014175972,-0.0012778739,-1.7605622e-05,8.978526e-05,-5.626877e-05,-0.001595169,0.0014378007,-0.0007239731,0.0007011799,0.00022217432,0.0019898922,-0.0022807936,-0.0022719034,-0.0014920859,0.0031452763,-0.00053062756,-0.003143081,-0.00018168052,-0.0014829743,0.0020000264,-0.0031945617,0.0009530004,-0.0030842773,0.00041660032,0.0019997326,0.0024657825,-0.0025404878,-0.0020176745,-0.0022794802,-0.0026394466,-0.00316636,-0.00070849893,-0.00027864418,-0.002418734,0.0022623455,0.00037320654,0.0019429557,0.0004909555,0.0002631219,-0.0024560431,-0.0007255526,0.0014403597,-0.0016951049,0.00037692985,0.00096112135,-0.0005121203,0.0033107651,0.0027832114,0.0008052222,0.0023727485,0.0019638126,-0.0018602058
bleed,-0.0017246339,-0.0022175764,-0.0025982691,0.0027685603,-0.0006684338,-0.0022905725,-0.0013787394,0.0017437909,-0.00096127234,-0.0012541874,0.0005443942,-0.000927556,-0.000521247,0.0003541667,-0.000997639,0.0028340581,0.001296566,-0.0033246768,0.0020826685,-0.0022508183,0.0002515065,0.0014611635,-0.0016915159,-0.0006961469,0.0027074395,-0.0014184535,-0.0025668612,0.0030784789,-0.0007195283,-0.0015703684,0.0028593314,0.0014354736,0.0014531155,0.0030858237,-0.002827226,0.0017595917,0.0006863913,0.0013821739,0.0005572775,0.0015025287,0.0014906412,0.0020391021,-0.0010682549,-0.0015256882,-0.00012997485,0.0008512143,-0.0010819928,0.0020265176,0.0013809106,0.0025967753,0.00087434123,0.0027125133,-0.00046428645,0.0026918186,0.0012364297,-0.0026719384,-0.0013160165,-0.0008102795,0.0016229613,-0.00029561616,-0.00095289573,0.0026115202,0.0031036541,-0.00053419144,-0.0017197675,-0.0015568453,-0.0015975565,-0.0032016952,0.00045414522,-0.0014183002,0.00085268816,0.0018869702,-0.0013587937,-0.0032105008,0.00052391156,-0.002226403,0.0008321416,-0.0012692589,0.0023691298,0.00024145888,0.0011900109,-0.00092685857,-0.00057452184,0.0025703153,0.00046982517,-0.001959537,-0.0026298424,0.0004177133,0.0021573275,0.0018566593,-0.0029794876,0.0028691434,0.0013533235,0.0025023185,0.0032631392,-0.0024232883,-0.0030099354,0.0019476517,0.0031542915,0.0011841254,0.0023582056,-0.0005280758,0.0026704567,-0.0031562285,-0.002678425,-0.002232279,-0.0013430082,0.0016594273,-0.0012754207,-0.0027683363,0.0028008418,-0.0012477958,0.002868909,-0.001621511,0.0013148008,0.0016381275,0.00081192685,-0.00093844865,0.0009552234,-0.0027776465,-0.00092187413,-0.00085832895,0.002420138,-0.0011426746,-0.0022154257,0.0014576614,-0.00014434238,-0.0012087781,0.0022936207,0.001297509,-0.0013006021,0.00026396313,0.0030447848,0.002578049,0.002113906,0.0015662392,0.00079596275,-0.0006283527,-0.0021362954,-0.00011189249,-0.00051722256,-0.00021154582,-0.0020935466,0.002490928,-0.0021966912,-0.0024218294,-0.0009228369,-0.0005134792,-0.0025459246,0.00022907011,-0.0017735135,-0.00044669028,-0.0024736447,0.00064520707,0.0010846506,-8.6653135e-06,-0.0018312888,-0.0005863252,0.0023400537,0.0012503685,-0.0029788325,-0.0011352865,0.000773801,0.00072150916,-0.0031590895,0.001525649,-0.0028871386,-0.0024764386,0.0011449148,-0.0011453727,0.001172391,0.0029718473,-0.0011940375,0.0031099997,0.00056423194,0.0032938577,0.0019029808,-0.003051171,-0.001094763,0.0021909138,0.0018636137,0.0028996659,0.0023084986,0.0026868316,-0.0032962863,0.0014349676,-0.0016678377,0.0011857788,0.0020126118,0.0014615126,0.002497975,0.0005072961,-0.00042710037,0.0019368784,-0.0018806253,1.6722413e-05,0.003153938,-0.0018263651,0.0012749726,-0.0027087214,0.003244636,0.0027204154,0.00042936788,0.0016928543,0.00045669937,-0.002153593,-0.00047682683,0.0021337997,-0.0015394924,-0.001333096,0.0016439215,0.00090522633,-0.0006120047,-0.0009663926,0.0020035272,-0.0019108721,-0.0010877356,-0.0021740473,-0.0014318249,-0.0028569163,-0.0014705027,-0.0028629364,0.0004569922,-0.0028838841,-0.0033268752,-0.00275315,-0.0022507382,0.0022233543,0.001254275,0.00012815361,-0.00097313174,-0.0024737313,0.00018251658,0.00016092017,6.814936e-05,0.00029440213,0.00025489877,-3.250721e-05,-0.0026832432,-0.0019665004,-0.0027838154,-0.000439431,0.0006131959,0.0024774722,-0.00065147417,-0.000775474,0.0031750943,2.8937511e-05,-0.0007957106,0.0028849635,0.00090507296,-0.0017713195,0.0022007267,0.0015081583,-0.0023714288,-0.00010840386,0.00028114716,0.0019200252,-0.00058825046,-0.0009456624,0.0006034835,0.00028967162,0.0004024488,-0.00090476143,-0.0020172056,0.002431005,0.0025492122,0.002771148,-0.0028759937,0.00088633556,-0.0011933198,0.003210582,0.000980131,0.0015416279,0.0008130596,0.0022161836,-0.0018965383,0.0026370992,-0.00082331576,-0.0015262698,-0.0006917517,0.0032405031,-0.002283475,-0.0007249252,0.002328258,-1.5149575e-05,-0.002114375,-0.0021299492,0.0029830732,0.002141,0.0016014443,-0.001081446,-0.0030836537,0.0012543439,0.0023883202,-0.0018749879,-0.0026175946,-0.0009950578,-0.0016273943,-0.0007739215
acute,-0.0006427046,-0.001741776,0.0031544582,-0.0031032846,0.0015005256,0.0017782198,-0.00045498813,0.0030423142,0.0032770312,-0.0018339101,-0.0020220268,-0.002268737,-0.0026505387,-0.0010145357,-0.0018592271,-0.0027954313,0.00026682633,0.0009878554,0.0021446582,-0.00089069747,-0.001489099,0.0004221849,0.00013631918,0.002714463,6.7822395e-05,0.0023917,-0.0027866517,0.0027833425,-0.00062453875,0.0028827137,-0.0025241983,0.00060894457,0.00034793207,9.8031705e-06,-0.0017059864,-0.003068649,-0.0024335478,-0.002656828,0.0006398921,0.00016268721,-0.00059434236,0.0023901283,-0.00083601807,-0.00044272916,-0.0029386478,-0.003267271,0.003002774,-0.0018879334,-0.0021265207,0.0017452096,0.0022598114,-0.0022792632,0.0003142296,-0.0020061652,0.00053210463,-0.0013910388,-0.0011615341,0.0007308756,0.0029005364,0.0022262514,-0.0032200222,-0.001883987,0.0025991965,0.0006811814,-0.0014245694,0.00021869605,0.0031798065,-0.00038204933,-0.0031528499,0.00051390624,0.0020774263,0.002102676,0.0013708479,-0.0019231767,-0.00012328962,1.3332019e-05,0.0014978277,-0.0026881467,-0.0026785175,0.00013944994,-0.0028615568,0.0019217599,-0.00014050293,0.0033765833,-0.001771614,-0.00014785038,0.002554375,-0.0013335063,-0.0016441512,0.00053086504,0.0008973502,-0.0008551458,0.00213762,-0.0025433016,0.0011292014,0.00018862673,0.0029173484,0.002014731,0.002263252,0.0026289173,-0.003176013,0.0031819772,-0.0025444727,-0.0008828717,-0.0016566669,-0.0016898768,-0.002663426,-0.0026036904,-0.0015288689,-0.00039635715,-0.0017082852,0.0020474074,-0.0031663275,-0.001764562,0.0031431287,0.00233637,0.0025548066,0.0013997221,0.00019024868,-0.002014034,0.002000664,0.00088881486,0.0025940954,0.0021233445,0.0026555606,0.0029282658,-0.0032819381,-0.0022599064,0.000439178,0.002160742,0.0024764948,0.0018665,0.002554519,-0.0017287686,0.0021827766,-0.0013577659,-0.003008752,0.0030442332,0.00042985816,-0.00092349696,-0.0008442633,-0.0014300181,0.0015887821,0.001468759,-0.0008769099,-0.0024635775,-0.0012064979,-0.00011774497,0.0020300047,-0.0009689542,-3.592811e-05,0.0002589881,-0.0023970704,0.0006900165,-0.00047246696,0.00094049214,0.0015809111,-0.00046842292,-0.000977181,0.0025886702,0.0016580792,0.0022384017,0.0014875877,0.0029030733,0.0024567496,-0.00035688526,0.0029111677,0.0015412775,0.0017981147,-0.00043165532,-0.0006933339,-0.0014606903,-0.0028472468,0.0010192062,0.002957106,0.0029932398,-0.00064968417,0.0020020436,0.0012581211,-0.0014216715,0.0006786794,-0.0018196157,0.002726704,0.0017902157,0.0010367844,0.0013695575,0.0028961906,0.0024653163,-0.000293624,-0.0023898708,0.002773745,0.0024132153,0.0005608234,-0.0004593702,-0.0019657193,-0.0015089501,0.0028969455,-0.001039031,-0.0021194925,0.0032838036,0.0025455987,0.0030365873,0.00036256324,-0.0027814766,0.0027906671,-0.0012325997,0.0018925279,0.0014537302,0.003229275,-0.003095444,0.0030584526,-0.0031217171,-0.0022955576,-0.0030138998,-0.0018488709,0.0024439013,0.0030580328,-0.0011283088,0.0012133978,-0.0012112105,0.0026622228,0.0019406967,-2.5619558e-05,-0.0012373468,-0.002424561,0.0015722233,0.0004954527,-0.00088322745,0.0026135528,-0.0013397466,-0.0030354857,-0.00073934166,2.347298e-05,-0.0022032012,-0.0018313018,-0.0028125485,0.0030466071,0.0024675862,-0.00011109008,0.0024181104,0.0027060406,-0.0002578995,0.0021928938,0.0012662361,0.0016983302,0.0024091755,-0.0015663867,-0.000728672,0.0003135569,0.0013979506,0.0011111242,0.0016995459,0.0015589739,-0.0028020742,-0.0011069479,-0.0024373683,0.0032296253,0.0016591082,2.0945774e-05,0.0013502027,-0.0025095292,-0.002071058,0.0010322168,0.0021268972,0.0012936963,0.001983637,-0.00066197384,-0.001097958,3.6938614e-05,-0.0010521637,-0.0018443447,-0.0025995227,0.0021966815,-0.00036780283,-0.00057755766,-0.0025945925,0.003150293,0.00029377622,0.00056246115,0.0008206768,-0.0024896031,0.0005526799,0.0009992365,-0.002851628,0.0016469219,0.0008273331,0.0024691871,0.0016880595,-0.0010019221,-0.0023916252,0.002375566,0.0006558804,0.0017496034,0.0021206103,0.0006125552,-0.0020269884,-8.327439e-06,0.0027602653,-0.0020142936,0.0031719345
breath,-0.0024054123,0.0014238328,0.00072356715,0.0024722791,-0.001629761,-0.0015388008,-0.002013124,0.0011179454,-0.0015073456,0.0028330416,-0.0014283871,-0.003058334,-0.0016103622,0.002133467,-0.0021251477,-0.0017631721,-0.002441875,0.001994794,0.0011182143,0.00094457204,-0.0010411114,0.0020203302,-0.0020545544,-0.00065502385,-0.0019909244,-0.00034208133,-0.00067748514,0.0028192056,2.3456896e-05,-0.002876036,-0.0018082861,-0.002276937,0.0008952851,0.003160074,-0.0019494091,0.0027485837,0.0028576562,-0.0023661053,-0.002971294,0.0031641242,0.0028041415,-0.0015574656,-0.002265639,0.002612775,0.0012558544,0.0027295828,-0.002505758,-0.0031560785,0.000524027,-0.0032617764,-0.0016214624,-0.0011640636,0.0032061927,0.0028702929,-0.00095391285,0.001959559,0.0027614816,-0.0007614213,0.003187388,0.00239076,0.00066519727,-0.0012824913,-0.0017200859,-0.0010165098,0.002628863,-0.0020672386,-0.0009847808,0.0030604627,0.00115208,0.0020167616,-0.0026873688,-0.00026144172,0.0018472023,-0.0016011951,0.002502022,0.003127326,-0.00014911586,-0.0006922348,-0.0002094481,-0.0019011998,-0.002799844,-0.000509765,-0.0008530083,0.0014961623,-0.0022867536,0.001820785,-0.0022718923,-0.0026140015,0.0028313387,0.0029753542,-0.0011453019,0.0011627994,-0.0019562503,-0.0029054906,-0.0018401148,0.002257584,0.0021395525,0.0031718537,0.0023657996,0.0022677328,0.00042801956,-0.0032780813,0.001558836,-0.00018213085,0.0021152138,0.0005816283,-0.0010312737,0.0025848714,0.0005149871,3.0866515e-05,-0.0015414398,-0.0028167507,-0.0025929236,0.002907993,-0.0029752818,0.0030086113,-0.0031081995,-9.19855e-05,-0.0006209069,-0.00299978,0.0028764352,0.0022494257,0.0010175131,0.0016124172,4.3536784e-05,0.0031649515,0.0023579157,-0.0032998004,-0.0014831867,-0.00042753434,0.0010142863,-0.0014380632,0.00048215454,-0.0026318186,0.0009269091,0.0015815181,0.0016691198,-0.0010548009,-0.0028162561,-0.0030791303,-0.00025620713,-0.0024549447,-0.0022801952,0.0020426954,0.002407671,0.0006949219,-0.0026466628,-0.0019095775,0.0027066919,0.0013033783,-0.0017473174,-0.0024855149,0.00024609003,0.001168261,0.0006843421,0.0010390459,-0.0018996584,-0.0033157018,-0.0023664918,8.637368e-05,0.0015233825,0.0015234624,0.0006270171,0.0017355375,-5.3314336e-05,0.0013788841,-0.0030536829,0.0025677301,0.002046281,0.001713672,0.002402197,0.0028309852,0.00024421606,-0.00057675294,0.00017275914,-0.0030979184,0.0028057194,-0.0021486937,0.0028122468,-0.001411996,0.00024005311,-0.0030679253,-0.0031915554,-0.0026216502,-0.0025797605,0.00014344703,-0.0023938837,-0.0016305227,-0.0017660841,-0.0014407974,0.0023296163,0.001616638,0.002891126,0.0023649137,-0.0019044555,0.0024094223,-0.0030964317,-0.00086652173,-0.002602609,0.001392412,0.00058980024,0.0023605034,0.00097385317,-0.0023325472,0.0025490357,-0.0020079012,0.0030106823,0.0009705545,-0.0013400516,-0.0015608456,-0.0014795001,-0.0020626148,0.0031356534,-0.0008765861,0.002589499,-0.003254725,0.00071055116,-0.00042524483,0.0024854313,-0.0030338054,0.0025038118,-0.0017098276,-0.0020246967,-0.0018962823,-0.0011358684,-0.001153645,-0.0010680269,-0.0025093534,0.0002352037,-0.00018158556,-0.0005550727,0.0012603882,-0.002554109,-0.0010801592,0.0017281991,0.0028527845,-0.0032947874,0.0023946343,0.001762236,-0.0013191281,0.0028789532,-0.0030637856,0.002414693,0.0018073256,0.00043274937,-0.001741075,-0.0013807842,-0.001122448,0.00055481587,0.00053160137,0.0024762133,0.003318523,0.0029694708,-0.0013310678,0.0032020367,-0.0002357357,0.0016339407,0.0008612745,-0.00023261654,0.0012126981,-0.0017646042,-0.0019082993,-0.002536972,0.0006187159,0.0021513482,0.0002730528,0.00042603325,0.0010677871,0.002697986,-0.0025692051,0.00075056485,-0.00249577,0.0012434705,0.0031726826,0.002534008,0.0021473065,0.0026845164,0.0021929524,0.0022669267,0.0028812853,-0.0016588791,0.0030827401,0.0016935338,-0.0007127011,0.00283826,0.0016933699,0.0032014442,0.0009461118,0.0033096394,0.00040134325,0.0030619153,0.0012102966,0.0022040994,-0.001222235,0.0022687572,0.0024119013,-0.000710452,-0.0006272566,0.0012109032,-0.0023259758
esophageal,0.0032317436,-0.003257702,-0.0021614265,0.0009354549,0.002136694,-0.0017988295,0.0009378562,0.003060114,-0.0022932596,-0.0020320825,-0.001663685,-0.001237886,0.0006076145,0.0032198108,0.0021438834,0.00012883755,0.00082807615,0.0028146203,0.003051768,0.0018769712,0.0019728106,-0.002538479,-0.0012650826,-0.0018877016,0.002061244,-0.0007462899,-0.0029519955,0.0025277995,0.0027895803,-0.0011229384,0.0030470807,-0.00023768541,-0.0012049157,-0.000119317345,6.177704e-05,-0.0011770832,0.0009353084,0.0018883063,0.0022895746,-0.0029697213,-0.0007177774,-0.0018260842,0.0025006814,0.0021666058,-0.0014479024,0.00080042664,-0.0019756977,8.338205e-05,0.0031540396,-0.00086032186,-0.00172508,-0.002475865,-0.0009808956,-0.00028906873,0.0011682723,0.0032758059,-0.0011301906,0.00065396127,0.0032383762,0.0004912908,0.00032533254,0.0032619184,0.003089346,0.0025753,-0.002052253,0.0033306803,0.00195793,0.003021546,-0.00068235,0.001107346,0.0022787033,-0.0012889066,0.0022173019,0.0008349536,0.0031152894,-0.0009931835,-0.0010534271,0.0020719145,-0.0030197036,-0.0023820251,-0.0021701555,-0.00026639435,-0.0007828937,0.0023041705,0.0030938883,-0.00031280462,0.00045031286,0.0006899251,-0.00066665263,-0.002695951,0.0024969494,-0.001437376,0.001527487,0.0030343493,0.0010137731,0.001068755,0.0013672746,-0.00089024584,0.0012794932,0.00013260619,0.0018701085,0.0018313586,0.0006309478,0.0019114014,-0.0029854188,0.0021761036,0.0030742576,-0.001401741,0.00052861,-0.0017304358,0.0003512479,0.000931437,0.002728991,0.00019263892,0.00085835514,0.00043285923,0.002799511,-0.0019029664,-0.0020776023,-0.0012354028,-0.00076130684,0.0016756917,-0.0027136134,-0.00094370433,-0.0027417354,0.0017265199,-0.000857947,-0.0030443603,0.0013732245,0.003030568,-0.0010066068,-0.0019352628,0.0010024044,-0.00015652087,-0.003329552,0.0028146151,-0.0024363797,-0.0016483126,-0.00089062325,-0.0018336301,0.0005637059,0.0032238553,0.001527606,0.0026980601,-0.00014936471,0.00020929404,-0.0009095056,-0.0029186755,0.0011444516,0.00068455277,-0.003138942,-0.0016730798,-0.0032668582,-0.001894328,0.0013472236,0.0028899752,0.0013518403,0.00078088074,0.0027013223,-0.0003733606,-0.00046360533,-0.0029097155,-5.242336e-05,-0.0008424126,0.00011497341,0.00242797,-0.002353662,-0.0013229793,-0.0022424008,-0.0011653244,-0.0011225196,0.000730543,0.0011143312,-0.0016534769,-0.0015226406,0.00038230448,0.0018134973,0.0017836451,-0.000997808,-0.0014190135,-0.0018730708,-0.00018334421,0.00063613267,0.0005038157,0.0024398824,-0.0008977107,-9.274009e-06,-0.0018242382,-0.00039317383,-0.0025927308,-0.00033000487,0.0004376061,-0.002883401,0.0029232085,-0.0030607143,-0.0032124943,-0.0028389152,0.0024433343,0.001824533,0.0030853096,0.0008354653,0.00029132274,-0.00086113997,0.003117982,0.00090307277,0.0013512073,-0.00039544294,0.00028760367,0.002205065,-0.00023279928,0.0011141903,-0.00023190917,0.0017485532,0.0012222263,0.0008522353,-0.0017832465,-0.0015516657,0.0014207902,-0.001986688,-5.3761756e-05,-0.00020204134,0.0011612898,-0.0028208343,0.0029336244,-0.0005137425,-0.0017898057,0.0013580115,-0.00063219684,-0.002601975,-0.0014824343,-0.000119569886,-0.0029647711,0.00017611227,0.000809841,-0.0010807863,0.0008666509,0.0008225168,0.0033193952,0.00047410963,0.0006586853,0.00094411743,-0.00069760106,-0.0028949736,0.0026764248,-0.0006566336,-0.0032410114,-0.0021846923,-0.0013165532,0.0013435306,0.0016683721,0.0020343878,-0.0022588277,0.00023010807,-0.0009178866,-0.0017668239,0.0023193194,0.0013207806,-0.0010335427,-0.0027887789,-0.001723468,-0.00019471081,0.0026177682,0.0020229823,-0.002835257,-0.0031983235,0.0023757399,-0.00077580987,-0.001227312,0.001901637,-0.0019423832,0.0016930628,-8.266972e-05,-0.0022901038,-0.00011495709,0.0021427327,0.0030987274,0.00075165456,0.0016936184,-0.0016733956,-0.00026952682,-0.0017794226,0.00040090882,-0.00058926106,-0.0012068753,-0.0023447962,0.003219234,0.000978466,-0.0007500075,-0.0014017463,0.0025698473,-0.0021396112,0.0010592754,0.00027671998,0.0027642949,0.0022702718,-0.0009573258,0.0008476621,-0.0005719298,-0.003154281,-0.00083980476
artery,0.00042893403,0.0021969776,0.0033732185,0.0029827256,-0.0026790213,0.0021380805,-0.0018512283,-0.00025646045,9.081376e-05,0.0021586674,0.0014814957,0.0015122754,0.0031543442,9.855271e-05,-0.0020101394,-0.002159155,0.002175632,-0.0017723382,-0.00094001833,0.0013666166,-0.0007879473,-0.0020222282,-0.0007574498,0.0004375351,0.0007705625,0.0019870182,-0.001800381,0.0009950511,0.0024064644,0.0006897278,0.0018117214,-0.0015909579,0.0020917326,-0.0025174667,0.0011444355,-0.003086381,-0.0008418423,-0.0030491294,-0.0005362593,-0.0017952612,-0.0013053544,0.00040541583,0.000901928,-0.00047228677,-0.002675189,-0.0018869523,0.00034070708,-0.001236348,-0.0031571065,-0.00020710909,0.0022642454,0.0019848745,-0.003321615,0.0010445392,-0.0020356616,-0.0029771253,4.833802e-05,-8.7997156e-05,-0.0023014457,-0.0021466734,-0.0008222504,0.0023948776,-0.0025715532,0.0025914544,-0.00017798819,0.00039582842,0.0031730437,0.0015816814,-0.0012150883,0.0011928753,0.0012016887,0.0021469945,3.6513575e-05,-0.0015773299,0.0004451156,-0.0017860109,0.00041468928,0.0016576508,0.001722285,0.0032191116,-0.0025294423,-0.0018360034,0.0021539526,0.0005723317,-0.0021717022,0.00030212753,0.0008174678,-0.0007901644,-0.0016230672,0.0016638187,0.003268642,-0.0024189365,-7.83314e-05,-0.0008068874,-0.0021210713,-0.0003988541,-0.0017013977,0.0030495117,-0.0019305489,0.0012806646,-8.9036e-05,0.0013842417,0.0007852796,0.0033441526,0.00019091537,-0.0018888026,-0.00034774924,0.0006878359,-0.001167708,-0.0025634891,-0.0018570459,-0.002245929,0.0021187149,0.0013178624,0.0027419354,0.0021702163,-0.0020574946,0.00087161374,0.0028674288,0.0004490668,0.0010151424,0.001937576,-0.002895042,0.0030360555,0.0022787245,0.0028957983,-0.0027086001,0.0019913958,0.0022692995,-0.0004350015,-0.002088995,0.0018159975,-0.0023122863,-0.0018410577,0.0011682247,0.0027472784,0.0028942754,-0.0014841803,-0.0030882293,0.0031996288,0.0020657848,-0.0013766824,-0.002869677,-0.0015595938,-0.0013001324,-0.0011349826,0.00022211263,-0.00011938823,-0.001025464,-0.0020153322,0.0031410675,-0.001660861,-0.0024870154,0.0026303472,0.0008167588,0.0029253645,-0.0015794657,-0.0023328287,0.0002581281,-0.00033491687,-0.0031747296,-0.00052710733,0.00097161974,0.002247949,0.0022083016,0.0010825954,-0.0015122319,-0.00062916125,-0.0013532756,0.001975178,-0.0021959273,0.00074043043,-0.00043841847,-0.001928053,-0.0024271875,0.0019629486,-0.0027874727,-0.00026427495,0.00092496345,0.0026306328,-0.0024153292,0.0011061027,0.0032257477,-0.0023784013,-0.0012123656,0.001733623,0.0017676671,0.0006122305,0.0026483154,0.00019433521,0.00057929556,-0.00050323934,-0.0027287519,0.0010808314,0.00069422845,-0.002938746,-0.00018860643,2.8639402e-05,-3.6017354e-05,0.0028981469,-0.00090346666,-0.0019570976,0.0024960295,-0.0024279235,-0.0030240505,-0.00062668126,-0.002812929,6.942238e-05,0.0006416257,-0.0008207289,-0.0021882898,-0.00016274399,-0.00036506925,0.0011899356,0.0027096998,0.0018727453,0.0028127506,-0.0030342357,0.0030379733,-0.00076826883,0.0029435284,0.00073109847,0.0011100573,-0.0032123998,-0.003259415,0.0029504304,-0.000949119,0.00092461606,0.0021365571,-7.441689e-05,0.0032885228,-0.0003128096,-0.0032523829,-0.0023807732,-0.00039784334,-0.002850921,0.002430785,0.001172064,-0.0029319276,0.0027637177,0.003048765,0.0019698548,0.0023132982,-0.0031609824,0.00016414477,-0.0031088858,-0.0011865256,8.3831044e-05,-5.7167847e-05,0.0004781757,0.00109439,0.000704855,0.0018167986,0.0025264968,-0.0020707794,0.0026144353,0.002054702,0.0032765,0.0014766341,-0.001124498,-0.0011705062,-0.00014375879,-0.0005106839,0.0031818014,0.00028085793,0.0012847082,0.0011476439,-0.0029498113,0.002164531,0.0027390243,-0.0005937822,0.0007697938,-0.0021475414,-0.0020693643,0.0028361338,-0.0009755527,0.0023195832,0.00053639355,-0.000753504,0.000934528,-0.0013671981,-0.00057032827,0.0004710403,0.0016700069,-0.0005029919,0.00025097586,-0.0027352215,0.0032040123,-0.0029204,0.0023345973,0.0013131662,-0.0022950824,-0.001718637,-0.002666934,-0.0017569694,0.002398528,0.0032261205,0.00068756624,0.00026732002,0.0032470254
accident,-0.001673894,-0.0004091419,0.0011069342,-0.0021470326,-0.00322432,-0.0031101306,0.0030491939,0.0018398097,-0.0016335837,-0.0028057287,0.00044581573,0.00093485473,-0.00042767695,0.00040545836,-0.0014411693,0.0015714297,0.0005074771,0.0029578798,-0.0033321045,-0.0017504444,-0.0030560042,-0.00012491408,-0.0026279516,0.0016966437,-0.0021086058,-0.0020232322,0.0016384078,-0.002762039,0.000475628,-0.0024571652,0.0033024708,0.0028943976,0.0006005579,0.0019243,0.0015176781,-0.0019806798,0.0032795847,-0.0032855025,0.0026817073,0.0009316028,-0.0009947292,-0.001163811,0.003001014,-0.0018112988,0.002781702,-0.0019536167,0.0028293927,-0.00013191608,0.0026492702,-0.0010379077,0.0020394176,0.0029143086,0.00082746916,0.00043258685,0.0016649375,0.0027377785,0.0028619776,0.002855753,0.0023748835,0.0026640962,0.0028555223,-7.775378e-06,-0.00037019904,0.00056480366,-2.7871176e-06,0.00026071063,-0.002850235,-0.003182679,-0.00077755284,0.002952132,-0.0012160598,-0.002295697,0.001636033,0.00030064234,0.00062827364,0.0012530748,0.0011296096,0.001903199,0.00039999562,0.00037637984,0.0030280093,0.000911034,-0.0015758645,0.0022853443,0.0017611822,0.0009795731,-0.0010946061,0.001132828,0.0021400657,0.0023579455,0.00035109717,-0.0028241556,5.065038e-05,0.00015702359,0.0013239284,-0.003114013,0.003233928,-0.0022968901,0.0019431006,-0.0030845453,0.0032088677,0.0024094088,0.00049834483,-0.0011188568,-0.00015952633,9.140187e-05,-0.0021085269,0.0019123541,0.00076808553,0.0012844257,-0.0024069834,0.0028567654,0.00016749106,-3.659171e-05,-0.0030455457,0.0013406965,0.00225027,0.0024399448,-0.0021114396,-0.0026508262,-0.0018520366,-0.00018437972,-0.002746527,-0.0027543406,-0.00064455904,0.00043414033,-0.0031241383,-0.0012783684,0.00023101197,0.0023061587,0.000609973,-0.0001853823,-0.002500119,-0.00230764,-0.00024168575,0.0025246223,0.0018354424,-0.0005050053,0.00036288172,-0.0032207961,-0.00048301186,-0.0015992338,0.0019238126,-0.0007743761,-0.0015540828,-0.0031965217,-0.00044075554,-0.002403748,-0.00056254555,-0.0013785483,-0.0007897356,-0.0011607383,-0.0027765746,-0.0003950894,0.0005202264,-0.0013329468,-0.0026078564,-0.0012390196,-0.0030770197,-0.00021838101,0.0019336225,-0.000979869,0.0010413202,0.0017146571,0.0027736048,0.001875768,0.0031502235,-0.003215806,-0.00268664,-0.0022243068,-0.0025319636,-0.0026303483,-0.0025850688,-0.00096339866,0.00045733657,-0.00094198773,-0.002944264,0.0016348462,0.00028376238,0.0015681924,0.002423554,0.0025217982,-0.00030552177,0.0011772433,-0.0017467871,0.0006404437,0.0015273051,0.0033504346,-0.0011109645,0.00090685004,-0.0019478283,-0.00070822955,0.002697583,-0.0012871318,-0.00036092478,-0.0030996094,-0.0031517218,0.0029747675,-0.001913911,0.0016922744,-0.0023809043,-0.0008266369,-0.0026857257,0.0025044333,0.0020011812,0.0017294162,0.0027937,-0.00027231884,-0.0031274213,0.0030302699,-0.0016456493,0.0025758923,0.0018673294,-0.00032411586,-0.0025446194,-0.00054197526,0.0020745406,-0.002361334,0.00042164698,-0.0026540812,0.0029750874,-0.00098861,0.0030729503,-0.00191329,-0.0032851875,-0.0029172432,-0.0013334563,0.0015557635,-8.2406536e-05,0.0031038881,0.0010740202,0.0012709235,0.000975459,0.002714084,-0.0008122626,0.002512147,-0.0032089632,0.0009695267,-0.00023889799,0.00010451468,0.0023362052,-0.0009364184,-0.0007788485,-5.154717e-07,-0.00015115939,-0.0012092539,0.0021110687,-0.0021916025,0.0026698124,-3.469084e-05,0.0008807313,0.0010776052,-6.23082e-05,0.00057002483,-0.0011022772,0.0015674484,0.00011975329,-0.0010931544,-0.002966498,-0.0033625853,0.00015409313,-0.0018614668,-0.0003592512,-0.0014831048,-0.0029354051,0.00030399533,0.0019967637,-0.0007210978,-0.0024404605,0.0010633639,-0.00015426567,-0.0018656892,-0.00036354768,-0.00023642096,-0.0009866171,-0.0033006913,0.002610658,0.001267373,-0.0008877074,0.0023846168,0.000129267,0.0024130316,-0.0005056415,0.0025154464,-3.3475855e-05,-0.0020044008,-0.0016533183,0.003231193,0.00022952839,0.00033160194,0.0028474533,-0.0020588643,-0.0005460861,-0.0027228128,-0.002239925,-0.0028496566,0.0013389068,0.00091950246,0.0019176608,0.00089689746
shortness,0.000695229,0.0019131623,-0.0007047787,0.0010590832,0.0028140238,0.00012420678,0.002086009,-0.002245547,0.0021887757,0.0015763355,0.0017035988,-0.003310916,-0.00013235529,0.0010731993,-0.0019355614,-0.0022292663,0.0021261245,-0.0022879574,-0.0017209032,0.002707,-0.0023426493,0.0028556364,0.00022452703,0.0014681068,-0.0010061752,-0.0018126317,-0.00299332,-0.0002097927,-0.0017049034,-0.0010227612,0.0027094474,-0.002561945,-0.0020992383,-0.0017383032,-0.0021992202,-0.0029459991,-0.00037036036,0.003147414,0.0026902957,-0.0017670216,-0.002721037,-0.00074033765,-0.0030982306,-0.0016909117,-0.0019890321,0.0010116041,-0.0025164986,0.00041598498,0.00076305977,0.0017717589,-0.0006679217,-0.0032575943,0.0017449039,-0.0019733128,0.001644342,0.0006674868,0.0029459225,0.00050853443,-0.00061559567,0.0021651746,-0.0023634403,-0.0028092302,0.0012592957,-0.0008618823,-0.0013927553,-0.000644196,-0.0032977464,8.675079e-05,-0.0003598433,-0.0010028292,0.00083088916,0.0015571419,0.0021186324,-0.0026428357,-0.0016642171,-0.0029331553,-0.0029952675,-0.0012293328,-0.00042456467,-0.002729206,-0.0017801112,-0.0007224311,0.002109594,0.00054222194,0.0027840359,-0.002775147,-0.0015387454,-0.00026491223,0.0029309248,0.0003680478,0.0005226772,0.0004328059,0.0009806872,-0.0031454533,0.001088613,0.0018345701,0.0017522391,0.0014786378,-0.002691606,-0.0013493042,0.0027817981,-0.00019383476,-0.0031495227,0.001586159,-0.0020231262,0.002235064,0.0017937941,-0.0016832505,0.0008584446,0.001809123,-0.0011920093,-0.00050435634,0.0030550614,0.003039789,-0.003128476,0.0025285226,0.0032884765,-0.00095243193,0.00081501075,-0.000928514,0.002886692,-9.237452e-05,0.0018708869,0.0030628215,0.0013694912,-0.0023698981,-0.00062956347,0.00031392986,0.0006862162,0.0009921885,0.0031609687,0.0014783903,0.0033035644,-0.0028917312,-0.001923494,0.0006723168,0.0012219204,-0.00033406974,-0.0023100658,-0.0010748137,-0.0028456186,0.0031287577,0.0012417042,-0.0026366492,0.0010718906,0.0013922307,-0.0018816778,-0.0019719987,0.00034535737,0.0029960293,-0.003211782,1.2642184e-06,-0.002305344,-0.00030587747,0.0010022284,-0.0016761178,-0.0009240822,0.00022188236,-0.0021182438,0.0024316194,0.001452557,-0.002845043,-0.0007143852,0.0010653696,-0.0027903877,-0.002354682,-0.0028268802,-0.0018313575,0.0029495913,0.002381398,0.00096486585,-0.0028457188,0.0019142983,0.0015542465,4.7379264e-05,-0.0029649136,-0.00062379305,4.307117e-05,-0.002586646,0.0008189032,0.00017624645,-0.0023556359,-0.002772115,0.002002846,-0.0027831197,-0.0018635778,0.0018550544,-0.0001557583,-0.0010249321,-0.0017465529,-0.00040513047,0.0017632782,-0.0019968364,-0.0016761053,-0.0016419904,-0.0015901366,-0.0026496183,-0.0032476608,0.002531191,0.002663864,-0.0014446906,-0.0030946978,-0.00063259015,-0.0012201522,0.0030233685,0.0009727535,-0.0019972983,-0.001121453,-0.0033044855,0.00065124384,-0.0013194816,-0.00090422685,0.0017241411,0.0025446243,0.0014656754,-0.0022823028,0.0022367537,-0.0032194995,-0.00233464,-0.0026659174,-0.0007604807,0.00016717154,-0.0012623493,0.0006109517,0.0030483184,0.0022334303,-0.00035163082,0.00303437,0.0005218268,-0.00065664575,-0.0021967592,0.0021614034,-0.00302742,-0.00063998,0.0025550344,-0.00086642255,0.00053076015,-0.0024475043,0.0016710343,0.0024469395,-0.0030995018,-0.0010884969,0.0026466812,0.00097418606,3.748632e-06,0.00011232226,-0.0032777619,0.003316947,-0.00066829566,-0.001639533,0.0009202845,0.00033655064,-0.0019751831,0.0019309205,-0.00084339624,-0.0020680155,0.0024020616,0.002141664,0.0029333918,0.0003778628,0.00017433109,-0.0026199797,0.0015498176,0.0031066868,-0.00022685505,-0.0005914285,-0.0012831957,-0.00014287319,-0.0025441214,0.0019115489,0.00049866893,0.0030982345,-0.0021449996,-0.0016955072,-0.0020624667,-0.0024296017,0.00093015854,0.0016338369,0.0004491636,0.0011756611,-0.0031281796,-0.00035964878,-0.0025887098,0.0009830876,-0.00088743295,0.0029484942,-0.0011574074,0.0022892065,0.0013786143,0.00045647126,-6.2438357e-06,0.002739327,0.00080297753,0.002754113,0.0011214105,0.0018162781,0.0017083889,-0.002552174,-0.0019349927,0.00041772486
fever,6.4769585e-05,0.0007151123,0.0003552143,0.0025288984,-0.0014738981,0.00010819912,0.0023355118,0.0007505981,0.0014142501,0.0014344259,-0.00042188208,-0.0027741918,0.001014752,-0.002957714,-0.00088695326,-0.0031306816,-0.00015400529,-0.0026210973,0.0024713255,-0.001630106,0.0033061,-0.003010755,-0.0014373919,0.00064297556,-0.0009991435,0.0004819278,-0.0012269481,-0.000298057,-0.0019091221,-0.003273671,0.0021130661,0.00012788494,0.0021698386,-0.002490876,0.0012211836,-0.0032992954,0.0025369104,0.0019748488,-0.0020391599,0.0027376867,-0.0018600158,-0.0028511996,0.0005000953,0.0010599876,-0.0026988669,-0.0029780876,0.0030571076,0.00054792484,0.00029144206,0.0008260775,-0.0011690478,0.00057834666,0.0006526943,0.003268667,-0.0018693769,0.00075767556,0.002102381,-0.0022257774,-0.00297793,0.002885406,0.0022793503,-0.0013399248,0.0019141149,0.0002628398,-0.0016702279,-0.0004499189,-0.0016327882,0.0020449257,0.00065395515,-0.002773313,-4.875342e-05,-0.0008825803,0.0022021756,-0.0003818965,0.0025553675,0.0006494252,-0.00127684,0.002719386,0.0009831786,-0.0013233459,-0.001866614,-0.0010297557,-0.0017115235,0.0011467071,-0.0030942115,-0.0019402842,0.001113741,6.5883396e-05,0.0019983673,-0.0012018597,-1.99159e-06,0.0008250006,0.0018202185,0.00053712924,0.0032720314,0.0012394043,-0.0023940594,-0.00046869158,-0.0027893765,-0.0017756912,-0.0007317992,-0.0032358833,0.0030984299,0.00067732256,-0.00038706063,-0.001834569,-0.0028366104,-0.0033011583,0.0029814616,-0.0008331418,0.0015307923,-0.0015057882,0.0033193529,0.0012182402,0.0003418978,-0.0013480346,0.00040354053,-0.00088226795,0.0024502461,0.0014927511,0.00032889406,0.0011610293,0.0012381169,-0.0022617916,0.002976921,0.00057874364,-0.0019291547,0.002885561,-0.00043049257,0.0027290126,-0.0005022903,0.0023292173,0.0009087988,-0.0014532431,-0.0012493094,0.0030639274,0.000530622,-0.002002337,0.000116540985,-0.00065413275,0.00052817503,-0.0025724391,0.0024613624,0.0004374087,0.0026250656,0.001484348,-0.001464624,0.0012508937,-0.00021282832,-0.0032854164,0.0027473767,0.0032164578,0.0032177968,-0.0012666015,-0.0028165411,0.0016092348,-0.002551827,0.0028440172,0.00092008355,0.0018677791,0.0020388314,0.00015493591,-0.0006982982,0.00025772414,0.003278653,-0.0023748453,-0.00051748473,-0.0007861805,0.0016220026,0.002150013,-0.0013773465,0.0012078898,-0.001493709,0.0010901554,0.0027228245,0.001209536,-0.0015242704,-0.0010030548,0.002622135,0.0032013536,0.0019390313,-0.0010913451,-0.0006084275,-0.0020857977,-0.0014318582,0.0011247874,-0.002162582,-0.002205387,0.0027038066,0.0031684872,0.002713528,0.00050347805,-0.0029319632,-0.0025323888,0.00052402617,-0.003175877,-0.0024700698,0.0006747079,-0.00097372296,-0.0030523369,0.0021384775,-0.002983714,-0.0024484908,-0.00058371463,0.0005660029,-0.00034474014,-0.0017347578,0.0021930838,0.0029276037,-0.0024706991,0.003268522,0.0024555493,-0.0024869083,-0.0006333192,0.001417346,0.0023532016,-0.0012212289,-0.0023243607,0.001574945,-0.003012869,-0.0019501011,-0.00042782704,0.0018269726,-0.001895647,0.0015949286,-0.00014498194,0.0008890879,0.002134643,0.00047254364,0.0025695248,-0.000107467175,-0.002754568,0.0030594997,-0.0016194009,0.0015739687,-0.0013009278,-0.002443173,-0.0021708831,0.0015591113,-0.0002198108,0.00048675656,-0.002976093,-0.0017155175,-0.0020181409,0.0028042626,-0.002899144,0.0016749481,-0.00028711717,6.312569e-05,0.0029332526,-0.0011951459,-0.002312446,0.00025452653,0.0025809451,0.0030402879,-0.0012282372,0.0009109358,0.0016475371,-0.0017640161,0.0022841783,-0.00215099,0.00070028106,0.001529086,0.0014617041,-0.0015554281,0.00088080723,0.0024366546,0.002870563,-0.0031708435,0.0018582491,0.0016560212,-0.000531586,0.0030622948,-0.0013936702,-0.0005829076,-0.0022877692,-0.0012588918,8.089185e-05,-0.0010905111,-0.0018057545,0.0021896248,-0.0017676187,-0.0021072102,0.0025469891,0.0032170613,0.0013316397,8.775393e-06,0.0002630973,-0.00032051763,0.0022875508,-0.0020843316,0.00016920328,0.0014307165,-0.0007038045,0.00029796083,0.0012367137,0.0032366845,0.0007252534,0.003166721,-0.001943281
renal,0.0015970105,-0.001204602,-0.0014189683,0.00040183344,-0.0013817817,-0.0018871988,0.0010539223,0.0028031657,-0.002195313,-0.0030461214,-0.0011116471,0.002506602,-0.0032315068,0.003196975,-0.00013756054,0.000766542,-0.00061874423,-0.0019199084,0.0010295245,0.0020595435,-0.0023577162,-0.00038574144,0.00052691624,0.0014179138,0.0023912173,-0.0011882347,0.0024056449,-0.001857436,-0.00073422614,0.0030247257,0.0018002726,-0.0028158233,-0.0005519852,-0.0029487398,-0.0005531873,0.0018850634,-0.0024595782,0.0018325927,0.0020320127,-0.0012534994,-0.0032038447,-0.0008403975,-0.0008599532,0.0012511555,0.0029803822,0.0006707779,-0.00068665546,0.0009984437,-0.0022602268,-0.00042780885,-0.00048497244,0.0031961969,-0.0019405487,-0.0023539914,0.00077571336,0.00089987076,-0.002381864,-0.0019506799,-0.00038885573,-0.0011022191,-0.0029926633,-0.0013467845,-0.0009943957,0.0021771935,0.00032490966,0.000538042,0.000102965685,-0.0011324253,0.0010263665,0.00024329688,0.0019960902,-0.0002639794,-0.0029664843,0.00027808157,0.0033089207,-0.0017459297,-0.0017478013,-0.00084714085,0.0028575251,-0.00024069336,0.003136324,-0.0027889933,0.0030028976,-0.003212777,0.0030754195,0.00062988023,0.00086877355,-0.001953684,0.0028164217,0.0020111538,-0.0018175358,-0.0031634804,0.0023212489,-0.0018371745,-0.0031023363,0.00087213825,-0.0016579019,-0.0024579186,0.0032452366,-0.00051876897,-0.000509649,-0.0013412652,-0.0014479287,-0.0015478907,-0.0018761385,-0.0017805111,-0.002668261,0.0031768053,0.0021254036,-0.0011926477,0.00082799536,-0.0025424112,0.0025152666,0.0027663594,0.00026292354,-0.0022684,-0.0009794142,0.0015772199,-0.0009732291,0.0010361503,0.003137786,0.0014558843,-0.0017108715,0.0018252569,-0.0009634944,-0.0021169516,0.002345381,-0.0030960715,-0.00037314786,-0.00045651587,-0.002809872,-0.00036354095,0.0018668708,-0.0017581874,-0.0023494998,0.0020750929,-0.00114414,-0.0026096087,9.909734e-05,-2.055826e-05,0.0025113923,0.00017640612,0.0026207804,-0.00327226,0.0013495435,0.0020638662,0.0003306236,-0.00095170585,0.00033975628,-0.00028393793,-0.0027059757,-0.00228034,0.00038185497,-0.0006645822,0.0031826238,-0.00031053837,0.002020896,0.00067333377,0.002695579,-0.0030809978,0.00079568016,-0.00048521618,0.00070796337,-6.028783e-05,-0.0022145817,0.0030243304,-0.0009401979,0.00062912225,-0.0021537403,0.0012549175,0.003323351,-0.00039627356,0.0021897894,-4.0406438e-05,0.002632254,0.0032235547,-0.00012830799,-0.0005697856,-0.003170488,0.0032926127,-0.0008422427,0.0007359998,-0.000567135,0.0027804815,0.0027763238,0.00052005745,0.00096953067,0.0021536201,0.00074126077,0.0021396598,4.4802287e-05,-0.00075673405,0.001766356,-0.0011330813,-0.0008722746,0.0029230753,-0.0030491364,-0.0011415905,-0.000977751,0.0018912903,0.002640383,-0.002153843,0.0019290518,-7.299964e-05,-0.0030129706,-0.0008210734,-0.0005263424,-0.0015011501,-0.0002656022,-0.0017394572,0.0019874147,0.0030928454,-0.00053265085,0.0011218191,-0.00025658333,-0.00024064138,-0.0023394348,0.00046976903,0.0012756967,0.0023133494,0.00219067,0.0011682931,0.0015462425,-0.0024786347,-0.00047982065,-0.0019350483,0.0022710378,0.0026058462,-0.0014299805,0.0003921403,0.001716028,0.0006084431,0.00025848066,-0.002247201,0.0032697855,-0.0024132994,-0.0020175024,-0.0018948407,-0.0021223903,-0.0011768151,-0.003118229,0.00039525313,-0.0012590114,-0.0008392902,0.0019302919,0.0011807194,0.00061437715,-0.00045602646,0.0033053712,0.00010262182,0.0016698475,0.0030152027,-0.0032510997,-0.0030477196,0.0032827314,0.0009048218,-0.0006221071,0.0015829776,-0.0014558235,-0.0021401816,-0.0027347535,0.0024146866,-0.0008050981,-0.0025284272,-0.0019833315,0.0020551689,-0.0008211708,-0.0020417362,-0.00055410847,-0.00049023353,-0.0010899194,-0.00070198847,0.0013685364,0.00047823967,-0.001143061,0.0009025042,0.0017597012,-0.003062859,-0.0025318426,0.002095692,-0.0029827424,0.00017850465,-0.0029970233,0.0027985007,-0.0014432978,-0.0022022198,-0.0004737478,-0.00036495173,0.00250612,0.003031258,-0.00010997359,0.0009023999,0.0015834403,4.595093e-05,-0.0019302036,-0.0001917925,0.0007272465,0.0027586368,-0.0011934707,-0.0032750613
liver,0.001791966,0.0032991401,-0.0023591623,-0.00018756057,-0.0016910502,0.0021458191,0.003243381,-9.029685e-05,0.0017094153,0.0021736645,0.0014846554,-0.0026724832,0.0010414204,-0.0005004357,-0.00072007213,0.0017951963,-0.00044019314,0.0033126678,-0.00020687899,8.398386e-05,-0.00075840973,-0.00285482,-0.0032779502,0.0016496753,-0.0022027588,0.0009665662,0.00090000307,-0.0023586592,-0.0010432154,-0.0019581073,-0.0028768375,6.216082e-06,0.0032558874,-0.0022257192,-0.001468598,0.0027842917,0.0031175404,0.0032644027,-0.0033183023,0.0017035407,-0.0022136522,0.0023145613,0.002036268,-0.0011343969,0.002305978,-0.0026085128,0.0015155582,0.0015569545,0.0019860063,0.001959417,-0.0008679306,0.0012880797,-0.0020562485,-0.0021552467,0.00091280154,-0.003128744,-0.00011173615,0.0003901583,0.0026761533,-0.0023556952,-0.0007791183,-0.0013772481,-0.0017563397,-0.00015901861,0.0015441417,-0.0016574827,-0.0005369982,0.0028966635,-0.00043896903,-0.0012168131,0.0024905666,0.0004311152,-0.00011868404,0.0031322213,0.002699076,0.0011525707,0.0011075939,-0.0007618537,0.0027018478,0.0017431851,-0.001793995,-0.0020541088,-0.00019595129,-0.0025977711,0.0011384505,-0.0030910394,-0.00053672073,0.0011343951,0.0010162864,0.0010392013,-0.003019329,0.0011532409,0.0017756984,0.0011721601,0.0026171468,0.0005661361,0.0020959827,0.0029502888,-0.00030160256,-0.00024282139,0.0007434951,-0.0025369911,0.0019179144,-0.0016699549,-0.0010819177,-0.0006209282,0.00276165,0.00075422897,-0.00032233025,-0.00093594956,-0.0007015,-0.0004147115,-0.0016928967,-0.0013604972,5.426015e-05,0.0015252196,0.0005900539,0.0022819687,0.00024122225,-0.0010934942,-0.0024673434,0.0020120621,0.00235064,-0.0020213248,0.0015500286,0.003177996,-0.0021103548,-0.0009792526,-0.003040212,0.0010984625,-0.0011342351,0.0006938559,0.0031454118,-0.002799238,-0.0031175555,0.0005945963,-0.0026834952,-0.0030426984,-0.0031371005,-0.00011912931,-0.0003678866,0.00023139361,-0.00045666334,0.0030471918,0.002955411,-0.0021368337,0.0028813127,-0.003010247,-0.00044644627,0.0008314637,-4.1395142e-05,-0.0012951547,0.00013276155,0.00034912012,-0.003144939,-0.0016290274,-0.0025910642,0.0012594861,-0.0003171602,-0.0024912902,0.0018615022,7.544384e-05,0.00088470307,0.0018282591,-0.0014362397,0.002599938,-0.002618573,-0.0011524367,-0.002476671,0.00034644367,-0.0025045094,0.0030360287,0.0018475014,-0.002402197,0.0020516918,0.0022112147,-0.0024813924,0.0015306049,-0.0025810932,0.0031264026,0.0015513353,-7.736222e-05,-0.003000118,-0.0003046713,-0.00012111695,0.00031039998,0.0028987566,-0.00090793177,-0.0029104145,-0.0029688226,-0.00036319694,0.0004697994,1.63399e-05,-0.0007291643,0.0028701252,3.077833e-05,0.0021507356,0.0013185779,-0.002409728,-0.0007075773,-0.0026084096,-0.0022478579,-0.0010583167,0.002208777,-0.00029915234,0.0029822553,-0.0007673374,-0.001782133,0.00128434,0.0007356336,-8.627084e-05,-0.0008354301,-0.0020003105,0.001346847,-0.0025331054,-0.003004583,-0.0030609195,0.002791761,0.0013106161,0.0023617363,0.003314695,-0.0024342975,0.0013070032,0.0009203545,0.0020328874,-0.0011468059,0.0031168475,-0.0019528557,0.0023410362,0.002326561,-0.00013141807,0.0016946013,0.0022138536,0.0005199675,0.0024573696,0.0008241038,-0.00050195726,0.0024578727,0.0015578591,-0.0010895452,0.00057428866,-5.117685e-05,0.0016685532,-0.0017845621,-0.0013917161,-0.00032270994,0.0012950266,-0.0022101668,0.0026092455,-0.0010342713,0.0019201685,0.0009559775,0.0022858232,-0.0014774299,-0.0011006882,0.0010108694,-0.0009138821,0.0019895372,-0.0020206152,0.0008531798,-0.00021426284,-0.00017386356,0.0008715284,-0.0007876542,-0.0014463323,-0.002889251,0.000840593,0.0017867422,-0.0019737587,0.0030278086,0.0013299367,-0.0017206725,-0.00043551394,0.0012987051,-0.002297756,0.0007056053,0.0018476474,0.0020981093,0.0017864375,0.0012034441,-0.000922729,-0.0020277833,0.0027248363,-0.0024349233,-0.000535457,-0.001081948,0.0021238409,-0.0020892194,0.0011447911,0.0006693913,-0.001348755,-0.002732016,-0.0026972902,0.0011671521,-0.0031909593,0.0019093464,-0.0009502286,-0.0030659293,-0.0016877878,0.0025946836
pulmonary,-0.00057562656,0.0021415816,-0.00308118,-0.0030657817,-0.0017237185,0.00030238653,-0.0023754023,-0.0031279905,-0.0029804092,-0.00016647347,0.0024723688,-0.0028073173,-0.0017965146,0.0005019359,0.0011205976,-0.0028468177,0.0026439265,-0.0027378446,0.0015863271,0.0031273342,0.0018845135,0.0020514554,0.0027525672,0.0011581257,-0.0023728886,0.0019064466,-0.0027890368,-0.0019363293,0.001971208,-0.0026645379,-0.0019589223,-0.0011872299,0.0011315687,0.0017482734,0.0006818217,0.0017097414,-0.00087232754,0.0014353688,-0.0023464826,-0.00055549224,-0.002574942,6.8709276e-05,0.0015473287,0.0015944748,-0.0015283976,0.0006055644,0.0026299045,-0.0018331191,-0.0012618435,-0.00020020908,-0.0015546237,0.002888978,0.0024973166,0.0030847522,0.0031189255,-0.0027819749,-0.00016259373,-0.00252719,-0.0016004854,-0.0029470827,0.0011552894,2.9187824e-05,-0.0023308415,0.002663673,0.00030663452,0.00011123308,-0.0011924346,-0.0011107037,-0.00088552746,0.0025311431,0.00079527823,-0.0017172616,0.0015878396,0.00030006154,-0.00091579085,0.0025960123,-0.0013464672,0.0024782075,-0.00142224,-0.002412777,-0.0014936725,-0.001304515,-0.00023280538,-0.00055890006,0.0017265761,0.0018376036,-0.00059457275,0.0012581644,-0.00067174423,0.00023752375,-0.00043699026,-0.0008239565,-0.0015905951,-0.0014107561,4.6475336e-05,0.0005724168,-0.0031452845,0.0020283293,-0.00056182465,-0.0009764432,-0.0016118571,-0.0014469486,-0.0015772055,-0.0032762764,-0.00027074423,-0.0026272677,-0.0015947068,-0.0024612013,0.00329441,-0.0004255701,-0.0025876171,0.0018454395,-0.002704322,-0.00062365463,0.00089711876,-0.0023621852,-0.0029326063,-0.0022362007,0.0024974218,0.0030114239,0.0013243328,0.0008073524,0.0013904946,-0.0013659174,0.0032649953,0.0023179585,0.0013877215,0.0029682613,-0.0028031273,0.00032626805,0.002983113,-0.0003084908,-0.0022482725,-0.00078744965,-0.00093998713,-0.0008114854,-0.00061245187,0.0024251281,-0.00011078939,0.0014152222,-0.0012545269,0.0027282946,-0.0021753882,-0.0031264662,-0.0013647262,-0.0024730668,-0.001637021,0.0001615283,0.00080174627,0.0005714512,0.0016764216,-0.00049228815,0.0007432735,0.00012609425,0.0026093451,0.0026888507,-0.0006842533,0.0004073313,-0.0020366483,-0.0015741423,-0.002334636,9.293187e-06,-0.0016467925,-0.0013341611,0.000483063,0.0008772779,-0.0030387028,0.0005766496,0.0016903944,0.0014160757,-0.0009868789,0.003168458,0.003153917,-2.5336732e-07,0.00028357303,-0.003084413,-0.0016127365,-4.9954964e-05,0.0013422496,5.6916626e-05,-0.0029056824,0.001935505,-0.0024897694,0.0028357354,0.0018258998,-0.002254165,0.0009589463,0.0026103195,-0.0020583076,-0.0022042512,0.0030440034,0.0006139262,0.0032295692,-0.0033243774,-0.00048718418,0.0022961202,-0.0004732513,-0.00058212416,-0.0023816144,-0.0018828755,-0.002203342,0.0029808332,-0.0005441603,-0.002763501,0.0026630666,-0.0009972746,-0.00045315074,-0.00023267834,0.0009425651,-0.001564017,-9.055157e-05,-0.0009682898,0.0029292938,0.0023118479,0.00037278142,-0.0020487276,0.0010417389,0.0003595875,-0.002072913,-0.0019186399,-0.0010148919,0.0007827447,-0.0027288017,-0.0016723495,0.0026861548,-0.0012512972,0.0026701433,0.00017023436,-0.0018523455,-0.0016464804,-5.9981387e-05,0.001546238,-0.0020481055,-0.0018346147,-0.0022905767,0.0022600056,-0.00080958754,0.0013305546,-0.00053494313,-0.0025018344,-0.00038762932,0.00013764788,0.0011874718,-0.002881041,-0.0022579154,-0.0022008682,0.0010148769,-0.0012554807,0.0003460097,0.0013684119,0.0015114719,0.00079636544,-0.0009449402,0.00021939751,-0.0018310087,-0.0021320253,0.002921663,-0.0013495281,-0.0031431862,0.0012287586,0.0028470778,-3.85666e-05,0.00076383125,-0.0012206967,-0.0014224844,-0.0028837377,-0.0026154849,-0.0030192642,-0.0020169986,0.0028497563,0.0031342572,-0.00057627336,6.060545e-06,0.002615078,0.0004557426,-0.001699898,0.0009035172,0.000609851,-0.0012652087,-0.0016539142,0.0032120494,0.002556257,-0.0028620004,-0.0018417913,0.0004645054,0.00031528866,-0.0028130708,0.0031279905,-0.0017903647,0.0015344186,0.003090315,0.00038752693,0.0014262332,-0.00091303006,-0.0032451146,0.0002170649,-0.00034566582,-0.0033063146,0.0023520344,-0.0024506322
thrive,0.001705829,-0.0014706949,-0.0030654713,-0.0030246335,0.0020793725,-0.001746705,0.0017524738,-0.00052511075,0.0032324735,0.0023857378,0.0033042536,0.002791047,-0.002622825,-0.0031954944,-0.0018575337,-0.0002717219,0.0016689564,0.0012216095,-0.0006751652,0.0016816428,-0.0011301992,-0.0022703866,0.0015658403,-0.0032849172,0.0002958033,-0.0016733367,0.002532913,-0.0012421454,0.0009401696,-0.0020913116,0.0032073746,-0.0018656414,0.0011898463,0.0010807627,0.00297953,-0.0018540057,-0.0014523345,-0.0020778687,0.0020466093,-0.0015283782,0.0016040085,-0.00029785626,0.0024235416,-0.0020163045,-3.3330434e-05,-3.058926e-05,-0.0028437113,0.0029120625,-0.00070318737,0.0021414545,3.0038533e-05,0.0016795254,0.0007346674,0.0029509529,-0.0027764535,0.0028141574,0.002887437,0.0003516274,0.0014749262,0.0012774798,0.0013514357,-0.0009821969,0.00094379415,0.00025629264,0.001607882,0.0028046123,-0.0025850746,5.3375876e-05,-0.0029124033,-0.0005255357,-0.0030104402,0.0010515235,-0.00052591134,-0.00023003531,0.0021432699,-0.002698598,0.0003802542,-0.0008048242,-0.0012434791,-0.0024242108,-0.002658532,0.002763654,-0.002480539,0.0016094466,-0.0012593204,-0.0003999036,0.00093718653,-0.0028651636,-0.00188368,-0.0025760066,-0.0031356392,-0.0015831739,-0.0010535665,0.00016221734,-0.00023072104,-0.0026232249,-0.0012648616,-0.00091004797,-0.0021265487,-0.002122447,-0.0008700361,-0.0026415044,-0.0027546042,-0.00252861,0.0011883137,-0.0025297245,-0.0012345345,0.0022068718,0.0024675853,-0.0021335992,0.0022637374,-0.0025912689,4.3141386e-05,0.0022092338,-0.0009445312,0.0030732758,-0.000112266636,0.0015612509,0.0023160828,-0.0028479148,-0.0020228394,-0.002428862,-0.0003913427,-0.0023633845,3.6352947e-05,-0.0026783408,0.00017559402,-0.00012703524,0.002153684,-0.002959892,-0.001054325,0.0019671707,0.0030748816,-0.0005956145,0.00025589432,-0.002027911,0.00027794272,-0.0027149124,-0.00255016,0.00046049332,-2.7233118e-05,0.0018528672,-0.0032443572,0.00054867845,0.000528252,-0.0017512826,2.1731743e-05,0.0020188508,-0.002198321,9.733537e-05,0.0012955506,0.00056386634,0.00095361285,0.002719293,0.0022262922,0.0011682886,0.0026545667,-0.0025570397,0.002507879,0.0013000948,-0.0019661793,-0.0013978131,0.0021340335,0.0019326794,-0.003285678,0.000415944,-0.00013411221,0.00026834762,0.0023581707,-0.0023895218,0.0032127467,-0.0031520787,0.0020736365,0.0031655135,-0.0012777827,-0.0031320609,0.0020631487,-0.0029901338,-0.002762695,-0.00027697798,-0.0022137263,0.0029115283,0.002614903,0.00027683767,0.0026619672,0.003281174,0.0017315252,0.0014391852,0.0017868811,0.0021373124,0.0015777915,0.0021297885,-0.0024828753,0.002954454,0.0027614008,0.0031271,-0.0030086497,-0.0011493183,-0.00011760395,0.001394964,-0.0027445462,5.4865086e-05,0.002007197,0.003190795,-0.0009502914,0.0006068825,0.0021085173,-0.00066664367,0.0006540058,-0.0031105608,0.00023788873,0.0015283143,0.0015025593,-0.003244827,-0.0017148363,0.0009843548,0.0005284609,-0.0015702299,0.001937456,0.0011673975,-0.0026034892,0.003279381,-0.002570974,-0.0010086346,0.0032496294,0.00038261732,-0.001847973,0.00037434054,-0.0013640254,-0.002243652,-0.002584079,0.0015889901,-0.003015439,0.0013541465,-0.0018386088,0.0018116151,-0.0014562992,-0.0018596784,0.002113725,-0.0028851815,0.00044418333,-0.0007044427,-0.0022279979,-0.0025525652,0.0022536593,-0.0014899014,0.0015325679,-0.003221012,0.00063617,-0.00064628193,-0.0019646238,-0.00092602713,-0.0028863475,-0.0011589539,-0.00086217857,-0.00076226424,-0.0016956764,-0.0030662187,0.0017814547,-0.0004379549,0.0020592934,0.0010260035,0.002847729,-0.0011741418,-0.002967238,0.0004414886,-0.002993575,0.0020142945,0.0028160922,0.00017065248,0.0025713996,0.0028412885,0.0013973728,0.0018068742,0.003043327,0.000383384,-0.0027494098,-0.0027755317,-0.00059591123,-0.00021031038,0.0029407202,-0.0031020453,-0.0008646469,0.0030328657,-0.00048015182,-0.00302801,0.00066720706,-0.0019421303,-0.0018245159,-0.002113071,4.4545453e-05,0.0024086114,0.0013750319,0.0027160887,0.0029475691,0.0015076044,-0.0020153113,0.002357716,-0.0031756845,-0.0015976714
gi,0.002673648,0.0026406662,-0.0018066183,-0.002668263,0.0026920063,-0.0012720126,-0.0013557933,0.002405226,0.0017985102,0.0012671954,-0.00040531947,0.002887384,0.0028215551,0.002321364,0.0030213455,-0.00192841,0.000336713,-0.00054755865,0.0021172096,0.0032636246,0.0017256712,0.0013526327,0.0021842048,0.0019595297,3.929931e-05,-0.0027813902,-0.0007354856,0.0030153668,-0.0016986704,0.0003277403,0.0016224387,-0.0023042958,0.0027356998,0.00049603474,0.0008026367,0.0027701647,0.0004928258,0.00028822868,-0.0031498524,0.0032875277,-0.0032842618,0.0028573691,0.0016758414,-2.2315493e-05,-0.0026252158,0.003122384,-0.00045329434,0.0017936873,-0.001015934,-0.0016301038,6.380449e-05,-0.0026804872,-0.0022241045,-0.003153603,0.0017849315,0.00016146779,-0.00031441738,0.0017116108,-0.00065417244,-0.0024658744,0.0009513483,-0.0019874857,0.00015813265,0.0031745061,-0.0003193504,0.0020541628,0.0014968567,-0.0011814183,-0.0017416521,0.0029523429,0.0007081654,-0.00014140495,0.00029157478,-0.0016511647,0.0011783596,-0.0010317898,0.0013982899,-0.0015243408,-0.00026258855,0.001328907,-0.0023833006,-0.00084722386,-0.0029108396,0.00053535483,0.0006790038,0.00080439984,0.0003520055,2.9626537e-05,0.0007369913,-0.00032030957,0.0019736185,-0.000982992,-0.0016969925,-0.0017723492,-0.0032170434,-0.0026997381,0.00070495455,0.0013329204,-0.0019162266,-0.0032173824,-0.0020604804,0.0015521061,-0.0030146176,0.0016909644,0.0021161935,0.0020274273,-0.002541494,0.00093926006,-0.0018283285,0.0030252414,-0.0014392689,-0.0007860734,0.0017359556,-0.0002743295,0.0017058738,-0.0014088249,0.0016617004,-0.003273899,0.0020368972,-0.00043113524,-0.0018672497,-9.781924e-06,-0.00039747165,-0.00024410994,-0.00059599977,-0.0030815073,-0.0025940915,-0.0022728913,-0.0028803651,-0.00151091,0.0030696641,-0.00059531763,-0.0025342745,-0.0019710364,0.0012037003,-0.00090071384,-0.00052575336,-0.0014198344,0.0019858128,-0.0026252498,-0.00250407,0.0025108366,-0.0023142733,0.0007188023,0.00012679341,0.0032145537,0.0014056882,0.0006951934,0.0009212945,0.0007676642,0.00073349837,-0.00092219765,0.0013464111,0.002043526,0.0029824944,-0.00024877125,-0.00041154405,0.002156904,-0.0028328276,-0.00020767782,-0.0022320524,0.0015994032,-0.002996268,0.0010894516,0.002992877,-0.0006896428,-0.0029447428,-0.0027392204,0.0010839103,-0.0017772401,0.0021396966,-0.0003921917,0.0026190327,-0.00016251675,-0.0020822699,-0.0018998047,0.00025604127,-0.0016035296,0.0021915778,-0.0011650616,-0.0018869096,0.00032009743,-0.001622014,-0.0027343677,-0.001763627,-0.00061328476,0.00014556908,0.0012212975,0.00227795,0.0022414753,0.0019541509,0.00010761119,-0.0019475297,0.0030059419,-0.00020960186,0.0015673653,-0.0004751145,0.0019271052,0.0017668627,-0.0024330558,-0.0009155501,4.527563e-05,0.00067318423,-0.0030995407,0.0016121045,0.0011141072,-5.7679383e-05,-0.001169243,-0.0025313578,0.0025297042,-0.0028593154,-0.0024643973,0.0014838869,-0.0028353848,-0.001093385,-0.0007074329,-0.0006377107,-0.0022845701,0.0014219942,0.0003363396,0.0012302346,-0.00045350258,0.0023030166,-0.003179204,0.0019414973,-0.0017200494,0.00057517464,-0.0023157264,-0.000830563,-0.0021432661,-0.0011105947,0.0032531423,0.00089691527,0.00053048675,-0.0020334688,0.0018677989,-0.00270661,-0.0007714994,-0.0021580239,-0.0021335366,0.00077290554,-0.0010949494,0.00081322686,0.0013202542,-0.0020930953,-0.00057738315,-0.0009176295,-0.0032704063,-0.0032723832,0.00037243252,0.0014609073,8.196223e-05,-0.0016263436,0.0012029967,0.00055101974,-0.0031558764,0.002404117,0.0025963895,-0.0025913995,-0.00025465296,0.002024192,-0.00091820385,-0.000114701375,-0.0014183464,0.0020317286,0.0023269295,0.00070014305,-0.0015701583,-0.0006220971,-0.0013321202,-0.0032664977,0.0026038862,-0.00019914385,-0.0002053424,0.0023755133,-0.0030158565,0.002124169,-0.0025204169,-0.0018002872,0.001690514,-0.0011719384,-0.001158778,-0.0020995338,-0.001301099,-0.0008894521,-0.0013613007,0.0031464563,0.0031497641,-0.00012287036,-0.00010200794,-0.0018732658,0.002646891,-0.0016415595,0.0019633884,0.003042936,0.0019216432,-0.00031386784,0.0018449059,0.0023238445,-0.0012905186
pain,0.00021863938,0.002176324,0.0019606745,-6.245486e-05,0.0007962137,-0.0021704468,-0.0031109184,-0.0016308246,-0.0018047546,0.0001890736,-0.0013266646,-0.00014866349,0.0025530143,0.0032411513,0.0026244547,0.00078901945,-0.00089044205,0.0008109329,-0.0008824497,-0.0029818632,0.0022922282,-0.0028880583,0.0012716326,-0.0013170264,-0.0018442544,-0.00035171717,-0.0021972908,0.0028576294,-0.002289207,-0.0030089873,0.0019247909,0.0014966576,0.0015862139,0.00082016626,-0.0012539783,-0.0017019387,0.0005989322,0.0027621547,-0.001895181,-0.0007863321,0.0006079149,0.0022643085,-0.0021352023,-0.0015053493,-0.0008763553,0.00047293378,0.0017926696,0.0018674968,-0.0029196092,0.0024385268,-0.00082366215,-0.00095788063,-0.0029598074,-0.0019283121,0.0031438663,0.001056462,-0.0026954426,0.0009544101,-0.0023467576,-0.0030349912,0.0012920176,0.00067431515,0.00039429712,0.0029586982,0.002091032,-0.0016842971,0.0009261516,0.0008448005,0.00080046436,0.0027596597,-0.002299559,-0.0007452264,0.00035261,0.0021146294,-0.0002196235,0.0026629386,-0.0015668899,-0.003014743,-0.0023689345,-0.0013415087,0.0031965878,-0.0017231744,-0.0016109032,0.0027549402,-0.002483757,0.0006699923,0.0018930518,-0.0025038808,-7.019303e-05,-0.0008047268,0.0018539565,-0.0015083894,-0.002206867,0.003307847,-0.001548242,0.0025399453,-0.0028156491,0.0023506905,-0.0011218336,-0.0025918197,-0.0003964381,-0.00079580146,-0.00058938144,-0.0003934677,-0.002165179,-0.0011958949,-0.001064314,0.0025679835,0.0019411407,-0.00028664264,-0.0016097242,0.001765008,-0.0029603885,0.0005531939,0.001342816,-0.0006465027,-0.0015087135,-0.0027470507,-0.002759741,0.0023728188,0.0012064422,-0.00013035412,0.0032496676,-0.00285545,0.00018948995,-0.00012647524,-0.0026870274,-0.003059014,0.0023953028,-0.001206914,-0.00262176,0.0026740145,-0.0020866087,-0.0010648086,0.0005848603,-0.0011185593,-0.0026633625,-0.0013232845,-0.0030175806,0.00044603355,-0.0015498117,-1.7075912e-05,0.0009208207,-0.000792875,0.002958363,0.0023272207,-0.00020677257,-0.00020562416,0.0002916315,0.0022430907,0.0029969316,-0.00066315645,-0.00054953364,-0.0009851047,0.00015575906,-0.0021581827,-0.00063944794,-0.0028908118,0.0001869999,0.00048085232,0.0012326657,-0.00094690896,0.0019672306,-0.0023561066,0.0032595454,0.00017859046,0.00076071295,0.0014534489,0.000118663556,0.00086753716,0.0005266898,-0.003198194,-0.0010501135,-0.0008634542,-0.003087852,0.0011583038,0.0015991147,-0.0007170849,0.0024730798,-0.00040023285,-9.132832e-05,0.0019212827,-0.0028273787,-0.0023222025,0.0024269128,-0.0021854793,0.002830203,0.0018024232,-0.0026976466,0.0027785636,0.002098087,-0.0022220416,-0.0028443541,-0.0029405192,0.0012894837,0.002108643,-0.00070279907,0.0004526739,-0.0028101453,-0.0017148467,0.0015419753,-0.0030154965,-0.0030885485,0.00033508017,-0.0028908714,-0.0023157944,0.0015799258,0.002661006,-0.002451179,0.0027087221,0.0031256245,0.0015698652,-0.0014811307,0.0032394044,-0.0025838595,-0.0013264159,0.00063528813,-0.0025673963,-0.0033066235,0.0009547021,0.0027471646,-0.0017306063,-0.0014469638,0.0012976766,0.00020324228,-0.0028539214,0.0022070117,-0.001061931,0.0011902776,0.0010640816,0.002974762,0.0029206953,0.0024326197,-0.0027618282,0.00040151997,-0.00032692568,0.0002965799,0.002970914,0.0015824379,-0.0029899206,0.003301928,-0.00030236287,0.00014347219,0.0016709086,-0.0020668323,-0.00014996962,0.0004844457,0.0023459133,0.0014386041,-0.00065620366,-0.0028237067,-0.0012942659,0.0029476401,-0.0031699701,0.003263466,-6.725677e-05,-0.0003701602,0.0032017978,0.0031572902,0.002742564,0.0030340122,-0.0033165757,0.0025040833,-0.0031572871,-0.0025903347,-0.002948517,0.00072215573,0.0024012756,-0.002110692,-0.0008999077,-0.0007919121,-0.001493257,-0.00042604134,0.0016226898,0.0012640534,-0.0010706269,-0.0012183423,-0.0007636418,-0.0010951519,0.0013132568,0.0032374796,0.0026214896,-0.0025181486,-0.0021442957,-0.0030434446,-0.0019717745,0.0012078449,-0.001999917,0.0005845609,0.0029673767,0.0011254422,0.00041384442,0.0029872933,0.0021325087,-0.00047566343,-0.0020569118,-0.000358471,0.0024236436,0.0025102175,-0.0013296143
left,0.0033080752,0.00082307425,0.0017177236,-0.0019007399,0.0014594649,7.383516e-05,-0.003180936,0.0017231605,-0.003026199,-0.0021645543,0.00093114923,0.0031028464,-0.0007131394,0.0023177688,0.0016988801,0.0013408691,-0.0020649943,0.001689778,-0.0027694574,-0.0014449551,0.0018218791,-0.002709672,0.0019111576,-0.0011550433,3.1730455e-05,-0.002461404,-0.0021113367,-0.0011283037,0.002865301,0.0017674199,-0.0032306544,-0.0021883764,0.0011374246,-0.0028422547,0.0022125074,0.0020708493,-0.0030849096,0.0028872292,0.002613502,-0.0005950563,0.00060433237,-0.0018927765,0.0020462992,0.002562123,0.0013634737,-0.002925207,0.0016655261,-0.0009862412,-0.00073092553,0.0020477255,0.0006459735,0.0015343159,-0.0021047927,0.0017399184,-0.0011919371,-9.9934405e-05,0.0020716821,0.0013829607,0.002497426,-0.0013146572,0.0011826281,0.0024368528,-0.0011141861,0.0019286949,-0.0031420512,0.0029630007,0.0012631436,0.0017708883,0.0015419073,0.0014925563,-0.0010946394,-0.0020552578,-0.0007559983,0.00042764272,-0.0009878092,-0.0028117478,-0.0021194087,0.0027815648,0.0031110588,0.0020509379,-0.0013692214,0.00022687299,-0.002857733,0.0022655767,0.00017779409,0.0024594055,-0.0018236034,-0.00093623076,0.00096346985,0.0011443963,-0.0021635205,-0.0024371815,0.0006710598,-0.0029808688,0.0019419506,0.0018448728,-0.0012609384,-0.0018815865,-0.0027773338,-0.0006125364,0.0023206216,-8.198942e-05,-0.0026047067,0.0029542288,-0.0028419013,0.0018236019,0.0021701253,0.00032934247,-0.0029099379,0.0020889337,-0.0026110106,-0.0016644823,0.0032109895,-0.0027524494,-0.0025411153,-0.0016304502,0.0011534281,0.0006264447,-0.0018309052,-0.0011268876,0.0028571517,0.0032673117,0.0033193447,0.0003521162,0.0013452668,0.00046729148,0.00057373213,0.0015939678,0.00073769974,0.000119101474,-0.0010436422,-0.002165184,0.0026688513,-0.0020113133,0.00091298367,-0.00028907892,-0.0012213626,-0.0016556522,0.0010670319,-0.0019607828,-0.002505286,-0.0008923629,0.0015596191,0.002018318,-0.00047239786,0.00241956,-0.0025490178,-0.0015815101,-0.002622303,-0.0020255973,0.002436003,-0.0031227882,-0.002912705,-0.0032601785,0.0030720641,-0.00088113255,0.0003097627,-0.0020611521,-0.0008724963,4.6481877e-05,-0.00085406535,-0.0024451897,-0.002085508,0.0008732511,-0.003199816,0.00037572932,-0.00065994635,0.002753686,-0.0001456006,0.0021043122,-0.002400507,-0.002517219,0.0018425041,0.00031493136,-0.0017002597,-0.0008757704,0.002924168,-0.0030772532,-0.0012169719,0.0003481942,-7.5857904e-05,0.0031748647,-0.00065111375,-0.0023754733,-0.0025810741,-0.0032837403,-0.0026032766,-0.001983819,-0.0019922697,-0.0005017317,-0.00020787775,-0.0015636948,0.00069971045,0.001291898,0.003029686,-0.001556248,0.0017153352,0.002407682,-0.0012594253,-0.0024693476,-0.0011396949,-0.002289064,0.002157808,0.0031207167,0.0027407196,-0.0028461064,0.0016654545,0.0016812508,0.0018790864,-0.002772147,1.1172784e-06,-0.0023003747,-0.0029756506,0.0008267136,0.0033149046,0.0021456885,-0.0023691976,0.0007581039,-0.0013416468,0.0033238854,-0.0029128809,0.0032278204,-0.0021992193,-0.002344318,0.0005149637,-0.00023732963,-0.0028328812,-0.00022160093,-0.000120019286,-0.002077874,0.0019320059,0.0010696056,0.0027921645,0.002458768,-0.0022380466,0.0016070273,0.0018865814,0.0019063951,0.001740626,-0.001630178,0.0014647839,0.0004542355,2.4660958e-05,-0.0021408398,0.0005035497,0.0017439657,-0.00304919,0.0028798592,0.001005077,-2.1627055e-05,-0.001124405,0.00012893297,0.0020460961,0.0016112567,-0.0020257852,0.002609137,-0.00020054755,-0.0027074346,0.0029425737,0.0016757512,0.0012357654,0.0026666943,-0.0024974737,-0.0019826926,-0.0006861561,-0.0013882186,-0.00052708894,-0.00018611125,-0.0028174536,0.0006341776,0.00084138085,-0.00028009608,0.0016153648,0.0004681259,0.0020372516,-0.00074081577,0.0028669357,-0.0005148007,0.0010039886,-0.0012868177,0.0020292199,0.0010241239,0.00019646368,0.0029222586,-0.0026357616,0.0032393055,0.00022319947,-0.0007784919,-0.0013811163,-0.0030485508,-0.00073381694,0.00091217546,0.0021926835,0.003012143,-0.0029389146,0.0030405833,-0.0029385393,0.0012338988,0.0026904559,-0.0008221763
respiratory,-0.0026269706,-0.0027673715,0.00038954403,-0.00025364346,-0.003169938,0.0010253233,0.00075667165,0.0014998327,0.0014693737,0.0010696034,-0.003273079,0.0019186167,0.0014117475,-0.0025857058,-0.0007003405,0.00010823206,-0.00021302215,-0.00032406466,-0.0018450512,1.5839785e-06,0.0014713,-0.00022803605,0.00027401073,0.00069864077,-0.0013139958,-0.0026308824,0.0030430388,-0.0032686945,-0.00082199863,-0.00042608607,-0.0025583918,0.00059540436,0.0026469093,-0.00050873175,0.0027011875,9.942024e-05,-0.0019166297,-0.00066378014,-0.00024239586,0.0020903326,0.002377646,0.0020690234,-0.0020003526,-0.0023223888,0.0020394686,0.00083228666,0.0017910566,0.00016712779,0.002623719,-0.002949504,0.003301274,-0.002745709,-0.0005765407,0.0020841928,-0.003082007,0.0014609165,-0.002324367,-0.0022765615,0.000768021,0.0005726214,-0.00093154743,0.0026261557,-0.0023502617,0.00015443157,0.0029034298,0.00068201293,-0.0022779293,0.001188923,-0.0016865395,0.00019571731,0.0009541388,0.002525453,0.002464965,-0.0016402019,0.003170406,-0.0018300498,0.0025385877,-0.0026575145,-0.0026130409,-0.00035124604,-0.0027106858,-0.0011624,-0.00017133512,2.0626692e-05,-0.0033073847,-0.0021630486,-0.0024838853,-0.00013293991,0.001743967,-2.5978397e-05,0.0033289844,-0.0012922143,0.0026776453,0.0020262522,0.002756345,5.185124e-05,-0.00014882312,0.00063344697,-0.0033188537,0.00302581,-0.0007984866,0.0025083635,0.000699174,0.0009609292,-0.00041955148,-0.0033105565,0.000476007,0.0009594813,-0.00327125,-0.0012977992,-0.000781253,-0.0016775706,0.0013263997,0.00070219114,0.0014463799,-0.0021545677,-0.002003934,0.0015731532,0.0022592451,0.0018347177,0.0016033195,-0.0024082428,0.0027311097,-0.0023110346,-0.0025514127,0.002849548,-0.00081700535,-0.003144552,-0.0010325272,0.001995618,-0.0009603821,0.0016535445,3.4140096e-05,0.0013500943,0.00038847508,-0.0031050208,-0.0012142044,0.0029542148,0.00050894794,-0.001965371,0.0023330473,0.00247181,0.0024080654,9.686461e-06,-0.003040115,-0.0011740535,0.0016985041,-0.0021714072,0.0032516185,-0.0032583945,-0.002706143,-0.0017852564,0.0019846389,-0.0025519254,0.002875243,-0.003283194,0.0011464562,0.0010916005,5.9417043e-06,0.0031885016,0.0017050161,9.26142e-05,0.0016031552,0.0021442506,0.0009886061,0.0031311063,-0.00044449867,-0.0027934865,-0.0014985119,-0.0004823473,-0.0024312239,-0.0005172764,0.0026419677,-0.0016769844,0.0016927538,0.0014576766,-0.00022875603,0.00035026934,0.001904062,-0.002212352,0.0012989291,0.0029704082,-0.0011748563,-0.0025460785,-0.0030700397,-0.0030104786,0.0012957169,0.0017242762,0.0023361596,-0.00049544347,0.00031794727,0.0010264203,-0.0032933878,-0.0031407916,0.0015316444,-0.002805592,-0.0010568014,-0.0014347945,0.0019671002,-0.0011432802,0.0033164555,0.00018487293,-0.0017198818,-0.0012100054,0.00041356517,-0.00179102,0.0024598252,0.003002168,0.0014204022,-0.0024528701,-0.0019788651,1.5988126e-06,-0.00034587109,-0.0018377245,0.0026422013,0.0020709848,-0.0013977846,0.00078271586,0.0016926619,0.0008016463,0.002873909,-0.00043719276,-0.0021938654,-0.00028599097,-0.0027904327,0.0032789237,-0.00286536,-0.00050263514,-0.00095052517,0.0010543317,0.001663562,-0.002735476,-0.0014716128,0.00015810416,0.0013262023,0.0017087952,-0.000464509,-0.00020619629,-0.0026115242,0.0014938728,-0.002529779,0.001092207,-0.001142604,-0.002598664,0.0022967309,-0.00015646908,-0.0031745592,-0.0031231893,0.00020133617,-0.0027312855,0.0012470676,0.0011582196,0.0011193927,-0.0018625102,0.0026439556,-0.0029976403,0.0024899805,-0.00020629066,-0.00050690083,0.0013108104,-0.00081728,-0.001455291,-0.0007949808,-0.0020881484,-0.00012319513,-0.0018095074,0.0015365276,-0.003174055,-0.0014678083,-0.0030581523,-0.00320836,-0.00025613722,-0.0026952734,-0.0018982742,0.00094589824,-0.0004705082,0.0010470032,0.0027592084,-0.0032250432,0.002021571,-0.0026506688,0.0021839556,0.002487737,0.0028594004,-0.002658253,0.0011165198,-0.0026347453,-0.00040889735,-0.0017432815,-0.002850029,0.0016504078,0.0014904117,-0.0013462309,-0.0025953231,0.0011743449,-0.0013021358,-0.0029548386,-0.0014603883,-0.00071709004,0.002929092
sp,-0.0021512152,0.0024547856,0.0020545581,-0.0016451539,-0.0005905354,-0.00083790766,0.0010622303,-0.00013162728,-0.0009437836,-0.0030267332,0.0021383106,-0.0032174357,-0.0028875424,0.00044683233,0.0009937395,-1.1887397e-05,0.0001372595,0.0008807079,0.00059189834,0.0025294535,-0.0011689508,-0.0024294613,-0.0026170732,0.0026505839,0.0006580397,-0.0019456855,0.0021097867,0.0027998195,0.0026582072,-0.0022963327,-0.0017095554,-0.000668648,-0.0021945997,0.0015624956,0.0018705337,-0.0019886727,0.0024143574,-0.0025795116,0.0020585265,-0.001530518,0.0006495027,-0.0010842711,0.0011387776,0.0025740664,-0.00044768545,-0.0016477309,-0.0028418566,0.0012245239,0.0014068063,0.002243617,-0.0014068641,-0.0032589626,0.0022824565,-0.0015080813,0.0014664113,0.0027134852,-0.0013183058,0.0005660035,-0.0011919707,-0.0022205282,-0.001892536,-3.934348e-05,-0.0025209216,-0.0006442109,-0.00081958866,0.0022433347,0.00047909154,0.001955857,0.0012785638,-0.001182866,-0.0016945812,0.0032249708,0.002367729,-0.003041597,0.0017573427,0.002748997,0.0030584498,-0.0026803561,-0.0006701862,0.00040067968,0.0009692075,-0.0005543889,-0.001570431,0.0022036338,0.0023140255,-0.00013709244,-0.001969841,-0.0014277474,-0.0017038382,0.0014082007,0.00019534804,-0.0007765398,-0.0030365982,-0.00048944866,0.0021495572,0.0021181575,0.0014230377,-0.0009547207,0.0030322673,0.00022186818,0.00037166834,0.002051098,-0.00216682,0.0021909084,0.0032652826,0.0012051471,0.0011595632,0.0013847803,-0.00066212233,-0.002692618,0.00048119944,0.0003157469,-0.002273827,0.00066740206,0.0017990355,-0.0024039499,0.0008437174,0.0025839512,-0.00286007,0.00114853,-0.0028555319,-0.0026412162,0.002383984,-0.0025235948,-0.00046243213,-0.0026188912,-0.0026004668,-0.002386975,0.0001300612,0.0006145215,-0.0026205247,-0.0026812484,-0.0010670746,-0.0006376888,-0.002070043,-0.0014078978,0.0011879998,0.0010122181,0.0021900218,0.0014008878,-0.00030696424,0.0009047823,0.0030165927,0.00063782657,0.000616269,0.00034660488,-0.0031232487,0.001777688,0.001679216,-2.4513283e-06,0.0030788698,-0.0019466522,0.0010603247,-0.002614407,-0.002998133,0.0006776456,0.0015489039,0.0020126249,-0.0029321462,0.001466721,0.0007763922,0.0013771708,-0.00023369523,0.0018705329,0.0024198634,-0.0027929153,-0.0033225806,0.0023394758,-0.00034052035,-0.003118008,-0.0013959674,0.0003919911,0.0028146037,-0.000560378,-0.0003540734,-0.0024425013,-0.0025619515,0.00048334216,-0.00014890618,-0.0025435525,0.0002879379,-0.0029991597,-0.000827382,0.001400051,0.0003514251,0.002606267,0.0022122473,-0.00035668834,0.0016241843,0.0020174964,0.002895757,0.0030420676,0.0016308888,0.0015387028,0.0024019037,-0.00053049513,-0.0018720634,0.0029592765,0.0004018443,-0.0016844391,-0.00032117363,-0.001747155,0.003049636,0.0011238283,0.001406844,0.0021757868,0.002720837,-0.0016029653,-0.0021192161,-0.0012481215,-0.00124791,-0.003163022,-0.00020036753,-0.0026988161,0.0032635625,-0.0011537944,-0.002121495,-0.0027215295,-0.0012039121,-0.0031857379,0.00028874728,0.0017841032,-0.0009936475,0.0025517812,-0.00064760173,-0.0024391694,-0.0010310616,-0.001059739,-0.0023689838,-0.0032205412,-0.0013467255,-0.0005233524,0.0016705411,-0.0025361443,-0.0016648408,0.0004583787,-0.0005544212,0.001186058,-0.00063553575,0.0014263685,0.0027030916,-0.0026445535,0.0012596212,0.0020028518,-0.00019084962,0.0022449938,-0.0017966146,-0.0015334367,-0.0026046007,0.0031664486,-0.0031352234,-0.0010802833,-0.00013343911,-0.0016013109,0.0031228901,-0.002289721,-0.0026492819,0.0030780004,-0.0028011114,0.0032080815,-0.0013292958,0.001913506,-0.00013945106,-0.0013882275,-0.002534406,-0.002109749,0.002314119,0.002100661,3.071928e-05,0.0021408708,0.0012700992,0.0012691276,0.00089660945,-0.003258551,0.003125911,-0.0027271465,-0.0009783942,0.00049004634,0.0017171962,-0.003084032,0.00056420016,0.002128923,-0.0029195915,0.0031973545,-0.0017483135,0.0032004532,-0.002211829,0.002214751,0.003131717,-0.0030823166,0.000111817906,-0.0025563184,0.002717849,0.0031864233,-0.002033497,0.00028143032,-0.0007348303,-0.0025833822,0.0003108065,-0.003293096
tract,0.000864096,-0.0025659052,0.0019063327,0.0025166515,-0.0008563376,-0.001347615,-0.0031973626,0.0016616953,0.00096831314,0.0029087882,0.0010973102,-0.0009839296,0.0011886953,0.0028756538,0.0030831026,0.0025369243,-0.0028496273,-0.0025397812,0.0024314965,-0.0024870888,0.0010821098,0.0026818821,-0.0010702014,0.0022609045,-0.002715975,0.002160494,0.0018382855,0.0011150269,-0.0027221811,0.0030411822,0.0027603104,-0.00051384897,0.0013859062,0.0021371765,-0.0005983717,0.0018436037,-0.0013233062,-0.0004456072,-0.00041038363,-0.0013793921,-0.00022191835,-0.0025551699,0.0011953282,0.0030223026,0.0016202375,0.0021608707,-0.0015568312,0.0016435994,-0.0022230486,-0.001643632,0.0033218784,0.0021341858,-0.0016773693,-0.002030679,0.0024077587,0.0009314657,0.002191777,-0.0022479044,-0.00031849387,-0.00032704163,-9.036754e-05,0.0007462075,-0.0022701146,0.0014723187,-0.0009093441,0.0028007654,-0.0003466313,0.0030606764,-0.00028084757,0.0017256452,-0.0025369294,-0.003019617,-0.0001073015,-0.00078496785,0.003328822,0.0015244174,-0.001879608,0.0024524727,0.00019581731,-0.0031380928,0.0019085865,-0.0006848025,-0.003136841,0.0029481465,0.002424861,0.002865545,9.071885e-05,0.0025641187,0.0017352424,-0.002308779,0.0031175215,-0.0011678942,-0.0032606549,0.0028565007,-0.0017634223,0.0028185172,-0.0026169831,0.0031072022,-0.0019653148,0.0013531711,0.0032543,0.001380954,-0.0006770668,-0.0016419989,-0.0032547787,0.0013809677,0.0024811707,-0.001585582,0.0019677167,0.002299346,-0.0030122465,0.00069331436,-0.0022846744,-0.001428572,0.00028589848,-0.0023279085,-0.0013888058,-0.0025048377,-0.0023260573,-0.0023376804,0.0033025488,0.002778333,-4.0882205e-05,-0.0008850687,0.0020763213,0.00047333096,-0.0029838146,-0.0023711121,0.00035213958,0.0026592219,0.0010763231,0.00330845,0.0021846322,8.237065e-05,0.002878128,0.003018594,0.002691428,0.003132661,-0.0031472994,0.0011694253,-0.002614361,-0.002415553,-0.0028260325,0.001073683,1.5669815e-05,-0.0021288646,0.0018409735,0.0026365418,0.0014454685,0.002601398,-0.0014358219,-0.0021612053,0.0013009332,-0.0009620821,-0.0024078563,0.001230119,-0.0011463843,-0.0017481745,0.0008454605,0.002303204,0.002124735,6.1214014e-05,0.0028776517,0.0010009595,0.0021623103,-0.00029712205,0.0007004845,0.0020482237,-0.0032812771,0.0019678862,0.0004100539,0.0020445369,-0.0004898828,-0.0008971771,-0.0018620668,-0.00094198156,-0.00085318804,-0.0017379693,0.00031917958,0.0026689335,0.0017165203,-0.0025533477,-0.0024872518,-0.0009795787,0.0012867886,-0.0031007165,0.002059762,0.0010609324,-0.00095548877,0.0030447813,0.0026811666,0.00025655224,0.0015880201,-0.0030979977,-0.0029276793,-0.0009892673,0.0031146815,0.0010882186,0.0018555818,-0.0022570663,0.0013907199,0.00013291351,-0.00032337385,-0.0010850835,0.0016351546,-0.003051411,0.0016923894,0.0018751461,-0.0008148599,-0.0014048393,-0.0024577982,-0.0021312283,-0.0016979949,0.0010634332,-0.0016055211,-0.0004322364,-0.002971549,-0.0011905455,-0.00028153133,-0.0026553746,0.0011021899,0.0032253931,0.0014443555,0.000617822,-0.0016569599,-0.00038690973,0.0007581707,0.00057331193,0.0029380529,-0.00028906128,0.0023533308,0.0019324746,0.0010026499,0.0024457113,-0.0016578881,-0.0013036022,0.002306476,0.0028672959,0.0010451151,-0.0013922368,0.0025707984,0.0009154712,-7.7036115e-05,0.0029726631,0.0014502227,0.0013176729,7.957693e-06,-0.002989956,-0.0010209664,0.0008140595,-0.0018577867,0.0023681745,0.0024954542,-0.0029766597,-0.0018303369,-0.0019943586,-0.00021460865,-0.0006030987,-0.0007153847,-0.0007569488,0.0012250337,0.0032192906,-0.001520278,-0.002802623,0.0012220624,-0.0021714,0.002231256,0.00089479744,-0.00264872,-0.002581462,-0.0030982723,0.0007810404,0.00092476775,0.0008731636,8.587628e-05,0.00036357087,0.0010697114,-0.0005131984,-0.00270131,-0.00021770092,0.0012258944,-0.0008604896,-0.0007109423,-0.00074753945,0.002428884,-0.0010089526,0.0031173315,-0.0012727496,-0.0033052322,-0.0021864192,-0.0014387735,0.00043064734,0.0017316993,0.000703972,0.003018516,0.00032186863,0.0018916543,4.623092e-05,-0.0006931579,0.0020949065
hypotension,0.0006634554,0.0027558526,-0.0027662998,-0.002916758,-0.00017817653,-0.0006359088,-0.0007762966,-0.00019278523,-0.0016911803,-0.0026742495,0.0027559816,-0.0011132727,-0.0009520161,-0.00055117696,-0.00040847555,-0.0030720145,-0.00060369837,-0.0004451754,0.0028810264,-0.002655144,-0.0015784707,-0.00062594743,0.000957871,-0.0020062702,-0.0018500346,-0.0026585725,0.0018431839,-0.0029078259,-0.0010818295,9.3076735e-05,0.00048566703,-0.0033134588,0.0028836438,-0.00068597525,0.00012113515,-0.0029299096,-0.0027186028,0.0012530874,0.0013328545,0.0009993687,0.0019520882,-0.0023129478,-0.00041804812,-0.00091025006,-0.0004703193,0.0014916452,0.00046189348,-0.0024803982,0.0010806189,0.0020865768,-0.0020357042,0.0010738729,-0.001436706,0.0029397875,0.0013757639,0.00068191707,-0.00033358065,-0.003034302,0.002885451,-0.000603548,0.0024561645,0.0012555175,-0.0027554648,-0.00020991414,0.00091377465,-0.0008548494,0.0032402163,-0.0016576857,-0.00239279,0.0012661377,-0.0011891525,-0.0022998266,0.0006823898,0.0017595319,-0.0018283606,-0.0014591177,-0.002393842,0.0005170714,-0.0015863687,0.0028142994,0.00023935111,0.00062163564,-0.0011096479,0.0024630993,-0.00021784779,-0.0027337028,-0.0024486054,5.8998063e-05,0.0025798203,0.0010328591,-0.001769956,-0.0022514346,-0.00328395,0.0013089078,-0.0031693112,0.001064009,0.0005543251,-0.00027217908,-0.00331879,0.0019667288,-2.8566801e-05,-0.003311818,-0.0025092582,0.0028553058,0.0006352892,-0.0027258229,-0.00027414507,0.0018021287,-0.0031056565,-0.002293982,-0.00034431275,-0.0032471963,0.00016250834,0.0006540545,0.0028460957,0.00032852998,0.00043061905,0.0016279173,-0.0014347692,0.0024069834,5.5787834e-05,-0.0002268442,-0.0032338277,0.00017266479,0.0022639052,0.0005950757,-0.0026927681,-0.001110125,-0.002014125,0.0020098696,-0.0021567175,0.0017487621,-0.0017558822,-0.0022733456,-0.0025321085,0.0012681538,-0.0029321052,-0.0018991084,-0.0023573812,-0.0014379225,-0.001345427,0.0004927501,0.002164193,-0.0003995461,-0.001823545,0.0005175477,0.0018753583,-0.001761246,-0.0017780502,0.0017236813,0.002087166,-0.0025918023,0.0027361591,-0.0032837174,-0.0024767073,-0.0019616426,0.0005975278,1.4339817e-05,0.001150207,0.0023425505,0.0015986685,-0.001068213,-0.0021423479,-0.0027476836,-0.00016048148,0.00324311,-0.00255881,0.0012167813,0.00146042,-0.0014450043,-0.002320495,-0.0018141161,-0.0016797078,-0.002334425,0.001976629,-0.0025880272,-0.0009752549,0.0014611857,6.0562914e-05,-0.0025624644,-0.0015584405,0.0011937319,0.00084551447,-0.0006515825,-0.000244347,0.00084611075,0.0004767802,-0.0008784284,0.0017757163,-0.0025554404,0.002124646,-0.0033315334,-0.00075057853,0.00222983,-0.0011983216,0.0021809386,0.0018037169,-0.0024654863,-8.3381645e-05,-0.0014903779,-0.0026949132,-0.00029827782,0.0021298865,0.0029109886,-0.0016834036,-0.00088765856,-0.0020072877,0.00038708482,0.00088768854,-0.0032757448,0.0008048875,-0.0029375702,0.00013687678,0.0015873458,-0.00175043,8.1890124e-05,-0.0007267372,-0.0029002829,-0.00080704235,0.0014823633,-0.0028531738,-0.0019758325,-0.00018013113,0.0026783848,0.00046950788,0.0032522369,-0.0025565536,0.0029934854,-0.0015794733,-0.0021118654,-0.0026134655,0.0006164397,-0.0009248543,0.0025141307,-0.00016594106,0.0008412619,0.001981172,-0.0028793355,-0.0006888513,-0.0016002046,-0.0028865684,0.0011421281,0.00080602424,-0.0008007104,-0.00063669006,-0.0022470818,-0.001090265,0.00044161154,0.0025800446,0.0023573146,-0.0011962862,0.0012062514,-0.00085744314,-0.0015708063,-0.0012097078,-0.0020501083,0.0011757632,-0.0025917904,-0.0025014202,-0.0015041778,0.0024653256,0.0006070629,0.001820076,0.002736648,-0.002076828,-0.001545268,0.002564187,0.001647622,0.0015569762,0.0029993309,0.0029420943,-0.00089963176,0.00034200275,0.0018269271,0.0029653294,0.0032838252,-0.002754024,-0.0017060159,0.0016658149,0.00031605083,5.356387e-05,0.0025054913,0.0021361834,-0.0024156033,-0.00086699746,-0.0028288707,0.0023437063,0.00092481944,-0.00074364874,0.0006291433,0.0025566602,0.0027089776,0.0020564864,0.0010513163,0.0005095849,0.0027152495,0.00043910605,0.00014786395,-0.0031836662,0.00084194745
fracture,-0.0028322318,0.0021750026,-0.001927376,-0.00059672084,0.00031729127,-0.0006336175,-0.003034198,0.0013489792,-0.0022110408,-0.002947578,0.0013087726,-0.00025456143,0.0021689644,-0.0023499832,0.00026667974,-0.00024098206,0.001921891,-0.0032423416,0.0019780707,-0.0029790371,-0.0026036617,0.00024731815,-0.00087428914,-0.0012938431,-0.0017534029,0.0013730151,-0.0031309538,0.00037679097,0.0014022847,-0.00011083509,-0.00016526354,0.002385499,-0.0031846005,-0.003007339,0.0014808371,0.0029202744,-0.0025963387,-0.0027728542,-0.00022081133,-0.003019357,0.0007045363,0.0030894908,-0.0020531178,-0.0022508847,0.0029815529,-0.00023786754,-0.001234046,-0.00089326047,-0.0029293674,-0.0015406243,-0.0013726795,8.325212e-05,0.00022687377,0.0025447153,0.0022694112,-0.00048214852,-0.0033279432,0.0008786656,-0.0020484135,0.003028298,0.001273441,-0.00033872522,0.0021836653,-0.001152964,-0.0012262217,-0.000101780875,0.002812274,0.0019691596,0.0005155807,0.0012495356,-0.0009889256,0.0030976348,-0.0023744837,-0.0010996407,-0.0017617001,0.0029272463,-0.0010534116,-0.0007935388,0.002383228,-0.0032002418,-0.00097259565,0.00095679547,-0.0020849316,0.002956784,0.00039672307,-0.0017473364,0.00162765,0.0026744166,0.000323303,0.0022766197,-0.002248106,-0.0012009867,0.0033124767,0.0019084625,0.0005335748,-0.001148235,0.0014802978,0.0008526994,0.0027894776,2.0765894e-05,0.002855495,-0.001955641,-0.0025123209,-0.00047344915,0.0009894264,-0.00068509806,0.0019723629,-0.0027990357,-0.0030171908,0.0025413812,0.0021128703,-0.0013603668,-0.0013423882,-0.0011833638,-1.2413052e-05,0.0030174754,0.0003148798,-0.00069309236,-0.0011249693,-0.0007149621,-0.0030587853,0.0022806863,-0.0030096923,-0.0010293393,-0.0023798826,0.0030345349,0.0019510993,-0.00017857077,0.0013076162,-0.00080748455,0.003283871,-0.0012006891,0.001609976,-0.0012810447,0.00317105,0.0031805865,0.0020692665,-9.7361604e-05,-0.0005661754,-0.002896994,0.003115429,-0.002820225,-0.0021917245,0.0018496463,-0.000759467,0.0026462325,-0.0026486365,0.0030704264,0.0007605229,-0.002859995,0.0013229529,-0.001681493,0.0021200045,0.0022018203,-0.002918743,0.0021695634,0.0017338529,0.0021436035,-0.002367593,-0.0021839547,-0.0029732718,0.0017615001,-0.001363711,0.0016073307,0.0015857235,0.002702134,0.0007420158,-0.00036296237,0.00047636518,0.0010091059,-0.0029453589,-0.0019872694,-0.000310641,0.0016295711,-6.5858214e-05,-0.00321829,-0.00020862649,0.002365374,0.0021144287,0.0011654656,-0.0015386891,-0.0012411412,-0.0007069051,-0.0020032362,-0.0028776843,-0.00018507242,0.0006047925,0.0016292057,0.0011901206,0.0028354218,-0.0022648177,0.0030974622,-0.0011209134,0.00026523438,-0.0014110819,-0.0013558083,-0.0004995496,-0.002519864,0.0029851764,0.0015256508,-0.0007683491,0.00064728706,0.0026117575,-0.0018800612,0.0012603075,0.00022624033,0.0009600293,-0.00071897043,-0.0032876572,0.0019633635,-0.00048532445,-0.002788806,0.0002385816,-0.0020561167,0.0025634272,-0.0021464876,-0.0005483092,-0.00015387363,-0.0014602132,-0.0011325426,0.0024635687,0.00060269603,-0.0031500154,-9.493749e-05,-0.0031909582,-0.0010637607,0.0016614592,0.0012277472,-0.0019212734,0.0004966062,0.0019525238,-0.0024901456,-0.0011282907,-0.0008277907,-0.0029780879,0.0007141581,0.002160427,0.00079588045,0.0007894057,-0.00029483708,-0.00025140704,-0.0020836117,-0.00016411599,0.0021985185,0.0009878176,0.0001709064,0.0026215883,0.00094117783,-0.0024654875,0.0024377936,0.0031878198,-0.003014471,0.002421183,-0.0025265599,-0.00014938206,0.0015324934,-0.001893477,-0.0026411717,-0.002445282,-0.0033116636,-0.0021977837,0.0032079145,0.00097310543,-0.0030535245,0.0028176573,0.0023975107,0.0026247117,0.0032020283,-0.0029029232,-0.0007247572,0.0006885981,0.00080193614,0.0016135987,-0.0025834504,0.0016349375,0.0033260323,-0.0029700743,0.002629525,0.00104601,-0.0014018315,-0.00051797135,-0.0028232264,-0.0024922285,0.0018518873,-0.0010613046,0.003334805,-0.002700012,-0.0023514824,0.0020443148,0.0026309276,0.0012392304,0.002428911,0.0021786976,-0.0019409859,0.002894531,-0.0021025024,-0.0009653423,-0.0020005147,0.0020373284,-0.00145828
heart,0.0010284889,-0.0005264027,-0.00039651737,-0.0019626075,-0.0019213485,-0.0011962408,0.00011281134,0.0004972633,-0.0011096429,0.00063760683,-0.001882015,0.003321781,-0.0002786225,-0.002318205,-0.00061890023,0.0026361588,-0.00036254784,-0.0017282689,-0.0026819182,-0.0019534715,-0.0010696282,0.002572588,-0.0024168564,0.0004889844,-2.1913027e-05,0.0013037602,-0.0026666997,0.002637114,-0.00093425706,0.001751309,-0.0031643203,0.0016949648,-0.0027489816,-0.0010843838,-0.00039396883,-0.0012039726,-0.00023880819,2.9968085e-06,0.001496283,-0.00074407505,-0.0013350144,-0.0020536222,0.0027688863,0.0015340237,0.0030386327,0.0018445994,-0.0015350893,0.0027743126,-0.0023217555,0.001017469,-0.0011076538,8.683119e-05,0.001248184,-0.0009421167,-0.0014755825,-0.00063063495,0.00017490207,0.0021610402,-0.0019463943,0.0015530458,-0.0012384946,-0.0026516838,-0.0018783025,0.00062392396,0.002932955,0.0026366534,0.003055063,0.0022977137,-0.0009884383,-0.00082583603,0.002940543,0.0021709474,0.0020086365,0.0022833797,0.0005374365,0.0008074748,-0.0027438588,0.0025182327,0.003143571,-0.002336207,0.00038895072,0.0029116003,0.0012186874,0.0023444192,0.0025423912,-0.00063438324,0.0029502348,0.0020085361,-0.0006333202,1.7360833e-05,0.0032362721,0.0019484494,-0.0022307034,-0.001161209,-0.0011631241,0.0010461017,0.0003786291,-0.0028572883,0.0007246455,0.0032156212,0.00078111386,0.0014246167,0.00066938455,0.0027143594,0.0029523142,0.0010486062,-0.0008074452,0.0012038748,-0.0025740203,0.0026861771,-0.0013342323,0.0033012617,-0.0031984095,-0.0008508458,0.0029633143,-0.0013600732,-0.0006640181,0.0016704969,0.0031045033,-0.00013417765,-0.0022718043,0.0033323416,-0.0031654509,0.00041728502,0.001857303,-0.0026027553,-0.0018730606,-0.003040962,-2.3360868e-05,0.001676359,-0.0027343854,-0.0010192067,0.002797739,-0.001503372,0.0010593248,0.0011704549,-0.0011861911,-0.0017278127,0.0027661514,-0.00084416865,0.0029783146,-0.0008122136,0.0010137929,0.0018669175,0.00019607675,0.0014621078,-0.0019962213,0.0028008178,-0.00053680525,-0.0014746111,0.0017065029,0.003289374,-0.0019015805,0.0002779713,0.0014492823,-0.0009164902,0.00020570829,0.0029318433,0.002560454,-0.0021454655,-0.0010780164,0.0030714234,-0.000112388596,-0.0031814205,-0.00025387504,-0.0022743687,0.0002953773,0.00028054294,-0.0014730042,-0.001519546,0.0029156473,0.0015336262,0.00086213823,0.0006145538,0.0027423785,-0.0016647618,0.0020400851,-0.0003401919,-0.0025516988,-0.003230304,-0.00056397467,0.0026998713,0.0007351625,-0.002998292,0.00039569158,-0.0011992593,-0.0013537931,0.0027308734,0.0019375689,0.00011074058,0.0008057187,0.00030762082,-0.0033101626,0.0010015083,0.0024008115,0.0013262262,0.00083270913,-0.0011787555,0.000779598,-0.002541798,0.0013873742,0.0007979265,-0.00014688197,-0.00020417344,0.00086993375,0.00073962857,0.00048429298,0.0030405738,0.0011718684,0.0004634792,-0.0009913072,-0.0020264648,-0.0031060355,-0.0010800819,0.0014597345,0.0025146292,0.00021308649,-0.0015963573,0.0011869557,-0.0013042549,-0.00024778154,0.0029484704,0.0027150295,-0.00014556489,-0.001975317,0.0012217243,0.0032746317,0.0028813968,-0.00064017193,0.0023836438,0.003095932,-0.003187688,0.0029532737,6.509844e-06,-0.0017393577,0.001239947,0.002991149,-0.0024211437,0.0022923735,-0.0021526683,-0.0025793163,0.001833607,-0.0015218112,0.0015994163,0.0024589293,0.00321228,0.0019081691,-0.0029588628,0.0010891508,-0.0029991649,-0.00012777488,0.0032662349,-0.001696878,0.0013686207,-0.0019274738,-0.0026845257,0.0026726194,0.0010711577,0.002445149,0.0009774516,0.00040758424,0.0012541508,-0.0028047874,0.002173936,-0.0015076578,0.0015263907,-0.001824455,0.00034913086,0.0013334912,-0.00082566094,-0.002508568,-0.0020039412,-0.003305623,0.0032244714,-0.0014428883,-0.00035125797,-0.00299586,-0.0015218159,-0.0016398275,0.0010026707,0.0018772812,0.0011651076,0.0032902597,0.0006331705,0.003289368,0.0025217598,0.0009129326,0.0007247026,-0.0024950902,-0.00079330883,0.001888415,-0.002697864,0.00076284044,-0.0025267703,0.0032220616,-3.617421e-05,0.00030512657,-0.0015922196,0.0020483625,-0.0023712055
