,0,1,2,3,4,5,6,7,8,9,10,11,12,13,14,15,16,17,18,19,20,21,22,23,24,25,26,27,28,29,30,31,32,33,34,35,36,37,38,39,40,41,42,43,44,45,46,47,48,49,50,51,52,53,54,55,56,57,58,59,60,61,62,63,64,65,66,67,68,69,70,71,72,73,74,75,76,77,78,79,80,81,82,83,84,85,86,87,88,89,90,91,92,93,94,95,96,97,98,99
sepsi,-0.00053138565,0.00023749805,0.0050991583,0.00900162,-0.009303633,-0.0071414956,0.0064621484,0.008984895,-0.0050208117,-0.0037794895,0.0073755486,-0.0015392245,-0.004533689,0.0065607745,-0.004858403,-0.0018202979,0.0028716319,0.00097588624,-0.008287981,-0.009460873,0.0073219603,0.0050689504,0.006759626,0.00076727604,0.006347772,-0.0034006473,-0.00094805524,0.0057648686,-0.007529009,-0.0039369063,-0.007510539,-0.00093098864,0.009534369,-0.0073258732,-0.002329389,-0.0019277597,0.008081853,-0.0059298333,3.6027963e-05,-0.0047649383,-0.009613187,0.0050187125,-0.0087571805,-0.004388697,-2.5985519e-05,-0.00029524,-0.007674826,0.009613387,0.004983274,0.009241591,-0.008160186,0.0044876738,-0.004136872,0.0008297433,0.00850188,-0.0044680787,0.0045216344,-0.006786343,-0.0035588106,0.009398879,-0.0015778492,0.00033191286,-0.0041325176,-0.0076872665,-0.0015169504,0.0024752612,-0.00089162204,0.0055416785,-0.0027467741,0.0022653278,0.0054563805,0.0083515635,-0.0014486351,-0.009205313,0.004370601,0.00057313155,0.0074373074,-0.0008130717,-0.0026492798,-0.008755985,-0.00085361366,0.0028396612,0.005393607,0.007055068,-0.005704279,0.0018668352,0.006099053,-0.0047735795,-0.0031094195,0.0067990697,0.0016508405,0.00019469837,0.0034673596,0.00023211804,0.009623148,0.0050647813,-0.008902763,-0.007058169,0.0009003576,0.006383943
failur,-0.00862767,0.0036845747,0.005185345,0.0057349857,0.007476374,-0.006211102,0.0011415718,0.0060672364,-0.00284372,-0.0061912253,-0.00042867518,-0.008402962,-0.0055998266,0.007101489,0.0033598517,0.0072391904,0.0068203816,0.007524378,-0.0037839862,-0.0005779547,0.0023549004,-0.0045127296,0.008378844,-0.009864778,0.006755029,0.0029156888,-0.00493341,0.0043679466,-0.0017434016,0.0066843135,0.009982064,-0.0043658544,-0.0006062592,-0.005722146,0.0038598464,0.0028029364,0.006921978,0.0061117946,0.009535135,0.009294881,0.007907024,-0.0070032533,-0.009159705,-0.0003548396,-0.0030572063,0.007926889,0.0059517315,-0.0015687555,0.001516729,0.001792269,0.007833991,-0.009502676,-0.00019194363,0.0034860785,-0.00093821855,0.008395896,0.009028539,0.0065246085,-0.00071629655,0.007728363,-0.008541789,0.00321522,-0.004634301,-0.005085315,0.003595725,0.0053886008,0.007745384,-0.0057859356,0.0074414173,0.006633416,-0.0037137256,-0.008758009,0.005459798,0.0065147895,-0.00078794465,-0.0067144935,-0.0070945546,-0.0024856792,0.005149764,-0.0036514394,-0.009398645,0.0038506668,0.0048882845,-0.006431876,0.0012179764,-0.0020607577,4.551148e-05,-0.009852332,0.0027037356,-0.004752951,0.0010987503,-0.0015773607,0.0021938693,-0.00786198,-0.0026791473,0.0026673586,0.005360668,-0.0024067862,-0.0095343925,0.004504175
pneumonia,9.456396e-05,0.0030773198,-0.006812645,-0.0013754654,0.007668581,0.0073464094,-0.0036732971,0.0026427018,-0.00831713,0.006205486,-0.0046373224,-0.0031641065,0.009311357,0.0008733857,0.007490703,-0.0060740625,0.005160507,0.009922823,-0.0084573915,-0.0051356913,-0.007064837,-0.0048626517,-0.0037785638,-0.008536199,0.007955606,-0.004843938,0.008423613,0.0052625705,-0.006550026,0.0039578713,0.0054701497,-0.007426536,-0.0074057197,-0.0024752307,-0.008625725,-0.0015815723,-0.00040343284,0.0032996845,0.0014418805,-0.00088142155,-0.005594058,0.0017303658,-0.0008973718,0.006793691,0.00397359,0.0045294715,0.0014343059,-0.0026998555,-0.0043668128,-0.0010320747,0.0014370275,-0.0026460087,-0.007073783,-0.007805307,-0.009121787,-0.0059351693,-0.0018474245,-0.0043238713,-0.0064606704,-0.0037173224,0.0042891586,-0.0037390434,0.008378175,0.0015339935,-0.0072423196,0.0094337985,0.0076312125,0.005493282,-0.0068488456,0.005822679,0.004009093,0.0051853694,0.0042559016,0.0019397545,-0.0031701624,0.008353845,0.00961218,0.003792603,-0.002836995,7.1275235e-06,0.0012188185,-0.008458325,-0.008223945,-0.00023101569,0.0012372875,-0.0057433806,-0.0047252737,-0.0073460746,0.008328616,0.00012129784,-0.0045093987,0.0057017053,0.009180015,-0.004099872,0.007964682,0.005375434,0.005879123,0.0005125904,0.008213084,-0.0070190406
bleed,-0.008252303,0.009338002,-0.00020747518,-0.0019904615,0.0046338453,-0.004205797,0.0028317736,0.007064938,0.005997952,-0.007542269,0.009341301,0.0046594944,0.003990072,-0.0062113577,0.008550475,-0.0021405905,0.008791809,-0.005407472,-0.008135442,0.006756872,0.00167287,-0.0021859445,0.009435973,0.009494857,-0.009815232,0.0024897843,0.006171191,0.0038555446,0.0019769447,0.0003935563,0.0007301673,-0.003823756,-0.007183414,-0.0021231016,0.0039672973,0.008933916,0.009317843,-0.005986572,-0.009422565,0.009737992,0.0034588925,0.0051277094,0.0062428867,-0.002759277,0.0074052517,0.0028634046,0.0028523435,-0.0024047247,-0.0031228522,-0.002397562,0.0043202695,5.72628e-05,-0.0095871175,-0.009605581,-0.006158952,-0.00011851152,0.0020025184,0.009425785,0.005530368,-0.004255079,0.00029626803,0.00500623,0.0077402066,-0.0011957393,0.0043161465,-0.0057794317,-0.0008190753,0.008109454,-0.0024110284,-0.009649287,0.0057722293,-0.0038961736,-0.0011952334,0.009997762,-0.0021890115,-0.0047356044,-0.0053564245,0.0070147524,-0.0057303943,0.002140579,-0.005268082,0.0062392433,0.0043469085,0.0026463177,-0.001495335,-0.0027011319,0.009034754,0.005325577,-0.0020873828,-0.009480774,-0.0073404266,-0.0009963878,-0.0008401192,-0.0024992698,0.0097921,-0.00047508065,0.005942588,-0.007535279,-0.0025002852,-0.0055880514
acut,-0.007115181,0.0012699309,-0.0071635116,-0.0022509214,0.0037335835,0.005750306,0.0012385586,0.002160336,-0.0041443077,0.0072052996,-0.0063262,0.0046376493,-0.008194509,0.0020494193,-0.004958356,-0.0042590233,-0.0031172524,0.005654546,0.005816238,-0.005017076,0.00078320986,-0.008498763,0.0077562947,0.0092529515,-0.0027925698,0.00079617515,0.00074183295,0.005454378,-0.008631957,0.0005570465,0.0068849768,0.0022393027,0.0011156586,-0.009324113,0.008509114,-0.0062172445,-0.0030035165,0.0034709754,-0.00078834855,0.0013764711,0.0017736425,-0.006840344,-0.009740708,0.009072442,0.006214039,-0.0069348235,0.0034009302,0.00017462719,0.004768696,-0.007119022,0.0040496415,0.0043495484,0.009951217,-0.004465479,-0.0013640613,-0.007314812,-0.009712158,-0.009084343,-0.0010243882,-0.006492738,0.0048542772,-0.0061712787,0.0025313124,0.0007146117,-0.003401265,-0.0009373394,0.0099835405,0.009145024,-0.004483457,0.009093718,-0.0056583434,0.005942218,-0.0030856973,0.0034323023,0.0030520028,0.006939865,-0.0023794095,0.008792638,0.0075689633,-0.009518345,-0.008034621,-0.0075780335,0.0029017143,-0.0027494011,-0.0069235316,-0.008109993,0.00835488,0.0020348784,-0.009260569,-0.0047999127,0.0031784656,-0.0046879454,0.005264567,-0.0042027496,0.0026935488,-0.0080683455,0.0062454487,0.0048000636,0.0008004939,0.002995097
breath,-0.008746801,0.0021565373,-0.00087850034,-0.009353217,-0.009437033,-0.001453258,0.0044739298,0.0037458057,-0.0065230248,-0.0068923812,-0.00500293,-0.0023044795,-0.007236399,-0.009617868,-0.0027190282,-0.008366328,-0.006053172,-0.0057079303,-0.0023386888,-0.0017374841,-0.008979304,-0.0007248117,0.008126914,0.007704742,-0.007236829,-0.0036854432,0.0031329505,-0.009605983,0.0014741219,0.006479724,0.005746679,-0.008747672,-0.0045426977,-0.008142814,7.393039e-05,0.00929672,0.0060081743,0.0050648213,0.0050772713,-0.0032708647,0.009565379,-0.0073879063,-0.0073028994,-0.0022338724,-0.0007500995,-0.00320547,-0.0005904216,0.007471866,-0.00069733255,-0.0016255053,0.0027488277,-0.008340651,0.007851974,0.008572844,-0.009601528,0.002441119,0.0099270595,-0.007685448,-0.006995766,-0.007712387,0.008421132,-0.0006594068,0.009161436,-0.008180597,0.0037403759,0.002623403,0.00071614375,0.0023475112,-0.0074895476,-0.009361483,0.0023616462,0.006179734,0.008010371,0.0057709203,-0.0007479927,0.008339276,-0.009337477,0.003420973,0.00026358032,0.0038653458,0.007399065,-0.006676161,0.005587625,-0.009496763,-0.0008102087,-0.008679758,-0.0050879796,0.00935704,-0.0018211675,0.002907282,0.009087384,0.008969341,-0.008231613,-0.0029623387,0.00993119,0.0051060896,-0.0015571958,-0.008731739,0.002986374,-0.0067184526
arteri,0.008201272,-0.004356698,-0.0011111923,0.00095181254,-0.000108867935,0.00092383835,0.006263852,0.00016070523,-0.0034084197,-0.0015763282,0.005898699,0.0014404177,-0.00065590686,0.009426981,-0.0048365737,-0.00079243805,0.009186661,0.006626135,0.0015548047,-0.009065907,0.0011493781,-0.0021439681,0.0092098685,0.0012252006,0.0014139548,0.002371495,-0.001838706,-0.005095411,0.00015277338,-0.002128179,0.006660128,0.008950038,-0.00075028307,0.0029027215,-0.0060331803,0.0018439771,-0.006883561,-0.008756774,-0.0059300708,-0.009153115,0.0073366165,-0.005859536,0.008233883,-0.0071403403,0.0035436393,0.009764626,-0.0077988077,-0.0099802585,-0.004319506,-0.0026744986,-0.00027177125,-0.008818007,-0.008658535,0.0028374007,-0.008187087,-0.009103713,-0.0023726113,-0.008652951,-0.007096905,-0.008318584,-0.0002690783,-0.0045317253,0.006707661,0.0015090988,-0.0033686727,0.0061318693,-0.0060755084,-0.004646481,-0.007351684,-0.004156995,-0.0018024022,0.0064765415,-0.002654284,0.004987938,0.007033687,-0.0074167256,0.004479194,0.006191135,-0.0030313279,0.0066348086,0.0061480026,-0.006231631,-0.0068381424,0.002623863,-0.0016381743,-0.00604768,0.009631687,-0.0048866444,-0.006425188,-0.00012588566,-0.0025312612,0.0005262389,-0.0036217999,-0.00021129698,-0.00059595355,0.0007603364,0.008327886,-0.0059069223,-0.001644296,0.0054624695
short,0.008167397,-0.004439927,0.008976053,0.008255401,-0.0044424464,0.00028410135,0.0042868415,-0.0039161067,-0.005579416,-0.0065309745,-0.00066810125,-0.00031028216,0.004465309,-0.0024687892,-0.00017446304,0.0024629075,0.004862998,-3.771075e-05,-0.006335571,-0.009285873,1.0267267e-05,0.0066756434,0.0014633458,-0.008953217,-0.007936034,0.0065449704,-0.0037913625,0.00623332,-0.006690028,0.008469278,-0.0065208967,0.0032818408,-0.0010648363,-0.0067854915,-0.0032862516,-0.0011578922,-0.0054697795,-0.0012115693,-0.0075524813,0.0026202872,0.009076712,-0.0023991107,-0.0010027207,0.0035345624,0.0086601125,-0.005926357,-0.0068849637,-0.0029335355,0.009162953,0.0008752308,-0.008687013,-0.0014530454,0.009493542,-0.007552623,-0.0053534317,0.00932175,-0.008971715,0.0038111585,0.00065930607,0.006664189,0.008316288,-0.0028512124,-0.003993667,0.008895935,0.0020917272,0.006253476,-0.00945728,0.009597758,-0.0013648486,-0.0060526878,0.0030049365,-0.0004478371,0.004723545,-0.0022749102,-0.0041399538,0.0023104036,0.00834614,-0.0049871337,0.0026780763,-0.008000591,-0.0067668697,-0.0004651868,-0.008752867,0.0027921393,0.0015889767,-0.0023153368,0.005001833,0.00977062,0.008467888,-0.0018750842,0.0020778335,-0.003999486,-0.008239234,0.0063093863,-0.0019489464,-0.00066065544,-0.0017555052,-0.0045504346,0.0040765186,-0.0042910594
liver,-0.0095858555,0.008952961,0.0041657616,0.009215246,0.0066692107,0.002910774,0.0098401075,-0.004414497,-0.0068294927,0.004213409,0.0037307225,-0.005682668,0.009725665,-0.0035543705,0.009557948,0.0008146586,-0.00632957,-0.0019828458,-0.007381805,-0.0030054175,0.001030164,0.009491942,0.009353896,-0.0065999986,0.0034650245,0.0022837464,-0.0024838191,-0.009250904,0.0010088256,-0.008173717,0.006314016,-0.005786987,0.005514377,0.00980644,-0.00016018057,0.0045601134,-0.0018252119,0.0073615857,0.0039367564,-0.009034314,-0.0023948075,0.003625643,-0.00012757869,-0.0011866898,-0.0010517178,-0.0016648005,0.0006092829,0.0041520707,-0.0042394856,-0.003847528,-4.6868492e-05,0.0002653597,-0.00017338016,-0.004777975,0.004307312,-0.002184309,0.0021057117,0.0006773168,0.005973872,-0.006811029,-0.0068035014,-0.004481621,0.009434775,-0.001569651,-0.009444702,-0.00051988877,-0.0044609527,0.005988067,-0.009572786,0.0028698114,-0.009260627,0.0012775889,0.006017222,0.0073929313,-0.0075904033,-0.006050347,-0.0068449834,-0.007920451,-0.009502668,-0.002131304,-0.0008431526,-0.0072432947,0.006786341,0.0011143571,0.0058087516,0.0014671107,0.0008201201,-0.0073404666,-0.0021591748,0.004319564,-0.005050999,0.0011527527,0.0028962353,-0.0015183544,0.009961372,0.008350217,0.0024463413,0.007101127,0.005881726,-0.005587911
fever,-0.0051562428,-0.0066683376,-0.007776835,0.008310728,-0.001982342,-0.0068549635,-0.004154389,0.0051441262,-0.0028691364,-0.0037496602,0.0016214252,-0.0027762938,-0.0015843606,0.0010744918,-0.0029779447,0.008519283,0.003910935,-0.009958863,0.0062595997,-0.006754254,0.0007694328,0.0044042347,-0.005103375,-0.0021106696,0.008095479,-0.0042437925,-0.007636261,0.009257913,-0.002155497,-0.0047194324,0.0085708,0.004283339,0.0043248367,0.009284513,-0.00845308,0.00525532,0.0020393515,0.00418828,0.0016979002,0.004464134,0.0044862903,0.006104522,-0.0032020975,-0.004575728,-0.00042651652,0.0025337338,-0.003263167,0.006057718,0.0041541304,0.0077645923,0.0025692724,0.008116683,-0.0013872099,0.008077928,0.003717016,-0.008047325,-0.0039336146,-0.0024718784,0.004893044,-0.000872159,-0.0028309084,0.007833707,0.0093229,-0.0016149282,-0.0051592495,-0.0047017587,-0.004846051,-0.009602826,0.0013720202,-0.0042249155,0.0025267089,0.0056144833,-0.0040659057,-0.009596582,0.0015466976,-0.0067001223,0.0024951743,-0.003780632,0.0070784213,0.00064022065,0.0035609389,-0.0027391338,-0.0017105473,0.007652793,0.0014076781,-0.0058504487,-0.007834497,0.0012326873,0.006454631,0.0055563496,-0.00897705,0.008592164,0.004046978,0.007469605,0.0097463345,-0.00728958,-0.009039963,0.0058360007,0.009391213,0.0035069252
accid,0.0070847073,-0.0014903997,0.007952827,-0.009565826,-0.007995348,-0.00682026,-0.0038710353,0.00513905,-0.0038710053,-0.008433311,0.008393794,-0.0038502903,0.008666106,-0.0048952424,0.0039500017,0.0049404455,0.0024094488,-0.0028843095,0.0028901761,-0.008366082,-0.0028204222,-0.0025623576,0.0071970834,-0.003472424,-0.006680671,0.0043451246,-0.0004987473,-0.0036933946,0.006811363,0.0037806581,-0.0038387564,0.0007924844,0.00908648,0.007735964,0.0063813156,0.004787045,0.0024313491,-0.001868757,-0.0064019766,-0.00044130904,-0.0015574867,-0.000623577,-0.0063880286,0.007493913,-0.0065309303,-0.007208795,-0.0027581495,-0.0016089934,-0.0076346816,0.0006863838,-0.0052989093,-0.0012819638,-0.007325613,0.0019993344,0.0032761726,-3.9369377e-05,-0.005454281,-0.0017218881,0.007056695,0.0037766618,-0.008839285,-0.003378226,0.002416796,0.002100837,-0.009530195,0.0046035307,-0.008704319,-0.007389239,0.0034516684,-0.0034566906,0.0036011394,0.008962832,-0.0034849492,0.009367165,0.0018228469,0.009936369,0.005635002,-0.009141788,-0.0034069736,0.006563494,0.00555912,0.00885143,0.0069316137,0.008093881,-0.009881469,0.0043069343,-0.004894932,0.0036499416,0.006180318,0.0043499386,0.0075930743,0.0015869419,-0.0012882489,0.0058727786,-0.005499228,4.9788814e-05,0.009607647,-0.0055563934,0.0038195045,-0.008234131
renal,0.009779353,0.008167307,0.001272775,0.005097651,0.0014084899,-0.0064869532,-0.0014098816,0.0064764097,-0.0046327035,-0.0040176017,0.004908199,0.0027017894,-0.0018416302,-0.0028710924,0.0060130917,-0.0057167965,-0.0032442003,-0.006495587,-0.0042260196,-0.0086040385,-0.0044787587,-0.008498094,0.0013786368,-0.008621352,-0.009922088,-0.008203895,-0.0067806365,0.0066758445,0.0037573462,0.0003317032,-0.002948185,-0.007431108,0.00053628,0.00049054733,0.00019116557,0.0008768118,0.00079654204,-8.512363e-05,-0.008007617,-0.0059018694,-0.008384278,-0.0013290709,0.0018012045,0.007424685,-0.0019479096,-0.0023352224,0.009481604,6.826986e-05,-0.0023892939,0.008615208,0.0026819732,-0.0053523774,0.006601393,0.0045190174,-0.007038095,-0.00031467335,0.00083514786,0.0057507097,-0.0017291114,-0.0027909875,0.0017613737,0.0008615408,0.0012061722,-0.0026420008,-0.005998652,0.0073373886,0.0075736386,0.0083066495,-0.008608643,0.0026281679,-0.0035528182,0.0096391495,0.002925892,0.0046494217,0.0024225863,0.006620424,-0.0057608634,0.007915858,-0.002418065,-0.004568406,-0.0020648264,0.009766449,-0.006854978,-0.0021581983,0.0069909487,-4.2643373e-05,-0.0062760315,-0.0063741924,0.008962412,0.0064243115,0.0047892653,-0.0032388018,-0.009274351,0.0038053954,0.0071904864,-0.0056198263,-0.0078367675,-0.0029893785,-0.0049062516,-0.0023339277
esophag,-0.0019176228,-0.0052787215,0.0094436705,-0.009282053,0.004526742,0.0053547057,-0.0013669264,0.009033721,0.009845435,-0.0054706004,-0.0060457406,-0.006776289,-0.007858128,-0.003033827,-0.0055922437,-0.008343247,0.0007942774,0.002963629,0.0064398013,-0.0026728495,-0.0044712657,0.0012861395,0.00033471064,0.008123737,0.000164658,0.007220069,-0.008269508,0.008433816,-0.0019341456,0.008692743,-0.00757954,0.001813943,0.0010475197,4.8188103e-05,-0.005109112,-0.00920124,-0.007272969,-0.007998619,0.0019036295,0.0004307723,-0.0017872248,0.007091173,-0.002494854,-0.0013320318,-0.008868402,-0.009928374,0.008939211,-0.005780099,-0.006357988,0.005188977,0.006653861,-0.006855508,0.0009591965,-0.0059875324,0.0016404412,-0.0042932346,-0.0034784987,0.002182744,0.00865357,0.006763805,-0.00968558,-0.005615657,0.007906047,0.001992061,-0.0042620576,0.00062060705,0.009511967,-0.0011010866,-0.009438265,0.001639166,0.0062153595,0.0062788026,0.004098363,-0.005655929,-0.00032719856,-4.9486753e-05,0.0045429235,-0.008034396,-0.008034067,0.00026593442,-0.008627496,0.0058697807,-0.0004345404,0.010027503,-0.0053734616,-0.000495816,0.0077960305,-0.0040013245,-0.0049616178,0.0015743381,0.0026965567,-0.0025353031,0.006438697,-0.0076163397,0.0034230861,0.00046147965,0.008778031,0.0059355046,0.006871134,0.007817288
thrive,-0.00950012,0.009562223,-0.0077707553,-0.0026455082,-0.004906409,-0.0049666967,-0.008023591,-0.0077835848,-0.004553212,-0.0012753617,-0.0051029883,0.006140542,-0.009516619,-0.0053071044,0.009437152,0.006991329,0.007675816,0.0042347396,0.00050709245,-0.0059811436,0.006018777,0.0026350308,0.0076994337,0.006393843,0.00794257,0.008657407,-0.009895755,-0.006755705,0.0013375747,0.0064403033,0.007373816,0.005516981,0.0076616253,-0.005125568,0.0065844096,-0.004108373,-0.0090553425,0.00914168,0.0013314044,-0.0027596795,-0.0024778426,-0.0042204787,0.004812337,0.004400222,-0.0026533627,-0.007341881,-0.0035658514,-0.00033661484,0.0060958923,-0.0028373385,-0.00012089491,0.00087972643,-0.0070956494,0.0020650018,-0.0014324236,0.0028021492,0.0048422217,-0.0013520193,-0.002780143,0.0077386475,0.005045599,0.0067135217,0.004515643,0.008667155,0.0074749696,-0.0010818875,0.008747638,0.0046017184,0.0054406333,-0.0013860846,-0.0020413185,-0.0044243457,-0.008515197,0.0030377281,0.008883192,0.008919742,-0.0019423545,0.0060861576,0.0037797235,-0.0042959657,0.002042924,-0.0054378854,0.008208892,0.0054329084,0.0031844343,0.0041025686,0.00865715,0.007272035,-0.0008334732,-0.007072768,0.008380473,0.007233584,0.0017304718,-0.0013474918,-0.005890092,-0.0045330906,0.008647966,-0.0031351077,-0.0063388194,0.0098700775
pain,0.0077083283,0.009168496,0.0011254622,-0.008343179,0.008436169,-0.0037907758,0.0058079064,0.0044961064,0.00966146,-0.009344407,0.009179866,-0.009328029,-0.0068708365,-0.009118459,-0.005547207,0.0074004233,0.009206478,-0.0034087545,0.0037399805,-0.0036754594,0.007882324,0.0058674854,-3.4679535e-05,-0.0036220422,-0.007275016,0.0047545587,0.001426745,-0.0026440667,0.00780336,-0.004134518,-0.009128469,-0.0022531156,0.000121466386,-0.0066559454,-0.0054731085,-0.008472046,0.009301116,0.0074210754,-0.00030065994,0.0073338277,0.007962973,-0.0008274575,0.0066084936,0.0038148132,0.005136349,0.0073113116,-0.004775302,-0.0022005248,0.00089392427,0.004276512,0.003294774,0.005127803,0.004583626,-0.008438194,-0.0031856617,-0.007257311,0.009717695,0.0049958737,0.00014697577,0.0041555446,-0.0076218783,-0.006275583,0.0031128,0.006526567,0.0039218683,0.006045605,-0.0019970485,-0.0033408282,0.00020621234,-0.0031603337,-0.0055068755,-0.0077979667,0.0066012307,-0.0010405753,-0.0018275623,-0.0077869045,0.009338434,0.00088640186,0.0017552582,0.0025169908,-0.0073988554,0.0017496404,0.002966631,-0.008512093,0.004955076,0.002448555,0.007564422,0.005146426,-0.0030079717,-0.00720018,0.007168894,0.0019425887,0.0051580677,0.0064878557,0.0019873,-0.006145654,2.8713435e-05,0.0081836535,-0.0061170384,0.009411634
respiratori,-0.007190747,0.004259101,0.0021630926,0.0074369875,-0.004895242,-0.0046315906,-0.0060510566,0.0033589022,-0.004561435,0.00849655,-0.0043123495,-0.009127098,-0.004794865,0.006436265,-0.0063624494,-0.005248639,-0.0073020603,0.006000833,0.0033715055,0.0027849036,-0.0031564452,0.006036797,-0.0061773397,-0.0019851737,-0.006002989,-0.0009994725,-0.0020309694,0.008467127,3.4908655e-05,-0.008602595,-0.005417481,-0.006883415,0.0026886365,0.009448913,-0.0057847253,0.00829954,0.008527035,-0.007088359,-0.008874563,0.009434726,0.008369388,-0.0047251573,-0.006747281,0.007876232,0.0037871068,0.008087178,-0.0075504915,-0.009538725,0.0015901886,-0.00978867,-0.0048852325,-0.003440124,0.009635472,0.008644942,-0.0028131069,0.0058389176,0.008240204,-0.0022721214,0.009522933,0.0071639544,0.0020513858,-0.0038307086,-0.0050891023,-0.0030653717,0.007878653,-0.006159944,-0.0029231443,0.009205737,0.0034376637,0.0060964674,-0.008025325,-0.0007379442,0.005549176,-0.0046968744,0.0074985474,0.009373611,-0.0004297814,-0.0020384274,-0.0005918306,-0.005759575,-0.008388276,-0.0014465053,-0.0025742128,0.004431834,-0.0068769385,0.0054385727,-0.0067387344,-0.007767175,0.008526663,0.008930392,-0.0034615365,0.0035097033,-0.0058394447,-0.008705627,-0.0054823835,0.0067339414,0.006454023,0.00939095,0.007081318,0.006725319
tract,0.0013015252,-0.009749019,0.004581476,-0.0005554349,0.006372512,0.0016982759,-0.0030844295,0.007828519,0.0015091682,3.0420724e-05,-0.00465539,-0.00852698,-0.007752691,0.00870958,-0.008908717,0.009058571,-0.009300657,-0.00032114357,-0.0018857158,-0.008996985,0.008631659,0.006799351,0.0029959048,0.0048411894,9.039964e-05,0.009413266,0.0070185126,-0.009876037,-0.0044641355,-0.0013332451,0.0031022858,-0.0043276087,0.0014385601,-0.007857672,0.002810972,0.0047492986,0.004953413,-0.0031758032,-0.008409197,-0.009289176,-0.00072105037,-0.0073709115,-0.0068505798,0.006125432,0.007204129,0.0021375306,-0.007913895,-0.005702647,0.008068284,0.0039316355,-0.0052294675,-0.007399902,0.000793421,0.0035034355,0.0021204813,0.0031291766,-0.0056121103,-0.00990787,-0.007030809,0.00026838435,0.004633075,0.0045258338,0.0018783397,0.0051681846,-0.00012825128,0.0041250577,-0.009129122,0.00771875,0.0061375503,0.0051859748,0.0072349343,0.008419534,0.0007569118,-0.001677571,0.0005280789,-0.00927839,0.00840179,-0.0063843327,0.008427442,-0.0042531556,0.00064082164,-0.009097963,-0.0095929485,-0.0077951914,-0.0077506835,0.0004015612,-0.007176675,-0.004877701,-0.0051784785,-0.004294807,0.0070677083,0.004835234,0.008674104,0.0071364627,-0.0056797443,0.007229569,-0.009259188,-0.0026491454,-0.007729683,0.0041626357
pulmonari,0.0018093723,0.0070575546,0.0029257068,-0.006997525,0.007772401,-0.006103223,0.009094023,0.0030502328,-0.004102173,-0.0047008167,-0.00450166,-0.0062121027,0.009429551,-0.0026187168,0.007853261,-0.009697862,0.0021110089,-0.0012301885,0.007591329,-0.009124985,0.007461974,-0.0050764224,-0.006103677,-0.005669296,-0.0034144607,-0.0034213495,-0.0032150012,-0.0075546796,0.0006552096,-0.000621222,-0.0015959133,0.0037750225,-0.0076479823,-0.003242071,0.0052075023,0.0086376,-0.009817834,0.0071709077,0.0053287614,-0.0039759674,0.008608796,-0.00928649,0.0071959505,0.005435735,0.0013508534,-0.005206778,-0.0041653235,-0.0034162856,0.0016390155,0.0015497026,0.0074310084,0.00997906,0.008908549,-0.0039937003,0.00966834,-0.0006139501,0.004864304,0.002547266,-0.000656432,0.003768568,-0.005324891,-0.0057518254,-0.0075806645,0.0018701928,0.006522325,0.0008942337,0.0012074106,0.00318358,0.008125906,-0.0077011264,0.0022231753,-0.0074658375,0.0037710688,0.009564312,0.0076168706,0.0064658537,0.008022286,0.006581124,0.0068464666,0.008724498,-0.004983521,0.009343418,0.0050712195,-0.002073029,0.008462543,0.005079577,0.009752004,0.0029201822,0.009973475,0.0011825508,0.009198703,0.0036743681,0.0065754773,-0.003571429,0.006887773,0.0072690253,-0.002058091,-0.0019404595,0.0036986787,-0.007085624
sp,0.009748806,-0.009768624,-0.0065012793,0.0027843753,0.0064452984,-0.0054079797,0.002767022,0.009142319,-0.0068388474,-0.0061294707,-0.004981995,-0.0037014622,0.001863258,0.009704338,0.0064422535,0.00041559487,0.0024845095,0.008441632,0.009138183,0.0056148404,0.00593647,-0.007625227,-0.0038415918,-0.0056858948,0.0061740214,-0.002250136,-0.008785078,0.0076041343,0.008383666,-0.0033282994,0.00913983,-0.00074232096,-0.0036332197,-0.00039547915,0.00019021331,-0.003480938,0.0028169316,0.005734774,0.0068643857,-0.008939036,-0.0021937336,-0.0055000247,0.007498025,0.006513659,-0.0043533165,0.0023247222,-0.005938404,0.00020836858,0.009457497,-0.002606042,-0.0051893806,-0.0074031968,-0.0029072447,-0.00086060195,0.0035296988,0.009745136,-0.0033947425,0.0019012376,0.009684057,0.0015476119,0.0010031479,0.009804138,0.009299731,0.007714779,-0.0061945263,0.010007708,0.005835243,0.009060775,-0.0019989158,0.0033742294,0.006819361,-0.003895344,0.006650371,0.0025575194,0.009329112,-0.003023088,-0.0031430866,0.0062297415,-0.009086233,-0.0072497153,-0.0065052295,-0.0007283138,-0.0023623693,0.006842818,0.009224626,-0.00089670677,0.0014263022,0.0020502124,-0.0019968536,-0.008037679,0.007446648,-0.0043068007,0.004571796,0.009100297,0.0030535734,0.0031321063,0.0040991446,-0.00271561,0.0038290885,0.00032488926
fractur,0.0056247446,0.0055093644,0.0018230189,0.0057489336,-0.008962483,0.006545796,0.009242863,-0.0041956212,0.0015966885,-0.005238892,0.0010510866,0.0027594676,0.008158702,0.00055048766,0.0025653625,0.0013003902,0.0084022265,-0.005717927,-0.006257789,-0.0036306023,-0.0023038385,0.005054383,-0.008126886,-0.002838615,-0.008206252,0.0051411875,-0.0025696454,-0.009083518,0.0040672407,0.009004603,-0.0030224482,-0.005845756,0.0030178097,-0.00043663537,-0.009978429,0.008432788,-0.007337531,-0.004919406,-0.0026591206,-0.005462373,0.0017267717,0.009709673,0.0045681675,0.008095205,-0.00046025694,0.00065896526,-0.0026735554,-0.008784624,0.0034301244,0.0020977275,-0.00942216,-0.0049692467,-0.009729201,-0.0057163304,0.0040681167,0.00864576,0.0041165682,0.0023828777,0.008137297,-0.0011071175,-0.0013937333,-0.00873852,-0.00011927329,-0.0025761973,0.0003837175,0.0072765,-0.0070512174,-0.003939588,-0.0066701896,-0.0035371596,-0.0033123458,0.0021371422,0.0033437787,-0.0049508754,-0.004536277,0.0011389927,0.0054482934,0.0053737815,-0.002978032,-0.0042646085,-0.005620733,-0.0005368823,0.0019411789,0.0015346617,0.007354567,-0.002730137,-5.989826e-05,-0.0055146967,-0.0011561315,-0.007716856,-0.0009502613,0.0013212757,-0.008606618,0.008764443,-0.00919349,-0.009617488,-0.008509577,0.0073039024,0.005462898,0.00924496
gi,0.0025545137,0.00087375374,-0.0025329792,0.009336553,0.0027986243,0.0040556807,-0.0011370989,0.00093780627,0.0065991995,-0.000767297,0.0033306533,-0.00072200806,0.005275329,0.003650454,0.002609935,-0.0053086495,-0.0047140135,0.004296141,-0.0059084715,-0.00019758687,-0.00064437656,0.0035078381,-0.008461336,0.008799156,-0.0014607613,-0.0053540077,0.004041079,-0.0019637742,-0.0077840663,-0.004558286,-0.00034884462,-0.008943094,0.0005475539,0.0024279146,-0.003217755,0.0025878283,0.0024889861,0.009993914,0.0014500312,0.0019915635,0.0028072998,-0.002082565,-0.008731358,0.008063394,-0.001960079,-0.009691988,-0.006558384,-0.0039657378,0.0039626495,0.0050466643,0.0061094644,-0.0067912526,0.00069182395,-0.0027593018,-0.005221183,0.006999361,0.003950582,-0.0031147923,-0.008303047,-0.005111618,-0.00062363973,0.007827613,0.0060789217,-0.00847328,-0.0095716,0.007132425,-0.0023453955,-0.003718925,0.0057418896,-0.005837715,0.0050642416,-0.00024245685,-0.0068652155,-0.00032205702,0.0063876854,0.009320551,0.0022143833,0.0050586145,-0.0049893716,-0.000785595,-0.0053436533,0.0012437035,-0.0018134696,-0.0036060174,-0.00702331,0.009694178,0.0030249613,-0.0022506637,-0.004142923,0.0076954286,-0.0064636893,0.0031421264,0.00077369326,0.008364831,0.0068851733,-0.0029077297,0.002550348,-0.0017161096,-0.009449466,-0.0026202498
hypotens,0.0013325238,0.0065408563,0.009984603,0.009062455,-0.008015361,0.006491386,-0.0057147373,-0.0009715748,0.00048282265,0.0065819337,0.0044701435,0.004603727,0.009483124,0.0003826642,-0.0060387133,-0.0063301004,0.0064317896,-0.0052425815,-0.0028498126,0.004075284,-0.0022902358,-0.006025213,-0.002323655,0.001206919,0.0021833598,0.0060837734,-0.005214001,0.0030779613,0.007240676,0.0021951138,0.00539749,-0.0048453333,0.006152612,-0.0076012816,0.0034928655,-0.009321804,-0.0026043104,-0.009073199,-0.0015882683,-0.005364752,-0.0039439187,0.0011536527,0.0028003477,-0.0015263951,-0.008170515,-0.0059180222,0.00081929564,-0.0039462578,-0.009430448,-0.0007749748,0.0066332687,0.005978844,-0.009917259,0.003118583,-0.005987301,-0.009181891,0.00017021298,-0.00036962033,-0.0069719995,-0.0062800576,-0.0024260855,0.0070966566,-0.007545879,0.007698084,-0.0004754448,0.0010932934,0.009482661,0.00472816,-0.0035727667,0.0037356198,0.003519286,0.0063366974,6.933927e-05,-0.0044236863,0.0013182712,-0.0054142345,0.0014117574,0.004926181,0.005154848,0.009181637,-0.007512665,-0.005403644,0.0064693727,0.0013554788,-0.006611801,0.00088438985,0.0026770402,-0.0025288356,-0.0049601602,0.005004755,0.009621821,-0.0073646735,-0.00011532188,-0.0025644589,-0.006365142,-0.0013786554,-0.0052507855,0.009059995,-0.0057907687,0.003686075
left,-0.00022877715,0.004286909,0.0020985168,0.009973431,0.0006515909,-0.005605534,-0.0010943172,0.0021980836,-0.0034389505,-0.007915268,-0.005664521,-0.006794576,0.0063834144,0.003953579,0.008253746,0.006563579,-0.00614554,0.00269861,0.00851213,0.0015017726,0.0030473445,0.00587152,-0.008930927,0.0091317585,0.006776688,0.00852055,-0.008264736,0.0061384724,0.00657246,-0.0014163997,-0.0062310495,0.005338971,-0.006911355,-0.005359495,0.003539836,0.008193159,0.008727596,-0.0044755526,-0.0092116045,0.009522216,0.006307633,-0.0040020784,-0.008508705,-0.004697812,-0.0038697869,-0.003289513,0.00081911084,-0.0003174561,-0.0030230295,-0.00602616,0.009438804,-0.0047255675,-0.0072434884,0.0077328663,0.0025542618,0.008668541,-0.004497826,-0.006903582,0.0009858027,-0.0011451294,-0.009381763,-0.0015810275,0.0030966692,0.0065511432,0.006826685,0.0032598185,-0.0044892505,-0.0018540309,-0.0040039723,0.005838669,-0.0063784746,0.0021336023,-0.0012778699,-0.00579338,-0.007197662,0.005910309,-0.008405712,-0.00065776834,0.0027954627,0.00777573,-0.0073214206,0.00342488,0.009785622,-0.0069087055,-0.0035635482,0.005123228,0.0053111683,0.0017202442,0.008060881,0.0008230092,0.001952083,-0.0015370287,-0.008198732,0.003293413,0.0020588047,-0.00877573,-0.0006093726,-2.9590043e-05,2.667733e-05,0.008696009
congest,-0.0025033108,-0.005901871,0.007481093,-0.0072581936,-0.008961033,-0.0017914783,-0.0083658155,0.00039250997,0.0019484478,-0.0024707667,-0.0064516333,-0.00032686393,-0.0010976893,0.003498021,0.0081320265,0.005855953,0.008452553,-0.008958729,0.009444995,-0.002356637,0.0087051615,0.0023780973,0.0035800573,-0.00958497,-0.009489663,0.009000089,-0.0029085972,0.0028106482,0.006414855,-0.0002949452,0.009729274,-0.0010382147,-0.009670632,-0.0070662843,-0.0010464595,-0.008672022,0.007418408,0.003623897,-0.00875705,0.008470778,0.008919929,0.0058428557,0.006909051,-0.009571919,0.000490606,-0.009215377,-0.0036715604,0.0002509023,-0.00028180078,0.001462999,0.0032842946,0.0021247033,0.0053189294,0.007516972,-0.0058859405,0.007950725,0.0059875757,0.009793023,0.004618507,-0.003322624,-0.0037439445,-0.00063578883,-0.0016588479,0.009879222,0.0011245266,0.0040185684,0.0034291062,-0.008860601,0.0067294557,0.008191817,-0.0016726952,0.0023312562,-0.0064754165,-0.0061248117,0.008223197,-0.0030523122,0.0067253173,0.0015600236,-0.001982167,0.003050968,-0.0040297233,-0.0017730743,0.0013789668,0.0048756204,-0.001397955,0.0006496495,-0.007913786,0.009488293,-0.008763445,0.0070681763,0.003909725,-0.0069965096,-0.0052912557,-0.007945968,-0.005126225,0.007068107,0.009637436,0.002151768,0.0006328944,0.009527788
hepat,-0.004969993,-0.001249216,0.0032651932,-0.006434788,-0.009665977,-0.009356728,0.009082231,0.005441317,-0.004847308,-0.008343405,0.0012407319,0.0028498413,-0.0012126025,0.001297432,-0.004302521,0.0048028757,0.0014738418,0.008869281,-0.009955083,-0.005346434,-0.009105138,-0.00031434113,-0.007929357,0.0050326106,-0.006436926,-0.0059563047,0.0050921207,-0.008201502,0.0014222042,-0.0072838636,0.009924542,0.008665307,0.0017452147,0.0057953615,0.004635372,-0.0059307665,0.009772056,-0.009702145,0.008040579,0.0027080677,-0.0030485506,-0.0035936756,0.009075244,-0.0054316185,0.008223163,-0.0060032313,0.008404782,-0.00057575497,0.007955512,-0.0031777408,0.0060166433,0.008840299,0.0025603531,0.0013377644,0.0050485604,0.008023988,0.008570663,0.008498275,0.0070595853,0.008040939,0.008610158,-4.0330695e-05,-0.0009977779,0.0016580223,8.072589e-06,0.0007099446,-0.008638953,-0.009619081,-0.002339458,0.008957439,-0.0036536162,-0.006985459,0.0049137482,0.0010918746,0.0019159022,0.0036744068,0.0035313922,0.0057558343,0.0012263162,0.0008750985,0.009036972,0.0028620327,-0.0047174566,0.006549639,0.005214056,0.0028642179,-0.0030803403,0.0034336501,0.006433192,0.007074439,0.0010001177,-0.008505215,0.00023600637,0.00041238294,0.0039867074,-0.009484874,0.009759884,-0.007023785,0.005783144,-0.009463532
heart,0.009675343,0.007319537,0.0012454086,-0.0033919886,-0.0004376207,0.00041321028,-0.006413967,0.005746109,0.0023642294,0.0037909418,-0.007265005,0.008524705,0.0005212224,-0.00019050483,-0.009071519,0.0040664882,0.0067591774,0.007368184,-0.006400925,-0.007865579,-0.005516284,-0.00059178856,-0.008337049,-0.008266197,-0.0019257687,0.0011555367,-0.009491758,-0.0037224488,0.00064241193,0.00681542,0.0017639141,-0.0006221755,-0.007463906,-0.0067292466,-0.0007067549,0.007485743,0.005436401,-0.0014990487,0.0011433549,-0.009618354,-0.0013957486,-0.0046186987,0.005809023,-0.0023523958,-0.004773425,-0.009484329,-0.0011856857,-0.0072262897,-0.001685618,-0.004100249,-0.0023721543,-0.0032458794,-0.008163042,-0.0012568539,0.0017017757,-0.00406128,-0.0076726065,-0.0035749876,-0.009036112,-0.0007594881,0.00588247,-0.002960431,0.0031511018,0.005016342,0.00846239,0.0056393654,0.009505978,-0.0096639395,-0.007983221,-0.0067219147,-0.0074826134,-0.0079787765,-0.0077879904,-0.0029536996,0.0014156732,-0.0029036829,-0.0088307215,0.0049819867,0.0008920839,0.0045773936,0.0071874345,0.007647651,-0.0008179319,0.003659715,-0.0051162634,0.0018870169,0.0045547024,0.009877866,-0.0031916974,0.0028279377,-0.0057336953,-0.002218369,0.008145667,-0.0039303275,-0.0011867256,-0.009305795,-0.009465218,0.008892088,-0.00569754,0.0050639194
distress,-0.0069717155,-0.0024311987,-0.008030432,0.007494036,0.006131021,0.005203777,0.008387984,-0.0006563104,-0.009350357,0.009091062,-0.0049401876,0.007816107,0.005537094,-0.0010581546,-0.0076567256,-0.0014461939,0.0062487703,-0.0069818413,0.0014356688,-0.007999011,0.008707022,-0.0028366551,0.009424068,-0.005717881,-0.0097333165,-0.008620518,-0.004085785,0.0046989433,-0.00025822234,0.009208375,0.0031207795,0.0037363083,0.0029834826,0.008143297,-0.002374779,0.0074313795,-0.009539166,0.0029004419,-0.0006797304,0.00043527334,0.006856696,-0.0028581766,-0.0023609835,-8.969531e-05,-0.00047118976,-0.0035725485,0.0062529943,-0.0065628057,0.0078986455,-8.278509e-05,0.0025983842,0.003232791,-0.00026660768,0.0017211699,-0.0031364039,0.0047707916,0.00022491787,-0.0033008077,-0.008728047,-0.009988646,0.00031387425,-0.005736705,-0.0011070305,-0.004215764,-0.008634703,0.0010718384,0.0059111067,-0.002207852,-0.007178128,0.003201123,-0.00038372312,-0.005536369,-0.0010892709,-0.0006282477,-0.0031898788,-0.009923961,0.0076295827,0.0037362184,-0.0025328065,0.007318436,0.00044536643,0.007210379,-0.0015648728,0.0075040422,-6.342824e-05,-0.006068812,-0.00470379,0.009667973,0.00060067704,0.0010357158,0.008464763,-0.006276403,-0.0017827834,-0.008138714,-0.006653832,-0.008598279,0.0039475905,0.0026942543,0.0056121126,0.0025567217
humer,0.002113564,0.0057351496,-0.002123516,0.0031739683,0.008468559,0.00037895577,0.00631311,-0.00674575,0.0065643736,0.0046990993,0.005078475,-0.009929762,-0.0004279962,0.003207107,-0.005825996,-0.0066923704,0.0063674417,-0.006840845,-0.005188928,0.008113018,-0.007033528,0.00856021,0.000646317,0.004395248,-0.0030087864,-0.005437287,-0.008954543,-0.00061697914,-0.005115592,-0.0030841266,0.008125482,-0.0076512843,-0.006308737,-0.0052659,-0.0066040535,-0.008837582,-0.0011206124,0.009447554,0.008041746,-0.005295765,-0.008139027,-0.002269726,-0.009267958,-0.0050670304,-0.005942703,0.0030293325,-0.0075806123,0.0012372198,0.0022861396,0.005318176,-0.0020278282,-0.0097808065,0.0052268133,-0.005900375,0.0048925253,0.0019699992,0.008818466,0.001547245,-0.0018346705,0.006505019,-0.0070827072,-0.008387281,0.0038012615,-0.0025791363,-0.00419439,-0.001923631,-0.009876345,0.00026022096,-0.0010601747,-0.0029669683,0.0024976612,0.004693963,0.006348852,-0.007917555,-0.004981766,-0.008804886,-0.008955171,-0.0037335851,-0.0012854172,-0.008220711,-0.005376032,-0.00215011,0.0063379845,0.0015768885,0.008315278,-0.008316014,-0.004569909,-0.0007901717,0.008814846,0.001104086,0.0015431368,0.0012979041,0.0029240584,-0.009390732,0.0032626628,0.0054657636,0.0053047547,0.0044341637,-0.0080828685,-0.0040648947
chest,0.008380478,-0.0005859327,-0.009453255,0.0047796783,-0.006065008,0.006642597,0.0054006483,-0.0050158263,0.0025647213,0.005407426,-0.0035989978,-0.0015340773,0.009209911,0.009078863,-0.009368949,0.0075687584,0.009887103,-0.0028626523,0.002470175,-0.0028359448,0.008636155,-0.0002693199,0.0056116423,0.00923137,0.004075484,-0.007125425,-0.0019702506,0.0009498396,0.0020290688,0.00292199,0.009493502,0.004404257,0.009934198,-0.008673484,-0.005773847,0.002020297,0.003678976,-0.0009971968,-0.0069641867,-0.0032263447,-0.008525886,0.009421189,0.0036817442,-0.007874288,0.0032019308,0.004203611,-0.0056473026,-0.005946994,0.0010393668,0.008976305,-0.009661788,-3.4555449e-06,-0.006888744,-0.00094698,0.0030397961,-0.0050345045,-0.0028181013,0.0006505292,-0.0063851024,0.007321342,0.004370463,-0.008568554,-0.0021068023,0.003137442,-0.008344078,-0.007044472,-0.008487964,-0.0055240127,0.008837504,0.007107828,0.002888133,-0.008564558,0.0057663075,0.004651142,0.00015161406,-0.008871811,-0.0019290801,0.00020586577,-0.007801007,0.0024667229,0.00044832542,-0.0070306123,-0.0082868505,0.0060730637,-0.008365979,-0.0056015924,0.0056157634,-0.00043376823,-0.0030446476,-0.0052479417,-0.0011560032,0.0053101145,-0.005963964,-0.004949612,-0.0049242317,-0.004775669,-0.007956449,-0.009795236,0.0075891977,0.007967627
asthmachron,-0.0043237023,-0.0092642,-0.001874419,-0.003720189,0.009122249,0.0028330712,-0.0059005795,-0.0032717118,-0.009960136,0.0019093382,-0.0040089856,-0.0027295502,0.005196654,0.0076088044,0.0044240244,-0.006833201,0.0067079873,-0.009684075,-0.006995511,-0.008070044,-0.0022494213,0.00053023465,-0.0038075626,0.0018488738,0.009158811,0.0066719446,-0.001045602,0.009068192,0.0015267647,-0.0020002695,-0.006551101,0.0064551365,-0.009103738,-0.0019338444,0.007717622,-0.0025129716,0.0016074162,-0.0073380433,0.004983004,0.007321515,-0.009301392,-0.0033119956,0.007874785,0.0029677504,8.051659e-05,0.0003498572,-0.009867216,0.0099118315,-0.0019822668,-0.0049036355,0.0027756311,0.0010017795,-0.0059244325,0.0058010523,-0.0025074247,-0.0061828387,0.0072455066,0.0064526834,0.008813167,0.001213927,0.0005182946,-0.007902835,0.004707092,0.00932006,-0.0006628725,-0.0017313216,-0.0038399196,-0.00044552845,-0.0076722214,0.005689821,0.0014741624,0.009309618,-0.0063591986,-0.0050502415,-0.006206641,-0.007225727,0.0027126009,0.0049229944,0.001310294,0.0035372414,-0.0094043035,-0.0009757,-0.0077929418,0.0029908463,-0.0026633067,0.008900367,-0.0033657458,0.0069357473,0.004194885,0.0013624413,2.5008687e-05,0.008205626,0.0023251818,0.0083262855,0.0034317723,0.0054127513,0.005179537,-0.007688906,-0.005780443,0.0011723574
cholang,0.00019954503,0.0021548395,0.001071011,0.007579513,-0.004414427,0.00032989625,0.0070085377,0.0022609674,0.00424229,0.004304025,-0.0012606146,-0.008334512,0.0030510284,-0.008868873,-0.0026519673,-0.009388174,-0.00047133895,-0.007863016,0.0074234824,-0.0048898957,0.00992352,-0.009031684,-0.0043174196,0.0019349564,-0.0029996457,0.001447091,-0.0036766785,-0.00089084293,-0.0057242583,-0.009829066,0.0063321735,0.0003858459,0.0065004323,-0.007482978,0.0036659427,-0.009897695,0.0076174038,0.0059295543,-0.006112189,0.008205295,-0.0055723856,-0.008554762,0.0014949072,0.0031899633,-0.008092449,-0.008936434,0.009175774,0.0016477446,0.0008821888,0.002475143,-0.0035065128,0.0017386656,0.0019634387,0.009805941,-0.005607911,0.002275942,0.0063020294,-0.006684615,-0.008936121,0.008654562,0.006841533,-0.0040243003,0.005743984,0.00078510796,-0.0050158985,-0.001357104,-0.004903369,0.006141012,0.0019642087,-0.008315006,-0.00013757445,-0.0026513129,0.0066013406,-0.0011372253,0.0076688556,0.0019526302,-0.003828729,0.00816091,0.0029531042,-0.0039710547,-0.005596744,-0.0030790132,-0.0051334873,0.0034294392,-0.009283321,-0.005824643,0.0033523473,0.0002072576,0.0060088243,-0.0036125942,-8.2799015e-06,0.0024741318,0.0054646716,0.0016127469,0.009815958,0.0037218453,-0.0071813962,-0.0014074253,-0.008361038,-0.0053306813
cholecyst,-0.0021953976,-0.00970765,0.009295289,0.0020319677,-0.001161182,-0.005503707,-0.0085098315,-0.009903475,0.008944385,-0.0024994253,0.0045923768,-0.0045173643,0.009958059,0.0036547207,0.0010256934,-0.0040441034,0.0012106216,-0.0026468039,0.007350738,0.004478253,0.0009866821,0.003483088,0.0037143505,-0.006785375,0.008930763,0.0017362308,-0.0057874643,0.008656683,-0.0012914777,0.008187038,-0.001506871,0.006987652,0.0027263963,-0.004359729,-0.0037479282,0.009191782,0.001591866,-0.006007011,0.00034962298,-0.0019623982,0.0015845251,-0.0077173174,0.007384087,0.001312226,0.007875197,0.004453044,-0.004393872,0.003752681,-0.00063848495,-0.009856249,0.00824213,0.009649374,0.00965339,-0.0037998045,-0.008449623,0.0048277043,-0.007655481,0.008532052,0.0027602506,0.005603337,0.006116494,0.00046480776,-0.0020948946,0.00077317236,0.0098359585,-0.007124536,-0.0015524542,-0.0023585416,0.0048660077,0.0064500393,-0.0041320394,0.003623669,-0.0044811275,0.0032704663,0.008168473,0.003628608,-0.004572811,-0.0030091642,0.007866405,0.009604061,0.005817094,-0.0032740354,-0.0018252826,-0.0062573934,-0.0042955745,0.003374362,-0.0064877463,-0.0066161607,0.00811142,0.009505462,0.008140584,0.0015104342,-0.00879589,-0.007597166,0.0015720784,-0.009527631,-0.007410209,0.0020241237,-0.0029211687,-0.00915701
mi,0.006445465,-0.008961945,-0.007373742,-0.0017794034,0.0017052529,-0.0011249419,-0.0051356424,0.006634385,0.008798171,-0.0074582435,0.009768486,0.007325382,-0.007487272,-0.0019089236,0.004241825,0.0071102455,-0.0036380582,-0.0070132846,0.004759648,-0.009119196,-0.0058694696,-0.0012379332,0.0054319245,-0.0057396917,0.0047600754,-0.00047000402,0.0026693416,0.006401442,0.0013877988,0.0077115907,-0.00025801137,-0.008298101,0.009207831,-0.0049047344,0.004697587,-0.0038525607,-0.0073118126,-0.006532672,0.004686188,-0.0007376236,0.0014845086,-0.008998699,-0.0051944507,-0.006042728,0.008492018,-0.008697161,0.0050200173,-0.0009209702,0.00018732507,0.008818273,-0.0035736198,-0.0069587384,0.00079833117,0.00775777,0.009120367,-0.0036773765,0.0027301782,0.0049539246,-0.0053408192,0.0069495374,-0.0064731175,0.002130112,0.0046113236,0.004386172,-0.004689399,0.0026720033,0.007303898,0.0086275255,-0.009537896,0.0055816895,0.004962163,-0.0016010621,0.009251956,-0.0041610873,-0.0016725548,-0.0068749725,-0.0038167434,0.00027260746,-0.0032980337,-0.0054192254,0.006579176,-0.005230311,-0.006321514,0.007714212,0.009695991,0.0039876434,0.000113409274,0.0008454858,-0.00094525656,0.0068433,-0.00621152,0.00054307474,0.004303388,-0.0021013578,0.0009540565,0.0037119763,0.009795578,0.002146177,0.009543751,-0.005847876
subdur,0.004823163,-0.0036312428,-0.004259994,0.0012420525,-0.0041034906,-0.0056756716,0.0031578678,0.008370257,-0.0065708095,-0.009124549,-0.0033496767,0.0075115305,-0.0096792765,0.009612383,-0.0004080015,0.0023086604,-0.001845576,-0.005760284,0.0031184882,0.0061831125,-0.0070524705,-0.0011737917,0.0015251815,0.0042448193,0.0071263313,-0.0035426808,0.0072723934,-0.0055713374,-0.0022187636,0.009074614,0.0054102885,-0.008473701,-0.0016478543,-0.0088629015,-0.0016289145,0.0056848526,-0.0074153976,0.0054964754,0.00607518,-0.0038004373,-0.009638179,-0.002531917,-0.0025646316,0.0037664906,0.00894753,0.0019907586,-0.0021027671,0.0029509526,-0.006787202,-0.0012940705,-0.0014787288,0.009594366,-0.005821244,-0.007042962,0.0023635002,0.0026259802,-0.0071697636,-0.005883117,-0.0011824254,-0.0032857035,-0.00897995,-0.004046773,-0.0029500138,0.0065011866,0.0009539158,0.0016430204,0.00028609886,-0.003381135,0.00309591,0.0007147154,0.0059484974,-0.0007653077,-0.008885851,0.0008766589,0.009956286,-0.0052416585,-0.0052245613,-0.0025194755,0.008575001,-0.0008069965,0.009414505,-0.008308276,0.009006577,-0.009681882,0.009195729,0.001866802,0.0026900668,-0.0058427183,0.008461392,0.0060376627,-0.0054800576,-0.009471938,0.0069640316,-0.005512252,-0.009281636,0.0025855745,-0.0049523665,-0.0073593827,0.009738448,-0.0015878546
stroketia,-0.0015110135,-0.004034504,-0.0043988526,-0.0046293857,-0.005595714,-0.0053018034,-0.008022303,0.009518845,0.0063990653,-0.0036066938,0.0024784422,-0.0076424945,0.0075231018,0.008304736,0.00078943017,-0.006832991,-0.002957728,0.004733969,-0.002939384,0.0031764733,0.009408716,0.004353106,-0.0051454795,0.005467093,-0.0028791917,-0.0063939407,0.0070078014,-0.009253933,-0.0011306572,-0.0013853407,-0.008415947,-0.0011023998,0.0055972575,-0.005267652,-0.007026136,0.0062002684,-0.0034264398,-0.007819556,0.00029337048,-4.9802064e-05,0.007540907,0.00056930183,0.007882459,-0.009812782,0.0040332675,0.00621811,0.0010294437,-0.002836411,0.0010266149,-0.00083912135,-0.008108269,-0.0067834724,0.001200155,-0.0020178736,0.009549418,-0.0009494269,0.0061186957,0.002046138,0.008099689,-0.00929052,0.0023927295,-0.0014512575,0.0021549999,-0.00021979929,-0.006640631,0.009050456,-0.002843398,0.001914314,-0.006441698,0.003714218,0.009995805,-0.0011962545,0.006580218,-0.00012432098,0.007928181,0.00965093,-0.00039128662,-0.0016983438,-0.009521616,0.009874873,-0.0025329662,0.0021891915,-0.0016988862,0.008327348,0.008343778,0.0015368855,0.002885666,0.0064340653,0.0022477007,0.006444316,0.00014674067,-0.002285471,0.0053072535,-0.0034152747,-0.0026156104,0.008791729,-0.009154693,-0.0034136428,-0.0029241275,0.00566893
hip,0.007937986,-0.0063902694,0.0058185034,-0.00023810848,-0.009015099,-0.0024865211,-0.0015500857,-0.004437517,-0.00081053795,-0.005270312,0.0059337704,0.009303022,-0.0015695122,0.0033806677,-0.0007396976,-0.00068807433,-0.00701452,0.0014329224,0.0039058984,0.0068803644,0.006538783,0.0035521009,0.0046796557,-0.0073949043,-0.0014054418,-0.005758605,0.0067939977,0.007830952,-0.004293846,0.0011436202,0.0050871596,0.0017878014,0.00078107207,-0.0067598205,0.009841843,-0.007226035,-0.0060404446,-0.0056814514,-0.006376837,-0.0034921116,-0.009405756,0.0011977446,-0.0037727775,-0.0025638626,0.0058016377,0.0035469602,0.0017744496,-0.001360664,0.009910607,0.0002995939,0.0050018667,0.009041288,-0.009774501,-0.00917214,0.009936364,0.0027211346,-0.0018941163,0.0047401506,-0.0042920266,-0.0064193564,-0.008252604,0.0071983403,-0.0024348397,-0.007547716,-0.005917997,0.0061816834,-0.002464119,-0.006150046,-0.0016417645,-0.0014740737,-0.0032477484,-0.002062469,0.004120725,0.001445268,-0.0035070512,0.002729302,0.0052075074,-0.009196625,-0.0075804573,0.0063282726,-0.008959859,0.00056417787,-0.009004923,0.008363412,-0.0043128324,-0.0066192225,-0.0013331216,-0.0010869362,0.007552876,0.009086389,-0.00033282334,0.0027142004,0.004724098,0.00015814955,-0.0057403725,-0.00059100264,0.002208663,0.008273653,-0.0036300807,-0.009848177
tracheal,0.0053879493,0.009841781,-0.007055483,-0.00056983216,-0.005027146,0.0063754926,0.009713217,-0.00028343927,0.005082324,0.006516661,0.00439449,-0.008065715,0.0031219549,-0.0014886534,-0.0021470827,0.0054091676,-0.0013096998,0.0098866215,-0.000625174,0.00022901445,-0.0023039195,-0.008489451,-0.009839517,0.0049633943,-0.0066489116,0.0029385823,0.0027722863,-0.007008999,-0.0031629065,-0.005828697,-0.008522385,2.8375081e-05,0.009765554,-0.006699913,-0.004350335,0.008396045,0.00932392,0.009789875,-0.009902034,0.004996021,-0.006625123,0.006836189,0.0061186343,-0.0033478853,0.006924167,-0.0078672785,0.004550399,0.004551927,0.005940352,0.0058770757,-0.0026481636,0.003887608,-0.00610358,-0.006437044,0.0027267672,-0.009460549,-0.00031055967,0.0011062386,0.007986738,-0.006972519,-0.0023272205,-0.0040963725,-0.00519688,-0.00047690095,0.00460516,-0.004939218,-0.0016584161,0.008669316,-0.0013273347,-0.0035639193,0.0074027083,0.0012264035,-0.00031068941,0.0094796475,0.008163688,0.0034311065,0.0033314943,-0.0022692,0.008086974,0.005067116,-0.0054523353,-0.0060686856,-0.0006134547,-0.007872456,0.0033589257,-0.009213445,-0.001505914,0.003424284,0.003097548,0.00313763,-0.009023965,0.0034345756,0.0053211395,0.003507892,0.007856075,0.0016506406,0.006323722,0.008773045,-0.00091175514,-0.0008358622
fall,0.002230147,-0.0075115724,0.0056570363,-0.005038497,-0.0032555296,-0.0018533532,0.008268185,0.0022769514,-0.00091568875,-0.0028592045,-0.0021216138,-0.0013160363,-0.005067086,-0.0041516004,0.00020326467,0.004557129,0.0018059008,0.0068848603,0.00065665925,-0.0032707567,-0.0073844236,0.006022505,0.00694579,-0.006057536,0.0046535265,0.009510099,-0.0063892077,-0.0028998626,-0.009120728,0.003211315,-0.0034408227,0.0020454256,0.009430692,-0.008402556,-0.0093224645,0.0017518419,-0.008028818,-0.009086476,-0.009374919,-0.00031360006,-0.0010940799,0.00072147284,-0.001359011,0.009064089,0.008829985,-0.0063525215,0.008682952,-0.009065387,-0.0013432852,0.0025461193,-0.00010097107,-0.0037908733,0.00045221066,0.0010175717,-0.009420826,-0.004926279,-0.0077222623,0.0038157997,-0.0009169059,-0.007473669,0.005633218,0.00023316937,0.0027367645,0.005418366,-0.004249731,0.00785184,-0.007854737,-0.003454713,-0.007365608,0.0009769415,-0.0073942053,0.00910192,0.0055544116,-0.00721918,0.0062225764,0.006615627,-0.007444991,0.004662547,-0.0077640177,0.009352631,0.004683685,-0.0001827488,-0.008962894,-0.0008932511,-0.00027369734,0.0008973342,0.008707623,-0.0027384458,-0.008669793,-0.008857677,-0.0010365789,0.0014223302,7.827061e-05,-0.0021948838,0.008605067,0.00010475805,0.006446733,0.003975844,-0.007224903,-0.0021367199
effus,-0.0077748955,-0.006743557,-0.003151623,0.0066025006,-0.00081160007,0.00884377,-0.002260719,-0.0052855886,0.0038913372,0.0022000752,-0.00028107502,-0.0024575996,-0.00599033,0.004044364,-0.0076007387,-0.008915182,-0.00916786,0.008361844,0.004002714,0.0070510535,0.009875696,-0.007211447,0.0040233135,0.00281685,0.0061348295,-0.003398759,0.0093412325,-0.0058174804,0.0070251497,0.006926014,-0.0003843213,0.005061064,0.006634649,0.0015555393,0.0073815263,0.0024292616,-0.0015245003,0.007390982,0.0046947263,-0.00321018,0.0016545431,-0.00015839488,0.004939271,-0.0053858417,-0.0041666734,-0.0009293559,0.0038207015,-0.0066121076,0.00784928,-0.003076687,0.0057323272,0.002870433,0.006822343,-0.0044700154,-0.0031977363,0.0030521797,-0.0027794829,0.0059510036,-0.0059614303,0.0025998487,-0.0007032583,-0.0006091255,0.0025563706,-0.0021969357,-0.0042721895,-0.008551538,0.002486127,0.0053336266,-0.005896852,0.0091243,0.00404892,-0.0051714466,-0.0012968729,0.0039379536,-0.00699236,0.0020671787,0.005487029,0.006254315,0.0054062684,0.003663777,-0.002744266,-0.006055743,0.008140083,-0.0072839595,-0.0016188842,-0.003265103,0.0065195835,-0.0062399833,0.003427758,0.00203711,-0.0040590726,-0.008229941,-0.008029382,0.0035432288,-0.009529494,0.005704155,-0.0028747462,-0.009192299,-0.005136539,0.007719183
diseasecoronari,-0.0017180123,0.006538151,-0.009326826,-0.0092681255,-0.0051134643,0.000757138,-0.006995236,-0.009232882,-0.009014123,-0.0005290967,0.0073881107,-0.008460451,-0.0052341674,0.0015958619,0.0034126746,-0.0084252395,0.007886366,-0.008341024,0.004787081,0.009234273,0.0056200675,0.0062909885,0.00805306,0.0034459129,-0.007230443,0.0057245167,-0.008325753,-0.0058579706,0.005804521,-0.008075088,-0.0057798643,-0.003575715,0.0033026552,0.0051843007,0.0021165172,0.005309656,-0.002570346,0.00436554,-0.0070665865,-0.0018567507,-0.00775535,7.126704e-05,0.004636609,0.004919865,-0.0045229485,0.0018406097,0.00783037,-0.005630155,-0.0038428695,-0.00059139467,-0.004674407,0.008765828,0.0075391475,0.009316251,0.009383989,-0.008499061,-0.00045166689,-0.0076035024,-0.0048964727,-0.008744507,0.003446085,0.00011706307,-0.0068271547,0.007945736,0.0009002059,0.0003004346,-0.0036643685,-0.0033498055,-0.002753761,0.007762571,0.0024399622,-0.005163695,0.004850772,0.0010843661,-0.00260354,0.007731964,-0.00405552,0.0075204712,-0.0042970194,-0.0073248316,-0.0044939006,-0.0036194979,-0.00074039015,-0.001766131,0.005140109,0.0054974393,-0.0016011109,0.004043666,-0.0019061257,0.0007400264,-0.0011931298,-0.002364282,-0.0047993395,-0.004082981,0.0003231697,0.0016342903,-0.009291499,0.00586094,-0.0016470233,-0.00310037
obst,-0.004806103,-0.004288563,-0.004821476,-0.009829027,-0.00078085036,-0.00789139,-0.004733908,-0.0072975,0.009878599,-0.0013716267,-0.007830157,0.0055283196,-0.008039807,-0.0019166542,0.0027619286,-0.007065013,-0.008742801,-0.006681418,0.00748103,0.008990323,0.003993086,0.002437889,0.004082559,-0.004117131,0.009731632,0.0068687676,0.0041304147,0.008916944,-0.0084432205,0.0008960416,0.008965614,-0.0009414186,-0.0067525147,-0.0023059906,-0.0027633861,-0.0023804777,-0.0018351128,0.007262721,-0.00032994186,0.0041792043,-0.0037415,0.00818228,-0.0065304944,-0.009306773,-0.004040996,-0.0073679746,-0.0048818337,0.00045903513,0.0023950022,0.0017000355,0.0050548827,-0.0014007848,0.002294117,0.00040412322,0.007821161,0.008034222,-0.0019872556,0.0012212446,-0.0060802787,-0.0047054323,-0.006959946,4.231029e-05,-0.0048599723,-0.0040926747,0.0015303293,0.0026324862,-0.009172564,0.0017937119,0.005079746,0.004167446,-0.0029437235,0.009539045,0.009507071,1.023952e-05,0.0009299951,-0.009249482,-0.004854696,-5.423398e-05,0.0040105223,0.0001803728,-0.008745102,0.0059189256,-0.007455516,0.00861807,0.0055320864,-0.0067865597,0.0029199547,0.00783297,-0.0060513043,-0.0065541132,0.009249482,0.0018595408,0.0096852165,-0.009884689,-0.0013832691,0.0068878555,-0.0014021979,-0.001831108,-0.0070654694,-0.005721
bypass,-0.0064961547,0.008946263,-0.0016557331,-0.008307838,0.008038896,-0.003106609,-0.0011938589,-0.00055229047,0.002742138,-0.004765497,-0.00031555904,-0.0029061497,0.008860118,0.006948284,0.0011102081,-0.0060082246,0.0031527649,0.0010196479,-0.0060624722,-0.0058674295,-0.0031407794,0.0025300866,-0.008231653,-0.0049795816,0.008067093,-0.003743715,0.0079513155,0.00044048796,-0.005643778,-0.005053928,-0.00013177114,0.0045753103,-0.0061002104,-0.00554037,-0.006812776,0.0068774247,-0.0023858435,0.0039724684,-0.0016449167,-0.007539044,-0.0012588531,0.00032188112,0.0035186165,-0.0085924,-0.0066962135,-0.00649023,0.0030239187,-0.0038035433,0.0009941488,0.0041885995,0.0045337128,0.0023858133,-0.0029050848,0.0006542287,-0.0053937994,-0.0063764188,0.008723814,-0.0040403795,-0.009384747,0.0038121566,0.008489273,-0.00016297319,0.0023173492,-0.0035460074,-0.004245838,-0.008616173,-0.0079702735,-0.009098313,-0.006057703,0.008601013,0.009472917,-0.0016828695,0.00013924297,0.007883872,0.0013819796,-0.0051263752,0.002542066,0.0018377102,-0.0037452613,-0.0048697586,0.009644362,0.0077969125,-0.008630212,-0.005433069,0.0014096791,0.0008875465,-0.008260787,0.00952275,-0.0053266943,0.004614501,0.009347036,0.0011905577,0.004152584,-0.0025796806,-0.009589694,0.0005940738,-0.00097252836,-0.010052146,0.0070553436,-0.007471642
graft,0.0051408787,-0.0043196273,-0.009239392,-0.009151991,0.006301699,-0.005420454,0.00540248,-0.0013778016,0.009589399,0.007114151,0.009847793,0.008295369,-0.007796194,-0.009525959,-0.0055169137,-0.00075251225,0.0050275824,0.0035501618,-0.0019698483,0.004879279,-0.003408512,-0.0066829524,0.0045674006,-0.009867512,0.00085671974,-0.0050418945,0.007589285,-0.003816361,0.0027064201,-0.006359925,0.009675281,-0.0055802087,0.0034983146,0.0031564282,0.008981428,-0.005411134,-0.0043224753,-0.006263509,0.0061116945,-0.004727166,0.0048298617,-0.0009757362,0.0072486647,-0.00594651,3.6825273e-05,-3.1613974e-05,-0.008548526,0.008684986,-0.0021127907,0.006456635,0.00012105607,0.0050752196,0.0022112965,0.008923443,-0.008328503,0.008420836,0.008676607,0.0010646874,0.0043641487,0.0039158477,0.0041115982,-0.002929738,0.0029061656,0.0007511885,0.0047769365,0.008429563,-0.007852255,0.00016130983,-0.00882484,-0.0014326625,-0.009015448,0.0031805937,-0.0014908625,-0.00063606177,0.006547736,-0.008081969,0.0010825568,-0.0023429042,-0.003786787,-0.0072317724,-0.00797769,0.0084934905,-0.007480343,0.004885923,-0.0037862374,-0.0011792427,0.0029312035,-0.008347917,-0.0055541215,-0.007733685,-0.009256498,-0.004677287,-0.0032769265,0.00061861234,-0.00055288395,-0.007877956,-0.0036723304,-0.0029344235,-0.0063770083,-0.0064652334
statu,-0.002614084,-0.007866273,-0.00827264,-0.0076157246,0.0036142024,-0.0077177924,-0.0035903458,0.0067307996,0.0073200394,-0.0064332,0.0067451475,-0.0078570675,0.00014909156,0.006654255,-0.0028036726,0.009247834,-0.00035093195,0.0046300846,0.0069945455,-0.008637283,-0.006149962,-0.007207058,-0.0012439118,-0.007088548,8.16245e-05,-0.008069677,0.00047590426,-0.00046648955,0.006416777,-0.008972857,-0.0031116947,0.0058819405,0.009192154,-0.0017865256,0.00082104583,-0.006043256,0.0008472809,-0.008163307,-0.007578519,0.0012596054,-5.763805e-05,0.0055014077,-0.009817544,0.0016983711,0.0016441238,-0.005205136,7.695603e-05,0.0060017486,-0.006571564,0.00029713937,0.0039125974,0.00170959,0.0028995005,0.008214458,0.0066896966,0.0035600557,0.007997726,-0.0076686624,0.007522482,0.00394989,-0.0058915135,-0.004168775,0.0064207194,0.0057639913,-0.009894351,0.001279552,-0.00043670903,0.0007935404,0.007031413,-0.007148072,0.009645619,-0.009420957,0.006293589,0.0095425295,-0.0037796136,-0.009330793,0.006135798,-0.008936518,-0.008304849,-0.00080973963,-0.0066371798,0.008837784,0.00785213,0.0008925685,0.0079682935,0.009884939,0.0052654063,0.0044045406,0.005496873,0.006425636,0.0047499123,0.006458941,-0.0075043696,0.008922217,0.0083846925,0.009390405,-0.008932803,-0.0035062465,-0.00030305117,0.0040986235
motor,-0.008196815,0.00019718944,0.0060385144,0.009532641,-0.0028011939,0.0017207334,0.006450945,-0.0019233824,0.0018538703,-0.009377885,0.00067094626,0.004494373,0.0045593474,-0.009739731,-0.005132925,0.002976299,0.001585349,-0.0047501656,0.005853065,0.0033806777,-0.0078732,0.009912107,-0.0077940607,-0.0030142101,0.009688722,0.0010783916,-0.005549018,0.0010379032,-0.00413739,-0.00683034,-0.007705531,0.0048013814,-0.009038775,0.0040440527,-0.0055200756,0.00554569,-0.0043653506,-0.0056002224,0.00634655,-0.0087661,0.001366844,-0.0021609694,-0.006746072,-0.007575565,0.006797949,-0.004419862,0.004594405,-0.009702399,0.0019143868,-0.0019465424,-0.005895399,-0.0027845732,-0.008625374,-0.0034713715,-0.002590347,-0.0022877161,-0.005118769,-0.0091934055,0.0053296373,-0.0012294619,0.0062035657,0.0031033128,0.008557914,-0.0035399783,-0.0089471815,0.0013568869,-0.009043952,0.006041225,0.00842104,0.00050767657,0.007730132,0.008585006,0.0042524193,0.005454051,0.009230886,0.00121689,-0.008273221,-0.008321594,-0.0018147002,-0.0006060406,0.008814341,-0.009213594,-0.0026044669,0.009175859,-0.0015071938,-0.009066666,0.002091603,-0.005733242,-0.0053614555,-0.0063333954,0.00021388938,0.007300343,0.0040572733,0.008257781,0.008923907,0.004508709,-0.006004009,0.006989164,-0.009460841,-0.0048566367
sda,0.008020015,0.007953847,-0.0054426277,-0.0080094645,0.008118351,-0.0039053017,-0.004032674,0.0072811004,0.0053730137,0.00381301,-0.0012662531,0.008652996,0.008478067,0.0070147724,0.009070563,-0.0057700784,0.0009989594,-0.001670139,0.006372375,0.009696013,0.0051567974,0.004112164,0.0064666304,0.0058862353,5.138675e-05,-0.0083739245,-0.0021619864,0.009051074,-0.0051171463,0.0009530636,0.004934355,-0.0069223125,0.008189762,0.0014504041,0.002433496,0.008353024,0.001468265,0.00087340066,-0.009423216,0.0097924275,-0.009856096,0.008530637,0.0050404244,-3.2596326e-05,-0.007836323,0.009372398,-0.0013777004,0.0053266403,-0.0030447722,-0.0048975977,0.00017666139,-0.008008874,-0.00664614,-0.009443544,0.0053564473,0.0004101297,-0.0009201228,0.0051105134,-0.0019745082,-0.0073494073,0.002893048,-0.005959048,0.00052616955,0.009464292,-0.0009733519,0.006156126,0.0044400464,-0.0035577093,-0.005281991,0.008895396,0.0021125078,-0.00044385972,0.0009409314,-0.0049094,0.003615314,-0.0031125285,0.004203977,-0.004529377,-0.0008207529,0.003918432,-0.00715654,-0.002430989,-0.008748444,0.001583996,0.0020103466,0.0023944492,0.0011378906,0.00018528535,0.0022556994,-0.00094992016,0.0059862095,-0.0029097067,-0.005135068,-0.005279536,-0.009592574,-0.008133908,0.0021761502,0.0039382824,-0.005755407,-0.009696461
vehicl,-0.0061438098,0.004683104,-0.009080538,0.0050593694,0.006402141,0.0060593947,-0.0075655114,0.0028939107,-0.0055048335,0.009006692,-0.0043339003,-0.0024215549,0.0052523743,-0.00080551667,0.0051203724,-0.004208531,0.0049683233,-0.009826237,0.006097768,-0.0012999595,-0.005638926,1.119561e-05,-0.0012589436,-0.00068456295,-0.0017785496,-0.009319536,-0.007820728,-0.006851955,-0.008666177,-0.0045618475,0.009208148,-0.001811035,-0.007618975,-0.0059252516,0.0036155449,-0.0026637954,-0.0015557937,-0.0042570014,0.0059677786,-0.007878952,-0.007465404,0.0074857683,-0.0069938796,0.0021828923,0.00039957566,0.009708535,0.004231975,0.002061752,0.0027722074,0.0023461797,0.002193576,-0.0027339773,0.0040962053,0.006106806,0.008924138,-0.0007335144,-0.0011989457,0.006455515,-0.008481933,-0.0006108616,-0.0066745775,0.0047908183,-0.008949556,0.0032417818,0.008989638,-0.0020554191,-0.008839626,-0.008168038,0.0032464645,-0.005326385,0.0064433,-0.0012031399,0.007904401,-0.00048313444,-0.006183002,-0.005668116,0.0007563618,-0.004755877,0.0065616407,-0.0035142873,-0.005638749,0.0010085804,-0.0048630335,-0.0081746625,-0.0052895,-0.0018317793,0.0004670088,0.0037063337,0.0069350237,0.006729801,0.005911445,0.000343466,-0.00584673,0.009071378,-0.0006273887,0.0047205454,-0.001402439,0.0057462687,0.0053381617,-0.0073395
casda,-0.0027547479,0.00013188082,0.0020462412,-0.009304802,0.0048542237,0.0033359095,-0.00013909816,-0.003471379,-0.0076369955,0.0075781927,-0.008626018,-0.007401582,0.0044581336,-0.008530037,-0.0032818336,-0.0020794554,-0.0018992214,-0.0068311654,0.0043003056,0.0009777483,0.0036335126,-0.0013317246,0.0069407914,-0.0095468825,0.0058222953,-0.0051262556,0.0016981561,-0.006951909,-0.0024973033,-0.006457027,-0.0033431444,0.009725791,0.0026983204,0.001616425,-0.0060599386,0.0056083677,-0.008118639,-0.0022957881,-0.006462728,-0.006377383,0.0022931728,-0.003308207,0.002425907,0.0039271745,-0.006248232,-0.0017443395,-0.002746632,-0.009817967,-0.009835688,0.0011097695,0.0043920954,0.00025596775,-0.004871933,0.0036557731,0.0016785492,-0.0094249705,0.007203383,0.007784381,-0.0077276365,-0.0007564496,0.006022127,-0.002770388,-0.00034569763,-0.0042029475,0.006119828,0.007022448,0.0020869114,-0.0047049127,-0.0018198306,-0.004002764,-0.009787042,0.007821884,-0.0005924572,-0.0005868182,0.007106166,-0.009025018,0.0063262414,-0.0075663547,-0.0053405855,0.0051021357,-0.0035085278,-0.003448589,-0.0063059297,-0.0038859097,-0.0026618645,-0.004077451,0.0094775045,0.009488487,-0.0003547189,-0.0002760818,-0.0056384597,0.007919534,-0.004943377,0.0058906465,0.009166269,0.005750947,-0.0009188505,0.005518648,0.0069451407,-0.0038870126
upper,0.00067138724,0.006494368,0.0058848932,-0.00018485138,0.0024006148,-0.0065639005,-0.009364565,-0.004902934,-0.005412189,0.0005796885,-0.0039892998,-0.00039202435,0.0076302225,0.009752842,0.007904455,0.0023736425,-0.0027164905,0.0024021275,-0.0026857606,-0.008969438,0.006925781,-0.008635567,0.0037856274,-0.0039671334,-0.005571394,-0.0010526669,-0.006554612,0.0085998615,-0.0068756416,-0.008954886,0.0058037397,0.0044498527,0.004732477,0.0024148354,-0.0037044217,-0.0050851465,0.0017682357,0.008369578,-0.005651224,-0.0024065096,0.0018583382,0.0066926,-0.0063943234,-0.004486206,-0.002626981,0.0013334899,0.005340829,0.0055637825,-0.008712152,0.007286423,-0.0024912523,-0.0028580492,-0.008861278,-0.005773372,0.009429764,0.0030600477,-0.008027783,0.0028088703,-0.007096082,-0.0090438435,0.0038675694,0.002064299,0.0012563196,0.0088140685,0.0062670573,-0.005071218,0.0027566587,0.0025957767,0.002376428,0.00833385,-0.0069255596,-0.00230501,0.0010319314,0.0064011314,-0.00062647404,0.007961229,-0.0046302774,-0.009016644,-0.0070700455,-0.0041285036,0.00956684,-0.0050821267,-0.004884986,0.00820054,-0.007430826,0.0020373028,0.0057244073,-0.0075069577,-0.0002446849,-0.0023679445,0.005596806,-0.004525264,-0.0066171787,0.009939302,-0.004610269,0.0075998646,-0.008441606,0.006995711,-0.0033646983,-0.007848319
pulm,-0.0011884877,-0.0023125454,-0.0018318641,-0.0011712824,-0.006513524,-0.00365614,-0.0031355768,0.0078101717,0.0057867467,-0.00092243915,-0.0048630936,0.0052821245,-0.008801727,0.0016814142,0.0040474245,-0.0019419376,-0.004536896,-0.008250396,-0.008274615,0.007066617,0.0036493577,-0.0003566294,0.009657284,-0.008582798,0.0005518149,-0.00044456523,-0.008044432,-0.009128889,0.007156591,-0.003661606,-0.007842272,0.007945324,-0.006290353,-0.0031332076,0.0017991647,-0.0032770282,-0.007934111,-0.00392776,-0.009015074,0.0013387465,-0.004623261,-5.8273792e-05,0.0026871753,-0.0023298697,0.008878707,0.0070327856,-0.0005520729,-0.00066057977,0.00088812946,0.006697101,0.008988748,-0.0019324464,-0.001581985,-0.0029450653,0.0005002479,-0.0064689727,-0.0018710331,-0.008666489,0.00065948,0.0014796221,0.003753511,-0.0028368707,0.0059657674,-0.0071066744,0.009838599,0.0005800623,0.0022571809,0.0043835565,0.00036879905,0.002597747,0.0015806783,-0.009591724,-0.003095807,-0.0025638794,-0.009210291,0.0034921179,0.004768088,-0.0020448014,0.0074154553,-0.0012065051,-0.00029543845,0.0058801714,-0.008510396,-0.006873108,0.007382843,-0.0065744873,0.008533682,0.0054544425,-0.007963597,0.008394761,0.006384581,-0.006668247,-0.008501105,-0.008770484,0.003914228,0.0063190786,-0.0020645666,0.0012996712,-0.008383538,-0.0051793554
mitral,0.004688057,-0.00904401,-0.009258791,0.0009848269,-0.008574693,-0.0070052873,0.0048092604,0.0080653075,-0.0073957783,0.00807793,0.009364966,0.0046707527,-0.0044001047,0.009699841,-0.007699782,-0.0038727813,0.0019428846,-0.0076690735,-0.009870297,0.0028049662,0.008172961,-0.0050649336,-0.0043325312,0.0038909714,0.00068912073,-0.0085353255,0.0065430556,-0.0032048954,0.003554769,0.0031312031,0.008892341,0.008744002,0.007291499,-0.008302896,0.0012318423,-0.00091034954,0.0008937946,0.008909114,0.004777824,-0.008979279,0.009813905,-0.0009321162,0.00039242228,0.004984826,-0.0061665676,-0.00038664934,0.001397525,0.007023876,0.004274584,-0.0019177892,-0.00846442,-0.0038748288,0.008794316,-0.009462168,0.009855256,-0.0001470688,-0.0011072604,0.009593522,0.009542584,0.008308217,0.009022189,-0.009971096,0.007524112,-0.0093771545,-0.0077281166,-0.008828357,0.002101827,0.0071972525,-0.0063241087,-0.0026665942,-0.0023335086,-0.0044947267,-0.0012763074,0.004890974,0.0037468814,-0.0032167593,-0.003730899,-0.0023229923,-0.0032523128,0.003959479,0.009759468,0.007919763,-0.0075955847,-0.006424522,-0.009124465,-0.0059088813,0.003681074,-0.0059532966,0.0017309109,0.008903096,0.0033867096,0.0012074453,0.008899445,0.0064729094,-0.0013959724,-0.006191377,-0.0010159732,0.007214346,0.0074894186,-0.0040860744
cancersda,0.009932928,0.002409359,0.0051328866,-0.005673633,0.0043809116,0.00023832903,-0.009591554,0.0050755115,-0.009024964,-0.006480975,0.0027961058,0.009278989,-0.0021101187,0.0069911457,0.0050762654,0.004061245,-0.006187721,0.005069576,-0.008308611,-0.004316511,0.0054401457,-0.008160427,0.005734245,-0.0034915518,2.049752e-05,-0.007343444,-0.00625747,-0.0033115419,0.00860258,0.0053500654,-0.009696868,-0.006576799,0.0034250773,-0.008513536,0.006665036,0.006166103,-0.009299363,0.008645087,0.00783697,-0.0018025202,0.0017655753,-0.005693096,0.006213383,0.007709261,0.0040402147,-0.00886383,0.004953917,-0.0030622808,-0.0022204688,0.0061008036,0.0018419848,0.004623849,-0.0062858462,0.0052375724,-0.0035262457,-0.00039109486,0.0062209587,0.0040841145,0.007474775,-0.0039285896,0.0035421702,0.0073060817,-0.0032788187,0.0057643056,-0.00942343,0.008856061,0.0037603758,0.0053046113,0.0046464563,0.0045708106,-0.0033096415,-0.0062075336,-0.002290843,0.0013879592,-0.0029393474,-0.008466136,-0.0063029327,0.008339352,0.0093278345,0.005964575,-0.0041054874,0.0007024855,-0.008576331,0.0066707116,0.00046006794,0.0073863966,-0.0053687464,-0.0028379494,0.002870987,0.003468881,-0.0065475996,-0.007361584,0.0020200075,-0.009002746,0.0058009494,0.0054699047,-0.003796143,-0.005644063,-0.008322006,-0.0019095539
gastrointestin,0.0069782813,-0.00021320514,-0.007944333,0.008890283,-0.008551142,0.0055529503,0.006472635,0.0009862906,-0.008706004,0.0061737914,-0.007856276,-0.0050153537,0.00963019,-0.0082764225,-0.007620014,-0.004908519,0.003459686,0.0019145313,-0.005557152,-0.0032831724,0.008589988,0.009762126,0.009909583,0.0010328073,0.004035707,0.0013651408,0.0016683416,0.0048347106,0.002198682,0.00029958182,-0.0031421545,-0.0065231803,0.007988215,-0.0059693162,0.0027876003,-0.0009140873,-0.0036614065,-0.004940606,0.0032170184,-0.005864488,-0.0074936626,-0.0026475333,0.0046876725,0.0060487166,-0.0014530115,0.007292804,-0.007595506,-0.0047357753,-0.007863088,-0.006048118,0.0072991145,-0.0092833,-0.008648574,-0.009813423,0.009205596,-0.0026647921,0.000990594,-0.0061258073,-0.0025347245,7.717423e-05,-0.0024976588,-0.0073686372,-0.0061937305,0.002526342,-0.009493584,0.0011505906,-0.0019846028,0.00828285,-0.00039305448,0.006207326,-0.0070891553,-0.007562379,0.0055453307,0.000943831,-0.0050813453,-0.0026538454,0.008771955,-0.009176456,-0.0036803337,0.0010090803,-0.00021520267,0.009523808,-0.0019430753,-0.007083523,-0.0076800617,-0.009896868,-0.007815827,-0.006039507,-0.00593917,-0.001404377,-0.000536394,-0.004709351,0.0021432515,0.0038698222,0.0090380125,-0.004646461,0.0051326817,0.007245494,-0.003751261,-0.00743932
infect,-0.003351163,-0.006866147,0.0064867698,0.009373224,0.008283513,-0.008614627,0.005075717,0.0051311757,0.005609567,-0.0083551165,-9.515854e-06,-0.006855637,-0.008906881,0.0025368487,0.009937382,0.006506462,-0.007083447,0.0023169024,-0.003904201,0.009898608,-0.0087896325,0.009733368,-0.006544847,-0.0070084096,0.0015937897,-0.00067923544,-0.008502813,-0.00063212484,-0.0003676029,-0.006302636,0.005796275,0.0031654432,0.008381943,0.0074179717,-0.006627056,0.004818614,0.0057185376,0.0057807392,0.0052062785,-0.004808124,0.004316292,0.0013099012,4.5037592e-05,-0.006473149,0.0015454871,0.0052850484,-0.009221354,0.008606828,0.0030162549,-4.2211057e-05,-0.0033511224,0.0003592616,0.0060979673,0.00478481,-0.005946979,0.00790452,-0.00063013524,-0.008166984,0.008866363,0.0050858986,0.0036512015,0.007929904,-0.0075334534,-0.005851797,-0.0020011761,-0.0040827575,-0.0016031464,-0.0005966735,-0.008403901,0.001913148,0.0025616128,-0.0008506667,0.0048836945,0.0014679189,0.00599502,-0.0022130813,0.008513313,-0.0015654485,0.003079053,-0.0037706604,0.006116508,0.003113716,0.00054006296,0.008788601,-0.007849536,0.009704267,0.0007869288,-0.0023258987,-0.004084116,-0.009111023,-0.0021970868,0.0027149892,0.0065709315,0.009100122,-0.008728238,0.009054206,-0.008804624,0.003701021,0.008035227,-0.0025104806
diseas,-0.007878504,-0.008306093,0.0011453556,-0.0007484099,-0.009493922,0.0030252947,0.002323993,0.0045011733,0.0043761875,0.0032122442,-0.009846269,0.005746036,0.0042706276,-0.0077628316,-0.0020865807,0.00035525352,-0.0006517416,-0.000995376,-0.0055379965,-1.9648593e-05,0.0044015064,-0.0006126061,0.000752564,0.002077063,-0.0039956034,-0.007895352,0.009187667,-0.009798071,-0.0025048193,-0.0012989542,-0.0076207686,0.0017608928,0.007923803,-0.0015546697,0.008119662,0.00038054888,-0.005771085,-0.0019697002,-0.00071952626,0.006208389,0.0071505285,0.006150399,-0.0060413107,-0.006954082,0.006131818,0.0024716929,0.005332688,0.00045369743,0.007887463,-0.008906048,0.0099140145,-0.008263833,-0.0017054356,0.0063060103,-0.009262606,0.0043376065,-0.006976267,-0.006863625,0.00227576,0.0017995125,-0.0027783485,0.007901951,-0.0069494266,0.00041860578,0.00874297,0.0020550299,-0.0068886434,0.003575588,-0.0050925366,0.0005785055,0.0028274837,0.007652549,0.007468722,-0.0048667993,0.009587935,-0.0054679923,0.0075815525,-0.00794822,-0.0078264475,-0.0011155516,-0.0081591625,-0.0033771445,-0.0005525375,5.0449125e-05,-0.009956001,-0.006498205,-0.0073625264,-0.00030957707,0.00525384,-8.426163e-05,0.010003162,-0.0038298937,0.008046534,0.0061299615,0.008339441,9.5661155e-05,-0.00039198078,0.0018394656,-0.009906266,0.008980467
lung,-0.0023677095,0.0075587686,0.0020369957,0.0028632958,-0.0012324776,-0.009935765,0.0014350418,0.002932155,-0.00983691,-0.0039585787,-0.0023535404,-0.0050998335,0.003978849,0.0020901547,0.004355681,-0.0065007773,-0.006011753,0.0046964795,0.006816846,0.0054912902,0.0047972733,-0.0072399382,0.008157087,-0.006951134,-0.007707371,0.008509021,-0.0024766794,-0.009438346,-0.0030946697,0.005954571,-0.0029038787,0.0049356376,8.2101564e-05,0.0040377863,0.0011904316,-0.009295606,-0.0036526108,0.008836417,0.0015368578,-0.005943403,0.0070316214,0.0074386164,0.0072229947,5.385409e-05,-0.009131603,-0.003503977,0.0051547987,-0.0065331315,0.009749993,-0.00977609,-0.008132821,-0.005328072,0.006015139,-0.007660806,0.008641738,-0.009893827,0.0034939554,0.0032948628,3.5229743e-05,0.009559316,0.005134483,0.0003034113,0.004854063,0.0064187227,0.0030008098,0.009430038,-0.0013440519,-0.008378583,-0.0045107696,-0.0014785022,-0.0072645964,-0.0015280423,0.007995241,-0.0050109285,0.005151859,0.0043964004,-0.0007273292,0.0011030947,0.005699146,-0.006645202,0.0038989407,0.008955935,-0.00352089,-0.007605738,-0.009212931,-0.0090163965,0.0039209193,0.005169586,0.007050533,-0.0014600512,0.0009927332,0.0030930303,-0.009902326,-0.009386214,0.004634734,-0.008404302,-0.0031407713,-0.0043349206,0.005947609,-0.0034732327
basal,0.009996423,0.0005845121,-0.005148309,-0.003646796,0.0012609147,-0.0054429467,0.007459089,0.009116691,0.0042844103,-0.007356867,-0.0059764097,3.9769693e-05,-0.0009809245,-0.005497274,0.0079782875,0.0062710615,-0.0042085727,0.0023630382,0.0051252153,0.002395749,0.008590671,-0.0012893798,-0.006566282,-0.0008554489,-0.008355333,0.009864321,-0.0086092735,-0.001524778,-0.0028889899,0.0031224368,0.0050238776,-0.008260529,-0.004427204,0.0004988603,0.0040243412,0.0051555173,-0.001347615,-0.0006231823,-0.007848215,0.0045290664,-0.0076676216,0.0032733646,-0.0034425927,-0.007793722,0.0069345683,-0.00045412604,-0.009585516,-0.009391271,0.00059208047,-0.00820534,0.003769903,0.0034766379,0.0033421197,-0.005596628,0.0079927305,-0.008986811,0.0074680177,-0.00061845116,-0.0014766327,0.0040042317,-0.0024767246,-0.004376372,-0.0023789909,-0.00624008,-0.00037601686,-0.0053704022,0.004606531,-0.009534846,-0.004354342,-0.009180777,-0.009619503,-0.0007338361,-0.008085871,-0.005680592,0.002820584,-0.0014303497,0.0031061515,0.008275675,-0.0096727675,0.00611469,-0.007975069,0.006615056,0.0074588116,0.008623384,-0.007946957,0.0033580638,-0.0078123654,-0.001197683,-0.0051916926,-0.008570078,0.004953168,0.0044820714,-0.004073431,-0.007743847,0.003621783,-0.003923438,-0.008807507,-0.004433511,-0.0021827922,0.008725342
urosepsi,-0.0064564645,0.0073323892,0.0061229146,-0.004908136,-0.001758852,-0.0025048994,0.0031226445,-0.00045303107,-0.0027636087,-0.009045644,0.0064344313,-0.009615391,-0.008650444,0.0013819778,0.0029734327,4.7421454e-06,0.00037010072,0.0025892723,0.0018025708,0.007568313,-0.003446393,-0.0072333897,-0.00788418,0.007919614,0.0019462728,-0.005807856,0.006391193,0.008453579,0.007946606,-0.0068279803,-0.0051414394,-0.0020103382,-0.0066176713,0.004728824,0.005664438,-0.005995921,0.007199256,-0.007656555,0.0062029026,-0.004625329,0.0019614566,-0.0032713367,0.0033896612,0.0077184713,-0.0013945032,-0.004985187,-0.00856165,0.0036374521,0.004231018,0.0066972245,-0.004289763,-0.009732989,0.006821517,-0.0045247437,0.0044197715,0.008054533,-0.0039428137,0.0016341746,-0.0035891545,-0.0066137468,-0.005684339,-0.00013659001,-0.0075132754,-0.0019958054,-0.002487917,0.0067084394,0.0013637447,0.0058521964,0.0038193201,-0.0035164417,-0.005091473,0.009661293,0.007070396,-0.009044231,0.0052457834,0.008193034,0.0091923,-0.00805466,-0.0020131744,0.0010854984,0.0029083753,-0.001621958,-0.004704926,0.0064684176,0.006932578,-0.00038987756,-0.005843141,-0.0043717623,-0.0051488746,0.0042562988,0.0005137396,-0.002359662,-0.009084906,-0.0014964581,0.006431346,0.006324997,0.0042235423,-0.0028758978,0.00905161,0.00060097576
sepsispneumoniatelemetri,0.0011347234,0.006174861,-0.006593491,0.0065341983,0.009794316,0.0036727618,0.0034324396,0.004196546,-0.0019464791,-0.008096277,0.0014800942,0.0009046066,-0.006797297,0.0019593919,0.005443902,-0.007177912,0.0025119793,0.0077667725,-0.008621219,0.0035135662,-0.008564608,-0.007937057,0.007091025,-0.007565397,-0.0013685488,-0.007928683,-0.0078653935,-0.007103605,0.00040596127,0.001794883,-0.007906519,-0.008049076,-0.003180132,-0.001824404,-0.0061704637,-0.004226774,0.0036070598,0.0030711652,0.0065946756,0.0042466833,-0.00088664773,0.0027672017,0.009049989,0.001908176,0.0018196488,0.0011240005,-0.009286896,0.005351924,0.005043949,2.553463e-05,0.009212247,-0.0057180882,0.0032491565,-0.007811786,-0.0089405645,0.0020009638,0.004744922,0.0061003957,-0.008687585,0.0043530716,0.002398505,0.0041559553,-0.0006745219,0.005543709,0.007291638,-0.008386932,-0.009932266,0.0070149074,-0.00095197203,-0.009374607,-0.0040858854,0.0011912441,0.008426614,-0.0016904592,-0.0010216295,-0.0073646666,-0.007652612,0.0014624643,-0.00047345756,-0.0077002333,0.0008799255,-0.008988475,-0.002477033,0.0042172647,0.0011170149,0.007830691,0.006585375,-0.0011890733,0.0049564564,0.006129242,0.008731773,0.009078525,0.0049281693,0.0046114624,0.007185029,-0.0015663934,-0.005649698,0.008868068,0.0012105549,-0.0050547267
ganglin,-0.0008470914,-0.005210406,0.009107893,0.0034180158,0.0042984225,0.0064696874,0.0082289465,-0.004752719,-0.0063784323,-0.003748946,-0.003717845,-0.009484502,-0.00060090946,-0.008098618,0.009800608,-0.003384798,-0.0063339556,-0.008140999,-0.0035492484,-0.009572613,0.0007991513,0.005452183,-0.002894411,0.0076552453,-0.0018806994,-0.0072764186,-0.003145634,-0.0031651678,-0.0071211853,-0.009724574,-0.004037825,-0.0016129687,0.004985607,-0.007636696,-0.0049730763,0.0013846294,-0.001660038,0.0035636933,-0.0018759257,0.0042850855,0.008010083,-0.007947667,0.003748005,0.006028834,-0.0005463334,0.0068155495,-0.005438498,-0.0045938254,-0.007847272,0.009488522,-0.009416141,-0.0032671967,-0.0004311247,-0.004856288,0.009476478,-0.0068369377,-0.008025393,0.009253623,-0.008339781,0.009716712,-0.0040960875,0.0057080206,-0.0003948674,-0.004022709,-0.0075224387,-0.00626971,0.006824532,0.006353911,0.00015865939,0.006432623,0.0038509793,0.0038229693,0.0027085626,-0.009717777,0.009294518,-0.008235438,-0.0030485466,0.0014413237,0.005229528,-0.009222167,0.0016702408,0.006404616,-0.008793869,0.009577096,-0.0052178917,0.009559066,-0.0064880075,0.0066357157,0.009390051,-0.009267114,0.00031225375,-0.0077292183,0.00812952,0.009636609,-0.0060239336,0.00085271057,-0.0022156616,-0.00780076,0.0007929129,-0.009931834
motorcycl,0.0026351856,-0.007700961,0.00567598,0.0075791148,-0.002526661,-0.004025174,-0.009595204,0.0049506836,0.0029017506,0.00876568,0.0032841924,-0.0028960437,0.0035691583,0.008651226,0.009251853,0.00766635,-0.00855554,-0.0075838785,0.007293622,-0.007459733,0.003253037,0.008062073,-0.0032359003,0.006773681,-0.0081434855,0.006461442,0.005605799,0.0033426806,-0.008132549,0.009161459,0.008256111,-0.0015670655,0.004109047,0.0063568023,-0.0017343671,0.0055034948,-0.004029622,-0.0012664055,-0.0012079893,-0.0041803825,-0.00071078807,-0.0077018575,0.0036226679,0.009067717,0.004789372,0.0063997814,-0.004730976,0.004852115,-0.0066954284,-0.0049648783,0.009874834,0.006388745,-0.004998844,-0.006080144,0.0072534354,0.0027070157,0.006590632,-0.0067393864,-0.00096346095,-0.0009127291,-0.00022313136,0.002213493,-0.006754324,0.004384053,-0.0027594864,0.008354971,-0.0010588269,0.009167019,-0.00085942406,0.0052185752,-0.007589362,-0.009106439,-0.0003224681,-0.0022713973,0.009992421,0.0045133205,-0.005582536,0.0073689744,0.00057881436,-0.00955234,0.005715038,-0.0019959102,-0.009439428,0.008735855,0.007243656,0.008567929,0.00036533654,0.007706605,0.0052134427,-0.0069454736,0.009304715,-0.0035436486,-0.009768398,0.008578863,-0.0052922666,0.008393114,-0.007839933,0.0092636,-0.0058873063,0.0039868453
seizur,0.00978409,0.004202155,-0.002127043,-0.0049552466,-0.009720695,0.004206293,0.0074358927,-0.004736222,0.005920967,0.006840651,-0.009016923,0.0020980537,-0.006839578,-0.0043298863,0.000856843,-0.007028967,-0.0041387584,-0.0075126137,-0.00702773,-0.006938139,0.00991433,0.008322913,-0.00018445491,-0.0026248468,0.0062486185,0.00133919,-0.008993888,-0.0070596277,0.0010280252,0.007934226,0.0031984712,0.009840041,0.006552087,0.0002949798,0.008651973,0.0089997705,0.008059152,0.009402272,-0.009382622,0.0035131024,-0.007812917,-0.0071413503,-0.008426254,0.0032024991,-1.05130675e-05,-0.0063514053,0.0055457377,0.007904219,0.0042972374,0.007832834,-0.0042779446,-0.006389071,0.003979193,-0.0029255378,-0.0071752034,0.003670503,-0.0033224297,-0.0051983013,0.0026289714,0.0068538594,0.006401373,0.00014903903,0.008650059,0.0029431654,0.006568195,-0.00089957,0.0021090256,0.006163751,-0.009793651,0.005828723,0.0012870133,0.006084757,-0.0014455986,-0.0026966953,-0.0055811987,-0.0028463923,-0.0025709784,-0.005147079,0.00097062945,0.007990416,0.0051383795,-0.0076500797,-0.0074191405,-0.0028935408,0.0039071646,-0.009318068,0.0061217356,0.0031166517,-0.0028216827,0.00919409,0.008061082,0.0007147682,0.004828162,-0.00930287,-0.008788269,-0.002946515,0.009276314,0.003234347,0.0056125904,-0.00677065
cancershort,0.004258959,0.00042050163,-0.0009107525,-0.0032712747,0.0049872883,-0.009149788,0.005157961,0.005724803,-0.0024690074,-0.004228578,-0.0074087107,-0.006405042,-0.005069181,0.0031618725,-0.0047663683,-0.0011998349,-0.008932912,-0.0035535656,-0.00076023367,-0.008008525,0.0032578981,0.009760252,0.004398281,0.0018782163,-0.0049019787,-0.0011569688,0.0022685924,0.0017112116,0.008813056,-0.00096044596,0.0070031686,0.005798489,0.0030276752,0.007314034,-0.0049358276,-0.0039158766,0.0069878413,0.008628407,0.0031508564,-0.0041392767,0.007659858,0.0026955276,-0.00023978301,0.008922375,0.0043445816,0.003971304,-2.1170443e-05,-0.008971155,-0.0031236273,0.0024650933,-0.005606283,0.0071411305,0.007442265,-0.008952844,-0.0054058614,-0.0060001784,-0.0006575602,-0.0018007809,-0.0020744763,-0.002181471,0.0035900597,0.009636169,-0.0045756623,-0.008300807,0.0037131628,-0.0064692963,0.0066706804,0.0026998676,-0.007893271,-0.0077428864,-0.0092470795,0.002377731,0.0027763143,0.0026636997,0.00022885455,0.001077426,0.0030656606,-0.0015360512,-0.008049946,-0.00060947816,0.0037198786,-0.0025471272,-0.0021422028,-0.0022451887,0.007262865,-0.0030305458,0.009491506,-0.0038168002,-0.009948581,-0.006566042,-0.004347488,0.0012638917,0.005124799,0.0021786399,0.009099391,0.0009090529,0.0056809396,0.00013852231,-0.0021260395,0.0061788308
metastasi,0.0020399329,0.008291268,-0.008300183,-0.008770548,-0.0005124759,-0.0019604738,-0.002287216,-0.0005568966,-0.005105918,-0.008046746,0.008227525,-0.003370068,-0.0028139187,-0.0016201558,-0.0012433284,-0.0091878455,-0.0018007306,-0.001361146,0.0086510945,-0.008017634,-0.004737784,-0.0018704631,0.0028474177,-0.0060058367,-0.005580812,-0.007989989,0.0055193556,-0.008759744,-0.003260901,0.0002598697,0.0014683187,-0.009939395,0.008663633,-0.0020637698,0.00037954038,-0.00874397,-0.008161286,0.0037615604,0.0040113246,0.0029291483,0.0058517954,-0.006943876,-0.0012523606,-0.0027007612,-0.0013770091,0.0044909255,0.001340853,-0.007450568,0.0032770012,0.0062690973,-0.006105178,0.0032461504,-0.0043113725,0.008843555,0.004139245,0.0020370241,-0.001048454,-0.009120079,0.008638317,-0.001808174,0.0073719267,0.0037883413,-0.008238607,-0.0006320534,0.0027235649,-0.0025453395,0.009737376,-0.0049714264,-0.007186184,0.003827563,-0.0035761741,-0.0068827416,0.0020491022,0.0052805846,-0.00548826,-0.004359833,-0.0071799513,0.0015536132,-0.004787196,0.008460493,0.00068979635,0.001914506,-0.0033649954,0.007401568,-0.0006576309,-0.008220063,-0.0072913035,0.0002528489,0.007805212,0.0030840745,-0.0053044893,-0.0067252754,-0.009883657,0.003962226,-0.009487984,0.0031706905,0.0017036668,-0.00083947234,-0.009938755,0.005884372
hematomasp,-8.87869e-05,-0.009931422,-0.0075351256,0.008584695,0.0019046314,-0.0082161715,-0.00079749635,0.005414776,-0.009336864,-0.0068845176,-0.0010328576,-0.009802466,0.0004889196,0.0019725356,0.008557809,0.0009902501,0.0012985035,0.0048827627,-0.0042832396,0.0072108936,0.00014893555,-0.0006676653,-0.009716767,0.00049999147,0.006790643,0.0017457027,-0.00810493,-0.0033294254,-0.0060542114,0.00600109,-0.0064393864,0.0052660685,-0.0052623176,-0.0068479343,-0.007603362,0.0038250482,-0.008806794,-0.005700044,-0.0070532295,-0.0043384647,-0.0040223384,0.0014816925,0.0064783827,-0.0011876298,-0.005486865,0.001565093,0.005636204,-0.0052871313,-0.0053338436,0.005192925,0.0062650195,-0.0077859806,0.008215482,-0.009838976,-0.0074315676,-0.005861276,0.0018090323,5.0302897e-05,0.0034513907,0.007036914,0.0047888216,-0.0031962453,-0.006424038,-0.008264469,-0.0005067582,0.009736351,-0.0076933224,0.0036510879,0.004396027,-0.0043189023,-0.00698111,-0.0054394417,-0.0050234287,-0.0069930977,0.0059607024,-0.00776783,-0.002942087,0.0043906434,0.00016991618,-0.0076882527,-0.004691846,0.0036130082,0.002526619,-0.0019456643,-0.0007338623,0.002554522,0.0014439499,-0.0026276207,0.005369756,-0.007667057,0.0063722627,-0.009985277,-0.002261195,0.0067056734,-0.0035997997,0.0065340204,0.005455265,-0.0074114553,-0.00023448345,-0.00450467
cath,-0.00804355,-0.00089083775,0.0063842433,0.00872687,-0.0050506177,-0.0026740325,-0.006028868,0.0011824192,0.002673789,-0.009854131,0.0024270744,-0.008803962,0.0004123352,0.0047690654,-0.005248714,0.00026559865,-0.0021795002,-0.008706152,-0.002402396,0.004437692,-0.008577404,-0.0059321555,-0.0005476614,0.008051915,0.0013845647,0.009759273,-0.007684573,0.008991426,-0.004727505,-0.006361488,-0.0078256605,0.0018372249,-0.0027459608,0.0075499034,-0.00051718403,0.0025136797,0.005969021,-0.008649075,-0.002081159,-0.004792425,-0.00868205,0.0034256517,0.0024071333,-0.0024020274,-0.0019072477,-0.0067239986,-0.0032704496,0.0012991446,0.0077421484,0.0070835957,-0.0036027299,0.0036060866,-0.0025985471,-0.00473232,-0.0036131747,-0.0061591794,0.0034909677,-0.0077834856,-0.00751782,-0.004495842,0.007391326,0.0018215816,0.005478307,0.008207308,-0.006248539,-0.0046172217,0.0076827793,0.004938788,0.004648164,0.009009037,0.008830693,-0.0026815175,0.0010502548,0.0054889186,0.008905622,0.009832768,-0.008287552,-0.0051202686,0.004953971,0.0009470321,0.00015368863,0.007519762,0.0063897185,-0.0072199274,-0.0025938149,-0.008486802,0.0070645195,0.0027940562,-0.0022226484,0.0018597039,0.0076710097,0.008138249,0.006166423,0.003176257,0.0015530753,0.008123719,0.0013389707,0.0004317663,-0.009547634,0.0025092706
b,-0.008445478,0.006480466,-0.0057873493,-0.0017564673,0.0009919691,-0.0018988844,-0.009120158,0.003995322,-0.006583719,-0.008788473,0.0039145714,-0.0007726156,0.0065120785,-0.0070179445,0.000794261,-0.00068643776,0.00573232,-0.009738302,0.0059429747,-0.009011412,-0.007794173,0.0007255199,-0.0026808837,-0.0038926483,-0.005317661,0.0041224146,-0.009313311,0.0011954346,0.0042052306,-0.00029192746,-0.00048569168,0.007175089,-0.009571185,-0.009018539,0.0044482634,0.0087383725,-0.0077920835,-0.008332722,-0.0006451865,-0.009066755,0.002133157,0.009214295,-0.00613508,-0.0067491313,0.008928308,-0.0007764411,-0.0037373516,-0.002719013,-0.008746102,-0.0046436093,-0.0041471985,0.00025144528,0.0006985823,0.007646802,0.0068261647,-0.0015082636,-0.009994134,0.0025875338,-0.0061127474,0.009107656,0.003798288,-0.0010125705,0.0066141346,-0.0034964888,-0.003685617,-0.0003207501,0.0084046135,0.0059417663,0.0015538903,0.0037716015,-0.0030038327,0.009269452,-0.0071301856,-0.0032307492,-0.0052928184,0.008736078,-0.0031304911,-0.002383154,0.00714542,-0.009685964,-0.0028891186,0.0029071127,-0.0062636985,0.008759845,0.0011633479,-0.005237036,0.004940359,0.008013883,0.0009511584,0.006814076,-0.006826739,-0.0036025043,0.0099363895,0.005669313,0.0016159613,-0.0035058104,0.0044381884,0.0025163468,0.0083814375,-1.2979825e-05
alcohol,0.008599418,-0.0058633946,-0.00760802,-0.0014062913,0.0029684047,-0.001983917,0.0058854576,-0.008422634,-0.009005899,0.0075807623,0.0063448315,-0.004085043,-0.004025673,-0.0035621105,-5.7115183e-05,0.009075247,0.0009659083,-0.0020551488,-0.0034072713,-0.0020918823,-0.009205725,0.00682865,-0.009036201,-0.0030982837,-0.007116411,0.009061907,0.005793577,-0.00047738498,0.0039164945,-0.0024367797,0.009812682,-0.0036257918,0.004855736,-0.0038003009,0.009549707,0.009498896,0.0062347865,-0.0002530753,-0.0016882347,-0.008665983,0.009341607,-0.008452076,-0.0065676025,0.0055783107,-0.002282292,0.007977301,-0.007863857,0.009199103,0.00225199,-0.00856255,0.00394673,-0.00495849,0.0063846246,0.006600065,-0.00876575,0.006467834,0.00526364,0.006489383,-0.0070628165,-0.006563421,-0.008868648,0.0052570533,-0.004019361,0.004807445,0.0047978633,0.008087586,0.0022341695,-0.0010921722,0.0014579929,0.002980986,-0.008774667,-0.0059570214,-0.0009409589,0.0048891264,-0.00015931381,-0.009669297,-0.0006436802,0.007153813,0.0063390937,0.0034665815,-0.004602263,-0.0037182253,-0.002074958,-0.006002359,-0.008602814,-0.0005720587,0.0017993818,0.0048338855,0.0035930772,0.008559856,-0.006773029,0.009285408,-0.003343408,0.00079737423,-0.004265409,-0.0040447013,-0.0014824711,-0.007501046,0.008975989,0.0045562396
regurgitationcoronari,-0.0022673937,0.0019396392,0.0077871266,-0.0056701316,0.0038486368,0.0006233574,0.0029672952,-0.0020509972,-0.00994976,0.0058600446,-0.0014262674,-0.008379679,0.0007508451,-0.006125051,0.0077272207,-0.006395281,-0.0016518395,-0.0004411586,-0.0042755976,-0.00350847,0.007332066,0.0019313158,-0.009469268,-0.0002842652,-0.009557791,-0.0031986064,0.0049453946,0.0036476124,-0.005774976,0.0014026151,0.0058584586,-0.007489684,-0.0034492845,-0.0025065534,-0.008875735,0.0021956686,0.006506076,0.0024171944,0.0023700148,-0.0009144661,-0.00079187495,-0.0063008945,-0.00052196527,0.0066519715,0.003026656,0.0005724789,0.007855819,0.002783012,-0.0074492483,0.0073056268,0.009575925,-0.009103744,0.0072397944,-0.007562997,-0.00036980183,0.004613004,-0.0057411124,-0.007975043,-0.0073275073,-0.00984155,-0.0066428473,0.009562397,0.0029781142,-0.009087002,0.008485124,0.0072134268,0.007785277,0.009641646,-0.008721961,-0.0021347355,0.002106711,0.002402287,0.0048674066,-0.0076857284,0.00488576,0.009965301,-0.009006615,0.007935136,0.003157633,-0.004164818,-0.0015428865,-0.0084220115,-0.007519916,0.0055490346,-0.003136207,0.010007355,-0.007967218,-0.0069258967,0.0062266006,0.007898184,0.0037862526,0.007274146,0.006433434,-0.0056790737,0.0087769525,-0.006336644,-0.0028068188,-0.006077424,0.0061210133,-0.004454304
mvr,0.0030896093,-0.0015462183,-0.0012028537,-0.0058871405,-0.0057303896,-0.003688504,0.0004067411,0.0015637052,-0.0033927877,0.0019102654,-0.005712995,0.009929626,-0.0007714151,-0.0069144694,-0.001798255,0.007952445,-0.0011100626,-0.0051866258,-0.008015283,-0.0059611686,-0.0032191223,0.0077911215,-0.0073445425,0.0014511986,-0.00010796592,0.0039305347,-0.007941286,0.007885383,-0.00284487,0.0052463384,-0.009452339,0.0050974484,-0.008268576,-0.003285318,-0.0011628403,-0.0035212627,-0.0007049323,-4.1389644e-06,0.0045077596,-0.002344786,-0.003996602,-0.006245693,0.008296951,0.0046759215,0.009165285,0.005512126,-0.004587301,0.008238283,-0.0069656856,0.003026531,-0.0033345555,0.00028978635,0.0037791554,-0.0027856596,-0.0044073635,-0.0019356848,0.00051364896,0.0064534736,-0.005870068,0.0047337823,-0.0036957762,-0.00792723,-0.005579436,0.0018556461,0.008763694,0.007898862,0.0091095315,0.006898277,-0.0029960189,-0.0023745918,0.008818094,0.0064722183,0.0060796333,0.006945207,0.0017254862,0.0024208992,-0.008227085,0.007557488,0.009427837,-0.007046675,0.0011786643,0.0088759465,0.0036357907,0.0070127617,0.0076332684,-0.0018910837,0.008950357,0.006118959,-0.001811776,8.29137e-05,0.009788315,0.005871197,-0.0067152656,-0.0033973826,-0.0034107133,0.0031488687,0.0011810695,-0.008699579,0.0022150695,0.009522064
valv,0.002374044,0.004356853,0.0019262388,0.008069702,0.008913497,0.003021462,-0.0023079382,0.0037553306,-0.007814002,0.00795084,-0.004051082,0.009830663,-0.0095324535,-0.0025226758,0.00894614,-0.0040504113,-0.0019618997,0.0049385345,0.009336083,-0.00047126025,-0.0067946617,0.010093662,-0.009666887,0.001258396,0.005516126,-0.0078545995,-0.0056594787,-0.009202875,-0.00014112976,0.004914955,-0.008178089,-0.0030975202,0.008335738,-0.0045351447,0.003194381,0.0036359755,-0.0035280178,-0.0051886598,0.008313845,-0.0026532628,0.008994358,-0.0025013671,0.002990327,0.005667954,0.0006551961,0.0044546714,-0.0059892745,0.008381991,-0.0016478165,-0.004404757,0.005126511,0.009942288,-0.0056328773,0.00084782636,0.0043345992,-0.0027656262,0.0006487829,0.008808837,0.007678646,-0.006376358,-0.0031795732,0.009238093,-0.00026950467,-0.009611569,-0.0007613818,-0.0068115075,0.00083835283,0.000844048,-0.0044514644,-0.0045239516,0.008822726,0.0045961607,0.0026734336,0.0019180923,0.008355572,-0.004955685,0.006068692,-0.00091860915,-0.0077036726,-0.009666256,-0.0016878088,0.008276202,0.0021724338,-0.0089008,0.0012037244,-0.0036073853,-0.003942144,0.008277417,0.0059034647,0.00034642895,0.0025740622,0.001010575,-0.010000954,0.0031277672,0.007293242,0.0039994293,0.002542117,-0.0036830693,0.0023705533,-0.007722116
replac,0.004217308,0.0024447914,-0.00041862874,-0.00065989746,0.0026782914,0.0021108396,0.0016151103,0.009229893,0.0034508875,0.0013335458,-0.0029580768,-0.0061419527,-0.009274748,-0.0032541857,0.004352105,0.0075753876,0.00065682863,-0.0048660873,0.0036226043,-0.0039979103,-0.00075235637,0.008934216,0.008068816,-0.00043064274,-0.0059637735,0.0036779128,0.009844139,0.008604004,-0.001953169,0.0070743077,0.009312667,-0.009542912,0.008859972,-1.4735633e-05,-0.0051926994,0.0037820975,0.008992816,-0.0072641345,0.0068520047,-0.0065415883,-0.0077864034,0.00542904,-0.0046000686,0.0048535066,0.007454431,0.009700044,0.0057295705,-0.008943104,0.0032107888,-0.008976242,-0.00035924558,0.009836953,-0.0051039867,0.00412573,-0.005764911,-0.008109218,0.0080325445,0.0032541077,0.0073184865,0.003021492,0.0012099007,0.0037319744,-0.008389824,0.0065710726,-0.00452691,0.0045906333,-0.005522594,0.0010564603,0.003980464,-0.0024220557,-0.0075445487,-0.0060277316,-0.009869156,0.00975801,-0.0042536226,-0.0010087271,-0.009049129,-0.0045349854,-0.004932323,0.0030583113,0.0056777215,0.0036545403,0.009831696,0.0019324153,0.009891687,0.0075685787,0.0028775749,0.0022840423,-0.0074767643,-0.0023792149,0.0057353578,-0.008054481,0.0022334098,-0.0074814023,0.009744527,-0.00011345234,0.0009960579,-0.0048735943,0.0061506014,-0.007204371
syncopetelemetri,-0.007410362,0.0066182576,-0.0033724105,-0.00091466424,0.005359088,0.0045699333,0.0062081125,0.007027713,0.005616398,-0.00891883,0.005144527,0.009125321,-0.0040063607,0.0010816014,-0.0032792091,-0.0034029423,0.008693296,-0.00027982713,0.0034074627,-0.0055328486,0.0057739685,-0.0033548998,-0.0049688267,0.002191869,0.0097215315,-0.006131165,0.0035739136,-0.0009928012,-0.0071910145,-0.0043305624,-0.008219322,0.005589943,-0.0027526962,-0.0051993635,0.0009980166,0.00458894,0.009498108,-0.009735213,-0.0002757585,-0.001229682,-0.0027000736,-0.00053002476,0.008129929,-0.0018766213,0.009334334,0.0003780532,-0.0010646307,0.0069046007,0.006942637,0.00045891522,-0.00030289293,0.0063429163,-0.0038443613,0.0045933365,-8.502126e-05,-0.0060780393,0.006443784,-0.0040332736,0.0022166455,-0.00684589,0.0026867497,0.00557614,0.0051115416,-0.008073871,-0.005907736,0.007128726,0.0031156028,0.0010988164,-0.0061874557,-0.0013832616,-0.009224623,0.0012573279,-0.004568696,0.0007552326,0.004485375,0.0023915924,-0.0071189846,0.0008507061,-0.006719929,-0.0038795162,0.0018995845,0.0079723075,-0.0065113916,0.002336303,0.008144179,0.009908818,0.006166598,-0.007388672,0.0038613058,0.0088277925,0.00414773,0.0025157356,-0.0015901172,0.0035783374,0.004153396,0.008824278,-0.0038112819,-0.008750725,0.0065029035,-0.006219412
right,-0.0006000198,0.0014083787,-0.0011889362,-0.004036127,0.00085296656,-0.009692768,0.001408011,-0.004163723,-0.0058006844,0.003803012,0.0014536268,0.0036468552,0.0008920867,-0.009510544,0.009985267,-0.0035321189,-0.0021929375,0.0071361912,8.029421e-05,0.003040724,0.002259265,0.0023881504,0.0067643346,0.009476808,-0.0005772805,-0.0034237003,0.0045503196,-0.008347163,0.008464636,0.002400052,0.0059981947,0.0028025557,-0.0013336383,0.000960579,-0.004790735,0.009088898,0.0050263554,0.0035967734,-0.0050108964,-0.008661035,0.007950727,0.002941512,-0.0042688125,-0.008654933,-0.003957704,0.0014069572,-0.009196502,3.8856855e-05,0.002820757,-0.009948075,-0.00014387976,-0.006076516,-0.0036063176,-0.0016317633,-0.009976945,-0.003618014,-0.0070333644,-0.0073448685,0.0015958552,0.0023477122,0.009285503,0.008865645,-0.006397576,-0.009232889,0.007882073,0.0054207924,0.006933081,-0.0029339062,-0.005240382,-0.0045612473,-0.008340417,0.005888829,-0.003441376,0.0086333975,-0.0056687873,0.009656191,-0.004513739,0.008668139,-0.005422934,-0.007514957,0.0076533803,-0.009755486,-0.008784653,0.0049678935,-0.009769371,0.0052779345,0.0036702647,-0.0070171836,0.0031577048,0.0014513576,0.008648714,0.0028936605,-0.005118655,-0.0023352061,0.0068586413,-0.0066263983,0.009315687,-0.0032025727,-0.0046470743,-0.004376763
failiuresyncopehyperkalemia,0.0030824845,-0.009838029,0.003214129,-0.0044833473,0.009674413,-0.0050438493,-0.008002108,0.0035251952,0.0089502605,0.0027491278,-0.0022740527,0.0035005496,-0.008914037,-0.004139338,-0.0043893075,0.0018965986,-0.0063122376,-0.0075839595,-0.006525152,0.005281361,0.002735657,0.008811915,0.0023109247,0.0052868444,0.0043319273,0.004621583,-0.004952204,0.0014328772,0.00027952812,0.005249464,-0.006587915,-0.00071393716,0.0040189987,-0.004845343,-0.008507846,0.0055986266,-0.0008743233,0.0003333592,-0.0060693272,0.008487807,0.0009115436,0.0017320074,-0.00040872474,0.0006855176,0.0057920776,-0.009235918,0.0023575085,-0.0055814357,0.00944442,0.0043679015,-0.005497222,-0.0012365279,-0.0055267136,0.008517656,0.009080056,0.0023163145,0.009635974,-0.004730036,0.0028121294,-0.005097204,-0.00876847,-0.0041583003,-0.0013835538,-0.0056620403,-0.004549496,0.000638563,-0.00013893041,-0.00830313,0.006924282,0.0015687874,-0.0095012225,-0.0014264074,-0.0075972187,0.007584557,-0.0010391759,0.0078305965,0.005023258,-0.0040541296,-0.009071927,-0.006188435,0.008872402,-0.0015515337,-0.00030460823,0.00012542652,-0.0082514845,0.004216206,-0.008190713,0.009421466,-0.008115327,0.007903629,-0.0019631945,-0.002061892,-0.002293585,0.0009917708,0.0024700763,0.0016238067,-0.0005714563,0.0075713485,-0.0064156535,-0.007891819
