,0,1,2,3,4,5,6,7,8,9,10,11,12,13,14,15,16,17,18,19,20,21,22,23,24,25,26,27,28,29,30,31,32,33,34,35,36,37,38,39,40,41,42,43,44,45,46,47,48,49,50,51,52,53,54,55,56,57,58,59,60,61,62,63,64,65,66,67,68,69,70,71,72,73,74,75,76,77,78,79,80,81,82,83,84,85,86,87,88,89,90,91,92,93,94,95,96,97,98,99
sepsis,-0.0005353229,0.0002459231,0.0051074866,0.009012234,-0.0093032885,-0.007117762,0.006473429,0.008987866,-0.0050157346,-0.0037610445,0.0073756524,-0.001538683,-0.0045361957,0.00654414,-0.0048549348,-0.001821887,0.0028666644,0.0009846045,-0.008275653,-0.009455071,0.0073135705,0.0050768526,0.0067522847,0.000765412,0.006346171,-0.0034090108,-0.00094408094,0.0057623247,-0.0075180074,-0.0039442535,-0.007513848,-0.0009238036,0.009542458,-0.007308543,-0.0023295428,-0.0019306436,0.008082224,-0.005940929,4.866579e-05,-0.0047674943,-0.009608353,0.0050144563,-0.008758537,-0.0043821335,-2.6948655e-05,-0.00029843164,-0.0076615135,0.009618583,0.004980243,0.009229934,-0.008157997,0.0045026015,-0.0041311844,0.00082340586,0.008497586,-0.0044604978,0.0045212614,-0.006791992,-0.0035374956,0.009397726,-0.0015738294,0.0003280444,-0.004137624,-0.00768853,-0.0015135378,0.0024708526,-0.00090012414,0.005547864,-0.002756907,0.0022611844,0.0054510185,0.008350024,-0.0014487961,-0.0092064515,0.004373555,0.0005692732,0.0074398415,-0.0008123687,-0.002648959,-0.008755098,-0.0008500847,0.0028267298,0.005395192,0.0070552723,-0.0056999214,0.0018637088,0.006104639,-0.0047928095,-0.0030936557,0.006791078,0.0016313662,0.00018855406,0.0034636895,0.0002220723,0.009634095,0.005066851,-0.008913194,-0.007038254,0.0009080995,0.006379486
failure,-0.008622421,0.0036782885,0.0051766364,0.005760468,0.0074831187,-0.0061897105,0.0011471955,0.0060923332,-0.0028524238,-0.0061720773,-0.00041486972,-0.008380738,-0.0055753724,0.0071061747,0.0033666522,0.0072340565,0.006819156,0.0075068516,-0.0037682483,-0.00059717137,0.0023578906,-0.004510038,0.00837814,-0.009884063,0.0067659006,0.0028919482,-0.0049410467,0.004372457,-0.0017745382,0.0066999737,0.009999404,-0.00436459,-0.0005970232,-0.0057039917,0.0038515283,0.0028250318,0.006888725,0.006092251,0.009533922,0.009248731,0.007899533,-0.0069722454,-0.009148047,-0.0003344994,-0.0030833322,0.007910721,0.005936568,-0.0015667791,0.0015088664,0.0018001819,0.0078442665,-0.009522449,-0.00018903216,0.0034871164,-0.0009422474,0.008392564,0.009005635,0.006562321,-0.00071008975,0.0077031394,-0.008541324,0.0032370635,-0.0046404544,-0.0051089004,0.0035619168,0.0053986325,0.0077587403,-0.005744945,0.007402505,0.006645628,-0.0037294228,-0.00873322,0.0054783695,0.0065022823,-0.0007769282,-0.006722811,-0.007095307,-0.0024897957,0.0051438026,-0.003653263,-0.009390367,0.0038591493,0.004858631,-0.0063852323,0.0011906617,-0.0020762344,1.8916842e-05,-0.009886359,0.002711109,-0.004767742,0.0011080843,-0.0015538445,0.002169505,-0.007859934,-0.0026587523,0.002656856,0.005382842,-0.0024068828,-0.009515752,0.0044840598
pneumonia,9.456396e-05,0.0030773198,-0.006812645,-0.0013754654,0.007668581,0.0073464094,-0.0036732971,0.0026427018,-0.00831713,0.006205486,-0.0046373224,-0.0031641065,0.009311357,0.0008733857,0.007490703,-0.0060740625,0.005160507,0.009922823,-0.0084573915,-0.0051356913,-0.007064837,-0.0048626517,-0.0037785638,-0.008536199,0.007955606,-0.004843938,0.008423613,0.0052625705,-0.006550026,0.0039578713,0.0054701497,-0.007426536,-0.0074057197,-0.0024752307,-0.008625725,-0.0015815723,-0.00040343284,0.0032996845,0.0014418805,-0.00088142155,-0.005594058,0.0017303658,-0.0008973718,0.006793691,0.00397359,0.0045294715,0.0014343059,-0.0026998555,-0.0043668128,-0.0010320747,0.0014370275,-0.0026460087,-0.007073783,-0.007805307,-0.009121787,-0.0059351693,-0.0018474245,-0.0043238713,-0.0064606704,-0.0037173224,0.0042891586,-0.0037390434,0.008378175,0.0015339935,-0.0072423196,0.0094337985,0.0076312125,0.005493282,-0.0068488456,0.005822679,0.004009093,0.0051853694,0.0042559016,0.0019397545,-0.0031701624,0.008353845,0.00961218,0.003792603,-0.002836995,7.1275235e-06,0.0012188185,-0.008458325,-0.008223945,-0.00023101569,0.0012372875,-0.0057433806,-0.0047252737,-0.0073460746,0.008328616,0.00012129784,-0.0045093987,0.0057017053,0.009180015,-0.004099872,0.007964682,0.005375434,0.005879123,0.0005125904,0.008213084,-0.0070190406
bleed,-0.008251989,0.009307396,-0.00019789756,-0.0019598333,0.0046070106,-0.0041010585,0.0027711883,0.0069736983,0.0060430863,-0.0075132176,0.009367469,0.0046672276,0.0039520888,-0.006247276,0.0084857065,-0.0021470515,0.008821074,-0.0053814477,-0.008129895,0.006817486,0.0016573911,-0.0021665425,0.009501725,0.0095089795,-0.009780284,0.0025134815,0.0061357385,0.003859109,0.002002759,0.00045037625,0.0006945407,-0.0038319237,-0.0071286974,-0.0021142196,0.003920848,0.008873475,0.009262206,-0.00596955,-0.009425967,0.009750621,0.0034358234,0.005150041,0.0062736734,-0.0027789287,0.007350366,0.0028443285,0.0028586811,-0.0023921775,-0.0031419422,-0.0023932196,0.0042794743,6.381092e-05,-0.009586167,-0.009676565,-0.0061560087,-0.0001226469,0.0019889676,0.009450891,0.005592305,-0.0042826906,0.00027341407,0.004977979,0.0076871687,-0.001155578,0.004333715,-0.0058016498,-0.00078701734,0.00812684,-0.0023808868,-0.009656777,0.005760467,-0.003933456,-0.0012093995,0.009986778,-0.002254146,-0.004745688,-0.005360586,0.006992053,-0.005708237,0.0021160543,-0.0052622594,0.0061330297,0.004371669,0.0026223736,-0.0014961899,-0.0027328036,0.009013969,0.00522731,-0.002152887,-0.009490628,-0.007401883,-0.0010508404,-0.00082713604,-0.0025513223,0.009699494,-0.00047118132,0.005904215,-0.007468589,-0.002499784,-0.0055666273
acute,-0.0072054123,0.0012585624,-0.007220646,-0.0022349502,0.0037014643,0.0057863477,0.0012372121,0.002150915,-0.0041442337,0.0072060404,-0.0063853795,0.0045995316,-0.008229152,0.002098645,-0.004933077,-0.0042522126,-0.0031427462,0.005606077,0.0058072573,-0.004994837,0.00080822705,-0.00841059,0.0077785063,0.009244319,-0.0026945353,0.0008253654,0.00070780225,0.005420211,-0.008675315,0.0006027099,0.006969132,0.002228697,0.0011861552,-0.009345099,0.008438847,-0.006198151,-0.0029757572,0.0035128705,-0.0007866332,0.0013069467,0.0017612048,-0.0068821036,-0.009739211,0.009081879,0.0062682666,-0.0069619804,0.0033763393,0.00017908947,0.0047595515,-0.007137434,0.0040393067,0.0042988923,0.010024651,-0.004522124,-0.001406425,-0.0072891293,-0.009746289,-0.009118413,-0.0010951436,-0.0064961393,0.0049027237,-0.006098923,0.0025463502,0.000692327,-0.00339351,-0.00093160366,0.009987509,0.009223439,-0.0045190426,0.009160473,-0.005675605,0.0059609204,-0.0030869467,0.0034521616,0.0030465408,0.006957754,-0.0024278401,0.008800768,0.007578916,-0.009531889,-0.007976154,-0.007660359,0.0029046747,-0.0027527646,-0.0069324495,-0.008120639,0.008350796,0.0020245393,-0.00930212,-0.004824422,0.0032100412,-0.00464053,0.005239546,-0.0042149844,0.0026604244,-0.008030626,0.0063073165,0.0047849715,0.0008355026,0.0029608537
breath,-0.008741774,0.0021370703,-0.0008806635,-0.009330407,-0.009421762,-0.001409184,0.004464454,0.0037372361,-0.0065243365,-0.0068552354,-0.0050165835,-0.0023291463,-0.0072516017,-0.009598807,-0.002745041,-0.008398011,-0.006068138,-0.00569468,-0.0023317584,-0.0017009755,-0.008931939,-0.00070441933,0.008150492,0.0076938574,-0.007182232,-0.0036728985,0.0031243372,-0.009607704,0.0014265698,0.006510907,0.0057704453,-0.008783873,-0.004515843,-0.008173529,4.794473e-05,0.009301339,0.005996684,0.005067119,0.0050562234,-0.0032800178,0.009540087,-0.0073795174,-0.0072971294,-0.0022529764,-0.00076127803,-0.0032364628,-0.0005984361,0.0075089545,-0.00069544476,-0.0016272083,0.0027479972,-0.008391119,0.007881705,0.00852344,-0.009579321,0.0024475192,0.009899368,-0.007680519,-0.0069880164,-0.0077769984,0.008413183,-0.00065691525,0.0091723325,-0.008195109,0.003723699,0.0026514481,0.0007280057,0.0023717736,-0.00750718,-0.009359332,0.002355365,0.0061906893,0.008015273,0.0057412605,-0.0007842441,0.00832564,-0.009350886,0.0033992524,0.0002569005,0.0038677289,0.007402722,-0.0067323837,0.0055705607,-0.009521755,-0.0008145973,-0.008698516,-0.005089211,0.009301039,-0.0018451465,0.0029322426,0.009088481,0.008967247,-0.008228011,-0.0030137089,0.009924495,0.0051361425,-0.0015495467,-0.00871264,0.0029815151,-0.006749162
esophageal,0.008125377,-0.004449315,-0.0010940986,0.0010258965,-0.00018085311,0.0011408641,0.0061434624,-6.253653e-07,-0.003256229,-0.001512782,0.005883509,0.0014892955,-0.0006931534,0.009344298,-0.0048973663,-0.00084763824,0.0091823125,0.006724548,0.0015123374,-0.008907258,0.0011735123,-0.0022431891,0.009358808,0.0011992928,0.0015071316,0.002393408,-0.0018564394,-0.0050186045,0.00020437397,-0.0020090432,0.0066209766,0.008949231,-0.00065842445,0.0029686496,-0.006138495,0.0017594576,-0.006924721,-0.00869253,-0.005914426,-0.008989527,0.0072937002,-0.0057979347,0.008286547,-0.007212756,0.0034606152,0.009675782,-0.007803243,-0.009980383,-0.004326074,-0.0026849213,-0.00025478587,-0.008877666,-0.008605703,0.002779432,-0.008224175,-0.009055129,-0.0023413762,-0.008605433,-0.0070777214,-0.008398191,-0.0002859585,-0.0045255315,0.006645038,0.0014984742,-0.0033521135,0.0061242376,-0.0060292366,-0.004609599,-0.00724981,-0.004298037,-0.0018250947,0.0064717038,-0.0027610841,0.0049370816,0.00689585,-0.00747316,0.00453759,0.0061304495,-0.0029648,0.006642071,0.006116911,-0.0064323093,-0.006775822,0.0025675509,-0.0016114744,-0.0060560447,0.009526039,-0.005116448,-0.0065249377,-0.00013695682,-0.002676267,0.00046270204,-0.0035581503,-0.00041307503,-0.0006852984,0.00083028706,0.008263112,-0.0057718437,-0.0016511895,0.0055523906
artery,0.008139139,-0.00439964,0.008894104,0.008286203,-0.004401255,0.00023084773,0.0043614255,-0.0037737673,-0.0056534177,-0.0064974455,-0.0007676747,-0.00042369158,0.00449764,-0.0023882755,-7.7283155e-05,0.0024515246,0.004884213,-0.00014685601,-0.0062534213,-0.009357964,0.00011206762,0.0068156775,0.0013864733,-0.009012422,-0.007891082,0.00651584,-0.0038625596,0.006125312,-0.0068484647,0.008468273,-0.006371393,0.0032941313,-0.0010296351,-0.0068482943,-0.0033386752,-0.0009378459,-0.005448047,-0.0012321717,-0.007620293,0.0024952816,0.009063486,-0.0024542406,-0.0009981282,0.003678588,0.00885099,-0.005853263,-0.0069290195,-0.0029953185,0.009135848,0.00089546305,-0.008634984,-0.0015637774,0.009657007,-0.0076078814,-0.005390329,0.009385556,-0.0090440335,0.0039286017,0.00056433055,0.0066637266,0.008389949,-0.002711179,-0.0040346095,0.008794255,0.002111844,0.006361779,-0.009502129,0.009754227,-0.0014777217,-0.0059188264,0.0029461419,-0.0004663347,0.0047829696,-0.0022911795,-0.0041158455,0.0023267062,0.008230226,-0.0049602427,0.0027501425,-0.00795763,-0.0068576415,-0.00047268945,-0.008899622,0.0029006896,0.0015668306,-0.0022246626,0.005136869,0.009726794,0.008610633,-0.0019139604,0.002202103,-0.003946494,-0.008371187,0.0063602384,-0.0018946527,-0.00058525737,-0.0015518232,-0.0046339426,0.004064327,-0.004380203
accident,-0.009654398,0.008992706,0.0041355835,0.009287066,0.0066305455,0.0028863507,0.00998684,-0.0043409583,-0.00684583,0.0042010397,0.003650069,-0.0057351007,0.009789507,-0.003555249,0.00962688,0.000806322,-0.0063734567,-0.002041761,-0.0073929657,-0.0030384348,0.0010792465,0.009683713,0.0093676625,-0.006644134,0.0035149606,0.0023248973,-0.002544506,-0.009380282,0.00096874934,-0.008158964,0.0063548395,-0.005830028,0.005657132,0.009797291,-0.0002663913,0.0047465935,-0.0018370097,0.007337738,0.0038827902,-0.009134261,-0.0024199511,0.0036086098,-0.00010175773,-0.0011277014,-0.00094917684,-0.0017272086,0.0005435744,0.004125934,-0.004290224,-0.0039289496,1.1542187e-05,0.00017748305,-0.00015838453,-0.0048745256,0.004290288,-0.0021291086,0.0020742088,0.0006768059,0.005986438,-0.006873023,-0.006805779,-0.0044016256,0.009474206,-0.0016369026,-0.009459032,-0.0004466862,-0.0045258603,0.006124591,-0.00976956,0.0029353,-0.009363913,0.0013074549,0.006087477,0.0074027823,-0.007569226,-0.006063808,-0.006941943,-0.007899254,-0.009600013,-0.0020789045,-0.0008618653,-0.0072411294,0.0067661447,0.0011929857,0.005880654,0.0014254368,0.0008944993,-0.007404877,-0.0021409395,0.0042370707,-0.0050103823,0.0012410994,0.002864355,-0.0015310585,0.010051635,0.008381373,0.002572494,0.0070970193,0.005944203,-0.0056521907
shortness,-0.0051697902,-0.00665702,-0.0077721397,0.008324935,-0.0019656525,-0.0068711974,-0.0041449564,0.005156599,-0.0028897775,-0.0037628126,0.0016247081,-0.0027775713,-0.0015890194,0.0010829895,-0.0029681367,0.008523144,0.0038775194,-0.009975245,0.006270786,-0.006766424,0.0007862919,0.004415843,-0.005092648,-0.0021247275,0.00809966,-0.0042554354,-0.007655908,0.0092528025,-0.0021484967,-0.00473431,0.008576794,0.004302207,0.004292429,0.009286147,-0.008446504,0.0052595465,0.0020147543,0.0042049414,0.0017148794,0.0044621704,0.004501197,0.006101102,-0.0031802529,-0.0045874743,-0.0004469182,0.002504329,-0.0032970267,0.0060738972,0.004155261,0.007797051,0.002595062,0.008120787,-0.0013695599,0.008057115,0.003750155,-0.008064271,-0.0039377464,-0.0024742265,0.0048792968,-0.0009064188,-0.0028411779,0.007845436,0.009365645,-0.0016449436,-0.0051788813,-0.0047261803,-0.0048192395,-0.009582249,0.0013403996,-0.004221284,0.002543537,0.005610483,-0.0040631904,-0.009594178,0.001579103,-0.0067084627,0.002505891,-0.0037921339,0.0070652105,0.00063783163,0.0035441692,-0.0027433266,-0.001734377,0.0076761153,0.0014171851,-0.005872474,-0.007820687,0.0012290805,0.006475018,0.005547389,-0.008986114,0.008619162,0.0040645106,0.007480812,0.009770223,-0.007277978,-0.009060299,0.0058223787,0.009394831,0.003502228
fever,0.007088797,-0.00156793,0.007947499,-0.009488659,-0.008029499,-0.006640371,-0.0040034545,0.004989216,-0.0038135587,-0.008319905,0.008411777,-0.003747002,0.008608696,-0.0048957514,0.003918594,0.004922017,0.0023926091,-0.0028188038,0.0028491246,-0.008256236,-0.0027655398,-0.0025911583,0.007249006,-0.003463403,-0.006599703,0.004340427,-0.00047448516,-0.0035975564,0.006882472,0.0038723124,-0.0039002013,0.0007718885,0.009143502,0.007754656,0.006361872,0.0046673026,0.0023844899,-0.0018416261,-0.006371293,-0.0003018105,-0.0015653884,-0.0005722857,-0.006262871,0.0074340473,-0.006591493,-0.0072392775,-0.0027571463,-0.0015154004,-0.0076357173,0.000698241,-0.0053261113,-0.0012755442,-0.0073651113,0.0019605684,0.0032731986,-2.3138524e-05,-0.005448358,-0.0017260861,0.007084917,0.0037362587,-0.008881049,-0.0034135508,0.0023541022,0.0021380198,-0.009464008,0.004571166,-0.008656997,-0.007387068,0.003483112,-0.0034709584,0.003564471,0.008894091,-0.0035743224,0.009320425,0.0017110384,0.009847774,0.005705043,-0.009149483,-0.0033277308,0.006530175,0.0056027793,0.008705515,0.0069261026,0.008038888,-0.009823008,0.0042988253,-0.0050300765,0.003512386,0.006056688,0.0043921317,0.0075123594,0.0014977157,-0.0012649416,0.0057684006,-0.0056395675,3.8591625e-05,0.009456587,-0.00548125,0.0038142789,-0.008113021
renal,0.009772515,0.008169834,0.0012757963,0.0050927736,0.0014093106,-0.0064638816,-0.0013780713,0.0064618913,-0.004627527,-0.0039936355,0.0049186302,0.002698926,-0.0018478073,-0.00285836,0.006022912,-0.0057051163,-0.0032226578,-0.0064830575,-0.0042604012,-0.008590488,-0.004472276,-0.0084877275,0.0014050327,-0.008624723,-0.009934216,-0.008196323,-0.006762967,0.0066421027,0.0037709565,0.00037290624,-0.0029282677,-0.0074523,0.00054554455,0.000494968,0.000172872,0.0008709817,0.00080805866,-7.6424454e-05,-0.008026161,-0.005881187,-0.008397945,-0.0013217924,0.0018161766,0.0074457694,-0.001943512,-0.0023283113,0.009503371,6.660056e-05,-0.0024136712,0.008586079,0.0027068183,-0.0053753774,0.006582108,0.0045107948,-0.0070834598,-0.00030065546,0.0008463735,0.005743035,-0.0017109165,-0.002810445,0.0017509961,0.00086676615,0.0011910902,-0.002625984,-0.0059832805,0.007352039,0.0075764703,0.008317096,-0.008631508,0.002643163,-0.0035965096,0.009625651,0.002920279,0.004638046,0.0023823932,0.0066141644,-0.0057616625,0.007918361,-0.002438366,-0.0045570023,-0.0020503013,0.009742567,-0.0068494347,-0.0021724396,0.0070153447,-6.20073e-05,-0.006291174,-0.0064056953,0.008928208,0.006432432,0.0047898055,-0.003245116,-0.009268715,0.0037932242,0.0071862107,-0.0056302706,-0.0078051076,-0.0029753183,-0.004923111,-0.0023254089
liver,-0.0020061447,-0.005276847,0.009487959,-0.009251962,0.004520649,0.0053659943,-0.001366943,0.009062928,0.009836011,-0.0055138683,-0.0060505397,-0.0068054935,-0.007889831,-0.003044212,-0.0055696988,-0.0083549265,0.0007725134,0.0029575005,0.006447747,-0.002624278,-0.0044045616,0.0013366289,0.00035803072,0.00812779,0.00025314596,0.0072557465,-0.008283013,0.008452127,-0.0019272732,0.008674533,-0.0076064104,0.0018130332,0.0010555434,4.253965e-05,-0.0051018,-0.009189824,-0.0072192634,-0.007999678,0.0019010846,0.00044389008,-0.0018151538,0.007096757,-0.0024450705,-0.0013281471,-0.008843164,-0.0099548735,0.008916181,-0.005779554,-0.006389773,0.0051991493,0.006670172,-0.006888983,0.0009629033,-0.006031028,0.001623921,-0.0042647542,-0.0034668646,0.0021709604,0.008665443,0.00676118,-0.009716891,-0.005565186,0.007911534,0.0019265707,-0.0042792778,0.0006064134,0.009491302,-0.0009998289,-0.009441593,0.0017061138,0.0061975974,0.0063157137,0.004149969,-0.0056245774,-0.00035485497,-5.0628736e-05,0.0045527327,-0.008039338,-0.008034882,0.0002866652,-0.008625587,0.0058474196,-0.00046212066,0.010055168,-0.0053834855,-0.00044988922,0.0077883173,-0.0040887645,-0.005000996,0.0015775419,0.002686935,-0.0025139095,0.0064112605,-0.0076352204,0.0034217748,0.00051788107,0.008796394,0.005938266,0.0068295267,0.007802865
pulmonary,-0.00951441,0.0095884185,-0.007802725,-0.0026269776,-0.0049086963,-0.0050139613,-0.007966663,-0.00773381,-0.0046162973,-0.0012892004,-0.005132766,0.0061134673,-0.009510195,-0.0052935607,0.009468054,0.0070002372,0.007670264,0.004213143,0.00051727676,-0.0060132556,0.0060480637,0.0027077107,0.0076958374,0.00638447,0.007976152,0.008673581,-0.009904636,-0.006793726,0.00129815,0.0064459057,0.0074152206,0.005501197,0.0077048657,-0.0051614763,0.0065762675,-0.0040194485,-0.009057064,0.009113926,0.0013270901,-0.0028296495,-0.0024743814,-0.0042607407,0.0048437435,0.0044311523,-0.002585015,-0.0073411805,-0.003603884,-0.0003516642,0.0060957647,-0.0028653112,-0.00010586193,0.0008369061,-0.007076497,0.0020353494,-0.0014572052,0.0028122016,0.004824371,-0.0013470108,-0.002800113,0.0077335713,0.005081719,0.006769297,0.004530218,0.008637744,0.0074771824,-0.0010457616,0.008745843,0.0046788165,0.005407333,-0.00133536,-0.0020837537,-0.0044254223,-0.008504346,0.003054792,0.008917162,0.008955418,-0.0019883122,0.006103176,0.0037787962,-0.0042498694,0.0020751562,-0.0054292483,0.008172329,0.0054629208,0.0032017485,0.004102617,0.008699073,0.007264177,-0.0008206142,-0.0070773796,0.008428838,0.007279721,0.0016905516,-0.0013232375,-0.005826157,-0.0045463988,0.008710818,-0.0032185724,-0.00633524,0.009837602
thrive,0.0076944074,0.009117901,0.0011378245,-0.008335163,0.008423028,-0.003702509,0.005747973,0.004390291,0.009702049,-0.009303044,0.009212483,-0.009279234,-0.006911651,-0.009098046,-0.005547471,0.00737156,0.009163999,-0.0033191973,0.0037149908,-0.0036174061,0.007876292,0.005867762,-7.6096812e-06,-0.0036301578,-0.0072219092,0.004766009,0.0014587078,-0.0026207159,0.007834925,-0.0040476187,-0.009144194,-0.0022604282,0.0001268511,-0.006635305,-0.0054908874,-0.008508241,0.009232753,0.007420208,-0.00028785274,0.0073590144,0.007945242,-0.00078845146,0.0066219615,0.0037597846,0.005075252,0.007247023,-0.004738641,-0.0021803277,0.0008686449,0.00423322,0.003310363,0.0050999452,0.0045927316,-0.0084438315,-0.0031884604,-0.007233945,0.009679448,0.005001355,0.0001713883,0.004113087,-0.0076546455,-0.006292418,0.0030764088,0.0065343846,0.003951512,0.0060267136,-0.0019864507,-0.003345468,0.00020522888,-0.0031929072,-0.0055107726,-0.0077815033,0.0065330374,-0.001091023,-0.0018863733,-0.007803275,0.009334197,0.0008703974,0.001761328,0.0024896027,-0.007383877,0.0016388256,0.0029775642,-0.008561388,0.0049608746,0.0024304087,0.0075000254,0.005039742,-0.0030393852,-0.0071620983,0.0070960345,0.001897055,0.005204043,0.006375442,0.0019115668,-0.006130079,-6.690936e-06,0.008265099,-0.006095934,0.009435969
gi,-0.007199825,0.004251282,0.002150501,0.0074485196,-0.004900661,-0.0045624925,-0.0060892883,0.0033248041,-0.0045255315,0.008531942,-0.0043034186,-0.00912255,-0.0047877003,0.006434147,-0.0063791596,-0.005263394,-0.0072961943,0.006014992,0.0033697227,0.0028103548,-0.0031091082,0.006055894,-0.006145673,-0.0019774633,-0.005982026,-0.0009910192,-0.0020095187,0.008477412,6.0567305e-05,-0.008580875,-0.0054214965,-0.006872141,0.0026963458,0.009455577,-0.0058153463,0.008293286,0.008528157,-0.0070694434,-0.00889428,0.009464775,0.008379001,-0.004698616,-0.0067429035,0.0078642825,0.0037934997,0.008105423,-0.0075690607,-0.009543148,0.0015810919,-0.009811038,-0.0048869005,-0.0034633253,0.009618485,0.00862458,-0.0028408035,0.0058184816,0.008225942,-0.0022561057,0.009519418,0.0071645984,0.0020585246,-0.003832718,-0.0050964956,-0.0030532118,0.007894442,-0.0061934413,-0.002929682,0.009212415,0.0034570661,0.006100863,-0.00803564,-0.0007566865,0.0055202935,-0.004728991,0.0074630775,0.009332504,-0.0004089758,-0.002060193,-0.0005851056,-0.005777432,-0.008393154,-0.0015141837,-0.0025654586,0.004394306,-0.0068648555,0.00541733,-0.006731546,-0.007818841,0.008475659,0.008915501,-0.0034582429,0.0034898883,-0.0058093313,-0.008730438,-0.0055050678,0.006750057,0.0064521194,0.009426656,0.0070555722,0.0067600994
pain,0.0012699879,-0.00980138,0.0045693507,-0.0005250353,0.006314256,0.0017557553,-0.0030995558,0.0077586793,0.0015477313,5.0775798e-05,-0.004631124,-0.008495366,-0.0077794488,0.008713976,-0.008925312,0.009055545,-0.009279273,-0.0002874625,-0.0019024234,-0.008952144,0.008648002,0.0068479334,0.003017422,0.004822182,0.00011651641,0.009432046,0.0070172315,-0.00991384,-0.00447327,-0.0012927101,0.0031011307,-0.004348836,0.0014938007,-0.007876945,0.0027435634,0.0047662533,0.004918108,-0.003189046,-0.008467948,-0.009266984,-0.0007320228,-0.0073585114,-0.0067998264,0.0061209733,0.0072058225,0.0021211717,-0.00792492,-0.0057062954,0.008048682,0.0039051361,-0.0052222824,-0.007398257,0.00080205296,0.0034686835,0.002057936,0.0031265689,-0.00564244,-0.009923068,-0.007032206,0.00023344762,0.0046348064,0.004568015,0.0018824405,0.0051765167,-9.426811e-05,0.004185893,-0.009164229,0.007722254,0.0061233607,0.0051311357,0.0071960753,0.008472575,0.0007751128,-0.0016969427,0.00054647774,-0.009298592,0.0083669545,-0.00639195,0.008429684,-0.004229786,0.00063602097,-0.009166307,-0.009591517,-0.007828314,-0.007721674,0.0003681317,-0.007202426,-0.0049630557,-0.00524853,-0.0042890897,0.0070423116,0.0048599127,0.0086716395,0.007105737,-0.0056978804,0.0072679827,-0.009287998,-0.002621073,-0.007751782,0.0041739605
left,0.0017729175,0.0070587387,0.0029517866,-0.006963226,0.0077283415,-0.005994883,0.009058638,0.002992874,-0.0040433486,-0.004676834,-0.0044435537,-0.0061974297,0.009390393,-0.00263087,0.007816671,-0.009689359,0.0021060838,-0.001268053,0.0075508105,-0.00908209,0.007471442,-0.0050320374,-0.0060389107,-0.0056504677,-0.0033729167,-0.003380202,-0.0032152485,-0.007534625,0.00067816814,-0.00057122944,-0.001649295,0.0037693535,-0.0076220594,-0.0032511307,0.0051217056,0.008623037,-0.009802471,0.0071956622,0.005304107,-0.0039414004,0.0085611055,-0.009262159,0.0072468817,0.005404777,0.001343186,-0.0052045705,-0.004196,-0.0033596195,0.0016077249,0.0015857426,0.007408542,0.009942004,0.008892949,-0.0040350673,0.009618614,-0.0006243008,0.00484691,0.002549846,-0.0006554987,0.0036540865,-0.005313935,-0.005729493,-0.007569977,0.0018605937,0.006499473,0.0008979491,0.0012261017,0.0032566811,0.0080873715,-0.007661464,0.002248235,-0.007439137,0.0037382354,0.009514444,0.007557072,0.0064293277,0.007964112,0.0065497616,0.006817202,0.008680712,-0.0049577053,0.009220525,0.005018098,-0.0020959876,0.0085176015,0.0050745243,0.00969829,0.002820173,0.009902203,0.0011910653,0.0091789365,0.0036106263,0.006564764,-0.0035920958,0.006836159,0.0072910115,-0.002054345,-0.0019036176,0.0036161095,-0.0070904377
respiratory,0.009727387,-0.009770897,-0.0065113558,0.0027824913,0.006439912,-0.0053955703,0.0027664802,0.009152218,-0.006800232,-0.0061114174,-0.0050013177,-0.0036796439,0.0018508864,0.009711753,0.0064505646,0.000396068,0.002475634,0.008437237,0.0091179805,0.005628967,0.005956252,-0.007616593,-0.0038503867,-0.0056881313,0.0061710775,-0.002262847,-0.008767876,0.007606163,0.008383674,-0.0032937468,0.00914076,-0.0007654695,-0.003626261,-0.00039447992,0.00018362975,-0.0034787839,0.0028377706,0.0057215765,0.006878112,-0.00891792,-0.002199529,-0.0055010645,0.007513179,0.0065280236,-0.0043350267,0.0023448544,-0.0059509445,0.00021832847,0.009471357,-0.0026185077,-0.005172699,-0.0074204644,-0.002895782,-0.0008585883,0.0035185372,0.009765642,-0.0033831787,0.0019109236,0.009669954,0.0015397458,0.0009910616,0.009823324,0.009287476,0.0076956344,-0.0061547607,0.010008838,0.0058549913,0.009093862,-0.0020117266,0.0033610954,0.0068246126,-0.003894798,0.006644898,0.0025555643,0.009315077,-0.0030227045,-0.003133119,0.0062255473,-0.009089686,-0.0072531975,-0.0065127295,-0.000737352,-0.002354616,0.006832131,0.009246903,-0.0008987568,0.0014049656,0.0020206382,-0.002009577,-0.008036134,0.007464998,-0.0043097613,0.0045680427,0.009089598,0.0030321274,0.0031371936,0.0041062874,-0.0027117026,0.0038332003,0.0003316202
sp,0.0056178295,0.0055012186,0.0018290005,0.005729753,-0.00895301,0.0065447497,0.0093032615,-0.0041601853,0.0016281167,-0.0052338024,0.0010338747,0.0027595654,0.008194842,0.000520905,0.00260176,0.0012777965,0.008393437,-0.0057362653,-0.0062730093,-0.003633677,-0.002276863,0.0051087784,-0.0081470935,-0.0028397322,-0.00818732,0.0051723807,-0.0025729379,-0.009121732,0.004044552,0.009012307,-0.0030289055,-0.005826996,0.0030992178,-0.00045933382,-0.010017142,0.008494567,-0.0073318444,-0.004945951,-0.0026872999,-0.005518074,0.0016947107,0.009727847,0.0045701144,0.008136511,-0.00040536874,0.0006226288,-0.0026773969,-0.008786644,0.0034258834,0.0020726086,-0.009415699,-0.005013768,-0.009749579,-0.005738269,0.0040412787,0.008679739,0.0041253422,0.0023957028,0.0081479885,-0.0010882621,-0.0013644388,-0.008696781,-0.000103409104,-0.0025970244,0.0003645553,0.0073502245,-0.007070902,-0.003911176,-0.006727467,-0.0035331754,-0.0033685742,0.0021594334,0.003364886,-0.0049548475,-0.004512886,0.0011145566,0.005413712,0.0054058074,-0.0030009686,-0.0042528175,-0.0056045675,-0.00050095934,0.0019327246,0.0015492612,0.0073676202,-0.0027403948,-1.239309e-05,-0.005491613,-0.001154277,-0.0077688675,-0.0009040775,0.0013725861,-0.008587181,0.008752962,-0.009133845,-0.009609143,-0.008436414,0.007291722,0.0054700295,0.009217127
tract,0.0025452988,0.0008566105,-0.00255119,0.0093911635,0.0027782524,0.0040882006,-0.001118269,0.00094717706,0.006588291,-0.000722593,0.0033184406,-0.00069933844,0.005292051,0.0036682265,0.0026157454,-0.005316698,-0.004732444,0.0042881086,-0.0058769705,-0.00019794606,-0.0005991049,0.0035631198,-0.008476115,0.0087992605,-0.0014295604,-0.0053220135,0.0040347683,-0.0019599267,-0.007798918,-0.004511399,-0.0003609535,-0.008938495,0.00059574185,0.0024006404,-0.0032453537,0.0026433466,0.0025035534,0.009999645,0.0014333733,0.001968135,0.0027690385,-0.0021034463,-0.008714507,0.008067495,-0.001911756,-0.009705993,-0.00656977,-0.0039494177,0.003947414,0.0050109643,0.0061130826,-0.0067858677,0.00070257287,-0.0028194392,-0.0052265655,0.006984403,0.003916998,-0.003102019,-0.008289891,-0.0051200306,-0.0006469047,0.007848918,0.0060794097,-0.008501928,-0.009584529,0.007142721,-0.0023414923,-0.0036300097,0.0056987624,-0.005799685,0.0050576655,-0.00022684639,-0.006856177,-0.00032125396,0.00640286,0.009296667,0.002190143,0.005065324,-0.0050048437,-0.00076768524,-0.005345548,0.0012064689,-0.0018043915,-0.003614272,-0.00698701,0.009647022,0.0030267264,-0.0022704937,-0.0041615595,0.0076919678,-0.006446016,0.0031720677,0.0008085938,0.008357742,0.006872394,-0.0028756005,0.0026163198,-0.0016831496,-0.009420087,-0.0026390504
hypotension,0.0013336919,0.006539692,0.009987754,0.009060194,-0.008009134,0.0064933845,-0.0057106013,-0.0009777362,0.000486096,0.006579531,0.0044717425,0.0046080775,0.009493391,0.0003871355,-0.006034347,-0.0063397917,0.0064314785,-0.005238388,-0.0028528702,0.0040768525,-0.0022840071,-0.0060234396,-0.0023359747,0.0011983418,0.002175688,0.0060834037,-0.0052101305,0.0030864154,0.007240926,0.0021962796,0.005397774,-0.0048422725,0.0061541502,-0.007588445,0.0034907924,-0.0093188975,-0.0026021749,-0.0090707075,-0.0015853735,-0.0053651235,-0.00394353,0.0011535062,0.00279763,-0.0015331362,-0.008180853,-0.005920602,0.000823679,-0.003937701,-0.009432364,-0.00078333094,0.00664577,0.005979243,-0.009921748,0.0031164817,-0.0059960117,-0.009182876,0.00017563275,-0.00037290252,-0.006972464,-0.0062735663,-0.0024252015,0.007095938,-0.0075436933,0.0076932306,-0.00047426322,0.001095345,0.009485776,0.0047295843,-0.0035828752,0.0037319867,0.003515862,0.0063446136,6.232199e-05,-0.0044293115,0.0013327968,-0.005412446,0.0014069157,0.004933656,0.005146538,0.009177519,-0.0075132977,-0.005398886,0.006469145,0.0013717115,-0.0066047623,0.00088333926,0.0026765107,-0.0025317708,-0.004958752,0.0050078477,0.009630845,-0.0073606316,-0.000115107745,-0.0025677148,-0.0063596973,-0.0013823914,-0.005254077,0.009060757,-0.0057835365,0.0036847112
fracture,-0.00025196228,0.0042440174,0.002075253,0.010015544,0.00064575014,-0.0054903803,-0.001149075,0.002103322,-0.0034073305,-0.00784618,-0.0056452802,-0.0067670112,0.0063607157,0.003934782,0.008265565,0.0065210797,-0.0061276145,0.0026937511,0.008488131,0.0015698944,0.0031068276,0.0058632256,-0.008871353,0.009103302,0.0068090702,0.008512351,-0.00825671,0.0061428887,0.0065925457,-0.0013424741,-0.006254533,0.005325333,-0.0068579745,-0.0053327875,0.0035015708,0.008143173,0.008679627,-0.004411571,-0.009201714,0.0095770955,0.0062725544,-0.003988636,-0.008449769,-0.004682874,-0.003921433,-0.0032766352,0.0008062572,-0.00031001103,-0.0031087627,-0.0060044015,0.009446208,-0.004753418,-0.0072268723,0.0076633906,0.002512839,0.008637204,-0.0045020133,-0.00687885,0.00094962475,-0.0011851292,-0.009379822,-0.0015631927,0.0030370234,0.006551134,0.0068640867,0.0032355834,-0.004447153,-0.0017753262,-0.0039668567,0.005798431,-0.006384138,0.0020926779,-0.0013313929,-0.0058283056,-0.00723618,0.0058754035,-0.008376659,-0.00068728963,0.0028223246,0.0077550975,-0.0073161605,0.0033101025,0.009768374,-0.0069503896,-0.003519476,0.0051281056,0.0052744476,0.0016075167,0.008018067,0.0008361423,0.0019158222,-0.0015811108,-0.0081961695,0.0032738517,0.0020041105,-0.008718541,-0.0006301231,2.7705317e-05,8.342955e-06,0.008685725
heart,-0.0025256332,-0.0059128953,0.0074669337,-0.0072787465,-0.008960011,-0.0017980974,-0.008326922,0.00040466888,0.0019703764,-0.0024790312,-0.0064700167,-0.00034717956,-0.0011008328,0.0034916017,0.008156853,0.005871531,0.008470932,-0.008979198,0.009413892,-0.0023837965,0.008697802,0.0024178852,0.003569653,-0.0096143745,-0.009464299,0.008978989,-0.0029185887,0.0027742016,0.006390288,-0.00029666137,0.009752172,-0.0010412703,-0.009675808,-0.007065749,-0.0010660639,-0.008662615,0.007426094,0.0035948474,-0.0087391175,0.008424526,0.008927154,0.005829182,0.0069420883,-0.009569442,0.00050859945,-0.009239389,-0.0036897173,0.0002718057,-0.0002889227,0.0014820738,0.0032906653,0.0021018723,0.0053345133,0.0075146463,-0.0059174146,0.008001881,0.006004108,0.009784416,0.0046277,-0.003334147,-0.0037217983,-0.00059409684,-0.0016496164,0.009859585,0.0011360651,0.004062012,0.0033927506,-0.0088215275,0.006695097,0.008189063,-0.0016743968,0.0023645074,-0.0064483862,-0.0061145406,0.008213995,-0.0030677642,0.006733323,0.0015644191,-0.0019843865,0.0030554011,-0.0040099947,-0.001771936,0.0013827386,0.004914568,-0.0013842698,0.0006334498,-0.00792223,0.009499988,-0.008761234,0.007041337,0.003938948,-0.006960906,-0.0053071133,-0.007919718,-0.0051079965,0.007084322,0.009668981,0.002134447,0.0006355441,0.009489335
congestive,-0.004989243,-0.001246424,0.0032809996,-0.0064434423,-0.009728724,-0.009301781,0.009043021,0.0054034116,-0.004786216,-0.008348134,0.0012679051,0.0028732717,-0.0012401895,0.0013178982,-0.0043290933,0.0047914023,0.0014890663,0.008893231,-0.009985263,-0.0053026658,-0.009068369,-0.0003213324,-0.007856682,0.005034168,-0.00638734,-0.0059449812,0.0050657624,-0.008208792,0.0014602281,-0.0072386647,0.009853482,0.0086298585,0.0017936527,0.0057915924,0.004593825,-0.0059793135,0.009754063,-0.009690883,0.008036012,0.0027120828,-0.0030681267,-0.0035683291,0.009107814,-0.005417877,0.008214113,-0.006030411,0.008365834,-0.00057332974,0.007948297,-0.0031726728,0.0059790364,0.008808857,0.0025463942,0.0012987936,0.0050483714,0.008037523,0.00858529,0.008482615,0.0070690024,0.007985411,0.008607635,-1.5048268e-05,-0.0010095332,0.0016795981,3.6184601e-06,0.00071139325,-0.008595164,-0.009574024,-0.0023377913,0.008948193,-0.00368116,-0.006968314,0.004883083,0.0010813567,0.0018528458,0.0036773894,0.0035447783,0.0057632383,0.0012041586,0.00086742186,0.0090824235,0.0027838557,-0.0047167917,0.0065645943,0.005236095,0.0028603487,-0.003128888,0.00333133,0.0063712015,0.0070910244,0.00096172333,-0.008515728,0.00024104024,0.00036738027,0.003963268,-0.009467032,0.009768019,-0.006982759,0.0057613254,-0.009409537
distress,0.009647461,0.0073128827,0.0012417065,-0.0034085312,-0.00044814704,0.00040163688,-0.006395434,0.0057776035,0.0023756055,0.003770639,-0.0072623803,0.008516832,0.00049120636,-0.00019134444,-0.00906153,0.0040414273,0.0067613563,0.0073442855,-0.006411545,-0.007855176,-0.0055254824,-0.0005885609,-0.008360363,-0.008242272,-0.0019077195,0.0011239882,-0.009503412,-0.0037474893,0.00061403157,0.0068188095,0.0017606365,-0.000635403,-0.0074844337,-0.006750797,-0.00070601125,0.007483798,0.00545685,-0.0015132176,0.0011679454,-0.009616991,-0.0013950237,-0.0046378206,0.0058043855,-0.0023168991,-0.004744821,-0.009472826,-0.0011852036,-0.007200726,-0.0016846613,-0.004059583,-0.002358264,-0.0032667378,-0.008134862,-0.0012431206,0.0016617163,-0.0040309597,-0.0076417383,-0.0035708514,-0.009045806,-0.0007541945,0.0059016356,-0.0029316186,0.0031543989,0.0049764933,0.008479581,0.005650404,0.009494299,-0.009623397,-0.007975017,-0.0067424555,-0.0074795233,-0.007966501,-0.0077621653,-0.002945969,0.0013979591,-0.0028595603,-0.008827667,0.004996655,0.00090970926,0.0045870277,0.007181346,0.0076783644,-0.0008282369,0.0036698666,-0.005131207,0.0019176059,0.0045584897,0.009885686,-0.003178612,0.002838101,-0.0057135136,-0.002190335,0.008103481,-0.003892086,-0.0011840423,-0.009272413,-0.009449486,0.00885867,-0.005699851,0.005019384
gastrointestinal,-0.00697778,-0.002469433,-0.00801744,0.007518854,0.0061331964,0.0052637975,0.008374027,-0.0006934463,-0.009325796,0.009132445,-0.0049426598,0.007850157,0.005550496,-0.0010716792,-0.007698343,-0.0014677396,0.0062488606,-0.006970159,0.001464094,-0.007962197,0.008739418,-0.002840446,0.009449757,-0.0057215705,-0.009719651,-0.008619813,-0.0040779547,0.0047257533,-0.00024613008,0.009217507,0.0031075655,0.003755257,0.0030043363,0.008154631,-0.0024069394,0.007421324,-0.0095486,0.0029147125,-0.00068948395,0.00046450394,0.0068481104,-0.0028484229,-0.0023722819,-8.06587e-05,-0.000489298,-0.0035669536,0.0062520923,-0.00658001,0.007899792,-0.00012166625,0.0026228281,0.0032151206,-0.0002800182,0.0017101471,-0.0031396616,0.004742735,0.00024197738,-0.0032927417,-0.008723609,-0.009989455,0.00031899885,-0.005741825,-0.0011107676,-0.00421172,-0.008649802,0.0010434752,0.0059118588,-0.0022044869,-0.0071815727,0.003168551,-0.0004059871,-0.005516873,-0.0011097423,-0.00063577684,-0.00316894,-0.009945111,0.0076396614,0.0037195259,-0.0025297003,0.0072978903,0.00044455202,0.007167868,-0.001553415,0.007510576,-5.6015975e-05,-0.0060746535,-0.0047223014,0.009614444,0.0005918129,0.0010401502,0.008456354,-0.0062833903,-0.0017634504,-0.0081693195,-0.0066739544,-0.008585717,0.0039497768,0.0027576406,0.0056177224,0.0025667972
infection,0.0021110626,0.0057551796,-0.0021262718,0.0031920096,0.008459235,0.0003754204,0.006336207,-0.0067175813,0.0065642972,0.004670625,0.005071204,-0.009941993,-0.0004019222,0.0032319017,-0.005798936,-0.0066791973,0.006326483,-0.0068487753,-0.0051779225,0.008106007,-0.0070247245,0.008597308,0.0006286125,0.0043928702,-0.0030002263,-0.0054269824,-0.008946099,-0.0006358617,-0.00512194,-0.0030771676,0.008128464,-0.0076489537,-0.006313986,-0.005263023,-0.0066514225,-0.008783916,-0.0010996113,0.009434678,0.008036072,-0.0053136335,-0.008137484,-0.0022640144,-0.00927999,-0.005049382,-0.005924773,0.0030222235,-0.0075723785,0.0012495242,0.0022799938,0.0053039943,-0.0020007265,-0.009796494,0.0052544065,-0.0059599224,0.00488552,0.0019823867,0.0087792985,0.0015436414,-0.0018519176,0.006469323,-0.0070567504,-0.008366945,0.0037969418,-0.0025996077,-0.004206169,-0.0019042122,-0.009905361,0.00030252436,-0.0010817486,-0.0029540104,0.002508613,0.0047079716,0.0063526253,-0.007914334,-0.004972195,-0.008787727,-0.008986112,-0.003741477,-0.0012764208,-0.008191921,-0.005371865,-0.0021655143,0.0063174134,0.0015672258,0.008327565,-0.008323919,-0.0045404998,-0.0008170792,0.008837468,0.0010878905,0.0015673105,0.0013116116,0.002919683,-0.009388519,0.0032939226,0.0055040102,0.0053114938,0.0044173044,-0.008064102,-0.004098644
cholangitis,0.008353536,-0.00057481945,-0.009440691,0.0047796858,-0.0060508302,0.006681146,0.005379298,-0.005039704,0.002570123,0.0054202527,-0.0035839472,-0.0015276201,0.009166617,0.009054659,-0.009392555,0.007567545,0.009889306,-0.0028548224,0.0024605184,-0.0028039624,0.00864147,-0.0002769429,0.0056334045,0.009212234,0.004112466,-0.007130775,-0.0019266057,0.0009653697,0.0020247279,0.0029524523,0.009453355,0.0044054715,0.009903574,-0.008665837,-0.0057568867,0.001992406,0.0036582714,-0.0009970629,-0.0069106407,-0.0032189258,-0.008524672,0.009405553,0.003729556,-0.007874438,0.003195919,0.0041791187,-0.005642772,-0.005908736,0.0010405706,0.008969858,-0.009644954,4.251652e-06,-0.0068534836,-0.00093549164,0.0030377246,-0.005033125,-0.0027716714,0.00068027934,-0.0063692043,0.0072789104,0.004378792,-0.008554045,-0.0021504764,0.0031535514,-0.008327035,-0.007062552,-0.008461834,-0.005489827,0.008849825,0.0070784963,0.0028947273,-0.008554848,0.0057517053,0.004634588,0.00011393477,-0.008844486,-0.0018873578,0.00018503271,-0.007750456,0.002475068,0.00047829992,-0.0070583536,-0.008276146,0.00604078,-0.0083455155,-0.005582631,0.00558438,-0.0004839554,-0.0030461855,-0.0051868916,-0.0011927774,0.005276026,-0.005950285,-0.0049738004,-0.0049446146,-0.0047478387,-0.007980539,-0.0097646285,0.007582976,0.007986248
subdural,-0.0042965207,-0.009327593,-0.0018832651,-0.0037036845,0.009098945,0.002923038,-0.005961262,-0.003336277,-0.009897388,0.0019498921,-0.0040033823,-0.0027269232,0.0051811314,0.0076113055,0.004393164,-0.006822375,0.0066922493,-0.009644399,-0.006969471,-0.008025559,-0.0022446217,0.00050359307,-0.0037808395,0.0018533596,0.009210744,0.0066991737,-0.0010470814,0.009066207,0.0015407478,-0.001959948,-0.0065497905,0.0064643244,-0.009038563,-0.0019168509,0.007672712,-0.002560288,0.0015942414,-0.007344588,0.0049772114,0.0073403623,-0.009319067,-0.0032898353,0.0078845285,0.0029422867,2.0112737e-05,0.0003317866,-0.009868364,0.009937892,-0.0020016255,-0.00491117,0.002774287,0.00103301,-0.00591198,0.005769902,-0.002493565,-0.006182046,0.0072020446,0.006458514,0.008810176,0.0011589362,0.0005008978,-0.00792935,0.004651321,0.00936261,-0.0006858609,-0.0017415304,-0.0038218526,-0.00048630484,-0.0076477067,0.0057158787,0.0014601883,0.009289836,-0.0064261532,-0.005103954,-0.0062058615,-0.0072716814,0.0027546103,0.004904191,0.0013325484,0.0035550355,-0.00940972,-0.0010507394,-0.0077542537,0.0029661546,-0.0026908228,0.008873251,-0.0034325027,0.0068247556,0.004116196,0.0013431008,-1.313306e-05,0.008190318,0.0023695754,0.008266084,0.003354939,0.0054207887,0.0051259156,-0.007638912,-0.0057799392,0.0012263025
cancersda,0.00018845827,0.002149005,0.001050426,0.007611705,-0.004411511,0.00032479162,0.007026066,0.0022677502,0.0042289454,0.004313621,-0.0012759335,-0.008321829,0.003048727,-0.0088708345,-0.0026544847,-0.009397881,-0.00047174853,-0.007872209,0.007412048,-0.004895063,0.009914263,-0.009006146,-0.004303965,0.0019109455,-0.0030022513,0.0014612683,-0.0036927275,-0.0009067133,-0.0057510715,-0.009817097,0.0063458285,0.0003719327,0.006513399,-0.0074684233,0.0036532425,-0.009882194,0.0075876145,0.005925665,-0.0061208694,0.00821123,-0.00558948,-0.0085415,0.0014848788,0.0031801462,-0.008106366,-0.008936716,0.009176358,0.0016301405,0.00086249,0.002472284,-0.003486623,0.0017171495,0.0019629095,0.009796521,-0.0056003155,0.0022508074,0.0063039525,-0.0066841026,-0.008929919,0.008646519,0.0068424,-0.0040240735,0.0057446463,0.00077203783,-0.0050245705,-0.0013426758,-0.004919177,0.006152136,0.0019424995,-0.008313574,-0.00016011974,-0.0026467878,0.0066235797,-0.0011557904,0.007677149,0.0019501514,-0.0038466174,0.008155291,0.00292564,-0.0039796135,-0.005613161,-0.0030928208,-0.005151976,0.0034510023,-0.00927781,-0.0058365655,0.0033497042,0.00018149945,0.0059852754,-0.0036184299,6.051969e-07,0.00249306,0.005463461,0.0016280679,0.009850921,0.0037237804,-0.007189952,-0.0014064233,-0.008377985,-0.0053459965
mi,-0.0022283564,-0.009708652,0.009302002,0.002024421,-0.00112905,-0.0055113155,-0.008486399,-0.009896016,0.008937096,-0.0025219733,0.0045619607,-0.0045510163,0.009972693,0.003670194,0.0010702747,-0.0040405495,0.0011911719,-0.0026778094,0.007380021,0.0044865273,0.0010273273,0.003542526,0.0036869852,-0.0067860316,0.008968348,0.0017333515,-0.0058071925,0.008648793,-0.0013373682,0.008202949,-0.0014957311,0.006998426,0.0027519679,-0.0043771067,-0.003764244,0.00923646,0.0016030248,-0.006017894,0.0003426861,-0.0020114146,0.0015785019,-0.007736982,0.007397165,0.001342162,0.007896197,0.004448396,-0.0044435114,0.0037727791,-0.0006589227,-0.009864722,0.00827885,0.009635495,0.009696539,-0.0038493199,-0.00848234,0.0048659695,-0.0077008544,0.008536595,0.0027353992,0.0056049875,0.0061360667,0.0005220484,-0.0021102363,0.00074325764,0.009837521,-0.007093881,-0.001529508,-0.0022998208,0.004857548,0.0064832005,-0.0041480004,0.0036642053,-0.0044823764,0.0032787686,0.008182375,0.0036585322,-0.004603957,-0.003000578,0.007884671,0.009616127,0.005826946,-0.0032608279,-0.0018345135,-0.006226013,-0.004321445,0.0033996904,-0.00644342,-0.0066329353,0.008151614,0.009486434,0.0082087945,0.0015547555,-0.008852552,-0.0075969286,0.0015908633,-0.0095303105,-0.0073947054,0.0019902699,-0.0029085125,-0.009188539
cholecystitis,0.006415494,-0.008944868,-0.007350538,-0.0017542894,0.0016967935,-0.001027332,-0.0051919497,0.0065932344,0.008781561,-0.007408183,0.009806098,0.007350439,-0.00745137,-0.0019116303,0.0042523434,0.0070591304,-0.0036597725,-0.006997112,0.0047315285,-0.009037849,-0.0058535617,-0.00127144,0.0054870197,-0.005684947,0.004793356,-0.000440979,0.0026681921,0.0063912007,0.0014093497,0.007704798,-0.00032020616,-0.008248778,0.00917713,-0.0048714615,0.004716807,-0.0038899938,-0.0073275696,-0.0065194047,0.004671604,-0.0006736365,0.0014649037,-0.008920086,-0.005140743,-0.006050464,0.008424925,-0.008689688,0.0050168275,-0.0008573841,0.00019354266,0.008799008,-0.0035735108,-0.006940371,0.00076804985,0.00773599,0.009130899,-0.0036939126,0.002740241,0.0049494314,-0.005287559,0.006847403,-0.006457533,0.0020997005,0.0045903334,0.0043725614,-0.0046820617,0.0026391018,0.00729052,0.008622399,-0.009528485,0.0055930833,0.0049682995,-0.0015963642,0.009188954,-0.0041774656,-0.0017578544,-0.006866045,-0.0037859583,0.00024159654,-0.0032772506,-0.0054081883,0.0065624667,-0.0052947775,-0.006323715,0.0076478273,0.0096481005,0.003993138,2.7283268e-05,0.0007936654,-0.0009491639,0.006867018,-0.0062446957,0.0005121264,0.004288162,-0.0021155404,0.00091079104,0.0037021365,0.009715593,0.0021664228,0.009504244,-0.0058366293
fall,0.0047906046,-0.0036227922,-0.0042740377,0.001216935,-0.004145417,-0.005635322,0.0031538443,0.008335287,-0.0065536997,-0.009106052,-0.0033534376,0.007513391,-0.0096982885,0.00960659,-0.0004195115,0.0022847685,-0.001876795,-0.0057718353,0.0030996087,0.0062051117,-0.0070576244,-0.0011712619,0.0015687131,0.004247663,0.0071386592,-0.0035299035,0.007281973,-0.00558759,-0.0021925452,0.009080924,0.005386166,-0.008488905,-0.0016492013,-0.008828892,-0.0016478034,0.0056594284,-0.0074095475,0.005515468,0.006081377,-0.003771053,-0.00966901,-0.0025257692,-0.0025705278,0.0037588386,0.008922551,0.0019875118,-0.0021077252,0.00296359,-0.0068033226,-0.0012995695,-0.001490818,0.009599342,-0.0057839956,-0.0070520258,0.002369286,0.0026293243,-0.0071473415,-0.0058848634,-0.0011873326,-0.0032985264,-0.008967466,-0.004050701,-0.00295617,0.0064914,0.000977081,0.0015854678,0.00026663186,-0.0033712222,0.0030859546,0.00072092406,0.005983665,-0.00077355455,-0.008900454,0.0008783903,0.009936191,-0.005231095,-0.0052293725,-0.0025115167,0.008573559,-0.00082887354,0.009418254,-0.008350185,0.009008166,-0.009716814,0.009203509,0.0018667327,0.002668295,-0.0058637173,0.008445492,0.0060361405,-0.0054931617,-0.0094865,0.006985823,-0.0055371895,-0.009332281,0.002590333,-0.004962721,-0.0073610274,0.009743081,-0.0015900274
chest,-0.0015048456,-0.0040389705,-0.00443358,-0.004631026,-0.005592825,-0.0053092823,-0.008029867,0.009551446,0.0064146477,-0.003618347,0.0024553062,-0.007657884,0.007553081,0.008333138,0.0007981406,-0.006837693,-0.0029770513,0.0047148084,-0.0029234139,0.0031560683,0.009425221,0.004392536,-0.005168144,0.0054589035,-0.0028632404,-0.0064098253,0.007008084,-0.009287617,-0.0011466139,-0.0013998621,-0.008416644,-0.0010831114,0.005630962,-0.0052724187,-0.0070462776,0.006253433,-0.003451014,-0.007825312,0.00029111857,-0.00010112484,0.0075463536,0.00055567245,0.007901215,-0.009834662,0.004061387,0.0062317685,0.001005348,-0.0028398682,0.0010145473,-0.0008483445,-0.00808875,-0.0067875707,0.0012056697,-0.0020163443,0.009562373,-0.00095713686,0.0060975947,0.0020252226,0.008076338,-0.009311263,0.0024062686,-0.0014393482,0.0021643664,-0.00023208349,-0.0066532833,0.009080581,-0.0028551244,0.0019251849,-0.0064877085,0.0037363216,0.010007251,-0.0011914067,0.0065739253,-0.000137105,0.007969366,0.009650067,-0.0004018779,-0.0016966959,-0.00953451,0.009884836,-0.002533472,0.002210746,-0.0017208408,0.008347393,0.008360873,0.0015454376,0.0028995906,0.0064493935,0.002263167,0.006431879,0.00016339403,-0.0022704916,0.00531306,-0.0034144653,-0.0026214093,0.008805206,-0.009153027,-0.003421522,-0.0029129358,0.0056538074
hip,0.007919625,-0.006449822,0.0057894588,-0.0002107269,-0.009029684,-0.0024459325,-0.0015625021,-0.0044590235,-0.000793989,-0.0052465256,0.0059314165,0.009286827,-0.0015777778,0.0033711789,-0.00073401403,-0.0007181602,-0.0070127747,0.0014310891,0.003918795,0.0069195726,0.00654827,0.0035661606,0.004627315,-0.007425432,-0.0013688266,-0.005785006,0.0067854947,0.0078026885,-0.0042907065,0.001149366,0.0051103868,0.0018161873,0.000793485,-0.00674661,0.009818661,-0.007234638,-0.0060140765,-0.0056795394,-0.0063468697,-0.0035251896,-0.009404126,0.0011597202,-0.0037420767,-0.0025384722,0.0057998314,0.0035476896,0.0018115462,-0.0013786042,0.009865211,0.0002863808,0.005016374,0.009019105,-0.0097476505,-0.009172686,0.009901591,0.002730628,-0.0018913858,0.004719715,-0.0043359464,-0.0063826693,-0.008243323,0.007232937,-0.002440721,-0.007581461,-0.005921073,0.006179013,-0.0024983191,-0.006106569,-0.0016309577,-0.0014535057,-0.0032675609,-0.0020717345,0.00411263,0.0014407929,-0.0034706406,0.0027067608,0.005206352,-0.009177151,-0.007569968,0.0063011404,-0.008938719,0.0005409849,-0.009005767,0.008395334,-0.0042950045,-0.006601801,-0.0013679068,-0.001104636,0.007547134,0.009100658,-0.0003291535,0.0027064728,0.004719258,0.00014946207,-0.005766165,-0.0005810163,0.002204555,0.008274988,-0.0035746652,-0.00987293
vehicle,0.0053600436,0.00986586,-0.007081374,-0.0005372847,-0.00504806,0.0064090793,0.009808223,-0.00024276429,0.005099574,0.0065445355,0.0043441076,-0.008111995,0.0031597372,-0.0014786797,-0.0020781185,0.0054132883,-0.0013525038,0.009892885,-0.0006385403,0.00019728526,-0.0022621453,-0.008383554,-0.009780273,0.0048925434,-0.006606611,0.0029546528,0.0027200053,-0.007149554,-0.003220757,-0.0058336686,-0.008529049,2.0231435e-05,0.00991188,-0.0067026783,-0.0044248085,0.008495941,0.009294214,0.0098046055,-0.009939887,0.004971777,-0.0066470765,0.0068794037,0.006144531,-0.003267192,0.006994306,-0.007884862,0.0045121834,0.004545555,0.0059274724,0.0058671,-0.0026420825,0.003830441,-0.0060760067,-0.0064938855,0.0027372018,-0.009412623,-0.00026859686,0.0011027034,0.008004196,-0.007024012,-0.0023046369,-0.0040069553,-0.005193338,-0.0005386576,0.004559765,-0.004890534,-0.001702921,0.008742821,-0.0014642023,-0.0035336886,0.0073226546,0.0012324374,-0.0002638458,0.009482047,0.00813924,0.0034178179,0.0032831342,-0.0022539275,0.008028994,0.005091175,-0.005422956,-0.0061189975,-0.0006471515,-0.007885811,0.003368747,-0.009219035,-0.0014773887,0.0033424366,0.0031000157,0.0031032816,-0.009014162,0.0035071308,0.0053110057,0.0034884631,0.007897812,0.0017031279,0.0063834726,0.008813353,-0.00091117254,-0.000865658
motor,0.0021604574,-0.007497091,0.0055837035,-0.00494605,-0.0032338258,-0.0018627465,0.008398774,0.0023442656,-0.0009567447,-0.002859979,-0.0021956346,-0.0013765636,-0.005045692,-0.0040920135,0.00027537654,0.004516526,0.0017539212,0.0068583093,0.00065185793,-0.0032295461,-0.0073446753,0.006135942,0.006970518,-0.006096004,0.0047278595,0.0095325885,-0.0064076623,-0.0030262936,-0.009178807,0.0032204215,-0.0033873552,0.0020072616,0.009555658,-0.008377594,-0.009392128,0.0018828842,-0.008045653,-0.009074354,-0.009395726,-0.0004096265,-0.0011213202,0.0007482805,-0.0013107668,0.009104491,0.008897197,-0.0064172996,0.008646125,-0.009080332,-0.0013491487,0.0024961783,-9.862919e-05,-0.0038959945,0.00050051935,0.00093006674,-0.009395423,-0.004849671,-0.007725537,0.0037924002,-0.0008871613,-0.007538718,0.0056339037,0.00031667843,0.0027548836,0.0053388476,-0.004296614,0.007922377,-0.007930607,-0.0033311886,-0.0075424816,0.001040439,-0.0074743726,0.009121932,0.0056418926,-0.007206309,0.0062086717,0.006591334,-0.0074783927,0.0047052465,-0.0077912263,0.009370273,0.0046965615,-0.00021978997,-0.008975763,-0.00087690953,-0.00023008113,0.00085984025,0.008750829,-0.002773695,-0.008656115,-0.008904393,-0.0010231033,0.0014784805,4.1486943e-05,-0.0021752066,0.008675366,0.00015534698,0.0065650297,0.00398715,-0.0071348553,-0.0021896332
status,-0.00782415,-0.006707937,-0.0031926942,0.006637048,-0.0008370176,0.008854629,-0.0022091072,-0.0052284733,0.0038551167,0.0022323532,-0.0003708249,-0.002568656,-0.0060157874,0.004088889,-0.007596601,-0.008919016,-0.009170422,0.008356133,0.00403985,0.0070662554,0.009952447,-0.0071230717,0.004011908,0.0028253517,0.0062066894,-0.0033734806,0.00932267,-0.005873265,0.006957141,0.006926235,-0.00031417698,0.00503696,0.006696457,0.0015030493,0.0073406342,0.002535656,-0.001488219,0.007396777,0.0046627917,-0.0032576218,0.0016353677,-0.00021766052,0.0049593747,-0.005339403,-0.004103953,-0.00094151945,0.0037633013,-0.0066442965,0.007823848,-0.003088242,0.005742625,0.0028034989,0.0068709003,-0.0044883387,-0.0032068754,0.0031083564,-0.0028139462,0.0059024566,-0.0060003116,0.0025839026,-0.0007180354,-0.00054473954,0.0025540292,-0.002274228,-0.0042898324,-0.008518782,0.0024537584,0.005438344,-0.0059296736,0.009190826,0.0040179514,-0.0051449104,-0.0012571095,0.0039528566,-0.0070097195,0.0021059427,0.00544875,0.0062802364,0.0054210657,0.003735918,-0.0027495304,-0.006077512,0.008159709,-0.00728717,-0.0015937807,-0.0032406303,0.0065488224,-0.006252325,0.0034542948,0.0020322031,-0.0040402818,-0.008186171,-0.008100233,0.0035265575,-0.009513796,0.00575604,-0.002770687,-0.009243022,-0.005128075,0.0077024456
metastasis,-0.0017403925,0.0064285323,-0.009299818,-0.009138899,-0.0052026906,0.0009407735,-0.0071474165,-0.009418268,-0.008918226,-0.0004620736,0.007394786,-0.008412362,-0.0053385976,0.0015385244,0.003336739,-0.008463955,0.007857246,-0.008240856,0.0047423556,0.009397815,0.005661313,0.0062144115,0.008244517,0.003456157,-0.0071439217,0.005749244,-0.008318355,-0.005761849,0.0058853608,-0.007933117,-0.0058370368,-0.003579031,0.0034133072,0.0051961485,0.002038489,0.0051512932,-0.0026301844,0.004348969,-0.0070501566,-0.0017063305,-0.0077687125,0.00016369074,0.004697674,0.0048102583,-0.004626001,0.001761255,0.0077959853,-0.0055842237,-0.0037782856,-0.0006052204,-0.004712016,0.008691543,0.0075591253,0.00920544,0.009370851,-0.008439768,-0.0004872656,-0.007603451,-0.0048106043,-0.0088542225,0.0034227592,0.000117018004,-0.0069058957,0.00795922,0.00092898513,0.00031979184,-0.0035943766,-0.0033307115,-0.0026740043,0.007637831,0.00236897,-0.0051673735,0.0047435146,0.0009951504,-0.00271869,0.007700836,-0.0039639026,0.007431325,-0.0042269127,-0.007341929,-0.004482441,-0.0038941856,-0.00072721555,-0.0018420526,0.005126793,0.005434028,-0.0017266512,0.0037290815,-0.0020065063,0.00074886647,-0.0013572684,-0.00244796,-0.0047317073,-0.0042498577,0.00015709778,0.0016777429,-0.00941547,0.006049124,-0.0016546308,-0.0030078886
asthmachronic,-0.0048190486,-0.00431545,-0.0048015662,-0.0097976355,-0.00076485274,-0.007823885,-0.004771527,-0.0073516886,0.009926042,-0.0013620525,-0.007784644,0.005482163,-0.008050158,-0.0019115838,0.0027681168,-0.0070700473,-0.008734235,-0.006652141,0.007477841,0.009052645,0.0040192283,0.0024687103,0.004099724,-0.0040886677,0.009775543,0.006908825,0.00410054,0.008928391,-0.008420747,0.00094307796,0.008927004,-0.0009561861,-0.0066961655,-0.0022878782,-0.0028196357,-0.0024421613,-0.0018287773,0.007270663,-0.0003070257,0.004189388,-0.003754003,0.008197968,-0.006499512,-0.00935629,-0.004089559,-0.00736275,-0.004893423,0.00048426347,0.0023751552,0.0017129198,0.005032265,-0.0014264035,0.002282036,0.0003546483,0.007815988,0.008039804,-0.0020046935,0.0012397787,-0.0060484293,-0.00472648,-0.0069617736,3.262148e-05,-0.0049013305,-0.0040677143,0.0015091639,0.00265634,-0.009125168,0.0017752589,0.005104631,0.0042155418,-0.002952402,0.009502274,0.009469194,-2.7295704e-05,0.0008676912,-0.009231009,-0.0048340186,-0.00010830443,0.004019232,0.00016703943,-0.0087269815,0.005841349,-0.007445358,0.008592648,0.0055125956,-0.006764375,0.0028614667,0.0076971157,-0.006100812,-0.006553178,0.009241557,0.0018160519,0.009703102,-0.009899581,-0.0014720662,0.006888834,-0.0014046127,-0.001788039,-0.0070888707,-0.005690304
tracheal,-0.006527122,0.008940171,-0.0016032273,-0.0082747,0.008035058,-0.0029911685,-0.0013069493,-0.00062012055,0.002806618,-0.0047190366,-0.00029976654,-0.002876865,0.008782588,0.0069032134,0.0011221285,-0.006066547,0.0031281493,0.0011143648,-0.0061023138,-0.005778644,-0.0030644445,0.0024258622,-0.008139453,-0.0049894974,0.008128457,-0.0036934228,0.007946753,0.00050114805,-0.0055813463,-0.004957069,-0.00017878371,0.004607884,-0.006047614,-0.005535745,-0.0068129315,0.0067791454,-0.002390848,0.0040148613,-0.0016302465,-0.0074712327,-0.0012671639,0.0003936153,0.0036043923,-0.008646214,-0.006769748,-0.006575564,0.0029774671,-0.0037533299,0.0010223563,0.0041668005,0.004513621,0.0023289688,-0.0028600302,0.0006309666,-0.005406041,-0.0063395016,0.008712321,-0.0040318123,-0.00934067,0.0037432346,0.008464974,-0.00012924825,0.0022670112,-0.0035838175,-0.004203878,-0.008607807,-0.007849661,-0.009019566,-0.006004531,0.00854104,0.009424683,-0.001692786,3.441565e-05,0.007875954,0.001263902,-0.0051222993,0.002611782,0.0018336762,-0.0037275017,-0.0048646377,0.009652635,0.007673504,-0.008595201,-0.0055003376,0.0014092997,0.0009336467,-0.008293048,0.009371155,-0.0053534633,0.004577751,0.009258919,0.0011278446,0.00417775,-0.002686479,-0.009656358,0.00060350477,-0.0010078948,-0.009963194,0.0070055,-0.007418265
obst,0.0051093544,-0.004424475,-0.009200215,-0.009075696,0.006246099,-0.005291434,0.0052939933,-0.0015337848,0.009716016,0.0071621537,0.009891131,0.008353651,-0.007868991,-0.009562756,-0.005541878,-0.0007906459,0.004992169,0.0036458087,-0.002021587,0.005050174,-0.003395361,-0.006806627,0.00469454,-0.009891454,0.0008906687,-0.0050197113,0.007620204,-0.0037418304,0.00276126,-0.0062826625,0.009673549,-0.0055976054,0.0036147907,0.003212198,0.008914832,-0.005527762,-0.0043265163,-0.0062491414,0.006142757,-0.004648639,0.004823148,-0.0009162258,0.0072584716,-0.0060469047,-2.3700795e-05,-7.4547934e-05,-0.008537548,0.0087616285,-0.002092318,0.0064404663,9.5969044e-05,0.0050276825,0.002228582,0.008876794,-0.008384161,0.008473173,0.008629914,0.0010220835,0.004417152,0.0038525732,0.004106943,-0.0028997902,0.0028650782,0.00072154525,0.004831923,0.008499546,-0.0077888193,0.00018694317,-0.008778123,-0.0015361578,-0.009064144,0.0031962397,-0.0015506648,-0.00066857453,0.0064587723,-0.0080929585,0.0011124492,-0.0024071662,-0.003735537,-0.0072966907,-0.007975715,0.0083247125,-0.007482691,0.0048397663,-0.0037797957,-0.0012102701,0.0028585999,-0.008582535,-0.0056467066,-0.007776976,-0.009383702,-0.00474038,-0.0031711624,0.0005079747,-0.0006595134,-0.00787557,-0.0037560076,-0.0027721748,-0.0063846037,-0.006421893
stroketia,-0.002607931,-0.00791861,-0.008259738,-0.007585689,0.0035540771,-0.0075884545,-0.003710761,0.00662868,0.007399565,-0.0063979235,0.006798301,-0.007771077,0.00013180851,0.0066165566,-0.0028397667,0.00922022,-0.00032455564,0.0046845553,0.0069524013,-0.008540753,-0.0060704304,-0.007295449,-0.0011709523,-0.007089524,0.00010927677,-0.008043634,0.0005104637,-0.00038909435,0.0064722206,-0.008881645,-0.0031734514,0.005898355,0.009234394,-0.0017851782,0.0007772481,-0.0060945093,0.0008211219,-0.008139475,-0.0076386104,0.0013829279,-8.144021e-05,0.0055616437,-0.0097366385,0.0016551495,0.0015750825,-0.0052475943,7.1128605e-05,0.0060580564,-0.0065998747,0.00028917432,0.00389516,0.001705457,0.002860496,0.008154632,0.0066902316,0.0035060525,0.007975804,-0.007666818,0.0075333845,0.0038895153,-0.0059011113,-0.004192121,0.0063938843,0.005800183,-0.0098604,0.0012479639,-0.0004006064,0.0008136869,0.0070778416,-0.007172923,0.009641128,-0.009457558,0.006219598,0.009496334,-0.0038256205,-0.009392841,0.006184089,-0.0089638615,-0.008295257,-0.0008296287,-0.0066444445,0.00874774,0.007851567,0.00082879665,0.008002034,0.009844699,0.0051898016,0.004318818,0.0053776647,0.006413385,0.004728636,0.0063861907,-0.0074497582,0.008860124,0.008282507,0.009378528,-0.00901782,-0.0034470118,-0.00034225226,0.0041669165
sda,-0.008242222,0.00018492636,0.0059752925,0.009634832,-0.0028470343,0.0017750402,0.0063919984,-0.0019187843,0.0018963811,-0.009343249,0.0006571736,0.0045618857,0.0045360997,-0.009736795,-0.0050957566,0.0029657702,0.0016093582,-0.0047701495,0.0057966993,0.0034858081,-0.007801356,0.00994951,-0.0077885394,-0.003082238,0.009738642,0.0011478784,-0.0056024455,0.0010729062,-0.0041675945,-0.006729937,-0.0077105896,0.00473464,-0.008998648,0.0040023653,-0.0055855475,0.0055436213,-0.004357991,-0.005594313,0.006318678,-0.008748421,0.001312944,-0.0021890064,-0.0066840826,-0.0076057874,0.0068418044,-0.0044721295,0.0045697363,-0.00967382,0.0018672291,-0.0019443285,-0.005850544,-0.0028794655,-0.008628983,-0.0035006728,-0.0026155647,-0.0022532442,-0.005134361,-0.009202708,0.0052965167,-0.0013114548,0.006217171,0.003143265,0.00856374,-0.0035647473,-0.008888722,0.0014394905,-0.009028013,0.0061595496,0.008360892,0.00053357874,0.007669922,0.00857856,0.0042638364,0.0053898226,0.009191291,0.0011588464,-0.008335002,-0.008275842,-0.0017962768,-0.0006278861,0.008800534,-0.009299147,-0.0026366115,0.009187768,-0.0013934487,-0.009071576,0.0020463048,-0.0058212224,-0.005430205,-0.0063681323,0.00020088376,0.007287063,0.004084863,0.0081964005,0.008904912,0.0045465375,-0.005973105,0.007027741,-0.009504829,-0.004839542
bypass,0.007974224,0.007935796,-0.0055140858,-0.007895494,0.008095256,-0.0038737892,-0.0039841183,0.007335474,0.0053303507,0.0038259241,-0.0013335136,0.008604345,0.008526546,0.0069884337,0.009138183,-0.005766772,0.0009798456,-0.0017757359,0.006409741,0.009709533,0.0052243383,0.0042616525,0.0064253774,0.0057996907,0.000118662225,-0.008341533,-0.0022544349,0.008986577,-0.005216865,0.0010161009,0.0049719946,-0.006947535,0.008233259,0.0014000118,0.002353372,0.008541279,0.0014448839,0.000861847,-0.009476873,0.009720985,-0.009872575,0.008469358,0.005027483,5.802813e-05,-0.0077116448,0.009357423,-0.0014139897,0.0053000413,-0.0030924478,-0.004924486,0.00021756637,-0.0081517035,-0.006535308,-0.009496539,0.0053111124,0.00047753082,-0.0010065121,0.0051246095,-0.0020447262,-0.0074088713,0.002935535,-0.005849143,0.0004942778,0.00938989,-0.00093707914,0.0062464727,0.00443001,-0.003348988,-0.0053684334,0.008951676,0.0020439338,-0.0004198669,0.00096291094,-0.0049734167,0.0036146406,-0.0030574182,0.0040570977,-0.004514678,-0.00076622603,0.0039346796,-0.0072124926,-0.0025194967,-0.008816782,0.0016784255,0.0020264818,0.002436216,0.0011665596,0.0001046934,0.0023268717,-0.0009931079,0.006032921,-0.0028487032,-0.0051786494,-0.0052442504,-0.009572531,-0.008068046,0.002245217,0.0039088754,-0.0057526,-0.009748707
diseasecoronary,-0.0062226076,0.0047374745,-0.009203218,0.005148781,0.0064038318,0.0060466756,-0.0075403647,0.003018544,-0.0055380873,0.009064474,-0.0044198222,-0.00243735,0.0052661095,-0.0007984739,0.0052281446,-0.004207693,0.0049841246,-0.009925974,0.006116803,-0.001305924,-0.0055917334,0.00016392936,-0.0012867205,-0.00081439974,-0.0017203105,-0.00930931,-0.007922815,-0.006937172,-0.008801702,-0.0045196624,0.009318034,-0.0018141929,-0.0075358762,-0.0059901136,0.0035450312,-0.0024615389,-0.0015814322,-0.004246387,0.0059008934,-0.007943928,-0.007466699,0.0074765277,-0.0069396244,0.002243185,0.00052443903,0.009723082,0.004165423,0.0020394877,0.002730248,0.0023167129,0.002282573,-0.002843439,0.004209441,0.0060523213,0.008902633,-0.00068749866,-0.0012546837,0.006560541,-0.008540529,-0.00066725665,-0.00664356,0.004956524,-0.009004654,0.0031477849,0.009040098,-0.0019541879,-0.008848121,-0.008021653,0.0030980443,-0.0052705244,0.006394417,-0.0012191746,0.007915561,-0.0005182727,-0.006171691,-0.005687525,0.00063323515,-0.004708672,0.006617495,-0.0034974173,-0.0057088225,0.0009837785,-0.0049509825,-0.008084721,-0.0052680816,-0.0017932648,0.00055523886,0.0036546118,0.006993925,0.0066600284,0.005986795,0.00041560247,-0.0059443405,0.009052319,-0.0005870454,0.0047565512,-0.0012582957,0.005682396,0.005316817,-0.007386047
upper,-0.0027490659,0.00012292151,0.002030246,-0.009288758,0.004838793,0.003372194,-0.00016667454,-0.003482242,-0.007611032,0.007597777,-0.008610052,-0.0073893988,0.0044500856,-0.008504513,-0.0032809596,-0.0020919552,-0.0019045591,-0.00683208,0.004297414,0.0009935817,0.0036568574,-0.0013190355,0.006936425,-0.009533387,0.005843281,-0.0051287394,0.0016959112,-0.0069537773,-0.0024838587,-0.0064404216,-0.003342802,0.009724201,0.0026959705,0.0016004601,-0.006080666,0.0055749617,-0.008133621,-0.0022878705,-0.0064640455,-0.0063875997,0.0022985742,-0.003286043,0.002424937,0.003918404,-0.0062620407,-0.0017399071,-0.0027661836,-0.009801629,-0.009830798,0.0011115138,0.004378809,0.00024010647,-0.0048768134,0.0036277566,0.001689966,-0.009437087,0.007198459,0.0077655367,-0.0077300738,-0.000755371,0.0060302513,-0.0027850454,-0.00033867755,-0.004225156,0.0061084097,0.0069967764,0.0020729124,-0.0047045853,-0.0018325443,-0.0039993245,-0.0097783515,0.00780497,-0.0006082794,-0.0005960356,0.0070877424,-0.009039314,0.0063302494,-0.0075652953,-0.0053627836,0.0050765453,-0.0035003554,-0.0034787483,-0.006305475,-0.003910419,-0.0026583758,-0.0040935087,0.009462976,0.009458426,-0.00038175247,-0.00028958227,-0.0056453813,0.007915507,-0.004941333,0.0058919503,0.009116613,0.0057687974,-0.00093972485,0.0055390545,0.006946336,-0.0038833772
casda,0.0006791049,0.0064942413,0.0058594854,-0.0001642837,0.0023808335,-0.0065256115,-0.009339211,-0.004932852,-0.0053926692,0.0005949545,-0.003976278,-0.00038520613,0.007637043,0.009749125,0.00788685,0.002386428,-0.0027196296,0.0024242548,-0.0026851436,-0.008969424,0.0069044353,-0.008649246,0.0037691663,-0.003956521,-0.0055521973,-0.00105774,-0.0065617217,0.008562505,-0.0069037406,-0.0089655,0.0057762787,0.004454267,0.0047396785,0.0024192112,-0.0037350291,-0.005111184,0.0017831814,0.008343888,-0.0056780674,-0.0023774267,0.0018493893,0.006716249,-0.006405689,-0.00450024,-0.0026360035,0.001351604,0.0053739357,0.005534275,-0.008704657,0.007275596,-0.002508362,-0.0028474608,-0.008838579,-0.0057742726,0.009440785,0.00310453,-0.008053966,0.0028143376,-0.007092206,-0.009053825,0.0038725624,0.0020471371,0.001228325,0.00883779,0.006266926,-0.005054976,0.002714705,0.002556796,0.002394682,0.008339422,-0.0069205207,-0.0023050196,0.0010186951,0.006366614,-0.0006507001,0.00793594,-0.0046487707,-0.009016544,-0.0070406944,-0.004157391,0.009575744,-0.0051200762,-0.0048721447,0.008164781,-0.007476894,0.0020179683,0.005724396,-0.007529007,-0.00023753387,-0.002390297,0.0055738715,-0.0045643123,-0.0066345325,0.009903525,-0.0046271617,0.0076136906,-0.008445142,0.0070172073,-0.003395047,-0.007839633
mitral,-0.0011946738,-0.0023270927,-0.0018980869,-0.0011257561,-0.006498253,-0.0036088924,-0.0031293822,0.007834157,0.00579356,-0.0008765268,-0.004903377,0.0052546537,-0.008815805,0.0016520312,0.0040795305,-0.0019400687,-0.0045296145,-0.008297708,-0.008254843,0.0070743365,0.0036455998,-0.00027101662,0.009655515,-0.00858867,0.0006036741,-0.00048491993,-0.0081536705,-0.009180067,0.007073586,-0.0036268176,-0.007835716,0.007951121,-0.0062304717,-0.0031760538,0.001729751,-0.0032178669,-0.007999614,-0.0039340593,-0.0090394495,0.0013272676,-0.004627079,-4.665228e-05,0.0027354618,-0.0022832912,0.008906703,0.007044641,-0.0005663884,-0.0006576346,0.0008211205,0.0067987004,0.008985578,-0.0020369452,-0.0015123042,-0.003007872,0.00047323838,-0.0064510386,-0.0018969128,-0.008606989,0.0006088174,0.0014319603,0.0037740378,-0.0027749804,0.0059159175,-0.0071479836,0.009852452,0.00060067716,0.0022750958,0.004483978,0.00032091653,0.0026664827,0.0015991016,-0.009638111,-0.003077333,-0.0026137696,-0.009230192,0.003453266,0.0047167116,-0.0020498338,0.007457173,-0.0012241312,-0.0003324953,0.0057958984,-0.008576447,-0.006843995,0.007338766,-0.0065688216,0.008550064,0.0053809397,-0.007967685,0.008356463,0.006398477,-0.0066569806,-0.008532976,-0.00876956,0.0038782754,0.006368233,-0.0020249523,0.0012837201,-0.00839058,-0.0051930584
effusion,0.0046916823,-0.009056381,-0.009237007,0.0010271338,-0.008581841,-0.0069422605,0.0047857636,0.008037373,-0.0073580607,0.008106632,0.009368354,0.004697824,-0.0043860385,0.009691923,-0.007711458,-0.0038977098,0.0019509981,-0.0076334686,-0.009879313,0.0028385422,0.00820104,-0.005075256,-0.0043112687,0.0038998083,0.00071581494,-0.008535268,0.006538538,-0.00317168,0.003570001,0.0031624592,0.008876779,0.008740647,0.0073258774,-0.0082948245,0.0012021812,-0.00091636274,0.0008896582,0.008913454,0.0047606914,-0.008970272,0.009801452,-0.0009166847,0.00042909753,0.004995176,-0.0061743325,-0.0004225117,0.0013605045,0.007025539,0.004270048,-0.0019503533,-0.008460316,-0.0038915507,0.008789777,-0.009515888,0.009833225,-0.00013815524,-0.0011343125,0.00962025,0.009578169,0.008270362,0.009004147,-0.009959687,0.0075205923,-0.009388842,-0.007724033,-0.008819848,0.0021479107,0.0072343,-0.0063525965,-0.0026876477,-0.002377474,-0.0044646864,-0.0012928448,0.0048750527,0.0037242498,-0.003227849,-0.003735242,-0.0023177625,-0.003255539,0.0039680204,0.009743179,0.007866235,-0.0075619193,-0.006414442,-0.009130035,-0.0059101926,0.0036469945,-0.0060275947,0.0017096037,0.008885493,0.0033507366,0.0012026373,0.008912229,0.006432012,-0.0014136842,-0.006211218,-0.0010047182,0.0072666183,0.0074818837,-0.0040550632
graft,0.009930851,0.0024303019,0.0050439467,-0.005664925,0.0044064564,0.00020065144,-0.0095179165,0.0051780315,-0.009021934,-0.0064484375,0.002726394,0.0092510525,-0.002064263,0.0070135,0.005157145,0.0040550004,-0.006182013,0.004983769,-0.008296384,-0.0043662414,0.0054758834,-0.008036922,0.0056542186,-0.0035225276,1.6202259e-05,-0.0073562497,-0.0062789223,-0.003385586,0.0084994,0.005357067,-0.009631078,-0.006576118,0.0034408567,-0.008529366,0.0066076145,0.006304801,-0.009289193,0.008614099,0.0078004454,-0.0018755213,0.0017532785,-0.0057222773,0.0061894273,0.0077567184,0.00415859,-0.008805981,0.0049537164,-0.003086056,-0.0022351155,0.006094514,0.0018876225,0.0045342054,-0.00621192,0.005204638,-0.0035561037,-0.00034933985,0.0062129577,0.0041443803,0.0074302866,-0.0039414144,0.0036121807,0.0073780627,-0.0033084373,0.0056912894,-0.009393196,0.008917991,0.0037016254,0.0054124985,0.004552882,0.0046252715,-0.0033379032,-0.006233135,-0.002228426,0.0013629334,-0.002921975,-0.00846836,-0.0063791377,0.008377495,0.009333277,0.0059689744,-0.00413929,0.0007285851,-0.008648041,0.006755057,0.00048554785,0.0073870164,-0.005292331,-0.0028375308,0.0029195035,0.0034274578,-0.0064292373,-0.007318374,0.0020015934,-0.008953192,0.0058555766,0.005498107,-0.0036814525,-0.005698806,-0.008337732,-0.0019738306
hepatitis,0.006979742,-0.00019911,-0.00794675,0.008889833,-0.008558274,0.0055540027,0.006491202,0.0009789697,-0.008694917,0.006172744,-0.00785377,-0.0050260318,0.009634675,-0.00827796,-0.007627377,-0.004902073,0.0034563001,0.0019149606,-0.0055484376,-0.0032840103,0.008592397,0.009791121,0.009922175,0.0010432693,0.004042814,0.0013691977,0.0016757852,0.0048261536,0.002208866,0.00029993054,-0.00314683,-0.006527164,0.00799089,-0.0059792483,0.0027662157,-0.0009032318,-0.0036579212,-0.004945447,0.0032194757,-0.005870508,-0.007500636,-0.002649581,0.0046893256,0.0060553635,-0.0014424844,0.0072933314,-0.0076105227,-0.004734297,-0.007860599,-0.006061766,0.007311884,-0.009273002,-0.0086514875,-0.009830943,0.009198662,-0.0026617672,0.0009971713,-0.006121379,-0.002520747,6.4655156e-05,-0.0024958379,-0.0073762042,-0.006180236,0.002533242,-0.009506978,0.0011382794,-0.0019956562,0.008284604,-0.0004263184,0.0062176776,-0.0071068853,-0.00755202,0.005545648,0.00094337156,-0.005075956,-0.0026621039,0.008771382,-0.009176381,-0.0036891857,0.0010154819,-0.00021398178,0.009514591,-0.001924728,-0.007082836,-0.0076710396,-0.009921703,-0.007810161,-0.006035281,-0.0059443833,-0.0014105286,-0.0005515218,-0.0047022235,0.0021443388,0.0038694832,0.009053353,-0.0046396893,0.0051607224,0.0072500515,-0.0037506823,-0.007441368
pulm,-0.0033614193,-0.006923255,0.006467711,0.009384704,0.0083064735,-0.008597548,0.005087489,0.005171084,0.0056441776,-0.008329269,-2.7333135e-05,-0.0068650073,-0.00889592,0.0025319834,0.009995092,0.006508892,-0.007079187,0.0022755738,-0.0038914967,0.009942804,-0.008784077,0.009760023,-0.006603354,-0.0070520914,0.0016271091,-0.00068068376,-0.008537215,-0.00066441373,-0.00044399186,-0.006284151,0.005822752,0.0031463578,0.008439016,0.0073718913,-0.006664297,0.0048438003,0.005731152,0.0057627778,0.00520924,-0.004859126,0.0042859255,0.0012855721,5.2856845e-05,-0.006458242,0.0015969856,0.005283019,-0.009218438,0.008641249,0.0029553238,-2.2577457e-05,-0.003333013,0.00032881304,0.006102915,0.0047738375,-0.00597553,0.007939315,-0.00067482726,-0.008191023,0.008821044,0.0050922944,0.003634,0.0079663,-0.0075211492,-0.0059039462,-0.0020082418,-0.004024052,-0.001624757,-0.000546207,-0.008449878,0.0019492629,0.0025263529,-0.0007998342,0.004909202,0.0014505609,0.0060309456,-0.0022354424,0.008470688,-0.0015200663,0.0030760372,-0.0038032033,0.0061189877,0.0031299093,0.0004940071,0.008833659,-0.0078348825,0.009721056,0.0008054104,-0.002328295,-0.0041042957,-0.009144592,-0.00217093,0.0027363852,0.0065733506,0.009119195,-0.008724003,0.009072394,-0.008795279,0.0037046424,0.008045196,-0.0025705341
disease,-0.007874638,-0.008346892,0.001136037,-0.0007581498,-0.009504637,0.0030653863,0.0022842267,0.0044562817,0.004440732,0.0032323685,-0.009813632,0.0057285866,0.004264557,-0.0077387895,-0.0021103541,0.0003423053,-0.00064224633,-0.000970265,-0.005527709,2.166989e-05,0.004434338,-0.0006588454,0.0007734417,0.00206494,-0.0039708973,-0.00787418,0.009178314,-0.009804384,-0.0025049862,-0.0012700836,-0.0076355184,0.0017589687,0.007950881,-0.0015186934,0.008079919,0.00032624754,-0.00577001,-0.0019987107,-0.00071464706,0.0062341574,0.0071261344,0.006190781,-0.0059987335,-0.006988234,0.0061226347,0.0024824068,0.0053462028,0.00047378495,0.0078746695,-0.008888525,0.009901334,-0.0082472125,-0.0016955414,0.006302917,-0.009264933,0.004330829,-0.006989869,-0.006847527,0.0022979202,0.0017443924,-0.0027649177,0.007892755,-0.007006686,0.0004484482,0.008738319,0.002059316,-0.00686825,0.0035620474,-0.005060345,0.0006235762,0.002835716,0.007609156,0.0074051456,-0.0048979013,0.009547013,-0.0054712035,0.00760888,-0.007988411,-0.007819405,-0.0011376189,-0.0081559,-0.0034584512,-0.00055629225,2.718562e-05,-0.009963334,-0.0065193903,-0.0074026575,-0.0004067465,0.0052011684,-6.896714e-05,0.00997644,-0.0038737382,0.008057968,0.0060967663,0.008274873,0.00010899651,-0.00040161423,0.0018848476,-0.009919539,0.009008412
motorcycle,-0.0023864892,0.0075545036,0.0020300767,0.0029279452,-0.0012363436,-0.0099069625,0.0014508226,0.0028987862,-0.009845353,-0.0039094198,-0.0023602303,-0.0050722905,0.003954965,0.002113429,0.004327563,-0.0064735287,-0.006037516,0.0047187796,0.006783355,0.0055377847,0.0047932826,-0.0072139157,0.008176308,-0.0069708563,-0.0076763653,0.008510269,-0.0024580464,-0.009420287,-0.0030996376,0.0059610014,-0.0028843428,0.004924262,0.00014510879,0.0040456634,0.0011603567,-0.009276643,-0.0036504155,0.008832421,0.0015123539,-0.0059127994,0.0069896854,0.007474535,0.007253558,3.6440655e-05,-0.0091345925,-0.0035158193,0.0051259235,-0.0065337205,0.009758069,-0.009784407,-0.008115331,-0.005334407,0.006008699,-0.007697135,0.008648291,-0.009886093,0.0035002804,0.0033022072,7.190805e-05,0.009523949,0.0051229056,0.000308303,0.004834838,0.006391957,0.0029839915,0.009430531,-0.0013557486,-0.008367436,-0.004523267,-0.0014974757,-0.0072981273,-0.0015658397,0.007946266,-0.005029013,0.0051319017,0.004364733,-0.00070789584,0.0010742067,0.0056875083,-0.0066134264,0.0038978036,0.008915899,-0.0035328062,-0.0076289517,-0.009185853,-0.0090170335,0.0038740286,0.005108294,0.0070447363,-0.0014641911,0.0009625087,0.0030828957,-0.009886814,-0.0094169,0.004618444,-0.008407575,-0.0031566934,-0.0043163705,0.0059374515,-0.0034548282
ganglin,0.009980587,0.0005580825,-0.005148437,-0.0036306137,0.0012580251,-0.0053772684,0.0074098106,0.009028334,0.004281871,-0.007347658,-0.005956448,6.0199316e-05,-0.0010045609,-0.005531319,0.007960416,0.006227452,-0.0041874615,0.0023742125,0.0051351525,0.002406334,0.0085872905,-0.0012925246,-0.0065318225,-0.00084905134,-0.008320784,0.009854388,-0.008617158,-0.0015005466,-0.0028551705,0.0031534943,0.004982029,-0.008238585,-0.0043985257,0.00049785094,0.0040021744,0.0051198523,-0.0013807041,-0.00062089314,-0.007830886,0.004543065,-0.007655955,0.003283498,-0.00343163,-0.007778938,0.0068928446,-0.00046967936,-0.009548848,-0.009378543,0.000587879,-0.008193752,0.0037403544,0.003474505,0.003354253,-0.005608856,0.007980208,-0.008987896,0.0074534575,-0.0006205947,-0.0014759691,0.0039678738,-0.0024886904,-0.0043934253,-0.0024132538,-0.006198925,-0.00035305956,-0.005390004,0.0046100034,-0.009522469,-0.00436513,-0.00915277,-0.009647241,-0.00075848284,-0.008092263,-0.005686983,0.0027701773,-0.0014338205,0.0031001724,0.008272267,-0.009648856,0.0060932883,-0.007941916,0.0065467698,0.0074788686,0.008588021,-0.007951567,0.0033411293,-0.007834641,-0.001234971,-0.005219107,-0.0085440185,0.004939152,0.0044396217,-0.004069958,-0.007767575,0.00356999,-0.0039407145,-0.008846996,-0.004392382,-0.0021571326,0.008752246
basal,-0.0064724325,0.0073455954,0.0061280113,-0.004915583,-0.0017642701,-0.0025159032,0.0031339112,-0.00044580575,-0.0027686062,-0.009053813,0.0064316313,-0.009632679,-0.008649072,0.0013885106,0.0029792276,-1.2921356e-05,0.0003764749,0.0025834278,0.0018056446,0.007566006,-0.0034397605,-0.007225815,-0.007898653,0.0079312185,0.0019481651,-0.0058037722,0.006392627,0.008451808,0.007948547,-0.0068275332,-0.0051278546,-0.002021599,-0.0066125942,0.004725406,0.0056680227,-0.0059822616,0.0072153327,-0.007665097,0.006214949,-0.0046513467,0.001959715,-0.0032993364,0.0033933893,0.0077241263,-0.0013790953,-0.0049877767,-0.0085679935,0.0036347539,0.0042218133,0.006690456,-0.004281135,-0.009748178,0.0068304683,-0.0045263497,0.004415775,0.00806611,-0.0039437725,0.0016304153,-0.0036005427,-0.006621702,-0.0056863413,-0.0001347693,-0.0075119147,-0.0019974408,-0.0024764168,0.006724117,0.0013670144,0.005870131,0.003808557,-0.003513161,-0.0050954046,0.009673398,0.0070846397,-0.009046486,0.0052576135,0.008205736,0.009184828,-0.008047798,-0.0020194903,0.0010925274,0.0029018724,-0.0016187071,-0.004711448,0.0064793327,0.0069417655,-0.0003822163,-0.0058389,-0.004374023,-0.005140855,0.004264876,0.0005230726,-0.0023541541,-0.009089313,-0.0015095624,0.006443402,0.0063302377,0.0042393627,-0.0028861298,0.009070256,0.0005971498
seizure,0.0011347234,0.006174861,-0.006593491,0.0065341983,0.009794316,0.0036727618,0.0034324396,0.004196546,-0.0019464791,-0.008096277,0.0014800942,0.0009046066,-0.006797297,0.0019593919,0.005443902,-0.007177912,0.0025119793,0.0077667725,-0.008621219,0.0035135662,-0.008564608,-0.007937057,0.007091025,-0.007565397,-0.0013685488,-0.007928683,-0.0078653935,-0.007103605,0.00040596127,0.001794883,-0.007906519,-0.008049076,-0.003180132,-0.001824404,-0.0061704637,-0.004226774,0.0036070598,0.0030711652,0.0065946756,0.0042466833,-0.00088664773,0.0027672017,0.009049989,0.001908176,0.0018196488,0.0011240005,-0.009286896,0.005351924,0.005043949,2.553463e-05,0.009212247,-0.0057180882,0.0032491565,-0.007811786,-0.0089405645,0.0020009638,0.004744922,0.0061003957,-0.008687585,0.0043530716,0.002398505,0.0041559553,-0.0006745219,0.005543709,0.007291638,-0.008386932,-0.009932266,0.0070149074,-0.00095197203,-0.009374607,-0.0040858854,0.0011912441,0.008426614,-0.0016904592,-0.0010216295,-0.0073646666,-0.007652612,0.0014624643,-0.00047345756,-0.0077002333,0.0008799255,-0.008988475,-0.002477033,0.0042172647,0.0011170149,0.007830691,0.006585375,-0.0011890733,0.0049564564,0.006129242,0.008731773,0.009078525,0.0049281693,0.0046114624,0.007185029,-0.0015663934,-0.005649698,0.008868068,0.0012105549,-0.0050547267
humeral,-0.0008669291,-0.0052268645,0.009119529,0.0033957907,0.004285477,0.0064978614,0.008175995,-0.0047724475,-0.006343676,-0.0037267683,-0.0037213904,-0.009454638,-0.0006065129,-0.0081038205,0.009781931,-0.0034069163,-0.0063243555,-0.008108559,-0.003554775,-0.009559988,0.0007887344,0.0054145614,-0.0028797498,0.0076732803,-0.0018711342,-0.007266434,-0.0031277805,-0.0031379354,-0.007100819,-0.009685423,-0.004069494,-0.0015852029,0.005009824,-0.0076185805,-0.0049742186,0.0013704518,-0.0016708578,0.0035443273,-0.001877984,0.004322211,0.007994615,-0.007921913,0.0037613015,0.005986299,-0.0005660253,0.006772231,-0.0054202736,-0.0045797057,-0.007850947,0.009470245,-0.009401213,-0.0032555128,-0.00043011928,-0.0048472523,0.009481312,-0.006829039,-0.008025644,0.009245411,-0.00830278,0.009690585,-0.0040991213,0.005665753,-0.00041413534,-0.0039984477,-0.007500754,-0.0062727416,0.0068438086,0.006325615,0.00015852337,0.006403872,0.0038475927,0.003835344,0.002677884,-0.009719532,0.009261777,-0.008202143,-0.0030085326,0.0014245806,0.005248783,-0.009209402,0.0016895416,0.0063704904,-0.008760849,0.009559158,-0.0052224114,0.009555274,-0.0065198606,0.006594966,0.009372352,-0.009231193,0.00029585854,-0.0077348542,0.008131436,0.009579365,-0.0060484903,0.00083821325,-0.0022319176,-0.0077570775,0.00081425067,-0.009907288
alcoholic,0.0026068254,-0.0077007506,0.0056894547,0.007575055,-0.0025441248,-0.0040287445,-0.009608304,0.0049306555,0.002908447,0.0087436745,0.0032992628,-0.002910248,0.003563171,0.008641132,0.00925166,0.0076502664,-0.008562421,-0.007575063,0.007261063,-0.0074547785,0.0032470904,0.008036917,-0.0032180473,0.0067472146,-0.0081616575,0.0064996146,0.005579975,0.0033335127,-0.008143895,0.009163432,0.008245186,-0.0015576347,0.0041040247,0.00637285,-0.0017503942,0.0055070263,-0.004030685,-0.0012720494,-0.0012274823,-0.0041691363,-0.0006960441,-0.0077098142,0.0036317594,0.009056838,0.004800155,0.0063789976,-0.0047392366,0.004860867,-0.006690453,-0.0049763774,0.009878129,0.0063873976,-0.004974674,-0.006072123,0.007220647,0.0027206268,0.0065728584,-0.006760407,-0.0009779838,-0.00095358415,-0.00021431185,0.002230175,-0.006745882,0.0043829284,-0.0027329894,0.008359923,-0.0010314634,0.009168121,-0.00085857854,0.0052237515,-0.0075977906,-0.009085914,-0.0003437112,-0.0022624063,0.009978591,0.0045305355,-0.0055876705,0.0073796683,0.0005873638,-0.009564282,0.0057118996,-0.0020188945,-0.0094256215,0.008724532,0.0072420244,0.008556539,0.00038530483,0.007685601,0.0051936912,-0.006948613,0.009297715,-0.0035523113,-0.009744394,0.008570648,-0.0053020497,0.008400236,-0.007842446,0.009277227,-0.0059151524,0.0040044193
lung,0.009764416,0.0042323577,-0.0021515142,-0.0049771047,-0.009723125,0.004195128,0.0074455766,-0.004705723,0.0059033544,0.006838061,-0.0090259975,0.0020656022,-0.006856584,-0.0043159532,0.0008860444,-0.0070401053,-0.004162962,-0.0075391256,-0.007011454,-0.006948198,0.009926861,0.008360388,-0.00018906254,-0.002625767,0.0062620216,0.0013280931,-0.009006387,-0.007099412,0.0010059103,0.00792065,0.0032257834,0.009821194,0.006546133,0.00027925344,0.008640775,0.009038862,0.0080667725,0.009409939,-0.009363389,0.003479816,-0.007816343,-0.0071874885,-0.008452287,0.003202748,1.8620582e-05,-0.0063491217,0.005530484,0.007918467,0.004293095,0.007848714,-0.004264392,-0.0064179725,0.004014299,-0.0029290766,-0.0071830205,0.0036717635,-0.0033256868,-0.0052093337,0.0026005805,0.006825576,0.006417508,0.00017298783,0.008698449,0.0028996093,0.0065607987,-0.0008972454,0.002102573,0.006192734,-0.0098220315,0.0058428776,0.0012909389,0.0060959673,-0.0014367737,-0.0026822241,-0.0055635897,-0.0028346633,-0.0026018056,-0.0051310197,0.0009646079,0.008011033,0.005142286,-0.007659423,-0.0074314727,-0.0028823465,0.003942673,-0.009340344,0.0061380225,0.0031198058,-0.002804493,0.009207281,0.008092925,0.0007570504,0.00483573,-0.009297828,-0.0087528275,-0.0028984267,0.009321724,0.003186116,0.0056135296,-0.006797211
cancershortness,0.0042274417,0.0004093566,-0.00094146567,-0.0032248776,0.0049600126,-0.009124816,0.005155729,0.0056985244,-0.0024601757,-0.0041962643,-0.007414708,-0.0063971905,-0.0051014507,0.00317188,-0.004780852,-0.0012073062,-0.008923231,-0.003536367,-0.00078113086,-0.007963978,0.0032946547,0.00981217,0.0043892483,0.0018656782,-0.0048600347,-0.0011221443,0.0022310144,0.0016982942,0.00879076,-0.00091802335,0.007020361,0.005786603,0.003066144,0.0073199607,-0.004965568,-0.00391147,0.006964172,0.008606951,0.003140124,-0.0041355207,0.0076369396,0.0026970007,-0.00021002677,0.008899298,0.004338881,0.0039565274,-3.515684e-05,-0.008956098,-0.003117601,0.0024161264,-0.005598975,0.0070845447,0.0074518872,-0.008980414,-0.0053804927,-0.0059831147,-0.00065598515,-0.0017878939,-0.00204862,-0.0022301914,0.003581968,0.009652891,-0.004584839,-0.008308883,0.0037482008,-0.006434844,0.0066828444,0.0027189297,-0.007898917,-0.0077384384,-0.009277495,0.002342732,0.0027457662,0.0026217205,0.00018854701,0.001059418,0.0030597097,-0.0015420581,-0.008049555,-0.00061301515,0.003689061,-0.002592397,-0.0021472608,-0.0022207412,0.0072918534,-0.0030476837,0.009480658,-0.0039029147,-0.0099561205,-0.0065758713,-0.0043375725,0.0012693796,0.005099409,0.0021576276,0.009069479,0.00090653286,0.0056922045,0.00014071485,-0.0021289887,0.0062300228
urosepsis,0.0020193087,0.008259695,-0.0082975235,-0.008752119,-0.0005409515,-0.001892829,-0.002347741,-0.0005953157,-0.0050706733,-0.00802021,0.008254425,-0.0033411551,-0.002843275,-0.0016452015,-0.0012307597,-0.009189159,-0.0017992663,-0.001348027,0.008648293,-0.007960443,-0.0047497023,-0.0018860555,0.0028854883,-0.006020081,-0.0055474555,-0.0079651475,0.005532079,-0.008717095,-0.003248185,0.00029382945,0.0014490497,-0.009941127,0.008659907,-0.002055372,0.00035226703,-0.008793196,-0.008167935,0.0037706005,0.00401258,0.0029851748,0.005845773,-0.0069301603,-0.001245743,-0.002724408,-0.0014065563,0.0044774804,0.0013715756,-0.007439362,0.0032385266,0.0062564625,-0.0061026667,0.0032297052,-0.004312105,0.00882676,0.0041302075,0.0020369852,-0.0010193908,-0.009108195,0.008654691,-0.0018175113,0.007374895,0.003772235,-0.00825876,-0.00061668514,0.0027457261,-0.0025650286,0.009732382,-0.0049881507,-0.0071646417,0.0037977588,-0.0035697746,-0.0068882382,0.002034911,0.0052708425,-0.0054975892,-0.0043804515,-0.00717654,0.0015494394,-0.0047564926,0.008435508,0.0007221794,0.0018632972,-0.0033373034,0.0073791887,-0.00066037657,-0.008212486,-0.007342117,0.0002062416,0.0077362643,0.0030871534,-0.005322231,-0.0067531443,-0.009854483,0.003922988,-0.009518245,0.0031844045,0.0016626811,-0.00082174776,-0.009953121,0.00588423
mvr,-0.00013385517,-0.009873849,-0.0076454063,0.00863054,0.0019155176,-0.008230397,-0.0007444667,0.0055489945,-0.009404601,-0.0068608145,-0.0011434366,-0.009795464,0.00052056275,0.0019501618,0.008613541,0.0009789177,0.0013068961,0.004777839,-0.0042828075,0.0071776747,0.00015658214,-0.0005192435,-0.009774381,0.00043562942,0.006782931,0.0017580772,-0.008171869,-0.003446806,-0.006172969,0.006052199,-0.006389945,0.0052086185,-0.0052363593,-0.006896758,-0.007639825,0.003983596,-0.008847386,-0.0057327775,-0.0070600957,-0.004431894,-0.004041747,0.0014283225,0.0064863325,-0.0011325692,-0.005379783,0.001566865,0.0056212367,-0.005284752,-0.0053814426,0.005191914,0.0063200174,-0.00790732,0.008275188,-0.009873143,-0.007438786,-0.0058462936,0.0017822783,8.936966e-05,0.0034294252,0.0069660605,0.004850248,-0.003104796,-0.0064400947,-0.008320678,-0.00044422902,0.009829862,-0.0076974216,0.0038028525,0.0042627375,-0.0042832354,-0.0069935233,-0.005440987,-0.004958675,-0.00703453,0.00595999,-0.007750618,-0.0030421007,0.004424822,0.0001965249,-0.0076756356,-0.0047281925,0.003600773,0.0024817595,-0.0018651718,-0.000676747,0.0025187219,0.0014931438,-0.0026214083,0.005403825,-0.0076828464,0.0064462754,-0.0098986365,-0.0023102574,0.006780348,-0.003503621,0.0065646977,0.0055540386,-0.0074974685,-0.00022146989,-0.0045594657
sepsispneumoniatelemetry,-0.008060759,-0.00089183927,0.0063890363,0.00873659,-0.005042392,-0.0026579679,-0.0060377787,0.0011617958,0.0026642715,-0.009837792,0.002411685,-0.008813521,0.0003986788,0.0047600614,-0.0052560843,0.00025791884,-0.0021824145,-0.008687263,-0.002409929,0.004456809,-0.008575824,-0.005937272,-0.00054614665,0.008037414,0.001406138,0.009760814,-0.0076703965,0.008991897,-0.0047288905,-0.0063556097,-0.007836437,0.0018455946,-0.0027555441,0.0075524626,-0.0005141616,0.0025094736,0.005960394,-0.0086482195,-0.0020586872,-0.00478127,-0.008669741,0.0034173024,0.0024138128,-0.002402191,-0.0019146538,-0.006730969,-0.0032605957,0.0013105846,0.007738345,0.0070671346,-0.0035937524,0.0036083437,-0.002579385,-0.004719883,-0.0036249019,-0.006146641,0.0035013603,-0.0077899755,-0.007508168,-0.0045036604,0.007398263,0.0018272507,0.0054589654,0.008216331,-0.006234714,-0.004626666,0.0076803686,0.004940561,0.004661748,0.008992459,0.00881204,-0.0026761247,0.001039406,0.0054817703,0.008891535,0.009847198,-0.008265051,-0.005125456,0.0049909055,0.00095594884,0.00016318679,0.007504299,0.00640329,-0.007237103,-0.0025938833,-0.008483734,0.007044022,0.0027665328,-0.0022286116,0.0018797826,0.007663952,0.008131565,0.006174213,0.0031653107,0.0015491641,0.008139429,0.0013163317,0.00044244886,-0.00955314,0.0025240958
b,-0.008464217,0.0064611025,-0.005791317,-0.0017510058,0.0009873119,-0.0018757933,-0.009126672,0.0039935424,-0.006570657,-0.008785481,0.0039108843,-0.00076342066,0.0065117553,-0.0070094555,0.0007917121,-0.0006851317,0.005735784,-0.009742454,0.005933121,-0.008977125,-0.007785629,0.000742236,-0.0026716727,-0.0038969743,-0.005308104,0.0041146805,-0.009319619,0.0011910839,0.0041962196,-0.00027402907,-0.0004898062,0.0071672406,-0.009571645,-0.009008576,0.004439467,0.008731421,-0.00778971,-0.008312442,-0.00064721407,-0.009034263,0.002121369,0.009226385,-0.0061318614,-0.0067518936,0.008925208,-0.00075429847,-0.0037428003,-0.0027155569,-0.008751727,-0.004632649,-0.0041472637,0.00024948866,0.000695995,0.007628953,0.006817776,-0.0015088884,-0.009978811,0.002597092,-0.006115862,0.009116436,0.0038154072,-0.0010015488,0.0066065053,-0.00349848,-0.0036810115,-0.0003296522,0.00840892,0.005941589,0.0015762214,0.0037755347,-0.0029775063,0.009256885,-0.007134598,-0.0032375955,-0.0052921656,0.0087219365,-0.003137794,-0.0023838591,0.0071485527,-0.009709558,-0.0029060803,0.002888234,-0.006262707,0.008765418,0.0011704804,-0.005225143,0.0049427976,0.007984409,0.0009315866,0.0068113804,-0.0068125566,-0.0036139823,0.009942989,0.0056791543,0.0015959729,-0.0034841455,0.0044215373,0.0025313075,0.008362569,4.34803e-06
regurgitationcoronary,0.008588864,-0.0058200415,-0.0076891226,-0.0013517139,0.0029879252,-0.0020413764,0.005941217,-0.008314764,-0.009064841,0.0075965235,0.0062755994,-0.004136953,-0.0039806515,-0.003558135,3.829448e-05,0.009088601,0.00096414913,-0.002124645,-0.003383756,-0.0021674384,-0.009163403,0.006947569,-0.009095677,-0.0031244652,-0.00708969,0.009030558,0.0057439473,-0.00058654527,0.0037947579,-0.0024135173,0.009884418,-0.003636298,0.004910801,-0.0038692548,0.009496293,0.009662988,0.006228846,-0.00026705733,-0.0017251997,-0.0087538,0.009350628,-0.008497952,-0.0065409387,0.005655671,-0.002162922,0.008014601,-0.007894484,0.009171987,0.0022035684,-0.0085587865,0.003981762,-0.005041636,0.0064610946,0.0065726,-0.008813549,0.0064946995,0.0052173715,0.006549007,-0.0071182055,-0.0065615885,-0.008814613,0.005379038,-0.0040397756,0.00472284,0.004839202,0.008137528,0.0022179992,-0.0009524638,0.0013695993,0.0030578473,-0.008804421,-0.00599635,-0.0009152172,0.0048727416,-0.00013055513,-0.009614498,-0.00074047846,0.007216064,0.006368467,0.0034934108,-0.004625532,-0.0036958358,-0.0021213577,-0.0059326463,-0.00860929,-0.0005191938,0.0018824352,0.0048663924,0.003671222,0.008525262,-0.006668462,0.009347784,-0.0034396811,0.00087413733,-0.0042103813,-0.0040140618,-0.0013647852,-0.0075999727,0.008936365,0.0044940705
replacement,-0.0023060832,0.0019224515,0.0077679525,-0.0055646934,0.0038462426,0.00065530866,0.0029565517,-0.002049378,-0.009969787,0.0059032734,-0.0014910931,-0.008370064,0.0007191076,-0.0061477767,0.007759836,-0.006416103,-0.0016286325,-0.00045343422,-0.004290176,-0.003464719,0.0073735383,0.001962684,-0.009458711,-0.00032138522,-0.009515081,-0.003182488,0.0048939832,0.0036480315,-0.005842783,0.00146651,0.0058827843,-0.00749312,-0.0033644256,-0.002557587,-0.008935786,0.0022201294,0.0065064835,0.0024386642,0.0023562068,-0.00090310787,-0.0008126736,-0.0063449633,-0.0004708174,0.006678816,0.0030620082,0.0005458709,0.007836862,0.0027952904,-0.0074683907,0.0073484313,0.009601811,-0.009191254,0.007285815,-0.0076214205,-0.00039200424,0.004653015,-0.005783402,-0.007961777,-0.0073686405,-0.009889875,-0.006635214,0.009654451,0.0029233813,-0.0091375,0.008540345,0.0072966777,0.007825305,0.00975665,-0.00873514,-0.002137085,0.0020813134,0.0024304353,0.0049095117,-0.0077603967,0.0048909825,0.009978741,-0.00903981,0.007950305,0.0032472634,-0.0041574487,-0.0015607005,-0.008508262,-0.007550299,0.0055680857,-0.0030996394,0.010003889,-0.007960104,-0.0070387856,0.006207551,0.007881419,0.0037964296,0.0073116845,0.0064505185,-0.005716454,0.008780196,-0.006315504,-0.0028123825,-0.006068989,0.006092396,-0.004449812
valve,0.0030257208,-0.0015442931,-0.0012713368,-0.0057954974,-0.0057411063,-0.0036390517,0.00037723582,0.0015806771,-0.003353064,0.0019462788,-0.005722821,0.009958776,-0.0007819149,-0.0069417837,-0.0017697635,0.007954357,-0.001089865,-0.005264858,-0.008032208,-0.0059150895,-0.0031857274,0.007867857,-0.0073088417,0.0013991088,-6.107111e-05,0.003925891,-0.008017374,0.007891859,-0.0029018153,0.005313521,-0.009437622,0.0050774617,-0.00824733,-0.0033179908,-0.0012350007,-0.003504194,-0.0007352913,1.4535354e-05,0.004512826,-0.002333583,-0.0040148064,-0.0062400308,0.00831073,0.0046959706,0.00920952,0.005498899,-0.0046211784,0.008271268,-0.0069888528,0.0030577476,-0.0033181491,0.00017523208,0.0038164142,-0.0028520646,-0.0044547464,-0.0019072578,0.00048639154,0.0064790063,-0.0059228446,0.0046836357,-0.003659252,-0.0078447,-0.0056096953,0.0017808288,0.008814946,0.007944822,0.0091596255,0.007030848,-0.0030256743,-0.0023455364,0.00880982,0.006487609,0.006076688,0.006861694,0.0016629794,0.0024285254,-0.008319904,0.0075731827,0.009476604,-0.0070821973,0.0011234953,0.0087655205,0.0036080133,0.0070408024,0.007645136,-0.0019053826,0.008924753,0.006021986,-0.0018243181,1.6287986e-05,0.0098187225,0.0059157927,-0.0067153918,-0.0034082362,-0.0034173243,0.0031486708,0.0011978754,-0.00869154,0.0021605762,0.009551814
hydration,0.0023446933,0.004300335,0.0019643954,0.008129809,0.008877545,0.0031361554,-0.0023832729,0.0036196776,-0.0077471393,0.008007639,-0.0040480196,0.009885277,-0.009569785,-0.0025488236,0.008920079,-0.0041030976,-0.001983918,0.0050291605,0.009291617,-0.00038205055,-0.00676467,0.010042877,-0.009539672,0.0012527882,0.005603349,-0.0078206565,-0.005662714,-0.009181846,-0.00011036644,0.0049835555,-0.008219656,-0.003057477,0.0084231775,-0.0044789864,0.0031482622,0.003582625,-0.0035829498,-0.0051599205,0.008318156,-0.0025776906,0.008947219,-0.0024478845,0.003048406,0.0056152144,0.0006055338,0.004375591,-0.005983241,0.008416973,-0.0016510134,-0.0044171615,0.005132464,0.009887482,-0.0056361803,0.00081592734,0.0043430408,-0.0027398851,0.0006165812,0.008825548,0.007706284,-0.006479478,-0.0031971612,0.009233749,-0.00028577313,-0.009605888,-0.0007356113,-0.006800276,0.0009082023,0.00086996064,-0.0044495948,-0.0045525967,0.008767731,0.004620174,0.0026154367,0.0018444598,0.0082635665,-0.0049747056,0.006075607,-0.0009668867,-0.0076695103,-0.009694411,-0.0016559575,0.008138932,0.0021690368,-0.00893831,0.0012340309,-0.0036309003,-0.004014716,0.008139042,0.005843064,0.00036112734,0.002489676,0.0009455798,-0.009921962,0.0030055158,0.0072237933,0.0040356573,0.0025262553,-0.0035828908,0.0023477187,-0.007689918
melanomabrain,0.0042013153,0.0024045084,-0.00041987567,-0.00060625625,0.0026375228,0.0022063365,0.0014942047,0.009165282,0.003540288,0.0013986612,-0.0029425188,-0.006085514,-0.009310859,-0.0032595936,0.004383123,0.0075764847,0.00063936046,-0.004790965,0.0035962926,-0.0039214306,-0.0007590665,0.008905225,0.008161047,-0.00041665472,-0.0059179855,0.0037172723,0.009813077,0.008651739,-0.0019290629,0.0071495045,0.009296234,-0.009564192,0.008905943,-2.3430034e-06,-0.005211538,0.0037275276,0.008953035,-0.0072485125,0.006882229,-0.006460053,-0.0078009637,0.005486617,-0.0045690155,0.0047693783,0.0074145263,0.009669388,0.005710751,-0.008890041,0.003256217,-0.009008261,-0.00036971126,0.009779966,-0.0051246807,0.0041073086,-0.005768484,-0.008033593,0.008017795,0.003233032,0.007371851,0.0029537173,0.0011851542,0.0037249755,-0.008424105,0.0065935454,-0.004480777,0.0046448265,-0.0054890085,0.0010530053,0.004009771,-0.0024712405,-0.007545064,-0.0060311076,-0.009931198,0.009700242,-0.004357658,-0.0010562099,-0.009032897,-0.004565318,-0.004883954,0.0030164649,0.005669733,0.003506399,0.00983752,0.0019060554,0.009897073,0.007560099,0.002793641,0.002146631,-0.0075154966,-0.0023606154,0.0056747478,-0.008129633,0.00226927,-0.0075814696,0.009669833,-0.000113393115,0.00093688146,-0.0048036412,0.006102004,-0.007137548
critical,-0.0074555557,0.0066360366,-0.0034007528,-0.0009202067,0.0053721704,0.0045510908,0.006234881,0.007101403,0.0055977846,-0.008934052,0.005100719,0.009110283,-0.0040040324,0.0011514723,-0.0032663867,-0.003431324,0.008683466,-0.00031839916,0.0034300378,-0.005557022,0.00581512,-0.0032893599,-0.004967736,0.0021761307,0.009734213,-0.0061348653,0.003578948,-0.0010444499,-0.0072585656,-0.0043482464,-0.008182188,0.0055675055,-0.0027312473,-0.0052036033,0.0009889727,0.004649513,0.009496872,-0.0097778505,-0.00025459455,-0.0013078017,-0.0027185667,-0.0005477523,0.00810727,-0.0018354717,0.009412871,0.00039246853,-0.0011026216,0.0068768105,0.0069755637,0.00042322165,-0.000308581,0.0063307453,-0.0038132565,0.0045767715,-0.000100893136,-0.006032087,0.0064357654,-0.004036118,0.0022089307,-0.006851821,0.0027473369,0.005620109,0.005111328,-0.008110384,-0.0059148525,0.0071746814,0.0030790002,0.001152749,-0.006233732,-0.0013660539,-0.009272746,0.0012575306,-0.0045561465,0.0007621977,0.004500151,0.002409934,-0.0071138204,0.00085380767,-0.006741244,-0.0038721196,0.0019215028,0.007985521,-0.0065441607,0.0023988793,0.008178371,0.009933503,0.006233271,-0.0073949574,0.0038869781,0.008816702,0.004199793,0.002540873,-0.0016230661,0.003602078,0.004159804,0.008887344,-0.003723379,-0.008781023,0.00655384,-0.006267766
brain,-0.00060995336,0.0014061144,-0.0011895257,-0.004045986,0.0008572161,-0.009673167,0.0014125871,-0.004166086,-0.00580202,0.0038031414,0.0014441053,0.0036487724,0.00088825356,-0.009519151,0.009992001,-0.0035321102,-0.0021891554,0.0071358723,7.9519974e-05,0.0030481643,0.0022629981,0.0023911756,0.006754069,0.009475283,-0.00055769423,-0.0034300901,0.0045500635,-0.008345175,0.008461335,0.0024067527,0.0060083284,0.0028031296,-0.0013233394,0.0009529343,-0.0048008906,0.009101006,0.005040877,0.0035979145,-0.005018271,-0.008650305,0.007933816,0.002942721,-0.0042437552,-0.008665385,-0.003953129,0.0014003188,-0.009196838,5.3350952e-05,0.0028012989,-0.009935293,-0.0001422592,-0.006075696,-0.003603296,-0.001630643,-0.009991327,-0.003605788,-0.0070284796,-0.0073479153,0.0015868538,0.0023348886,0.00930017,0.008877003,-0.0064144903,-0.009226586,0.0078889495,0.0054253927,0.0069236727,-0.0029218947,-0.005240773,-0.00455696,-0.008345568,0.0058882646,-0.0034543844,0.008623634,-0.005679875,0.009634832,-0.0045088814,0.008675966,-0.0054152426,-0.007499621,0.0076734754,-0.009779578,-0.008788779,0.004960042,-0.009748908,0.005290323,0.0036559545,-0.0070236893,0.0031595577,0.0014599559,0.008652296,0.0028833903,-0.005134607,-0.0023453746,0.006855844,-0.006619393,0.009299711,-0.0032161644,-0.0046419017,-0.0043869517
variceal,0.003080603,-0.009845371,0.0032225193,-0.0044817207,0.00966567,-0.0050239153,-0.00802041,0.0035192533,0.008963603,0.0027517485,-0.0022688066,0.003506772,-0.008922331,-0.0041284575,-0.0043919147,0.0018878201,-0.0063086012,-0.007589871,-0.0065226955,0.00526982,0.002769225,0.00880654,0.0023249516,0.0053033438,0.0043396307,0.0046260087,-0.0049557183,0.0014309455,0.0002930462,0.005243802,-0.0066063697,-0.00071009767,0.0040200753,-0.0048440374,-0.008505431,0.005579383,-0.0008594209,0.00033381928,-0.0060752467,0.0085000675,0.0009103021,0.0017244874,-0.0003951724,0.00068807224,0.005801606,-0.009211341,0.0023400383,-0.0055829403,0.009463209,0.004366044,-0.0055135386,-0.0012152568,-0.005537682,0.008522371,0.009087485,0.002303626,0.009639526,-0.004720906,0.0028098696,-0.0050988854,-0.0087653985,-0.0041602324,-0.0013796288,-0.005652765,-0.004549964,0.0006255146,-0.00012510813,-0.00829871,0.0069270586,0.0015758948,-0.009506153,-0.0014134758,-0.0075997356,0.007573897,-0.0010390113,0.007815606,0.0050362037,-0.0040632966,-0.009062454,-0.006187542,0.008884026,-0.00156841,-0.0003174729,0.00014690448,-0.008247938,0.004221614,-0.008207506,0.009403624,-0.008117474,0.007905425,-0.0019730593,-0.0020558564,-0.002287365,0.0009872903,0.0024538445,0.0016326953,-0.00058194826,0.007574066,-0.0064312825,-0.00788245
