,0,1,2,3,4,5,6,7,8,9,10,11,12,13,14,15,16,17,18,19,20,21,22,23,24,25,26,27,28,29,30,31,32,33,34,35,36,37,38,39,40,41,42,43,44,45,46,47,48,49,50,51,52,53,54,55,56,57,58,59,60,61,62,63,64,65,66,67,68,69,70,71,72,73,74,75,76,77,78,79,80,81,82,83,84,85,86,87,88,89,90,91,92,93,94,95,96,97,98,99
sepsi,-0.0005316187,0.00023996875,0.0050987713,0.009002801,-0.009301619,-0.007140688,0.0064617405,0.0089847855,-0.0050195837,-0.003779639,0.0073734433,-0.0015388938,-0.0045335377,0.006561472,-0.0048576887,-0.0018214083,0.0028714405,0.00097643794,-0.008286765,-0.009460127,0.007321893,0.0050702193,0.006758817,0.0007676812,0.0063480535,-0.0034020266,-0.0009480903,0.005764726,-0.0075297295,-0.00393685,-0.0075097303,-0.000931415,0.00953465,-0.0073260604,-0.002329675,-0.0019274337,0.008082633,-0.0059301793,3.6230904e-05,-0.004764753,-0.009613568,0.005020442,-0.008757681,-0.004389671,-2.6127223e-05,-0.0002947097,-0.007674478,0.009613362,0.004983631,0.009240993,-0.008158471,0.004487122,-0.004137345,0.00082944636,0.0085028345,-0.0044674296,0.0045212666,-0.0067865998,-0.0035595482,0.009397211,-0.0015768528,0.00033419902,-0.0041319025,-0.0076867463,-0.0015171791,0.0024744433,-0.0008927602,0.0055412487,-0.0027459904,0.002266255,0.00545727,0.008351632,-0.0014476002,-0.009206384,0.0043712743,0.00057190267,0.007439203,-0.0008133664,-0.0026498602,-0.008756362,-0.00085414073,0.0028388398,0.005392078,0.0070538484,-0.00570395,0.0018663345,0.00609839,-0.004773719,-0.0031088162,0.006798007,0.0016507678,0.00019514296,0.0034667996,0.00023075602,0.00962439,0.0050649275,-0.00890261,-0.0070568696,0.0008989583,0.0063829985
failur,-0.008628933,0.0036830553,0.005181437,0.0057358094,0.007471163,-0.0062132566,0.0011443736,0.0060659684,-0.0028461271,-0.0061944188,-0.00042918883,-0.008403359,-0.0056027137,0.007101375,0.0033587753,0.007239819,0.0068176608,0.0075227963,-0.0037895245,-0.00057628815,0.0023577244,-0.0045117824,0.008380052,-0.009868523,0.00675662,0.002915527,-0.004937791,0.004368001,-0.0017404808,0.00667863,0.009987039,-0.0043618656,-0.00060738693,-0.0057195616,0.003857045,0.0027961535,0.0069240993,0.0061143385,0.009536818,0.009290624,0.007908484,-0.007005709,-0.009157281,-0.00035839874,-0.0030551923,0.007926603,0.0059521855,-0.0015681706,0.0015174075,0.0017962952,0.007832284,-0.009504186,-0.00018723107,0.0034810952,-0.0009391533,0.008397241,0.009029669,0.0065234806,-0.00071395765,0.007726745,-0.008541515,0.003214013,-0.0046323813,-0.0050885403,0.0035970053,0.0053925714,0.0077419267,-0.0057818084,0.0074400427,0.0066323522,-0.0037174989,-0.008760484,0.0054592644,0.0065194895,-0.0007888541,-0.006714732,-0.007096796,-0.0024863994,0.005150895,-0.0036494343,-0.009396539,0.0038502202,0.004885652,-0.006426463,0.0012214116,-0.002064473,4.9636263e-05,-0.0098590525,0.002701342,-0.004752231,0.0010955983,-0.0015749269,0.0021931948,-0.007861703,-0.0026797801,0.0026745463,0.00535874,-0.0024060705,-0.009531491,0.0045039733
pneumonia,9.456396e-05,0.0030773198,-0.006812645,-0.0013754654,0.007668581,0.0073464094,-0.0036732971,0.0026427018,-0.00831713,0.006205486,-0.0046373224,-0.0031641065,0.009311357,0.0008733857,0.007490703,-0.0060740625,0.005160507,0.009922823,-0.0084573915,-0.0051356913,-0.007064837,-0.0048626517,-0.0037785638,-0.008536199,0.007955606,-0.004843938,0.008423613,0.0052625705,-0.006550026,0.0039578713,0.0054701497,-0.007426536,-0.0074057197,-0.0024752307,-0.008625725,-0.0015815723,-0.00040343284,0.0032996845,0.0014418805,-0.00088142155,-0.005594058,0.0017303658,-0.0008973718,0.006793691,0.00397359,0.0045294715,0.0014343059,-0.0026998555,-0.0043668128,-0.0010320747,0.0014370275,-0.0026460087,-0.007073783,-0.007805307,-0.009121787,-0.0059351693,-0.0018474245,-0.0043238713,-0.0064606704,-0.0037173224,0.0042891586,-0.0037390434,0.008378175,0.0015339935,-0.0072423196,0.0094337985,0.0076312125,0.005493282,-0.0068488456,0.005822679,0.004009093,0.0051853694,0.0042559016,0.0019397545,-0.0031701624,0.008353845,0.00961218,0.003792603,-0.002836995,7.1275235e-06,0.0012188185,-0.008458325,-0.008223945,-0.00023101569,0.0012372875,-0.0057433806,-0.0047252737,-0.0073460746,0.008328616,0.00012129784,-0.0045093987,0.0057017053,0.009180015,-0.004099872,0.007964682,0.005375434,0.005879123,0.0005125904,0.008213084,-0.0070190406
bleed,-0.008248483,0.009345782,-0.00020464192,-0.0019842722,0.0046222224,-0.0042093224,0.0028252474,0.0070626326,0.0060009165,-0.0075512077,0.009342236,0.0046597873,0.0039812895,-0.006226356,0.008548941,-0.0021428796,0.0087943785,-0.0054156664,-0.008133898,0.0067543704,0.0016667699,-0.0021759428,0.009447867,0.009492199,-0.009826876,0.0024914525,0.0061626215,0.0038509862,0.0019858268,0.00039262272,0.00072478404,-0.0038259202,-0.007173898,-0.0021190287,0.0039648972,0.008920089,0.0093175005,-0.005984972,-0.009415142,0.009728983,0.0034478048,0.005119043,0.006247188,-0.0027606792,0.0074060154,0.0028661531,0.002860381,-0.0024055147,-0.0031212433,-0.0023879404,0.004310428,7.456608e-05,-0.009583015,-0.009614566,-0.006147718,-0.000120725796,0.0020101366,0.00942339,0.00554117,-0.0042622155,0.00028998728,0.0050114016,0.0077335965,-0.001190999,0.004317773,-0.005772467,-0.0008272554,0.0081179505,-0.0024027291,-0.009655922,0.0057802224,-0.0039031133,-0.0011871564,0.010007901,-0.0021951913,-0.004729831,-0.005357068,0.007007626,-0.005734604,0.0021368614,-0.005255883,0.0062384317,0.004355126,0.0026433987,-0.001477166,-0.002711257,0.009027534,0.005324427,-0.002090172,-0.009473802,-0.0073449113,-0.0010027926,-0.0008477005,-0.0025046526,0.009791852,-0.00046264357,0.005938054,-0.007524452,-0.0025044684,-0.005602224
acut,-0.0071305563,0.0012641798,-0.0071633034,-0.0022568398,0.0037223485,0.0057779048,0.0012253765,0.0021469223,-0.00413255,0.0072069564,-0.0063165594,0.0046351715,-0.008203283,0.0020362963,-0.004946961,-0.004266074,-0.0031198855,0.0056541525,0.0058094114,-0.005008424,0.0007757746,-0.008487785,0.0077706794,0.00924884,-0.0027816421,0.00080011104,0.0007377202,0.005458279,-0.0086207725,0.00056324224,0.0068785697,0.0022400082,0.0011067865,-0.009319652,0.0084895585,-0.006231068,-0.0030023304,0.0034797138,-0.00077670254,0.0013819605,0.0017727241,-0.0068362975,-0.0097385105,0.009074961,0.0062053194,-0.0069370396,0.0033982815,0.00018555463,0.0047639594,-0.0071202097,0.0040491624,0.0043532145,0.009954724,-0.004467459,-0.0013711368,-0.0073079118,-0.0096956175,-0.009075182,-0.0010270714,-0.0065011675,0.0048542055,-0.0061599226,0.002526101,0.0007167322,-0.003395202,-0.0009503484,0.0099627385,0.009142433,-0.0044748243,0.009080549,-0.0056473846,0.0059395875,-0.003094007,0.0034375754,0.0030464428,0.0069288756,-0.0023726851,0.008792974,0.0075660967,-0.009532677,-0.008025332,-0.007587942,0.0029049611,-0.0027620243,-0.006912293,-0.0081093935,0.008346389,0.002029348,-0.009278082,-0.0047986098,0.00317325,-0.0046993075,0.00527097,-0.004217003,0.0026863317,-0.008046801,0.0062353937,0.004801214,0.0007961834,0.0029875848
breath,-0.008748961,0.0021598665,-0.0008771199,-0.00935136,-0.009434419,-0.0014555724,0.00447487,0.0037396548,-0.0065257796,-0.0068994467,-0.005007694,-0.0023078676,-0.00724062,-0.009621322,-0.0027188882,-0.008370072,-0.0060527935,-0.0057074376,-0.0023373934,-0.0017363415,-0.00898161,-0.00072170526,0.008123137,0.0077048633,-0.0072349417,-0.0036831766,0.003131921,-0.009607469,0.0014703011,0.0064773425,0.005747277,-0.008744275,-0.0045422977,-0.008142844,7.131806e-05,0.00929488,0.006011276,0.0050668153,0.0050825467,-0.0032758364,0.009568221,-0.007391297,-0.0073068226,-0.0022366056,-0.0007499522,-0.0032070854,-0.000588719,0.0074707163,-0.0006956715,-0.0016220437,0.0027482477,-0.008339491,0.007855034,0.008570864,-0.009599419,0.002442949,0.00992714,-0.0076903836,-0.006992429,-0.007712629,0.008425051,-0.00065292715,0.009161418,-0.008182879,0.0037379155,0.0026232486,0.000709845,0.0023474786,-0.007485639,-0.009359206,0.0023641263,0.0061830985,0.008013468,0.0057733958,-0.00074516487,0.008339981,-0.009338591,0.0034194675,0.0002647248,0.0038666495,0.0074020135,-0.0066750366,0.0055866833,-0.009497402,-0.0008072455,-0.008682491,-0.005089864,0.009356088,-0.0018223682,0.0029063856,0.009086973,0.008970388,-0.008231884,-0.0029631532,0.009932795,0.0051112147,-0.0015607546,-0.008730369,0.0029822697,-0.0067165755
arteri,0.0081459,-0.0043934113,-0.0010876186,0.00096848037,-0.00016163751,0.001012975,0.0062006447,8.414238e-05,-0.0033411845,-0.0015703841,0.0058966465,0.0014645491,-0.00067767437,0.009384723,-0.004887108,-0.0008128569,0.009191839,0.0066519976,0.0015334593,-0.008998061,0.0011613512,-0.002185488,0.009283194,0.0012032985,0.0014513488,0.0023916198,-0.0018585456,-0.005050819,0.00017729288,-0.0021086521,0.006612656,0.008963338,-0.00074435107,0.0029313238,-0.0060781124,0.0017636667,-0.0068954662,-0.008728928,-0.005916773,-0.0090726325,0.0073012956,-0.005830428,0.0082584275,-0.00719336,0.0035118097,0.009728404,-0.0077926945,-0.009968866,-0.0043201763,-0.0026486192,-0.00027799266,-0.0088110715,-0.008650395,0.0027990756,-0.008202022,-0.009101632,-0.0023512025,-0.00866832,-0.007089561,-0.00835902,-0.0002655774,-0.004541013,0.0066868756,0.0015127291,-0.0033706338,0.006110687,-0.006078727,-0.0046359366,-0.0073058004,-0.0041947793,-0.0017878606,0.0064889416,-0.0026952296,0.004973872,0.006979688,-0.007443379,0.004506001,0.0061731325,-0.0029981758,0.0066180876,0.006147901,-0.006322551,-0.006838749,0.0026057565,-0.0016042527,-0.006068096,0.00959612,-0.0049924557,-0.006495904,-0.00013022128,-0.002601411,0.00048925745,-0.003600143,-0.0002945103,-0.0006515435,0.00081258075,0.008265844,-0.005827673,-0.0016854027,0.005501306
short,0.008165036,-0.004440422,0.008977857,0.008256131,-0.0044435817,0.0002848596,0.004285311,-0.003918698,-0.0055814185,-0.0065296334,-0.0006692815,-0.000311362,0.0044647176,-0.002468689,-0.00017182293,0.0024610308,0.0048601017,-3.92742e-05,-0.00633405,-0.009288498,9.908445e-06,0.0066802786,0.0014628768,-0.008952493,-0.0079344725,0.0065465723,-0.0037894046,0.0062351683,-0.006692184,0.008469566,-0.006519108,0.0032822008,-0.0010629244,-0.00678454,-0.0032865745,-0.0011597773,-0.005467705,-0.0012109247,-0.007549279,0.0026196747,0.009076924,-0.0023993393,-0.0010022689,0.003533767,0.008660678,-0.005929404,-0.006885314,-0.0029311294,0.009163485,0.0008732213,-0.008685976,-0.0014487192,0.009492799,-0.0075540002,-0.0053517222,0.009322078,-0.008967721,0.0038129275,0.0006603771,0.0066615925,0.008313854,-0.0028484643,-0.0039963517,0.008894678,0.0020895144,0.006253804,-0.009462783,0.009597066,-0.0013654749,-0.006052762,0.0030031793,-0.00044616943,0.0047232844,-0.0022730716,-0.004139047,0.0023099144,0.00834719,-0.0049869707,0.002676447,-0.008000219,-0.0067667174,-0.000466075,-0.0087537905,0.0027954709,0.0015883482,-0.0023140616,0.0049990206,0.009770464,0.008469778,-0.0018748802,0.0020761215,-0.0039971936,-0.008239893,0.0063098753,-0.0019495463,-0.0006574094,-0.0017559794,-0.004549392,0.004076889,-0.0042908913
liver,-0.009587262,0.008953109,0.004162022,0.009217662,0.006669745,0.0029113172,0.009840422,-0.004415929,-0.0068287365,0.004212041,0.0037291928,-0.0056828465,0.0097232405,-0.0035530291,0.009557399,0.0008150824,-0.0063321325,-0.0019841217,-0.007381948,-0.0030051454,0.0010311861,0.009495683,0.009352216,-0.0066010593,0.003466492,0.0022830206,-0.0024811896,-0.009248504,0.0010087314,-0.008174354,0.006319308,-0.00578615,0.0055128117,0.009804602,-0.00016359215,0.0045564407,-0.0018251538,0.007360151,0.003939897,-0.009038245,-0.0023967314,0.0036274465,-0.00012780495,-0.0011888476,-0.0010488121,-0.0016655124,0.0006104685,0.004150168,-0.0042370586,-0.0038482393,-4.469923e-05,0.0002682604,-0.00017295952,-0.004777017,0.0043092812,-0.002184643,0.002108693,0.00067906553,0.0059723896,-0.0068125497,-0.006801885,-0.00447938,0.009433561,-0.0015702235,-0.009444633,-0.0005190606,-0.0044640396,0.005988236,-0.009570845,0.0028689024,-0.009261968,0.0012740619,0.0060185404,0.0073949206,-0.007591494,-0.0060536866,-0.0068465783,-0.007919624,-0.009503518,-0.0021342246,-0.0008429152,-0.007243311,0.0067861658,0.0011153709,0.005811318,0.0014662836,0.000819951,-0.0073424876,-0.0021600446,0.004319984,-0.005050107,0.0011539967,0.002896874,-0.0015206172,0.009965078,0.008354737,0.002444275,0.0071009975,0.0058820494,-0.0055902377
fever,-0.0051562428,-0.0066683376,-0.007776835,0.008310728,-0.001982342,-0.0068549635,-0.004154389,0.0051441262,-0.0028691364,-0.0037496602,0.0016214252,-0.0027762938,-0.0015843606,0.0010744918,-0.0029779447,0.008519283,0.003910935,-0.009958863,0.0062595997,-0.006754254,0.0007694328,0.0044042347,-0.005103375,-0.0021106696,0.008095479,-0.0042437925,-0.007636261,0.009257913,-0.002155497,-0.0047194324,0.0085708,0.004283339,0.0043248367,0.009284513,-0.00845308,0.00525532,0.0020393515,0.00418828,0.0016979002,0.004464134,0.0044862903,0.006104522,-0.0032020975,-0.004575728,-0.00042651652,0.0025337338,-0.003263167,0.006057718,0.0041541304,0.0077645923,0.0025692724,0.008116683,-0.0013872099,0.008077928,0.003717016,-0.008047325,-0.0039336146,-0.0024718784,0.004893044,-0.000872159,-0.0028309084,0.007833707,0.0093229,-0.0016149282,-0.0051592495,-0.0047017587,-0.004846051,-0.009602826,0.0013720202,-0.0042249155,0.0025267089,0.0056144833,-0.0040659057,-0.009596582,0.0015466976,-0.0067001223,0.0024951743,-0.003780632,0.0070784213,0.00064022065,0.0035609389,-0.0027391338,-0.0017105473,0.007652793,0.0014076781,-0.0058504487,-0.007834497,0.0012326873,0.006454631,0.0055563496,-0.00897705,0.008592164,0.004046978,0.007469605,0.0097463345,-0.00728958,-0.009039963,0.0058360007,0.009391213,0.0035069252
accid,0.0070675774,-0.0014863374,0.007946873,-0.009545963,-0.00800789,-0.006794921,-0.0038869602,0.0050994284,-0.0038702404,-0.00842842,0.008396835,-0.0038264196,0.0086609665,-0.0049121673,0.003948297,0.0049394993,0.002410238,-0.0028748186,0.0028844376,-0.008337707,-0.0028212275,-0.0025554497,0.007213058,-0.0034775946,-0.0066721872,0.004353797,-0.0005097282,-0.0036877557,0.0068571796,0.0037587723,-0.0038455226,0.0007959629,0.009087799,0.0077722734,0.0063881027,0.004746563,0.0024450365,-0.0018587391,-0.0063805943,-0.00042324554,-0.0015563287,-0.0006180899,-0.0063776835,0.007470805,-0.0065504787,-0.0072339443,-0.0027494999,-0.0015983311,-0.007629463,0.00067960494,-0.005315737,-0.0012632521,-0.0073279203,0.0019951516,0.003288578,-2.1143465e-05,-0.0054620765,-0.0017313055,0.0070800288,0.0037671411,-0.0088473,-0.0033771559,0.0024180813,0.0021139707,-0.009518504,0.004592496,-0.008719664,-0.007390867,0.003461698,-0.0034580291,0.003597441,0.008952595,-0.003494278,0.009379152,0.0017985721,0.009932423,0.005654844,-0.009150919,-0.0033910307,0.006559325,0.0055810506,0.008812208,0.0069465437,0.0080951555,-0.009861561,0.0043000896,-0.004934017,0.0036184,0.0061602187,0.004352524,0.00756799,0.0015775859,-0.0012818419,0.005849886,-0.0055151903,6.031731e-05,0.009581055,-0.00552953,0.003819173,-0.008217858
renal,0.009780188,0.008168829,0.0012723132,0.0050975173,0.0014093565,-0.0064864685,-0.0014124265,0.0064734784,-0.004633692,-0.004016647,0.004907841,0.0026999807,-0.001843107,-0.0028710673,0.0060152286,-0.0057193018,-0.0032452405,-0.0064975866,-0.0042228387,-0.008605043,-0.00447883,-0.008492582,0.0013767517,-0.008617921,-0.009923474,-0.008200147,-0.0067762947,0.0066764187,0.003753866,0.00033619953,-0.0029450033,-0.007432123,0.00053843606,0.00049282884,0.00019252113,0.00087825087,0.00079850195,-8.501501e-05,-0.008005172,-0.005900595,-0.008383764,-0.0013274284,0.0017980222,0.0074246083,-0.0019475506,-0.0023379833,0.009484205,6.9705064e-05,-0.0023913928,0.00861187,0.002683365,-0.0053524743,0.0066010444,0.0045209466,-0.007036523,-0.00031386968,0.0008358849,0.005752168,-0.001728652,-0.0027917693,0.0017628621,0.0008630588,0.0012010804,-0.0026413698,-0.005997826,0.007338254,0.007567897,0.008303996,-0.008605186,0.002628878,-0.0035556378,0.009641374,0.0029271573,0.004647385,0.0024236408,0.0066226744,-0.005760318,0.007913298,-0.0024140023,-0.0045693987,-0.002065272,0.009766154,-0.006856972,-0.0021566649,0.006988921,-4.1668594e-05,-0.0062787523,-0.006374784,0.008964607,0.006423339,0.0047897506,-0.003236897,-0.009275356,0.0038056946,0.0071902433,-0.005618088,-0.007836476,-0.0029893536,-0.004908545,-0.002336905
esophag,-0.0019254374,-0.0052734544,0.009438959,-0.009281305,0.0045291735,0.005353327,-0.0013716343,0.009027512,0.009848793,-0.005474346,-0.0060451026,-0.0067831455,-0.007857657,-0.0030354813,-0.005591771,-0.008348775,0.0007912441,0.0029616146,0.0064405133,-0.0026721905,-0.0044690953,0.0012969888,0.0003280738,0.00812585,0.00016323944,0.0072208312,-0.008268421,0.008434768,-0.0019363001,0.008685723,-0.0075796093,0.0018097421,0.0010504355,5.1666757e-05,-0.0051129996,-0.0091999285,-0.0072726007,-0.007996759,0.0019043876,0.00043366646,-0.0017908389,0.0070909215,-0.002496713,-0.0013337702,-0.008863712,-0.009933284,0.008946593,-0.005780302,-0.00635555,0.0051900893,0.0066586635,-0.006848973,0.0009655724,-0.005985623,0.0016436405,-0.004293382,-0.0034756549,0.0021749379,0.008651191,0.0067572156,-0.009682212,-0.005611868,0.007901488,0.001991672,-0.004263453,0.000622499,0.009504629,-0.0011011137,-0.009434675,0.0016444909,0.006215585,0.0062739374,0.004102528,-0.005658312,-0.00032999535,-4.5062694e-05,0.004539818,-0.008034302,-0.008037192,0.00025605306,-0.008631122,0.005866813,-0.00044339593,0.010025362,-0.0053656,-0.00049128465,0.0077919816,-0.00400282,-0.0049636974,0.0015729077,0.0026920745,-0.0025312908,0.00643684,-0.007616292,0.0034276373,0.00047128098,0.008768476,0.0059393514,0.006867829,0.007811917
thrive,-0.00950012,0.009562223,-0.0077707553,-0.0026455082,-0.004906409,-0.0049666967,-0.008023591,-0.0077835848,-0.004553212,-0.0012753617,-0.0051029883,0.006140542,-0.009516619,-0.0053071044,0.009437152,0.006991329,0.007675816,0.0042347396,0.00050709245,-0.0059811436,0.006018777,0.0026350308,0.0076994337,0.006393843,0.00794257,0.008657407,-0.009895755,-0.006755705,0.0013375747,0.0064403033,0.007373816,0.005516981,0.0076616253,-0.005125568,0.0065844096,-0.004108373,-0.0090553425,0.00914168,0.0013314044,-0.0027596795,-0.0024778426,-0.0042204787,0.004812337,0.004400222,-0.0026533627,-0.007341881,-0.0035658514,-0.00033661484,0.0060958923,-0.0028373385,-0.00012089491,0.00087972643,-0.0070956494,0.0020650018,-0.0014324236,0.0028021492,0.0048422217,-0.0013520193,-0.002780143,0.0077386475,0.005045599,0.0067135217,0.004515643,0.008667155,0.0074749696,-0.0010818875,0.008747638,0.0046017184,0.0054406333,-0.0013860846,-0.0020413185,-0.0044243457,-0.008515197,0.0030377281,0.008883192,0.008919742,-0.0019423545,0.0060861576,0.0037797235,-0.0042959657,0.002042924,-0.0054378854,0.008208892,0.0054329084,0.0031844343,0.0041025686,0.00865715,0.007272035,-0.0008334732,-0.007072768,0.008380473,0.007233584,0.0017304718,-0.0013474918,-0.005890092,-0.0045330906,0.008647966,-0.0031351077,-0.0063388194,0.0098700775
pain,0.007705942,0.009171757,0.0011235854,-0.008339633,0.008433258,-0.0037928836,0.0058089253,0.0044924766,0.0096644955,-0.009351221,0.009173399,-0.009331119,-0.006877791,-0.009123258,-0.005548292,0.0073972405,0.009204076,-0.0034119026,0.0037371705,-0.0036707213,0.007880986,0.005877782,-3.720173e-05,-0.0036202231,-0.0072773383,0.004758874,0.0014220384,-0.0026461957,0.0077995006,-0.0041381177,-0.009126338,-0.0022508756,0.00011719334,-0.0066521345,-0.0054774005,-0.008473753,0.009303537,0.007423441,-0.00029525146,0.0073313275,0.00796624,-0.00083190924,0.0066084997,0.003811055,0.005146484,0.0073182,-0.00477093,-0.0021997534,0.0008937241,0.0042816447,0.0032972822,0.0051289448,0.004590681,-0.008448426,-0.003187108,-0.0072528017,0.009719699,0.0049850093,0.00014724373,0.0041542053,-0.007617443,-0.006269112,0.0031123357,0.0065236115,0.003925719,0.0060517048,-0.0020061438,-0.0033361996,0.00021195492,-0.0031598422,-0.0055076946,-0.0078016077,0.006602886,-0.0010397513,-0.001824271,-0.0077832406,0.009335124,0.0008898649,0.001763225,0.0025172818,-0.0073966943,0.0017497736,0.0029584663,-0.008510572,0.004967836,0.0024435401,0.007571226,0.0051436345,-0.0030124425,-0.007201481,0.007164148,0.0019426973,0.005151567,0.006483025,0.0019893153,-0.0061357683,2.1341899e-05,0.008187675,-0.00612449,0.009418166
respiratori,-0.0071983286,0.0042619864,0.002162443,0.0074390974,-0.0048998888,-0.004632374,-0.006052154,0.003358413,-0.004564046,0.008494255,-0.00431965,-0.009128855,-0.0047985427,0.0064328206,-0.006359851,-0.0052531417,-0.0072999597,0.0059995293,0.0033695183,0.002788755,-0.003154831,0.006041205,-0.0061795143,-0.0019857371,-0.006003605,-0.000998834,-0.0020355608,0.008469129,3.7512338e-05,-0.008608401,-0.0054182243,-0.006878404,0.0026858267,0.009448804,-0.0057873107,0.008292398,0.008529565,-0.007090234,-0.008868986,0.009431135,0.008369778,-0.00472734,-0.006745954,0.007871283,0.0037942512,0.008087977,-0.0075471886,-0.009538724,0.0015942228,-0.009788495,-0.0048882007,-0.0034349973,0.009638097,0.0086396,-0.0028111746,0.005837606,0.008243116,-0.0022757375,0.00952919,0.007163931,0.0020547318,-0.003822388,-0.005089552,-0.0030659589,0.007877929,-0.006158221,-0.0029310384,0.009211549,0.003438839,0.006099959,-0.0080229975,-0.0007461674,0.005551987,-0.0046934793,0.0074974447,0.009373935,-0.00042915766,-0.0020394647,-0.000591824,-0.0057625026,-0.008388449,-0.0014514774,-0.0025776096,0.0044352147,-0.006870878,0.005434565,-0.0067388685,-0.0077725635,0.008524821,0.008926108,-0.0034631924,0.0035081,-0.005842405,-0.0087062735,-0.0054791034,0.006742094,0.0064479406,0.0093935,0.0070764357,0.006726425
tract,0.0012926947,-0.009741828,0.0045810873,-0.0005467683,0.006371791,0.0016988582,-0.003086801,0.007826512,0.0015068932,3.0785603e-05,-0.004667331,-0.008527814,-0.007759936,0.008706268,-0.008902786,0.009053326,-0.00930042,-0.0003223676,-0.0018864685,-0.008993228,0.00863199,0.006805851,0.0029858896,0.004844867,9.1329224e-05,0.009408454,0.007015292,-0.0098747,-0.0044618673,-0.0013368584,0.0031043948,-0.004325566,0.0014356497,-0.007853929,0.0028069592,0.004742306,0.0049651866,-0.0031720165,-0.008400921,-0.009292245,-0.0007199425,-0.007370316,-0.0068507306,0.006121614,0.0072042127,0.0021382177,-0.007914275,-0.0056989156,0.008071222,0.0039348137,-0.0052316454,-0.0073962323,0.0008011411,0.0034947905,0.0021239533,0.0031321861,-0.005605603,-0.009910928,-0.007022309,0.00026562886,0.004632416,0.004537694,0.0018778854,0.005164002,-0.00013117459,0.004121542,-0.009139124,0.00772922,0.0061408416,0.005189609,0.00723762,0.008413998,0.00075557583,-0.00167611,0.00052958826,-0.009285036,0.008404136,-0.00638275,0.008424527,-0.004252413,0.0006398656,-0.009101814,-0.009595743,-0.007791119,-0.007745343,0.00039808458,-0.007180616,-0.0048825284,-0.005174601,-0.004303246,0.0070616403,0.0048377877,0.008673628,0.007135133,-0.00567284,0.007239103,-0.009264391,-0.0026431924,-0.0077329846,0.0041660937
pulmonari,0.001806755,0.0070653926,0.002929365,-0.006990062,0.00778398,-0.0061022756,0.009092656,0.0030429051,-0.0040920824,-0.0047106957,-0.004510014,-0.0062143435,0.009421285,-0.0026232763,0.007857092,-0.009702744,0.0021064463,-0.0012246015,0.007599203,-0.009119395,0.0074575422,-0.005064733,-0.0061022597,-0.0056685614,-0.0034117692,-0.0034233874,-0.0032146894,-0.0075520906,0.0006516131,-0.0006239856,-0.0015919601,0.0037685996,-0.0076408014,-0.0032398487,0.005199462,0.008634253,-0.009814607,0.0071629263,0.0053340946,-0.0039763763,0.008605318,-0.00928226,0.007190255,0.005426699,0.0013582981,-0.0052032084,-0.00416363,-0.0034201692,0.0016427166,0.0015500819,0.0074394913,0.009986039,0.00890384,-0.0039949827,0.009668421,-0.00061391573,0.0048695947,0.0025394296,-0.00065174035,0.0037551383,-0.005325446,-0.0057364576,-0.0075797406,0.0018717755,0.006517024,0.0009006061,0.001197065,0.0031847907,0.008133245,-0.0077012354,0.0022223685,-0.007468184,0.003770965,0.009563937,0.0076194075,0.0064574685,0.0080246655,0.0065779807,0.006839326,0.008720746,-0.004987106,0.009336954,0.0050678723,-0.002072279,0.008478678,0.00507595,0.009749916,0.0029152152,0.009968457,0.0011749801,0.009191758,0.003672357,0.0065705404,-0.0035801092,0.006901539,0.0072820014,-0.002063871,-0.0019344706,0.003687683,-0.0070907744
sp,0.009745704,-0.009764476,-0.006497527,0.002779417,0.0064392067,-0.00541219,0.0027632837,0.009144965,-0.0068401946,-0.0061388672,-0.004979829,-0.00370713,0.0018631001,0.009706455,0.006440775,0.00042048565,0.0024820415,0.008440524,0.009128174,0.005614293,0.0059320666,-0.007627899,-0.0038338215,-0.0056833485,0.006171733,-0.0022394224,-0.008789347,0.007604204,0.00838579,-0.0033306724,0.009133563,-0.00074033265,-0.0036308724,-0.00039316012,0.00019241378,-0.0034790372,0.002822741,0.0057314956,0.006859281,-0.008933952,-0.002191956,-0.005504255,0.007501672,0.0065088253,-0.0043437174,0.0023286017,-0.0059370785,0.00020967932,0.009459727,-0.0026026424,-0.0051958445,-0.0074012848,-0.0029068524,-0.00086179766,0.0035235877,0.00973981,-0.0033922817,0.0018939484,0.009681479,0.0015425214,0.0010063758,0.009802012,0.009298457,0.0077222907,-0.0061926814,0.010008402,0.005836909,0.009059052,-0.0019971482,0.0033818877,0.006813676,-0.003899808,0.006648855,0.002565131,0.009328009,-0.0030171422,-0.0031446917,0.006227875,-0.0090827355,-0.007243159,-0.006502195,-0.00072644744,-0.0023600515,0.0068405503,0.009226925,-0.000902165,0.0014302077,0.0020509465,-0.0020036858,-0.008036653,0.0074427375,-0.004303536,0.004573933,0.009103669,0.0030562482,0.003138857,0.004096582,-0.00272226,0.003823242,0.00032778838
fractur,0.0056235264,0.00550893,0.0018234632,0.005748721,-0.0089635495,0.00654624,0.009241702,-0.0041954406,0.0015951121,-0.0052381554,0.0010496102,0.0027589914,0.008157159,0.00054892746,0.0025660866,0.0012999838,0.00840285,-0.0057188314,-0.0062585906,-0.003629291,-0.0023026704,0.0050557484,-0.008127303,-0.002836627,-0.008208648,0.0051418287,-0.0025705579,-0.009083554,0.0040676873,0.009004436,-0.0030235795,-0.0058458005,0.0030184565,-0.00043625344,-0.009977647,0.008432789,-0.0073368456,-0.004919936,-0.0026583395,-0.005461959,0.0017265722,0.009708721,0.004568346,0.008096974,-0.00045813786,0.00066004024,-0.0026725086,-0.008783423,0.0034307404,0.0020971796,-0.009423655,-0.004968551,-0.009727846,-0.005717546,0.0040696906,0.008645632,0.0041164802,0.0023825672,0.008140237,-0.0011071357,-0.0013926369,-0.008736919,-0.00011993675,-0.002575183,0.00038458503,0.0072775385,-0.007051433,-0.0039367513,-0.0066706385,-0.0035361864,-0.0033116713,0.0021359248,0.0033445116,-0.0049514417,-0.0045364476,0.0011401362,0.005447563,0.005373647,-0.0029778637,-0.0042661424,-0.00562193,-0.0005388777,0.0019415609,0.0015354085,0.007355304,-0.00272945,-6.050155e-05,-0.0055163554,-0.0011551963,-0.0077174576,-0.0009500507,0.0013207921,-0.008606664,0.008765522,-0.009192235,-0.009616379,-0.008511887,0.0073053925,0.0054611294,0.0092457775
gi,0.002559563,0.00087445835,-0.002540814,0.009335368,0.0027981016,0.0040552253,-0.0011406188,0.00093658833,0.0065971953,-0.0007701564,0.0033270274,-0.0007220083,0.0052706543,0.0036515074,0.0026108334,-0.0053136866,-0.0047199144,0.0042964406,-0.0059068548,-0.00019208642,-0.0006423035,0.0035086859,-0.008463563,0.0088004,-0.0014600931,-0.005360173,0.00404307,-0.0019642818,-0.007781748,-0.0045585693,-0.00034573945,-0.008944491,0.0005532525,0.00242683,-0.0032144012,0.0025828069,0.0024939429,0.010004229,0.0014523665,0.0019916035,0.002804217,-0.0020777043,-0.008736626,0.008067745,-0.0019700932,-0.009698638,-0.0065595163,-0.003960986,0.003967867,0.005050696,0.0061074616,-0.0067897267,0.00069832406,-0.0027600955,-0.005212542,0.0070055537,0.003952538,-0.0031109396,-0.008299778,-0.0051112063,-0.00062213803,0.007830908,0.006076153,-0.008476278,-0.0095771635,0.0071315113,-0.0023482426,-0.003722319,0.0057459758,-0.005836808,0.005065248,-0.00024037706,-0.006865647,-0.00032314626,0.0063866605,0.009320809,0.0022198926,0.005058111,-0.004993046,-0.00078299484,-0.005346274,0.0012514733,-0.00181056,-0.0036096517,-0.007027881,0.009696061,0.003020309,-0.0022517785,-0.0041396096,0.007700688,-0.0064653587,0.0031435292,0.0007771512,0.008364218,0.0068833358,-0.0029106298,0.0025523803,-0.0017120494,-0.009447238,-0.0026259962
hypotens,0.0013325238,0.0065408563,0.009984603,0.009062455,-0.008015361,0.006491386,-0.0057147373,-0.0009715748,0.00048282265,0.0065819337,0.0044701435,0.004603727,0.009483124,0.0003826642,-0.0060387133,-0.0063301004,0.0064317896,-0.0052425815,-0.0028498126,0.004075284,-0.0022902358,-0.006025213,-0.002323655,0.001206919,0.0021833598,0.0060837734,-0.005214001,0.0030779613,0.007240676,0.0021951138,0.00539749,-0.0048453333,0.006152612,-0.0076012816,0.0034928655,-0.009321804,-0.0026043104,-0.009073199,-0.0015882683,-0.005364752,-0.0039439187,0.0011536527,0.0028003477,-0.0015263951,-0.008170515,-0.0059180222,0.00081929564,-0.0039462578,-0.009430448,-0.0007749748,0.0066332687,0.005978844,-0.009917259,0.003118583,-0.005987301,-0.009181891,0.00017021298,-0.00036962033,-0.0069719995,-0.0062800576,-0.0024260855,0.0070966566,-0.007545879,0.007698084,-0.0004754448,0.0010932934,0.009482661,0.00472816,-0.0035727667,0.0037356198,0.003519286,0.0063366974,6.933927e-05,-0.0044236863,0.0013182712,-0.0054142345,0.0014117574,0.004926181,0.005154848,0.009181637,-0.007512665,-0.005403644,0.0064693727,0.0013554788,-0.006611801,0.00088438985,0.0026770402,-0.0025288356,-0.0049601602,0.005004755,0.009621821,-0.0073646735,-0.00011532188,-0.0025644589,-0.006365142,-0.0013786554,-0.0052507855,0.009059995,-0.0057907687,0.003686075
left,-0.00023056669,0.004280283,0.0020944856,0.009974682,0.0006468672,-0.0056018755,-0.0011069184,0.0021928854,-0.003437961,-0.007917256,-0.0056806086,-0.0067912964,0.0063682427,0.0039401855,0.008252382,0.006551443,-0.006145975,0.0027026765,0.008517849,0.0015139814,0.0030508628,0.005873854,-0.008935086,0.009131692,0.006782237,0.008522624,-0.008269374,0.0061516007,0.0065736794,-0.0014179342,-0.0062340028,0.005345985,-0.0069207307,-0.005361063,0.003542137,0.008179482,0.0087314565,-0.0044733193,-0.009198927,0.009522855,0.006305806,-0.003998327,-0.0085119745,-0.004705979,-0.0038675491,-0.0032923971,0.00082572637,-0.00030956755,-0.0030179524,-0.006024702,0.009430768,-0.004715612,-0.0072384863,0.0077209244,0.0025586593,0.008676342,-0.0044960305,-0.0069022994,0.0009944013,-0.0011418366,-0.0093864,-0.0015683976,0.003087179,0.0065505067,0.006828551,0.0032661292,-0.004499026,-0.0018474525,-0.003989107,0.0058359606,-0.006377213,0.0021299522,-0.0012847229,-0.0057938006,-0.007202103,0.0059065553,-0.008402892,-0.0006567084,0.002799944,0.007777095,-0.0073260632,0.0034208358,0.009785672,-0.0069088335,-0.0035568941,0.0051184255,0.0053162607,0.0017116556,0.008057338,0.00081949006,0.0019422702,-0.0015476666,-0.0081966715,0.0032841344,0.0020510077,-0.008770998,-0.00061569625,-2.039036e-05,2.1264173e-05,0.008701172
congest,-0.0025026593,-0.005902552,0.0074817115,-0.0072606364,-0.008962162,-0.00179139,-0.0083663445,0.0003927737,0.0019499864,-0.0024699403,-0.0064510307,-0.0003274968,-0.0010944962,0.0034970953,0.008132829,0.005855574,0.00845281,-0.0089587895,0.009446751,-0.0023568666,0.008705412,0.002377102,0.0035829898,-0.009584854,-0.00948917,0.008999974,-0.0029100815,0.0028132664,0.0064150076,-0.0002960758,0.009727916,-0.001041664,-0.00967226,-0.0070638275,-0.0010466484,-0.008672605,0.007417876,0.0036229007,-0.008758065,0.008474078,0.008918358,0.0058430447,0.006909824,-0.009572427,0.0004900668,-0.009213944,-0.0036757644,0.0002508199,-0.00028252986,0.0014635731,0.0032830823,0.0021250986,0.005317608,0.007516134,-0.0058879843,0.007952158,0.0059882873,0.009792769,0.004615226,-0.0033225985,-0.0037494563,-0.0006370428,-0.001658783,0.009880204,0.001123446,0.004022234,0.0034283097,-0.008862371,0.006730178,0.00819091,-0.0016733903,0.0023321416,-0.006477774,-0.0061247065,0.008222621,-0.0030519594,0.0067268806,0.0015606688,-0.001981276,0.0030522405,-0.004032323,-0.0017744058,0.0013792085,0.004879021,-0.0013977542,0.00065115927,-0.007912132,0.009488081,-0.008763745,0.007066884,0.0039083855,-0.0069975723,-0.0052929,-0.0079471,-0.005129493,0.0070677907,0.009639476,0.002149611,0.00063238456,0.009529469
hepat,-0.004972829,-0.0012462084,0.0032614442,-0.006437509,-0.009667605,-0.009362817,0.009079587,0.005433807,-0.004845204,-0.008349868,0.0012408579,0.0028448175,-0.0012086233,0.0012974391,-0.0043058256,0.0047976593,0.001473703,0.008865772,-0.009958609,-0.005347221,-0.009098548,-0.00030490893,-0.007929755,0.0050336863,-0.0064425874,-0.0059507606,0.0050908695,-0.008198737,0.0014197462,-0.0072906516,0.009934442,0.008664551,0.0017496768,0.005799345,0.0046287393,-0.00593234,0.009767441,-0.009702722,0.008042957,0.0027058448,-0.003049431,-0.0035968123,0.009074638,-0.005434877,0.008232414,-0.00600166,0.008409689,-0.0005771928,0.007955838,-0.0031764787,0.0060183923,0.008844487,0.002563803,0.0013337395,0.0050554876,0.008024599,0.008567184,0.008491463,0.0070543243,0.008033493,0.008614257,-3.9486014e-05,-0.0009972582,0.0016612096,7.810742e-06,0.0007189705,-0.008650158,-0.009621283,-0.0023396064,0.008962911,-0.0036599336,-0.0069907987,0.0049208514,0.001093704,0.0019151598,0.0036809936,0.0035255658,0.00575596,0.0012272784,0.0008673627,0.009038226,0.0028580078,-0.0047312975,0.006553267,0.005223129,0.0028625326,-0.003078088,0.0034252638,0.006429208,0.0070739826,0.0009997493,-0.008504204,0.0002332381,0.00040981913,0.0039870846,-0.009472122,0.009752298,-0.007019865,0.0057769143,-0.009469227
heart,0.009672735,0.0073223906,0.0012405188,-0.003392395,-0.0004413409,0.00041517956,-0.006417262,0.005747978,0.0023620804,0.0037948098,-0.0072660344,0.008521484,0.0005199717,-0.00018781533,-0.009070646,0.004067182,0.0067576147,0.0073643755,-0.0064032795,-0.007866163,-0.0055145626,-0.0005893442,-0.008337067,-0.008263296,-0.0019295762,0.0011525329,-0.009492438,-0.0037243,0.0006453384,0.006816195,0.0017634373,-0.00062626484,-0.0074643423,-0.006729362,-0.0007087315,0.0074840593,0.00543603,-0.0014957914,0.0011424978,-0.009617003,-0.0013974699,-0.0046154014,0.0058095367,-0.0023492356,-0.0047725746,-0.009481799,-0.0011844967,-0.0072256797,-0.0016836831,-0.004098547,-0.0023723794,-0.0032413444,-0.00815804,-0.0012552328,0.001703344,-0.004063254,-0.007670646,-0.0035728845,-0.009040338,-0.00075814227,0.005879512,-0.0029607771,0.003146534,0.00501628,0.00846499,0.0056362106,0.009507105,-0.009665069,-0.0079822745,-0.006722704,-0.0074835066,-0.007986657,-0.007789108,-0.0029539252,0.0014101904,-0.002901829,-0.008830794,0.004985279,0.000892742,0.00457297,0.007186943,0.0076498757,-0.00081616937,0.0036572453,-0.005114964,0.0018885167,0.004554133,0.009880866,-0.0031896585,0.0028310926,-0.005732129,-0.0022194658,0.008143881,-0.003931455,-0.0011866085,-0.009302154,-0.009466753,0.008891644,-0.005691585,0.005062408
distress,-0.0069769467,-0.002430607,-0.008028123,0.007495257,0.0061226203,0.005206485,0.0083846105,-0.0006529733,-0.0093482165,0.009092614,-0.004944894,0.0078182295,0.0055343923,-0.0010617938,-0.007651924,-0.0014491457,0.006248456,-0.0069828094,0.0014349833,-0.007992559,0.00870791,-0.002838622,0.009420403,-0.0057197246,-0.009734277,-0.008626125,-0.0040865154,0.00469839,-0.00025251776,0.009204747,0.003115787,0.0037393158,0.0029749328,0.0081431465,-0.0023752893,0.0074253604,-0.00953626,0.0029006752,-0.0006784391,0.00043337513,0.006855722,-0.0028565272,-0.0023639507,-9.177589e-05,-0.0004730069,-0.0035729446,0.006251133,-0.006563794,0.007900479,-8.047212e-05,0.002595378,0.0032369331,-0.00026498415,0.0017142213,-0.0031356956,0.0047722277,0.00023002324,-0.003304003,-0.008725574,-0.009985767,0.00031214903,-0.0057284907,-0.0011066768,-0.0042218287,-0.0086381305,0.0010681578,0.0059072813,-0.0022006999,-0.0071754255,0.0032029853,-0.0003773401,-0.0055454625,-0.0010938986,-0.0006256136,-0.003190124,-0.009928104,0.007636069,0.0037366902,-0.0025340726,0.0073203812,0.0004474236,0.007207087,-0.0015646755,0.007508484,-6.382458e-05,-0.0060713575,-0.0047045597,0.009665882,0.00059988216,0.0010311287,0.008462897,-0.0062783896,-0.0017823986,-0.008139867,-0.006653638,-0.008596713,0.00394566,0.0026965137,0.0056094704,0.0025584402
humer,0.0021114245,0.005739167,-0.002121309,0.00317294,0.008470835,0.0003778629,0.0063110846,-0.0067469706,0.006564945,0.0046987445,0.0050779083,-0.009930323,-0.00042634978,0.0032073585,-0.0058234697,-0.006695278,0.0063686213,-0.0068396945,-0.005187912,0.008113574,-0.007032897,0.008563001,0.0006460038,0.0043970295,-0.0030107433,-0.0054387935,-0.008954468,-0.0006182862,-0.0051151444,-0.00308539,0.008125323,-0.0076533896,-0.0063070296,-0.0052645975,-0.006603932,-0.008835465,-0.0011203246,0.009447784,0.0080395555,-0.0052933083,-0.008139951,-0.002266798,-0.009268024,-0.0050689084,-0.0059427614,0.0030301835,-0.0075778826,0.0012379288,0.0022865727,0.0053177527,-0.0020266993,-0.009780111,0.00522567,-0.005901372,0.004893319,0.0019689985,0.008818263,0.0015456912,-0.0018349534,0.006501789,-0.0070840367,-0.008385499,0.0038005323,-0.002578683,-0.0041937563,-0.0019249003,-0.009878393,0.00025836565,-0.001060222,-0.002965062,0.0024985357,0.0046920227,0.0063490425,-0.007919224,-0.0049821604,-0.008804588,-0.008953511,-0.0037347192,-0.001287412,-0.00822286,-0.005378492,-0.0021518792,0.006335748,0.0015769444,0.008315296,-0.008317151,-0.004572633,-0.00079022883,0.008816176,0.001104516,0.001542095,0.0012973894,0.0029220327,-0.009391935,0.0032638744,0.005466968,0.0053037885,0.004435733,-0.00808414,-0.0040681893
chest,0.008377892,-0.00058962917,-0.009449261,0.004784227,-0.0060666907,0.0066428585,0.0053984732,-0.00501646,0.002565604,0.0054108524,-0.003599923,-0.001536385,0.009205586,0.0090790745,-0.009365497,0.007566734,0.009886346,-0.0028633256,0.00247863,-0.0028367268,0.008636213,-0.000261191,0.0056077032,0.009233305,0.004078972,-0.007122373,-0.0019682164,0.00095163455,0.0020243966,0.0029247846,0.009494195,0.0044058347,0.0099305995,-0.008674555,-0.005776135,0.002020989,0.0036786473,-0.0010000576,-0.006958837,-0.0032274008,-0.008524353,0.009423485,0.0036793535,-0.00787737,0.0032096496,0.004204681,-0.0056411223,-0.0059474437,0.001043534,0.008969266,-0.009661713,-1.9867393e-07,-0.006892805,-0.0009447376,0.003039328,-0.00503631,-0.0028150615,0.0006524904,-0.0063869045,0.0073202495,0.0043666027,-0.008562338,-0.0021145605,0.003135742,-0.008341022,-0.0070440043,-0.0084921615,-0.0055238823,0.008844598,0.0071064597,0.0028899414,-0.008567994,0.005765683,0.0046510063,0.0001516051,-0.008870379,-0.0019320814,0.00020112871,-0.0077989157,0.0024593452,0.00044688798,-0.007035375,-0.008290154,0.006076292,-0.008363955,-0.0056037814,0.005616503,-0.00043239503,-0.0030476155,-0.005248848,-0.0011534343,0.0053082365,-0.0059685414,-0.004947308,-0.0049220426,-0.004767798,-0.0079609165,-0.009794303,0.0075872294,0.007968412
asthmachron,-0.0043238346,-0.009269634,-0.001863262,-0.0037177717,0.009112157,0.002847882,-0.005910908,-0.0032916502,-0.009949986,0.0018924833,-0.003999517,-0.0027347817,0.005192685,0.007586114,0.0044219983,-0.006848635,0.0067036776,-0.009687572,-0.006999236,-0.008063611,-0.0022445605,0.0005504885,-0.0037993414,0.0018564798,0.00916543,0.006667114,-0.0010548527,0.00906849,0.0015431312,-0.002006903,-0.006578013,0.006460884,-0.009098661,-0.0019271225,0.007707132,-0.0025243727,0.0015997983,-0.0073372037,0.00498849,0.0073339283,-0.009285968,-0.0033087549,0.00787558,0.0029622426,6.746978e-05,0.00034151183,-0.009864661,0.009922115,-0.0019869949,-0.0048918147,0.0027706085,0.0010058659,-0.005929266,0.00578133,-0.002507457,-0.0061820135,0.0072460454,0.006441279,0.008818982,0.0012021407,0.00051195134,-0.007895598,0.004709554,0.0093145585,-0.0006766952,-0.0017366584,-0.003849341,-0.00044172996,-0.007671258,0.005690935,0.0014801765,0.009311094,-0.00636023,-0.005045484,-0.0062144133,-0.0072216545,0.0027270305,0.004915451,0.0013097585,0.003534452,-0.009393481,-0.0009922289,-0.007790022,0.0029898796,-0.0026658836,0.008897779,-0.003377503,0.0069078095,0.0041792174,0.0013611023,7.632536e-06,0.008204227,0.0023339668,0.008315905,0.0034111764,0.005427757,0.005157798,-0.0076756305,-0.0057883966,0.0011735254
cholang,0.00019529735,0.002154949,0.001071967,0.007582173,-0.004417952,0.00033245253,0.0070060766,0.0022611166,0.0042429636,0.0043062903,-0.0012644733,-0.008332802,0.0030488772,-0.008870443,-0.0026488027,-0.009390129,-0.0004714398,-0.007863347,0.007425395,-0.004886879,0.0099232355,-0.009031904,-0.0043191756,0.0019357089,-0.0029988505,0.0014445604,-0.003678578,-0.00088972773,-0.005722462,-0.009832128,0.0063299644,0.00038664704,0.006496315,-0.007481708,0.0036647958,-0.009902055,0.007619513,0.005930003,-0.0061102845,0.008204407,-0.0055733304,-0.008553961,0.0014934677,0.0031878576,-0.008094278,-0.008936003,0.009172081,0.001647198,0.0008830921,0.0024755006,-0.003509615,0.0017425986,0.0019646133,0.0098016355,-0.00560657,0.0022760492,0.0063057714,-0.0066866986,-0.008933894,0.008654068,0.0068385378,-0.0040205615,0.0057430314,0.00078233273,-0.0050204266,-0.0013587634,-0.004906924,0.0061458806,0.0019660706,-0.00831409,-0.00013562266,-0.0026548626,0.0065986156,-0.0011351007,0.007669229,0.0019474206,-0.0038260275,0.008162598,0.0029509922,-0.003968487,-0.005596912,-0.0030827487,-0.0051319553,0.0034329437,-0.009281567,-0.0058263843,0.0033530765,0.0002061211,0.0060086655,-0.003618015,-1.1835474e-05,0.0024737562,0.0054651285,0.0016129513,0.009816926,0.0037241008,-0.007182849,-0.0014045626,-0.008363162,-0.005327595
cholecyst,-0.0021953976,-0.00970765,0.009295289,0.0020319677,-0.001161182,-0.005503707,-0.0085098315,-0.009903475,0.008944385,-0.0024994253,0.0045923768,-0.0045173643,0.009958059,0.0036547207,0.0010256934,-0.0040441034,0.0012106216,-0.0026468039,0.007350738,0.004478253,0.0009866821,0.003483088,0.0037143505,-0.006785375,0.008930763,0.0017362308,-0.0057874643,0.008656683,-0.0012914777,0.008187038,-0.001506871,0.006987652,0.0027263963,-0.004359729,-0.0037479282,0.009191782,0.001591866,-0.006007011,0.00034962298,-0.0019623982,0.0015845251,-0.0077173174,0.007384087,0.001312226,0.007875197,0.004453044,-0.004393872,0.003752681,-0.00063848495,-0.009856249,0.00824213,0.009649374,0.00965339,-0.0037998045,-0.008449623,0.0048277043,-0.007655481,0.008532052,0.0027602506,0.005603337,0.006116494,0.00046480776,-0.0020948946,0.00077317236,0.0098359585,-0.007124536,-0.0015524542,-0.0023585416,0.0048660077,0.0064500393,-0.0041320394,0.003623669,-0.0044811275,0.0032704663,0.008168473,0.003628608,-0.004572811,-0.0030091642,0.007866405,0.009604061,0.005817094,-0.0032740354,-0.0018252826,-0.0062573934,-0.0042955745,0.003374362,-0.0064877463,-0.0066161607,0.00811142,0.009505462,0.008140584,0.0015104342,-0.00879589,-0.007597166,0.0015720784,-0.009527631,-0.007410209,0.0020241237,-0.0029211687,-0.00915701
mi,0.0064372853,-0.008950207,-0.0073706307,-0.0017742398,0.0017124277,-0.0011224104,-0.0051406147,0.0066271815,0.008798113,-0.0074518584,0.009762328,0.007319158,-0.0074947895,-0.0019110638,0.004252061,0.0071075987,-0.0036396259,-0.0070161545,0.0047634174,-0.009118579,-0.0058693923,-0.0012251302,0.0054249945,-0.005729059,0.004757048,-0.0004678945,0.0026700138,0.0063995332,0.0013862309,0.0077130944,-0.00025334538,-0.008313967,0.009208239,-0.0048905085,0.0046917135,-0.0038488612,-0.007301824,-0.0065267077,0.0046918467,-0.0007344465,0.0014858502,-0.008996776,-0.0051989458,-0.006043183,0.008490542,-0.008696906,0.0050155385,-0.00092177006,0.00018745032,0.008819092,-0.0035762493,-0.006952657,0.0008063302,0.007755051,0.009118468,-0.003677484,0.0027337442,0.0049498286,-0.005335914,0.0069452473,-0.006479972,0.002134051,0.004607591,0.0043818755,-0.0046933806,0.0026694424,0.007292815,0.008633625,-0.009531393,0.0055857883,0.004953062,-0.0016048657,0.009244254,-0.004160788,-0.0016725155,-0.006876346,-0.0038217257,0.00027386524,-0.0032956651,-0.005425293,0.00657658,-0.005234764,-0.0063209706,0.007720962,0.0097071165,0.0039851074,0.000111304726,0.00084614014,-0.0009445569,0.0068281,-0.0062180674,0.00054574397,0.0043032574,-0.0021040037,0.00096333615,0.0037265227,0.00979085,0.002148049,0.009544466,-0.00585089
subdur,0.0048199133,-0.0036308612,-0.0042626117,0.0012442009,-0.0041100197,-0.005676062,0.0031546485,0.008372627,-0.006568233,-0.009126467,-0.0033496283,0.007509633,-0.009679277,0.009609428,-0.00040695607,0.0023083629,-0.0018457924,-0.005762712,0.0031173094,0.0061859945,-0.0070507675,-0.0011709847,0.0015252952,0.004242567,0.007123497,-0.0035418859,0.0072705946,-0.005570553,-0.002214219,0.009070552,0.00540788,-0.008474659,-0.0016488151,-0.008859251,-0.0016313388,0.0056835483,-0.007415922,0.005493956,0.0060743056,-0.003800532,-0.009642616,-0.0025324447,-0.0025624535,0.0037644245,0.008951389,0.0019913316,-0.002101774,0.002946821,-0.0067872037,-0.0012944278,-0.0014788688,0.00959898,-0.0058199125,-0.007043333,0.0023637777,0.0026234535,-0.0071657267,-0.005888338,-0.0011809277,-0.0032860714,-0.008981148,-0.004045269,-0.0029532583,0.006500199,0.00095335377,0.00164714,0.00028142732,-0.0033789873,0.0030972906,0.00071493024,0.0059475163,-0.00077350176,-0.008887019,0.00087871787,0.009952489,-0.0052408143,-0.0052247667,-0.0025203738,0.008573459,-0.0008103511,0.009413481,-0.008310373,0.009006774,-0.00967961,0.009200943,0.0018694596,0.002690133,-0.0058457125,0.00846022,0.006036791,-0.0054835933,-0.009474093,0.006961815,-0.00551376,-0.009281048,0.0025893755,-0.0049557993,-0.0073597273,0.009737771,-0.0015892541
stroketia,-0.0015110135,-0.004034504,-0.0043988526,-0.0046293857,-0.005595714,-0.0053018034,-0.008022303,0.009518845,0.0063990653,-0.0036066938,0.0024784422,-0.0076424945,0.0075231018,0.008304736,0.00078943017,-0.006832991,-0.002957728,0.004733969,-0.002939384,0.0031764733,0.009408716,0.004353106,-0.0051454795,0.005467093,-0.0028791917,-0.0063939407,0.0070078014,-0.009253933,-0.0011306572,-0.0013853407,-0.008415947,-0.0011023998,0.0055972575,-0.005267652,-0.007026136,0.0062002684,-0.0034264398,-0.007819556,0.00029337048,-4.9802064e-05,0.007540907,0.00056930183,0.007882459,-0.009812782,0.0040332675,0.00621811,0.0010294437,-0.002836411,0.0010266149,-0.00083912135,-0.008108269,-0.0067834724,0.001200155,-0.0020178736,0.009549418,-0.0009494269,0.0061186957,0.002046138,0.008099689,-0.00929052,0.0023927295,-0.0014512575,0.0021549999,-0.00021979929,-0.006640631,0.009050456,-0.002843398,0.001914314,-0.006441698,0.003714218,0.009995805,-0.0011962545,0.006580218,-0.00012432098,0.007928181,0.00965093,-0.00039128662,-0.0016983438,-0.009521616,0.009874873,-0.0025329662,0.0021891915,-0.0016988862,0.008327348,0.008343778,0.0015368855,0.002885666,0.0064340653,0.0022477007,0.006444316,0.00014674067,-0.002285471,0.0053072535,-0.0034152747,-0.0026156104,0.008791729,-0.009154693,-0.0034136428,-0.0029241275,0.00566893
hip,0.007935458,-0.006393246,0.0058144517,-0.00023514134,-0.009015667,-0.0024839162,-0.0015508878,-0.0044380035,-0.00081342715,-0.0052734073,0.00592163,0.00930393,-0.0015759032,0.0033767992,-0.0007333512,-0.0006993381,-0.0070156856,0.001437273,0.0039104195,0.0068917787,0.0065401206,0.0035525765,0.0046764007,-0.007398735,-0.0013987259,-0.005766904,0.006787819,0.007834207,-0.0042911055,0.0011328857,0.005088402,0.0017908419,0.0007726775,-0.006764212,0.009843179,-0.0072396193,-0.0060353773,-0.005677779,-0.0063659702,-0.003497051,-0.009408686,0.0011986156,-0.0037720425,-0.0025677038,0.005800094,0.0035484983,0.0017729319,-0.0013557372,0.009920655,0.00030353788,0.0049982886,0.009047598,-0.00977226,-0.00918082,0.009941102,0.0027295721,-0.001887585,0.0047407574,-0.004287812,-0.006421835,-0.008256098,0.0072156955,-0.0024348488,-0.0075520743,-0.005921158,0.0061864024,-0.0024719564,-0.006145608,-0.0016388231,-0.0014741343,-0.0032379199,-0.002066279,0.004120831,0.0014465947,-0.0035040209,0.0027209416,0.0052147605,-0.009191338,-0.0075873793,0.0063307267,-0.008968334,0.0005605854,-0.009005217,0.00836542,-0.0043081194,-0.006622839,-0.0013348468,-0.0010916896,0.007552718,0.00908425,-0.00033883878,0.0027104986,0.0047250367,0.00015773854,-0.005739054,-0.0005875962,0.0022073095,0.008278027,-0.0036338794,-0.009843974
tracheal,0.0053797048,0.009842348,-0.007059445,-0.0005738534,-0.005035338,0.0063750963,0.009712488,-0.00028569758,0.005080588,0.006515673,0.004387294,-0.008070773,0.0031242778,-0.0014902897,-0.002149104,0.005407902,-0.0013079417,0.009887601,-0.0006304241,0.00022870429,-0.0023015824,-0.008486423,-0.009833861,0.004957649,-0.00665191,0.0029435444,0.002764501,-0.007009638,-0.0031599037,-0.005836864,-0.00852351,2.6836668e-05,0.009768456,-0.0066917315,-0.004354811,0.008386607,0.00932185,0.00979323,-0.0098945545,0.0050030905,-0.0066275382,0.0068373433,0.0061263414,-0.0033531717,0.0069318092,-0.007864192,0.0045482144,0.004553557,0.0059414716,0.00587714,-0.0026559255,0.0038952983,-0.0061026886,-0.006446393,0.0027341384,-0.009455095,-0.00030255635,0.0010994421,0.00799396,-0.006976184,-0.0023278277,-0.0040897974,-0.005202256,-0.00047106732,0.0046063815,-0.0049313954,-0.0016688077,0.008666604,-0.001323315,-0.003562409,0.007402609,0.001214896,-0.0003102394,0.009484689,0.008154104,0.003430108,0.0033304554,-0.0022711314,0.008087799,0.005064909,-0.005450322,-0.006080592,-0.0006166502,-0.007869229,0.003371959,-0.009218712,-0.0015054041,0.0034148728,0.0030897513,0.0031373173,-0.009029664,0.0034326143,0.0053175595,0.0035045978,0.00785323,0.001661529,0.0063126744,0.008773223,-0.00092169066,-0.0008238087
fall,0.0022318189,-0.00751196,0.0056505776,-0.0050283917,-0.0032494063,-0.0018493499,0.008264891,0.002276822,-0.00091779896,-0.0028606164,-0.002125041,-0.0013077798,-0.0050645107,-0.0041607628,0.00019946056,0.0045575383,0.0018007961,0.006886959,0.0006587416,-0.0032664586,-0.007382276,0.006028342,0.006947882,-0.00606192,0.0046545356,0.009512678,-0.006384421,-0.0029026477,-0.009118939,0.003209639,-0.0034424304,0.0020448307,0.009433417,-0.00839687,-0.009321777,0.0017542199,-0.008034805,-0.009095542,-0.009376818,-0.0003170214,-0.0010979235,0.0007275155,-0.0013577818,0.009068103,0.008833965,-0.006358094,0.008686714,-0.0090650525,-0.001335857,0.0025335415,-9.9218756e-05,-0.003785845,0.00045646948,0.0010129997,-0.009420301,-0.004928566,-0.0077281455,0.0038180419,-0.00090809615,-0.0074870796,0.005641153,0.00024608514,0.0027277628,0.0054228934,-0.0042448207,0.007860963,-0.007862049,-0.0034483909,-0.0073665394,0.0009683389,-0.0073920465,0.009091959,0.005552441,-0.0072259684,0.0062155877,0.00661208,-0.0074429926,0.0046602413,-0.0077644903,0.009349788,0.0046808384,-0.00019278056,-0.0089575425,-0.0009034216,-0.00025999435,0.0008918367,0.0087090125,-0.0027413096,-0.008677241,-0.008861542,-0.0010368926,0.001418024,7.161821e-05,-0.002193637,0.0086132325,0.00011161202,0.006440324,0.003977982,-0.0072275144,-0.0021382247
effus,-0.007779186,-0.0067423913,-0.0031517206,0.0066037625,-0.0008151716,0.008845018,-0.0022630664,-0.0052856496,0.003890969,0.0021984251,-0.0002855546,-0.002458267,-0.0059902947,0.004043063,-0.0075984304,-0.008919091,-0.00916933,0.008361871,0.003999199,0.0070507885,0.009879936,-0.0072057843,0.0040219533,0.0028188436,0.006130989,-0.0034033007,0.00934033,-0.0058201537,0.007027791,0.006919917,-0.00038455747,0.0050634895,0.0066334293,0.0015574015,0.007380412,0.002425241,-0.0015237823,0.0073912535,0.0046943855,-0.0032110843,0.0016521064,-0.00015681422,0.0049408344,-0.0053883404,-0.0041613746,-0.0009275195,0.0038239213,-0.0066110417,0.007853676,-0.0030747137,0.0057333796,0.002873158,0.0068241414,-0.0044748103,-0.0031973051,0.0030508828,-0.002777004,0.0059471484,-0.005962573,0.0025958593,-0.00070441276,-0.0006033135,0.0025540772,-0.0022002957,-0.004271247,-0.008549338,0.0024794904,0.005335153,-0.005896266,0.009125035,0.0040518325,-0.0051765144,-0.0012984088,0.003938839,-0.0069944896,0.0020675103,0.00549145,0.006255445,0.005402955,0.0036607424,-0.0027454419,-0.006059545,0.008136319,-0.0072833956,-0.0016178327,-0.003267075,0.006519106,-0.006245044,0.0034280356,0.0020390388,-0.0040629357,-0.008229757,-0.008032306,0.0035424477,-0.009527412,0.0057107224,-0.0028765537,-0.00918828,-0.0051372615,0.007719068
diseasecoronari,-0.0017425056,0.006526237,-0.0093112495,-0.009237299,-0.005158224,0.00078726735,-0.007012588,-0.009299157,-0.008993494,-0.0005627328,0.007368861,-0.0084605785,-0.0052598775,0.0015592815,0.0033837473,-0.008424732,0.0078820335,-0.008311214,0.0047540325,0.0092694415,0.005615235,0.0062876362,0.008087779,0.003448245,-0.0072288555,0.00574959,-0.008330256,-0.0058425777,0.005823227,-0.00807374,-0.005794967,-0.0035538017,0.0033103526,0.0052122525,0.0020789432,0.0052605704,-0.002570985,0.0043636216,-0.007063083,-0.0018276905,-0.007764951,8.576265e-05,0.004635032,0.004868448,-0.0045417827,0.0018072124,0.007845548,-0.0056552906,-0.0038395086,-0.00058214605,-0.0046810224,0.008765033,0.0075531667,0.009281709,0.009388678,-0.008496304,-0.00045345133,-0.0076212473,-0.00487215,-0.008770685,0.0034438842,0.00012626081,-0.006841108,0.007942358,0.00090145896,0.00029537745,-0.0036778364,-0.0033441666,-0.0027187485,0.0077422787,0.0024532047,-0.005172808,0.004847368,0.0010838674,-0.0026192777,0.0077451165,-0.004044555,0.007504178,-0.0042799357,-0.0073319175,-0.00449202,-0.0036890218,-0.0007467643,-0.001778704,0.0051559666,0.0054721623,-0.0016132396,0.0039819293,-0.0019360613,0.0007110971,-0.001241976,-0.0023631377,-0.004759859,-0.0041239657,0.0002863373,0.001671065,-0.009327212,0.005926388,-0.0016512021,-0.0030863562
obst,-0.0048051397,-0.00428404,-0.0048155473,-0.009822573,-0.0007790075,-0.007890449,-0.004732123,-0.0073080556,0.009882728,-0.0013803919,-0.007834839,0.005526623,-0.008048641,-0.0019313701,0.0027636192,-0.007067352,-0.008748709,-0.0066846893,0.007484979,0.008989293,0.0039900956,0.002456056,0.0040819324,-0.004105521,0.009730725,0.0068665976,0.0041339905,0.008915443,-0.008440078,0.0009007818,0.008960266,-0.000944319,-0.0067475773,-0.002304082,-0.0027737285,-0.002380426,-0.0018364982,0.007264608,-0.0003261972,0.0041777343,-0.0037366762,0.008189214,-0.006542488,-0.009304748,-0.0040418524,-0.0073706475,-0.004882194,0.0004540822,0.002393472,0.0017035488,0.005055598,-0.0013901782,0.0022896258,0.0003927073,0.007826292,0.008032489,-0.0019863958,0.0012225881,-0.006079361,-0.0047042575,-0.0069637313,4.6436508e-05,-0.004864302,-0.004099953,0.0015231292,0.002624838,-0.009177342,0.001793637,0.0050876946,0.0041659446,-0.0029473088,0.009540415,0.009507797,1.5586156e-05,0.00092923024,-0.0092475675,-0.0048534977,-5.6111767e-05,0.004012982,0.00017753676,-0.008742666,0.0059222314,-0.0074479226,0.008615951,0.00552927,-0.006790918,0.0029216793,0.0078305965,-0.006058842,-0.0065637887,0.00924344,0.0018568176,0.009691353,-0.0098980395,-0.0013796467,0.006899652,-0.0014071191,-0.0018218316,-0.0070710247,-0.005725376
bypass,-0.0065236245,0.008936837,-0.0016506577,-0.008299567,0.008039779,-0.0030731114,-0.0012256526,-0.0005965626,0.0027631684,-0.0047600833,-0.0003175027,-0.0029094287,0.00884175,0.0069280234,0.0010985635,-0.00604146,0.0031559207,0.0010284537,-0.0060772137,-0.0058405483,-0.0031314914,0.002517871,-0.00822405,-0.004984398,0.008084613,-0.0037431263,0.007933443,0.00046175573,-0.0056267655,-0.0050441935,-0.00014741282,0.0045964946,-0.006120206,-0.005541689,-0.006837152,0.006835625,-0.0023935034,0.0039744307,-0.0016269089,-0.0075377305,-0.0012675882,0.00033020592,0.003530611,-0.008630891,-0.0067019113,-0.0064890254,0.0030342226,-0.0038027528,0.0010084546,0.0041957917,0.00452704,0.0023845835,-0.0028954626,0.00063934084,-0.0054064626,-0.006396435,0.008735986,-0.0040612696,-0.009385528,0.0037918754,0.008480695,-0.00015048691,0.00230682,-0.0035556578,-0.004240201,-0.008623254,-0.007969468,-0.009089034,-0.006041279,0.008599598,0.009480907,-0.0017078085,0.000114908566,0.007877917,0.0013477498,-0.0051613855,0.0025472136,0.0018443179,-0.0037417875,-0.0048889457,0.0096484525,0.007750857,-0.008641333,-0.0054587377,0.0014336169,0.0008630182,-0.00828748,0.009491772,-0.005353892,0.0046003764,0.009333174,0.0011748695,0.0041608065,-0.0026192337,-0.009608248,0.00061834,-0.0010095232,-0.010023374,0.0070411353,-0.007447799
graft,0.0051319734,-0.004325189,-0.009213007,-0.009133081,0.006301369,-0.005374173,0.005336987,-0.0014373221,0.00961532,0.007129692,0.009842191,0.008316861,-0.0078301765,-0.009531847,-0.0055124084,-0.00078606175,0.005016053,0.003580889,-0.0019899895,0.004918188,-0.0033770076,-0.0067290603,0.004597072,-0.00985532,0.00086336426,-0.005019336,0.0075827166,-0.0037621087,0.0027453639,-0.0063472693,0.009655431,-0.005570555,0.0035165336,0.0031766857,0.008962236,-0.005484242,-0.0043368232,-0.0062533743,0.0061235125,-0.0047044423,0.0048080436,-0.00096079585,0.007274125,-0.0059866,1.3285762e-05,-1.7953402e-05,-0.008572069,0.008720226,-0.0020955906,0.0064624595,0.00010012924,0.0050842185,0.002235477,0.008892519,-0.008305276,0.0084115695,0.008668667,0.0010506075,0.0043947874,0.0038679712,0.004093482,-0.0029349958,0.0028653766,0.0007590996,0.004803158,0.008441263,-0.0078107333,0.00017940525,-0.008791139,-0.0014626567,-0.009034487,0.0031487674,-0.0015151652,-0.00065083185,0.006491588,-0.008099786,0.0011108563,-0.00235279,-0.0037685777,-0.0072497837,-0.007969079,0.008440633,-0.0074703633,0.0048705344,-0.0037476183,-0.0011824243,0.0029064002,-0.008440261,-0.0055763037,-0.007751617,-0.009296729,-0.004702109,-0.003249576,0.00057789526,-0.00058745797,-0.007855752,-0.0037422031,-0.0028712652,-0.0063940748,-0.0064296774
statu,-0.0026292726,-0.007864288,-0.008266719,-0.0076137944,0.0035977599,-0.0077177812,-0.0035907004,0.006710665,0.0073147053,-0.006440596,0.0067365826,-0.007848451,0.0001497903,0.0066404906,-0.0028078558,0.009237412,-0.00034759584,0.004635448,0.006977914,-0.008618178,-0.0061446275,-0.007208228,-0.0012469521,-0.0070966827,8.741418e-05,-0.00807702,0.0004631258,-0.00046286377,0.0064250375,-0.0089795105,-0.0031195374,0.0058930013,0.009197263,-0.0017808949,0.0008161337,-0.006053727,0.00085002906,-0.008164478,-0.0075814137,0.0012682182,-5.8916772e-05,0.0055047786,-0.009816221,0.0016874274,0.0016336343,-0.0052169776,7.392767e-05,0.006003514,-0.0065753004,0.00030565128,0.003906512,0.0017137553,0.002902032,0.008201077,0.0066923085,0.0035613303,0.008005645,-0.00767541,0.007528325,0.0039389404,-0.005891704,-0.0041641695,0.0064207716,0.005758107,-0.009902538,0.0012773975,-0.0004515526,0.00079770136,0.0070395004,-0.0071474514,0.009636633,-0.009422005,0.006286366,0.009551723,-0.0037810463,-0.009333883,0.0061455294,-0.008944162,-0.008311562,-0.00079762295,-0.006631527,0.008831177,0.007849581,0.00090634706,0.00796573,0.009877637,0.005250819,0.004384394,0.005491629,0.0064263865,0.0047459966,0.0064640455,-0.0075041493,0.008914648,0.008378774,0.009405955,-0.00894912,-0.003504333,-0.00030592474,0.0040996214
motor,-0.008201968,0.00019248092,0.0060381303,0.009545565,-0.0027951195,0.0017230108,0.0064384267,-0.001933885,0.0018614496,-0.009379639,0.0006720556,0.00449788,0.0045598936,-0.009743734,-0.005130723,0.0029799629,0.0015776472,-0.0047515915,0.0058580595,0.0033912444,-0.007878722,0.009922817,-0.007806266,-0.003019111,0.009700961,0.0010874782,-0.005550402,0.0010457768,-0.004131997,-0.0068349377,-0.007701679,0.004805982,-0.009035025,0.004053774,-0.0055180285,0.0055352487,-0.004358923,-0.005607136,0.006365899,-0.008771103,0.0013682711,-0.0021615678,-0.0067538386,-0.0075876852,0.0068052886,-0.0044271266,0.0046010534,-0.009692361,0.0019046566,-0.0019516954,-0.0058878204,-0.0027868561,-0.00862843,-0.003470781,-0.0025807857,-0.0022769277,-0.0051185256,-0.009202691,0.0053433045,-0.0012407749,0.006203961,0.003115921,0.008551139,-0.0035366649,-0.008945232,0.0013582367,-0.009059371,0.006054717,0.008430072,0.00050706667,0.0077298093,0.008578371,0.0042565903,0.0054655178,0.009229061,0.0012104323,-0.00827415,-0.008330843,-0.0018100821,-0.0006169752,0.008824271,-0.009232329,-0.0026085037,0.009182619,-0.0014887615,-0.009063878,0.00207971,-0.005746683,-0.005369894,-0.0063403067,0.00020947272,0.0073051495,0.0040488783,0.008263211,0.0089306,0.0045305793,-0.0060223173,0.0070002633,-0.009470178,-0.004850954
sda,0.008023353,0.007952057,-0.005433475,-0.008006031,0.008113999,-0.0038828186,-0.0040517985,0.007261754,0.005391474,0.0038093217,-0.0012565457,0.008651079,0.008452333,0.007000414,0.009079603,-0.0057762167,0.000992288,-0.0016676753,0.0063646147,0.0097068045,0.0051569655,0.0040854467,0.006485362,0.005884951,5.8788035e-05,-0.00835922,-0.0021795472,0.009063665,-0.005110852,0.0009667811,0.0049054367,-0.0069327108,0.008198068,0.0014672675,0.0024401767,0.008322945,0.001466646,0.00087789394,-0.009423352,0.00981026,-0.009868889,0.008527708,0.0050487383,-4.258329e-05,-0.007845902,0.009374241,-0.0013997218,0.0053354627,-0.0030347998,-0.0048824376,0.00017166384,-0.0080037825,-0.0066295634,-0.009443683,0.005377147,0.00041901693,-0.000911742,0.0051039876,-0.0019681307,-0.007370444,0.0028613664,-0.0059509007,0.0005021884,0.009471687,-0.00097561564,0.006173683,0.0044561503,-0.0035455602,-0.0052653416,0.008883405,0.0021061266,-0.00045176074,0.0009256737,-0.004918411,0.0035794594,-0.0031083585,0.0042100744,-0.0045264373,-0.00081051356,0.0039058218,-0.007154277,-0.0024483725,-0.008733823,0.0015952414,0.0020268594,0.002424596,0.0011236157,0.00014806878,0.0022522612,-0.00095629826,0.0059612035,-0.0029315525,-0.0051334705,-0.0052996855,-0.00962054,-0.008128956,0.0021538234,0.003957649,-0.0057727504,-0.009691583
vehicl,-0.006148807,0.004681763,-0.00908799,0.005065391,0.006394748,0.0060619237,-0.0075757788,0.0028838282,-0.00549583,0.009011229,-0.004333936,-0.0024130938,0.005249905,-0.0008020454,0.005115803,-0.004206613,0.00497631,-0.009822495,0.0060962634,-0.0012922507,-0.0056324946,7.517408e-06,-0.0012508347,-0.0006925006,-0.0017758717,-0.009308337,-0.007828048,-0.006841952,-0.008651658,-0.0045607486,0.009209142,-0.0018083856,-0.007613245,-0.005916862,0.003610068,-0.0026863418,-0.0015478608,-0.0042491173,0.0059642564,-0.007865898,-0.007471721,0.007492741,-0.006978711,0.0021614262,0.00039342954,0.009707292,0.0042309766,0.0020613438,0.0027667133,0.0023479278,0.0021861934,-0.0027307197,0.004096551,0.0060942047,0.008937606,-0.00073450216,-0.0011930802,0.006455988,-0.008474527,-0.000620387,-0.006682758,0.0047832597,-0.00895103,0.00325158,0.008994385,-0.0020495036,-0.008841034,-0.008172632,0.0032459244,-0.0053172256,0.006446472,-0.0012128473,0.007902808,-0.00048533877,-0.0061930115,-0.005696852,0.0007550048,-0.0047573056,0.0065544974,-0.0035169488,-0.0056441287,0.000988427,-0.004869683,-0.008171723,-0.005276931,-0.0018434972,0.00046419754,0.0036861284,0.006921536,0.006727471,0.0058986037,0.00033969208,-0.005841518,0.0090542855,-0.0006288175,0.004723022,-0.0014129863,0.0057584485,0.0053254105,-0.007316541
casda,-0.0027567695,0.00013631121,0.002044784,-0.009305278,0.004857219,0.0033342384,-0.00013811987,-0.003472261,-0.007638509,0.0075745233,-0.008630324,-0.0074037854,0.004456368,-0.008530527,-0.0032821384,-0.0020804605,-0.0018962943,-0.0068301577,0.00429903,0.0009776826,0.0036344407,-0.0013299152,0.006937945,-0.009544364,0.0058215545,-0.0051262667,0.0016965384,-0.006952031,-0.0024961422,-0.0064583016,-0.0033407705,0.009724628,0.002699531,0.0016187164,-0.006062946,0.005608515,-0.008115091,-0.002293692,-0.0064606946,-0.00637842,0.0022946312,-0.0033079563,0.0024248494,0.0039272886,-0.0062480713,-0.0017435077,-0.0027461522,-0.009819461,-0.009833757,0.0011116307,0.004389126,0.0002552248,-0.004868441,0.0036542276,0.0016784607,-0.009425563,0.007202498,0.0077843023,-0.0077243485,-0.000756096,0.0060233525,-0.0027687075,-0.0003436892,-0.004202904,0.00611793,0.007021591,0.0020842557,-0.0047040577,-0.0018185242,-0.004000904,-0.009786293,0.007820393,-0.0005920407,-0.0005839495,0.0071052164,-0.009025492,0.006324093,-0.0075674104,-0.0053405897,0.00510177,-0.00350856,-0.0034473757,-0.006305604,-0.003885806,-0.0026580333,-0.004079808,0.009478151,0.009487786,-0.0003551771,-0.00027848722,-0.0056379614,0.007919912,-0.004942063,0.00588944,0.009169164,0.005755617,-0.00091888197,0.005516796,0.0069461833,-0.0038880152
upper,0.0006677267,0.00649447,0.0058872835,-0.00019801942,0.0023990842,-0.0065646577,-0.009365583,-0.004902425,-0.005417094,0.00058417,-0.0039968574,-0.00038296953,0.0076320646,0.009742362,0.00790793,0.0023663463,-0.0027185946,0.0024031764,-0.0026853357,-0.008969845,0.006920683,-0.0086426195,0.003777765,-0.0039596143,-0.0055686277,-0.0010530044,-0.006551684,0.008596847,-0.0068781064,-0.0089582205,0.0057944627,0.004461163,0.0047302707,0.0024158359,-0.003698081,-0.0050796657,0.0017698243,0.008362509,-0.0056542074,-0.002411252,0.0018503036,0.006697059,-0.006392927,-0.0044914465,-0.002622238,0.0013402291,0.00534529,0.005567191,-0.008717511,0.007287449,-0.0024977583,-0.002847757,-0.008861523,-0.0057687205,0.009439393,0.0030627153,-0.008030599,0.002800209,-0.0070922747,-0.009045698,0.0038727194,0.0020620166,0.0012509588,0.008812745,0.0062617944,-0.005073348,0.0027461727,0.00259902,0.0023794135,0.008336693,-0.006918673,-0.0022947523,0.0010352532,0.0064076977,-0.00063082605,0.007951062,-0.004632039,-0.009012606,-0.007066499,-0.0041258787,0.009580054,-0.005075489,-0.004878674,0.008196481,-0.0074304594,0.0020319214,0.005717519,-0.0074974988,-0.00023970344,-0.0023747107,0.0056023165,-0.0045291767,-0.006616256,0.0099294325,-0.0046033524,0.007604345,-0.008444124,0.006993431,-0.0033694506,-0.007847062
pulm,-0.0011976179,-0.002306101,-0.001829715,-0.0011672259,-0.006516247,-0.0036605282,-0.0031398432,0.0078080287,0.005802943,-0.0009238684,-0.0048602438,0.005276429,-0.008804983,0.0016802411,0.004044925,-0.0019410753,-0.0045340415,-0.008255109,-0.008275596,0.0070678927,0.0036489388,-0.00035102386,0.009666703,-0.0085798185,0.000545949,-0.00043984302,-0.008048462,-0.009127369,0.007163186,-0.0036653248,-0.007832244,0.00794698,-0.006293185,-0.003121849,0.0017991633,-0.0032926158,-0.007924803,-0.003921792,-0.00900961,0.0013473902,-0.0046252753,-5.7136323e-05,0.0026863422,-0.002344281,0.008879774,0.0070434273,-0.0005517179,-0.0006639289,0.00088573655,0.0067041423,0.00898366,-0.001927726,-0.0015824959,-0.0029572172,0.0005139,-0.006461933,-0.0018580122,-0.008673419,0.0006561926,0.0014719513,0.003745774,-0.0028417266,0.005959058,-0.0071076783,0.009838158,0.00058131904,0.0022453184,0.0043772804,0.00038134135,0.0026015337,0.0015798379,-0.009606436,-0.0031037715,-0.0025598821,-0.009225986,0.0034855427,0.0047704466,-0.0020491125,0.0074120206,-0.0012064964,-0.00029355905,0.005869834,-0.00851233,-0.0068691783,0.007390173,-0.0065784957,0.008528175,0.0054457444,-0.007965247,0.008392973,0.006378412,-0.0066772336,-0.008507678,-0.008782214,0.0039130743,0.0063307607,-0.002071334,0.0013117654,-0.008398256,-0.005171207
mitral,0.0046941107,-0.009045047,-0.009256325,0.0009965126,-0.008581363,-0.006990189,0.00478234,0.008046852,-0.0073773433,0.008082454,0.009370093,0.0046862485,-0.004404198,0.009700049,-0.007706156,-0.0038805357,0.0019351786,-0.0076655475,-0.009872306,0.0028191013,0.008183878,-0.005065665,-0.0043239663,0.0039010004,0.00069532247,-0.008533272,0.0065482957,-0.0031884606,0.003557105,0.0031276757,0.00888354,0.008744607,0.007294248,-0.0082979575,0.0012197113,-0.0009260023,0.00088390376,0.008912223,0.0047700224,-0.008973531,0.009812007,-0.0009202618,0.00039262907,0.0049767606,-0.006170928,-0.0003867989,0.0013910054,0.007034497,0.0042822715,-0.0019170317,-0.008464642,-0.0038772176,0.008792983,-0.009476811,0.009855986,-0.0001502998,-0.001118085,0.009588039,0.009543856,0.008279726,0.009025061,-0.0099662775,0.0075184614,-0.009371939,-0.0077243587,-0.008819123,0.0021082817,0.0071996204,-0.006323893,-0.0026727258,-0.002338533,-0.004499879,-0.0012847757,0.004877757,0.0037351183,-0.0032177856,-0.0037272775,-0.002323187,-0.0032444196,0.003956497,0.009759283,0.007897047,-0.007595848,-0.0064288056,-0.009116206,-0.005914023,0.0036759218,-0.0059808167,0.0017119979,0.0089031,0.0033777591,0.0012017606,0.008901772,0.006467392,-0.0014064953,-0.0061884257,-0.0010358077,0.007245661,0.007473764,-0.004072921
cancersda,0.009930685,0.002413248,0.005133982,-0.0056714965,0.004379806,0.00024135869,-0.009593238,0.0050776107,-0.009025613,-0.006479352,0.0027940327,0.009278028,-0.0021095893,0.0069917706,0.005079802,0.0040595676,-0.0061859735,0.0050707613,-0.008308967,-0.004315367,0.005440169,-0.008159774,0.005735077,-0.0034901192,1.8329056e-05,-0.0073460797,-0.0062597087,-0.0033154215,0.008605096,0.005348296,-0.00969936,-0.0065777786,0.003424705,-0.008510251,0.0066645923,0.0061668977,-0.009299271,0.008644291,0.007834509,-0.0018010155,0.0017661416,-0.0056922217,0.006214747,0.00770762,0.004039739,-0.008861017,0.004953658,-0.0030641137,-0.0022208414,0.006101278,0.0018423297,0.004623998,-0.006286726,0.0052355276,-0.003528588,-0.0003937496,0.0062218094,0.0040796283,0.007475664,-0.0039298795,0.003541678,0.0073086834,-0.0032783574,0.0057633957,-0.00942353,0.008854843,0.0037576319,0.005304466,0.004646166,0.0045722136,-0.0033095344,-0.006212148,-0.0022950126,0.0013864901,-0.0029394096,-0.00846588,-0.006298104,0.008339194,0.009327274,0.005964974,-0.004105788,0.0006987737,-0.008576769,0.006670217,0.00045978397,0.007385889,-0.005370525,-0.0028387741,0.002872322,0.003467953,-0.0065493025,-0.007363974,0.002017254,-0.0090026455,0.0058012977,0.0054707914,-0.0037962538,-0.00564378,-0.008323104,-0.0019102154
gastrointestin,0.006980543,-0.00021335097,-0.007946215,0.008890322,-0.008549819,0.0055521266,0.006473522,0.0009857233,-0.008704294,0.0061730472,-0.007854942,-0.005014564,0.00963006,-0.008276031,-0.007621161,-0.0049085524,0.0034594361,0.0019148032,-0.005557309,-0.0032823263,0.0085899085,0.009762032,0.0099093225,0.0010330329,0.004035785,0.0013647628,0.0016696044,0.0048343292,0.0021980065,0.0003003627,-0.0031401908,-0.0065238997,0.007989131,-0.0059690615,0.0027877027,-0.00091396004,-0.0036617937,-0.0049397782,0.0032170534,-0.0058645825,-0.0074944575,-0.0026475252,0.004687759,0.0060490216,-0.0014535814,0.0072921533,-0.00759582,-0.004735789,-0.007863153,-0.0060472237,0.0072997515,-0.009285001,-0.0086477725,-0.00981228,0.009205847,-0.0026636343,0.0009900224,-0.006126183,-0.0025359546,7.6828816e-05,-0.0024962397,-0.0073698345,-0.006193527,0.0025267703,-0.009493253,0.0011523189,-0.0019837618,0.008281476,-0.00039245217,0.0062073315,-0.007089577,-0.0075614583,0.0055459593,0.00094202306,-0.005080521,-0.0026533646,0.00877158,-0.009176151,-0.0036796285,0.0010088445,-0.00021601477,0.009524642,-0.0019441702,-0.0070845075,-0.0076802108,-0.00989648,-0.007815968,-0.006040046,-0.0059394618,-0.0014037064,-0.00053658115,-0.0047089923,0.0021437244,0.0038692106,0.009038243,-0.004647691,0.005132715,0.00724574,-0.003752715,-0.0074399756
infect,-0.0033489019,-0.0068728155,0.0064919475,0.009367482,0.00827269,-0.008619601,0.005074775,0.0051281885,0.005612565,-0.008363616,-1.0748921e-05,-0.0068488778,-0.008913754,0.0025328756,0.009936745,0.006502865,-0.0070821955,0.0023211471,-0.0039112414,0.009905696,-0.008790631,0.0097265635,-0.006544628,-0.007012552,0.0015981698,-0.0006786078,-0.008503728,-0.0006307482,-0.00036334852,-0.006302908,0.005790517,0.0031749317,0.008381454,0.0074199643,-0.0066318414,0.0048050676,0.0057223327,0.005784596,0.0052040694,-0.0048053265,0.0043153367,0.0013138839,4.3982873e-05,-0.0064793415,0.0015395862,0.0052781217,-0.009220618,0.008610888,0.003018433,-3.368869e-05,-0.0033582766,0.00035302434,0.0061016046,0.0047808993,-0.005949208,0.007908172,-0.00062943884,-0.008167351,0.00887291,0.0050842217,0.0036457093,0.007931351,-0.0075302697,-0.0058536716,-0.0020043724,-0.004079481,-0.0016078495,-0.000596737,-0.008401871,0.0019089759,0.0025621413,-0.00084759446,0.004882663,0.0014653344,0.0059956927,-0.002217168,0.008519036,-0.0015645127,0.003079057,-0.00376426,0.0061216075,0.0031127122,0.0005360214,0.008796006,-0.007850705,0.009698367,0.00078466575,-0.0023343596,-0.0040874085,-0.009115863,-0.0022020556,0.0027200426,0.0065739467,0.009098319,-0.008730941,0.009055665,-0.008805039,0.00370477,0.00803531,-0.0025038102
diseas,-0.007884908,-0.008307343,0.0011426931,-0.0007523954,-0.009497751,0.0030320706,0.0023163105,0.0044866344,0.0044050007,0.0032118734,-0.009830505,0.0057391208,0.004271395,-0.007769245,-0.0021004986,0.00036306103,-0.00064594205,-0.0010008197,-0.005539387,-7.3791925e-06,0.004390455,-0.00061873737,0.0007634441,0.002082698,-0.003991633,-0.007891295,0.009179108,-0.009798056,-0.0024939156,-0.0013059138,-0.007613118,0.0017528122,0.007942053,-0.0015463867,0.008117144,0.0003636955,-0.0057604215,-0.0019554193,-0.0007160691,0.006223611,0.007139838,0.0061595277,-0.0060445108,-0.006971558,0.0061219037,0.0024725264,0.0053317277,0.0004474924,0.0078786025,-0.008890138,0.009902661,-0.008252207,-0.0017093081,0.0063018627,-0.009248129,0.0043464685,-0.0069600744,-0.0068601384,0.0022738941,0.001786806,-0.002785402,0.007889019,-0.0069621233,0.00042444014,0.008727977,0.002058855,-0.0069001624,0.003556305,-0.0050668763,0.00057353603,0.0028309284,0.0076365066,0.0074601118,-0.0048603266,0.009569213,-0.005492138,0.0075789015,-0.007963687,-0.007833019,-0.0011110741,-0.008160033,-0.0033988894,-0.00054407795,5.1012285e-05,-0.00995537,-0.006498316,-0.007385043,-0.0003267674,0.005242261,-8.819285e-05,0.009989105,-0.0038364204,0.0080485,0.006117453,0.00834231,0.00010681189,-0.00040702938,0.0018494994,-0.009920405,0.00898612
lung,-0.002376994,0.007567236,0.0020387464,0.0028680472,-0.0012326362,-0.009933154,0.0014315307,0.002924536,-0.009841141,-0.0039620134,-0.0023575372,-0.0051038377,0.003978338,0.0020916394,0.00436019,-0.0065073664,-0.006010824,0.0046969955,0.0068176,0.005492453,0.004793495,-0.0072328155,0.008152857,-0.0069511733,-0.007706266,0.008512189,-0.0024810217,-0.00944427,-0.0030966986,0.00594841,-0.00290582,0.004941313,8.051773e-05,0.004039298,0.0011850881,-0.009295461,-0.003653651,0.008836726,0.0015360613,-0.0059467377,0.0070343413,0.0074359793,0.0072221183,4.6930705e-05,-0.009133277,-0.0035067594,0.0051577464,-0.0065372842,0.009746451,-0.00977463,-0.00812826,-0.005326129,0.006016313,-0.0076629673,0.00864314,-0.0098975655,0.0034956757,0.0032830045,3.4134122e-05,0.00955216,0.005138449,0.00030981298,0.0048527005,0.006416215,0.0029997125,0.009424932,-0.0013563157,-0.008380412,-0.004510308,-0.0014735406,-0.0072626644,-0.0015300685,0.00799885,-0.0050112302,0.0051550125,0.0043966086,-0.0007238699,0.001104657,0.0057003517,-0.0066448874,0.003902825,0.008951502,-0.0035263025,-0.007607526,-0.0092098685,-0.009019012,0.003915014,0.0051699337,0.007050293,-0.0014596521,0.0009913347,0.0030970573,-0.009906844,-0.00938588,0.0046356935,-0.008395636,-0.0031475653,-0.0043331734,0.005943519,-0.0034748137
basal,0.010000211,0.00058491016,-0.005147322,-0.0036431688,0.0012550532,-0.0054422384,0.0074543688,0.009119153,0.004288684,-0.0073572053,-0.00597817,3.8384624e-05,-0.0009863958,-0.0054995557,0.007980522,0.006271749,-0.0042127725,0.0023579665,0.0051278505,0.0023985927,0.008593598,-0.0012823737,-0.00655999,-0.00085032673,-0.008362703,0.009864627,-0.008606907,-0.0015243117,-0.0028897778,0.0031274061,0.0050250916,-0.0082629295,-0.0044234097,0.00050214067,0.0040244143,0.005155353,-0.0013463241,-0.0006263084,-0.007848605,0.0045292852,-0.007671433,0.0032755819,-0.0034435194,-0.0077917124,0.0069412473,-0.0004463679,-0.009584393,-0.009392681,0.00059419556,-0.008207119,0.0037716809,0.0034839972,0.0033401588,-0.0056005944,0.007997949,-0.008988347,0.0074718446,-0.0006211005,-0.0014754169,0.004002881,-0.0024772075,-0.0043706,-0.00238449,-0.006239652,-0.0003772228,-0.005364287,0.004603704,-0.0095341345,-0.004349197,-0.009181785,-0.00962336,-0.0007399445,-0.008091486,-0.0056810067,0.0028182776,-0.0014274,0.0031085792,0.008275905,-0.009673822,0.0061140517,-0.007974297,0.0066131013,0.0074605276,0.00862552,-0.007944653,0.0033608512,-0.0078108474,-0.0011997801,-0.0051900325,-0.008569855,0.0049511446,0.004475318,-0.0040790094,-0.0077493214,0.0036220406,-0.0039223465,-0.008808784,-0.004426403,-0.002188872,0.008725874
urosepsi,-0.0064564645,0.0073323892,0.0061229146,-0.004908136,-0.001758852,-0.0025048994,0.0031226445,-0.00045303107,-0.0027636087,-0.009045644,0.0064344313,-0.009615391,-0.008650444,0.0013819778,0.0029734327,4.7421454e-06,0.00037010072,0.0025892723,0.0018025708,0.007568313,-0.003446393,-0.0072333897,-0.00788418,0.007919614,0.0019462728,-0.005807856,0.006391193,0.008453579,0.007946606,-0.0068279803,-0.0051414394,-0.0020103382,-0.0066176713,0.004728824,0.005664438,-0.005995921,0.007199256,-0.007656555,0.0062029026,-0.004625329,0.0019614566,-0.0032713367,0.0033896612,0.0077184713,-0.0013945032,-0.004985187,-0.00856165,0.0036374521,0.004231018,0.0066972245,-0.004289763,-0.009732989,0.006821517,-0.0045247437,0.0044197715,0.008054533,-0.0039428137,0.0016341746,-0.0035891545,-0.0066137468,-0.005684339,-0.00013659001,-0.0075132754,-0.0019958054,-0.002487917,0.0067084394,0.0013637447,0.0058521964,0.0038193201,-0.0035164417,-0.005091473,0.009661293,0.007070396,-0.009044231,0.0052457834,0.008193034,0.0091923,-0.00805466,-0.0020131744,0.0010854984,0.0029083753,-0.001621958,-0.004704926,0.0064684176,0.006932578,-0.00038987756,-0.005843141,-0.0043717623,-0.0051488746,0.0042562988,0.0005137396,-0.002359662,-0.009084906,-0.0014964581,0.006431346,0.006324997,0.0042235423,-0.0028758978,0.00905161,0.00060097576
sepsispneumoniatelemetri,0.0011347234,0.006174861,-0.006593491,0.0065341983,0.009794316,0.0036727618,0.0034324396,0.004196546,-0.0019464791,-0.008096277,0.0014800942,0.0009046066,-0.006797297,0.0019593919,0.005443902,-0.007177912,0.0025119793,0.0077667725,-0.008621219,0.0035135662,-0.008564608,-0.007937057,0.007091025,-0.007565397,-0.0013685488,-0.007928683,-0.0078653935,-0.007103605,0.00040596127,0.001794883,-0.007906519,-0.008049076,-0.003180132,-0.001824404,-0.0061704637,-0.004226774,0.0036070598,0.0030711652,0.0065946756,0.0042466833,-0.00088664773,0.0027672017,0.009049989,0.001908176,0.0018196488,0.0011240005,-0.009286896,0.005351924,0.005043949,2.553463e-05,0.009212247,-0.0057180882,0.0032491565,-0.007811786,-0.0089405645,0.0020009638,0.004744922,0.0061003957,-0.008687585,0.0043530716,0.002398505,0.0041559553,-0.0006745219,0.005543709,0.007291638,-0.008386932,-0.009932266,0.0070149074,-0.00095197203,-0.009374607,-0.0040858854,0.0011912441,0.008426614,-0.0016904592,-0.0010216295,-0.0073646666,-0.007652612,0.0014624643,-0.00047345756,-0.0077002333,0.0008799255,-0.008988475,-0.002477033,0.0042172647,0.0011170149,0.007830691,0.006585375,-0.0011890733,0.0049564564,0.006129242,0.008731773,0.009078525,0.0049281693,0.0046114624,0.007185029,-0.0015663934,-0.005649698,0.008868068,0.0012105549,-0.0050547267
ganglin,-0.00085068226,-0.00520615,0.009106976,0.0034213746,0.0042930944,0.0064718053,0.0082251225,-0.004751715,-0.0063762516,-0.0037444646,-0.0037212216,-0.009484111,-0.0006068172,-0.00809733,0.0098040765,-0.0033849243,-0.0063375765,-0.008143333,-0.0035527393,-0.0095683765,0.00080126186,0.005458303,-0.0028928288,0.0076605,-0.001888431,-0.007279733,-0.003146728,-0.0031707515,-0.0071183657,-0.009725756,-0.0040363106,-0.0016151024,0.004985392,-0.007633596,-0.0049770377,0.0013816368,-0.0016608983,0.0035669098,-0.0018797369,0.0042860643,0.008008834,-0.007945665,0.0037513138,0.006028803,-0.0005433158,0.00682083,-0.005439764,-0.0045926077,-0.007845904,0.009493172,-0.009413543,-0.003262662,-0.00042625584,-0.004863176,0.009477223,-0.0068385834,-0.008021437,0.009245687,-0.008341204,0.009712467,-0.0040965592,0.0057104276,-0.00039725384,-0.00402547,-0.0075201727,-0.0062701683,0.006822374,0.0063583166,0.00015907965,0.006434341,0.0038469322,0.0038118411,0.0027032364,-0.0097218985,0.009292851,-0.008232767,-0.0030471,0.0014472938,0.0052305856,-0.009226256,0.0016705014,0.0064029796,-0.008796411,0.009577578,-0.005213938,0.009556998,-0.0064866175,0.006634602,0.009389363,-0.009266436,0.00030891295,-0.0077309087,0.008122711,0.009632818,-0.006021203,0.00085742096,-0.002222697,-0.007794566,0.00079089287,-0.009932729
motorcycl,0.0026332939,-0.0077010687,0.0056768334,0.007585059,-0.0025320796,-0.004021499,-0.009600464,0.0049511143,0.0029070594,0.008769391,0.0032829528,-0.0028976789,0.0035677466,0.008650875,0.009252906,0.0076687373,-0.008561445,-0.007588091,0.0072952514,-0.007463278,0.0032519505,0.0080714775,-0.0032378032,0.0067779752,-0.008146681,0.006462651,0.0056104595,0.0033443582,-0.008136312,0.009165373,0.00825567,-0.0015697343,0.004109324,0.0063603004,-0.0017377626,0.0055034542,-0.004030455,-0.0012705987,-0.0012064219,-0.0041791936,-0.000710108,-0.00770322,0.00362114,0.009067612,0.0047977334,0.006404206,-0.0047314134,0.0048505976,-0.006696106,-0.004967713,0.009879528,0.0063969465,-0.0050007496,-0.006080552,0.007253828,0.0027054907,0.006598317,-0.006743886,-0.0009666192,-0.0009135088,-0.00022383682,0.0022177529,-0.0067605004,0.0043839253,-0.002759669,0.0083583975,-0.001063435,0.009168634,-0.0008571924,0.005218965,-0.0075941137,-0.009112866,-0.00032521837,-0.002271884,0.009992177,0.004513187,-0.005581982,0.0073711597,0.0005792551,-0.009555808,0.0057176193,-0.0019994956,-0.009441935,0.008740109,0.0072476044,0.008571471,0.00036424628,0.0077067786,0.0052145403,-0.0069471314,0.009303366,-0.0035450323,-0.009773467,0.008578271,-0.005291882,0.008398807,-0.007843891,0.009266644,-0.0058929874,0.003990255
seizur,0.00978409,0.004202155,-0.002127043,-0.0049552466,-0.009720695,0.004206293,0.0074358927,-0.004736222,0.005920967,0.006840651,-0.009016923,0.0020980537,-0.006839578,-0.0043298863,0.000856843,-0.007028967,-0.0041387584,-0.0075126137,-0.00702773,-0.006938139,0.00991433,0.008322913,-0.00018445491,-0.0026248468,0.0062486185,0.00133919,-0.008993888,-0.0070596277,0.0010280252,0.007934226,0.0031984712,0.009840041,0.006552087,0.0002949798,0.008651973,0.0089997705,0.008059152,0.009402272,-0.009382622,0.0035131024,-0.007812917,-0.0071413503,-0.008426254,0.0032024991,-1.05130675e-05,-0.0063514053,0.0055457377,0.007904219,0.0042972374,0.007832834,-0.0042779446,-0.006389071,0.003979193,-0.0029255378,-0.0071752034,0.003670503,-0.0033224297,-0.0051983013,0.0026289714,0.0068538594,0.006401373,0.00014903903,0.008650059,0.0029431654,0.006568195,-0.00089957,0.0021090256,0.006163751,-0.009793651,0.005828723,0.0012870133,0.006084757,-0.0014455986,-0.0026966953,-0.0055811987,-0.0028463923,-0.0025709784,-0.005147079,0.00097062945,0.007990416,0.0051383795,-0.0076500797,-0.0074191405,-0.0028935408,0.0039071646,-0.009318068,0.0061217356,0.0031166517,-0.0028216827,0.00919409,0.008061082,0.0007147682,0.004828162,-0.00930287,-0.008788269,-0.002946515,0.009276314,0.003234347,0.0056125904,-0.00677065
cancershort,0.0042560245,0.00042542603,-0.00091315166,-0.003268499,0.004988051,-0.009149635,0.005156358,0.0057175,-0.002467246,-0.0042346725,-0.007408921,-0.0064092935,-0.00507088,0.003160566,-0.0047671525,-0.0012022626,-0.008932531,-0.003555782,-0.0007578476,-0.008008306,0.0032582295,0.009767749,0.0043947306,0.0018814354,-0.0049051223,-0.0011536,0.0022705228,0.0017090836,0.008811766,-0.00096341735,0.0070051122,0.0057973037,0.0030311965,0.0073191766,-0.0049404264,-0.003915406,0.0069878227,0.008628713,0.0031528764,-0.004141295,0.0076598995,0.002694391,-0.00024494593,0.008920904,0.0043464852,0.0039705746,-1.7674534e-05,-0.008976994,-0.0031243807,0.0024649028,-0.0056053894,0.00714586,0.0074448376,-0.008950709,-0.0054030996,-0.0060019456,-0.00065797474,-0.0018090522,-0.0020751336,-0.0021859491,0.0035959315,0.009639389,-0.0045783115,-0.008300142,0.0037090317,-0.0064694895,0.0066630132,0.0026991267,-0.007888385,-0.0077381786,-0.009249268,0.0023758388,0.0027788584,0.002664892,0.00022945482,0.0010797577,0.0030618864,-0.0015359217,-0.0080511505,-0.0006113675,0.003723987,-0.0025493826,-0.0021457651,-0.00224568,0.007268908,-0.0030312056,0.009491141,-0.0038181439,-0.009951592,-0.0065708463,-0.00435059,0.0012660096,0.005123969,0.0021774648,0.009104702,0.0009176204,0.005675682,0.00014261657,-0.0021314893,0.0061771967
metastasi,0.002033121,0.008289175,-0.008298776,-0.008771049,-0.0005133807,-0.001955856,-0.0022975719,-0.0005604541,-0.005102054,-0.008048417,0.00822087,-0.0033680508,-0.0028167346,-0.0016303975,-0.001232973,-0.009195819,-0.0017976523,-0.0013573309,0.008649971,-0.008004355,-0.004734264,-0.0018714993,0.0028497153,-0.006005128,-0.005573743,-0.007992516,0.0055137887,-0.008753717,-0.0032609252,0.0002537494,0.0014611849,-0.009941079,0.00866681,-0.002068275,0.00037488408,-0.008753835,-0.008160273,0.0037692327,0.00401109,0.0029358342,0.005846854,-0.006945951,-0.0012516723,-0.0027072714,-0.0013745506,0.0044906554,0.0013425966,-0.0074451678,0.0032800746,0.006275066,-0.0061087455,0.0032516168,-0.004308804,0.008832979,0.0041393363,0.002032815,-0.0010370581,-0.009126254,0.008643017,-0.0018130315,0.0073627676,0.0037931222,-0.008243472,-0.00063111493,0.0027224678,-0.0025370594,0.009727897,-0.004967929,-0.007185346,0.0038270194,-0.0035755192,-0.006885153,0.0020544473,0.0052779457,-0.0054911147,-0.004367881,-0.0071700015,0.0015500124,-0.004786528,0.00845973,0.0006883781,0.0019055626,-0.0033643362,0.007404803,-0.000650754,-0.008216052,-0.0073029133,0.00024145989,0.0077948156,0.003088494,-0.0053112144,-0.006727234,-0.009880558,0.003956149,-0.009487455,0.0031796338,0.0016911662,-0.0008336383,-0.00994496,0.0058768652
hematomasp,-8.9492394e-05,-0.00993249,-0.0075363405,0.008587517,0.0019027713,-0.008214357,-0.00079758134,0.0054142275,-0.009333757,-0.0068836575,-0.0010328079,-0.009803781,0.00048985484,0.0019724448,0.0085575245,0.0009904382,0.001295063,0.0048808097,-0.004284832,0.0072121276,0.00015008576,-0.0006641446,-0.009719562,0.0005010861,0.006791589,0.001743648,-0.008104355,-0.0033286838,-0.0060552685,0.0059996513,-0.00643964,0.0052639293,-0.005262644,-0.006844574,-0.0076050875,0.0038246685,-0.008805977,-0.005698967,-0.007050697,-0.0043376777,-0.004021931,0.0014799606,0.0064784004,-0.0011878021,-0.0054844734,0.0015648736,0.005635178,-0.005286676,-0.005331913,0.0051926714,0.0062655825,-0.007785385,0.008217496,-0.009841509,-0.007432042,-0.0058591845,0.0018109542,4.708598e-05,0.0034514277,0.0070361956,0.004790199,-0.0031949675,-0.0064219395,-0.008265831,-0.0005085604,0.00973941,-0.0076942774,0.003654256,0.004396409,-0.004317545,-0.00698284,-0.0054410812,-0.005025535,-0.00699359,0.005962199,-0.007766559,-0.0029423577,0.0043906337,0.00016938213,-0.0076908646,-0.004691392,0.0036093248,0.0025231724,-0.0019424272,-0.0007315413,0.0025560001,0.0014440215,-0.0026306757,0.0053690947,-0.007668779,0.006370003,-0.009983582,-0.0022607092,0.0067069577,-0.0035987678,0.006537155,0.0054519745,-0.0074085603,-0.00023715674,-0.004502669
cath,-0.008043791,-0.00088920427,0.006385488,0.0087283,-0.005050998,-0.0026699374,-0.0060316464,0.0011837765,0.0026726807,-0.009851086,0.0024229814,-0.008805202,0.00040863533,0.00476932,-0.005245668,0.0002650795,-0.002181863,-0.008706667,-0.0023996262,0.0044394047,-0.008578499,-0.0059261443,-0.00054678274,0.008055131,0.0013839749,0.009759539,-0.007684728,0.008991382,-0.0047297226,-0.006358001,-0.007828192,0.0018346205,-0.0027476521,0.0075483783,-0.00051630166,0.0025142827,0.005968527,-0.008650152,-0.002080163,-0.0047911634,-0.00868377,0.0034279493,0.0024077492,-0.0024005875,-0.0019039616,-0.006721979,-0.0032693218,0.0012994816,0.0077457,0.0070811133,-0.0035997164,0.0036096084,-0.0026004827,-0.004730971,-0.0036152024,-0.0061607757,0.0034941395,-0.0077811372,-0.0075187823,-0.0044961683,0.0073898253,0.0018268432,0.005472422,0.008207914,-0.0062460797,-0.004616384,0.007682841,0.004936693,0.0046501583,0.009008068,0.008831478,-0.0026839273,0.0010477275,0.0054857717,0.008904645,0.009835894,-0.0082851155,-0.005118752,0.0049554696,0.0009433861,0.00015091832,0.0075190878,0.0063918885,-0.0072207106,-0.0025941122,-0.008485119,0.0070632403,0.0027970874,-0.0022216644,0.001861221,0.007672255,0.008135953,0.006162144,0.0031751248,0.0015528083,0.008123429,0.0013389857,0.00043167177,-0.009547097,0.002508027
b,-0.008446092,0.0064828526,-0.00578479,-0.0017546724,0.0009936203,-0.0018983302,-0.009122469,0.003995726,-0.0065793702,-0.008788107,0.003913887,-0.00077299925,0.006511036,-0.007021325,0.0007974296,-0.0006869724,0.0057322853,-0.009738416,0.0059470995,-0.009012268,-0.0077954233,0.00072865863,-0.0026818695,-0.0038920497,-0.0053181145,0.0041218614,-0.009310235,0.0011962634,0.004204861,-0.00029022095,-0.00048494744,0.007170862,-0.009570303,-0.009015367,0.0044466923,0.008739758,-0.0077900565,-0.008335407,-0.0006428914,-0.009065173,0.0021330614,0.009216387,-0.0061376845,-0.0067503247,0.008929819,-0.00077525584,-0.0037384238,-0.0027208233,-0.008745651,-0.004644927,-0.0041481736,0.00025744407,0.0006951111,0.007647238,0.006827102,-0.0015090514,-0.009992585,0.002587453,-0.006111304,0.0091068,0.0037952643,-0.0010090971,0.0066130534,-0.0034980508,-0.0036883205,-0.0003212469,0.008400187,0.005941194,0.0015575396,0.0037715754,-0.0030049244,0.009268273,-0.007134174,-0.0032290295,-0.005293709,0.008734448,-0.003130373,-0.0023853993,0.0071424316,-0.0096874945,-0.0028884644,0.0029067004,-0.0062627234,0.008761508,0.0011659117,-0.005236921,0.0049387617,0.008014994,0.0009511549,0.0068089813,-0.006827998,-0.0036045273,0.009936438,0.0056675905,0.0016184641,-0.0035022586,0.004438577,0.002516009,0.008380057,-1.5456248e-05
alcohol,0.008598148,-0.0058625476,-0.0076070745,-0.0014066212,0.0029679143,-0.0019842996,0.0058863484,-0.00842331,-0.009004711,0.0075788605,0.0063449373,-0.004084439,-0.0040258854,-0.003564235,-5.7972673e-05,0.009075925,0.0009672186,-0.002055109,-0.0034073868,-0.002093041,-0.009207189,0.006830223,-0.009036383,-0.0030984741,-0.0071151555,0.009063518,0.0057937857,-0.0004758044,0.003916527,-0.0024364756,0.009813113,-0.0036248676,0.004853522,-0.0037996462,0.009547993,0.00949896,0.0062357457,-0.00025450264,-0.0016875714,-0.008665895,0.0093420055,-0.008451188,-0.0065678465,0.0055756844,-0.0022806348,0.007976767,-0.007863694,0.00919736,0.0022519997,-0.008562823,0.003944977,-0.0049579474,0.0063831983,0.006600357,-0.008767754,0.006466366,0.005263375,0.0064898627,-0.0070627453,-0.0065638637,-0.0088702245,0.0052564396,-0.004019179,0.004807197,0.004797291,0.0080873445,0.0022316375,-0.0010924981,0.0014594235,0.002979875,-0.008774331,-0.005955352,-0.00094199175,0.0048913397,-0.0001600273,-0.009670537,-0.00064508297,0.0071530654,0.0063390965,0.0034671628,-0.0046014176,-0.0037182989,-0.0020744656,-0.0059998147,-0.008602239,-0.00057415897,0.0018002922,0.0048337798,0.0035913314,0.008557812,-0.006773333,0.00928681,-0.0033423651,0.0007966435,-0.0042643086,-0.004042497,-0.0014813618,-0.007503323,0.008976488,0.0045553716
regurgitationcoronari,-0.0022688112,0.0019427785,0.0077969464,-0.0056498535,0.0038462102,0.0006464416,0.0029410287,-0.0020639498,-0.00992023,0.005869236,-0.001432433,-0.00836254,0.0007471623,-0.0061308895,0.00773473,-0.0063957046,-0.001668389,-0.000430208,-0.0042762198,-0.003485331,0.00733834,0.0019252575,-0.009451908,-0.0002830372,-0.009550181,-0.0031902208,0.004939988,0.0036676088,-0.005768876,0.0014207461,0.0058480413,-0.0075041596,-0.0034311416,-0.0025025057,-0.008886824,0.0021754855,0.0064918436,0.002426601,0.0023695088,-0.0008919063,-0.0008003807,-0.006292417,-0.0005230286,0.006618464,0.0030071514,0.00055551843,0.007833452,0.00279042,-0.007436175,0.0073040677,0.009577365,-0.009098458,0.0072346306,-0.0075741424,-0.0003468308,0.0046203877,-0.0057374807,-0.00796787,-0.007318553,-0.00986589,-0.0066618696,0.009574879,0.002963734,-0.009081166,0.008482717,0.0072232024,0.0077990065,0.009633508,-0.008703245,-0.0021596956,0.002109199,0.0023818272,0.004855829,-0.0077098836,0.0048686797,0.009949052,-0.008995642,0.007923918,0.0031610548,-0.0041706455,-0.0015444034,-0.008456913,-0.0075133187,0.005539053,-0.0031299999,0.010003072,-0.0079860715,-0.0069681806,0.0062074736,0.007887986,0.0037697307,0.0072625196,0.006434343,-0.00571742,0.008766963,-0.0063323323,-0.0028382803,-0.006047339,0.006105198,-0.004429192
mvr,0.003083557,-0.0015538217,-0.0012040163,-0.0058702338,-0.005727419,-0.0036683022,0.00037083597,0.0015324902,-0.0033677043,0.0019142228,-0.005707368,0.00993483,-0.00078453345,-0.0069167446,-0.0018175917,0.007937245,-0.0011077853,-0.005183346,-0.0080183735,-0.0059411293,-0.0032040186,0.0077810865,-0.007327606,0.001462929,-0.000105267245,0.003931166,-0.007941307,0.007918825,-0.0028330062,0.005257839,-0.009453898,0.005092946,-0.008279767,-0.0032779013,-0.0011796062,-0.0035689098,-0.00071043783,-1.3645296e-05,0.0045160824,-0.0023280976,-0.004005218,-0.0062319296,0.008302543,0.004656815,0.009164971,0.0055229105,-0.0045936136,0.008248446,-0.006962576,0.0030298075,-0.0033355386,0.0002887719,0.003773504,-0.002806643,-0.0044151726,-0.001952191,0.00052169006,0.006441966,-0.005866973,0.004707303,-0.0037037677,-0.007930158,-0.005590907,0.0018560891,0.008774438,0.0078943,0.009118128,0.006904509,-0.0029923234,-0.0023732658,0.008801314,0.0064539104,0.0060614287,0.00693362,0.0016902821,0.0024055003,-0.008227062,0.0075671133,0.009433069,-0.0070589785,0.0011695158,0.008835631,0.0036318146,0.007000315,0.0076570683,-0.001903964,0.008924701,0.006088499,-0.0018350403,6.4374624e-05,0.009769593,0.0058617657,-0.0067171636,-0.0034184256,-0.0034341153,0.003155377,0.0011550726,-0.008663766,0.002204528,0.009546349
valv,0.0023740656,0.004359163,0.0019408711,0.008097955,0.0089232,0.003060357,-0.0023336743,0.0037177217,-0.0077934884,0.007960883,-0.004065044,0.0098534245,-0.009554314,-0.002551429,0.008934632,-0.004056017,-0.0019749969,0.0049681724,0.009340602,-0.00043544432,-0.006808313,0.010084578,-0.009630521,0.0012675339,0.005506603,-0.007847959,-0.0056567458,-0.009177793,-0.00014075782,0.0049082977,-0.008175354,-0.0030976976,0.008351929,-0.004526754,0.0031904653,0.0035907738,-0.0035372083,-0.0051832777,0.008323458,-0.002604798,0.00900212,-0.0024846117,0.0029827296,0.005637711,0.00062511937,0.0044524865,-0.0060047964,0.00839528,-0.001621852,-0.0044152974,0.0051306942,0.009957203,-0.0056460076,0.0008282332,0.00434355,-0.0027544093,0.0006478874,0.0088169435,0.007702935,-0.006410409,-0.0031883144,0.009249707,-0.0002884556,-0.009597379,-0.0007486025,-0.0067988206,0.0008690965,0.0008161653,-0.0044376375,-0.004552814,0.00881331,0.0046050423,0.002659938,0.0018872173,0.008337458,-0.004975857,0.0060849446,-0.0009379763,-0.0076917466,-0.009664534,-0.0017082227,0.008232293,0.002181034,-0.008923478,0.0012086394,-0.00362467,-0.003958542,0.008233112,0.0058892528,0.00032550076,0.0025286176,0.000999378,-0.009990202,0.0030909313,0.0072749797,0.0039882725,0.0025039308,-0.003640032,0.0023467606,-0.0076769013
replac,0.004206224,0.0024351669,-0.00041476288,-0.0006282967,0.0026713344,0.0021407378,0.0016039115,0.009187339,0.0034592815,0.0013396342,-0.0029733027,-0.006134978,-0.009286216,-0.003272371,0.004324322,0.007586968,0.00066127477,-0.0048383293,0.0036148091,-0.0039636777,-0.0007613868,0.008917966,0.008110676,-0.0004361149,-0.0059492947,0.003694018,0.009833245,0.00862657,-0.0019475741,0.0070723733,0.009318612,-0.009540196,0.008878108,-1.6314758e-05,-0.0052064243,0.0037427063,0.008995908,-0.0072648143,0.006863748,-0.006509636,-0.007786104,0.005434379,-0.004598404,0.00482371,0.007435579,0.009698624,0.0057230704,-0.008927924,0.003238468,-0.008987233,-0.0003586166,0.009848592,-0.0051005464,0.0041174055,-0.005767157,-0.008088884,0.008018419,0.0032540462,0.007342564,0.0029957553,0.0012050973,0.003726637,-0.008400863,0.006592003,-0.0045135156,0.004610221,-0.0055069253,0.0010397783,0.004005344,-0.0024498424,-0.007557617,-0.006019673,-0.009872455,0.0097416965,-0.004286927,-0.0010199958,-0.009060027,-0.0045563,-0.004905778,0.003047063,0.0056562913,0.0036101397,0.009851257,0.0019098378,0.009899119,0.007538792,0.002868047,0.0022479002,-0.007494177,-0.002393262,0.005700764,-0.008066133,0.002247972,-0.0075198,0.009728704,-0.000109066226,0.0009637742,-0.0048496556,0.006153439,-0.0071658175
syncopetelemetri,-0.007410362,0.0066182576,-0.0033724105,-0.00091466424,0.005359088,0.0045699333,0.0062081125,0.007027713,0.005616398,-0.00891883,0.005144527,0.009125321,-0.0040063607,0.0010816014,-0.0032792091,-0.0034029423,0.008693296,-0.00027982713,0.0034074627,-0.0055328486,0.0057739685,-0.0033548998,-0.0049688267,0.002191869,0.0097215315,-0.006131165,0.0035739136,-0.0009928012,-0.0071910145,-0.0043305624,-0.008219322,0.005589943,-0.0027526962,-0.0051993635,0.0009980166,0.00458894,0.009498108,-0.009735213,-0.0002757585,-0.001229682,-0.0027000736,-0.00053002476,0.008129929,-0.0018766213,0.009334334,0.0003780532,-0.0010646307,0.0069046007,0.006942637,0.00045891522,-0.00030289293,0.0063429163,-0.0038443613,0.0045933365,-8.502126e-05,-0.0060780393,0.006443784,-0.0040332736,0.0022166455,-0.00684589,0.0026867497,0.00557614,0.0051115416,-0.008073871,-0.005907736,0.007128726,0.0031156028,0.0010988164,-0.0061874557,-0.0013832616,-0.009224623,0.0012573279,-0.004568696,0.0007552326,0.004485375,0.0023915924,-0.0071189846,0.0008507061,-0.006719929,-0.0038795162,0.0018995845,0.0079723075,-0.0065113916,0.002336303,0.008144179,0.009908818,0.006166598,-0.007388672,0.0038613058,0.0088277925,0.00414773,0.0025157356,-0.0015901172,0.0035783374,0.004153396,0.008824278,-0.0038112819,-0.008750725,0.0065029035,-0.006219412
right,-0.0006014413,0.0014134423,-0.001189544,-0.0040356647,0.00085419527,-0.009692757,0.001405181,-0.004164561,-0.0058017564,0.003801953,0.0014516424,0.0036455973,0.0008905998,-0.009511623,0.009991126,-0.0035371091,-0.002192909,0.0071349777,8.357514e-05,0.0030460174,0.002260656,0.002389841,0.006764057,0.009477689,-0.0005776903,-0.0034269386,0.004548661,-0.008348126,0.008466603,0.002397706,0.005997027,0.0027988385,-0.0013349557,0.00096311985,-0.0047915927,0.009088424,0.0050285794,0.0035984141,-0.005011871,-0.008658819,0.00794748,0.0029432795,-0.0042680795,-0.0086558545,-0.003960045,0.001408126,-0.009196436,3.948574e-05,0.0028205141,-0.009944577,-0.00014436373,-0.0060729347,-0.0036061588,-0.0016347178,-0.009973443,-0.003617029,-0.007032364,-0.0073468983,0.0015959325,0.0023444907,0.009283737,0.00887042,-0.0063982923,-0.009234607,0.007881838,0.005420132,0.00693093,-0.0029340356,-0.00523776,-0.004558777,-0.008338309,0.0058849854,-0.003443377,0.008630889,-0.0056699673,0.009656365,-0.004511239,0.008668871,-0.0054240054,-0.007515279,0.0076515707,-0.009757623,-0.008785812,0.004967138,-0.009767044,0.0052787797,0.0036670126,-0.0070175743,0.003160286,0.0014493268,0.008645478,0.00289181,-0.0051208846,-0.0023382276,0.006858499,-0.0066242157,0.009313671,-0.0032007615,-0.004648601,-0.0043800757
failiuresyncopehyperkalemia,0.003081118,-0.009837857,0.0032136855,-0.004480568,0.009675816,-0.0050426335,-0.008001945,0.0035241565,0.0089496905,0.0027492975,-0.0022743375,0.0034993745,-0.008913991,-0.004139039,-0.0043878667,0.0018952037,-0.006312585,-0.0075857136,-0.0065237563,0.005281752,0.002736169,0.008814404,0.002307812,0.005288257,0.0043325857,0.004619994,-0.0049509495,0.0014318868,0.00027923135,0.005249665,-0.006587558,-0.0007152886,0.004019233,-0.0048447093,-0.008508137,0.005599056,-0.00087283074,0.00033349026,-0.00606595,0.008486425,0.0009115309,0.0017328871,-0.00041058747,0.00068610563,0.0057921917,-0.009235651,0.0023591055,-0.0055815657,0.009445464,0.00436548,-0.005496662,-0.0012357814,-0.005526104,0.008517359,0.009081743,0.0023163431,0.0096374,-0.004729023,0.0028126661,-0.00509764,-0.008768661,-0.0041558444,-0.0013836904,-0.005664024,-0.0045503983,0.0006373529,-0.00014001658,-0.008302422,0.0069257705,0.001568133,-0.009500129,-0.001427461,-0.0075967233,0.007585854,-0.0010389725,0.007828811,0.005022858,-0.004055161,-0.009072521,-0.006189727,0.008872205,-0.0015526708,-0.00030415884,0.00012547264,-0.008250908,0.004215798,-0.008191761,0.0094214035,-0.008114129,0.007903947,-0.0019637723,-0.0020610257,-0.002293017,0.0009921103,0.0024732375,0.0016262452,-0.0005719237,0.00757281,-0.006415784,-0.007891391
