,0,1,2,3,4,5,6,7,8,9,10,11,12,13,14,15,16,17,18,19,20,21,22,23,24,25,26,27,28,29,30,31,32,33,34,35,36,37,38,39,40,41,42,43,44,45,46,47,48,49,50,51,52,53,54,55,56,57,58,59,60,61,62,63,64,65,66,67,68,69,70,71,72,73,74,75,76,77,78,79,80,81,82,83,84,85,86,87,88,89,90,91,92,93,94,95,96,97,98,99,100,101,102,103,104,105,106,107,108,109,110,111,112,113,114,115,116,117,118,119,120,121,122,123,124,125,126,127,128,129,130,131,132,133,134,135,136,137,138,139,140,141,142,143,144,145,146,147,148,149,150,151,152,153,154,155,156,157,158,159,160,161,162,163,164,165,166,167,168,169,170,171,172,173,174,175,176,177,178,179,180,181,182,183,184,185,186,187,188,189,190,191,192,193,194,195,196,197,198,199,200,201,202,203,204,205,206,207,208,209,210,211,212,213,214,215,216,217,218,219,220,221,222,223,224,225,226,227,228,229,230,231,232,233,234,235,236,237,238,239,240,241,242,243,244,245,246,247,248,249,250,251,252,253,254,255,256,257,258,259,260,261,262,263,264,265,266,267,268,269,270,271,272,273,274,275,276,277,278,279,280,281,282,283,284,285,286,287,288,289,290,291,292,293,294,295,296,297,298,299
sepsis,-0.00017522383,7.998509e-05,0.0017025063,0.0029993982,-0.0031024362,-0.002379868,0.0021524006,0.002992333,-0.001675798,-0.0012576544,0.002463903,-0.0005134801,-0.0015143139,0.0021869477,-0.0016210572,-0.00060821907,0.00095721375,0.00033269305,-0.0027616955,-0.0031508983,0.002434458,0.0016844631,0.0022481992,0.00025726552,0.00211624,-0.001141594,-0.0003199132,0.0019201705,-0.0025064636,-0.0013174905,-0.0025021695,-0.0003120503,0.003180736,-0.002434671,-0.0007755192,-0.00064969744,0.0026983628,-0.0019797597,1.6340842e-05,-0.0015882571,-0.0031980488,0.0016665338,-0.0029222686,-0.0014651837,-9.2026185e-06,-9.672238e-05,-0.0025517875,0.0032071164,0.0016664057,0.0030751277,-0.002716642,0.0014975088,-0.0013768697,0.0002740176,0.0028367536,-0.001479024,0.0015061174,-0.0022586354,-0.0011852966,0.0031338248,-0.00052414904,0.000102006874,-0.0013831765,-0.002560595,-0.0005008299,0.0008279454,-0.00029477285,0.0018462688,-0.0009124509,0.00075277523,0.0018165231,0.002780634,-0.00048390104,-0.0030745289,0.0014587815,0.00019620832,0.0024813954,-0.00027510393,-0.00087830395,-0.0029113905,-0.00028155328,0.0009402874,0.0017986463,0.0023637326,-0.00189518,0.0006205775,0.0020235458,-0.0015963734,-0.0010373925,0.0022699982,0.0005458954,6.294701e-05,0.0011512834,7.288018e-05,0.0032073783,0.0016896214,-0.0029723244,-0.0023472921,0.0003052679,0.002134292,-0.0028740815,0.001220181,0.0017365043,0.001913923,0.0024888865,-0.002058534,0.00037372508,0.002019437,-0.00094719895,-0.0020581242,-0.00013421912,-0.0027935058,-0.0018707521,0.0023680457,0.0011192403,0.002409281,0.0022648664,0.0025050072,-0.0012640549,-0.00019257914,0.0007801737,-0.0015020873,0.002800189,-0.0032882553,0.002255421,0.00097022916,-0.0016399618,0.0014609222,-0.0005833244,0.0022395027,0.0033230297,-0.001457501,-0.00020178455,-0.001898782,0.001284323,0.0009339823,0.0022985754,0.0020294662,0.0031849402,0.0030902736,0.0026305031,-0.002331562,-0.0030521736,-0.000118997195,-0.001035024,0.0026303339,0.001976777,-0.00051407726,0.00050560135,0.00059757265,0.0026041444,-0.0031758428,-7.173449e-05,0.001157884,-0.00031162423,0.0027934127,0.0030012198,0.0021797677,-0.00024018703,0.0025745286,-0.002848266,0.0010692037,-0.0015511914,-0.00169477,0.0011977599,0.0017887349,0.002585314,-0.0019249604,0.0024775178,0.0022096743,-0.0012407609,-0.0029145651,0.0018151572,0.0021715402,-0.000266848,-0.0022409186,-0.0023617642,-0.00083588803,0.0017167878,-0.0012211706,-0.0031247775,0.0012748707,0.0016233146,-0.0021446568,0.00040140495,-0.0006867821,6.6662496e-06,-0.0032863028,0.0008934313,-0.0015839835,0.0003585937,-0.0005201044,0.0007333495,-0.00262983,-0.00090262626,0.00088630524,0.0017837321,-0.00079513865,-0.0031696267,0.0015030017,3.1782714e-05,0.0010286005,-0.0022733896,-0.0004606771,0.0025612838,0.0024513057,-0.0012239816,0.00087907084,-0.0027756025,0.0020686788,-0.001546491,-0.0010590279,0.0031050416,0.00028912377,0.0025012775,-0.0020257467,0.0017222795,0.0033052983,-0.0028217188,-0.0017136692,-0.0023488125,-0.0016211983,-0.0012634143,-0.0028475074,0.0026525427,-0.0016204212,0.0028083625,0.001753131,-0.002184509,0.0013177517,0.0018257385,-0.0024708863,-0.0024699247,-0.0008241318,-0.002880331,-0.0005226669,-0.00013781659,0.0010989419,0.0004825339,-0.00029388274,-0.0018603771,0.0005745653,-0.00030202404,0.0022685553,0.0013200287,0.0015103192,0.00047956975,-0.0009061641,-0.0014558758,-0.0003422085,0.00047934853,-0.0008777649,-0.0023560598,-0.002602138,-0.0030414872,-0.001982352,-0.0006166338,-0.0014418102,-0.0021610586,-0.0012388825,0.0014331104,-0.0012417693,0.0027912748,0.0005046647,-0.002418117,0.0031389536,0.0025451132,0.0018369195,-0.0022861077,0.0019423404,0.0013359701,0.0017244436,0.0014192915,0.000645263,-0.0010509881,0.0027800228,0.003205346,0.0012686452,-0.00094876526,1.6543027e-06,0.00040641287,-0.0028204645,-0.0027459383,-7.468092e-05,0.00041177263,-0.001910059,-0.0015825026,-0.0024469458,0.0027813867,3.57131e-05,-0.0015021279,0.0019028346,0.0030634534,-0.0013666105,0.0026530793,0.0017934088,0.0019607574,0.00016959272,0.0027390008,-0.0023399133
failure,-0.002752348,0.0031042963,-6.5199194e-05,-0.00066145364,0.0015283418,-0.001368335,0.0009387039,0.0023384965,0.0020170552,-0.002525092,0.0031421909,0.0015520824,0.0013266138,-0.0020957587,0.0028314446,-0.00072025537,0.002943167,-0.0017820906,-0.0027123215,0.0022879431,0.0005617821,-0.00073523336,0.0031763117,0.0031603512,-0.003247544,0.0008380708,0.002024789,0.0012907916,0.0006808278,0.00013393376,0.00022962013,-0.0012856176,-0.0023665233,-0.00068895525,0.0012884705,0.0029598193,0.0030993095,-0.00200474,-0.003150954,0.0032492254,0.00115893,0.0017407147,0.0020923638,-0.0009363241,0.0024541074,0.0009721221,0.0009648757,-0.00076932454,-0.0010541449,-0.0007766159,0.0014454719,7.5451253e-06,-0.003216353,-0.0032255996,-0.0020596841,-1.1726464e-05,0.0006551412,0.003167125,0.0018640066,-0.0014556403,7.447531e-05,0.0016508881,0.0025454022,-0.0003688898,0.0014444942,-0.0019276418,-0.00025416742,0.002700558,-0.0007962709,-0.0032434526,0.0019375636,-0.0013000951,-0.0004033172,0.0033143787,-0.0007519491,-0.0015753955,-0.0017956567,0.0023273989,-0.0018960546,0.00075759325,-0.0017497711,0.0020240203,0.0014616853,0.00091392524,-0.00048217678,-0.00091728795,0.0029736683,0.0017451765,-0.00072370074,-0.0031538468,-0.0024616686,-0.00033357186,-0.00027483338,-0.00084483466,0.003237218,-0.00013667915,0.0019522791,-0.002474278,-0.00082447956,-0.0018204217,-0.0024013023,0.0004042343,-0.002370316,-0.00075903255,0.001242059,0.0019266296,0.00041139702,0.00069405057,-0.001396488,0.0024284683,-0.0021127493,0.0015570662,-0.0027482836,0.0006857255,-0.0016443084,-0.0014157841,-0.0010487525,0.0018828372,0.0019541488,-0.0016822128,0.00025615987,-0.0028197863,0.0026338429,0.003091663,-0.000920762,0.00028256635,0.0002747146,0.0018031992,-0.0028780168,0.00021121728,0.002304038,0.0007503198,0.00038991042,-0.0031188917,0.0028221323,-0.0020727217,-0.0010278651,0.0011526933,-0.00025939744,0.0004710604,0.00059517904,-0.0022949043,-0.0032325317,0.0030282577,0.002079932,-0.002319277,0.001112663,7.124948e-05,0.0015855897,-0.0023875837,0.0013352457,0.0014168336,0.0033029774,-0.0014903172,-0.00047802238,-0.002429046,-0.0032700999,-0.0030385864,-0.00036725303,-0.0021554518,0.0015971962,-0.002048442,0.00082711416,0.00026300404,-0.0011571858,-0.00032289853,0.0033263885,0.0030464476,-0.0015060704,0.0030352194,-0.0018971539,0.0019930678,-0.0010302239,0.0011473388,0.0009851016,0.002322569,-0.0007889074,0.0029100184,0.0025223657,-0.0031791835,-0.002688772,-0.0025509438,0.000978136,-0.0009317836,-0.0023344364,-0.0026912189,0.0027767683,0.0006738362,-0.0031243921,-0.0016240588,0.0010504334,-0.0015741612,0.0017337153,-0.0014093778,0.00090078515,-0.002683651,0.0020885866,0.0016044256,0.00025294078,0.000994996,-0.0029300768,0.0007223683,-0.00028527374,-0.0031149306,-0.003155002,-0.0004713384,0.0014679665,0.0012211754,-0.0021528013,-0.0022874412,-0.0016639514,-0.0007718193,-0.0024245041,-0.0031958749,-0.0008997252,-0.002804827,-0.0020306362,-0.0019063592,-0.0008101436,-0.0005697744,-0.0029654624,-0.00026705512,0.0026982257,0.0025663045,-0.002415657,-0.001241742,0.0010509755,-0.0031946192,0.0004912202,0.0021997623,0.0019379962,-0.0029150164,-0.0015060568,-0.0027087403,7.51463e-06,0.0030966846,0.0019959314,0.0016808662,0.0016704578,-0.0011037508,0.0032078305,-0.002438481,-0.0024184324,-0.0007348068,-0.00025963847,-0.0010784566,-0.00018698876,0.0024902048,-0.00022439024,-0.00053491833,0.0009115693,-0.002774787,0.0026412115,0.002844145,-0.003236416,0.00080350856,0.0033289986,-0.0025454208,-0.0023506752,-0.0025839433,0.0028325352,-0.00018257389,0.003053304,-0.0027663403,0.0012380562,0.0008604617,0.0002646243,0.00078133517,-0.002501702,-0.0031233565,0.0007689359,0.0020349484,0.0026698678,0.001908356,-0.0002186596,0.0027774605,-0.0030925835,0.0011374581,5.641332e-05,0.0012677865,0.002452731,-0.002230006,0.0018632594,-0.003171622,-0.00027807362,-0.0028855104,-0.0017369458,0.003099141,-0.00061019126,0.0009556997,0.0030365018,0.0029967322,-0.0027259446,-0.0010114064,0.0032809454,0.0017340254,-0.0005292291,-0.0029099782,0.0010040267,-0.002215179
pneumonia,0.0027107573,-0.0014857781,-0.00035611907,0.00033545494,-6.370465e-05,0.0003827258,0.0020379536,-6.75718e-06,-0.0010819884,-0.0005035762,0.0019657663,0.00050470076,-0.00024142067,0.0031110824,-0.0016404279,-0.00027946988,0.0030584706,0.0022498092,0.000500952,-0.0029608535,0.00038291534,-0.0007627519,0.0031227458,0.00040330927,0.0004966879,0.00080213667,-0.0006120022,-0.0016665447,7.74765e-05,-0.00067139347,0.002200311,0.002980041,-0.00022491813,0.0009923383,-0.002035885,0.0005664416,-0.0023087442,-0.0028980088,-0.0019667344,-0.0029854917,0.002425865,-0.0019240105,0.002758784,-0.002414515,0.0011405583,0.0032249994,-0.0025951492,-0.0033150192,-0.0014430487,-0.00089437683,-9.0429785e-05,-0.0029438504,-0.0028725192,0.00093340356,-0.002735469,-0.0030231122,-0.00078015524,-0.0028772692,-0.0023522167,-0.0028003836,-0.000100442965,-0.0015214328,0.0022090583,0.00050905347,-0.0011138252,0.002036324,-0.0020044283,-0.0015520565,-0.002402503,-0.0014455267,-0.00060311,0.0021632144,-0.0009234643,0.0016396558,0.0023014809,-0.0024879018,0.0015216168,0.0020423261,-0.0009848248,0.0022083407,0.0020419597,-0.0021478282,-0.0022548505,0.0008463196,-0.000541273,-0.0020217092,0.003166403,-0.0017100489,-0.002184699,-3.9961735e-05,-0.000900476,0.00014813343,-0.0011791528,-0.00013977686,-0.00023620526,0.00027427357,0.0027316057,-0.0019122359,-0.000553176,0.0018572025,0.0027227069,-0.0014810109,0.0029951446,0.0027512216,-0.0014784074,0.00010103504,0.0014248304,-0.0013087734,-0.0018533218,-0.0021707742,-0.00022357941,-9.864052e-05,0.001487695,-0.0008246847,-5.7536363e-05,0.0008206252,0.001622533,-1.0269483e-05,-0.0021131365,-0.0030869357,8.885861e-06,0.0022206313,0.00048867427,-0.0029888407,-0.0026462015,0.0021839675,-0.0012618935,0.0020849975,-0.0022270107,0.002826554,-0.002172108,0.0010960066,-0.0003523286,-0.0022625092,-0.0010958656,-0.00038713732,-0.0018236466,-0.00040378253,-0.0025211044,0.0008822199,0.0030233827,-0.00079241674,-0.00032550335,0.0011711871,0.0028883624,-0.0019739508,-0.0022958592,-0.0009776616,0.003049232,0.0002887559,-0.0028928001,-0.00048232634,0.0031598217,-0.0025164958,-0.0017860329,0.0031055207,-0.002991242,0.0012753026,0.00022181352,0.0022202337,0.0027709177,-0.0009502618,-0.001330771,0.0029659725,0.0006965486,0.0020829805,-0.0031485716,0.003196708,-0.0004494361,-0.0020173716,0.0009975116,-0.00015220363,0.0015688308,-0.0007610071,-0.0013792809,0.0007592996,0.0027847947,-0.001665202,0.00088955957,-0.0026635183,-0.0022577823,-0.00015588959,-0.002922576,0.0009298126,0.0005328651,-0.0007732308,0.0016679303,0.0032495956,0.0028180892,-0.0006267417,0.0006860506,-0.0013345631,-0.0027471352,0.002092652,-0.0006497272,-0.00022206824,-0.000590444,-0.0015118885,0.0013539032,-0.0014233935,-0.0031928488,0.0029810385,0.0013883563,0.0030782449,0.002214501,0.00097491225,0.0032680067,-0.0014748804,-0.0022677705,0.0014091269,0.001243,-0.0018882037,0.00323492,-0.0011861023,0.0031831355,0.00027824202,-0.0021128189,-0.000659039,-0.0024590183,-0.0009931743,0.00034723242,0.003160896,0.0031186158,-0.0021986258,0.0011583837,0.0007585235,-0.0008297841,-0.0030763908,0.00034237542,-0.0027219022,0.0021067297,-0.0019333601,0.0018451464,0.0032779078,-5.3333442e-05,0.0015094975,-0.00060313346,0.002453587,0.0013133656,-0.0030034415,-0.0007995013,0.0012095897,-3.3189455e-05,-0.0004004236,-0.00035181284,-0.0005572005,0.00020165085,0.001388365,-0.0014175972,-0.0012778739,-1.7605622e-05,8.978526e-05,-5.626877e-05,-0.001595169,0.0014378007,-0.0007239731,0.0007011799,0.00022217432,0.0019898922,-0.0022807936,-0.0022719034,-0.0014920859,0.0031452763,-0.00053062756,-0.003143081,-0.00018168052,-0.0014829743,0.0020000264,-0.0031945617,0.0009530004,-0.0030842773,0.00041660032,0.0019997326,0.0024657825,-0.0025404878,-0.0020176745,-0.0022794802,-0.0026394466,-0.00316636,-0.00070849893,-0.00027864418,-0.002418734,0.0022623455,0.00037320654,0.0019429557,0.0004909555,0.0002631219,-0.0024560431,-0.0007255526,0.0014403597,-0.0016951049,0.00037692985,0.00096112135,-0.0005121203,0.0033107651,0.0027832114,0.0008052222,0.0023727485,0.0019638126,-0.0018602058
bleed,-0.0017350862,-0.0022275108,-0.0025844953,0.0027626208,-0.0006601726,-0.0022965674,-0.0013766937,0.001734295,-0.00096827006,-0.0012617145,0.0005413676,-0.0009333375,-0.0005234238,0.00034884314,-0.0009860017,0.0028301985,0.0013140071,-0.0033191354,0.0020958078,-0.0022432639,0.0002418248,0.0014732794,-0.0016893614,-0.00069485354,0.0027049487,-0.0014173348,-0.0025764147,0.0031021135,-0.0007159427,-0.001580681,0.0028670104,0.0014383005,0.0014651051,0.0031006043,-0.0028340055,0.0017645209,0.0006948194,0.001374263,0.00055673113,0.001491304,0.0015011745,0.0020496114,-0.0010710936,-0.0015278386,-0.00012979144,0.0008614324,-0.0010837363,0.002038359,0.0013777318,0.0025943157,0.0008700547,0.0026815422,-0.00047023027,0.002682183,0.0012356797,-0.0026615069,-0.0013192776,-0.00081109925,0.0016417081,-0.00029627702,-0.000942309,0.0026121053,0.0031008748,-0.0005365878,-0.0017272417,-0.0015576327,-0.0016006615,-0.0032044896,0.00044516783,-0.0014243603,0.00084236637,0.001885708,-0.0013466696,-0.0032227964,0.0005268428,-0.002224408,0.0008222458,-0.0012707649,0.0023629467,0.00025077627,0.001180854,-0.00091908296,-0.00057001563,0.0025945236,0.0004690646,-0.0019584438,-0.0026297965,0.0004194938,0.0021541046,0.0018646399,-0.002981684,0.0028762345,0.0013491854,0.0024920164,0.0032449837,-0.0024213456,-0.0030121505,0.0019517094,0.0031422595,0.0011908802,0.002347918,-0.00052663975,0.0026592016,-0.0031716498,-0.0026875825,-0.0022343108,-0.0013251472,0.0016651304,-0.0012883707,-0.0027557823,0.0028125003,-0.0012479728,0.0028660458,-0.001637767,0.0013156765,0.0016471713,0.0007983236,-0.0009516278,0.0009723173,-0.002770125,-0.00092624535,-0.00086510926,0.0024349855,-0.0011487396,-0.002203823,0.0014680015,-0.00015534332,-0.0012243224,0.0022955062,0.0013043139,-0.0012917012,0.00026203,0.003059906,0.0025660866,0.002122593,0.0015538752,0.0007810947,-0.00062234944,-0.0021135758,-0.00010952687,-0.00052471145,-0.00020993051,-0.0021035904,0.002484492,-0.002186909,-0.0024229027,-0.0009380325,-0.0004918732,-0.002537349,0.00021422209,-0.0017764772,-0.00043597372,-0.0024645394,0.000664869,0.0010752926,-2.4166566e-06,-0.0018456372,-0.00058982236,0.0023450209,0.001256759,-0.0029723418,-0.00113193,0.0007711321,0.00072894356,-0.0031569914,0.001536012,-0.0028893668,-0.0024628243,0.0011565511,-0.0011487873,0.001163312,0.0029781167,-0.0011873391,0.003108686,0.00054796104,0.0033030238,0.0019042321,-0.0030630925,-0.0011072804,0.0021777092,0.0018543738,0.0028872874,0.0022998906,0.0026844922,-0.0032956696,0.0014374407,-0.0016664418,0.0011899502,0.0020063098,0.0014526956,0.0025104485,0.0005049915,-0.00043763965,0.0019228971,-0.001872863,6.056473e-06,0.0031761925,-0.0018259636,0.00126917,-0.0026988732,0.0032464997,0.0027232317,0.00043561746,0.0016891808,0.00047201038,-0.0021516164,-0.00048510535,0.0021379234,-0.0015459646,-0.0013298813,0.0016351155,0.0008885803,-0.0006130005,-0.0009715345,0.0020075848,-0.0019135461,-0.0010817621,-0.0021851496,-0.0014279085,-0.0028718372,-0.0014752717,-0.0028518063,0.00045155347,-0.0028718032,-0.0033255205,-0.0027548834,-0.00224803,0.002232191,0.0012635867,0.00012942252,-0.0009659758,-0.0024681978,0.00017660954,0.0001590502,4.4224664e-05,0.0002945761,0.0002599926,-2.6049262e-05,-0.002683249,-0.0019700995,-0.0027705627,-0.00043864443,0.00061844214,0.0024900576,-0.00065793825,-0.0007873773,0.003169826,2.0493288e-05,-0.00079650286,0.0028793728,0.0009032683,-0.0017853107,0.0022159687,0.0014969577,-0.002385463,-0.00011398945,0.00028685047,0.0019242141,-0.00059369265,-0.0009418499,0.0005962918,0.00031101127,0.0004086115,-0.00091186946,-0.0020006322,0.0024350695,0.0025444718,0.0027790177,-0.0028818555,0.00088019535,-0.0012006359,0.0032000525,0.0009846936,0.0015412859,0.00082006084,0.0022037646,-0.0018923277,0.002634143,-0.0008187478,-0.0015343311,-0.00069918367,0.0032495894,-0.002288165,-0.0007269643,0.0023249805,-3.805097e-06,-0.0021145735,-0.002116623,0.0029914014,0.002138389,0.0016076526,-0.0010754926,-0.0030787054,0.0012551504,0.0023766838,-0.001863347,-0.0026220086,-0.0010011123,-0.0016237863,-0.00076308346
acute,-0.00066738273,-0.0017558474,0.003160344,-0.003118959,0.0014711708,0.0017830196,-0.00044262133,0.003054141,0.003263767,-0.0018590848,-0.0020087312,-0.0022676461,-0.0026337835,-0.0010218187,-0.001874263,-0.0028065797,0.0002682143,0.0010006733,0.0021440294,-0.00087426713,-0.0015173306,0.00042145778,0.00014125297,0.002723635,8.030137e-05,0.0024029762,-0.0028146263,0.0027915037,-0.0006362852,0.0028688554,-0.0025223976,0.0006070466,0.00038913457,3.0116784e-05,-0.0017309786,-0.0030659775,-0.0023947298,-0.0026704061,0.0006318594,0.00017069589,-0.0006033114,0.0023792714,-0.0008232426,-0.0004507105,-0.0029511594,-0.003267054,0.0030211217,-0.001886618,-0.0021264856,0.0017484366,0.0022490993,-0.0022922975,0.0003190192,-0.0020018956,0.0005329784,-0.0013829501,-0.0011522943,0.0007581878,0.002917656,0.0022162,-0.0032140214,-0.0018805397,0.0025961013,0.00067682646,-0.0014371384,0.00021105753,0.0031885107,-0.00038751273,-0.003165218,0.0005164847,0.0020831118,0.0021043667,0.0014017207,-0.0019227859,-0.00011994536,1.8638559e-05,0.0014952439,-0.0026673705,-0.0026831499,0.00017809248,-0.0028786894,0.001943066,-0.00012985354,0.003410887,-0.0017487722,-0.00015454023,0.0025364528,-0.0013188916,-0.0016443824,0.00053263945,0.00090881047,-0.00083076616,0.0021538187,-0.0025387283,0.0011344115,0.00017598397,0.0029400205,0.0020101129,0.0022872859,0.002635695,-0.0031700667,0.0031816089,-0.002541945,-0.000898887,-0.0016526837,-0.0016911094,-0.0026577811,-0.0025972193,-0.0015539707,-0.00038447254,-0.001707843,0.002065348,-0.0031631116,-0.0017676934,0.0031467006,0.002342829,0.002577411,0.0014070035,0.00019963313,-0.0020419015,0.0020135888,0.0008874437,0.0025855424,0.0021424352,0.002659492,0.0029373348,-0.0032662149,-0.002313527,0.00044569024,0.0021802445,0.0024727571,0.0018487095,0.00255952,-0.0017602913,0.0021822893,-0.001341743,-0.0030294063,0.003039507,0.00044321988,-0.0009495133,-0.00084818015,-0.0014358979,0.0016116732,0.0014886599,-0.0008644143,-0.00249179,-0.0012397608,-0.00012422883,0.0020452586,-0.0009546353,-4.4579774e-05,0.0002275182,-0.0024174917,0.0007011406,-0.0004742241,0.00095618604,0.0015453664,-0.00047939504,-0.0009860543,0.0026156858,0.001665617,0.002242906,0.0014673189,0.002931361,0.0024634483,-0.0003563507,0.0029124466,0.0015300812,0.0017864684,-0.00043185067,-0.00072671915,-0.0014603904,-0.0028368505,0.0010053113,0.0029493168,0.002984773,-0.00065628515,0.0019998506,0.0012652139,-0.0014201913,0.0006753022,-0.0017994933,0.002713168,0.0018038743,0.0010290275,0.0013730337,0.0029133484,0.0024817858,-0.000300749,-0.0024043238,0.0027861726,0.0024382842,0.000555173,-0.00043381905,-0.0019585325,-0.0015267468,0.0029045478,-0.0010542272,-0.002132886,0.0032965273,0.0025186916,0.0030631095,0.00037101572,-0.002781541,0.002798184,-0.0012285211,0.0019023048,0.0014568339,0.0032271745,-0.0030889106,0.003070026,-0.003119018,-0.002280048,-0.003028295,-0.001853701,0.0024158747,0.0030512088,-0.0011474316,0.0011981876,-0.0012245565,0.0026715882,0.0019246411,-3.758321e-05,-0.0012230094,-0.0024694141,0.00156428,0.00050821993,-0.0008799752,0.0026005018,-0.001335397,-0.0030278417,-0.00073848426,2.7179472e-05,-0.0022183203,-0.0018671398,-0.0028075736,0.003060891,0.0024648793,-0.00010417556,0.0024254136,0.0026829622,-0.00025761532,0.0022029707,0.0012699966,0.0016865797,0.0023921342,-0.0015662282,-0.00073680456,0.00032540964,0.0014027993,0.0010967988,0.0017138938,0.0015539086,-0.0028109679,-0.001131418,-0.0024385985,0.0032563533,0.001685377,-1.7322753e-05,0.001345393,-0.0024997601,-0.0020560424,0.0010529894,0.0021014744,0.0012741653,0.0019858165,-0.00065002317,-0.0011162887,2.6457737e-05,-0.0010691021,-0.0018632916,-0.0026013078,0.0021940041,-0.0003690097,-0.00057817344,-0.0025876507,0.0031613999,0.00032399592,0.0005301897,0.00080175576,-0.0024801295,0.00056525174,0.0009886052,-0.0028485076,0.0016363834,0.0008421474,0.0024519698,0.0017092192,-0.0010107748,-0.0023963824,0.0024017345,0.0006547771,0.0017559936,0.0021046707,0.0006198653,-0.0020264871,-1.3569134e-05,0.0027323172,-0.0020106514,0.0031816908
breath,-0.0024020541,0.0014171789,0.000736267,0.0024735841,-0.0016389681,-0.001544556,-0.002020484,0.0011187382,-0.0015038399,0.0028250972,-0.0014351631,-0.0030432218,-0.0015968347,0.002134887,-0.0021177423,-0.0017731892,-0.0024380714,0.0020024197,0.0011209456,0.0009503788,-0.0010506299,0.0020114754,-0.0020388684,-0.0006528811,-0.0019839024,-0.00033340414,-0.0007047352,0.0028304968,1.086616e-05,-0.0028761774,-0.0018054625,-0.0022868675,0.0009150455,0.003163159,-0.0019414512,0.0027727643,0.0028624998,-0.002375766,-0.0029580137,0.003155247,0.0027999214,-0.0015630539,-0.0022500982,0.002604076,0.001265567,0.0027181942,-0.0025144976,-0.0031600038,0.0005266982,-0.0032797877,-0.0016113053,-0.0011717352,0.003196675,0.0028767784,-0.0009554635,0.0019562324,0.0027514247,-0.00074422674,0.0031938422,0.00237089,0.00068169495,-0.0012731898,-0.0016929258,-0.0010170599,0.002630498,-0.0020555428,-0.0009656119,0.0030606443,0.0011486236,0.0020211372,-0.0026960147,-0.0002273357,0.0018476582,-0.0015974151,0.0025055571,0.003130847,-0.00014816555,-0.00068260933,-0.0001897273,-0.0018848849,-0.0028000604,-0.00048147165,-0.00085196685,0.0015129731,-0.002289009,0.0018090716,-0.0022752315,-0.002584435,0.0028371552,0.0029821005,-0.0011668472,0.0011637177,-0.0019477285,-0.0029131146,-0.0018349075,0.0022593266,0.0021412326,0.0031612064,0.0023630157,0.002282849,0.0004236107,-0.0032808338,0.0015507631,-0.00017410838,0.002093846,0.00057674875,-0.0010302365,0.0025831398,0.00048307294,3.6613794e-05,-0.0015363072,-0.0028216648,-0.0025840818,0.0028859635,-0.0029776164,0.0030232642,-0.0030795222,-9.919322e-05,-0.0006117781,-0.0030129782,0.0028784503,0.0022554297,0.001015632,0.0016126927,3.7422353e-05,0.003172506,0.0023553623,-0.0033103302,-0.0014782698,-0.00041318405,0.0010196153,-0.0014383604,0.00048728002,-0.002648544,0.0009296199,0.0015856003,0.0016555836,-0.001068112,-0.0028057066,-0.003091072,-0.0002577146,-0.0024770699,-0.0022822162,0.0020484342,0.0024019156,0.0006808928,-0.0026561334,-0.0018881774,0.0026813506,0.001285489,-0.0017494147,-0.002496997,0.00023403783,0.001165369,0.0006894185,0.0010576845,-0.0019171655,-0.0033240863,-0.0023646273,8.9476845e-05,0.0015139813,0.0015141473,0.0006185568,0.0017418972,-4.5410306e-05,0.0013561985,-0.003041756,0.0025682834,0.0020620492,0.001717325,0.0023712309,0.002832054,0.0002364192,-0.0005729135,0.00015990839,-0.00309727,0.0028001629,-0.002129051,0.0028125974,-0.001414339,0.00020364099,-0.0030572717,-0.0031962353,-0.0026183063,-0.002605829,0.00013184786,-0.002394222,-0.0016227463,-0.0017705185,-0.0014548736,0.0023376043,0.0016108842,0.0028677885,0.0023769685,-0.0018966527,0.002404764,-0.0030777233,-0.00087495666,-0.0025742103,0.0013876627,0.00058414874,0.00236223,0.0009845492,-0.0023343395,0.0025659543,-0.001995777,0.0029802753,0.0009789545,-0.0013505509,-0.0015587949,-0.0014809502,-0.002081839,0.0031395587,-0.00088787876,0.002593676,-0.003253251,0.00069042563,-0.00042850806,0.0024944085,-0.0030231841,0.002501065,-0.0017111991,-0.0020118684,-0.0018787613,-0.0011527527,-0.0011543982,-0.001058216,-0.0025009157,0.00023702123,-0.0001880607,-0.0005396354,0.0012571329,-0.0025516024,-0.0010783816,0.0016823267,0.0028729837,-0.003271203,0.0023889572,0.0017676216,-0.0013078728,0.0028686922,-0.0030880023,0.0024140002,0.0017900039,0.00042354985,-0.0017419134,-0.0013857766,-0.0011237828,0.0005484486,0.00053836504,0.002471535,0.0033294274,0.002984863,-0.0013367764,0.003177458,-0.00022490873,0.0016312327,0.0008552526,-0.0002354383,0.0012164119,-0.001745621,-0.0018920344,-0.0025387092,0.0006026875,0.002173993,0.00028938337,0.00043677495,0.0010586216,0.0026885148,-0.0025840595,0.00073609647,-0.0024946306,0.0012558385,0.0031792964,0.0025418634,0.0021593715,0.002703707,0.0021954416,0.002280831,0.0028867566,-0.0016630121,0.003080661,0.0016824441,-0.0007138552,0.0028301394,0.0017025581,0.0031949636,0.0009390876,0.0032976284,0.00039607254,0.0030658408,0.0012106367,0.0022057393,-0.0012263148,0.0022657989,0.0024140326,-0.00070812774,-0.00063675066,0.0012267207,-0.0023280592
esophageal,0.0032324549,-0.0032556122,-0.0021620383,0.0009157289,0.0021260018,-0.0017961031,0.00092524407,0.0030626233,-0.0022794637,-0.0020448314,-0.0016556972,-0.0012277206,0.00061668374,0.0032242604,0.0021496732,0.00012474098,0.0008294484,0.0028134752,0.0030543872,0.0018743312,0.0019728423,-0.0025497894,-0.0012863734,-0.0018802902,0.0020783183,-0.00076506723,-0.002946702,0.0025292714,0.0028050216,-0.00112361,0.0030459291,-0.0002396526,-0.0011973357,-0.00012193521,5.8102898e-05,-0.0011598942,0.00094860734,0.0019110432,0.0022801366,-0.0029623292,-0.00073865254,-0.0018144259,0.002495287,0.0021683858,-0.0014385707,0.00078105426,-0.0019667435,0.00010843674,0.0031650055,-0.0008586019,-0.001722667,-0.002464878,-0.000967338,-0.00028650934,0.0011812992,0.0032607445,-0.0011355403,0.0006444835,0.003231097,0.0005056225,0.00032484962,0.0032679224,0.0030844107,0.0025840013,-0.00206161,0.0033380568,0.0019491564,0.003026817,-0.000672935,0.0011061128,0.0022775284,-0.0012963301,0.002231943,0.00083319854,0.0031017787,-0.0010048879,-0.0010442417,0.0020689815,-0.003016437,-0.0023828594,-0.0021676035,-0.00025624462,-0.0007897542,0.0023055647,0.0030970974,-0.0003063052,0.00044428234,0.0006844731,-0.00066844333,-0.0026706846,0.0024980833,-0.0014235496,0.0015304344,0.0030501815,0.0010277975,0.0010480388,0.0013696122,-0.00090282236,0.001285723,0.00012734703,0.0018772178,0.0018324053,0.0006334629,0.0019185876,-0.0029962528,0.0021739998,0.0030855255,-0.00139095,0.00051849405,-0.0017371841,0.00034921122,0.0009174306,0.0027163161,0.0001887547,0.00085179246,0.00044071375,0.002805176,-0.0019002843,-0.0020665175,-0.0012334546,-0.0007653591,0.0016718393,-0.0026930966,-0.000947033,-0.002736306,0.0017445853,-0.00084836135,-0.0030402108,0.0013596714,0.003014772,-0.0010129099,-0.0019411839,0.0010010509,-0.00015470352,-0.0033316624,0.0028123474,-0.002456761,-0.0016459379,-0.0008865273,-0.0018182943,0.00057309784,0.0032314477,0.001516626,0.002707502,-0.00015062351,0.00019982185,-0.0009094957,-0.0029361255,0.0011539125,0.0006873746,-0.0031340013,-0.0016839055,-0.0032641287,-0.0019062253,0.0013503194,0.0028845742,0.0013482169,0.00078084826,0.0026912563,-0.00035344952,-0.0004807483,-0.0029121952,-6.2815016e-05,-0.0008351486,0.0001131331,0.0024362658,-0.0023589197,-0.0013215907,-0.0022372964,-0.001165878,-0.0011294391,0.0007145243,0.0011061311,-0.0016568798,-0.0015223608,0.0003885146,0.0018129257,0.0017890893,-0.0009881413,-0.0014066936,-0.0018704241,-0.0001754848,0.00063668075,0.0005084587,0.002447677,-0.0009046623,4.710472e-08,-0.0018214514,-0.00039184603,-0.0025924365,-0.00032113295,0.0004464845,-0.0028639082,0.0029194066,-0.003058693,-0.0032201437,-0.002834852,0.0024368067,0.0018160018,0.0030862992,0.0008366217,0.00028239752,-0.00084748806,0.0031219965,0.00091516855,0.0013727961,-0.000397503,0.00029489896,0.0022098192,-0.00023956315,0.0011101782,-0.00023548958,0.001756858,0.0012052861,0.0008607564,-0.0017798818,-0.001565492,0.0014251769,-0.0019933318,-6.8393274e-05,-0.00019638934,0.0011456234,-0.002838444,0.0029285322,-0.0005003353,-0.0017939184,0.0013529266,-0.00065872225,-0.0025843438,-0.0014880328,-0.0001156711,-0.0029866123,0.00019210746,0.0008090262,-0.0010857389,0.0008723153,0.0008154839,0.003328975,0.00047445128,0.00064720697,0.0009487674,-0.00068514526,-0.0028883906,0.002679766,-0.00066007517,-0.0032377783,-0.0021814697,-0.0013200919,0.0013235932,0.0016882916,0.0020337217,-0.0022585625,0.00023610078,-0.0009208214,-0.0017552993,0.0023190791,0.0013316773,-0.0010313797,-0.0027863737,-0.0017273765,-0.00019834338,0.002620453,0.0020321067,-0.0028507404,-0.0032089646,0.0023596953,-0.00076885027,-0.0012331519,0.0019004387,-0.0019390614,0.0016943823,-8.265829e-05,-0.0022947467,-0.00012464816,0.0021371422,0.003102014,0.00076173514,0.0016929304,-0.0016794532,-0.0002834037,-0.0017789005,0.00039840143,-0.0005947527,-0.0011975822,-0.002344618,0.0032314595,0.00095914333,-0.00074821955,-0.0013947387,0.0025723327,-0.0021566164,0.0010441511,0.0002619848,0.0027630455,0.0022633725,-0.00096188026,0.00083938584,-0.0005663408,-0.0031350602,-0.0008447107
artery,0.00035664198,0.0021679476,0.0034295826,0.0030182973,-0.0027194151,0.0021466466,-0.0018460588,-0.00023532547,8.509835e-05,0.0021321166,0.0015182168,0.0015495247,0.0031495164,6.763664e-05,-0.0020051291,-0.002187811,0.0021738063,-0.0017708143,-0.0009887258,0.001413117,-0.00083915715,-0.002052263,-0.0007637543,0.0004460394,0.0007913084,0.002004731,-0.0018897824,0.00096195954,0.002358896,0.00065016776,0.0018498447,-0.0016069147,0.002163659,-0.00251298,0.0011584035,-0.0030625036,-0.0008424263,-0.003101929,-0.0005604381,-0.0018029422,-0.0013128694,0.00040689387,0.000899332,-0.00048673738,-0.0026865746,-0.0018882648,0.00037310977,-0.0012067565,-0.003151001,-0.00019809695,0.002333406,0.001948963,-0.003338378,0.0010578202,-0.0020601617,-0.0029300423,6.254542e-05,-4.8925882e-05,-0.0023073691,-0.0022051092,-0.0008400631,0.0023864927,-0.002596144,0.0025768222,-0.00017375872,0.00039519364,0.0031618585,0.0016250774,-0.0012400646,0.0012362784,0.0011942589,0.002162453,6.8440546e-05,-0.0015958011,0.00045014362,-0.0017496697,0.00040902582,0.0016952899,0.0017158248,0.0032956635,-0.0025181624,-0.0018483538,0.002196157,0.000655754,-0.0021460927,0.00029603738,0.00081046636,-0.00076818257,-0.0016216664,0.0017068775,0.003311405,-0.0024085955,-4.448158e-05,-0.00080912554,-0.0021256567,-0.00038593463,-0.0017095075,0.0030686548,-0.001939942,0.0012874781,-0.00012446861,0.001400308,0.0008227593,0.0033455014,0.00016783546,-0.0019130713,-0.00035317944,0.00070452,-0.0012225902,-0.0025571957,-0.0018983689,-0.002185237,0.0021453588,0.0013417605,0.0027481406,0.002184592,-0.0020886436,0.0008756453,0.0029028612,0.00040330386,0.0009888143,0.0019687715,-0.002898672,0.0030573434,0.0023089568,0.0029431358,-0.0027267658,0.0019619465,0.0023085333,-0.00037946686,-0.0020670975,0.001839905,-0.002308551,-0.0018845658,0.001159768,0.0027739247,0.0028722507,-0.0014533933,-0.0031265996,0.0031843209,0.002085678,-0.001472757,-0.0028665417,-0.0015545683,-0.0012811561,-0.001179048,0.00021553718,-0.00014991668,-0.0010497421,-0.002044152,0.0031395978,-0.0017375018,-0.0025462923,0.0026356096,0.0007850087,0.002969462,-0.0016905755,-0.0023922254,0.00019680776,-0.00027390706,-0.0031686237,-0.0005561075,0.00096846523,0.0022790455,0.0022414727,0.0010743524,-0.0015170663,-0.0006121911,-0.0014058972,0.002023024,-0.0022528064,0.0007650155,-0.00042931957,-0.001975026,-0.0024503244,0.0019678716,-0.0028350197,-0.00025377513,0.0009332996,0.0026354203,-0.0024092393,0.0011426894,0.0031945573,-0.002362044,-0.0012276788,0.0017614887,0.0018425257,0.00066761987,0.0026489324,0.0001573359,0.0005852242,-0.00054110383,-0.002761527,0.001079742,0.0007555233,-0.0029649767,-0.00018260797,2.3008331e-05,-6.4337575e-05,0.0029072212,-0.0009968363,-0.0019769564,0.0024949682,-0.0024221342,-0.0030784358,-0.0006360077,-0.0028284264,4.7160425e-05,0.0006051162,-0.00079255516,-0.002212647,-0.00015633529,-0.00031105624,0.001191323,0.0027147292,0.0018695585,0.002856562,-0.003076449,0.003026685,-0.00079205266,0.0030176407,0.0007148601,0.0010897758,-0.0032010328,-0.0033274414,0.002935075,-0.00094830734,0.00092641945,0.0020922513,-7.3619785e-06,0.003320371,-0.00031325224,-0.0032751102,-0.0023779995,-0.00040550134,-0.0028407467,0.0024350253,0.0011759995,-0.002966806,0.0027634911,0.0030932256,0.001969486,0.0023735813,-0.003162825,0.00016635084,-0.0031450356,-0.0011915681,8.6567525e-05,-5.2601805e-05,0.00048099787,0.001106924,0.00073844974,0.0018442777,0.0025398915,-0.0021209072,0.0026384369,0.002104032,0.0033029336,0.0014201833,-0.0011351415,-0.0011476437,-8.5462285e-05,-0.00046181987,0.0030910866,0.00026594297,0.0012466748,0.0012063871,-0.002955053,0.002163704,0.002754869,-0.00060400984,0.00072721724,-0.0021636882,-0.0021135835,0.0029116005,-0.0009585318,0.002365529,0.00056153786,-0.0008145027,0.000908507,-0.001366105,-0.0005319359,0.000487698,0.0017501124,-0.0005350792,0.0002474883,-0.0028449867,0.0032548388,-0.002933426,0.002380152,0.0013591144,-0.0023042294,-0.0017349452,-0.002695159,-0.0017934045,0.0024233528,0.0032838595,0.0006812892,0.00030685964,0.0032612649
accident,-0.0016863364,-0.00041296144,0.0011454197,-0.0021955848,-0.0032521472,-0.0031341792,0.003051177,0.0018505098,-0.0016940335,-0.0028445155,0.00044285355,0.0009412289,-0.0004422902,0.00038316433,-0.0014146355,0.0015472037,0.000510912,0.0029926787,-0.0033400343,-0.0017675785,-0.0030935365,-0.00015580821,-0.0026216256,0.0016940306,-0.0021099288,-0.0020239544,0.0015909985,-0.0027999675,0.00047129093,-0.0024950767,0.003322281,0.002912257,0.00061655033,0.0019352379,0.0015196804,-0.0019690413,0.003300356,-0.003289009,0.0026935262,0.00091745507,-0.0009940433,-0.0011954491,0.0029970708,-0.0018269203,0.0028030288,-0.0019487694,0.0028788096,-0.00011771443,0.0026644678,-0.0010321039,0.0020700705,0.0029020547,0.0008327726,0.00043109173,0.0016694955,0.0027895614,0.0028640896,0.002893492,0.002380437,0.002642305,0.0028908204,7.290888e-07,-0.00040069944,0.00061260094,-1.2645882e-05,0.00027363017,-0.002861268,-0.0031803302,-0.0007894845,0.0029686906,-0.0012241582,-0.0023060527,0.001665478,0.00027340953,0.00062216946,0.0012880826,0.0011487893,0.0019382992,0.0004098455,0.00042092014,0.003040493,0.00088483706,-0.0015866258,0.0023519383,0.0018131055,0.00096505956,-0.0011135148,0.0011528967,0.0021357937,0.002363811,0.00038032094,-0.0028148482,5.5352106e-05,0.00017777165,0.00132728,-0.003121581,0.0032664249,-0.0022938536,0.0019340308,-0.0030902366,0.0032197747,0.0024007717,0.0005124852,-0.0011330468,-0.00017360765,6.903036e-05,-0.002094774,0.0019011314,0.0007622541,0.001324799,-0.0024166673,0.0029024498,0.00015662845,-2.6021487e-05,-0.0030510426,0.0013587325,0.002257434,0.0024144896,-0.0021271496,-0.002714566,-0.0018882916,-0.0001699438,-0.0027472365,-0.0028054514,-0.0006301419,0.00046326203,-0.0031420612,-0.001319814,0.00024059397,0.00233523,0.00061487657,-0.00019761866,-0.0025091171,-0.002339601,-0.0002480341,0.002544201,0.0018070498,-0.00049185974,0.00035573568,-0.0032347601,-0.0004926228,-0.0016234685,0.0019350873,-0.00077352114,-0.0015510361,-0.0032169807,-0.000459241,-0.0024219777,-0.00056041457,-0.001400431,-0.0007905233,-0.0011885228,-0.002799879,-0.00039315192,0.0005198237,-0.0013202691,-0.0026599872,-0.0012408826,-0.0031414898,-0.00019841795,0.0019123779,-0.0010002726,0.0010094318,0.0017642395,0.002803768,0.0018723743,0.0031476228,-0.003236155,-0.0027201392,-0.0022192234,-0.0025934495,-0.0026468642,-0.0025926742,-0.0009945986,0.0004375696,-0.0009535258,-0.0029668664,0.0016423214,0.00029129107,0.0015822655,0.0024015657,0.0025731882,-0.00032455815,0.0011918594,-0.0017606562,0.00063350983,0.0015520172,0.003421323,-0.0011339305,0.000881608,-0.001980249,-0.0006946095,0.0026921136,-0.0012882971,-0.0003312591,-0.003130803,-0.0031529788,0.0029954065,-0.0019481226,0.0017177669,-0.002434718,-0.0008230869,-0.002706156,0.0025168965,0.0020009177,0.00175587,0.0027881877,-0.00028178055,-0.0031603978,0.00305592,-0.001648456,0.0025773863,0.0019000993,-0.00035099938,-0.0025412922,-0.00056383415,0.002081257,-0.0023855858,0.00038999232,-0.0026609423,0.0030037665,-0.000997494,0.003059288,-0.0019017718,-0.003349631,-0.0029418443,-0.0013146553,0.0015665618,-0.00011168666,0.0031291074,0.001092833,0.0012930408,0.00097230886,0.0027112195,-0.0008609446,0.0025179393,-0.0031922038,0.0009803314,-0.0002205616,6.649617e-05,0.0023808389,-0.00093829643,-0.0007680672,-4.8806105e-06,-0.0001602547,-0.001209805,0.0021262027,-0.0021873682,0.0026748227,-2.893173e-05,0.00086664286,0.0010924673,-4.6895297e-05,0.00059115514,-0.0011584653,0.0015769196,0.00011530635,-0.0010826642,-0.0030121633,-0.0033770548,0.00020131574,-0.0018134941,-0.00032657187,-0.0015548368,-0.002970218,0.0002821677,0.0020330718,-0.00072569505,-0.0024946756,0.0010834401,-0.00015623255,-0.0018859586,-0.00036130755,-0.00028629045,-0.0009365012,-0.0033056976,0.002634187,0.0012908104,-0.00092474977,0.0023717028,0.00014707888,0.0024193726,-0.00051291223,0.0025506956,-7.0871705e-05,-0.0020073897,-0.0017125347,0.0032722554,0.00021754975,0.00031370303,0.0028722344,-0.0020549141,-0.0005229264,-0.0027631742,-0.002302304,-0.002854752,0.0013587816,0.00089220254,0.0019596,0.0009138318
shortness,0.0006985127,0.0019110361,-0.0006911138,0.0010636005,0.0028071592,0.000118985015,0.0021020453,-0.002225754,0.002191045,0.0015649186,0.0016908369,-0.0033141514,-0.00014568355,0.001062555,-0.0019574196,-0.0022307436,0.0021326698,-0.0022691868,-0.0017205746,0.0027025742,-0.0023662637,0.002843071,0.00021423226,0.0014658096,-0.0009899911,-0.0018143432,-0.003006243,-0.0001957887,-0.0017009908,-0.0010367129,0.0027124877,-0.0025425262,-0.0020990714,-0.0017518656,-0.0022110005,-0.0029503072,-0.00035886266,0.0031372297,0.002690468,-0.0017497445,-0.002710891,-0.00074469193,-0.0030847723,-0.0016876473,-0.0019705696,0.0010134119,-0.0025214339,0.00042108633,0.00077288225,0.0017815352,-0.0006601826,-0.003267363,0.0017484754,-0.0019713924,0.0016273292,0.000670323,0.0029403141,0.00051210454,-0.000599692,0.0021596039,-0.0023629228,-0.002805573,0.001261473,-0.00085775094,-0.0014101526,-0.00064675877,-0.0032940677,9.341224e-05,-0.00036047152,-0.0009850208,0.00080978795,0.0015596297,0.0021252737,-0.002673411,-0.0016648321,-0.0029245797,-0.0029939185,-0.0012405392,-0.00043043896,-0.0027149655,-0.0018027434,-0.00072029466,0.0021030207,0.0005546628,0.0027870776,-0.0027583535,-0.001537267,-0.00025149467,0.0029432345,0.00037155644,0.0005372869,0.00043090878,0.0009894096,-0.0031482226,0.0010915485,0.0018309825,0.001781124,0.0014794987,-0.0026816148,-0.0013636127,0.0027888608,-0.00017555991,-0.003140168,0.0015923631,-0.0020267388,0.00222547,0.001798947,-0.0016825043,0.00084203493,0.0018089293,-0.0011923703,-0.0004960178,0.00306115,0.0030363025,-0.003140954,0.002526817,0.0033088906,-0.0009351329,0.00082962,-0.00095420884,0.00287955,-9.771361e-05,0.0018704714,0.0030733172,0.0013664276,-0.002358621,-0.00063973095,0.00029338614,0.00069491,0.0009947016,0.0031607759,0.0014775173,0.0033024144,-0.0029018607,-0.001934194,0.0006812672,0.0012327413,-0.0003199063,-0.0023072201,-0.0010902311,-0.002848658,0.0031264408,0.0012260425,-0.0026213771,0.0010682355,0.0013818396,-0.0018968825,-0.0019861027,0.0003574689,0.002997758,-0.0032155048,-1.9484356e-05,-0.0023281751,-0.00030948894,0.0010047868,-0.0016804883,-0.0009375576,0.00022357238,-0.0021330095,0.0024406055,0.0014640563,-0.0028421024,-0.0007287891,0.0010775265,-0.002769582,-0.0023523367,-0.0028295561,-0.0018534785,0.0029422564,0.0023775562,0.00095560116,-0.0028556448,0.0019073775,0.0015512793,4.1798154e-05,-0.0029682138,-0.0006318936,5.7022837e-05,-0.0025841608,0.0008268366,0.00017341929,-0.0023497152,-0.0027830754,0.0020176198,-0.0027948036,-0.001853011,0.0018842537,-0.00014019788,-0.0010211896,-0.001735592,-0.0003955759,0.0017781167,-0.0019863527,-0.0016691457,-0.0016594141,-0.0016002215,-0.0026510644,-0.0032497128,0.0025236264,0.0026653262,-0.0014384422,-0.0031080318,-0.0006170895,-0.0012320982,0.00304437,0.00097480795,-0.0019906617,-0.0011177113,-0.0033143535,0.00063513225,-0.0013361905,-0.00091164163,0.0017403914,0.0025252847,0.0014557177,-0.0022818907,0.002242238,-0.0032387157,-0.0023372627,-0.0026882514,-0.00074379245,0.00015265391,-0.0012658793,0.0006015564,0.0030347693,0.002221434,-0.00035260088,0.0030276156,0.0005222183,-0.00066742074,-0.0022220723,0.002167046,-0.0030181922,-0.0006249989,0.0025377707,-0.00086214073,0.0005282968,-0.0024457485,0.0016466669,0.0024610986,-0.0030790477,-0.0011003801,0.0026343428,0.0009838601,1.8436585e-05,0.000105228624,-0.003294306,0.0032907494,-0.0006590889,-0.0016309322,0.00091607124,0.0003389781,-0.0019848181,0.001940166,-0.00085148815,-0.0020641263,0.0024118514,0.0021635357,0.0029089665,0.0003680093,0.00017180563,-0.0026515755,0.0015728216,0.003095812,-0.00024780637,-0.0005861294,-0.0012632296,-0.00017612579,-0.0025526807,0.0019070458,0.0004876377,0.00311558,-0.0021448648,-0.001700428,-0.002061529,-0.0024314949,0.0009348439,0.0016437334,0.00042543776,0.0011742404,-0.0031294306,-0.00034784322,-0.0025869003,0.0010054195,-0.0008904954,0.0029776578,-0.0011635382,0.0022961714,0.0013718787,0.00045613828,-6.1883625e-06,0.00272049,0.0008061046,0.0027555968,0.0011168101,0.0018037063,0.0017023911,-0.002545356,-0.0019395347,0.00042876884
fever,6.4769585e-05,0.0007151123,0.0003552143,0.0025288984,-0.0014738981,0.00010819912,0.0023355118,0.0007505981,0.0014142501,0.0014344259,-0.00042188208,-0.0027741918,0.001014752,-0.002957714,-0.00088695326,-0.0031306816,-0.00015400529,-0.0026210973,0.0024713255,-0.001630106,0.0033061,-0.003010755,-0.0014373919,0.00064297556,-0.0009991435,0.0004819278,-0.0012269481,-0.000298057,-0.0019091221,-0.003273671,0.0021130661,0.00012788494,0.0021698386,-0.002490876,0.0012211836,-0.0032992954,0.0025369104,0.0019748488,-0.0020391599,0.0027376867,-0.0018600158,-0.0028511996,0.0005000953,0.0010599876,-0.0026988669,-0.0029780876,0.0030571076,0.00054792484,0.00029144206,0.0008260775,-0.0011690478,0.00057834666,0.0006526943,0.003268667,-0.0018693769,0.00075767556,0.002102381,-0.0022257774,-0.00297793,0.002885406,0.0022793503,-0.0013399248,0.0019141149,0.0002628398,-0.0016702279,-0.0004499189,-0.0016327882,0.0020449257,0.00065395515,-0.002773313,-4.875342e-05,-0.0008825803,0.0022021756,-0.0003818965,0.0025553675,0.0006494252,-0.00127684,0.002719386,0.0009831786,-0.0013233459,-0.001866614,-0.0010297557,-0.0017115235,0.0011467071,-0.0030942115,-0.0019402842,0.001113741,6.5883396e-05,0.0019983673,-0.0012018597,-1.99159e-06,0.0008250006,0.0018202185,0.00053712924,0.0032720314,0.0012394043,-0.0023940594,-0.00046869158,-0.0027893765,-0.0017756912,-0.0007317992,-0.0032358833,0.0030984299,0.00067732256,-0.00038706063,-0.001834569,-0.0028366104,-0.0033011583,0.0029814616,-0.0008331418,0.0015307923,-0.0015057882,0.0033193529,0.0012182402,0.0003418978,-0.0013480346,0.00040354053,-0.00088226795,0.0024502461,0.0014927511,0.00032889406,0.0011610293,0.0012381169,-0.0022617916,0.002976921,0.00057874364,-0.0019291547,0.002885561,-0.00043049257,0.0027290126,-0.0005022903,0.0023292173,0.0009087988,-0.0014532431,-0.0012493094,0.0030639274,0.000530622,-0.002002337,0.000116540985,-0.00065413275,0.00052817503,-0.0025724391,0.0024613624,0.0004374087,0.0026250656,0.001484348,-0.001464624,0.0012508937,-0.00021282832,-0.0032854164,0.0027473767,0.0032164578,0.0032177968,-0.0012666015,-0.0028165411,0.0016092348,-0.002551827,0.0028440172,0.00092008355,0.0018677791,0.0020388314,0.00015493591,-0.0006982982,0.00025772414,0.003278653,-0.0023748453,-0.00051748473,-0.0007861805,0.0016220026,0.002150013,-0.0013773465,0.0012078898,-0.001493709,0.0010901554,0.0027228245,0.001209536,-0.0015242704,-0.0010030548,0.002622135,0.0032013536,0.0019390313,-0.0010913451,-0.0006084275,-0.0020857977,-0.0014318582,0.0011247874,-0.002162582,-0.002205387,0.0027038066,0.0031684872,0.002713528,0.00050347805,-0.0029319632,-0.0025323888,0.00052402617,-0.003175877,-0.0024700698,0.0006747079,-0.00097372296,-0.0030523369,0.0021384775,-0.002983714,-0.0024484908,-0.00058371463,0.0005660029,-0.00034474014,-0.0017347578,0.0021930838,0.0029276037,-0.0024706991,0.003268522,0.0024555493,-0.0024869083,-0.0006333192,0.001417346,0.0023532016,-0.0012212289,-0.0023243607,0.001574945,-0.003012869,-0.0019501011,-0.00042782704,0.0018269726,-0.001895647,0.0015949286,-0.00014498194,0.0008890879,0.002134643,0.00047254364,0.0025695248,-0.000107467175,-0.002754568,0.0030594997,-0.0016194009,0.0015739687,-0.0013009278,-0.002443173,-0.0021708831,0.0015591113,-0.0002198108,0.00048675656,-0.002976093,-0.0017155175,-0.0020181409,0.0028042626,-0.002899144,0.0016749481,-0.00028711717,6.312569e-05,0.0029332526,-0.0011951459,-0.002312446,0.00025452653,0.0025809451,0.0030402879,-0.0012282372,0.0009109358,0.0016475371,-0.0017640161,0.0022841783,-0.00215099,0.00070028106,0.001529086,0.0014617041,-0.0015554281,0.00088080723,0.0024366546,0.002870563,-0.0031708435,0.0018582491,0.0016560212,-0.000531586,0.0030622948,-0.0013936702,-0.0005829076,-0.0022877692,-0.0012588918,8.089185e-05,-0.0010905111,-0.0018057545,0.0021896248,-0.0017676187,-0.0021072102,0.0025469891,0.0032170613,0.0013316397,8.775393e-06,0.0002630973,-0.00032051763,0.0022875508,-0.0020843316,0.00016920328,0.0014307165,-0.0007038045,0.00029796083,0.0012367137,0.0032366845,0.0007252534,0.003166721,-0.001943281
renal,0.0015994635,-0.0012084217,-0.0014174972,0.0004045143,-0.0013744311,-0.0018773144,0.0010538759,0.0027898673,-0.0021904972,-0.0030418988,-0.0011115996,0.0025072221,-0.0032334512,0.0032006078,-0.00013788625,0.0007714637,-0.0006139259,-0.0019196257,0.0010372843,0.0020623105,-0.0023565772,-0.00039315407,0.000525448,0.0014179678,0.002384999,-0.0011810634,0.0024218648,-0.0018608797,-0.0007331993,0.00302796,0.0017931964,-0.002824311,-0.00054632744,-0.0029436366,-0.00054753793,0.0018823534,-0.0024617244,0.0018406702,0.002027993,-0.0012591997,-0.0032119965,-0.00083891663,-0.00085529446,0.0012524059,0.0029847503,0.00066938344,-0.00069150806,0.0009936263,-0.0022610815,-0.00043000927,-0.0004870193,0.0032003575,-0.0019500601,-0.0023485648,0.0007813784,0.00088893657,-0.0023835879,-0.0019553576,-0.00038516018,-0.0011008185,-0.0029880246,-0.0013452582,-0.0009952345,0.002166919,0.00031829198,0.000534806,9.222949e-05,-0.0011272187,0.0010270741,0.00023504565,0.001995444,-0.00026435664,-0.0029682624,0.00028537578,0.0033112362,-0.0017434497,-0.0017471971,-0.0008361602,0.002853547,-0.00025861882,0.0031331317,-0.0027807234,0.0030067195,-0.003227478,0.0030713035,0.00063133537,0.0008745086,-0.001951872,0.0028110328,0.0020093045,-0.0018225345,-0.003167557,0.0023246722,-0.0018452859,-0.0030996036,0.000869232,-0.0016540886,-0.0024544622,0.0032451726,-0.0005237179,-0.00050996535,-0.0013415749,-0.0014626264,-0.0015486593,-0.0018773593,-0.001777006,-0.0026748076,0.0031742007,0.0021300928,-0.0011941287,0.00082471705,-0.002542301,0.0025050917,0.002768075,0.00026052585,-0.002273846,-0.000985588,0.0015789508,-0.0009804815,0.0010414228,0.0031314243,0.0014494228,-0.0017126256,0.00182184,-0.000960627,-0.0021228266,0.0023369256,-0.0030947323,-0.00037617312,-0.00045891377,-0.0028074724,-0.00036475045,0.0018751452,-0.0017578654,-0.0023500093,0.0020741355,-0.0011438204,-0.00260566,9.0237816e-05,-2.4578827e-05,0.002511009,0.00018922723,0.0026227923,-0.003268106,0.001353764,0.002068398,0.0003436333,-0.00094923866,0.000345194,-0.00027554113,-0.0027062956,-0.002273168,0.00038679346,-0.00066552113,0.0031846485,-0.0003164629,0.002032187,0.0006819628,0.0026978215,-0.0030905898,0.0008050853,-0.00047959556,0.00071983447,-6.227222e-05,-0.002219831,0.0030284994,-0.00095046544,0.0006255956,-0.0021576267,0.0012530268,0.0033291879,-0.00039215834,0.002191362,-4.0513343e-05,0.0026453782,0.0032083008,-0.0001242069,-0.0005710811,-0.0031730358,0.0032856723,-0.00084136793,0.0007318928,-0.00056883384,0.0027803213,0.002774017,0.0005169227,0.00096617494,0.002143791,0.0007362972,0.002142819,4.6719564e-05,-0.00076524005,0.0017672492,-0.0011455828,-0.0008600245,0.0029178485,-0.003050442,-0.0011343003,-0.0009824567,0.0018958326,0.0026374082,-0.0021507875,0.0019210484,-6.766232e-05,-0.0030075607,-0.0008193729,-0.000533019,-0.0014953989,-0.0002604106,-0.0017470773,0.0019825776,0.0030982096,-0.0005293966,0.0011272058,-0.0002492521,-0.00023884066,-0.0023363333,0.00047780733,0.001288229,0.0023064427,0.0021814257,0.0011719286,0.0015502243,-0.0024686938,-0.0004740587,-0.00193066,0.0022628605,0.0026048606,-0.001418988,0.00038884653,0.0017004492,0.00060312264,0.0002644844,-0.0022477636,0.0032693201,-0.0024121033,-0.002019865,-0.0018847116,-0.0021173179,-0.0011720308,-0.0031213462,0.0003949839,-0.0012564379,-0.0008470954,0.0019315364,0.0011798765,0.0006038212,-0.00045603604,0.0032957448,8.8572415e-05,0.0016745486,0.0030112178,-0.0032474785,-0.0030498202,0.003293361,0.00090875174,-0.00062783336,0.001581283,-0.0014471335,-0.0021408144,-0.0027480486,0.0024035573,-0.00081074366,-0.0025208362,-0.001984463,0.002054051,-0.00082689064,-0.0020522543,-0.0005486966,-0.0004933197,-0.0010897683,-0.0006994125,0.0013668005,0.00047756746,-0.0011584912,0.00089799037,0.00175619,-0.0030653863,-0.0025260989,0.0020960106,-0.0029786495,0.00018115263,-0.0029969397,0.002789542,-0.001434148,-0.002202939,-0.00046224793,-0.00037127716,0.0025024214,0.003031765,-0.000111388305,0.0008943892,0.0015819996,4.8757494e-05,-0.0019297514,-0.00018829886,0.00072751945,0.0027650942,-0.0012075405,-0.0032760138
liver,0.0017649941,0.0032667792,-0.002342493,-0.00022061089,-0.0017011553,0.002133653,0.003243453,-8.864799e-05,0.0016801048,0.0021401297,0.0014816104,-0.0026668753,0.0010306223,-0.000515682,-0.00070275704,0.0017697575,-0.0004414027,0.003303649,-0.00021477528,8.411278e-05,-0.0007653875,-0.0028446077,-0.0032677613,0.0016570619,-0.0021988763,0.00097465026,0.00088563125,-0.002361426,-0.0010398321,-0.0019680383,-0.0028447756,2.528787e-05,0.0032889885,-0.0022127805,-0.0014483754,0.0028035329,0.0031306886,0.0032689164,-0.003331088,0.0016763156,-0.0022086347,0.0023044469,0.0020317554,-0.0011244442,0.0023095289,-0.0025953774,0.0015500402,0.0015753532,0.00197407,0.0019672085,-0.00087049935,0.0012875517,-0.0020416938,-0.0021534036,0.00091856136,-0.0031163725,-0.000105464525,0.00040561604,0.0026736192,-0.002345689,-0.0007762395,-0.0013647773,-0.0017580283,-0.0001562621,0.0015513687,-0.0016463173,-0.00054943375,0.0028872464,-0.0004441479,-0.001215995,0.0024856417,0.00043178842,-0.00011617449,0.0031278594,0.0027167483,0.0011600916,0.0011135368,-0.0007570125,0.0026956762,0.0017561732,-0.0018047207,-0.0020531882,-0.00019678041,-0.0025723313,0.001136375,-0.0030826905,-0.0005504618,0.0011295027,0.001019131,0.00108191,-0.00301568,0.0011554343,0.0017709493,0.0011849945,0.0026057966,0.000566389,0.0020890257,0.0029559936,-0.0002988943,-0.00022582502,0.00071622594,-0.002525367,0.0019196374,-0.0016786647,-0.0011025994,-0.0006370264,0.0027558217,0.0007585315,-0.00032941235,-0.0009260022,-0.0007072341,-0.00043657146,-0.0016879052,-0.0013701045,7.118569e-05,0.0015259824,0.0005770706,0.0022791415,0.00022987627,-0.001115282,-0.0024667804,0.0020050935,0.0023526207,-0.0020219274,0.0015573741,0.0032004819,-0.0020990202,-0.000999726,-0.0030341994,0.0010890949,-0.0011355282,0.00068723416,0.0031490051,-0.0028062046,-0.0031077885,0.00058503856,-0.0027003165,-0.0030326475,-0.0031281253,-9.63732e-05,-0.0003738404,0.00021392095,-0.00044630337,0.00301406,0.0029401565,-0.0021430461,0.0028721646,-0.0029991372,-0.00044763065,0.0008170934,-4.3661785e-05,-0.0013056145,0.00013875375,0.0003433808,-0.0031488803,-0.0016110335,-0.0026314913,0.0012237987,-0.00032990417,-0.002482138,0.0018458545,7.669138e-05,0.00088100176,0.0018367748,-0.00143821,0.0026160276,-0.002634315,-0.0011500329,-0.002462376,0.00034055093,-0.0025062775,0.0030479059,0.0018385977,-0.002418618,0.002039928,0.0022277695,-0.0024556643,0.0015442418,-0.002567844,0.0031350937,0.0015460162,-6.8934074e-05,-0.0029968077,-0.00031367442,-0.00010729486,0.00030744763,0.0028960803,-0.0008889482,-0.0029205878,-0.0029817102,-0.0003562496,0.0004620608,1.2430189e-05,-0.000732201,0.0028852206,2.5313153e-05,0.0021662412,0.0013195148,-0.0024139471,-0.0007039686,-0.0026272873,-0.0022317155,-0.0010478465,0.0021908046,-0.00029006434,0.0029642046,-0.00076242274,-0.0017874807,0.0012961827,0.00076388434,-9.7568474e-05,-0.0008257433,-0.0019943113,0.0013500707,-0.0025276649,-0.0029901795,-0.0030558559,0.0027843888,0.0012915194,0.0023686232,0.003334377,-0.0024393823,0.0013174417,0.00094411033,0.0020189187,-0.0011652231,0.0031190363,-0.0019415058,0.0023339028,0.0023361924,-8.690197e-05,0.0016960723,0.0022053102,0.0005005034,0.0024409937,0.0008367803,-0.00051986513,0.0024422994,0.0015637181,-0.0010996407,0.00057775254,-4.058703e-05,0.0016666204,-0.001777906,-0.0014150721,-0.00033193195,0.0012852277,-0.0021865559,0.002618388,-0.001027008,0.0019132885,0.0009731024,0.0023027533,-0.0014844891,-0.0011153927,0.0010144495,-0.00089782476,0.001987805,-0.0020276674,0.00086420646,-0.00021373176,-0.00014645618,0.0008598322,-0.0007944181,-0.0014544897,-0.0028932127,0.0008453153,0.0017889199,-0.001987456,0.0030292168,0.00132572,-0.0017456406,-0.00042136255,0.0012862494,-0.0022877045,0.00071304577,0.0018646731,0.002104712,0.00177177,0.0012003795,-0.0009403157,-0.0020107592,0.0027291344,-0.002425784,-0.00057044043,-0.0010834474,0.0021062915,-0.0020831015,0.0011573561,0.0006718413,-0.0013365257,-0.0027287,-0.00266914,0.0011415723,-0.003209657,0.0019180039,-0.0009731207,-0.0030790512,-0.0016664913,0.0025943515
pulmonary,-0.0005980546,0.0021424138,-0.0030743468,-0.003061453,-0.0017401205,0.00031244053,-0.0023736598,-0.0031174119,-0.0029985616,-0.00018385603,0.002484339,-0.0028094936,-0.0017922599,0.0004987874,0.0011103324,-0.0028363434,0.0026259872,-0.002740552,0.00158516,0.0031389985,0.001866237,0.0020511015,0.0027413038,0.001166707,-0.0023726323,0.0019161687,-0.0028030972,-0.0019335209,0.0019653654,-0.002673418,-0.0019396525,-0.001184501,0.0011561218,0.0017415709,0.0006747713,0.0017030312,-0.0008595271,0.0014314875,-0.0023737217,-0.0005548984,-0.002570369,6.264456e-05,0.0015520898,0.0016014302,-0.0015123745,0.0006087984,0.0026381796,-0.0018215751,-0.0012501532,-0.00017956471,-0.0015522771,0.0028845258,0.002495305,0.003086838,0.0031209257,-0.0027742882,-0.00017832161,-0.0025112235,-0.0015993483,-0.0029678913,0.0011285469,4.0105486e-05,-0.002328295,0.0026706995,0.00031896363,0.000112491,-0.0011873831,-0.0010958283,-0.0008811258,0.0025347145,0.0008021971,-0.0017094946,0.0015800078,0.0002953822,-0.0009054946,0.002597935,-0.0013344837,0.0024821777,-0.001408631,-0.0023833201,-0.0015067518,-0.0013205413,-0.00022011607,-0.0005501444,0.0017357462,0.0018045717,-0.00060796103,0.0012665153,-0.0006688408,0.00024758794,-0.00043886135,-0.0008058376,-0.0015789113,-0.0013961463,5.326705e-05,0.0005638161,-0.0031316546,0.0020237535,-0.0005480268,-0.00095089717,-0.0016137451,-0.0014553048,-0.0015686812,-0.003280209,-0.0002594401,-0.0026181522,-0.0015922711,-0.0024737094,0.0032901766,-0.00042156008,-0.0025993965,0.001855826,-0.0027008008,-0.00063134177,0.00091294147,-0.0023604142,-0.002912492,-0.0022177782,0.0025123577,0.0029811831,0.0013259507,0.0008077848,0.0013959049,-0.0013753346,0.0032421183,0.0023356697,0.0013847938,0.0029483163,-0.0027972546,0.0003430597,0.0029742776,-0.0002998582,-0.0022528162,-0.00078116683,-0.0009385352,-0.00082097994,-0.00063984666,0.002428276,-0.000107429776,0.0014147222,-0.0012593842,0.0027065547,-0.0021656319,-0.0031020644,-0.001375383,-0.0024997129,-0.0016582297,0.00016738975,0.00079174293,0.00056704937,0.0016629035,-0.00050920626,0.0007441806,0.00012838155,0.0026031486,0.0026997544,-0.00071077363,0.00039844803,-0.002052669,-0.0015552384,-0.002329386,1.7329311e-06,-0.0016647495,-0.001316847,0.00048276345,0.0008730424,-0.0030515604,0.00057077286,0.0016762428,0.0014063196,-0.0010221925,0.0031663713,0.0031476973,-1.2341119e-05,0.00026779537,-0.003082799,-0.0016082777,-4.044128e-05,0.0013489698,6.9138965e-05,-0.002930405,0.0019503569,-0.00248076,0.0028553908,0.0018235856,-0.002260069,0.0009811362,0.0026192418,-0.0020666565,-0.002224152,0.0030638748,0.00061436614,0.003228803,-0.0032925264,-0.00048119924,0.002278973,-0.00047434535,-0.00058769336,-0.0023883726,-0.0018817262,-0.0022171992,0.002991331,-0.0005369685,-0.0027781003,0.002642421,-0.0009947958,-0.00044096174,-0.0002301415,0.0009358384,-0.001575078,-9.482642e-05,-0.0009656216,0.002947296,0.0023042182,0.00036197528,-0.0020612236,0.001054286,0.000356877,-0.002077628,-0.0019150219,-0.0010005783,0.0007653338,-0.0027420355,-0.001658327,0.0026573148,-0.001247063,0.0026746276,0.00017333051,-0.0018691326,-0.0016283052,-4.599385e-05,0.001539078,-0.0020525279,-0.0018493899,-0.0022829238,0.0022767906,-0.00081290514,0.0013267412,-0.00053400296,-0.0025078233,-0.00039599274,0.00013431323,0.0011970424,-0.002858709,-0.0022720012,-0.0021883873,0.0010088613,-0.0012645638,0.00034429607,0.0013935354,0.001502711,0.0007948475,-0.00095562026,0.00021486628,-0.0018526462,-0.0021404899,0.0029352945,-0.0013444505,-0.0031730733,0.0012188002,0.0028559081,-1.9611789e-05,0.00076141296,-0.0012449052,-0.0014434184,-0.0029017183,-0.0025933206,-0.003035064,-0.0020337682,0.002827112,0.0031293822,-0.0005736633,2.0864465e-05,0.0025890574,0.00046377422,-0.0016911125,0.0009095344,0.00063149096,-0.0012831623,-0.0016575279,0.0032159104,0.0025554008,-0.0028459493,-0.0018169921,0.00046752844,0.0003264764,-0.0028432794,0.003139436,-0.0017912018,0.0015202607,0.0031037824,0.00037808024,0.0014185215,-0.000927201,-0.0032543682,0.00021088668,-0.00035303846,-0.0033390801,0.0023630157,-0.0024450936
thrive,0.0017037498,-0.0014700106,-0.0030587872,-0.0030225704,0.0020744682,-0.0017438015,0.0017516008,-0.00052596914,0.0032290972,0.0023869725,0.0032984947,0.0027907307,-0.0026243492,-0.0031967803,-0.0018570563,-0.000266975,0.001668788,0.0012259518,-0.0006717532,0.0016852118,-0.0011359422,-0.0022714315,0.0015668345,-0.003283775,0.0002963547,-0.0016717346,0.0025280663,-0.0012367007,0.0009342387,-0.0020945417,0.0032076763,-0.0018617909,0.0011907426,0.0010813676,0.0029767568,-0.0018552018,-0.0014490067,-0.002077219,0.002049626,-0.0015249669,0.0016067624,-0.0002985209,0.0024263735,-0.002010597,-2.7505437e-05,-2.4776755e-05,-0.0028444163,0.002917518,-0.0006978863,0.0021494138,3.0250736e-05,0.0016754068,0.00074215437,0.0029455626,-0.0027732432,0.0028095434,0.0028825006,0.00035011384,0.0014785503,0.0012744166,0.0013475242,-0.0009807873,0.0009496103,0.0002571983,0.0016107769,0.002802353,-0.0025847882,5.3112588e-05,-0.0029096499,-0.00052613346,-0.0030167159,0.0010539338,-0.00052383833,-0.00024058651,0.0021445611,-0.0026923625,0.00038445788,-0.00080327736,-0.0012412928,-0.0024245537,-0.0026591301,0.0027649542,-0.002481222,0.0016137618,-0.0012581919,-0.00040084412,0.0009370951,-0.002856174,-0.0018838404,-0.0025761924,-0.003135201,-0.0015765125,-0.0010550595,0.00015849603,-0.00023232464,-0.0026218728,-0.0012622871,-0.0009128618,-0.0021274395,-0.0021299503,-0.00086832984,-0.00263795,-0.0027525849,-0.0025272751,0.0011827757,-0.0025320062,-0.001231183,0.002209505,0.0024659338,-0.002135596,0.0022653637,-0.0025865415,4.531965e-05,0.0022075728,-0.0009453469,0.0030736574,-0.00010878407,0.0015628029,0.002318301,-0.0028504136,-0.0020212634,-0.0024328672,-0.00038916987,-0.0023675722,3.727441e-05,-0.0026772197,0.00016754222,-0.00013223248,0.0021621897,-0.0029578612,-0.001054562,0.0019685552,0.0030806093,-0.00059762516,0.00025394364,-0.0020323698,0.0002759359,-0.002706665,-0.0025518062,0.00046127324,-3.1282143e-05,0.001851087,-0.003253884,0.0005543595,0.00052781735,-0.0017500941,2.263025e-05,0.0020187022,-0.0021972037,9.604442e-05,0.001301032,0.0005619354,0.0009504489,0.002719828,0.0022235732,0.0011712712,0.002653958,-0.0025583229,0.0025074421,0.0012992225,-0.001964336,-0.001393412,0.0021302968,0.0019426146,-0.003286896,0.00041805967,-0.00014198586,0.0002707753,0.0023576012,-0.0023921065,0.0032064873,-0.0031535248,0.002069324,0.0031628706,-0.0012738252,-0.003133972,0.002054944,-0.0029869836,-0.0027611046,-0.00027322484,-0.0022146169,0.0029148431,0.002610837,0.00028086678,0.0026677554,0.0032828688,0.0017360591,0.0014440342,0.0017901295,0.0021367415,0.0015811046,0.0021276304,-0.0024832308,0.002951659,0.0027621982,0.0031254287,-0.003001249,-0.0011461586,-0.0001160705,0.0013933473,-0.0027422437,5.3385396e-05,0.0020080272,0.0031937747,-0.0009461937,0.00061116565,0.0021052945,-0.00066593767,0.00064724265,-0.0031089643,0.00023866876,0.0015253855,0.0015046165,-0.0032486734,-0.0017174371,0.0009857715,0.00052695523,-0.0015693605,0.0019376292,0.0011660462,-0.002606979,0.0032769528,-0.0025726035,-0.0010099957,0.0032405313,0.0003806136,-0.0018468273,0.00037635217,-0.0013572699,-0.002247968,-0.002589819,0.0015881568,-0.003008462,0.0013514237,-0.0018494157,0.0018147368,-0.0014584878,-0.0018553527,0.0021153935,-0.0028825598,0.0004488568,-0.0007110183,-0.0022310214,-0.002549192,0.002250588,-0.0014890117,0.0015268151,-0.0032261328,0.00063751143,-0.0006554259,-0.0019694113,-0.0009307652,-0.0028902171,-0.0011573246,-0.0008619586,-0.00076335075,-0.001701504,-0.0030645062,0.001776745,-0.00043485637,0.0020582764,0.0010233227,0.0028548404,-0.001176043,-0.0029666955,0.0004409976,-0.0029935758,0.0020120852,0.0028044928,0.00017081914,0.002564038,0.002850011,0.0013994796,0.0018047838,0.0030475266,0.00037831336,-0.0027442495,-0.002775315,-0.00059560005,-0.00021225752,0.0029420145,-0.003100317,-0.0008622179,0.0030419282,-0.00048159214,-0.0030276102,0.0006625978,-0.0019407205,-0.0018261106,-0.0021183817,4.1793992e-05,0.002406555,0.0013789166,0.0027203914,0.0029490916,0.0015057281,-0.0020135178,0.0023513164,-0.0031738828,-0.0015950346
gi,0.0026655826,0.0026410595,-0.0017992604,-0.0026595416,0.0026842584,-0.0012773823,-0.0013555922,0.0024117203,0.0018088283,0.0012705674,-0.00039351112,0.0028982926,0.0028225593,0.002319762,0.003030684,-0.001933653,0.00033564278,-0.0005455747,0.002104303,0.0032708526,0.0017197279,0.0013444579,0.0021833538,0.0019583108,3.3975408e-05,-0.0027833923,-0.0007488189,0.0030226687,-0.0016868879,0.00033277803,0.0016342965,-0.002316072,0.002738859,0.00049367343,0.00080928544,0.002779287,0.0004922309,0.00028082338,-0.0031431534,0.0032902937,-0.0032921804,0.0028536024,0.001684362,-3.0421179e-05,-0.0026240004,0.0031183218,-0.00045955105,0.0017921588,-0.0010118015,-0.0016389677,7.4091266e-05,-0.002688636,-0.002216935,-0.0031590688,0.0017844888,0.00015834831,-0.0003019287,0.0017153238,-0.00065623556,-0.0024765122,0.0009584729,-0.0020019526,0.00015806478,0.0031551546,-0.00031840117,0.0020523511,0.0015031591,-0.0011734656,-0.0017437999,0.0029440336,0.00070312916,-0.00014884098,0.00030680897,-0.0016520087,0.0011821884,-0.0010263793,0.0014007533,-0.0015169536,-0.00025558416,0.001331062,-0.002373512,-0.00084540324,-0.0029117912,0.00055836374,0.00067786645,0.0008074738,0.00033668563,3.284493e-05,0.00074261206,-0.0003035015,0.00198509,-0.0009880947,-0.0017010085,-0.0017784294,-0.003216414,-0.0027019284,0.00069796364,0.0013382313,-0.0019190593,-0.003219804,-0.0020581188,0.0015568802,-0.0030045991,0.0016957119,0.0021106629,0.0020302415,-0.0025409742,0.00095080846,-0.0018345945,0.0030219625,-0.0014451757,-0.00077822316,0.0017435624,-0.00026899332,0.0017017327,-0.0014062575,0.0016570728,-0.0032785342,0.0020371438,-0.0004375153,-0.0018731205,5.7114585e-06,-0.00040070125,-0.00023435013,-0.0005821117,-0.0030849443,-0.0025993001,-0.002272014,-0.002878651,-0.0014985041,0.0030704017,-0.0006071547,-0.0025238006,-0.0019822314,0.0012048945,-0.0008926753,-0.000517387,-0.0014264688,0.001983096,-0.0026231108,-0.002500709,0.002489518,-0.0023297574,0.0007262306,0.000134029,0.003220031,0.0014172624,0.0006918341,0.00091649627,0.0007581169,0.0007343899,-0.00093294476,0.0013478388,0.0020396293,0.0029738753,-0.00024231261,-0.0004268275,0.0021354577,-0.002841614,-0.00020347987,-0.0022407302,0.0015924291,-0.0029879238,0.0011040121,0.0030025092,-0.00069354096,-0.0029375807,-0.002730752,0.0010783913,-0.0017664891,0.0021345834,-0.0003871101,0.0026232211,-0.00017403596,-0.0020834133,-0.001898219,0.00024729033,-0.0015963493,0.0021991956,-0.0011719234,-0.0018791393,0.00031493764,-0.0016324898,-0.0027386765,-0.0017714448,-0.00060478423,0.00015339676,0.0012205817,0.0022806483,0.0022342494,0.0019545266,9.450353e-05,-0.0019526457,0.0029970382,-0.00019774384,0.0015719861,-0.00046915683,0.0019398733,0.0017746704,-0.0024344537,-0.0009336707,3.1776985e-05,0.00068017666,-0.0030956026,0.0016094333,0.0011340139,-6.8781344e-05,-0.0011821039,-0.0025495705,0.002539009,-0.0028737767,-0.0024826117,0.0014905059,-0.002844527,-0.0010812612,-0.0006955078,-0.0006438634,-0.0022952051,0.0014229413,0.0003217141,0.0012417107,-0.0004478218,0.0023062166,-0.0031776107,0.0019376228,-0.0017201421,0.0005671191,-0.0023195553,-0.0008166933,-0.0021344624,-0.0011084123,0.003249307,0.00089694984,0.00054443866,-0.0020393403,0.0018603038,-0.0027095978,-0.0007567495,-0.0021649494,-0.00213966,0.00079650845,-0.0010929123,0.00081481546,0.0013080797,-0.0020947452,-0.00058772735,-0.0009115742,-0.003258457,-0.0032820634,0.00037244803,0.0014679802,9.074131e-05,-0.0016083114,0.0012103859,0.0005462698,-0.0031573907,0.002404263,0.0026016682,-0.0025902686,-0.00026064418,0.0020277575,-0.0009085209,-0.00010649204,-0.0014328582,0.0020352814,0.0023158116,0.0007203587,-0.0015550174,-0.0006122459,-0.0013245633,-0.003261786,0.0025925518,-0.00020763707,-0.00021282447,0.0023907267,-0.0030195245,0.0021200695,-0.002527408,-0.0017912457,0.0016852929,-0.0011720365,-0.0011628467,-0.0021098268,-0.0012912034,-0.000887518,-0.0013648182,0.0031287344,0.0031539195,-0.00012455776,-0.00010056854,-0.0018683955,0.0026458253,-0.0016530347,0.001959482,0.0030264552,0.0019294511,-0.00030263886,0.0018474781,0.0023251898,-0.0012894958
pain,0.00021474063,0.0021741977,0.0019681784,-7.7708275e-05,0.00079023204,-0.0021847063,-0.0031097315,-0.0016409722,-0.001812289,0.00017654397,-0.0013170292,-0.000118059106,0.0025385027,0.0032374794,0.0026397354,0.00078458444,-0.00089574826,0.00079790625,-0.0008979513,-0.0029927231,0.002300616,-0.0028969666,0.0012531831,-0.0013086855,-0.0018413105,-0.00035746535,-0.0021988112,0.0028444724,-0.002288779,-0.0030127463,0.0019299653,0.0014980988,0.001571109,0.0008150628,-0.0012224525,-0.0017052969,0.00060227665,0.002767103,-0.0018750612,-0.00080227235,0.0006074395,0.0022543236,-0.0021464142,-0.0015172964,-0.0008671297,0.0004558376,0.0018065723,0.0018732474,-0.0028996605,0.0024355354,-0.00082363636,-0.0009384639,-0.0029700177,-0.0019218675,0.0031418349,0.0010570867,-0.0026794313,0.0009513269,-0.002356139,-0.0030316,0.0012849984,0.0006808597,0.0004074107,0.0029521105,0.0020866909,-0.0016859757,0.00090751814,0.00085444713,0.0008007485,0.002771313,-0.0023051745,-0.00074519025,0.00033584598,0.0021078277,-0.0002173063,0.0026519,-0.0015646261,-0.0030073915,-0.0023484144,-0.0013502064,0.0032137425,-0.0017150018,-0.0016265305,0.0027662308,-0.0024738803,0.0006732983,0.001891205,-0.0024946574,-7.739235e-05,-0.00078447245,0.0018562451,-0.0015233742,-0.002221449,0.0033159608,-0.0015391081,0.0025508,-0.002805201,0.0023475792,-0.0011254799,-0.0025946128,-0.00039297383,-0.0008034914,-0.00058581564,-0.0003935814,-0.0021669983,-0.001196042,-0.0010574587,0.002573379,0.0019417456,-0.00027967663,-0.0016089178,0.001763734,-0.002953632,0.0005524883,0.0013455553,-0.0006432113,-0.0015147215,-0.0027506652,-0.0027530266,0.0023537702,0.0012035696,-0.00012903263,0.0032483458,-0.002867038,0.00019712826,-0.00013798295,-0.0026928699,-0.0030421696,0.0024024548,-0.0012062733,-0.0026294426,0.002659837,-0.0020935112,-0.0010658884,0.0005928735,-0.0010951491,-0.002643063,-0.0013060698,-0.0030110888,0.00044961827,-0.001553392,-2.164785e-05,0.00090559275,-0.0007976629,0.0029507722,0.0023354434,-0.00020326949,-0.00020465926,0.00028822382,0.0022270537,0.0029911606,-0.000658847,-0.00054966,-0.00096906116,0.00015645975,-0.002144314,-0.000640713,-0.0029024004,0.00020387194,0.0004874424,0.0012251199,-0.0009542713,0.0019715254,-0.0023490565,0.0032591186,0.00016446153,0.00077148754,0.0014533033,0.00013138248,0.0008647317,0.00050602196,-0.0032012386,-0.001050703,-0.00086668984,-0.003094886,0.0011514144,0.0015924957,-0.00069640443,0.0024666851,-0.00038509152,-8.824227e-05,0.0019294517,-0.0028351129,-0.0023217336,0.0024503034,-0.0021989453,0.0028304718,0.0018111523,-0.0026868684,0.002788295,0.0020847877,-0.0022353053,-0.002824381,-0.0029509112,0.0012893791,0.0021129064,-0.0007065477,0.0004520599,-0.002797183,-0.0017080242,0.0015499735,-0.0030187042,-0.0030846943,0.0003454056,-0.0028724775,-0.002322156,0.0015826869,0.0026523795,-0.002474824,0.0027071827,0.0031152337,0.0015601685,-0.0014747295,0.0032282805,-0.0025803267,-0.0013208427,0.0006375975,-0.002551284,-0.003326943,0.0009641631,0.002753506,-0.0017117962,-0.0014452179,0.001296144,0.00021345812,-0.0028556313,0.0021864655,-0.001042657,0.0011964854,0.0010600066,0.002980437,0.002924233,0.0024318697,-0.0027638366,0.000393419,-0.00030877854,0.00029053906,0.002963215,0.0015994227,-0.0030005085,0.0032912674,-0.00028703536,0.00013428937,0.001650276,-0.0020712048,-0.0001459689,0.00048074088,0.0023468456,0.0014389205,-0.00064453215,-0.002807233,-0.0013008243,0.002941714,-0.0031688034,0.003259718,-4.9807193e-05,-0.00038217186,0.0031973843,0.003172246,0.0027551441,0.0030157503,-0.0033107186,0.0025066657,-0.0031597898,-0.0025839764,-0.0029636703,0.0007236673,0.0024047815,-0.002126068,-0.0008975438,-0.00078872865,-0.0015013234,-0.00043399367,0.0016068475,0.0012579297,-0.0010680057,-0.0012261379,-0.0007732584,-0.0010918337,0.0013023465,0.0032311662,0.0026165836,-0.0025219687,-0.002151474,-0.0030536312,-0.0019882938,0.0011890174,-0.0020060074,0.00056836737,0.0029612323,0.0011262113,0.00041365865,0.0029857538,0.0021227256,-0.0004945551,-0.0020764482,-0.0003477947,0.002427481,0.0025129043,-0.001326325
left,0.0032897724,0.00080125075,0.0017360051,-0.0019122557,0.001451555,7.4001095e-05,-0.0031779765,0.001735931,-0.0030273404,-0.002177715,0.00094273256,0.003106663,-0.00070013315,0.002307723,0.0017099986,0.0013307921,-0.0020600234,0.0016801548,-0.0027719925,-0.0014394176,0.0018021371,-0.00273602,0.0019317021,-0.0011465324,3.9694274e-05,-0.002466219,-0.0021210518,-0.0011295356,0.0028606125,0.001772135,-0.003223785,-0.002190589,0.0011636681,-0.0028297438,0.002216912,0.0020772538,-0.0030863076,0.002861813,0.002600464,-0.00060804846,0.00058756967,-0.001899728,0.0020591624,0.002581239,0.0013588549,-0.0029336368,0.0016889963,-0.0009881201,-0.0007485081,0.002041238,0.0006598881,0.0015346875,-0.0021150056,0.0017519625,-0.0011993551,-7.011988e-05,0.002079016,0.0013935155,0.0024994137,-0.0013318661,0.0011861575,0.002444971,-0.0011349729,0.0019351399,-0.0031550915,0.0029818565,0.0012806144,0.0017783459,0.001535956,0.0015047506,-0.001085457,-0.0020550452,-0.0007429343,0.0004395722,-0.0009863111,-0.0028227326,-0.002121811,0.0027973596,0.0031148451,0.0020794799,-0.0013651908,0.00022104701,-0.0028601838,0.0022885685,0.00019350166,0.0024689971,-0.0018337804,-0.00094095594,0.000962855,0.0011537662,-0.0021504257,-0.002447541,0.000670631,-0.0029748266,0.0019336395,0.001844506,-0.001254778,-0.0018753319,-0.002778628,-0.00060309883,0.00231053,-8.641597e-05,-0.002606908,0.0029628999,-0.002859902,0.0018253187,0.002177283,0.00032715392,-0.0029273194,0.0020979391,-0.002624405,-0.0016602121,0.0032084691,-0.0027452996,-0.0025461074,-0.0016157202,0.001142593,0.00062204764,-0.0018234488,-0.0011356567,0.0028529612,0.0032706577,0.003325845,0.00034824622,0.0013535441,0.0005002652,0.00058838585,0.0015700837,0.0007549828,0.00012294257,-0.0010434722,-0.0021648386,0.0026644112,-0.002028444,0.0009243593,-0.00028037193,-0.0012292921,-0.0016571227,0.0010601432,-0.0019693016,-0.0025059914,-0.0009258908,0.0015683704,0.002016069,-0.0004651806,0.002404904,-0.0025674105,-0.0015873614,-0.0026176812,-0.0020418412,0.0024372092,-0.0031406197,-0.002939551,-0.003247062,0.0030617102,-0.0008702247,0.00026810612,-0.0020672062,-0.0008907892,5.4267068e-05,-0.0008589309,-0.0024601105,-0.0020876417,0.00087520346,-0.0031864045,0.0003802789,-0.0006576973,0.0027622122,-0.0001517068,0.002111033,-0.0024074574,-0.0024995229,0.0018440066,0.00029962257,-0.0017217501,-0.0008761817,0.0029142662,-0.0030828668,-0.0012402859,0.00034726746,-6.931436e-05,0.0031738975,-0.0006605927,-0.0023876168,-0.002596956,-0.00329933,-0.002592763,-0.0019740455,-0.001992407,-0.00051203626,-0.00020564398,-0.0015618149,0.0006984957,0.0012930928,0.0030477652,-0.0015772275,0.0017223053,0.0024153413,-0.0012656491,-0.0024759015,-0.001160928,-0.0022894999,0.0021643268,0.0031309978,0.002733925,-0.002846218,0.0016700482,0.0016813172,0.0018752429,-0.0027658306,-7.724343e-07,-0.0023010764,-0.0029702147,0.00083830697,0.0033135123,0.0021358703,-0.0023707815,0.0007571994,-0.0013489977,0.003315875,-0.002898485,0.003208664,-0.0022129146,-0.002336762,0.00049286784,-0.00024680965,-0.0028368565,-0.00020890716,-0.00012670114,-0.0020609514,0.001956407,0.0010744124,0.002792472,0.002448326,-0.0022416557,0.0016124723,0.0019090868,0.001920509,0.001736844,-0.0016316571,0.0014839415,0.00046224106,5.4104883e-05,-0.0021460983,0.00051576225,0.001739672,-0.0030370879,0.0028776613,0.0010062455,-1.1409076e-05,-0.001119436,0.00013440734,0.0020645768,0.0016035249,-0.0020400265,0.0026242344,-0.00018223326,-0.002710843,0.00292679,0.0016697848,0.0012620998,0.0027062716,-0.002492,-0.0020203784,-0.00069886976,-0.0013989453,-0.00051786855,-0.00019705415,-0.0028257892,0.0006319871,0.000844162,-0.0002933673,0.0016306698,0.0004650187,0.002056761,-0.0007326837,0.0028883207,-0.0005199349,0.000982702,-0.0012965944,0.0020337768,0.0010306886,0.00018763039,0.0029396692,-0.002634054,0.0032524725,0.00020314967,-0.0007581119,-0.001387561,-0.0030399507,-0.0007192036,0.00091938284,0.0022017527,0.0029960799,-0.0029495547,0.00305782,-0.002937949,0.001230638,0.0027116265,-0.0008006947
respiratory,-0.0026261788,-0.0027749843,0.00039589626,-0.00025857202,-0.003185502,0.0010211316,0.00075923,0.0015024998,0.0014634233,0.0010652062,-0.003274991,0.0019078101,0.001410409,-0.0025726408,-0.0007054784,0.000111311885,-0.00021299388,-0.00031728513,-0.0018445802,1.9962094e-06,0.0014654949,-0.00022158549,0.0002699725,0.0007112195,-0.0013221083,-0.0026202223,0.0030384448,-0.0032732468,-0.00082688703,-0.0004276337,-0.0025449027,0.0005838147,0.002660719,-0.00049908966,0.0026970594,9.24751e-05,-0.0019221386,-0.00066408946,-0.00024293535,0.002076523,0.0023756053,0.0020757336,-0.0020078882,-0.0023315428,0.0020391608,0.0008332407,0.0017948657,0.0001597519,0.0026295613,-0.0029583194,0.0033089516,-0.0027411173,-0.00057337,0.002095812,-0.0030755687,0.0014581252,-0.0023288943,-0.0022756304,0.0007704177,0.0005670283,-0.00092803064,0.0026183103,-0.0023469788,0.00017226265,0.0029136876,0.0006766139,-0.0022761016,0.0011698044,-0.0016897646,0.0001975689,0.0009542336,0.0025353136,0.002468601,-0.0016411844,0.0031805683,-0.0018127522,0.0025268672,-0.0026600854,-0.0026070606,-0.00034625208,-0.0027135783,-0.0011516295,-0.00017333296,3.443002e-05,-0.003311693,-0.002165052,-0.002497961,-0.00012670015,0.0017404824,-2.1492659e-05,0.0033349649,-0.0012998806,0.00268023,0.0020379848,0.0027581763,4.437729e-05,-0.00013565744,0.0006388294,-0.0032965688,0.0030298228,-0.0007924386,0.0025091034,0.0006973526,0.0009610601,-0.00041048697,-0.0033089842,0.00046264337,0.0009591308,-0.003280598,-0.0012895347,-0.0007893021,-0.0016812333,0.0013156799,0.00070276856,0.0014494287,-0.0021501672,-0.001996184,0.0015753363,0.0022592347,0.0018231128,0.0016064773,-0.0024075678,0.0027319284,-0.00232798,-0.0025494704,0.0028482126,-0.0008185177,-0.0031482466,-0.0010301538,0.0019965458,-0.0009656814,0.0016547448,3.3220884e-05,0.0013406436,0.00039244676,-0.0030945404,-0.001220319,0.0029366817,0.00050491904,-0.0019732348,0.0023273716,0.0024739332,0.0024224047,3.5312098e-06,-0.0030506602,-0.0011782877,0.0017009592,-0.0021700019,0.0032450587,-0.0032671443,-0.0027118782,-0.0018036957,0.0019914017,-0.0025532346,0.0028891712,-0.003277911,0.0011418557,0.001088157,-2.6660775e-06,0.0031974027,0.0016982169,9.373187e-05,0.0016007427,0.0021526157,0.001004458,0.0031432167,-0.00043502255,-0.002801563,-0.001498094,-0.0004879741,-0.0024382311,-0.000523212,0.0026338717,-0.0016818283,0.0016997427,0.001458082,-0.000241887,0.00035567133,0.0019142396,-0.0022088962,0.0012975619,0.002978346,-0.0011744179,-0.0025436648,-0.003077748,-0.002998344,0.0013006428,0.0017165161,0.0023434868,-0.00050154765,0.00032469205,0.0010175648,-0.0033036177,-0.0031385182,0.0015288257,-0.0028072004,-0.0010602854,-0.0014368634,0.0019623819,-0.0011493887,0.0033154234,0.00018581553,-0.0017278242,-0.0012177557,0.0004154634,-0.0017946931,0.0024634618,0.003007891,0.0014319791,-0.002442577,-0.0019884915,3.85244e-06,-0.00033423168,-0.001834931,0.002642718,0.002063325,-0.0013922646,0.0007783255,0.0016934873,0.0008055236,0.0028785374,-0.0004402936,-0.0021820546,-0.0002805181,-0.0027933924,0.00327854,-0.0028755094,-0.0005059724,-0.0009546887,0.0010578515,0.0016701383,-0.0027428076,-0.001472332,0.00016413651,0.0013239242,0.0017083428,-0.0004729343,-0.0002159867,-0.002603285,0.0015002785,-0.0025306707,0.001101482,-0.0011472339,-0.0025959094,0.0022946312,-0.00015435828,-0.003172554,-0.0031270615,0.00020759954,-0.0027270026,0.0012505063,0.0011651759,0.0011253458,-0.0018713695,0.0026376417,-0.0030078958,0.0025005657,-0.00020631563,-0.00050377025,0.0013103186,-0.0008081372,-0.0014565418,-0.0008108897,-0.0020812023,-0.00013458602,-0.0017979277,0.001544413,-0.0031863071,-0.0014634986,-0.003061136,-0.003212262,-0.00025582768,-0.0026903749,-0.0019054031,0.0009416384,-0.00048330388,0.0010587901,0.0027551402,-0.0032236453,0.0020216824,-0.0026552877,0.0021884763,0.0024815365,0.0028611047,-0.00265585,0.0011115993,-0.0026272028,-0.00040933877,-0.0017474203,-0.0028491686,0.0016615673,0.0014859906,-0.0013463649,-0.0026066743,0.001170839,-0.0013027025,-0.0029561555,-0.0014649726,-0.0007218035,0.0029278137
sp,-0.002166697,0.0024537737,0.002062064,-0.0016509403,-0.00060548383,-0.00085437763,0.0010687107,-0.00011941753,-0.0009591259,-0.0030415372,0.0021634125,-0.0032249787,-0.002883224,0.00043398916,0.000989416,-2.966819e-05,0.00013231408,0.00087866426,0.0005901976,0.0025291475,-0.0011855447,-0.0024318667,-0.0026307888,0.0026559415,0.00064839236,-0.0019644327,0.0020831772,0.002789122,0.0026485478,-0.0023162896,-0.001689021,-0.0006493255,-0.0021775789,0.0015766327,0.001882006,-0.0019882135,0.0024254576,-0.0025998778,0.0020585877,-0.0015401447,0.00065971236,-0.0010902655,0.0011328824,0.0025827254,-0.00043187244,-0.0016298981,-0.0028264606,0.0012400671,0.0014212563,0.0022546127,-0.0013812473,-0.0032715288,0.0022846959,-0.0015206941,0.0014667561,0.0027518894,-0.0013101521,0.00059285044,-0.0011981288,-0.0022206265,-0.0019026072,-5.119082e-05,-0.0025268646,-0.00065995613,-0.0008184096,0.0022594023,0.00048132444,0.0019628443,0.001285248,-0.0011860054,-0.0016978211,0.003233176,0.0023814728,-0.0030542463,0.0017625325,0.002769916,0.0030523774,-0.0026864344,-0.00066139805,0.0004327221,0.0009845592,-0.00056211883,-0.0015641078,0.0022385463,0.002332603,-0.00013277691,-0.0019832798,-0.0014288791,-0.0017127928,0.0014233497,0.00019995151,-0.0007680078,-0.003036192,-0.00046992517,0.0021470394,0.0021230506,0.0014097893,-0.0009509219,0.0030380082,0.00022288783,0.00038024242,0.0020636152,-0.002151592,0.0021934877,0.0032715604,0.0011916467,0.00116686,0.0013972571,-0.00066155766,-0.002685636,0.00049277314,0.00032704126,-0.002274197,0.0006785836,0.0018029413,-0.0024001237,0.0008396081,0.0025665648,-0.002866266,0.001130991,-0.0028634781,-0.0026308927,0.0023867001,-0.0025277114,-0.000468149,-0.002603893,-0.002597316,-0.0023892312,0.00015637183,0.00062590605,-0.0026120318,-0.0026715077,-0.0010710692,-0.0006376759,-0.0020708886,-0.0014110928,0.0011849806,0.0010126735,0.0021906232,0.0013956047,-0.00030947058,0.0008728304,0.0030146616,0.0006393448,0.00062801264,0.000349268,-0.0031139518,0.0017789423,0.0016743199,-1.1348509e-05,0.0030835893,-0.001961059,0.0010362222,-0.002594971,-0.003021259,0.000678742,0.0015297916,0.002014966,-0.0029549801,0.0014869964,0.00077349326,0.0013810771,-0.00024982475,0.0018858358,0.0024300974,-0.0027873737,-0.0033204702,0.002330518,-0.0003534258,-0.0031196072,-0.0014094409,0.00039927434,0.0028109043,-0.000573134,-0.00035114185,-0.002447593,-0.0025707474,0.00048023582,-0.00015704267,-0.002531917,0.00029522396,-0.0029965509,-0.00085401646,0.0013969766,0.00035399775,0.0026106748,0.002221081,-0.00034252883,0.0016147364,0.0020017866,0.0028874343,0.003044669,0.0016255333,0.0015351292,0.0024422759,-0.0005254585,-0.0018663054,0.002976776,0.00039663512,-0.0016758098,-0.00034864564,-0.0017579312,0.003029629,0.001131052,0.0014014483,0.0021824862,0.0027273986,-0.0016135953,-0.0021424813,-0.001228689,-0.0012309009,-0.0031617328,-0.00017345577,-0.0026899606,0.0032642018,-0.0011557274,-0.002118112,-0.002732849,-0.001220517,-0.0031972446,0.00030570902,0.0017713276,-0.0009972247,0.002559765,-0.0006855472,-0.0024516208,-0.0010201479,-0.0010556404,-0.0023711494,-0.0031996996,-0.001326725,-0.0005091563,0.0016716497,-0.0025247873,-0.0016782862,0.00047189044,-0.0005704794,0.0011876707,-0.0006319248,0.0014168243,0.0027238855,-0.002636025,0.0012637089,0.0020198734,-0.0001857394,0.0022382808,-0.001786165,-0.0015374336,-0.0026024068,0.0031578569,-0.0031287195,-0.0010704404,-0.00012956634,-0.0016152926,0.0031175672,-0.0022907837,-0.0026440795,0.0030737822,-0.0028224434,0.003210449,-0.0013269152,0.0019247956,-0.00011561949,-0.0014053563,-0.0025284267,-0.002137997,0.002322949,0.002115479,1.9219695e-05,0.0021527004,0.0012675817,0.0012479308,0.0008763021,-0.00328525,0.0031419592,-0.0027421198,-0.00096387503,0.000490638,0.0017202332,-0.0031025284,0.00057192484,0.002130296,-0.0029104135,0.0032213586,-0.0017560491,0.0031929289,-0.0022540006,0.0022401067,0.0031485702,-0.0030999673,0.00011707904,-0.00255845,0.0027379165,0.0031828426,-0.002041989,0.00029509052,-0.00072362676,-0.0025995686,0.00031896884,-0.0032872923
tract,0.0008659512,-0.0025642856,0.0018976615,0.0025078934,-0.0008697707,-0.0013376811,-0.0031909968,0.0016756285,0.00094880216,0.0028841326,0.0011037603,-0.00096428103,0.0011803139,0.0028804813,0.0030902259,0.0025415437,-0.0028446373,-0.0025318912,0.0024377452,-0.002481414,0.001071323,0.0026633067,-0.00106504,0.002266606,-0.0027067165,0.002150355,0.0018402262,0.0010858142,-0.0027023498,0.0030304664,0.002754056,-0.0005164753,0.0013724518,0.0021439013,-0.000576948,0.0018492981,-0.00133566,-0.00043724812,-0.00040427427,-0.0013964395,-0.000247389,-0.0025557901,0.0012090666,0.0030186758,0.00161981,0.00214295,-0.0015636963,0.0016451208,-0.0022212542,-0.0016557811,0.0033199696,0.0021433916,-0.0016738221,-0.0020289149,0.0024045012,0.0009406333,0.00218551,-0.0022288319,-0.00032401708,-0.00034125336,-6.678992e-05,0.0007433244,-0.002269642,0.0014718658,-0.0009306322,0.0028053622,-0.00033977805,0.0030457817,-0.00028335451,0.0017287703,-0.0025347855,-0.003022571,-0.00011383407,-0.0007781347,0.003324972,0.0015200068,-0.0018678858,0.002469446,0.0001959668,-0.0031289565,0.0019260026,-0.00067678577,-0.0031393801,0.0029661318,0.0024476296,0.0028517656,9.568002e-05,0.0025928216,0.001748975,-0.0023177776,0.0031117424,-0.0011657977,-0.0032581158,0.002868844,-0.0017576462,0.0028222802,-0.002601823,0.003095402,-0.0019686597,0.0013467998,0.0032571943,0.0013849173,-0.0006831824,-0.0016600285,-0.003250713,0.0013876345,0.0024912742,-0.0015749471,0.0019538184,0.0023016264,-0.0030141773,0.0007089649,-0.0022752325,-0.0014448701,0.00027890832,-0.002338355,-0.0013740683,-0.0025108356,-0.0023162155,-0.0023428893,0.0033010705,0.002792345,-5.0654016e-05,-0.00088433403,0.0020790615,0.00046166815,-0.0029877769,-0.0023865497,0.000336399,0.0026569862,0.001088109,0.0032971788,0.002177498,6.4201355e-05,0.0028719718,0.00301504,0.002686273,0.003114861,-0.0031378146,0.0011517229,-0.0026098464,-0.002412662,-0.00281708,0.0010744799,1.1055632e-05,-0.0021468336,0.0018174248,0.002630929,0.0014321856,0.0026022801,-0.0014181243,-0.0021753742,0.0012927676,-0.0009553249,-0.0024017547,0.0012296299,-0.0011464757,-0.0017406588,0.0008516724,0.0023002992,0.0021252364,5.428894e-05,0.0028650719,0.000990311,0.0021718403,-0.00029925097,0.0007104956,0.0020397287,-0.003293877,0.0019646287,0.00039367613,0.0020390155,-0.0004927335,-0.0008942079,-0.0018750374,-0.00094956486,-0.0008662221,-0.0017292964,0.00031682456,0.0026733477,0.0017080206,-0.0025458564,-0.0024975315,-0.0009730773,0.0012822313,-0.0031050232,0.002058804,0.0010752745,-0.0009470103,0.0030488109,0.002663771,0.0002608075,0.0016047218,-0.0030970946,-0.0029130057,-0.0010029004,0.003105949,0.0010738835,0.0018678885,-0.002259218,0.0013882898,0.00013379732,-0.0003218646,-0.0010773493,0.0016454253,-0.0030243744,0.0017102504,0.0018801945,-0.000832836,-0.0013997641,-0.002470505,-0.0021438235,-0.0016994062,0.0010500228,-0.0016125918,-0.00042108266,-0.0029744096,-0.0011891854,-0.00029899782,-0.0026349034,0.0011090222,0.0032351871,0.0014318725,0.0006101012,-0.0016610388,-0.00039544646,0.0007592852,0.0005656804,0.0029254267,-0.0003014551,0.0023470658,0.0019397278,0.001017,0.0024399646,-0.0016656514,-0.0013002713,0.0023179818,0.0028565798,0.0010501721,-0.0014037223,0.002585815,0.00092327583,-7.89854e-05,0.0029662733,0.0014465852,0.00130605,1.6460148e-05,-0.0029843429,-0.0010299555,0.00081227074,-0.0018613593,0.002378871,0.0024995336,-0.0029788793,-0.0018381973,-0.0020056805,-0.00021160567,-0.00059138064,-0.00072787073,-0.0007605053,0.0012226937,0.0032385981,-0.0015189016,-0.002823778,0.0011992818,-0.0021733358,0.0022389297,0.0008949575,-0.002650191,-0.0025884411,-0.0031045976,0.00077630486,0.0009256047,0.0008667331,8.548154e-05,0.00035945047,0.001056762,-0.0005099089,-0.002714375,-0.00022868351,0.0012187406,-0.0008527106,-0.0007141391,-0.00072837825,0.002414415,-0.0010067832,0.0031086868,-0.0012759289,-0.003327829,-0.0021883664,-0.0014386498,0.00043588804,0.0017199562,0.00070000073,0.0029967115,0.0003154619,0.001865796,4.739535e-05,-0.00069453096,0.002100223
hypotension,0.00067153183,0.0027551455,-0.0027645263,-0.0029181968,-0.00018126667,-0.00063175854,-0.0007781069,-0.00020163385,-0.0016924397,-0.0026724117,0.002752282,-0.0011101426,-0.00095047517,-0.0005516282,-0.00040754885,-0.0030616901,-0.00059769285,-0.0004465783,0.0028792864,-0.002650778,-0.0015851839,-0.0006270312,0.0009609001,-0.0020066907,-0.0018487624,-0.00265611,0.001839823,-0.0029120208,-0.0010898379,9.420046e-05,0.0004841682,-0.0033117149,0.002885402,-0.000686432,0.000117009025,-0.0029278311,-0.0027219094,0.0012575589,0.0013391448,0.0009972163,0.0019507472,-0.0023147883,-0.00041525497,-0.0009085952,-0.00046522453,0.0014947341,0.00045857328,-0.0024755474,0.0010810526,0.002086582,-0.0020317766,0.0010720055,-0.0014366356,0.0029415064,0.0013717354,0.0006801109,-0.00033835054,-0.0030337586,0.0028874197,-0.000606947,0.00246226,0.0012601624,-0.002753837,-0.00020712255,0.00091358856,-0.00085422857,0.0032403814,-0.0016612012,-0.0023921558,0.0012639068,-0.0011914121,-0.002299165,0.0006790512,0.0017529989,-0.0018330448,-0.0014545124,-0.0023902587,0.0005194295,-0.0015851355,0.0028139574,0.00024127934,0.00062171073,-0.0011123059,0.00245919,-0.00021666453,-0.0027385019,-0.0024482154,7.168035e-05,0.0025778057,0.0010296708,-0.0017703703,-0.0022483303,-0.0032837125,0.0013076357,-0.0031718651,0.0010657075,0.00055231154,-0.00027504994,-0.0033188805,0.0019572047,-2.7670434e-05,-0.0033138918,-0.002510536,0.0028571698,0.0006272059,-0.0027336648,-0.00027052904,0.001803817,-0.0031056446,-0.002286462,-0.00034084092,-0.0032477377,0.00016349778,0.0006502857,0.0028433895,0.00032694894,0.00043665388,0.0016257388,-0.001431296,0.0024078034,5.1713574e-05,-0.00022400863,-0.003232677,0.00016834095,0.0022665048,0.0005864034,-0.0027000797,-0.0011081555,-0.0020084453,0.0020107736,-0.0021530462,0.0017530588,-0.0017511143,-0.0022757913,-0.002534133,0.0012722688,-0.0029334072,-0.0019014152,-0.0023546116,-0.0014387039,-0.0013429063,0.0004897902,0.0021563345,-0.00040143332,-0.0018253216,0.00051962544,0.0018822179,-0.0017610457,-0.0017811976,0.0017232939,0.0020885372,-0.0025918211,0.0027324422,-0.0032828914,-0.0024750922,-0.0019610648,0.0006002657,1.6944023e-05,0.0011496777,0.0023399242,0.0015999123,-0.0010682157,-0.0021454408,-0.0027471627,-0.00015986103,0.003244975,-0.002559543,0.0012147238,0.0014576537,-0.0014426609,-0.002324212,-0.0018117524,-0.0016820314,-0.0023345863,0.001978685,-0.0025923687,-0.0009805431,0.0014597867,6.08975e-05,-0.0025619871,-0.0015591348,0.0012003711,0.00084476086,-0.0006492743,-0.00024359906,0.00085279567,0.00047441805,-0.00087952305,0.0017775455,-0.0025527675,0.0021234576,-0.0033323849,-0.00075258093,0.002229746,-0.0011966765,0.0021780164,0.0018103329,-0.0024628583,-8.178017e-05,-0.0014939973,-0.002694522,-0.00030121373,0.002126012,0.0029149815,-0.0016793614,-0.0008825114,-0.0020170303,0.0003842937,0.0008883627,-0.0032760052,0.0008029967,-0.0029387504,0.00013759971,0.0015843725,-0.0017517057,8.351733e-05,-0.0007274747,-0.002898004,-0.00080295536,0.0014872403,-0.0028563193,-0.0019779266,-0.00018266152,0.0026809238,0.00046842825,0.0032514823,-0.00255615,0.0029988005,-0.0015764287,-0.0021142662,-0.0026160683,0.0006177864,-0.0009181527,0.0025137884,-0.00017222737,0.00084037794,0.001980464,-0.0028820082,-0.0006879673,-0.001595358,-0.0028881552,0.0011412936,0.0008062921,-0.00080138765,-0.00063760986,-0.0022451514,-0.001087517,0.0004389603,0.0025811852,0.0023500624,-0.0011989713,0.001203953,-0.000861267,-0.0015665786,-0.0012125943,-0.002049524,0.0011665459,-0.0025952929,-0.0024992605,-0.0015035103,0.0024642327,0.0006104145,0.0018181049,0.0027386155,-0.0020784123,-0.0015485728,0.0025618435,0.0016490901,0.0015517202,0.00299994,0.0029339623,-0.00089584815,0.0003421661,0.0018217495,0.0029698822,0.003281527,-0.0027506046,-0.0017088685,0.0016663831,0.00031494844,5.2913834e-05,0.0025026547,0.0021375956,-0.0024099632,-0.0008686175,-0.0028302725,0.002344449,0.0009266123,-0.00074449304,0.0006233649,0.0025528406,0.0027093706,0.0020581316,0.0010583601,0.00050959596,0.0027123939,0.00044487324,0.00014780175,-0.0031833635,0.0008383689
fracture,-0.002832683,0.0021641375,-0.0019188089,-0.00059601146,0.00031276417,-0.0006276858,-0.0030250284,0.0013635071,-0.0022104369,-0.002951203,0.0013130233,-0.0002565456,0.002179606,-0.0023559376,0.00026128718,-0.00023594714,0.001921479,-0.0032323622,0.001974456,-0.0029919217,-0.0026171668,0.0002263332,-0.0008822394,-0.001285978,-0.001751793,0.0013642949,-0.00313911,0.00037198787,0.0014109843,-0.00010424304,-0.00016174928,0.0023931847,-0.00318982,-0.0030069603,0.0014717394,0.0029141037,-0.0025883068,-0.002774733,-0.00021885824,-0.003021147,0.00070774194,0.003092269,-0.0020504387,-0.0022507743,0.0029941313,-0.0002423237,-0.001221931,-0.0008829089,-0.0029141332,-0.0015403795,-0.0013583666,7.495673e-05,0.00023473988,0.002539908,0.0022727582,-0.00047825943,-0.0033301618,0.00089262374,-0.0020395957,0.0030329986,0.0012710915,-0.00033883456,0.0021900292,-0.0011532638,-0.0012275416,-9.566806e-05,0.0028200229,0.0019785077,0.0005170707,0.0012395543,-0.0009806074,0.0030950499,-0.0023755187,-0.0011030065,-0.0017649054,0.0029235054,-0.001059873,-0.00079412403,0.0023867912,-0.0031745713,-0.00097108824,0.0009448302,-0.0020906169,0.0029651332,0.0004100665,-0.0017557043,0.0016180066,0.00267904,0.0003134816,0.0022685274,-0.0022473126,-0.0011998654,0.003320463,0.0019153157,0.0005478318,-0.001151374,0.0014951851,0.00083869416,0.0027984884,2.3730827e-05,0.0028615184,-0.0019535827,-0.002509493,-0.00046903695,0.0009856457,-0.00068170525,0.0019716714,-0.0028022353,-0.0030200582,0.0025491884,0.0021013545,-0.0013513261,-0.0013503263,-0.0011718605,-3.321893e-05,0.003025882,0.0003295741,-0.0006950183,-0.001119951,-0.00073486206,-0.0030689456,0.0022888856,-0.0030003164,-0.0010297676,-0.0023810482,0.0030456313,0.0019525529,-0.00018209546,0.0013173185,-0.0007961683,0.0032796867,-0.0012066924,0.0016257208,-0.0012898479,0.003169686,0.0031872236,0.0020512997,-9.6993164e-05,-0.00057009433,-0.0028952018,0.0031202126,-0.0028290676,-0.0021835892,0.0018672206,-0.00075963826,0.0026292943,-0.0026494828,0.0030564344,0.0007511646,-0.0028671555,0.0013110903,-0.0016861355,0.0021044733,0.002198608,-0.002931203,0.0021637464,0.0017243265,0.002146285,-0.0023783012,-0.0021646947,-0.0029781004,0.0017542848,-0.0013624243,0.0016195545,0.001583142,0.0027069077,0.00074871106,-0.00037412078,0.0004634282,0.0010142628,-0.0029542379,-0.0019873239,-0.00031703274,0.001633886,-6.030418e-05,-0.0032173046,-0.00021704803,0.002383385,0.0021102359,0.0011763349,-0.0015358614,-0.0012345067,-0.00070900307,-0.0020044353,-0.0028830383,-0.00018260388,0.0006100461,0.001637838,0.0011899613,0.0028193144,-0.0022769792,0.0031015205,-0.0011276125,0.00026220194,-0.001397949,-0.0013689364,-0.0004923284,-0.0025094303,0.0029846027,0.0015305207,-0.000781726,0.0006439238,0.0026082974,-0.0018780959,0.0012571642,0.00023449564,0.00096888246,-0.0007262447,-0.0032853223,0.0019692427,-0.00047668457,-0.0027843195,0.00024406656,-0.0020658097,0.0025655467,-0.0021436128,-0.00055272167,-0.0001469653,-0.0014606338,-0.0011231019,0.0024722698,0.0005936373,-0.0031582713,-0.00010320046,-0.0032115823,-0.0010766136,0.0016598817,0.0012283265,-0.001912131,0.0004998685,0.0019581257,-0.0024879628,-0.0011233694,-0.00082477514,-0.0029805906,0.0007141721,0.002161036,0.0008012866,0.0007934542,-0.00028998937,-0.00023876794,-0.0020768682,-0.0001502446,0.002209088,0.0009961657,0.00017837882,0.002622499,0.0009402458,-0.00246896,0.00243374,0.0031919782,-0.0030137221,0.002428004,-0.0025119754,-0.00016138423,0.001524916,-0.0018899149,-0.0026457633,-0.002462658,-0.0033106434,-0.0021936176,0.0032201905,0.0009905677,-0.0030668145,0.0027980346,0.0023881565,0.002632214,0.0032057539,-0.002917032,-0.00072249054,0.000685755,0.00079622853,0.0016167429,-0.0026081856,0.0016388572,0.003317992,-0.0029656177,0.0026417356,0.0010314297,-0.0014070614,-0.0005233228,-0.0028304663,-0.0024862962,0.0018564521,-0.0010639313,0.003347662,-0.0027202643,-0.0023406376,0.0020412863,0.00262372,0.0012370482,0.0024249747,0.002169377,-0.0019379435,0.002875069,-0.0020959224,-0.00096112076,-0.0020124796,0.0020529444,-0.0014481305
heart,0.0010134925,-0.00052621844,-0.0003893042,-0.0019508615,-0.0019195183,-0.0011972263,0.00011930086,0.00050018285,-0.0011092029,0.00064453826,-0.0018851684,0.0033262456,-0.00027583513,-0.0023254526,-0.0006190344,0.0026403225,-0.00036411587,-0.001725062,-0.002692683,-0.0019414668,-0.001070276,0.0025748648,-0.0023918746,0.00048005383,-8.181788e-06,0.0013158573,-0.0026624387,0.0026492462,-0.0009415787,0.0017595263,-0.0031628832,0.0016934621,-0.0027329486,-0.0010782601,-0.00040516636,-0.0011997134,-0.00022546035,6.9243542e-06,0.0014964608,-0.00074741663,-0.0013390135,-0.0020676777,0.0027762777,0.001543312,0.0030407119,0.0018474872,-0.0015219126,0.0027753285,-0.0023286126,0.0010276167,-0.0011085869,7.984771e-05,0.001251601,-0.00094406866,-0.0014885559,-0.00064331194,0.00017660152,0.002153052,-0.0019468836,0.001540213,-0.0012440308,-0.0026450604,-0.0018780729,0.0006125142,0.00292194,0.0026258968,0.0030554752,0.0022982769,-0.0009950788,-0.0008244389,0.0029395625,0.002156712,0.0020071866,0.0022804912,0.00053816795,0.0008053959,-0.0027427517,0.0025287997,0.0031470621,-0.0023301672,0.0003729984,0.002915042,0.0012284225,0.0023374218,0.0025534555,-0.00063553144,0.0029425835,0.0020104037,-0.000632339,2.1677082e-05,0.0032490995,0.0019579288,-0.0022280058,-0.0011642412,-0.0011623423,0.0010521837,0.00036879737,-0.002857476,0.00071763975,0.00321572,0.000766523,0.0014235281,0.00066468294,0.0027045226,0.0029479384,0.0010366003,-0.00080127624,0.0011989059,-0.0025795656,0.00268732,-0.0013362628,0.0033167608,-0.0031956409,-0.00085193117,0.002963248,-0.0013614474,-0.0006553627,0.0016838239,0.003107705,-0.0001379192,-0.0022686908,0.0033280533,-0.0031687403,0.0004229491,0.0018632128,-0.0025990163,-0.001861049,-0.0030568424,-1.8889032e-05,0.0016755335,-0.0027388192,-0.0010213593,0.002808913,-0.001504069,0.0010427792,0.0011813394,-0.0011999953,-0.0017194714,0.002769679,-0.0008369637,0.002978995,-0.0008228387,0.0010032569,0.0018646133,0.00020025113,0.0014557993,-0.001999996,0.0027969342,-0.0005547435,-0.0014649853,0.001703902,0.003289167,-0.0019040187,0.00028147452,0.0014386592,-0.00090650655,0.00018049523,0.002936219,0.0025592367,-0.002141768,-0.0010721836,0.003073834,-0.000112883536,-0.0031722519,-0.00025925686,-0.0022717214,0.00029273197,0.000277192,-0.0014710259,-0.0015105834,0.0029234916,0.0015421425,0.0008592478,0.00060859864,0.0027361782,-0.0016634,0.002032091,-0.0003408993,-0.0025565329,-0.003232631,-0.00056085596,0.002705623,0.0007301458,-0.0029891576,0.00039420763,-0.0012013227,-0.0013449631,0.0027211665,0.0019280876,0.00010006145,0.0008191642,0.00030071515,-0.0033138313,0.0009945419,0.0024102065,0.0013282084,0.00084242766,-0.001188451,0.0007696169,-0.0025465733,0.0013783367,0.00080024236,-0.00012656326,-0.00020164349,0.0008632678,0.00074023224,0.00048146409,0.0030286068,0.0011819497,0.00046039544,-0.00097649894,-0.00202785,-0.003098175,-0.001083319,0.0014556698,0.0025132145,0.00019897331,-0.0016056534,0.001176813,-0.0012971485,-0.00025113436,0.0029404091,0.0027098218,-0.00013250887,-0.0019868629,0.0012208371,0.0032769507,0.0028904704,-0.0006360281,0.002393034,0.0030965374,-0.0031811825,0.0029594551,-1.8739736e-06,-0.0017445585,0.0012364681,0.0029868225,-0.0024189502,0.002281303,-0.0021533698,-0.0025945152,0.0018411542,-0.0015182935,0.0015892194,0.0024585037,0.0032061,0.0019045385,-0.0029482224,0.001078137,-0.0030043023,-0.00013534422,0.0032637846,-0.001703059,0.0013728209,-0.0019415069,-0.0026823236,0.0026853976,0.0010883877,0.0024488717,0.00097217417,0.00040558004,0.0012639072,-0.0027957978,0.0021767928,-0.0015066016,0.0015199414,-0.0018127281,0.00034772226,0.0013226864,-0.0008222207,-0.0025155423,-0.0020083936,-0.0033045197,0.0032302614,-0.0014419953,-0.00034307307,-0.0029893806,-0.0015254965,-0.0016518395,0.0009891213,0.0018832907,0.0011714137,0.003293176,0.00063623826,0.0032818348,0.0025216525,0.0008968966,0.0007206668,-0.0025016672,-0.0007930987,0.0018783443,-0.002713076,0.0007665379,-0.002532253,0.0032119993,-2.336182e-05,0.00030787234,-0.00160786,0.002047643,-0.0023749832
