,0,1,2,3,4,5,6,7,8,9,10,11,12,13,14,15,16,17,18,19,20,21,22,23,24,25,26,27,28,29,30,31,32,33,34,35,36,37,38,39,40,41,42,43,44,45,46,47,48,49,50,51,52,53,54,55,56,57,58,59,60,61,62,63,64,65,66,67,68,69,70,71,72,73,74,75,76,77,78,79,80,81,82,83,84,85,86,87,88,89,90,91,92,93,94,95,96,97,98,99,100,101,102,103,104,105,106,107,108,109,110,111,112,113,114,115,116,117,118,119,120,121,122,123,124,125,126,127,128,129,130,131,132,133,134,135,136,137,138,139,140,141,142,143,144,145,146,147,148,149,150,151,152,153,154,155,156,157,158,159,160,161,162,163,164,165,166,167,168,169,170,171,172,173,174,175,176,177,178,179,180,181,182,183,184,185,186,187,188,189,190,191,192,193,194,195,196,197,198,199,200,201,202,203,204,205,206,207,208,209,210,211,212,213,214,215,216,217,218,219,220,221,222,223,224,225,226,227,228,229,230,231,232,233,234,235,236,237,238,239,240,241,242,243,244,245,246,247,248,249,250,251,252,253,254,255,256,257,258,259,260,261,262,263,264,265,266,267,268,269,270,271,272,273,274,275,276,277,278,279,280,281,282,283,284,285,286,287,288,289,290,291,292,293,294,295,296,297,298,299
sepsi,-0.00017812553,7.9307254e-05,0.0017026698,0.0030050077,-0.0031068756,-0.0023757296,0.0021560949,0.0029950459,-0.0016717806,-0.0012511094,0.0024608253,-0.0005107749,-0.0015110787,0.0021810648,-0.001622259,-0.0006028076,0.00096240966,0.00032622914,-0.0027610422,-0.0031498054,0.0024348174,0.0016907641,0.0022516353,0.00025084824,0.002116148,-0.0011379175,-0.00031774008,0.0019239592,-0.0025107434,-0.0013115911,-0.0024994751,-0.00030933268,0.003179178,-0.00243833,-0.0007811241,-0.0006452807,0.0026919877,-0.0019778495,1.4964157e-05,-0.0015834548,-0.0032018677,0.0016702472,-0.0029211226,-0.0014633145,-1.1848146e-05,-9.716366e-05,-0.0025562614,0.003206632,0.0016565158,0.0030797608,-0.002720281,0.001499032,-0.0013768647,0.00027745456,0.0028319578,-0.0014809053,0.0015065722,-0.0022613136,-0.0011828039,0.0031352916,-0.0005254517,0.00010664768,-0.0013815332,-0.0025617173,-0.00050061854,0.0008254006,-0.0002948995,0.0018456251,-0.0009160421,0.0007496529,0.001819969,0.0027827306,-0.00048498873,-0.0030691777,0.0014583677,0.0001916814,0.0024799216,-0.00027052197,-0.0008772948,-0.002915943,-0.00028335315,0.000941119,0.0018010151,0.0023539593,-0.0019014882,0.00061932113,0.0020271821,-0.0015990033,-0.0010318984,0.002265598,0.00054584624,6.3923086e-05,0.0011596623,7.534998e-05,0.0032098875,0.001688251,-0.0029760518,-0.0023479303,0.0002996594,0.0021391918,-0.0028722652,0.0012248233,0.001735411,0.0019136493,0.0024908187,-0.002059528,0.00037034348,0.0020174081,-0.0009474399,-0.0020599228,-0.00013511804,-0.0027925414,-0.0018687982,0.0023706583,0.001120722,0.0024106551,0.0022684087,0.0025078591,-0.0012641624,-0.00019217175,0.00078486156,-0.0015045287,0.002796845,-0.003285762,0.002252553,0.0009754136,-0.0016428798,0.001462221,-0.00057868415,0.002240172,0.0033194236,-0.0014512646,-0.0001999727,-0.0018979443,0.0012865729,0.00093410746,0.0022975795,0.0020316646,0.0031809146,0.0030859457,0.0026343928,-0.0023315568,-0.0030484549,-0.00011916168,-0.0010313898,0.0026313204,0.0019762241,-0.00051331415,0.0005047934,0.00059877086,0.0026029353,-0.0031744132,-7.045286e-05,0.0011603714,-0.0003136255,0.0027987547,0.0030046627,0.002178365,-0.0002364932,0.0025766147,-0.0028447208,0.0010677133,-0.0015454083,-0.0016958548,0.0011983272,0.0017882519,0.0025924544,-0.0019240864,0.0024812648,0.002208884,-0.001233025,-0.0029136487,0.0018143054,0.0021742408,-0.00026244725,-0.0022374173,-0.0023592208,-0.0008365432,0.0017127721,-0.0012218503,-0.0031246978,0.0012776965,0.0016284538,-0.00214629,0.0004003052,-0.00068735983,5.9190047e-06,-0.0032959592,0.0008978006,-0.0015864918,0.000365453,-0.00052467483,0.00072730426,-0.0026289676,-0.00090209144,0.0008868874,0.0017765627,-0.00080220535,-0.003167861,0.0015033495,3.4170833e-05,0.0010283737,-0.0022717637,-0.00046071105,0.0025571715,0.0024470966,-0.0012271972,0.00087968673,-0.0027723722,0.0020688174,-0.0015446596,-0.0010543419,0.0031033223,0.0002928213,0.0024991962,-0.0020246948,0.0017209437,0.0033045919,-0.0028176524,-0.0017145823,-0.002352927,-0.001622183,-0.0012607864,-0.0028459807,0.0026481622,-0.001616115,0.002809932,0.0017547306,-0.002183727,0.0013193014,0.0018250821,-0.0024757737,-0.002469313,-0.00082175195,-0.0028743753,-0.000527499,-0.0001334956,0.0010979314,0.00047917757,-0.00029801056,-0.0018643471,0.0005765613,-0.00029969425,0.0022660221,0.0013260641,0.0015118165,0.0004827436,-0.000898409,-0.0014579721,-0.0003439443,0.00048018724,-0.000878158,-0.002357581,-0.0026045733,-0.003043337,-0.0019825727,-0.00061116385,-0.0014413965,-0.0021552318,-0.0012391997,0.0014331937,-0.0012438123,0.002792017,0.00050676183,-0.0024132205,0.003144577,0.0025434047,0.0018317716,-0.0022814719,0.0019402846,0.0013350989,0.0017252438,0.0014178051,0.00064280577,-0.0010542416,0.0027847197,0.0032022207,0.0012657793,-0.0009495378,1.4341945e-06,0.00040592774,-0.0028177851,-0.0027436023,-7.583579e-05,0.00041725446,-0.001913015,-0.0015754474,-0.002450915,0.0027769688,4.0284198e-05,-0.0015019221,0.0019015052,0.003062266,-0.0013696782,0.002656612,0.0017897998,0.0019570573,0.00016805847,0.0027384409,-0.0023434518
failur,-0.0027555176,0.0031026353,-6.655052e-05,-0.0006628905,0.0015325047,-0.0013691483,0.0009185819,0.002325366,0.0020256992,-0.002507411,0.0031323368,0.0015622611,0.0013186269,-0.0020849844,0.0028251978,-0.0007140744,0.0029452192,-0.001794837,-0.0027122214,0.002270216,0.0005569849,-0.0007379184,0.0031791679,0.0031578685,-0.003254086,0.0008379309,0.0020516028,0.0012922081,0.00067397027,0.00014404701,0.00022934774,-0.001270131,-0.0023844515,-0.00069631403,0.0013026354,0.0029403658,0.003081673,-0.002002531,-0.0031345636,0.0032555687,0.0011518574,0.0017319584,0.0020978954,-0.0009411816,0.002449428,0.0009386578,0.00095213426,-0.00078474934,-0.0010454338,-0.0007868938,0.0014247978,2.5498975e-05,-0.0031975743,-0.0032140056,-0.0020492256,-3.6808815e-05,0.00066629914,0.003146129,0.0018657543,-0.0014349573,9.370804e-05,0.001649628,0.0025663688,-0.00038205986,0.0014397303,-0.0019293573,-0.00026382145,0.0027005894,-0.0007964973,-0.003229093,0.0019277477,-0.0013043776,-0.00041104434,0.0033255005,-0.0007578075,-0.0015902233,-0.0017854429,0.0023246973,-0.0018999084,0.0007082688,-0.001752022,0.0020408658,0.0014499641,0.00088171026,-0.0004929418,-0.0009095962,0.0029950798,0.0017373193,-0.0007175021,-0.0031522273,-0.0024787746,-0.00035477232,-0.0002616273,-0.0008599828,0.003229543,-0.00015381677,0.001953791,-0.0024862837,-0.0008270168,-0.0018456922,-0.0023796917,0.00041412943,-0.0023960122,-0.00075236097,0.0012429345,0.0019442134,0.00039359665,0.00069756777,-0.0013807082,0.0024118135,-0.0021005762,0.0015491482,-0.0027400083,0.00068192673,-0.0016523189,-0.0014101209,-0.0010389185,0.001897068,0.0019404618,-0.0016723546,0.00025894475,-0.002832835,0.0025974899,0.0030900605,-0.0009268297,0.0002713633,0.00025686008,0.0018197485,-0.0028595459,0.00019504862,0.0022952375,0.0007533633,0.00038788744,-0.003101651,0.0028328754,-0.0020871756,-0.000995008,0.001170356,-0.00026449907,0.00046657588,0.0005951293,-0.0022811166,-0.0032439763,0.0030147322,0.0020663096,-0.0023035519,0.0011247718,7.309651e-05,0.0015852014,-0.002376516,0.0013441965,0.0014345058,0.003308609,-0.0014872707,-0.0004649003,-0.0024341026,-0.0032354381,-0.0030282438,-0.00034665648,-0.0021620858,0.0016158363,-0.0020551516,0.0008383606,0.00025064478,-0.0011322296,-0.0003226457,0.00333131,0.0030421664,-0.001490136,0.003033591,-0.0018767823,0.0019752025,-0.001036187,0.0011519839,0.0010003138,0.0022911255,-0.00078320695,0.0029215585,0.002531264,-0.0031898268,-0.0026699065,-0.0025425435,0.00097527925,-0.0009299219,-0.002319792,-0.0027040173,0.0027767376,0.0006653963,-0.0031072807,-0.0015975493,0.0010554423,-0.0015698895,0.0017525692,-0.0014053223,0.0008921675,-0.002684766,0.0020733075,0.0016047717,0.00026670957,0.0010060136,-0.002914088,0.0007127728,-0.00028380065,-0.0031044818,-0.0031401499,-0.0004790597,0.0014844644,0.0012367578,-0.0021683942,-0.0022888957,-0.0016699053,-0.0007709957,-0.0024213197,-0.003201262,-0.00091586466,-0.0027837702,-0.00201541,-0.0018953169,-0.0007883856,-0.00056734664,-0.0029895434,-0.0002446869,0.002712536,0.0025578593,-0.002406504,-0.001220792,0.0010396389,-0.0031869968,0.0004885224,0.002182212,0.001912719,-0.0029302773,-0.0015096716,-0.002710563,1.6635508e-05,0.0030956273,0.0020011023,0.0016863692,0.0016862199,-0.001088878,0.0031950376,-0.0024519851,-0.0024264154,-0.0007511209,-0.00024903007,-0.0010728573,-0.00019233699,0.0024974097,-0.00023338753,-0.000536841,0.00091530447,-0.0027892448,0.0026185184,0.0028456606,-0.00319791,0.00081473106,0.0033054866,-0.0025666782,-0.0023349435,-0.0025838108,0.002808678,-0.00022178043,0.0030567644,-0.0027285493,0.0012431646,0.00087876536,0.00025015074,0.00078022684,-0.0024878778,-0.0031208275,0.0007855644,0.0020485534,0.0026689742,0.0019150919,-0.0002511462,0.0027760894,-0.0031120935,0.0011359969,7.903215e-05,0.0012848363,0.0024662288,-0.0022437898,0.0018570689,-0.003165848,-0.0002702118,-0.0028970498,-0.0017037072,0.0030973733,-0.00061839377,0.00097440695,0.003031583,0.002986708,-0.0027325137,-0.0010071191,0.003305599,0.0017047825,-0.0005355531,-0.0028947426,0.0009891795,-0.0022264777
pneumonia,0.0027107573,-0.0014857781,-0.00035611907,0.00033545494,-6.370465e-05,0.0003827258,0.0020379536,-6.75718e-06,-0.0010819884,-0.0005035762,0.0019657663,0.00050470076,-0.00024142067,0.0031110824,-0.0016404279,-0.00027946988,0.0030584706,0.0022498092,0.000500952,-0.0029608535,0.00038291534,-0.0007627519,0.0031227458,0.00040330927,0.0004966879,0.00080213667,-0.0006120022,-0.0016665447,7.74765e-05,-0.00067139347,0.002200311,0.002980041,-0.00022491813,0.0009923383,-0.002035885,0.0005664416,-0.0023087442,-0.0028980088,-0.0019667344,-0.0029854917,0.002425865,-0.0019240105,0.002758784,-0.002414515,0.0011405583,0.0032249994,-0.0025951492,-0.0033150192,-0.0014430487,-0.00089437683,-9.0429785e-05,-0.0029438504,-0.0028725192,0.00093340356,-0.002735469,-0.0030231122,-0.00078015524,-0.0028772692,-0.0023522167,-0.0028003836,-0.000100442965,-0.0015214328,0.0022090583,0.00050905347,-0.0011138252,0.002036324,-0.0020044283,-0.0015520565,-0.002402503,-0.0014455267,-0.00060311,0.0021632144,-0.0009234643,0.0016396558,0.0023014809,-0.0024879018,0.0015216168,0.0020423261,-0.0009848248,0.0022083407,0.0020419597,-0.0021478282,-0.0022548505,0.0008463196,-0.000541273,-0.0020217092,0.003166403,-0.0017100489,-0.002184699,-3.9961735e-05,-0.000900476,0.00014813343,-0.0011791528,-0.00013977686,-0.00023620526,0.00027427357,0.0027316057,-0.0019122359,-0.000553176,0.0018572025,0.0027227069,-0.0014810109,0.0029951446,0.0027512216,-0.0014784074,0.00010103504,0.0014248304,-0.0013087734,-0.0018533218,-0.0021707742,-0.00022357941,-9.864052e-05,0.001487695,-0.0008246847,-5.7536363e-05,0.0008206252,0.001622533,-1.0269483e-05,-0.0021131365,-0.0030869357,8.885861e-06,0.0022206313,0.00048867427,-0.0029888407,-0.0026462015,0.0021839675,-0.0012618935,0.0020849975,-0.0022270107,0.002826554,-0.002172108,0.0010960066,-0.0003523286,-0.0022625092,-0.0010958656,-0.00038713732,-0.0018236466,-0.00040378253,-0.0025211044,0.0008822199,0.0030233827,-0.00079241674,-0.00032550335,0.0011711871,0.0028883624,-0.0019739508,-0.0022958592,-0.0009776616,0.003049232,0.0002887559,-0.0028928001,-0.00048232634,0.0031598217,-0.0025164958,-0.0017860329,0.0031055207,-0.002991242,0.0012753026,0.00022181352,0.0022202337,0.0027709177,-0.0009502618,-0.001330771,0.0029659725,0.0006965486,0.0020829805,-0.0031485716,0.003196708,-0.0004494361,-0.0020173716,0.0009975116,-0.00015220363,0.0015688308,-0.0007610071,-0.0013792809,0.0007592996,0.0027847947,-0.001665202,0.00088955957,-0.0026635183,-0.0022577823,-0.00015588959,-0.002922576,0.0009298126,0.0005328651,-0.0007732308,0.0016679303,0.0032495956,0.0028180892,-0.0006267417,0.0006860506,-0.0013345631,-0.0027471352,0.002092652,-0.0006497272,-0.00022206824,-0.000590444,-0.0015118885,0.0013539032,-0.0014233935,-0.0031928488,0.0029810385,0.0013883563,0.0030782449,0.002214501,0.00097491225,0.0032680067,-0.0014748804,-0.0022677705,0.0014091269,0.001243,-0.0018882037,0.00323492,-0.0011861023,0.0031831355,0.00027824202,-0.0021128189,-0.000659039,-0.0024590183,-0.0009931743,0.00034723242,0.003160896,0.0031186158,-0.0021986258,0.0011583837,0.0007585235,-0.0008297841,-0.0030763908,0.00034237542,-0.0027219022,0.0021067297,-0.0019333601,0.0018451464,0.0032779078,-5.3333442e-05,0.0015094975,-0.00060313346,0.002453587,0.0013133656,-0.0030034415,-0.0007995013,0.0012095897,-3.3189455e-05,-0.0004004236,-0.00035181284,-0.0005572005,0.00020165085,0.001388365,-0.0014175972,-0.0012778739,-1.7605622e-05,8.978526e-05,-5.626877e-05,-0.001595169,0.0014378007,-0.0007239731,0.0007011799,0.00022217432,0.0019898922,-0.0022807936,-0.0022719034,-0.0014920859,0.0031452763,-0.00053062756,-0.003143081,-0.00018168052,-0.0014829743,0.0020000264,-0.0031945617,0.0009530004,-0.0030842773,0.00041660032,0.0019997326,0.0024657825,-0.0025404878,-0.0020176745,-0.0022794802,-0.0026394466,-0.00316636,-0.00070849893,-0.00027864418,-0.002418734,0.0022623455,0.00037320654,0.0019429557,0.0004909555,0.0002631219,-0.0024560431,-0.0007255526,0.0014403597,-0.0016951049,0.00037692985,0.00096112135,-0.0005121203,0.0033107651,0.0027832114,0.0008052222,0.0023727485,0.0019638126,-0.0018602058
bleed,-0.0017275395,-0.0022096308,-0.0026014657,0.0027846796,-0.0006547725,-0.002308549,-0.0013762168,0.0017589442,-0.0009608565,-0.0012468578,0.0005460144,-0.00092707644,-0.0005474827,0.0003544256,-0.00098517,0.0028486196,0.0012998772,-0.0033375693,0.0020823264,-0.002258334,0.0002502067,0.0014611477,-0.0016939093,-0.000715889,0.0027184743,-0.0014116728,-0.0025674817,0.0030838859,-0.00072713837,-0.001576261,0.0028766545,0.0014334626,0.0014318684,0.003091691,-0.002843365,0.0017675997,0.00069121167,0.001388488,0.0005671324,0.0014977272,0.0015228702,0.00203301,-0.0010615881,-0.0015187423,-0.00012900315,0.00085397396,-0.0010776125,0.0020312886,0.0013886715,0.002582968,0.00085965684,0.0026943677,-0.000469401,0.0027106619,0.0012228981,-0.0026536987,-0.0013031841,-0.0008184027,0.0016454059,-0.0003026418,-0.0009531319,0.0025985,0.0030956801,-0.0005350949,-0.0017246287,-0.001555852,-0.0015892587,-0.0031971165,0.00044692316,-0.0014286629,0.0008420847,0.0018815313,-0.0013615283,-0.003221595,0.00051213126,-0.0022199866,0.00082516397,-0.0012610247,0.0023769422,0.0002362962,0.001176126,-0.0009216438,-0.0005687192,0.0026016561,0.00046998772,-0.0019408409,-0.0026292163,0.00042027436,0.0021715267,0.0018623205,-0.0029799528,0.0028718738,0.0013659687,0.0025001992,0.003269835,-0.002413853,-0.0030120057,0.0019506353,0.003141837,0.0011990217,0.002360421,-0.00052595284,0.0026589627,-0.0031767255,-0.002676491,-0.002235424,-0.0013294017,0.0016584635,-0.0012952843,-0.002772858,0.0028162512,-0.0012438018,0.0028681585,-0.0016254137,0.0013260012,0.0016599606,0.000807772,-0.0009407861,0.0009570086,-0.0027906382,-0.00092791964,-0.0008491887,0.002429642,-0.0011497057,-0.0022208178,0.0014691722,-0.00013036942,-0.0012306699,0.0023047458,0.0013153804,-0.0012907981,0.0002674824,0.0030820386,0.0025932505,0.0021283305,0.0015835876,0.0007945979,-0.0006028779,-0.0021407374,-0.00012048825,-0.0005213137,-0.00021011333,-0.0020941813,0.0024966847,-0.0021963397,-0.0024112938,-0.0009508007,-0.0005175873,-0.002545722,0.0002352876,-0.0017875506,-0.00047106016,-0.002471956,0.00067450845,0.0010750557,2.3116387e-05,-0.001831397,-0.00058540475,0.0023536314,0.0012683563,-0.0029674217,-0.0011383737,0.00076264277,0.0007319005,-0.003170365,0.00151907,-0.002887889,-0.0024607219,0.0011520402,-0.0011422359,0.0011900474,0.0029720226,-0.0011817748,0.0031267283,0.0005541309,0.003265615,0.0019335834,-0.0030691817,-0.0011162573,0.002179117,0.001872106,0.0028995776,0.002301893,0.0026752383,-0.0033008154,0.0014482243,-0.0016618761,0.001187987,0.002007686,0.0014605077,0.0025194816,0.00049950404,-0.00043677964,0.0019141388,-0.0018628709,1.5346914e-05,0.0031501388,-0.0018493938,0.0012841678,-0.0026965037,0.00325668,0.0027429846,0.00043781492,0.0016977509,0.000479845,-0.0021653862,-0.000480125,0.0021399986,-0.0015581948,-0.0013464809,0.0016402209,0.00088421156,-0.00062297896,-0.00096967013,0.0020092523,-0.0019118479,-0.0010997572,-0.002190345,-0.0014441566,-0.0028770687,-0.0014954002,-0.0028423956,0.00044760827,-0.0028858313,-0.0033179277,-0.002739963,-0.0022628468,0.002231349,0.0012596883,0.00012947821,-0.0009969726,-0.0024939182,0.00016513652,0.00017998222,5.6561694e-05,0.00030764396,0.00027665196,-1.8487879e-05,-0.002678662,-0.0019834614,-0.002767537,-0.00045408693,0.0005964486,0.0024873028,-0.0006428672,-0.0007975586,0.0031757173,3.7037793e-05,-0.00081153103,0.0028856157,0.0009004486,-0.0017823925,0.0022181247,0.0014926929,-0.0023740514,-0.00012533767,0.0002911544,0.0019084236,-0.00059400726,-0.00094563933,0.0006012091,0.00031709316,0.00040667914,-0.00092379365,-0.0019926967,0.0024521851,0.0025472795,0.002785198,-0.0028838478,0.0008567268,-0.0011904316,0.0031947482,0.0009724903,0.0015467475,0.00082178105,0.0022286675,-0.0019147543,0.0026455123,-0.000831161,-0.0015240919,-0.0006845355,0.0032463851,-0.0023036608,-0.00071820576,0.0023328993,-1.0447954e-05,-0.0021222413,-0.0021372472,0.0029770578,0.002145,0.0015969457,-0.0010689973,-0.0030927225,0.0012544367,0.0023979954,-0.0018715027,-0.0026303928,-0.0009995981,-0.0016379763,-0.00076648494
acut,-0.00064836873,-0.0017494152,0.0031400728,-0.003100175,0.0015074898,0.0017965047,-0.00044944327,0.0030232996,0.0032967404,-0.0018355104,-0.0020074302,-0.0022511876,-0.0026388546,-0.0010235974,-0.001856921,-0.0027816582,0.00026070152,0.0009983036,0.0021325962,-0.00087609683,-0.0014785134,0.00041037824,0.00013303815,0.002696366,7.1165814e-05,0.0024095038,-0.002764002,0.002802294,-0.0006311976,0.0028912893,-0.0025416645,0.00059556955,0.00034315966,8.049425e-06,-0.0017135332,-0.0030796027,-0.0024189365,-0.002653686,0.000637142,0.00015406402,-0.0005976318,0.0023675403,-0.0008237825,-0.00044954108,-0.002960623,-0.003312231,0.0029976584,-0.0019028648,-0.0021296036,0.0017390223,0.002223865,-0.0022764287,0.0003180338,-0.0019983375,0.0005410679,-0.0014201092,-0.0011433454,0.00073796813,0.002890403,0.002236957,-0.0032294232,-0.0018806212,0.0026288943,0.0006597179,-0.0014310557,0.00021179667,0.0031848093,-0.00035886362,-0.0031486633,0.0005304966,0.002077869,0.0020920257,0.0013571267,-0.0018964855,-0.00012481774,-7.82201e-06,0.0015138233,-0.0026766632,-0.0026654804,0.00010405024,-0.0028694049,0.0019322276,-0.00014176374,0.0033444155,-0.0017763086,-0.00015882254,0.0025826844,-0.0013531328,-0.0016613733,0.0005286669,0.00088662695,-0.0008558746,0.002153279,-0.0025482434,0.0011451211,0.00017749368,0.0029070345,0.0019910205,0.002279526,0.0026164076,-0.0031690486,0.003179373,-0.0025841233,-0.00088783144,-0.0016341752,-0.0016661001,-0.0026723796,-0.00260854,-0.0015253796,-0.00041657969,-0.001699464,0.0020552315,-0.0031680276,-0.0017705297,0.0031525476,0.0023338788,0.0025697344,0.0014064561,0.00017184862,-0.002007804,0.002013591,0.0008960773,0.0025804746,0.0021287985,0.0026424609,0.0028866015,-0.0032906635,-0.0022584067,0.00045076295,0.0021604185,0.0024655932,0.001843777,0.0025632025,-0.0017110213,0.0021930905,-0.0013491595,-0.0030270317,0.0030422143,0.00044039622,-0.00093827443,-0.0008332369,-0.001421664,0.0016060957,0.001471292,-0.000877939,-0.0024508012,-0.0012062237,-0.00011318765,0.002025442,-0.0009517858,-3.871197e-05,0.00027045447,-0.002377718,0.00069693977,-0.0004898607,0.0009481556,0.001607026,-0.0004525926,-0.0009228202,0.0025907313,0.0016861842,0.0022399153,0.0014898641,0.0028984407,0.0024882962,-0.00037012537,0.0029163125,0.0015275652,0.001811226,-0.00045644603,-0.0006857918,-0.0014687829,-0.00283652,0.001024951,0.002952879,0.002965011,-0.00063901086,0.0020152566,0.0012576998,-0.0014251773,0.0006923684,-0.0018057266,0.0027353493,0.0018119082,0.0010477598,0.0013765846,0.0028909224,0.0024240026,-0.00028528733,-0.0023601179,0.002801369,0.0024110808,0.00056015654,-0.00045184058,-0.0019549108,-0.0015170549,0.002883362,-0.0010584246,-0.002111796,0.0032873307,0.0025715933,0.003041546,0.0003772566,-0.002775816,0.0028152233,-0.0012336295,0.0019117902,0.0014603296,0.0032304479,-0.0031019123,0.0030742718,-0.0031025303,-0.0023152865,-0.0030417838,-0.0018498641,0.00245515,0.0030440434,-0.0011248295,0.0012265458,-0.001202415,0.0026320212,0.0019561509,-7.135377e-06,-0.0012117294,-0.0024103844,0.001583404,0.0004887208,-0.0008696986,0.0026079912,-0.0013486361,-0.003059796,-0.0007434551,4.2257972e-05,-0.0022033167,-0.001823025,-0.002830462,0.0030750465,0.0024713452,-9.931802e-05,0.002442686,0.0026616747,-0.0002635837,0.0021944914,0.0012633438,0.0017019216,0.0024066197,-0.0015816703,-0.0007297378,0.00029307982,0.0014245587,0.0011086101,0.0016977685,0.0015310153,-0.0028128147,-0.0010750417,-0.0024269538,0.0032383336,0.001675205,4.3984855e-05,0.0013623433,-0.002548735,-0.0020775138,0.0010248714,0.0021594926,0.0013062631,0.0020038253,-0.00065384276,-0.0011077054,5.0858394e-05,-0.001070052,-0.0018466908,-0.0026120904,0.0021819107,-0.00036582237,-0.00062112074,-0.0025918512,0.0031155609,0.00029825445,0.0005752342,0.0008206257,-0.0024570986,0.0005453566,0.0009792362,-0.002849672,0.0016436356,0.00081402046,0.0024891603,0.0016776217,-0.0010119808,-0.002386372,0.0023630485,0.000643521,0.0017338914,0.0021283708,0.00063469785,-0.002040195,-1.4652057e-06,0.0027544592,-0.0020276003,0.0031454721
breath,-0.002400561,0.0014153232,0.0007201198,0.0024937685,-0.0016309355,-0.0015211037,-0.0020307095,0.0011209986,-0.001501519,0.0028481954,-0.0014306917,-0.0030408872,-0.0016172399,0.0021395965,-0.002125231,-0.0017532861,-0.0024386272,0.001996092,0.0011274233,0.0009464525,-0.0010396667,0.0020124556,-0.0020484966,-0.00067211094,-0.001984946,-0.00033413898,-0.00068926247,0.0028294632,2.3045362e-05,-0.0028636528,-0.0018055679,-0.002288862,0.00089475233,0.003150902,-0.001954562,0.0027563681,0.0028501253,-0.002355544,-0.0029652726,0.0031650066,0.0027961328,-0.0015627267,-0.0022367116,0.0026131074,0.001246162,0.0026898957,-0.0025208776,-0.0031692088,0.00052403245,-0.0032722466,-0.0016291551,-0.0011531077,0.0032127025,0.0028861158,-0.00094707403,0.0019507414,0.002755436,-0.00075733353,0.0031786417,0.0023787892,0.00067353074,-0.0012887871,-0.0016906088,-0.0010229031,0.002621927,-0.0020634064,-0.00095980504,0.0030613563,0.0011497228,0.0020114044,-0.002684962,-0.0002471058,0.0018345937,-0.0015839202,0.0024873046,0.0031136475,-0.00014327042,-0.00068675657,-0.00019071931,-0.0019149837,-0.0028032719,-0.00050440524,-0.00086109433,0.0014799427,-0.0022939267,0.0018099791,-0.0022621215,-0.0026038014,0.0028334253,0.0029812977,-0.0011585699,0.0011730766,-0.0019152189,-0.0029167577,-0.0018269274,0.0022590652,0.0021361,0.0031474459,0.002361758,0.002258864,0.00043366247,-0.0032715003,0.001533275,-0.00018406249,0.0021090035,0.0005885311,-0.0010464563,0.0025837289,0.0005073788,1.819458e-05,-0.0015291907,-0.002821395,-0.0025807922,0.0028938474,-0.002965997,0.003022028,-0.0030880081,-9.078404e-05,-0.0006274674,-0.0029903,0.0028792492,0.0022650722,0.0010042692,0.0016151422,2.3855622e-05,0.0031469655,0.0023591772,-0.0032932141,-0.0014748033,-0.00042122693,0.001021149,-0.0014323959,0.00049468916,-0.0026117547,0.00091998914,0.001582158,0.0016515584,-0.0010567231,-0.0028204818,-0.0030865185,-0.00024060259,-0.0024537945,-0.002279933,0.0020423597,0.0023973072,0.00070980564,-0.0026562926,-0.0019065903,0.0026834412,0.0013116616,-0.0017506012,-0.0024907188,0.00024068552,0.0011666059,0.00068661966,0.0010493993,-0.0018873935,-0.00330265,-0.0023415915,8.5687934e-05,0.0015427367,0.0015150387,0.00061425846,0.0017336959,-4.0221184e-05,0.0013701778,-0.0030463608,0.0025623029,0.0020473362,0.0017198367,0.0024005976,0.0028185134,0.00025197148,-0.00056074373,0.00016149778,-0.0031163704,0.0028131513,-0.0021342412,0.0028133797,-0.0014172852,0.00022639023,-0.0030619546,-0.0031958164,-0.0026107768,-0.0025964251,0.0001412005,-0.0024008295,-0.0016543835,-0.0017589838,-0.0014315817,0.0023486728,0.0016087479,0.0028851232,0.0023679717,-0.001886841,0.0024163972,-0.0030972608,-0.00087775616,-0.002588426,0.0013986212,0.00060063094,0.0023490721,0.00098968,-0.0023263502,0.002571318,-0.0019985046,0.0029962072,0.0009839779,-0.0013401208,-0.0015679564,-0.0014651903,-0.0020607947,0.0031238652,-0.0008833469,0.0025905506,-0.003227108,0.0007004495,-0.00042419395,0.002503963,-0.003020501,0.0024766107,-0.0017045127,-0.002014604,-0.0018924573,-0.0011277671,-0.0011382775,-0.0010730188,-0.0024979254,0.00023805635,-0.00019096058,-0.0005724669,0.0012466293,-0.0025419989,-0.0010747028,0.0017136632,0.0028620262,-0.003268417,0.0024002807,0.0017642895,-0.0012986568,0.002868911,-0.003085197,0.0024125646,0.0017928488,0.00043907858,-0.0017498477,-0.001390269,-0.0011106433,0.0005341393,0.00053867965,0.0024633845,0.0033283436,0.0029576586,-0.0013389015,0.0032069033,-0.00021782979,0.0016310145,0.0008494526,-0.00021916881,0.001222491,-0.0017734348,-0.0019066104,-0.0025279126,0.00062495813,0.0021721723,0.00029823428,0.00042662298,0.0010639512,0.0027074832,-0.0025729563,0.00075183716,-0.0024971853,0.0012365595,0.003173013,0.0025221487,0.0021502324,0.0026734872,0.0021815181,0.0022728858,0.0028915342,-0.0016476754,0.003070677,0.0016787782,-0.0006951154,0.0028304548,0.0016994238,0.0032080545,0.00094140886,0.0032915366,0.00040569398,0.003045287,0.0011981863,0.0021876532,-0.0012064638,0.002272828,0.002416851,-0.00071169663,-0.00062645413,0.0012102716,-0.0023471504
arteri,0.0032561219,-0.0032396528,-0.0021839645,0.00092891953,0.0021633108,-0.0018087832,0.0009719044,0.0031321563,-0.0022744583,-0.0020303435,-0.0016720649,-0.0012282799,0.00060679665,0.0032183814,0.0021623084,0.00012858878,0.0008462087,0.002775788,0.0030513946,0.0018458831,0.0019891905,-0.0025470424,-0.0012562395,-0.0019398896,0.0020862294,-0.00075396657,-0.0029658882,0.002538536,0.0027850645,-0.0011292805,0.0030928233,-0.00021830518,-0.0012277288,-0.00012791644,3.3992823e-05,-0.0011239428,0.0009510184,0.0018843141,0.0022722024,-0.0029428564,-0.0007015247,-0.0018238582,0.0025313024,0.0021477456,-0.0014433055,0.00080968754,-0.0019515395,0.00010514503,0.0031317386,-0.0008540316,-0.0016996778,-0.00246434,-0.0009798363,-0.0002582314,0.0011497833,0.0033183428,-0.0011105541,0.00063725247,0.0032325003,0.00051055086,0.00030943478,0.003242518,0.0030986571,0.0025792192,-0.0020883523,0.0033712613,0.0019832274,0.0030360771,-0.00068247755,0.0010593218,0.0022538246,-0.0012835904,0.0022225722,0.00081873906,0.0030848398,-0.0009877952,-0.0010518101,0.0020855202,-0.0030041805,-0.0023516521,-0.002200988,-0.0002763715,-0.0007895396,0.002357943,0.0030917057,-0.00027096583,0.00044642563,0.00069093076,-0.00061220845,-0.0026691142,0.0025195493,-0.0013853656,0.0015784174,0.003056869,0.0010819964,0.0010925998,0.0013638244,-0.00089175685,0.0012607236,0.00014829209,0.0018610995,0.0018268117,0.0006431845,0.0018940676,-0.0030062543,0.0021406,0.0031018306,-0.0014149472,0.00051030505,-0.0017262327,0.000368711,0.0009247211,0.0027453625,0.00022360272,0.0008853553,0.00045933996,0.002821971,-0.0019083724,-0.002052036,-0.0012530126,-0.0007595572,0.0017265686,-0.0027040832,-0.0009534344,-0.0027722316,0.0017399744,-0.0008157858,-0.0030690986,0.001375673,0.0030428248,-0.000984109,-0.0019007219,0.0010480755,-0.00014429688,-0.0033335367,0.0028783567,-0.0024506913,-0.001630632,-0.00089876296,-0.0018636687,0.0005667739,0.0031931528,0.0015314852,0.0026947036,-0.00013317917,0.000204095,-0.00093517906,-0.002929692,0.0011277414,0.0006902839,-0.00316584,-0.0017403029,-0.0032888795,-0.0018564163,0.001315031,0.0029354694,0.0013352875,0.0007988538,0.0026981945,-0.0003187003,-0.00043684652,-0.0029005387,-7.710468e-05,-0.00080894766,0.000112449176,0.0024263996,-0.002338708,-0.001352314,-0.0022292652,-0.0011411164,-0.0011182261,0.00070382195,0.0011352226,-0.0016258702,-0.0015365434,0.00034976559,0.0018700674,0.0017268915,-0.0009837762,-0.0014148186,-0.0018549053,-0.00015755022,0.00062175456,0.0004980853,0.0023793175,-0.0008570753,1.7482898e-05,-0.0018315744,-0.00041927633,-0.0025972386,-0.00027747944,0.00045555638,-0.00292798,0.0029400352,-0.0030233716,-0.0032441895,-0.002824032,0.002394341,0.0018210807,0.0031082137,0.00084393396,0.0002812732,-0.00085686054,0.0031249882,0.0009041351,0.001355908,-0.0004254686,0.0002625287,0.002222927,-0.00027087718,0.001135586,-0.00025092697,0.0017241933,0.0011859698,0.0008335457,-0.00178115,-0.0016026952,0.0013527774,-0.0020081878,-6.3175714e-05,-0.00021683922,0.0011865158,-0.0028656004,0.0029401565,-0.0005362763,-0.0018036638,0.0013645091,-0.00066328736,-0.0026118017,-0.0014907378,-0.00013634664,-0.0029971916,0.00017042967,0.000852348,-0.001100233,0.00088711176,0.0008400641,0.0033443717,0.00046973888,0.00060881895,0.0009922789,-0.00069068547,-0.0029543864,0.0027053203,-0.00063637824,-0.0032955408,-0.0021656912,-0.0012830946,0.0013251926,0.0016845214,0.0020413965,-0.0022634398,0.00023642926,-0.0009407633,-0.0018147301,0.002307198,0.001356507,-0.0010534327,-0.0028224373,-0.0017460652,-0.00020671157,0.002673847,0.0020471015,-0.0028926705,-0.0032123046,0.002392372,-0.0007599998,-0.0012198598,0.0018734878,-0.0019555246,0.0016953851,-9.5338786e-05,-0.0023037107,-0.00013933067,0.0021797277,0.0031261323,0.0007183719,0.0016927919,-0.0017169121,-0.00029449956,-0.001793895,0.00038409795,-0.0006358919,-0.0011718712,-0.002342236,0.0032434892,0.00093018496,-0.0007418738,-0.0014046249,0.0025711048,-0.002158643,0.0010745652,0.00027260196,0.0027639698,0.0022757514,-0.0009502151,0.0008189167,-0.0005715406,-0.0031492743,-0.0008894502
short,0.0004422601,0.0021842704,0.0033318854,0.003024099,-0.002673165,0.0021685166,-0.0019052027,-0.0003130694,0.00016224553,0.0021933757,0.0014879982,0.001529912,0.0031637326,0.00012924623,-0.0020172026,-0.002114569,0.0021421302,-0.001747499,-0.00094621436,0.0013576502,-0.00075877266,-0.002008663,-0.00077524176,0.00039939283,0.00072374573,0.0020258653,-0.0017387193,0.0010239026,0.0024122891,0.00073050766,0.001795574,-0.0016127577,0.0020540038,-0.0025353536,0.0011609255,-0.0031033852,-0.0008680209,-0.0030283805,-0.00053415395,-0.001783818,-0.0013136173,0.00038745257,0.00093392894,-0.0005114933,-0.0027269232,-0.0019715005,0.00027674527,-0.001315983,-0.0031487967,-0.00025891204,0.0022113505,0.001993221,-0.003303093,0.0010423088,-0.0019937002,-0.0030559592,6.0775867e-05,-0.00012703087,-0.0023264212,-0.0020920066,-0.00081199006,0.0023655884,-0.0025138212,0.0025619983,-0.00016278756,0.0003659459,0.0031647612,0.001580286,-0.0011911562,0.0012436043,0.0011647588,0.0021127795,2.4278354e-05,-0.001476049,0.0004405935,-0.0018008491,0.00046868745,0.0016446719,0.0017138727,0.0030649423,-0.002508213,-0.0018044767,0.0021566225,0.00045505184,-0.0022079796,0.00029786382,0.00088781404,-0.00084686506,-0.0016483814,0.001675213,0.0032095225,-0.002451241,-3.2063195e-05,-0.00085507974,-0.00211757,-0.00045362342,-0.0017461652,0.0030228232,-0.0019351454,0.0012258618,-7.880912e-05,0.0014057993,0.0007062274,0.0033360482,0.00020688903,-0.0018243386,-0.00039364974,0.00069052214,-0.0011209709,-0.0026123899,-0.0018700861,-0.002257215,0.0021183426,0.0013116236,0.0027393592,0.0021731623,-0.0020429378,0.00090503466,0.0028261764,0.00053397333,0.0010314966,0.0019423729,-0.0029485773,0.0030413957,0.0022734925,0.0028406347,-0.0027415876,0.002059433,0.0022082683,-0.00044758583,-0.0020932585,0.001781333,-0.002288496,-0.001777613,0.0011688106,0.0026997337,0.002903056,-0.0014634626,-0.0030627016,0.0031986707,0.0020960001,-0.0013277637,-0.0028189474,-0.0015750936,-0.001313411,-0.0010886269,0.00027070424,-0.00010192063,-0.0010325451,-0.0019996846,0.0031397592,-0.0015841123,-0.0024192894,0.0025630826,0.0008359001,0.002878623,-0.0014899314,-0.0023041407,0.00032283238,-0.00038942508,-0.0031250934,-0.0005278765,0.0010149709,0.0021920928,0.0022868137,0.0010715203,-0.0014836418,-0.00061661133,-0.0013125762,0.0019311699,-0.0021254148,0.000701603,-0.00044570808,-0.0019389526,-0.002416956,0.0019449709,-0.0027841358,-0.00023466001,0.00095052767,0.0025808325,-0.0024306367,0.0010957796,0.003260506,-0.0023314846,-0.0011854887,0.001713079,0.0017461996,0.00053683424,0.0026562477,0.0002779022,0.00062913675,-0.0005334548,-0.0027259646,0.0010900858,0.00065730326,-0.0029172597,-0.0002264465,2.4485193e-05,-6.921916e-06,0.002906093,-0.00083662855,-0.0019686818,0.0024929051,-0.0024217158,-0.0029902416,-0.0005988766,-0.0027891237,0.00012942875,0.0006505788,-0.00082588976,-0.0021484327,-0.0001061369,-0.0003651341,0.0011655731,0.0027059584,0.0019528415,0.0028180815,-0.0029931976,0.003151205,-0.0007868777,0.0029019194,0.00079821475,0.0011928298,-0.003194785,-0.0031663456,0.0029923022,-0.0009650291,0.00093503814,0.002139052,-0.00010241212,0.0032435863,-0.00034399529,-0.0032258404,-0.0023518745,-0.0003491337,-0.0028837707,0.002468155,0.0012074421,-0.0029140417,0.0028267573,0.002980125,0.001946382,0.0023006306,-0.0031916145,0.00016568293,-0.0030759217,-0.0012252752,8.8174296e-05,-8.878946e-05,0.00048745328,0.0010951058,0.0007107405,0.0017702717,0.002501605,-0.001964419,0.0026488947,0.002001492,0.0032608812,0.0015349324,-0.0011088465,-0.0012571141,-0.00020714993,-0.0005497508,0.0032885221,0.00037646244,0.0013369145,0.0011427408,-0.0029519512,0.0022350284,0.0027279619,-0.0005596496,0.00077674794,-0.0021600227,-0.0020442149,0.0027469313,-0.0010141709,0.002248288,0.0005227236,-0.0006617404,0.001017542,-0.0013420595,-0.0005967632,0.0004613271,0.0016359003,-0.0004681692,0.0002240941,-0.002645879,0.003164686,-0.0029205838,0.0023580187,0.0013035993,-0.002328191,-0.0017584296,-0.002652112,-0.001708917,0.0023586089,0.0032129474,0.00071809196,0.00021818068,0.0031720027
liver,-0.0016628875,-0.00042206925,0.0010975547,-0.0021398512,-0.0032327648,-0.0030872351,0.003017727,0.0018026299,-0.0015907403,-0.0027756048,0.00043372967,0.00095832493,-0.00041844693,0.0004151451,-0.0014385788,0.001598083,0.00049994676,0.0029574442,-0.0033267753,-0.0017595801,-0.0030370029,-0.00012106465,-0.0026145836,0.0016768154,-0.0021313415,-0.0019880242,0.0016855713,-0.0027146607,0.0004879262,-0.0024166417,0.0032891822,0.0028778242,0.0005856317,0.0019335649,0.0015302331,-0.002005985,0.0032491817,-0.0032306456,0.0026803878,0.0009249789,-0.0010196081,-0.0011864629,0.0030269537,-0.0018095978,0.0027343358,-0.00200579,0.0028006285,-0.00017753885,0.002648728,-0.0010424622,0.0019997482,0.002934334,0.0008467008,0.00044248786,0.0016729019,0.002677818,0.0028588553,0.0028289747,0.002348713,0.0026690243,0.0028692018,-1.4597598e-05,-0.00033502438,0.0005552189,-4.1026806e-06,0.00023149302,-0.002871263,-0.0031911887,-0.0007761654,0.0029696624,-0.0012153921,-0.002327182,0.0016288436,0.00035676043,0.0006121104,0.0012162033,0.0011710542,0.0019127765,0.00041284368,0.00028955328,0.003011449,0.0009259093,-0.0015706021,0.0021958186,0.0017455167,0.0009687172,-0.0010493656,0.001113749,0.0021287266,0.0023638925,0.00031692008,-0.0028419357,8.6567976e-05,0.00012370427,0.0013200536,-0.0031463348,0.0032380482,-0.002326358,0.0019171797,-0.003139619,0.0032112927,0.0024424123,0.00042365678,-0.0011395465,-0.00014952551,0.00013667883,-0.0021285086,0.0019170344,0.0007816388,0.0012633866,-0.0024222068,0.0028446228,0.00016348025,-6.613752e-05,-0.0030263108,0.0013487723,0.0022549694,0.0024564755,-0.002134599,-0.0026281374,-0.0018380105,-0.00020030623,-0.0027693096,-0.002750942,-0.0006401435,0.0003803269,-0.0031692418,-0.0012493018,0.00021326235,0.0022664263,0.0005776469,-0.000206145,-0.0024875915,-0.0022496404,-0.00022928862,0.0024935901,0.0018081537,-0.0004906025,0.00038518096,-0.0032086046,-0.00046522552,-0.0015477312,0.0019318246,-0.000769009,-0.001586585,-0.0031584352,-0.0004042272,-0.0023999172,-0.00056597596,-0.0013566349,-0.000790697,-0.0010912592,-0.00271966,-0.00041369957,0.00056137296,-0.0013477586,-0.0025551291,-0.0011945864,-0.003019274,-0.00024241747,0.0019649314,-0.0009844634,0.0010452139,0.0016704787,0.002826178,0.0018754218,0.003167453,-0.0032082333,-0.0026605704,-0.002245937,-0.0024895114,-0.0026541795,-0.0025960081,-0.0009783932,0.00046738333,-0.00095955783,-0.0029362016,0.0016550657,0.00029442302,0.0015317668,0.002401109,0.0025529014,-0.0002695422,0.0012173451,-0.00171208,0.00063752086,0.0015189557,0.0033038578,-0.0010709385,0.0009416407,-0.001900809,-0.0007357018,0.0027012525,-0.0013038914,-0.00038518937,-0.003099422,-0.0031546308,0.0029638626,-0.0019082921,0.0016874659,-0.002319816,-0.00082362676,-0.0026717286,0.002495073,0.0020472675,0.0017528196,0.0027958474,-0.00023232886,-0.0031005733,0.0030328066,-0.0016425088,0.0026042962,0.0018389996,-0.0003601987,-0.0025508972,-0.0004885286,0.002078405,-0.0023312594,0.00047743574,-0.0026523585,0.0029127367,-0.00095156376,0.0031399962,-0.0019070824,-0.0032409946,-0.0028789632,-0.0013552269,0.0015696756,-7.784408e-05,0.0030789948,0.0010362053,0.0012463465,0.0010013944,0.0027231164,-0.00080180244,0.0024718705,-0.0031765602,0.00097401184,-0.00022541084,0.00014186998,0.002291554,-0.00094794796,-0.00079278223,-2.8966648e-05,-0.00016340453,-0.0011976905,0.002081277,-0.0021875533,0.0026241394,-3.663237e-05,0.00087453163,0.0010783604,-9.1802445e-05,0.0005750253,-0.001058285,0.0015811208,9.013133e-05,-0.0010927231,-0.0029137803,-0.0033356547,0.00010956913,-0.0019114168,-0.0003638322,-0.0014110808,-0.0028926164,0.00035042793,0.0019703202,-0.0007401278,-0.0024000802,0.0010432751,-0.00012832333,-0.0018410659,-0.00037019173,-0.0002205708,-0.001055507,-0.0033154003,0.002542578,0.001244648,-0.0008552714,0.0024325508,0.00015435679,0.002386845,-0.0005165917,0.0025037606,-1.6467586e-05,-0.0020163036,-0.0015788943,0.0032124158,0.00019265551,0.00033370408,0.0028120505,-0.002100131,-0.00058969,-0.0027262345,-0.0022234002,-0.0028517998,0.0013077228,0.0009118359,0.0018737181,0.00085308147
fever,0.0007045051,0.0019117184,-0.00070546946,0.0010574325,0.002814587,0.00012935718,0.0020981943,-0.002247856,0.0021919406,0.0015631588,0.0016934494,-0.0033062617,-0.0001431481,0.0010687042,-0.0019419964,-0.0022312626,0.0021213018,-0.0022745836,-0.0017275,0.0027072795,-0.002340099,0.0028484582,0.00021820744,0.001468569,-0.0010041468,-0.001809245,-0.0029825112,-0.00020415783,-0.0017007458,-0.001025345,0.002703818,-0.0025493035,-0.002103093,-0.0017545592,-0.0022012468,-0.0029468744,-0.0003700137,0.0031486594,0.0026788458,-0.0017580322,-0.0027125024,-0.0007524649,-0.0030889274,-0.0016892465,-0.0019826023,0.0010083739,-0.002523014,0.00041686176,0.0007623005,0.0017711051,-0.0006734653,-0.0032572201,0.0017405557,-0.0019688313,0.0016285853,0.00065825146,0.00293914,0.00051044585,-0.0006091543,0.0021629233,-0.0023566405,-0.0027963542,0.001263057,-0.0008589836,-0.0013946132,-0.00064162613,-0.0032916975,8.6845954e-05,-0.00035221817,-0.0009904723,0.0008335483,0.001564465,0.0021142021,-0.0026379155,-0.0016629982,-0.0029291566,-0.0029830118,-0.0012433537,-0.00042456866,-0.0027375445,-0.0017921067,-0.0007172581,0.0021142291,0.0005228694,0.0027715627,-0.0027720693,-0.0015252916,-0.00026802777,0.002933393,0.00036878386,0.0005133259,0.0004302617,0.00097420695,-0.0031319822,0.0010848006,0.0018215616,0.0017621092,0.0014799627,-0.002695456,-0.0013532591,0.0027829702,-0.0001910305,-0.003145593,0.0015945458,-0.0020150458,0.0022271646,0.0017912594,-0.0016818909,0.00085647625,0.001805547,-0.0011951018,-0.0005053445,0.0030565239,0.0030210698,-0.0031309882,0.0025224364,0.0032960165,-0.0009467232,0.000819782,-0.00093445025,0.002881815,-9.442766e-05,0.0018787694,0.0030709652,0.0013700823,-0.0023734632,-0.0006419432,0.0003260084,0.0006780255,0.0009847382,0.0031497865,0.0014670336,0.0033046333,-0.0028859011,-0.0019181387,0.0006621019,0.0012187243,-0.00033039332,-0.0023038827,-0.0010705543,-0.002842524,0.0031369047,0.0012414785,-0.0026264726,0.0010623229,0.0013912785,-0.0018796615,-0.0019709305,0.0003461222,0.0029873482,-0.003215427,2.0968914e-06,-0.002288315,-0.0003107496,0.0010136672,-0.0016766556,-0.0009253347,0.00022519588,-0.0021207405,0.0024288595,0.0014594742,-0.0028528448,-0.00071632385,0.0010548433,-0.0027758647,-0.0023563043,-0.0028179137,-0.0018328639,0.0029520325,0.0023590163,0.00096190453,-0.0028515232,0.001914411,0.0015444724,3.9658942e-05,-0.002947646,-0.0006279099,6.36216e-05,-0.0025859808,0.00082338654,0.0001612556,-0.0023533432,-0.0027564697,0.0020140635,-0.0027834969,-0.0018599284,0.0018600416,-0.00016211708,-0.0010181216,-0.0017314589,-0.00039931576,0.0017572391,-0.0019821464,-0.0016590579,-0.0016495411,-0.0015854493,-0.002660031,-0.003252155,0.0025273887,0.0026655837,-0.0014281059,-0.0031093538,-0.00062417187,-0.0012360907,0.00303287,0.0009800474,-0.0019927148,-0.0011194284,-0.0033008277,0.0006480404,-0.0013294562,-0.0009029011,0.0017254968,0.0025330074,0.0014612754,-0.0022734723,0.0022328806,-0.0032105974,-0.002329096,-0.002668667,-0.0007543103,0.00015994668,-0.0012574275,0.0006151243,0.0030690618,0.0022260186,-0.0003516082,0.0030309863,0.0005189653,-0.0006579705,-0.0021983166,0.0021579675,-0.003023201,-0.00063220185,0.0025641327,-0.0008622869,0.00053539756,-0.002448705,0.0016593604,0.002457689,-0.0031028464,-0.0010926183,0.002630913,0.0009779405,4.847447e-06,0.00011443615,-0.003288476,0.00331225,-0.00066711346,-0.001629107,0.00091641344,0.00034332395,-0.0019771964,0.0019308813,-0.0008344885,-0.0020594602,0.002411903,0.0021544918,0.002940094,0.00038779815,0.00017000039,-0.0026432066,0.0015496277,0.0031203784,-0.00022654653,-0.0005876565,-0.0012710559,-0.00016395887,-0.002539145,0.0018964151,0.00049696205,0.003097582,-0.0021414682,-0.0016964101,-0.0020782168,-0.0024255638,0.00091885566,0.0016315393,0.0004473233,0.0011802498,-0.003129425,-0.00035652996,-0.0025809621,0.0009840457,-0.0008953786,0.0029609997,-0.00114478,0.0022794064,0.0013716232,0.00045479776,-1.3487339e-05,0.0027241781,0.0007872458,0.0027527427,0.0011117951,0.001807704,0.0017006377,-0.0025429272,-0.0019295334,0.00041139245
accid,5.69715e-05,0.0007216621,0.00035462904,0.0025392405,-0.0014752046,0.000101215104,0.0023876983,0.00081851654,0.0014102851,0.0014489862,-0.00042734033,-0.0027812163,0.0010079765,-0.0029751633,-0.0008696288,-0.0031295049,-0.0001475317,-0.0026460665,0.0024719161,-0.001632132,0.0033204618,-0.003018071,-0.0014358904,0.00063165685,-0.0009850325,0.00046804556,-0.0012688873,-0.0002932653,-0.0019144611,-0.0032838634,0.0021328314,0.0001388503,0.0021781002,-0.0024913712,0.001181803,-0.0032915806,0.0025614104,0.001967209,-0.0020539192,0.0027881009,-0.0018488807,-0.002837676,0.0005169195,0.0010656005,-0.0026968517,-0.0029811498,0.0030910755,0.00059143256,0.0002852127,0.0008474075,-0.001155204,0.000580603,0.0006487286,0.0032775693,-0.0018892043,0.0007857827,0.0021166713,-0.0022139435,-0.0029601315,0.0028866779,0.0022607124,-0.0013456803,0.0019099466,0.00026474512,-0.0016862601,-0.00043599555,-0.0016215278,0.002063207,0.00063859357,-0.0028278194,-5.3714666e-05,-0.00087545614,0.0021974316,-0.00041651074,0.0025482103,0.00066747685,-0.001308994,0.0027380246,0.0009993346,-0.0012598652,-0.0018867598,-0.0010396877,-0.0017218518,0.0012125917,-0.0030934582,-0.001919723,0.0010674504,8.570197e-05,0.0020295463,-0.0011989443,3.3854192e-07,0.0008526721,0.0018490591,0.00054957846,0.0033112578,0.0012757748,-0.0024063233,-0.00046269342,-0.0027789494,-0.0017378685,-0.0007339539,-0.0032424168,0.0031276231,0.0006584013,-0.00038782705,-0.0018552749,-0.0028209533,-0.0033043884,0.0029445828,-0.00082477625,0.0015479613,-0.0015019332,0.003329388,0.0012516308,0.00035733325,-0.0013203002,0.00042556608,-0.0008787276,0.002479578,0.0014549056,0.0003306324,0.0011855296,0.0012528548,-0.0022619863,0.0029524064,0.00059850916,-0.0018919711,0.0028507286,-0.00042364866,0.0027626748,-0.00051016995,0.002368381,0.0009480531,-0.0014634893,-0.0012585049,0.003104896,0.0005158656,-0.0020037985,9.672853e-05,-0.0006997488,0.0005193557,-0.0025961208,0.0024528173,0.00045573257,0.0026474784,0.0014699873,-0.0014993605,0.001236018,-0.00022176007,-0.0032937052,0.0027309933,0.0031499479,0.0031855654,-0.0012452082,-0.00283635,0.0016544887,-0.002589651,0.0028209097,0.0009170811,0.001901442,0.0020539495,0.0001702774,-0.00073145767,0.0002961693,0.0032570828,-0.0023711442,-0.00053031155,-0.00079032994,0.0016137989,0.002183312,-0.0013759845,0.0012304555,-0.0014923677,0.0011143355,0.0027329049,0.0012045512,-0.0014840508,-0.0010411403,0.0026202472,0.0032232914,0.0019640585,-0.0010720646,-0.0006162455,-0.0021003166,-0.001484551,0.0011451069,-0.0021429502,-0.0021970556,0.002688881,0.00314362,0.002756881,0.0005045956,-0.0029866388,-0.0025221794,0.0005625656,-0.0031945773,-0.0024422044,0.00065422436,-0.000985895,-0.0030487638,0.0021341941,-0.0029862972,-0.0024405099,-0.00058853725,0.00057573215,-0.0003660837,-0.0017373111,0.0021856304,0.002942618,-0.0024801674,0.003278905,0.0024355047,-0.0025227966,-0.00063028984,0.0014024857,0.0023393254,-0.0012491302,-0.002374196,0.0015407453,-0.0030197776,-0.0019387535,-0.0004383972,0.00180642,-0.0019225603,0.0015581237,-0.0001658782,0.00089476345,0.002125185,0.00047113688,0.0025808453,-0.00011476194,-0.0027785297,0.0030553013,-0.0015984458,0.001574304,-0.0012689134,-0.0024489947,-0.0021782217,0.0015463108,-0.00026407273,0.00051830034,-0.0029924002,-0.0017387306,-0.0019938054,0.0028226,-0.002936007,0.0016907112,-0.00028744998,6.5885775e-05,0.0029510232,-0.0011781212,-0.002301826,0.00026567862,0.0025913166,0.0029774606,-0.0012603953,0.0009492229,0.0016525344,-0.0018148487,0.002278436,-0.0021402636,0.0007568546,0.0015470699,0.0014086249,-0.0015756694,0.00087224424,0.0024545179,0.0028881305,-0.0032150806,0.0018340742,0.0016478573,-0.0005535453,0.0030690597,-0.0014063953,-0.0005492247,-0.0022663425,-0.0012418702,0.000107113236,-0.0011441725,-0.001831189,0.002175747,-0.001772124,-0.0021124706,0.0025611606,0.0031989529,0.0013467643,-1.3313804e-05,0.00027937567,-0.0003110623,0.0022833673,-0.0020685212,0.00018654483,0.0014227703,-0.0007117374,0.0003091182,0.0012537659,0.0032341476,0.00071301905,0.003199621,-0.0019423767
renal,0.0015954378,-0.001208154,-0.001418061,0.00040665717,-0.0013737282,-0.0018810495,0.0010527523,0.0027906278,-0.002179042,-0.0030390662,-0.00111079,0.002510575,-0.0032321438,0.0032001121,-0.00013876286,0.00076741795,-0.0006186385,-0.0019292705,0.0010251576,0.0020654218,-0.0023488586,-0.00039303023,0.0005196355,0.0014164943,0.0023844359,-0.0011865894,0.0024217833,-0.0018602711,-0.0007333231,0.003029904,0.0017904027,-0.002824317,-0.00055050245,-0.0029465521,-0.0005602832,0.0018884556,-0.0024690242,0.0018318377,0.002025494,-0.0012496122,-0.003215825,-0.0008412072,-0.00084870216,0.0012470476,0.0029712003,0.0006640054,-0.00069770846,0.000993467,-0.0022758013,-0.00042980904,-0.0004919021,0.003201568,-0.0019409133,-0.002345814,0.00078029814,0.00087991386,-0.0023798272,-0.0019578065,-0.00039349782,-0.0010996022,-0.0030009197,-0.001352814,-0.0009916172,0.0021625983,0.00031785958,0.0005367087,9.8442295e-05,-0.0011256809,0.0010282197,0.00023251548,0.0019929442,-0.00026099297,-0.0029686806,0.00029003326,0.0033043853,-0.001743818,-0.0017427768,-0.00083239,0.0028618462,-0.0002660799,0.0031326779,-0.002780486,0.003007724,-0.0032252322,0.003064321,0.00063148077,0.0008800116,-0.0019498195,0.0028165313,0.002019691,-0.0018289534,-0.003162296,0.0023279008,-0.0018476387,-0.0030952988,0.0008729605,-0.0016615955,-0.0024487441,0.0032443563,-0.00052275806,-0.00050565944,-0.0013410181,-0.0014658442,-0.0015469481,-0.0018640471,-0.0017735796,-0.0026680399,0.0031697315,0.0021256588,-0.0011945436,0.00082067965,-0.0025438913,0.0025103835,0.0027693782,0.0002717995,-0.0022782104,-0.0009863502,0.0015790038,-0.00097552384,0.0010506996,0.0031384737,0.0014572381,-0.0017160551,0.0018272923,-0.000964391,-0.0021274206,0.002342309,-0.0030858186,-0.00038479295,-0.00045672618,-0.0028015506,-0.0003620639,0.0018719048,-0.0017584028,-0.0023399647,0.0020774815,-0.0011423334,-0.0026026645,9.8723125e-05,-2.3636923e-05,0.0025134487,0.00018404966,0.0026268703,-0.0032682088,0.0013507555,0.0020704619,0.00033829553,-0.0009526991,0.0003427265,-0.00027536313,-0.0027044956,-0.0022799992,0.00039365178,-0.00067419896,0.0031786477,-0.00030358075,0.0020355089,0.00067906233,0.0026976492,-0.0030909816,0.00079982006,-0.0004804445,0.0007106593,-6.829745e-05,-0.0022156425,0.0030134972,-0.00094694755,0.0006339004,-0.0021485034,0.0012447635,0.0033308032,-0.00039818152,0.0021962766,-4.3120574e-05,0.0026389183,0.003211985,-0.000122062214,-0.0005734185,-0.0031645445,0.0032958754,-0.0008402517,0.00072986865,-0.00056820817,0.0027726723,0.0027694197,0.0005132852,0.00096561504,0.0021447213,0.0007444811,0.00214826,5.386495e-05,-0.00075974356,0.0017596041,-0.0011380754,-0.000866224,0.0029290058,-0.0030455973,-0.0011437227,-0.0009766845,0.0018956795,0.0026393158,-0.0021490708,0.0019331124,-7.730641e-05,-0.0030110758,-0.00081804395,-0.0005272667,-0.0014966931,-0.00026546622,-0.0017481449,0.0019785995,0.0030988979,-0.0005297705,0.0011252763,-0.00024804386,-0.00023456123,-0.0023417594,0.0004751371,0.0012929045,0.0023027281,0.0021856604,0.0011815577,0.0015492954,-0.0024847942,-0.00046691246,-0.00192798,0.0022657935,0.002603343,-0.0014270127,0.0003875698,0.0017018205,0.0005982182,0.00026487058,-0.0022409114,0.003280286,-0.0024107352,-0.002008745,-0.0018891259,-0.0021215025,-0.0011694275,-0.0031310655,0.0003874231,-0.0012538235,-0.000847662,0.001929592,0.0011768445,0.00060604047,-0.000454457,0.003289853,9.973044e-05,0.0016761291,0.0030134304,-0.003253101,-0.0030555925,0.0032951431,0.00090608466,-0.0006179946,0.0015738099,-0.001447154,-0.0021325578,-0.0027532978,0.0024143525,-0.00081926386,-0.002523239,-0.0019663144,0.002056444,-0.0008152432,-0.0020453075,-0.00054376276,-0.0004924557,-0.001092579,-0.0007026527,0.0013685657,0.0004765197,-0.0011572575,0.0009022662,0.0017455021,-0.003055714,-0.0025316225,0.00209778,-0.0029812898,0.00017459925,-0.0030003758,0.0027931198,-0.0014328095,-0.00219919,-0.00046618714,-0.0003701504,0.0025149754,0.0030379412,-0.00011253799,0.0008993925,0.0015817602,4.270613e-05,-0.0019222427,-0.00020233792,0.00072861795,0.0027653691,-0.0011874285,-0.0032846197
esophag,0.0017955208,0.003274,-0.0023549425,-0.00019834886,-0.0016843785,0.002139281,0.0032364102,-9.69665e-05,0.0017170869,0.0021765395,0.0014671771,-0.0026801687,0.0010352313,-0.0004994959,-0.00071036164,0.001802976,-0.00043646892,0.003303776,-0.00021549221,8.6394495e-05,-0.00076336187,-0.0028472117,-0.0032711928,0.0016433586,-0.002203216,0.0009830296,0.0009146611,-0.0023448262,-0.0010463952,-0.0019442388,-0.0028520431,1.7872904e-05,0.0032581324,-0.002226398,-0.001465239,0.0027785725,0.0030926776,0.0032730498,-0.0032958295,0.0016897453,-0.0022132206,0.0022876833,0.0020481404,-0.0011325513,0.0022984524,-0.0026277788,0.0015309112,0.0015267128,0.0019692143,0.001963665,-0.00088324194,0.0012944944,-0.0020406565,-0.002142387,0.0009038859,-0.0031483588,-9.194348e-05,0.00036925205,0.00266987,-0.002328842,-0.0007795309,-0.0013794084,-0.0017440218,-0.00016059997,0.0015266294,-0.0016509361,-0.00054148544,0.0028984344,-0.000444555,-0.0012002832,0.002482625,0.0004056198,-0.00010997169,0.0031404218,0.0027033174,0.0011502778,0.0011196227,-0.00075241807,0.0027078672,0.0016994845,-0.0018190308,-0.0020621703,-0.00020315083,-0.0026210477,0.0011208388,-0.003071198,-0.0005266855,0.0011318569,0.0010260778,0.0010578614,-0.0030189557,0.0011480633,0.001797576,0.0011667424,0.0026115088,0.00055692886,0.002090436,0.0029541792,-0.00030690365,-0.00025707585,0.0007467587,-0.0025215636,0.0018943956,-0.0016663648,-0.0010895284,-0.00062396534,0.0027442619,0.00074620097,-0.0003120726,-0.000936119,-0.0007060365,-0.00043107654,-0.0016885973,-0.0013784448,7.505769e-05,0.0015168804,0.0006033613,0.002301084,0.00021820377,-0.0010839322,-0.002455642,0.0020209868,0.0023306608,-0.0020161306,0.001556274,0.0031687634,-0.0021233782,-0.00096738286,-0.0030326943,0.001086324,-0.0011384528,0.0006865563,0.003158364,-0.0027876813,-0.0031091822,0.0005928867,-0.0026843306,-0.0030303574,-0.0031195795,-0.00010849037,-0.00037349592,0.00022945493,-0.0004445877,0.0030171743,0.0029349977,-0.0021137248,0.002885255,-0.0030182176,-0.00044560814,0.0008454305,-3.765494e-05,-0.0012943537,0.00013913575,0.00034038315,-0.003137626,-0.0016200086,-0.0025828246,0.00127075,-0.0002967013,-0.0024911053,0.0018814446,8.539752e-05,0.0008820669,0.0018194134,-0.0014110962,0.0026215506,-0.0026183026,-0.001157401,-0.0024676612,0.00033742544,-0.0024709634,0.0030255467,0.0018398617,-0.0024072328,0.0020563002,0.0021894078,-0.0024476424,0.0015397571,-0.0025729854,0.0031181434,0.0015754586,-7.484672e-05,-0.0029862896,-0.00030633828,-0.00010642243,0.00031035228,0.0028929305,-0.0009248715,-0.002901847,-0.0029584183,-0.00034079733,0.0004626708,1.4244244e-05,-0.00073176954,0.0028592641,3.0123889e-05,0.0021403763,0.0013230765,-0.0023987463,-0.0007119308,-0.0025951725,-0.0022467673,-0.0010532478,0.0022039113,-0.00027720863,0.0029638177,-0.000768901,-0.001776821,0.0013186116,0.0007368496,-9.127353e-05,-0.0008197602,-0.0020109098,0.0013425073,-0.0025331045,-0.002968927,-0.003054751,0.0027819725,0.0013232803,0.0023611146,0.003301651,-0.0024142226,0.0013302334,0.00094135094,0.0020422693,-0.0011362815,0.0031117455,-0.0019386498,0.002345636,0.0023227558,-0.00012775324,0.0016798374,0.0022236537,0.00052614365,0.0024597154,0.00080638495,-0.0005083774,0.0024593556,0.0015594019,-0.0010704164,0.00056070194,-4.336441e-05,0.001647845,-0.0017938958,-0.0013880922,-0.00032491153,0.0012805968,-0.002186367,0.0026118592,-0.0010193769,0.0019201273,0.000955391,0.0022757968,-0.0014883915,-0.0010822153,0.0010134308,-0.0009140452,0.0019843662,-0.0019957323,0.0008545984,-0.00023999852,-0.00018802047,0.00084516435,-0.00073945476,-0.0014337889,-0.0028599412,0.0008363902,0.0017678024,-0.0019679917,0.0030366373,0.0013428803,-0.001737263,-0.00044283055,0.0013037319,-0.002335884,0.0006957585,0.0018344832,0.0020949969,0.0017921475,0.0012165086,-0.000925396,-0.002032596,0.0027103156,-0.0024215553,-0.0005369054,-0.001076104,0.0021472725,-0.0020927275,0.0011365563,0.0006867391,-0.001363069,-0.002748822,-0.0026792062,0.0011622385,-0.0031895256,0.001902531,-0.0009797536,-0.003062812,-0.001715721,0.0025837142
thrive,-0.00057380396,0.0021353785,-0.0030921788,-0.003048844,-0.0017340593,0.000317413,-0.0023918715,-0.003148675,-0.0029618896,-0.00015433789,0.0024711704,-0.0027928627,-0.0017776731,0.0005058344,0.0011064446,-0.0028193886,0.002622587,-0.0027387918,0.0015787677,0.0031384365,0.0018867246,0.002057621,0.0027455436,0.0011509708,-0.0023814861,0.0019156893,-0.0027709801,-0.0019079546,0.0019685586,-0.0026431342,-0.001956793,-0.0011861213,0.00113102,0.0017398989,0.0006850918,0.0017028507,-0.0008756912,0.001450661,-0.0023494656,-0.0005534148,-0.0025816003,5.793532e-05,0.0015660528,0.0016000104,-0.0015517569,0.00058349094,0.0026037423,-0.0018579395,-0.0012625849,-0.00019918005,-0.0015732534,0.0028989534,0.002514043,0.0030738048,0.003120962,-0.002816946,-0.0001599133,-0.0025354603,-0.0016032556,-0.0029465687,0.0011385913,3.548304e-05,-0.0023052266,0.0026543613,0.00031766016,9.952386e-05,-0.0011880219,-0.0011155355,-0.0008808124,0.002540725,0.0007981976,-0.0017236435,0.0015766466,0.0003301656,-0.0009110494,0.0025698165,-0.0013157463,0.0024771735,-0.0014051449,-0.0024521542,-0.0014988446,-0.0012994993,-0.00023480097,-0.00061483664,0.0017037392,0.0018168561,-0.00057961186,0.0012445644,-0.0006761551,0.0002448686,-0.00045547922,-0.0008209415,-0.0015722744,-0.0014205957,4.2340755e-05,0.0005498163,-0.0031495697,0.0020254524,-0.0005602058,-0.0009914597,-0.0015980247,-0.0014388497,-0.0016001995,-0.0032679904,-0.00025913795,-0.0025974624,-0.0016040083,-0.0024583268,0.0033118944,-0.00045196494,-0.0025847475,0.0018388967,-0.002688785,-0.00063742837,0.0009118219,-0.0023597153,-0.0029111756,-0.0022138576,0.0024894476,0.0030192323,0.0013304993,0.00080122787,0.0013792836,-0.00135681,0.003252679,0.0022964403,0.0013712446,0.0029829629,-0.0027979212,0.00031136235,0.0029640698,-0.0003130452,-0.0022459587,-0.00075626053,-0.00092947204,-0.0008327421,-0.00061472773,0.002427556,-0.00010015647,0.0014141126,-0.0012505102,0.0027441247,-0.0021673853,-0.0031127592,-0.0013798289,-0.0024552664,-0.0016255382,0.00016493241,0.0007949507,0.000579956,0.0016691932,-0.00046521504,0.00076073327,0.00011714776,0.0026151342,0.0026755962,-0.0006578306,0.00041914423,-0.0020106372,-0.0015861957,-0.002323608,-1.0561943e-06,-0.0016382333,-0.0013487657,0.0005015679,0.0008700025,-0.0030394038,0.0005824701,0.00171007,0.0013868547,-0.0009689868,0.0031601996,0.0031497586,-9.05633e-06,0.00028509894,-0.003082757,-0.0016016368,-3.3833585e-05,0.0013478303,5.2817664e-05,-0.0029082124,0.0019382902,-0.0024716926,0.0028512597,0.0018387954,-0.002258482,0.0009474957,0.0025727607,-0.002036346,-0.0021823044,0.0030663454,0.00060159725,0.0032368163,-0.003302212,-0.00050047,0.002299943,-0.00048772732,-0.0005855254,-0.0023596713,-0.0018885898,-0.0021737032,0.002974422,-0.0005282271,-0.002761165,0.0026719857,-0.0009869632,-0.00044400175,-0.000225269,0.00094227196,-0.00157226,-8.593877e-05,-0.000948505,0.0029253133,0.002292967,0.00036651452,-0.0020220978,0.0010442039,0.00037882925,-0.0020414598,-0.0019174401,-0.0010321942,0.0007955007,-0.0027050055,-0.0016639475,0.0026995086,-0.0012307696,0.0026526423,0.00017860254,-0.0018447908,-0.0016546997,-7.172744e-05,0.0015308928,-0.0020278255,-0.0018360666,-0.0022703302,0.0022488202,-0.0008012569,0.0013386841,-0.0005421297,-0.0024718242,-0.00042277973,0.00013436795,0.0011954642,-0.0028920022,-0.0022684543,-0.0021856371,0.0009974292,-0.0012473857,0.00033904554,0.0013856828,0.0015062761,0.00078853924,-0.00095769326,0.00021354874,-0.0017972235,-0.0021175758,0.0029052424,-0.001350226,-0.0031059985,0.0012437372,0.0028180564,-6.276011e-05,0.0007549135,-0.0011823988,-0.0013974678,-0.0028732785,-0.002617668,-0.0030264112,-0.0019902003,0.0028292986,0.0031455536,-0.000559744,5.0922235e-06,0.0026176185,0.0004208521,-0.0017150907,0.00087601744,0.0006019286,-0.0012421282,-0.0016300499,0.003214574,0.0025495791,-0.002856714,-0.001841712,0.00047380367,0.00030503192,-0.002783668,0.00310939,-0.0017939329,0.0015337698,0.0030770365,0.00036343097,0.0014068616,-0.0009051657,-0.0032274493,0.0001999565,-0.00036129553,-0.003306903,0.002335206,-0.0024619962
pain,0.0017131171,-0.0014756212,-0.0030646152,-0.0030181212,0.0020812845,-0.0017599182,0.0017615084,-0.0004959073,0.0032419502,0.002405109,0.0032876811,0.0027961708,-0.0026355793,-0.0032046267,-0.0018461879,-0.0002640387,0.0016818058,0.0012011279,-0.00066792156,0.0016847266,-0.0011213606,-0.0022737575,0.00157937,-0.0033060093,0.00031169396,-0.0016669942,0.0025363457,-0.0012386668,0.0009257941,-0.0020897947,0.0032275047,-0.0018618185,0.0011911256,0.0010833169,0.0029615012,-0.0018544734,-0.0014483652,-0.0020864292,0.0020463367,-0.0015235766,0.0016188861,-0.0003044053,0.002434368,-0.00202382,-2.8560922e-05,-3.451226e-05,-0.0028521204,0.0029301275,-0.0007098707,0.0021411933,3.2226624e-05,0.0016750866,0.00073233515,0.0029680114,-0.0027875646,0.0028353957,0.0028984612,0.00034565938,0.0014847609,0.0012722071,0.0013403995,-0.0009926617,0.0009405211,0.00026545938,0.0016082521,0.0028297056,-0.0025809202,5.502316e-05,-0.0029249063,-0.00054049474,-0.0030312105,0.0010519356,-0.0005303551,-0.00025189246,0.0021433497,-0.0026968855,0.00037621745,-0.0008042618,-0.0012340442,-0.002417949,-0.0026737684,0.0027483809,-0.0024903845,0.001635964,-0.0012590201,-0.00039742637,0.00091815466,-0.0028630318,-0.0018630247,-0.0025865831,-0.0031347687,-0.00157056,-0.0010506215,0.00016051072,-0.0002041795,-0.0026089004,-0.0012743594,-0.0009160314,-0.0021250034,-0.0021079937,-0.00088610407,-0.0026473831,-0.0027462565,-0.0025517584,0.0011811509,-0.0025520374,-0.0012440342,0.0022033034,0.0024589063,-0.00213107,0.002266859,-0.0026002603,4.7592897e-05,0.0022165356,-0.00092696736,0.0030836102,-0.00010887313,0.0015688016,0.0023403778,-0.0028797612,-0.0020228818,-0.0024260539,-0.00038845933,-0.0023667868,1.3780951e-05,-0.0026694846,0.0001773513,-0.0001508607,0.0021619897,-0.002945097,-0.0010588872,0.0019884896,0.0031095757,-0.0005974488,0.00025685222,-0.0020171562,0.0002638649,-0.0027066525,-0.0025589885,0.00044491963,-2.9301018e-05,0.0018446386,-0.0032471546,0.0005480991,0.0005332288,-0.0017633241,-7.1402786e-07,0.0020118183,-0.002198795,0.000103434955,0.0012817502,0.00053607026,0.0009399168,0.0027351235,0.002218318,0.0011940117,0.002638614,-0.0025691718,0.00252859,0.0013207672,-0.0019523755,-0.0013864503,0.00213326,0.0019468016,-0.0032994873,0.00041056328,-0.00013026624,0.0002573137,0.0023629465,-0.0023728104,0.0032231726,-0.0031514447,0.0020841362,0.003184249,-0.0012912807,-0.0031466384,0.0020860531,-0.0030056015,-0.0027623859,-0.00028002288,-0.002213644,0.0029237177,0.0026170232,0.0002827855,0.002655646,0.0033089747,0.0017440335,0.0014426892,0.0017806198,0.0021275817,0.0016013607,0.002135519,-0.0025062978,0.0029601739,0.0027893693,0.0031162293,-0.003016811,-0.0011644765,-0.00011517837,0.0013871011,-0.0027371054,6.228525e-05,0.002008455,0.0031907544,-0.0009522407,0.0005908703,0.0021051487,-0.0006750884,0.00065124733,-0.0031278746,0.00023070413,0.0015159874,0.0014855989,-0.0032656721,-0.0017285565,0.0009899036,0.00052419666,-0.0015992136,0.0019339093,0.001183185,-0.002617161,0.003289689,-0.0025888875,-0.001011883,0.0032398794,0.00038071713,-0.0018504481,0.0003757677,-0.0013678471,-0.0022514567,-0.0025930626,0.0015831366,-0.0030274421,0.0013646216,-0.0018485727,0.0018254018,-0.001439307,-0.0018681051,0.0021202154,-0.0029143537,0.0004613539,-0.00071541785,-0.0022516658,-0.0025454469,0.0022736508,-0.001504688,0.0015346052,-0.0032217912,0.0006380933,-0.0006412372,-0.0019668934,-0.000923961,-0.0028833484,-0.0011706372,-0.0008800252,-0.00078588503,-0.0016890463,-0.0030769436,0.0017536326,-0.0004415118,0.002067111,0.0010513392,0.0028556313,-0.0011944975,-0.0029781586,0.00044878502,-0.002989665,0.0020216068,0.0028061895,0.00015172445,0.0025600186,0.0028362144,0.0014054311,0.0018097642,0.0030686199,0.0003977987,-0.0027525022,-0.0027770258,-0.0006245091,-0.00020582107,0.0029412354,-0.0031183166,-0.00088040653,0.0030620415,-0.0004732375,-0.0030336012,0.00065892516,-0.001944235,-0.0018388384,-0.0021149889,5.048641e-05,0.0024250287,0.0013751367,0.002707102,0.0029644435,0.0015121553,-0.002032739,0.0023411878,-0.0031786375,-0.0016039506
respiratori,0.0026631136,0.002646818,-0.0018087721,-0.0026554477,0.0026968059,-0.0012726192,-0.0013465795,0.0024163246,0.0018098267,0.0012668015,-0.00040978796,0.002885842,0.0028127008,0.00232057,0.003025432,-0.0019271533,0.00033205643,-0.0005435821,0.0021146953,0.0032570073,0.0017275282,0.0013461282,0.002179335,0.0019470708,3.957626e-05,-0.002774348,-0.0007316819,0.003021968,-0.0016958622,0.00033671473,0.0016259186,-0.0023044443,0.0027273395,0.0004788086,0.0007940527,0.0027800084,0.0004906162,0.0002885091,-0.0031470843,0.0032973066,-0.0032789106,0.00285774,0.0016882378,-2.4631512e-05,-0.002619937,0.003113759,-0.000447409,0.0017903089,-0.0010185943,-0.0016324376,5.4240256e-05,-0.0026786386,-0.0022210183,-0.003146557,0.0017759142,0.00015732755,-0.0003000026,0.0017041898,-0.0006558646,-0.00246987,0.0009462319,-0.0019969726,0.0001585096,0.0031636434,-0.00032256328,0.0020451723,0.0015012505,-0.0011707707,-0.0017478602,0.0029418855,0.0006999221,-0.00015037954,0.00029364624,-0.0016506753,0.0011742733,-0.00102891,0.001392491,-0.0015138577,-0.00025955713,0.0013187875,-0.0023854896,-0.0008543973,-0.0029066983,0.00053376204,0.0006710101,0.0008087642,0.00035304428,3.2102434e-05,0.00074747246,-0.00031151043,0.0019805655,-0.00097005884,-0.0016849649,-0.0017749601,-0.003211887,-0.0026937837,0.0007066227,0.0013270415,-0.0019193651,-0.0032259207,-0.0020541518,0.0015496401,-0.0030161217,0.0016840192,0.002116296,0.0020334518,-0.0025393113,0.0009427523,-0.0018258607,0.0030210484,-0.001434717,-0.00078287895,0.0017507909,-0.0002704113,0.0017075697,-0.0014023506,0.0016580918,-0.0032666177,0.0020395108,-0.0004195785,-0.0018591381,1.13874175e-05,-0.00040672655,-0.00023887778,-0.00059260643,-0.0030827129,-0.0025854285,-0.0022717891,-0.0028712626,-0.0015000118,0.003075077,-0.00059679814,-0.0025236264,-0.0019632203,0.0011946823,-0.0008917291,-0.00052367774,-0.0014134939,0.001986852,-0.0026203797,-0.0025010838,0.0024924735,-0.002320114,0.0007140148,0.00013241809,0.003220608,0.0014037259,0.00068213925,0.0009182491,0.0007595857,0.0007327127,-0.00093370787,0.0013572193,0.0020457995,0.002965494,-0.00023653384,-0.0004234747,0.0021459989,-0.002821226,-0.00021938223,-0.0022130674,0.0016003557,-0.002997378,0.0010943431,0.003000183,-0.00068641437,-0.002942237,-0.002733321,0.0010772749,-0.0017737729,0.0021407749,-0.00039461875,0.0026229378,-0.00016320465,-0.0020779483,-0.0018991736,0.0002637368,-0.0015994703,0.002192678,-0.0011673057,-0.0018722998,0.00031598064,-0.0016365227,-0.0027399156,-0.0017588199,-0.0006142589,0.0001564743,0.0012120162,0.0022830463,0.0022413952,0.0019644096,0.00010399706,-0.0019509406,0.003003499,-0.00021193981,0.0015652817,-0.00046835456,0.0019277373,0.0017643645,-0.002429865,-0.00091274997,3.6001384e-05,0.00068400067,-0.0030964187,0.0016096688,0.0011175084,-5.759209e-05,-0.0011664277,-0.0025353362,0.0025264528,-0.0028707164,-0.0024654302,0.0014739376,-0.0028390042,-0.0011048194,-0.00069900096,-0.0006397237,-0.0022948233,0.0014243843,0.0003364201,0.0012167768,-0.00044966378,0.0023106392,-0.003185414,0.0019417823,-0.0017108861,0.00057676475,-0.0023096434,-0.00082879583,-0.0021404913,-0.0011189465,0.0032402345,0.0008940698,0.0005425849,-0.0020256673,0.0018633212,-0.0027010245,-0.00076296966,-0.0021596577,-0.0021343709,0.0007808764,-0.0010947315,0.0007958158,0.0013111321,-0.002084439,-0.000597123,-0.0009197944,-0.0032575259,-0.0032703432,0.0003793239,0.0014643387,7.313342e-05,-0.0016231975,0.0012057592,0.00054762623,-0.003151905,0.0024110044,0.0025908074,-0.0025925227,-0.00026134518,0.0020070309,-0.00090571766,-0.000101736805,-0.0014230296,0.0020416535,0.0023327789,0.00070023676,-0.0015623171,-0.00062346,-0.0013317395,-0.0032580625,0.0025954081,-0.0002099849,-0.0002050737,0.0023740996,-0.0030016028,0.0021059876,-0.0025157565,-0.0017974472,0.0016837385,-0.0011668904,-0.0011631581,-0.0021094275,-0.0012897576,-0.0008921042,-0.0013573713,0.003137324,0.0031544755,-0.00012736746,-9.1798924e-05,-0.0018779722,0.0026477282,-0.0016438917,0.0019623789,0.0030331563,0.0019237652,-0.00031806124,0.0018424449,0.0023214165,-0.0012914545
tract,0.0002195201,0.002173317,0.0019554463,-5.9237893e-05,0.0007835561,-0.002178029,-0.0031042693,-0.0016208126,-0.0017950817,0.00019898551,-0.0013300519,-0.00012242787,0.0025402303,0.0032340433,0.0026363484,0.0007964236,-0.0009008097,0.00080641406,-0.00088942697,-0.0029923513,0.0023056665,-0.0028854888,0.0012780606,-0.0013328074,-0.0018429813,-0.00034060693,-0.0022035807,0.002861841,-0.0023044853,-0.002998336,0.0019392854,0.0014888812,0.0015776817,0.00080616504,-0.0012481218,-0.0016916271,0.00059933716,0.0027759848,-0.0018920462,-0.00079613895,0.0006155937,0.002248134,-0.0021251743,-0.0015140299,-0.0008742064,0.00044507414,0.0017982349,0.0018627476,-0.002908005,0.0024322136,-0.00083415635,-0.0009443892,-0.0029414038,-0.0019251598,0.0031535367,0.0010481073,-0.0026725982,0.00094238605,-0.002355945,-0.0030221324,0.0012793506,0.00067157455,0.00042451906,0.0029538125,0.002080185,-0.0016760945,0.00091911707,0.0008520578,0.0007920893,0.002767729,-0.0023158146,-0.0007667988,0.00033910823,0.0021243466,-0.00022024733,0.0026440779,-0.0015581666,-0.0030133224,-0.0023504249,-0.0013637918,0.0031917973,-0.0017145161,-0.0016169108,0.0027521676,-0.0024761418,0.0006752003,0.0018937016,-0.0025099851,-6.122536e-05,-0.0007821933,0.0018645477,-0.0015048576,-0.0021846644,0.0032984356,-0.0015252868,0.002555323,-0.0028191207,0.002339149,-0.0011378832,-0.0026045889,-0.000401716,-0.0007883631,-0.0006003419,-0.00039999167,-0.0021721704,-0.0011875267,-0.0010602177,0.0025721847,0.0019425774,-0.00028602773,-0.001600855,0.0017620395,-0.0029390992,0.00055427704,0.0013476689,-0.0006449726,-0.0014977326,-0.0027374956,-0.0027545854,0.002360858,0.0012212724,-0.000118313335,0.0032356454,-0.0028528885,0.00019252604,-0.000138644,-0.0026766572,-0.0030519487,0.002397805,-0.0012058238,-0.0026227485,0.0026671807,-0.0020663491,-0.0010383652,0.00058566267,-0.0011096664,-0.002667118,-0.001307304,-0.0030139063,0.00045385957,-0.0015457546,-2.5686339e-05,0.0009120227,-0.0008019881,0.0029541762,0.0023451624,-0.00019997494,-0.0002122085,0.00028118567,0.0022352375,0.0029875622,-0.00066323875,-0.00054298044,-0.0009794337,0.00015144794,-0.0021462832,-0.0006428269,-0.0028957203,0.000216598,0.0004974079,0.0012573613,-0.0009459974,0.0019660708,-0.0023465452,0.0032742852,0.00017845623,0.00076330703,0.0014471603,0.0001464238,0.00088504376,0.00053662446,-0.003205333,-0.0010486606,-0.0008600859,-0.0030950275,0.0011416523,0.0016090933,-0.00070376415,0.0024817507,-0.00039947103,-8.6954824e-05,0.001929521,-0.0028385285,-0.002306744,0.002439919,-0.0021805775,0.0028458615,0.0017872839,-0.0026890896,0.002787697,0.0021295182,-0.0022423833,-0.0028461996,-0.0029405316,0.0012954434,0.002101621,-0.00070690137,0.0004333036,-0.0027941111,-0.0017062032,0.0015614072,-0.0030224854,-0.0030808093,0.00033834955,-0.0028556979,-0.0023191278,0.0015827294,0.0026697547,-0.0024433627,0.0027052157,0.0031258275,0.0015582949,-0.0014906889,0.0032162347,-0.0025888428,-0.0012905097,0.0006354721,-0.0025848593,-0.003302336,0.0009532889,0.0027236622,-0.0017041431,-0.0014381502,0.001306647,0.00021321542,-0.002845943,0.0021933073,-0.0010547189,0.0011903836,0.0010607623,0.002965016,0.002906977,0.0024449716,-0.0027523718,0.0003967558,-0.0003156222,0.00030018028,0.0029713686,0.0015985952,-0.0029982433,0.0032885643,-0.0002940641,0.00012460443,0.0016521644,-0.002068679,-0.00014587253,0.0004639875,0.00236386,0.0014208591,-0.00064092997,-0.0028087406,-0.001289752,0.0029302929,-0.003157045,0.0032612432,-5.9920927e-05,-0.00036378045,0.003202073,0.003174457,0.002749687,0.00299416,-0.0033091991,0.0025066421,-0.003145225,-0.0025693711,-0.0029369155,0.00072638656,0.0024050754,-0.0021168676,-0.0009113006,-0.0007889147,-0.0015040378,-0.00044178878,0.0016068701,0.0012505896,-0.0010754281,-0.0012415287,-0.0007660712,-0.0010966116,0.0013038004,0.0032436177,0.0026217888,-0.0025258225,-0.0021344302,-0.0030570647,-0.0019735023,0.0012012441,-0.0020027775,0.0005624449,0.0029660638,0.0011154772,0.00041666703,0.0029750017,0.002132078,-0.00048128728,-0.002054329,-0.0003634045,0.0024179085,0.002500095,-0.0013477101
pulmonari,0.0033202053,0.0008115746,0.001718055,-0.0018825262,0.001471276,7.880427e-05,-0.0031800328,0.001726688,-0.0030062343,-0.0021562148,0.0009252596,0.0030858186,-0.0007158096,0.0023321926,0.0017117508,0.0013506562,-0.0020603223,0.0016887424,-0.002780415,-0.0014704377,0.0018293988,-0.0027305426,0.0019206832,-0.0011678579,2.3139817e-05,-0.0024516399,-0.0020945587,-0.0011212899,0.0028684991,0.0017797699,-0.0032377033,-0.002185461,0.0011389237,-0.0028353154,0.0022020293,0.0020529525,-0.0030851304,0.0028839502,0.002603186,-0.0005846979,0.00061299105,-0.0019120101,0.002083393,0.002576219,0.0013575407,-0.0029698682,0.0016830598,-0.0010091772,-0.0007372949,0.002039322,0.00061657577,0.0015496685,-0.002097707,0.0017768972,-0.0011981779,-0.00011041564,0.0020835306,0.0013704362,0.00249543,-0.0013155406,0.0011694378,0.0024266122,-0.0010990821,0.0019146272,-0.0031636427,0.0029639641,0.0012799061,0.0017828962,0.0015352014,0.0015069793,-0.0011050228,-0.0020772412,-0.0007588067,0.00044652488,-0.0010056403,-0.002810641,-0.0021182555,0.0027939996,0.003134072,0.0020292057,-0.0013874399,0.00020579422,-0.0028712628,0.0022647753,0.00016952283,0.0024735841,-0.0018172051,-0.0009534203,0.0009760684,0.0011578883,-0.0021687283,-0.0024508,0.0006887945,-0.0030011532,0.00197265,0.0018581513,-0.0012667683,-0.0018765987,-0.0027681615,-0.0006238887,0.0023219285,-7.926369e-05,-0.0026411628,0.0029598135,-0.0028609107,0.0018540069,0.0021570541,0.0003089386,-0.0029290868,0.0020858522,-0.0026281725,-0.0016615909,0.003214792,-0.0027598022,-0.0025392284,-0.001620515,0.0011675894,0.00063289434,-0.0018530911,-0.0011248529,0.0028602344,0.0032795123,0.0033341362,0.00033547892,0.0013301072,0.00047242787,0.00058645126,0.0015894648,0.0007404801,0.00010811091,-0.0010441808,-0.0021563242,0.002689636,-0.0019841276,0.0009253797,-0.0002784541,-0.0012348966,-0.0016485481,0.0010483923,-0.0019828405,-0.0025015385,-0.0009131096,0.0015629772,0.0020275805,-0.0004823758,0.002424547,-0.0025706484,-0.0015911062,-0.0026348752,-0.0020402265,0.0024372519,-0.003137715,-0.0029250681,-0.003267443,0.0030585951,-0.0008724287,0.0002974972,-0.0020385482,-0.0008567231,4.797738e-05,-0.0008246493,-0.0024548927,-0.0020896548,0.00087386643,-0.0031779003,0.0003759914,-0.00066758675,0.0027491776,-0.00014959209,0.002100943,-0.0023796675,-0.0025160694,0.001846895,0.00032306492,-0.001706998,-0.0009076789,0.0029489666,-0.0030810507,-0.0012277015,0.0003508742,-4.0851017e-05,0.0031884091,-0.00065863214,-0.002368714,-0.0026008084,-0.0032966905,-0.0025962288,-0.0020070567,-0.001991414,-0.00048130212,-0.00015286147,-0.001570265,0.0006860207,0.0012853878,0.0030313868,-0.0015794609,0.0017358676,0.0024117935,-0.0012576812,-0.0024912627,-0.0011352152,-0.0022962543,0.0021683848,0.0031357168,0.0027644683,-0.0028599077,0.0016943581,0.0017074064,0.0019008546,-0.0027839553,2.0062655e-05,-0.0022936028,-0.003003474,0.00081784214,0.0033109821,0.0021650926,-0.002380673,0.00074822083,-0.0013271113,0.0033200353,-0.0029423812,0.0032387832,-0.0022020622,-0.0023500742,0.00052629295,-0.00022755086,-0.0028618257,-0.00021411707,-0.00012701181,-0.0020831604,0.0019172964,0.0010572451,0.0028109383,0.0024771087,-0.0022105922,0.0016211263,0.001912253,0.0019370351,0.001738298,-0.0016245123,0.001469069,0.00042388518,1.4708342e-05,-0.0021371108,0.0005234878,0.0017320456,-0.0030722546,0.0028743506,0.0009903776,6.3573943e-06,-0.001110374,0.0001167727,0.0020476407,0.0015954026,-0.0020313247,0.0026146371,-0.0001867631,-0.0027299407,0.0029399286,0.0016835657,0.0012202027,0.0026642366,-0.0025145041,-0.0019744786,-0.00068444334,-0.0013676115,-0.00050005876,-0.00018461377,-0.0028318064,0.0006329369,0.00084553973,-0.0002989372,0.0016278151,0.00048386143,0.002013166,-0.0007195834,0.0028544054,-0.0005113311,0.0009906769,-0.0012754324,0.0020530366,0.0010274576,0.0001760595,0.0029369728,-0.0026205764,0.0032599547,0.00024039409,-0.0007733268,-0.0013836027,-0.003026911,-0.0007378953,0.00091186824,0.002188622,0.0030195334,-0.0029221687,0.003047315,-0.002955208,0.0012434535,0.00269655,-0.0008311433
sp,-0.002627772,-0.002775187,0.00037767296,-0.0002521986,-0.0031708078,0.0010302652,0.0007638211,0.0015025708,0.0014784537,0.0010796497,-0.00327432,0.0019055156,0.0014202503,-0.0025858453,-0.0007052511,0.00011778812,-0.00021435344,-0.0003265957,-0.001842976,1.289075e-06,0.0014767178,-0.00023016252,0.0002701475,0.0006993463,-0.0013250358,-0.002623535,0.0030501937,-0.0032599478,-0.0008259049,-0.000425928,-0.0025531694,0.0005921201,0.0026455007,-0.0005012243,0.0027028506,9.1977054e-05,-0.001921505,-0.00066821073,-0.0002446034,0.0020887277,0.0023707314,0.0020684726,-0.001993796,-0.0023259367,0.0020388276,0.00083065074,0.0017880343,0.00015918505,0.0026245655,-0.0029571806,0.0032925217,-0.002739551,-0.0005681829,0.0020987517,-0.003079259,0.001445995,-0.002324601,-0.0022823918,0.000770229,0.0005766655,-0.0009377139,0.0026184288,-0.0023356332,0.00015209061,0.0029105046,0.0006775907,-0.002283956,0.0011842771,-0.001681505,0.00019057203,0.0009534055,0.0025296907,0.0024588755,-0.0016362035,0.0031708127,-0.0018227614,0.0025390836,-0.0026563841,-0.0026069512,-0.0003650655,-0.0027143345,-0.0011612185,-0.00017130858,1.0976693e-05,-0.003320177,-0.0021671408,-0.0024807241,-0.00012640956,0.0017358698,-2.4137133e-05,0.003322661,-0.0012923314,0.0026902265,0.0020307226,0.0027634096,3.6710233e-05,-0.00014039276,0.00063007884,-0.0033068939,0.0030189704,-0.0007983323,0.0025120592,0.00068374845,0.00096145563,-0.0004138894,-0.0033007874,0.00046986877,0.00096233864,-0.0032744117,-0.0012943872,-0.00078446086,-0.0016778046,0.0013231724,0.000703802,0.0014523279,-0.002157963,-0.0019971684,0.0015741356,0.0022667083,0.0018403389,0.0016043404,-0.0024061727,0.0027218175,-0.0023259586,-0.0025640177,0.0028338302,-0.0008187893,-0.003138544,-0.0010238189,0.0019950394,-0.00096469483,0.0016555529,3.1994514e-05,0.001358219,0.00039325273,-0.0030959996,-0.0012195521,0.0029459302,0.00051175593,-0.0019733764,0.0023379044,0.0024729131,0.0024131557,8.751165e-06,-0.003048661,-0.001166586,0.0017059797,-0.0021700042,0.0032431867,-0.0032695327,-0.0027141243,-0.0017768873,0.0020098533,-0.0025548122,0.002871551,-0.003280224,0.0011561799,0.0010953496,1.8581997e-05,0.0031829409,0.0017117488,0.000102394326,0.0015985346,0.0021396638,0.0010077262,0.00313528,-0.0004443061,-0.0027961964,-0.001493088,-0.00049266306,-0.0024246338,-0.00052025885,0.0026380208,-0.0016723805,0.0017026819,0.0014501758,-0.00022867016,0.0003549599,0.0019091578,-0.0022115286,0.0013026112,0.0029732257,-0.0011771882,-0.0025377097,-0.0030777347,-0.0030024757,0.0012989412,0.0017047325,0.002346229,-0.0004900433,0.00033310967,0.001015271,-0.0033044075,-0.0031349927,0.0015318487,-0.002804956,-0.0010542362,-0.0014434871,0.001971667,-0.001153543,0.003325851,0.00018507834,-0.0017146125,-0.0012173682,0.00041749678,-0.0017895433,0.0024683005,0.0030066164,0.0014369785,-0.0024489302,-0.0019774674,1.44735195e-05,-0.00034431383,-0.0018448094,0.0026383412,0.0020751038,-0.0013977498,0.0007840499,0.001703199,0.000804861,0.002858847,-0.0004333852,-0.0021800608,-0.00028211958,-0.0027855241,0.003283366,-0.0028726836,-0.00049997267,-0.00095126766,0.001053865,0.0016575566,-0.0027462014,-0.0014683728,0.00016960638,0.0013344382,0.0017114584,-0.00046456043,-0.00021018401,-0.0026082215,0.0015042925,-0.0025478078,0.0010940338,-0.0011479859,-0.0025987132,0.0023010627,-0.00016070176,-0.0031765166,-0.003127207,0.00019146412,-0.0027213325,0.0012529755,0.0011536244,0.001116503,-0.001866499,0.0026472274,-0.0030030126,0.0024915042,-0.0002162069,-0.0005047617,0.0013194653,-0.0008311406,-0.0014549356,-0.0008007881,-0.0020765325,-0.00012328669,-0.0017956035,0.001539027,-0.0031786927,-0.001456996,-0.0030588359,-0.003208758,-0.00025544027,-0.002691865,-0.0019008381,0.00093067525,-0.00047378772,0.0010335384,0.0027586943,-0.003223028,0.0020220487,-0.0026512044,0.002180922,0.0024886208,0.0028649417,-0.002648962,0.0011136242,-0.0026214554,-0.0004104362,-0.001742998,-0.0028510313,0.0016492306,0.0014823843,-0.0013517366,-0.0025974435,0.0011878553,-0.0013102533,-0.002955497,-0.0014660388,-0.00072039076,0.0029194618
fractur,-0.0021543154,0.0024448407,0.0020396586,-0.0016358417,-0.0005850477,-0.0008360215,0.0010426255,-0.00014433492,-0.00091945555,-0.0030130183,0.0021466645,-0.0032061061,-0.002884533,0.00046109894,0.0009942997,2.2964466e-06,0.00012413222,0.00086180837,0.0006006662,0.0025220327,-0.0011490893,-0.0024108537,-0.0026254533,0.0026372073,0.0006495739,-0.0019329963,0.0021265245,0.0028195814,0.0026487045,-0.0022748623,-0.0017080702,-0.00066854747,-0.0022075907,0.0015780248,0.0018851716,-0.0019971924,0.0024029133,-0.002555219,0.0020667966,-0.001538711,0.0006561683,-0.0010913013,0.0011325487,0.0025737025,-0.00046344742,-0.0016599542,-0.0028513714,0.0012156151,0.0014122353,0.0022321516,-0.0014300442,-0.003244796,0.0022748844,-0.0015073508,0.0014708958,0.0026901527,-0.0013108304,0.00054705,-0.001195682,-0.002207055,-0.0018970997,-4.813736e-05,-0.0025043134,-0.000663715,-0.00083034823,0.0022402334,0.00045672318,0.0019513991,0.0012722496,-0.0011746065,-0.0017008984,0.0032210648,0.0023564838,-0.0030165107,0.0017455023,0.002730802,0.0030610438,-0.0026827625,-0.0006699794,0.0003667909,0.00096649036,-0.00054197403,-0.0015678151,0.0021651906,0.0023143878,-0.0001278565,-0.0019526125,-0.001458842,-0.0017120079,0.0014206367,0.00017527491,-0.0007832222,-0.003027681,-0.0004992196,0.0021478226,0.002112516,0.0014078432,-0.0009588635,0.0030189748,0.00020140896,0.00037706777,0.0020555977,-0.002196673,0.0021743416,0.0032665688,0.0012255661,0.0011480348,0.0013978522,-0.0006523568,-0.0027000143,0.0004941246,0.00030493768,-0.0022616487,0.0006572564,0.0018154822,-0.0023900985,0.0008371045,0.0025904572,-0.002871254,0.0011664744,-0.0028527924,-0.0026430096,0.0023619798,-0.002522682,-0.00046153995,-0.002643675,-0.0026154988,-0.0023743683,0.00013680333,0.00060026255,-0.002634072,-0.0026786653,-0.0010572639,-0.0006068257,-0.0020563023,-0.0014054042,0.001198911,0.0010221277,0.002194484,0.0014110666,-0.00029445018,0.00091779494,0.0030152316,0.0006364056,0.00060735847,0.00037258028,-0.0030996664,0.0017845923,0.0016810752,8.170396e-06,0.003069945,-0.0019124418,0.0010802624,-0.002599718,-0.0029828802,0.0006681243,0.0015762418,0.0020303573,-0.0028958723,0.001454008,0.0008017436,0.0013855813,-0.00022788616,0.0018530337,0.0024282548,-0.002795847,-0.003311618,0.0023360061,-0.00031914035,-0.0031228387,-0.0013617723,0.00039799995,0.0028125015,-0.0005634562,-0.0003422413,-0.0024594243,-0.0025451074,0.00048085302,-0.00015692569,-0.0025670764,0.0002962803,-0.00299356,-0.00082918146,0.001406987,0.00036917455,0.002613113,0.0022012284,-0.00039462157,0.0016479857,0.0020428046,0.0029142944,0.0030278247,0.0016373232,0.0015414122,0.002399613,-0.0005247247,-0.0018832281,0.002952484,0.00040591444,-0.0016831503,-0.00029041385,-0.0017414314,0.0030422467,0.0011332108,0.0014263002,0.0021673904,0.0027263607,-0.0015952551,-0.0021147311,-0.0012426286,-0.0012373636,-0.0031535523,-0.00020573995,-0.0027030804,0.003251062,-0.0011368644,-0.0021076568,-0.002709169,-0.0011918452,-0.0031844287,0.00026137708,0.0018063299,-0.00096339127,0.002554806,-0.0006266969,-0.0024224387,-0.001043715,-0.0010479102,-0.0023684404,-0.0032269156,-0.0013576245,-0.0005293234,0.0016636803,-0.002534914,-0.0016570387,0.00045587023,-0.0005585279,0.0011849195,-0.0006224013,0.0014333327,0.0026677912,-0.0026391654,0.0012535385,0.0019973754,-0.00019260925,0.0022499184,-0.0018042736,-0.0015221216,-0.0026133482,0.00315948,-0.0031346867,-0.0010839704,-0.00014486026,-0.0016163692,0.0031526343,-0.0022774383,-0.002668133,0.0030813653,-0.002772529,0.0032250094,-0.0013633128,0.0018976285,-0.00013802675,-0.0013384374,-0.0025040852,-0.0020895943,0.002283295,0.002109977,5.3327178e-05,0.0021276476,0.0012870603,0.0012756153,0.00089151994,-0.0032376198,0.003090534,-0.0027318378,-0.0010028704,0.00047676545,0.0017446097,-0.003071691,0.00056550244,0.0021194005,-0.0029204292,0.0031911847,-0.0017410638,0.0031844492,-0.0021786152,0.0021987178,0.0031202547,-0.0030743864,0.00010077191,-0.0025722643,0.002707975,0.003193032,-0.0020143313,0.00028249613,-0.00074841024,-0.002587473,0.00027392316,-0.0032995392
gi,0.0008744167,-0.0025598933,0.0018902496,0.0025235433,-0.00085602724,-0.0013351722,-0.0032020158,0.0016585867,0.0009735843,0.0029204367,0.0010988286,-0.0009810226,0.0011874875,0.0028703795,0.0030906184,0.002554044,-0.002843892,-0.0025263252,0.0024185663,-0.0024811246,0.0010919351,0.0026764183,-0.0010610394,0.0022540076,-0.002721003,0.0021674742,0.0018731605,0.0011048242,-0.002710389,0.0030511385,0.0027485832,-0.0005153077,0.0013660322,0.0021242616,-0.0005951827,0.0018325927,-0.00134312,-0.00042836857,-0.00039783222,-0.0013903944,-0.00023284751,-0.002571947,0.0012257027,0.0030259201,0.0015922975,0.0021302663,-0.0015715994,0.0016356705,-0.0022336708,-0.0016654267,0.0032938714,0.0021445458,-0.0016658583,-0.0020217446,0.0024084556,0.0009126737,0.0022057316,-0.0022469275,-0.00031607907,-0.00032580356,-7.782589e-05,0.0007377527,-0.0022509643,0.0014668119,-0.0009160965,0.0028002076,-0.00033732643,0.003051181,-0.00028070726,0.0017263374,-0.0025298302,-0.0030286368,-0.00011644225,-0.00076227775,0.0033191426,0.0015168232,-0.001853451,0.0024621822,0.00020828946,-0.0031732586,0.0019027776,-0.0006771415,-0.003146076,0.0029168767,0.0024216485,0.002854559,0.00010821167,0.0025681525,0.0017429482,-0.0023145932,0.003095658,-0.0011814715,-0.003235583,0.0028602595,-0.0017646464,0.002808506,-0.0026171484,0.0030916547,-0.0019662576,0.0013375124,0.0032588176,0.0013948333,-0.0007072608,-0.0016611263,-0.0032403043,0.0013947644,0.0024775455,-0.0015829307,0.0019745058,0.0022863103,-0.0030080022,0.00069945055,-0.0022822428,-0.0014447097,0.00029643305,-0.0023354192,-0.0013736212,-0.002508598,-0.0023388413,-0.0023242661,0.0033141025,0.0027876436,-4.968468e-05,-0.00088408595,0.0020730519,0.0004426675,-0.0029955737,-0.0023600094,0.0003533346,0.002660393,0.0010750093,0.00329938,0.0021910947,9.7404714e-05,0.0028862918,0.0030100932,0.0026797105,0.0031337468,-0.0031425944,0.0011541361,-0.0026110196,-0.0023835103,-0.0028046388,0.0010760848,-1.098156e-05,-0.002125212,0.0018371195,0.0026308934,0.0014341191,0.0026147158,-0.0014277628,-0.0021512096,0.0013173347,-0.0009614087,-0.0023994627,0.0012315568,-0.0011091781,-0.0017378698,0.0008788817,0.002288452,0.0021374966,5.480356e-05,0.002872237,0.0009914142,0.002175022,-0.00029541677,0.00070674415,0.002064739,-0.003270623,0.0019417113,0.0004190322,0.0020290364,-0.00047772995,-0.00088956143,-0.0018703394,-0.000961685,-0.00084669364,-0.0017325835,0.00031858092,0.002671972,0.0017225824,-0.0025427993,-0.0024701513,-0.0009619149,0.0012879758,-0.0031001628,0.0020446132,0.0010451548,-0.00095095177,0.0030569215,0.0026978143,0.00023724025,0.0015980662,-0.003109054,-0.0029181347,-0.0009850764,0.003100299,0.0010737892,0.0018677264,-0.0022620438,0.0014229184,0.00014456121,-0.0003065078,-0.0010822027,0.0016581337,-0.0030297376,0.0017057151,0.0018826061,-0.00081380276,-0.0014065546,-0.0024589826,-0.002125346,-0.0017128207,0.001044067,-0.0016036611,-0.00040122416,-0.0029849645,-0.0011788919,-0.00026555973,-0.002652837,0.0010767119,0.0032578753,0.0014561296,0.00062445586,-0.0016314586,-0.00037683404,0.0007475329,0.00058548636,0.002944431,-0.0003155163,0.0023279898,0.0019317865,0.001014761,0.002444092,-0.0016537734,-0.0013108496,0.0023255425,0.0028785008,0.0010593431,-0.0013747246,0.0025584819,0.0009046208,-7.791864e-05,0.0029636358,0.001449068,0.0013052364,3.790614e-06,-0.0029712273,-0.0010320357,0.00081834395,-0.0018721209,0.0023765434,0.0024905233,-0.0029927436,-0.001807888,-0.0020073974,-0.00021825892,-0.0006100278,-0.00069094915,-0.0007426838,0.0011979195,0.0032299287,-0.0015325194,-0.002779003,0.0012421816,-0.0021479272,0.002228784,0.00088999333,-0.0026342596,-0.002592887,-0.0030912815,0.0007798575,0.00091454055,0.0008796101,6.6883236e-05,0.00035512997,0.0010314881,-0.0005153489,-0.0026894843,-0.00020550883,0.0012335457,-0.0008682042,-0.000715065,-0.00074420724,0.0024207837,-0.0010237815,0.0031441532,-0.001287889,-0.003321447,-0.0021873282,-0.0014522093,0.0004182563,0.0017101541,0.00070456666,0.0030202384,0.00030796137,0.0018699714,4.0902712e-05,-0.0007061102,0.0020827756
hypotens,0.0006731029,0.0027532314,-0.002765841,-0.0029173729,-0.00018031716,-0.000630943,-0.00078258035,-0.00019843856,-0.0016902244,-0.0026734034,0.0027514747,-0.0011137184,-0.0009477584,-0.0005484005,-0.0004102532,-0.003063053,-0.00059975544,-0.00044934233,0.0028827644,-0.0026534812,-0.001583234,-0.0006286852,0.00096182944,-0.0020066937,-0.0018491518,-0.002655049,0.0018440263,-0.0029056983,-0.0010827283,9.794315e-05,0.00048301657,-0.003313709,0.0028866355,-0.000685124,0.00011742234,-0.0029310652,-0.0027226447,0.0012568668,0.0013375266,0.0009950582,0.0019485911,-0.0023100534,-0.0004152477,-0.00090813596,-0.00046885211,0.0014924936,0.00045719187,-0.0024797872,0.0010795089,0.0020854874,-0.0020342222,0.0010765684,-0.0014373683,0.0029422534,0.0013767357,0.00067899504,-0.00033979694,-0.003036065,0.002884897,-0.0006058371,0.002458298,0.0012574117,-0.00275292,-0.00020556172,0.000915242,-0.00085500954,0.0032441274,-0.0016627169,-0.0023882138,0.0012659197,-0.0011899249,-0.0022960794,0.00067830365,0.0017569475,-0.0018325297,-0.0014601505,-0.00239218,0.00051647983,-0.0015854974,0.002811836,0.00024072647,0.0006210991,-0.0011124344,0.0024597296,-0.00022012551,-0.0027374956,-0.0024473723,6.8747206e-05,0.002578755,0.0010290511,-0.0017740771,-0.002251048,-0.0032848278,0.0013076627,-0.0031727485,0.0010614682,0.00055422704,-0.00027391594,-0.003317707,0.00196141,-2.9819012e-05,-0.003312003,-0.0025111865,0.0028562702,0.0006301967,-0.0027268752,-0.0002728788,0.0018017269,-0.0031063461,-0.0022916559,-0.00034123618,-0.0032547712,0.00016010404,0.0006485939,0.0028468263,0.00032799004,0.00043425005,0.0016264899,-0.0014304209,0.0024102703,5.3474505e-05,-0.00022629817,-0.0032325657,0.00016878605,0.0022630347,0.0005870072,-0.002696878,-0.001109685,-0.002012566,0.0020066842,-0.0021558595,0.0017522995,-0.0017525891,-0.0022748364,-0.0025286174,0.0012704047,-0.0029335911,-0.0019034076,-0.0023535788,-0.0014390127,-0.0013448723,0.0004951799,0.002161693,-0.0003989331,-0.0018290563,0.0005192999,0.0018787308,-0.0017573452,-0.0017798678,0.0017232974,0.0020886182,-0.0025900404,0.0027375969,-0.003281861,-0.0024723895,-0.0019599092,0.0006048834,1.8674134e-05,0.0011557798,0.0023379258,0.0015975125,-0.0010677171,-0.0021448159,-0.002750033,-0.00016036988,0.003243705,-0.0025580819,0.0012163528,0.001461705,-0.0014461641,-0.002321927,-0.0018144266,-0.0016793036,-0.0023331023,0.0019785718,-0.002589625,-0.0009780307,0.0014598068,5.996108e-05,-0.0025619464,-0.0015626005,0.001197364,0.0008474052,-0.0006524797,-0.00024124225,0.00084985414,0.0004744768,-0.000881304,0.0017804411,-0.0025530844,0.0021223326,-0.0033308216,-0.00075131457,0.0022275308,-0.00120103,0.002178125,0.0018107255,-0.0024655631,-8.0932776e-05,-0.0014984091,-0.0026869199,-0.00029727977,0.0021296786,0.0029121968,-0.0016807973,-0.0008859893,-0.002012593,0.0003872653,0.0008880905,-0.003279264,0.000803895,-0.0029378403,0.00013289292,0.0015866872,-0.0017520281,8.597295e-05,-0.0007274715,-0.0028957545,-0.00080330967,0.0014856028,-0.0028586083,-0.0019790907,-0.00018204888,0.0026791382,0.00046871265,0.0032536045,-0.0025567987,0.002997299,-0.0015762969,-0.0021185367,-0.0026121459,0.0006151982,-0.00091851474,0.0025174876,-0.00017138719,0.0008364912,0.0019867981,-0.0028827398,-0.0006862291,-0.0015937567,-0.0028899137,0.0011391008,0.00080460426,-0.00080073037,-0.0006382179,-0.0022436564,-0.0010868653,0.0004368615,0.0025794483,0.0023557115,-0.0011979175,0.0012027812,-0.000859795,-0.0015732944,-0.0012083006,-0.0020488803,0.0011671202,-0.0025966584,-0.0025027227,-0.00150122,0.0024660877,0.00060908357,0.0018196551,0.002738777,-0.002078238,-0.0015422221,0.0025601229,0.0016468536,0.0015539161,0.0029974862,0.0029373467,-0.00089204154,0.00034646867,0.0018272566,0.002963845,0.0032823991,-0.0027550168,-0.0017084853,0.0016636351,0.0003186496,5.4395598e-05,0.0025014328,0.00213443,-0.0024123676,-0.0008646278,-0.0028279114,0.0023480074,0.0009221776,-0.00074287056,0.00062659424,0.0025546507,0.0027105217,0.0020580709,0.0010551035,0.00051638804,0.0027131431,0.0004387772,0.00014748295,-0.0031843802,0.00084136525
left,-0.0028194645,0.0021707343,-0.001937135,-0.00059276796,0.0003515129,-0.000642973,-0.0030265935,0.0013819326,-0.002196512,-0.0029455328,0.0013017331,-0.0002462784,0.0021631303,-0.0023485874,0.000280746,-0.00023988202,0.0019282218,-0.0032642882,0.0019650022,-0.0030027607,-0.0025981267,0.00022734948,-0.0008901988,-0.0013098123,-0.0017468851,0.0013693958,-0.0031228976,0.00038672684,0.0013934645,-0.00010616272,-0.0001672543,0.0023974366,-0.003200914,-0.0030290263,0.0014559127,0.0029308596,-0.0025871068,-0.0027876196,-0.00022680942,-0.0030051097,0.00072374824,0.0030709957,-0.002045564,-0.002268181,0.00298504,-0.0002488863,-0.0012165573,-0.0008894733,-0.0029325902,-0.0015390038,-0.0013745537,8.316606e-05,0.00022414308,0.0025498443,0.0022690424,-0.00048574846,-0.003330619,0.000876037,-0.0020379,0.0030477962,0.0012620658,-0.0003541064,0.0022128604,-0.0011632593,-0.0012533079,-9.146471e-05,0.0028351513,0.001983513,0.00050846185,0.0012407172,-0.0009990984,0.003084501,-0.0023849204,-0.0011106824,-0.0017839541,0.0029348163,-0.0010527087,-0.0007901421,0.002392406,-0.003201255,-0.00097248564,0.00094694505,-0.0020753355,0.0029644873,0.00040748937,-0.0017306451,0.0016253005,0.0026711535,0.00033091314,0.002286208,-0.002255879,-0.0011901265,0.0033375588,0.0019027676,0.0005642588,-0.0011375534,0.0014736335,0.00085556577,0.0027916129,1.327963e-05,0.002857925,-0.0019544791,-0.0025145283,-0.0004890755,0.0009938512,-0.0006852135,0.0019708944,-0.0028170494,-0.0030231988,0.0025467337,0.0021209023,-0.0013513002,-0.0013452715,-0.0011838836,1.988937e-06,0.003031299,0.0003219394,-0.00069438916,-0.0011351265,-0.0007277006,-0.0030691791,0.0023172523,-0.0030186167,-0.0010286662,-0.0023914883,0.0030368634,0.001964981,-0.00017666277,0.0013057117,-0.0007857224,0.0032974659,-0.0011875555,0.0016469468,-0.0012581238,0.0031832429,0.003214909,0.0020635305,-7.583551e-05,-0.00057620474,-0.002909054,0.0031244373,-0.0028322374,-0.0021827589,0.0018563172,-0.0007493445,0.0026477173,-0.0026349986,0.003060745,0.0007429666,-0.002868784,0.0013027532,-0.0017028882,0.00211722,0.0022141077,-0.0029455333,0.0021822515,0.0017410488,0.002160942,-0.0023477962,-0.002172182,-0.0029463563,0.0017744286,-0.0013720647,0.0016208119,0.0015865309,0.0026976187,0.00075438234,-0.0003763979,0.0004914985,0.0010155711,-0.0029292617,-0.0019909998,-0.00031335605,0.0016537275,-5.6639088e-05,-0.0032355704,-0.00017899691,0.0023634788,0.0021221489,0.0011638645,-0.0015164856,-0.0012318693,-0.0007032383,-0.0020020998,-0.0029023439,-0.00016983411,0.00061546697,0.001627554,0.0011858055,0.0028389664,-0.0022387938,0.0031009524,-0.001150297,0.00026764802,-0.0014003672,-0.0013711982,-0.00047447588,-0.002528394,0.0029884952,0.0015316558,-0.0007534447,0.0006460442,0.0026047353,-0.0018894804,0.0012764968,0.00021784168,0.000956078,-0.0007178289,-0.0032822909,0.0019611754,-0.00046645405,-0.002786491,0.0002187722,-0.0020784752,0.0025610027,-0.0021295554,-0.00056847016,-0.00018821968,-0.0014565173,-0.001143599,0.002463119,0.00062208547,-0.003144329,-9.577195e-05,-0.00321354,-0.0010710183,0.0016611929,0.0012250538,-0.0019166484,0.0004938117,0.0019288812,-0.0025160818,-0.0011293204,-0.0008045006,-0.0029672887,0.00071108586,0.002182145,0.00081950903,0.00078502996,-0.0002999374,-0.000244655,-0.0020948213,-0.00019336664,0.0022215708,0.0009986962,0.00016860082,0.0026257564,0.00095052586,-0.0024749166,0.002455393,0.0031940946,-0.0030251166,0.0024171122,-0.002525409,-0.00014977745,0.0015161848,-0.0018880886,-0.002654485,-0.0024611363,-0.0033250556,-0.0022232577,0.0032266206,0.0009865661,-0.003067137,0.0028400386,0.0024118458,0.0026453233,0.0032213328,-0.0029283934,-0.00073258043,0.00068971823,0.000783801,0.0016089344,-0.0025906693,0.0016325951,0.003327089,-0.002998458,0.002648906,0.0010342266,-0.0014093949,-0.00051748945,-0.0028490487,-0.002508733,0.0018429039,-0.0010610702,0.0033539822,-0.002711959,-0.0023333728,0.0020600809,0.0026320796,0.0012418405,0.0024285838,0.0021651108,-0.0019319704,0.002909156,-0.0021030796,-0.0009643856,-0.0019990492,0.002032528,-0.001475584
congest,0.0010262227,-0.0005298055,-0.00039654007,-0.0019497733,-0.0019226499,-0.0011945429,0.00010749217,0.00049193524,-0.0011012837,0.0006468041,-0.0018919164,0.003331368,-0.00027564773,-0.002318811,-0.00061521644,0.0026462052,-0.0003622418,-0.0017166598,-0.0026846384,-0.0019577167,-0.0010636952,0.0025745742,-0.0024060155,0.00048365587,-2.4014156e-05,0.0013138205,-0.0026490747,0.0026515173,-0.0009286724,0.0017671675,-0.0031661591,0.0016942737,-0.0027531846,-0.0010791823,-0.00039179192,-0.0012147031,-0.00024435355,7.121693e-06,0.0015028901,-0.00075018604,-0.0013376711,-0.0020604334,0.0027760272,0.0015394001,0.003037138,0.0018281956,-0.0015380431,0.0027610858,-0.0023212894,0.0010165953,-0.0011156043,9.12346e-05,0.0012517987,-0.0009414069,-0.0014740636,-0.00064748933,0.00016769457,0.002153255,-0.0019508186,0.0015555818,-0.0012378572,-0.0026478062,-0.0018670781,0.0006211438,0.0029271943,0.0026284615,0.0030567835,0.0022974228,-0.0009895928,-0.0008093886,0.0029385248,0.0021608684,0.0020037196,0.0022946587,0.00053702435,0.0007984238,-0.002736255,0.002514623,0.003147161,-0.0023609998,0.0003891357,0.0029131633,0.0012171655,0.0023179103,0.0025468483,-0.00063951925,0.002958046,0.0019985891,-0.00063249585,1.5999593e-05,0.003237346,0.001939369,-0.0022303285,-0.0011616449,-0.0011566139,0.0010457103,0.00036877394,-0.0028684607,0.00072360155,0.0032078212,0.0007828304,0.001430359,0.000653116,0.0027067151,0.0029607965,0.0010519305,-0.0008140305,0.001200741,-0.0025719712,0.0026724455,-0.001338416,0.0033122192,-0.0032024006,-0.0008531915,0.0029606698,-0.0013584652,-0.0006517542,0.0016788573,0.0030930396,-0.00012283573,-0.0022666592,0.0033294691,-0.0031723562,0.00041354683,0.0018523837,-0.002613663,-0.0018798255,-0.0030389703,-2.4781928e-05,0.0016653491,-0.0027450288,-0.0010231531,0.0027955472,-0.0014866383,0.0010614059,0.0011694077,-0.0011964748,-0.0017219641,0.0027743771,-0.0008395363,0.0029882288,-0.00080408534,0.0010191282,0.0018656622,0.00018587796,0.0014624017,-0.001987925,0.0028032064,-0.00055024977,-0.0014715765,0.0017018578,0.0033105263,-0.0018874692,0.00027708051,0.0014452677,-0.0009183924,0.00021486946,0.0029414222,0.002574303,-0.0021490543,-0.0010668534,0.0030700648,-0.00010155403,-0.0031870506,-0.00023992677,-0.0022735132,0.00031205584,0.00027745106,-0.0014667906,-0.0015268651,0.002933537,0.0015266015,0.0008536399,0.00061959954,0.0027466025,-0.0016647391,0.002034695,-0.00032936785,-0.0025551545,-0.0032322488,-0.0005600793,0.0027090076,0.0007412031,-0.002990439,0.00041084856,-0.0012101344,-0.0013517811,0.0027144647,0.0019374128,0.000119825745,0.000816744,0.0002991954,-0.0033071227,0.0009933005,0.0023965554,0.0013256384,0.0008268384,-0.0011815001,0.0007818146,-0.0025432967,0.0014045429,0.00079915667,-0.00014034563,-0.00020031723,0.00087813305,0.0007377105,0.0004931933,0.0030455007,0.0011780186,0.00046348217,-0.0009769377,-0.0020219816,-0.0031074823,-0.001088535,0.0014496393,0.002522688,0.00020944595,-0.0015938429,0.0011973858,-0.001298415,-0.0002539845,0.002956258,0.0027209304,-0.00013866008,-0.0019724807,0.0012308824,0.0032702126,0.0028883072,-0.0006366041,0.002381499,0.0030924864,-0.0031834505,0.0029605418,9.23844e-06,-0.0017342098,0.0012265206,0.0029906433,-0.0024139713,0.0022917457,-0.002147418,-0.0025942258,0.0018354229,-0.00152508,0.001591365,0.0024584741,0.0032188222,0.0019046132,-0.0029554856,0.0010752585,-0.002996509,-0.00012185519,0.0032616134,-0.0017022633,0.0013661507,-0.0019171508,-0.002680962,0.0026740942,0.0010791455,0.002461479,0.0009749933,0.00038861664,0.0012431158,-0.0028095504,0.0021958938,-0.0014969527,0.0015347032,-0.0018200342,0.00034561855,0.0013367139,-0.0008308357,-0.0025125274,-0.00201274,-0.0033131023,0.003226252,-0.0014647851,-0.0003500876,-0.003005825,-0.0015256439,-0.0016327937,0.0010052518,0.0018874996,0.0011672844,0.0032854176,0.0006261114,0.0032892756,0.0025133989,0.000918179,0.0007166769,-0.002508687,-0.0007923048,0.0018805028,-0.0027091464,0.00075283396,-0.0025279266,0.0032165532,-4.2943466e-05,0.0003056767,-0.0015910032,0.002041363,-0.0023761794
