,0,1,2,3,4,5,6,7,8,9,10,11,12,13,14,15,16,17,18,19,20,21,22,23,24,25,26,27,28,29,30,31,32,33,34,35,36,37,38,39,40,41,42,43,44,45,46,47,48,49,50,51,52,53,54,55,56,57,58,59,60,61,62,63,64,65,66,67,68,69,70,71,72,73,74,75,76,77,78,79,80,81,82,83,84,85,86,87,88,89,90,91,92,93,94,95,96,97,98,99
sepsi,-0.00053721684,0.0002507957,0.005090222,0.009005135,-0.009294724,-0.007129778,0.006459206,0.008995814,-0.005029068,-0.003766305,0.00737429,-0.0015395946,-0.0045310613,0.0065721795,-0.004852132,-0.0018184873,0.002872779,0.000978533,-0.008282836,-0.009475051,0.007302235,0.0050941766,0.006733158,0.00076792476,0.0063361633,-0.003415505,-0.00094947225,0.005757575,-0.007527096,-0.003946308,-0.007496374,-0.0009292167,0.009529402,-0.007325497,-0.0023342418,-0.0019171963,0.008084509,-0.0059420555,4.186022e-05,-0.004779082,-0.009609833,0.005007969,-0.008759754,-0.0043893885,-2.7338929e-05,-0.0002882078,-0.007671929,0.009610793,0.004980131,0.009231568,-0.008161469,0.0044993176,-0.004138021,0.0008224266,0.00850786,-0.0044720843,0.004525325,-0.0067912326,-0.0035601882,0.009399471,-0.0015706528,0.00033201146,-0.0041361772,-0.007679715,-0.0015223947,0.0024692398,-0.0009054248,0.00553713,-0.0027574154,0.0022774371,0.0054611857,0.008343957,-0.0014534,-0.009200462,0.004389115,0.0005689519,0.007436979,-0.0008034149,-0.002654354,-0.008760233,-0.00085569004,0.0028331236,0.0053862114,0.0070617446,-0.0057052975,0.0018635499,0.0061006155,-0.004771931,-0.0030969682,0.0067976266,0.0016414076,0.00020341297,0.0034576433,0.0002343744,0.009629692,0.005069603,-0.008908408,-0.0070592556,0.0009105318,0.0063813836
failur,-0.008590213,0.003697412,0.0051843724,0.005733303,0.0075012175,-0.006201963,0.0011411812,0.006085522,-0.0028721737,-0.0061879484,-0.00042244716,-0.008382136,-0.005569763,0.007140117,0.0033770532,0.0072448505,0.006804307,0.0075353403,-0.0037788518,-0.00059761986,0.002359328,-0.004518904,0.008379318,-0.00986193,0.0067489436,0.0029237056,-0.0049494477,0.004363221,-0.001760227,0.0067108297,0.0099775065,-0.0043497365,-0.000608408,-0.0057217623,0.0038786593,0.0028105099,0.0068882788,0.006115575,0.009518993,0.009226412,0.00788233,-0.007016948,-0.0091866115,-0.00033425313,-0.003096324,0.0079068765,0.005929631,-0.0015529541,0.0015061572,0.0017906029,0.007839283,-0.009529526,-0.00020692579,0.003485615,-0.0009159314,0.008352337,0.008997561,0.0065189544,-0.0007373858,0.007723324,-0.00854711,0.003191538,-0.004631184,-0.0050839144,0.0035916788,0.005375609,0.00777738,-0.005784345,0.007394801,0.006657036,-0.0037153421,-0.008722761,0.0054624956,0.0064958096,-0.0007728788,-0.006696411,-0.0070940354,-0.0024900094,0.005126734,-0.0036557892,-0.00939053,0.0038780267,0.004877535,-0.0064320397,0.0011920374,-0.0020721985,5.0903887e-05,-0.009839874,0.0027257465,-0.004729466,0.0011192255,-0.001572446,0.0021744007,-0.007860584,-0.0026996955,0.00263966,0.0053818384,-0.0024215474,-0.009508771,0.0045101773
pneumonia,9.456396e-05,0.0030773198,-0.006812645,-0.0013754654,0.007668581,0.0073464094,-0.0036732971,0.0026427018,-0.00831713,0.006205486,-0.0046373224,-0.0031641065,0.009311357,0.0008733857,0.007490703,-0.0060740625,0.005160507,0.009922823,-0.0084573915,-0.0051356913,-0.007064837,-0.0048626517,-0.0037785638,-0.008536199,0.007955606,-0.004843938,0.008423613,0.0052625705,-0.006550026,0.0039578713,0.0054701497,-0.007426536,-0.0074057197,-0.0024752307,-0.008625725,-0.0015815723,-0.00040343284,0.0032996845,0.0014418805,-0.00088142155,-0.005594058,0.0017303658,-0.0008973718,0.006793691,0.00397359,0.0045294715,0.0014343059,-0.0026998555,-0.0043668128,-0.0010320747,0.0014370275,-0.0026460087,-0.007073783,-0.007805307,-0.009121787,-0.0059351693,-0.0018474245,-0.0043238713,-0.0064606704,-0.0037173224,0.0042891586,-0.0037390434,0.008378175,0.0015339935,-0.0072423196,0.0094337985,0.0076312125,0.005493282,-0.0068488456,0.005822679,0.004009093,0.0051853694,0.0042559016,0.0019397545,-0.0031701624,0.008353845,0.00961218,0.003792603,-0.002836995,7.1275235e-06,0.0012188185,-0.008458325,-0.008223945,-0.00023101569,0.0012372875,-0.0057433806,-0.0047252737,-0.0073460746,0.008328616,0.00012129784,-0.0045093987,0.0057017053,0.009180015,-0.004099872,0.007964682,0.005375434,0.005879123,0.0005125904,0.008213084,-0.0070190406
bleed,-0.008256756,0.0093318485,-0.00019251306,-0.001971372,0.0046205255,-0.0041947872,0.0027978236,0.007059866,0.0060592713,-0.007559698,0.009330122,0.0046289293,0.0039921943,-0.00627026,0.008492382,-0.0020888965,0.008824455,-0.005402777,-0.008119842,0.006769505,0.0016805041,-0.0021055408,0.009438786,0.009490019,-0.009851756,0.002490206,0.006128235,0.0038511432,0.0019694266,0.00038747166,0.00072988233,-0.0038536955,-0.0071444702,-0.0021061383,0.0039117523,0.0089010885,0.00928981,-0.0060652364,-0.009419465,0.009721285,0.0034564892,0.005126857,0.0062391576,-0.0027566347,0.007451102,0.0028820748,0.0028410347,-0.0024278401,-0.0031496088,-0.0024203525,0.0043084174,0.000112390284,-0.009567849,-0.009694722,-0.006131447,-0.0001588245,0.0019915632,0.009439738,0.0055795438,-0.004230943,0.00030894016,0.005000748,0.0077169216,-0.001173764,0.0042924252,-0.0058217514,-0.00083397713,0.008141131,-0.0023766262,-0.009662953,0.0057807905,-0.0039540697,-0.0011977884,0.010020651,-0.0022025695,-0.004736348,-0.0053695003,0.0069975355,-0.005766824,0.0020937389,-0.005322726,0.006235661,0.0043656253,0.0026862917,-0.0015017552,-0.0027062828,0.009071497,0.0052823215,-0.0021171956,-0.009547788,-0.0073551987,-0.0010376932,-0.00082002074,-0.0025068894,0.009793209,-0.00044415306,0.0059122387,-0.007538516,-0.0024930704,-0.0055920226
acut,-0.0071479664,0.0012730693,-0.0072075003,-0.0022293262,0.0037920976,0.0057515125,0.0012365793,0.0021851684,-0.0041712746,0.0072085424,-0.006344544,0.0046205213,-0.008199991,0.0020535726,-0.0049505187,-0.0042263577,-0.0031081703,0.0056043,0.0058482657,-0.0050720847,0.00073934614,-0.008422131,0.007767673,0.009242701,-0.0027434274,0.00076674664,0.0007257168,0.005450594,-0.008640587,0.00054651895,0.006883599,0.002237771,0.0011169801,-0.009334348,0.008485569,-0.0062217605,-0.003000971,0.0034657803,-0.00074529526,0.0013030095,0.0017637104,-0.006847115,-0.009758472,0.009083475,0.006250728,-0.0068615493,0.0034139433,0.00020302706,0.004734783,-0.007098495,0.00402451,0.0043743476,0.009954016,-0.0044740317,-0.0013801133,-0.0073471167,-0.009667332,-0.009076856,-0.0010149641,-0.0064767827,0.0048490395,-0.006154438,0.002494609,0.0007203665,-0.0034110218,-0.0009747825,0.009947765,0.009167528,-0.0044761435,0.009088992,-0.005592825,0.0059370524,-0.0030267325,0.0034776633,0.0030575579,0.0068859006,-0.0023728602,0.00875958,0.007540934,-0.009564084,-0.008029002,-0.0075501376,0.002914531,-0.0028024975,-0.006927655,-0.008131249,0.008365696,0.0020759993,-0.009289712,-0.0048006615,0.003188549,-0.0046784934,0.0052545443,-0.0041486183,0.0027043892,-0.008021498,0.0062546213,0.004766396,0.0008078366,0.0029765565
breath,-0.008739387,0.0021723325,-0.00089409255,-0.009335221,-0.009379673,-0.0014435259,0.0044527897,0.0037273883,-0.0065114284,-0.0068916962,-0.0050093615,-0.0023213166,-0.007235349,-0.009596672,-0.0027273572,-0.008367324,-0.00603358,-0.005689227,-0.0023375172,-0.0017087851,-0.008960297,-0.0007062864,0.008134548,0.0076886495,-0.007218196,-0.0036907643,0.0031220927,-0.009594631,0.0014691699,0.0065036234,0.0057622716,-0.008749042,-0.0045326794,-0.008151727,4.214683e-05,0.009287612,0.0059869476,0.0050665024,0.005052445,-0.003273644,0.009562009,-0.007345807,-0.007279338,-0.002276946,-0.0007781161,-0.0032013855,-0.0006141951,0.007491239,-0.00068604504,-0.0016377623,0.0027606427,-0.00836107,0.007857039,0.008541215,-0.009584783,0.0024290802,0.009920938,-0.007673144,-0.006971288,-0.007710701,0.0083984,-0.0006762771,0.009152881,-0.008156494,0.0037493808,0.002632144,0.0007236241,0.0023125797,-0.007476847,-0.00935442,0.002365713,0.0061467765,0.008002296,0.005746009,-0.0007583345,0.008286873,-0.009333485,0.003408907,0.00024696704,0.003844169,0.007366501,-0.0066764154,0.0055846055,-0.009525013,-0.0008225381,-0.008689648,-0.0050576334,0.009329991,-0.0018219989,0.0029050605,0.009116093,0.008971075,-0.008219599,-0.0030134518,0.009927401,0.005102317,-0.0015871334,-0.008727925,0.0029603417,-0.0066906125
arteri,0.0081363525,-0.0043609967,-0.0011570646,0.00089864584,-5.9450173e-05,0.0009345235,0.0061887233,0.00012304536,-0.0033488085,-0.0015772106,0.005905842,0.001464172,-0.00067738874,0.009415553,-0.0048429514,-0.0008901331,0.009227699,0.006604581,0.0015255335,-0.009062676,0.0011393849,-0.0020732,0.009217058,0.0012069086,0.0014422097,0.0023140307,-0.0018318777,-0.0051001376,0.00011678851,-0.0021268302,0.0066767912,0.008971253,-0.00074543065,0.00290353,-0.0060999272,0.0018516326,-0.0069594923,-0.008714852,-0.005921363,-0.009173858,0.007283331,-0.0058623203,0.008251866,-0.007204968,0.003486608,0.009751814,-0.007779042,-0.010004174,-0.0043728384,-0.0026365295,-0.0002604736,-0.008810874,-0.008652548,0.0028139288,-0.0081929825,-0.00916442,-0.0023120695,-0.008716601,-0.0071159923,-0.008335895,-0.00022538393,-0.0045567728,0.0066795275,0.0014634583,-0.0033990531,0.0061808964,-0.0061123623,-0.0046672034,-0.007363829,-0.0042223698,-0.0016666646,0.006539072,-0.002667211,0.0050047636,0.007070154,-0.0074458863,0.004504048,0.006170504,-0.003098382,0.0065674703,0.006103509,-0.0062605045,-0.006895133,0.0025991893,-0.0016531815,-0.0060406206,0.009601769,-0.004936173,-0.006487921,-0.00011148672,-0.0025123053,0.00052346935,-0.0036108363,-0.0003000624,-0.0006434085,0.00081173173,0.008284363,-0.005887719,-0.0016847327,0.005474371
short,0.008152864,-0.0044550374,0.008989623,0.0082562985,-0.0044188397,0.00028034375,0.004275162,-0.0039080605,-0.0056021977,-0.006506641,-0.0006810572,-0.00030442554,0.0044719237,-0.0024609168,-0.0001692441,0.0024686307,0.0048525315,-3.3582164e-05,-0.006347142,-0.00928418,2.4653806e-05,0.0066724746,0.0014602118,-0.008980772,-0.007942266,0.0065363958,-0.0037923122,0.006265869,-0.0066830176,0.008453944,-0.0065004556,0.0033172441,-0.0010737433,-0.0067878864,-0.003281353,-0.00115595,-0.005472541,-0.0012143921,-0.0075610643,0.0026340955,0.009079172,-0.002395912,-0.0009803057,0.0035319913,0.008681853,-0.005908808,-0.0068876543,-0.0029218234,0.009151807,0.0008736663,-0.008675232,-0.0014264912,0.009481419,-0.0075763892,-0.0053736744,0.009314712,-0.008968692,0.0038171913,0.0006664869,0.0066823363,0.0083226,-0.0028466675,-0.003983293,0.008880354,0.002093953,0.006253427,-0.009433005,0.009592249,-0.0013597363,-0.006053148,0.002976608,-0.00046005417,0.0047031576,-0.002279277,-0.0041097086,0.0022914212,0.008370275,-0.00499728,0.0026796504,-0.008002819,-0.0067888764,-0.00047009785,-0.0087796375,0.00278193,0.001592148,-0.0023283756,0.0050213607,0.009749172,0.008464271,-0.0018613396,0.0020731627,-0.0039955727,-0.008258977,0.0062851603,-0.0019356809,-0.00066093076,-0.0017751158,-0.0045302785,0.004053154,-0.0042430647
liver,-0.009573129,0.008963359,0.0041555823,0.009238148,0.0067079063,0.0028527572,0.009839522,-0.004366941,-0.0068157543,0.0042039542,0.0037060522,-0.005709545,0.009711401,-0.0035387534,0.009558895,0.0008597866,-0.0063380953,-0.0019847641,-0.0073764715,-0.0030206467,0.0010310964,0.009534692,0.009313805,-0.0066060647,0.0034633935,0.0022669937,-0.0024906695,-0.009230717,0.001018641,-0.008195268,0.006358602,-0.0058102533,0.0055221585,0.009811637,-0.00016741584,0.0045626974,-0.0017787482,0.0073370477,0.003933518,-0.009092262,-0.0024092693,0.0036273038,-0.0001253115,-0.0011947312,-0.001048369,-0.0016439914,0.0005865691,0.0041648266,-0.0042352118,-0.0038300725,-3.8267168e-05,0.000259969,-0.00015820848,-0.004795463,0.0043105246,-0.0021701218,0.0021188566,0.00064606685,0.0059754294,-0.00681712,-0.006818348,-0.004465769,0.009452595,-0.0015988132,-0.009446316,-0.00055046345,-0.0044687176,0.0060129026,-0.009631166,0.0028892623,-0.009247742,0.0012496208,0.006017217,0.007402896,-0.0075928024,-0.006089358,-0.006827337,-0.007910813,-0.0095510185,-0.0021445854,-0.00086406403,-0.0072029126,0.006774687,0.0011409586,0.0058093085,0.0014746843,0.00079490844,-0.0073092487,-0.002150044,0.0042996015,-0.005035785,0.0011466743,0.0029130557,-0.0014966677,0.009976071,0.008339245,0.0024504228,0.007067174,0.005933308,-0.005582877
fever,-0.0051562428,-0.0066683376,-0.007776835,0.008310728,-0.001982342,-0.0068549635,-0.004154389,0.0051441262,-0.0028691364,-0.0037496602,0.0016214252,-0.0027762938,-0.0015843606,0.0010744918,-0.0029779447,0.008519283,0.003910935,-0.009958863,0.0062595997,-0.006754254,0.0007694328,0.0044042347,-0.005103375,-0.0021106696,0.008095479,-0.0042437925,-0.007636261,0.009257913,-0.002155497,-0.0047194324,0.0085708,0.004283339,0.0043248367,0.009284513,-0.00845308,0.00525532,0.0020393515,0.00418828,0.0016979002,0.004464134,0.0044862903,0.006104522,-0.0032020975,-0.004575728,-0.00042651652,0.0025337338,-0.003263167,0.006057718,0.0041541304,0.0077645923,0.0025692724,0.008116683,-0.0013872099,0.008077928,0.003717016,-0.008047325,-0.0039336146,-0.0024718784,0.004893044,-0.000872159,-0.0028309084,0.007833707,0.0093229,-0.0016149282,-0.0051592495,-0.0047017587,-0.004846051,-0.009602826,0.0013720202,-0.0042249155,0.0025267089,0.0056144833,-0.0040659057,-0.009596582,0.0015466976,-0.0067001223,0.0024951743,-0.003780632,0.0070784213,0.00064022065,0.0035609389,-0.0027391338,-0.0017105473,0.007652793,0.0014076781,-0.0058504487,-0.007834497,0.0012326873,0.006454631,0.0055563496,-0.00897705,0.008592164,0.004046978,0.007469605,0.0097463345,-0.00728958,-0.009039963,0.0058360007,0.009391213,0.0035069252
accid,0.007199005,-0.0015005851,0.007886917,-0.009550772,-0.007953097,-0.006825087,-0.0038864075,0.005192644,-0.003910298,-0.008428408,0.008402498,-0.0038312823,0.0087090805,-0.0048005176,0.004026982,0.004995991,0.0023963647,-0.0028325925,0.0029463014,-0.008436513,-0.0028021736,-0.002467473,0.007161068,-0.0035416803,-0.0066520404,0.00426706,-0.00050381944,-0.0037301867,0.0068261665,0.0038009074,-0.0037871858,0.0007757521,0.009138454,0.007742129,0.0063748104,0.0048099393,0.0023944357,-0.001892815,-0.0064529376,-0.000498773,-0.0015891849,-0.0005904745,-0.0063390373,0.0074594845,-0.006580043,-0.0072147227,-0.0028030875,-0.0016143218,-0.0076369657,0.0006812033,-0.0052717593,-0.0013296377,-0.007456664,0.0020371876,0.003343187,-4.1753356e-05,-0.0054697394,-0.0017407002,0.007121454,0.0038028657,-0.008891903,-0.0033759803,0.0023861998,0.0021291943,-0.009568522,0.0047047036,-0.008786065,-0.0074883513,0.0034388434,-0.003461786,0.0035909005,0.008935648,-0.003474824,0.009411002,0.0018682202,0.009858548,0.005662422,-0.009156702,-0.0035027205,0.006541883,0.005577032,0.008906987,0.006862214,0.00817159,-0.009877482,0.0043365736,-0.00496242,0.0036322277,0.0062241047,0.004365243,0.00767163,0.0016064546,-0.0013644983,0.0059105284,-0.005512599,1.5568323e-05,0.009598578,-0.005631796,0.0038565176,-0.008222192
renal,0.009806211,0.008197483,0.0012700813,0.0050798,0.0014296066,-0.006484681,-0.0014030985,0.00651771,-0.004674273,-0.0039970763,0.004900213,0.002710531,-0.0018178159,-0.0028426421,0.0060559185,-0.0057137506,-0.0032553421,-0.006483849,-0.0042046187,-0.008630745,-0.0044829515,-0.008483334,0.0013550882,-0.008627179,-0.009930279,-0.008220989,-0.0067802332,0.006661259,0.0037798376,0.00032901103,-0.0029414834,-0.0074290386,0.00053189887,0.0005345272,0.00021961049,0.0008910796,0.0007897203,-8.3504536e-05,-0.00799396,-0.0058968426,-0.008385071,-0.0013240993,0.0017969663,0.0074286135,-0.0019644059,-0.002313814,0.009464036,7.8300094e-05,-0.0024310588,0.008592973,0.0026631388,-0.005331148,0.0065706833,0.0045165718,-0.007012992,-0.0003010025,0.00081443216,0.0057539945,-0.0016671562,-0.002813665,0.0017692952,0.0008568929,0.0012008162,-0.002643692,-0.00601753,0.0073391153,0.007578314,0.008282987,-0.008611016,0.0026373076,-0.003555188,0.009631733,0.0028880273,0.0046550087,0.0024025457,0.00663484,-0.005738097,0.007893191,-0.002443882,-0.004540884,-0.0020313626,0.009769353,-0.0068690744,-0.0021572511,0.007009565,-3.8125967e-05,-0.0062676244,-0.006382051,0.009000293,0.0064315884,0.004785513,-0.0032380717,-0.009302238,0.0038296594,0.0071979705,-0.005627337,-0.007814449,-0.0030120579,-0.004919112,-0.0023503124
esophag,-0.0019284731,-0.0052277753,0.009424116,-0.009335878,0.0045671784,0.0052913376,-0.0013905303,0.009083611,0.009866852,-0.005522388,-0.006049877,-0.0068026185,-0.007878943,-0.0030127792,-0.0055529997,-0.008335423,0.00076519494,0.0029513289,0.006496715,-0.0027181164,-0.004480267,0.0013125916,0.00036069786,0.008134458,0.00018759062,0.0072153597,-0.008297343,0.008419067,-0.0019244058,0.008658456,-0.0076383376,0.0017986177,0.0010177755,1.9656842e-05,-0.005074256,-0.009184613,-0.007270899,-0.007985956,0.001917628,0.0003847392,-0.0018334723,0.0071159666,-0.0025360836,-0.0013320491,-0.008881742,-0.009916724,0.008942719,-0.005773266,-0.006350982,0.005202288,0.006675607,-0.0068112793,0.0009544081,-0.0059698387,0.0016863212,-0.0043250374,-0.0034318902,0.0021638053,0.008684087,0.006772457,-0.009683951,-0.005644797,0.007908119,0.0019832226,-0.0042795003,0.0006239386,0.009492882,-0.0011028796,-0.009453602,0.0016463578,0.006277352,0.00631493,0.004156543,-0.0055874772,-0.0003340418,-5.3947257e-05,0.004553482,-0.00808674,-0.008077226,0.00027506775,-0.008641558,0.005920537,-0.00041975823,0.009986535,-0.0053475234,-0.00050624245,0.0078109098,-0.0039545023,-0.004942361,0.0015936713,0.0027292378,-0.0025140606,0.006437575,-0.0075886473,0.0034413396,0.0005187805,0.008808133,0.005933407,0.006839573,0.007791588
thrive,-0.00950012,0.009562223,-0.0077707553,-0.0026455082,-0.004906409,-0.0049666967,-0.008023591,-0.0077835848,-0.004553212,-0.0012753617,-0.0051029883,0.006140542,-0.009516619,-0.0053071044,0.009437152,0.006991329,0.007675816,0.0042347396,0.00050709245,-0.0059811436,0.006018777,0.0026350308,0.0076994337,0.006393843,0.00794257,0.008657407,-0.009895755,-0.006755705,0.0013375747,0.0064403033,0.007373816,0.005516981,0.0076616253,-0.005125568,0.0065844096,-0.004108373,-0.0090553425,0.00914168,0.0013314044,-0.0027596795,-0.0024778426,-0.0042204787,0.004812337,0.004400222,-0.0026533627,-0.007341881,-0.0035658514,-0.00033661484,0.0060958923,-0.0028373385,-0.00012089491,0.00087972643,-0.0070956494,0.0020650018,-0.0014324236,0.0028021492,0.0048422217,-0.0013520193,-0.002780143,0.0077386475,0.005045599,0.0067135217,0.004515643,0.008667155,0.0074749696,-0.0010818875,0.008747638,0.0046017184,0.0054406333,-0.0013860846,-0.0020413185,-0.0044243457,-0.008515197,0.0030377281,0.008883192,0.008919742,-0.0019423545,0.0060861576,0.0037797235,-0.0042959657,0.002042924,-0.0054378854,0.008208892,0.0054329084,0.0031844343,0.0041025686,0.00865715,0.007272035,-0.0008334732,-0.007072768,0.008380473,0.007233584,0.0017304718,-0.0013474918,-0.005890092,-0.0045330906,0.008647966,-0.0031351077,-0.0063388194,0.0098700775
pain,0.00769203,0.009209151,0.0011276205,-0.008401877,0.008525016,-0.0037897383,0.0058228727,0.0044889213,0.009671729,-0.009379613,0.009175971,-0.009368369,-0.0069192937,-0.009065898,-0.0055546537,0.007409587,0.009180016,-0.0033721223,0.0037384008,-0.0037048284,0.007886014,0.0059629898,-4.7063797e-05,-0.0036382643,-0.007270618,0.004751741,0.0014612989,-0.00271999,0.007753995,-0.004072646,-0.009117852,-0.002297133,0.00010434612,-0.0067309965,-0.005491386,-0.008455026,0.009254677,0.0074424716,-0.00029993296,0.007261521,0.007965089,-0.0008001805,0.0065644844,0.0037757421,0.005136205,0.0072919233,-0.0047652875,-0.002179755,0.0009002303,0.0042607575,0.0033692995,0.0050921305,0.004597474,-0.008432584,-0.0031699883,-0.0072741057,0.009740901,0.0049839476,0.00014296475,0.00417539,-0.007657284,-0.00627795,0.003076786,0.0065240497,0.0039420994,0.0060234047,-0.0020213972,-0.0033745652,0.00017610127,-0.0031736763,-0.005504154,-0.0077566993,0.006613896,-0.0010783094,-0.0018452869,-0.0078100376,0.0093377065,0.00089751784,0.0017135591,0.0024803178,-0.007405259,0.001761996,0.0029563454,-0.008557778,0.004930289,0.0024434782,0.0075666746,0.005153734,-0.0029986214,-0.0071427305,0.007195806,0.0019731878,0.005174082,0.006456144,0.0019913155,-0.006125936,5.152088e-05,0.008202084,-0.006097982,0.00940928
respiratori,-0.007174749,0.004255645,0.0021730463,0.007394849,-0.004888256,-0.004642214,-0.006067957,0.0033412245,-0.004544795,0.008487309,-0.004286592,-0.009149144,-0.0047724987,0.006403367,-0.006344493,-0.0052497606,-0.0072885426,0.006023801,0.0033536316,0.0027660984,-0.0031295307,0.0060515655,-0.0061943308,-0.002007977,-0.0060387678,-0.000989335,-0.002035622,0.0084924335,6.263287e-05,-0.008613597,-0.0053940536,-0.006862974,0.0026835168,0.009454174,-0.0058145416,0.008320016,0.008534482,-0.0070907003,-0.008913742,0.009452693,0.008360401,-0.0047140736,-0.006791301,0.007839266,0.0037717537,0.008085788,-0.007557861,-0.009559129,0.001545104,-0.009804532,-0.0048963507,-0.0034630243,0.009621422,0.008643781,-0.0028281193,0.005822635,0.008188517,-0.0022767512,0.009542378,0.007180666,0.0020101478,-0.0038465941,-0.005079796,-0.0030600566,0.007865582,-0.0061551197,-0.0029339537,0.009174368,0.0034144241,0.006095985,-0.00804755,-0.00073627697,0.0055444143,-0.0047013126,0.007511464,0.009369543,-0.0004398198,-0.0020681652,-0.0006371984,-0.0057470473,-0.008432611,-0.0014522856,-0.0025922155,0.00444375,-0.006892849,0.005431724,-0.0067005637,-0.00780318,0.008519156,0.00891282,-0.0034511902,0.0035202403,-0.005801239,-0.008727539,-0.0054958467,0.0067457687,0.006477657,0.0094019715,0.007067029,0.0067555555
tract,0.0013211196,-0.009766483,0.0045790225,-0.0005997119,0.0064628045,0.0015975041,-0.00305563,0.007891548,0.0015077529,-1.5657435e-05,-0.0046780487,-0.008513114,-0.00776449,0.008713711,-0.008868672,0.009037346,-0.009298752,-0.00031403173,-0.0018720123,-0.0090413485,0.0086212205,0.006880542,0.002938488,0.0048346072,8.968553e-05,0.009402508,0.0070186523,-0.009924091,-0.004479403,-0.001347715,0.003096294,-0.0043392717,0.0014262589,-0.007885437,0.0027815374,0.0047843433,0.004942352,-0.0031958867,-0.008434317,-0.009321344,-0.00069927605,-0.007349282,-0.0068566645,0.0061306064,0.007220389,0.0022016224,-0.007944394,-0.0057247877,0.008095966,0.003899655,-0.0052268514,-0.0073539303,0.0007792139,0.0035146389,0.0020849914,0.0030674397,-0.0056126057,-0.009907849,-0.0069715795,0.00031778312,0.004641056,0.0045381617,0.0019074738,0.0051478907,-0.0001417796,0.0041593816,-0.009159912,0.007659904,0.0060607223,0.005168368,0.007195422,0.008475897,0.0007997223,-0.001698299,0.00057903945,-0.0093377,0.008404774,-0.0063982443,0.008333476,-0.00427048,0.00061917695,-0.009027721,-0.009611819,-0.007792321,-0.0077612163,0.00040328345,-0.007166958,-0.0048337486,-0.005182679,-0.0043237777,0.007102411,0.0048702024,0.008681392,0.007188897,-0.005613693,0.0072424673,-0.009224782,-0.002689585,-0.00774218,0.004152079
pulmonari,0.0018088421,0.007098367,0.0028867167,-0.007058781,0.007829851,-0.00611071,0.009072228,0.0031252378,-0.0040516625,-0.004770712,-0.00440721,-0.0062111397,0.00942106,-0.0026196472,0.007854673,-0.009655363,0.00212255,-0.0012878766,0.0076081837,-0.009134446,0.00740303,-0.0050440053,-0.0060891174,-0.0056897793,-0.0033950475,-0.0034579155,-0.0031620648,-0.0075066485,0.0006759802,-0.0006431969,-0.0015689901,0.0037585394,-0.0076605454,-0.0032398954,0.005173261,0.008662485,-0.009788187,0.0071577537,0.005282878,-0.0040039043,0.008559554,-0.009224717,0.0072005647,0.0053722505,0.0013369247,-0.005200558,-0.004166489,-0.0033940114,0.0015818415,0.0015935657,0.0073905694,0.00999243,0.008837008,-0.003947641,0.0096441945,-0.00064942305,0.0048943884,0.002540991,-0.0006297732,0.0037409186,-0.0052690622,-0.005752824,-0.0075660334,0.0018832089,0.006465395,0.0009112679,0.0011980011,0.0031620464,0.008117379,-0.0076861484,0.0022921863,-0.0074712,0.0037351826,0.009617857,0.007621427,0.0064382274,0.007960897,0.0065529193,0.0067517157,0.008724728,-0.004966587,0.009357988,0.005062452,-0.002057366,0.008495833,0.0051233843,0.009747154,0.0029281199,0.0099536255,0.0011837003,0.009230899,0.0036640998,0.0065226485,-0.0035505826,0.0069096456,0.007298711,-0.002054914,-0.0019697412,0.0036662852,-0.00711421
sp,0.009767056,-0.009776575,-0.0065164473,0.0027702556,0.0064632106,-0.0054086726,0.002773714,0.00918686,-0.0068596154,-0.006105043,-0.005000512,-0.0036784885,0.0018791201,0.009701351,0.0064806365,0.00044682904,0.0024569288,0.0084410235,0.009198951,0.00559124,0.0059090187,-0.007597289,-0.0038312827,-0.0056924853,0.0061907666,-0.0022874072,-0.008804088,0.0076088365,0.008399236,-0.0033349353,0.0091132065,-0.0007452943,-0.003609824,-0.00036982197,0.00022006675,-0.0034710038,0.002800073,0.00570061,0.006849717,-0.0089518055,-0.0022086361,-0.0054641254,0.0074824463,0.006501196,-0.0043688337,0.0023248168,-0.005958543,0.00022450919,0.009472156,-0.0026052834,-0.0052231066,-0.0073976717,-0.0029640477,-0.0008396477,0.0035603105,0.009749245,-0.0034037188,0.0019130686,0.009733031,0.0015714018,0.0009846959,0.0097860955,0.0093128905,0.00771301,-0.006214314,0.010017578,0.005835946,0.009042869,-0.0019755266,0.003368574,0.0068542967,-0.0038896666,0.006651344,0.002597802,0.009342294,-0.0030323588,-0.0031237118,0.0061946367,-0.009129827,-0.0072604734,-0.0064763487,-0.0007040959,-0.0023672713,0.0068730963,0.009219858,-0.00089889945,0.0014270645,0.0020550685,-0.0019642797,-0.008026117,0.007509551,-0.004296584,0.0045351856,0.0091523,0.0030759997,0.0031439129,0.0040844944,-0.002742892,0.003842244,0.00029444008
fractur,0.0056094895,0.0055157007,0.001821448,0.005731356,-0.008959511,0.0065364134,0.009248118,-0.004188913,0.0015970236,-0.005240629,0.0010534382,0.0027530775,0.008157765,0.0005520267,0.0025592716,0.0013044097,0.008411582,-0.0057201483,-0.0062595303,-0.0036352547,-0.0023071878,0.0050598886,-0.008126101,-0.002825462,-0.008210798,0.005144752,-0.0025688896,-0.009086778,0.004066825,0.009008846,-0.003019073,-0.0058448114,0.0030080806,-0.0004372016,-0.009976505,0.008423562,-0.0073261745,-0.0049273213,-0.0026547494,-0.0054817465,0.0017090419,0.009706498,0.0045552664,0.008085662,-0.00045825203,0.0006577881,-0.0026674771,-0.008785063,0.0034360096,0.0020918606,-0.009422004,-0.00496557,-0.009729666,-0.005718215,0.0040713944,0.008638274,0.0041243024,0.002383202,0.008144431,-0.0010980006,-0.0013867253,-0.00874957,-0.00013326936,-0.0025680363,0.00038065563,0.00727301,-0.0070484313,-0.0039486377,-0.006667637,-0.0035195614,-0.003308524,0.0021290118,0.0033413505,-0.0049444977,-0.004552519,0.0011455944,0.0054374076,0.0053794053,-0.0029825424,-0.0042742547,-0.005616941,-0.0005292205,0.0019422137,0.0015431753,0.0073464997,-0.0027276422,-5.650916e-05,-0.0055052913,-0.0011590669,-0.0077165654,-0.00092957885,0.0013106444,-0.00859606,0.008760726,-0.009188314,-0.009628993,-0.008495786,0.007295982,0.00546944,0.009237886
gi,0.0025720475,0.00088036124,-0.0026029265,0.009339695,0.0028262057,0.0040045544,-0.0011522261,0.0009853444,0.0065683904,-0.0007493473,0.003310062,-0.00069480523,0.005258607,0.0036697467,0.0026402487,-0.0053087864,-0.0047282684,0.004259525,-0.005894984,-0.0002653876,-0.00067036104,0.003558285,-0.0084549505,0.008789545,-0.0014789506,-0.0053804843,0.0040454003,-0.0019887912,-0.007824832,-0.0045562936,-0.00036311382,-0.008948093,0.0005823792,0.0024225046,-0.0032249156,0.0026208323,0.002466981,0.009962602,0.0014085105,0.001947523,0.002789353,-0.0020901097,-0.008726712,0.008089559,-0.001929942,-0.009640993,-0.0065697934,-0.0039638123,0.0039461027,0.005024837,0.0061167916,-0.0067709954,0.000679862,-0.0027663219,-0.0052114334,0.0069616036,0.0039569396,-0.0031371808,-0.00829334,-0.0051357057,-0.00063705316,0.007846011,0.0060693217,-0.008453477,-0.0095627215,0.0071927407,-0.0023519997,-0.0036909396,0.0057052826,-0.0058582653,0.0051334538,-0.00021274414,-0.0068230955,-0.00027497255,0.0064256922,0.00930043,0.0022203817,0.0050477,-0.005004058,-0.0008251559,-0.0053331167,0.001275833,-0.0017979519,-0.0036150261,-0.007020778,0.009666563,0.003063063,-0.0021929212,-0.0041618994,0.007721318,-0.0063939597,0.0031832266,0.000725106,0.008389492,0.006906312,-0.0028788033,0.0025792946,-0.0017281794,-0.009475429,-0.0026398615
hypotens,0.0013325238,0.0065408563,0.009984603,0.009062455,-0.008015361,0.006491386,-0.0057147373,-0.0009715748,0.00048282265,0.0065819337,0.0044701435,0.004603727,0.009483124,0.0003826642,-0.0060387133,-0.0063301004,0.0064317896,-0.0052425815,-0.0028498126,0.004075284,-0.0022902358,-0.006025213,-0.002323655,0.001206919,0.0021833598,0.0060837734,-0.005214001,0.0030779613,0.007240676,0.0021951138,0.00539749,-0.0048453333,0.006152612,-0.0076012816,0.0034928655,-0.009321804,-0.0026043104,-0.009073199,-0.0015882683,-0.005364752,-0.0039439187,0.0011536527,0.0028003477,-0.0015263951,-0.008170515,-0.0059180222,0.00081929564,-0.0039462578,-0.009430448,-0.0007749748,0.0066332687,0.005978844,-0.009917259,0.003118583,-0.005987301,-0.009181891,0.00017021298,-0.00036962033,-0.0069719995,-0.0062800576,-0.0024260855,0.0070966566,-0.007545879,0.007698084,-0.0004754448,0.0010932934,0.009482661,0.00472816,-0.0035727667,0.0037356198,0.003519286,0.0063366974,6.933927e-05,-0.0044236863,0.0013182712,-0.0054142345,0.0014117574,0.004926181,0.005154848,0.009181637,-0.007512665,-0.005403644,0.0064693727,0.0013554788,-0.006611801,0.00088438985,0.0026770402,-0.0025288356,-0.0049601602,0.005004755,0.009621821,-0.0073646735,-0.00011532188,-0.0025644589,-0.006365142,-0.0013786554,-0.0052507855,0.009059995,-0.0057907687,0.003686075
left,-0.00019363564,0.0043700486,0.002117191,0.009992647,0.0007085498,-0.005663122,-0.0011144978,0.0022776995,-0.003472575,-0.007941712,-0.005685085,-0.006785599,0.006446717,0.004016668,0.008350029,0.0066014775,-0.00618077,0.0026989598,0.008558658,0.0014503028,0.0030010012,0.005920828,-0.008969072,0.009113512,0.006778728,0.008531214,-0.00828425,0.0061480054,0.006588872,-0.001432107,-0.0062701944,0.0053135855,-0.0069502755,-0.005349092,0.0035846056,0.008220834,0.008751976,-0.004451365,-0.009196476,0.009469753,0.0062837615,-0.0040240544,-0.008634101,-0.004695896,-0.003944514,-0.0032490892,0.0007329294,-0.0003652661,-0.0030885881,-0.00606385,0.009423081,-0.0046825544,-0.007293573,0.0077487635,0.0026015388,0.008648176,-0.004510705,-0.0069446126,0.0010460457,-0.0011329876,-0.009397811,-0.0016315943,0.0030983116,0.0065421117,0.0067479704,0.003275943,-0.0045133326,-0.0018974532,-0.0040103057,0.0058487537,-0.006373534,0.0021687283,-0.0012861108,-0.005748702,-0.007154671,0.0059295143,-0.008383052,-0.00074048276,0.0027276373,0.007831563,-0.007357319,0.003468933,0.00980312,-0.006885012,-0.0036213887,0.0051565454,0.005337605,0.0017793408,0.008187603,0.0007972238,0.0019752597,-0.00149744,-0.008205456,0.0034265532,0.0021057748,-0.008745519,-0.0005698667,-4.84594e-05,-5.443043e-05,0.008641865
congest,-0.0025030267,-0.005896437,0.0074761165,-0.0072729047,-0.008951537,-0.0017968762,-0.00836071,0.00041102033,0.0019433555,-0.0024675366,-0.006449819,-0.00033544604,-0.0010946059,0.0034894198,0.008124206,0.005860468,0.008439739,-0.008978796,0.009467439,-0.0023857264,0.008697097,0.002401534,0.003590418,-0.009583189,-0.009490191,0.0089844,-0.002905378,0.0028137518,0.0064069577,-0.00031072384,0.009717128,-0.0010447125,-0.009674988,-0.007048856,-0.0010347571,-0.008659186,0.007414906,0.0036197258,-0.008757839,0.008476919,0.008923712,0.005856771,0.00690665,-0.00956226,0.00051264616,-0.009209673,-0.0036648293,0.0002486476,-0.00027836018,0.0014689809,0.003270763,0.002129632,0.0053162696,0.00752853,-0.0058883964,0.007954814,0.005991039,0.009785343,0.0046208645,-0.0033088964,-0.0037585907,-0.0006295922,-0.0016524704,0.009872743,0.0011105635,0.0040194914,0.003406419,-0.0088526225,0.006725062,0.00819838,-0.0016697065,0.0023481424,-0.006474297,-0.006120221,0.008222594,-0.0030446907,0.006743544,0.0015502102,-0.0019927737,0.0030510274,-0.004029721,-0.0017711485,0.0013822472,0.0049014445,-0.001407092,0.00067078817,-0.007922468,0.00951169,-0.008756591,0.0070693623,0.0039145914,-0.006995469,-0.0053054024,-0.007931266,-0.005125331,0.0070768814,0.009651876,0.002146657,0.0006422587,0.00951525
hepat,-0.0050101457,-0.0012521261,0.0032670533,-0.00644397,-0.009627783,-0.009406424,0.0090654865,0.0054897084,-0.0048582745,-0.008386275,0.0012572353,0.0028007885,-0.0012244949,0.0013140949,-0.004250264,0.0047958517,0.00144035,0.008850257,-0.009982769,-0.0053847376,-0.009122936,-0.0002527542,-0.007922111,0.004982556,-0.0064497693,-0.005994333,0.005068849,-0.008222911,0.0014173351,-0.0073322426,0.0099279955,0.008647134,0.0017351419,0.005791398,0.0046070777,-0.0059193927,0.009772526,-0.009735382,0.0080557475,0.0026481585,-0.0030526484,-0.0036081576,0.009005501,-0.0054001273,0.008222345,-0.006005172,0.008383268,-0.0005908229,0.0079539595,-0.0031718414,0.0060241525,0.008805983,0.00254921,0.0013582925,0.0050600255,0.00800997,0.008573776,0.008452222,0.0070640002,0.008043806,0.008590831,2.2440236e-05,-0.0009596293,0.0016228862,-2.9219746e-05,0.00073329697,-0.008655886,-0.009589112,-0.002372612,0.00896353,-0.0036124892,-0.006969418,0.0049509415,0.0011199391,0.0019092956,0.003670956,0.0035136505,0.005704681,0.001172216,0.000837809,0.009011572,0.002899638,-0.004743459,0.0065813344,0.005207941,0.0028771455,-0.003068492,0.003433891,0.006435763,0.0071073305,0.0010376691,-0.008449779,0.00024804112,0.00045510076,0.004055194,-0.009427925,0.009789972,-0.0070578665,0.0057859654,-0.009466189
heart,0.009697369,0.007342609,0.001268719,-0.0034098378,-0.00046772786,0.000392003,-0.0063982517,0.0057868795,0.002366116,0.0037606528,-0.0072693713,0.008523142,0.0005392797,-0.00021103244,-0.009073366,0.0040729004,0.006767975,0.007362188,-0.006422068,-0.007881474,-0.0054922923,-0.0006063576,-0.0083562,-0.008240129,-0.0019445417,0.0011630884,-0.009510863,-0.0037342259,0.00067292666,0.0068387846,0.001744074,-0.00063169614,-0.007482847,-0.006746158,-0.0006972343,0.0075027556,0.0054881717,-0.0014862742,0.001156009,-0.009620035,-0.0013452608,-0.004644353,0.005811389,-0.0023643055,-0.004749234,-0.00949983,-0.0012250418,-0.007198617,-0.0016483715,-0.004095641,-0.002386763,-0.0032615669,-0.0081485575,-0.001252482,0.0016591118,-0.004048172,-0.007664082,-0.0035864366,-0.009055326,-0.0007338262,0.0058638947,-0.0029727456,0.0031745264,0.005006595,0.008471243,0.005643005,0.009498684,-0.009653883,-0.007996189,-0.006744429,-0.0075233663,-0.007945766,-0.007807761,-0.0029510446,0.0014106631,-0.0028561987,-0.008823209,0.005010384,0.0009060565,0.004598472,0.007201698,0.0076783267,-0.0008037966,0.003691582,-0.0051584407,0.0019029336,0.004560306,0.009904567,-0.0031792668,0.0028329468,-0.005719779,-0.0021945043,0.008115607,-0.0039317817,-0.001174661,-0.009307347,-0.009473775,0.008853406,-0.0056600296,0.005054597
distress,-0.0069517666,-0.002431043,-0.008041943,0.0075085917,0.006145022,0.0052206554,0.00838011,-0.00064941624,-0.009322224,0.009112623,-0.004923889,0.0078247255,0.005553394,-0.0010628862,-0.0076391087,-0.0014356865,0.006246137,-0.006971379,0.001455829,-0.007978608,0.008705436,-0.002844013,0.009429547,-0.005722545,-0.009727103,-0.008632831,-0.0040710666,0.0047109784,-0.00024252228,0.009202421,0.0031327999,0.0037251809,0.0029991982,0.0081302235,-0.0024034414,0.0074484088,-0.009513386,0.0029208132,-0.00070216024,0.0004229026,0.0068615614,-0.0028660633,-0.002398407,-9.199377e-05,-0.00048906205,-0.0035920362,0.006233293,-0.0065754172,0.0079027545,-0.00010571078,0.0026135813,0.003213175,-0.00028064492,0.0017455678,-0.0031555137,0.004769193,0.00023141183,-0.0033024568,-0.00873248,-0.009961015,0.00031085114,-0.005746891,-0.0010933853,-0.004201857,-0.0086381,0.001078123,0.0059019816,-0.0022185033,-0.007187913,0.0031695827,-0.00041214816,-0.005509009,-0.0010843,-0.00062794174,-0.0031642523,-0.009940727,0.0076081026,0.003730283,-0.002543508,0.007312149,0.00043173303,0.007222385,-0.0015459356,0.007500903,-6.480739e-05,-0.006050536,-0.0046899905,0.0096610105,0.0006043108,0.0010374931,0.008470297,-0.0062725237,-0.0017655072,-0.008169162,-0.0066330307,-0.008583342,0.003947485,0.0027202703,0.0056271297,0.002558884
humer,0.00211281,0.005739747,-0.0021212695,0.003160372,0.00845152,0.00036447367,0.0063059605,-0.006739358,0.006558238,0.004679479,0.0050795097,-0.0099204425,-0.00042103638,0.0032123895,-0.0058158534,-0.0066875527,0.006357222,-0.0068208384,-0.005189863,0.008109064,-0.0070343614,0.008561417,0.0006392375,0.0044006994,-0.003003987,-0.005428433,-0.008947296,-0.0006255274,-0.0051059118,-0.0030857555,0.008111664,-0.0076339967,-0.006337156,-0.005275968,-0.0066024396,-0.008836217,-0.0011130893,0.009456066,0.008031927,-0.005296292,-0.008132711,-0.0022650287,-0.009274473,-0.0050764885,-0.0059522386,0.0030195357,-0.007586034,0.0012502192,0.0022836744,0.0053219427,-0.0020074393,-0.009784654,0.0052153817,-0.0058997017,0.0048691533,0.0019774127,0.00881615,0.0015252794,-0.0018320605,0.0065082847,-0.007064754,-0.0083883535,0.0037872584,-0.002589327,-0.0041767247,-0.0019132722,-0.009878912,0.00024786213,-0.001058474,-0.0029777803,0.0025092326,0.004714481,0.0063407654,-0.007899454,-0.004981698,-0.008782287,-0.008951749,-0.0037188553,-0.0012703156,-0.008219573,-0.0053760717,-0.0021269636,0.0063373754,0.0015710336,0.008298731,-0.008319676,-0.0045595393,-0.0007831125,0.008816796,0.0011063337,0.0015584921,0.0013123113,0.0029109363,-0.00938497,0.003262928,0.005464313,0.0053171706,0.004417356,-0.008087256,-0.0040571503
chest,0.00839112,-0.0005673441,-0.009469672,0.0047225356,-0.0060243476,0.0066394308,0.005405689,-0.0050002853,0.002576161,0.005400185,-0.0036091246,-0.0015396497,0.009210551,0.0091267545,-0.009432421,0.007586662,0.009905626,-0.0028907268,0.0024854618,-0.002870027,0.008650819,-0.00024238296,0.0055913324,0.009258635,0.004065977,-0.0071179466,-0.0019100489,0.0009896348,0.001978808,0.00297904,0.009493543,0.0044003897,0.009879819,-0.008695366,-0.005762999,0.0020251572,0.003663488,-0.0010181962,-0.006932202,-0.003273131,-0.008583095,0.00942508,0.0037052534,-0.007907552,0.0032223223,0.004206951,-0.005632035,-0.005923461,0.0010588437,0.008979627,-0.009629233,-1.8061159e-05,-0.006873918,-0.0009354132,0.0030341274,-0.005075421,-0.002788943,0.00067682524,-0.0064038625,0.0073590833,0.004398232,-0.0086063985,-0.002161362,0.0031729317,-0.008313912,-0.0070849634,-0.008487736,-0.0055264845,0.00883194,0.007131863,0.0029139193,-0.008568139,0.0057772705,0.004634988,0.00015795715,-0.008850781,-0.0019359855,0.00020952537,-0.0077849883,0.0024432186,0.0004754363,-0.006972835,-0.008334508,0.0060817697,-0.008376635,-0.0055970307,0.0056209085,-0.00041685806,-0.0030356976,-0.0052225264,-0.0011082854,0.005292748,-0.005959794,-0.0049637514,-0.004963466,-0.0047901147,-0.0079401415,-0.009833814,0.0076146265,0.00797904
asthmachron,-0.004328247,-0.009310247,-0.0019145409,-0.003743566,0.009137218,0.0028457015,-0.005943744,-0.0032605715,-0.009943871,0.0019163669,-0.0040575135,-0.0027190924,0.005198691,0.0076111252,0.004442396,-0.0068283016,0.0066941064,-0.009695888,-0.0069657867,-0.008052689,-0.0022661532,0.00052991306,-0.0038267688,0.0018403877,0.009210296,0.0066727754,-0.001061122,0.009061115,0.001511468,-0.0020314308,-0.006587636,0.0065090754,-0.009120471,-0.001946213,0.007736051,-0.0025364489,0.0016121587,-0.007378347,0.0049665263,0.0073172785,-0.00932808,-0.0033136418,0.007854367,0.0029238865,6.5330816e-05,0.0003687585,-0.009876788,0.009940906,-0.0019918152,-0.0048969896,0.0028085874,0.0010611635,-0.0059448024,0.0058217,-0.0024949329,-0.0061859055,0.0072142156,0.006448422,0.008843387,0.001177843,0.00052359793,-0.007933861,0.00464442,0.00933155,-0.00066053966,-0.0017558613,-0.0038713466,-0.00048082625,-0.007646603,0.0057210308,0.0015323757,0.009327332,-0.006365531,-0.0050644954,-0.0061854445,-0.007287314,0.0027492805,0.004893601,0.0013243575,0.0035725683,-0.009446063,-0.0009559382,-0.007776043,0.002955369,-0.002728987,0.0088535035,-0.0033691132,0.0069425637,0.0041883322,0.0013365966,3.3092783e-05,0.008206368,0.002378429,0.008296494,0.0034293435,0.0054432265,0.005184845,-0.0076977112,-0.0058072177,0.0012054093
cholang,0.0001896517,0.0021504732,0.0010741224,0.0075834016,-0.004406204,0.0003067149,0.00701364,0.00226307,0.0042359415,0.0043071024,-0.0012665363,-0.008324797,0.0030459005,-0.008867414,-0.0026444304,-0.009395022,-0.00046726753,-0.007861116,0.007409563,-0.004896336,0.009919642,-0.00901379,-0.0043250746,0.0019265005,-0.0029975795,0.0014470774,-0.00368488,-0.00090141455,-0.0057287263,-0.009827596,0.0063474723,0.00037962926,0.0065102824,-0.007467156,0.0036593922,-0.009883998,0.0076050316,0.005932062,-0.0061120195,0.008201747,-0.0055736755,-0.008555236,0.0015093655,0.0031798303,-0.008091308,-0.008928206,0.009163598,0.0016453048,0.0008735603,0.002472478,-0.003509342,0.0017402322,0.0019570228,0.009806455,-0.005603197,0.002277869,0.006308993,-0.006667269,-0.008925029,0.008652904,0.006843274,-0.004017929,0.0057394262,0.00078239804,-0.0050111143,-0.0013424819,-0.004897304,0.0061338753,0.0019495948,-0.008323049,-0.00014481177,-0.002648174,0.0066093975,-0.0011470866,0.00766525,0.0019503578,-0.0038285977,0.00815752,0.002938571,-0.0039808913,-0.0056033316,-0.003088265,-0.005144774,0.0034399163,-0.009271193,-0.0058115297,0.0033373558,0.00020015384,0.0060121794,-0.003603014,1.8448659e-06,0.0024713136,0.005460563,0.0016218454,0.009818646,0.0037228637,-0.0071770847,-0.00139894,-0.008359573,-0.005339651
cholecyst,-0.0021953976,-0.00970765,0.009295289,0.0020319677,-0.001161182,-0.005503707,-0.0085098315,-0.009903475,0.008944385,-0.0024994253,0.0045923768,-0.0045173643,0.009958059,0.0036547207,0.0010256934,-0.0040441034,0.0012106216,-0.0026468039,0.007350738,0.004478253,0.0009866821,0.003483088,0.0037143505,-0.006785375,0.008930763,0.0017362308,-0.0057874643,0.008656683,-0.0012914777,0.008187038,-0.001506871,0.006987652,0.0027263963,-0.004359729,-0.0037479282,0.009191782,0.001591866,-0.006007011,0.00034962298,-0.0019623982,0.0015845251,-0.0077173174,0.007384087,0.001312226,0.007875197,0.004453044,-0.004393872,0.003752681,-0.00063848495,-0.009856249,0.00824213,0.009649374,0.00965339,-0.0037998045,-0.008449623,0.0048277043,-0.007655481,0.008532052,0.0027602506,0.005603337,0.006116494,0.00046480776,-0.0020948946,0.00077317236,0.0098359585,-0.007124536,-0.0015524542,-0.0023585416,0.0048660077,0.0064500393,-0.0041320394,0.003623669,-0.0044811275,0.0032704663,0.008168473,0.003628608,-0.004572811,-0.0030091642,0.007866405,0.009604061,0.005817094,-0.0032740354,-0.0018252826,-0.0062573934,-0.0042955745,0.003374362,-0.0064877463,-0.0066161607,0.00811142,0.009505462,0.008140584,0.0015104342,-0.00879589,-0.007597166,0.0015720784,-0.009527631,-0.007410209,0.0020241237,-0.0029211687,-0.00915701
mi,0.006450384,-0.0089286575,-0.0073886695,-0.0018198529,0.0017753558,-0.0011391016,-0.005160574,0.006699157,0.008759211,-0.0074185315,0.009783163,0.007352747,-0.0074566435,-0.0018814547,0.0043191114,0.007117954,-0.003669189,-0.007066174,0.0047640307,-0.009127528,-0.0058744233,-0.0011907582,0.005448963,-0.0056863385,0.0047560106,-0.00041051666,0.0026870957,0.0064035133,0.0013570539,0.0076920767,-0.00028862,-0.0082833255,0.009145626,-0.0049095172,0.0047352314,-0.003847876,-0.0073485277,-0.006521107,0.004692162,-0.00074510305,0.0014480662,-0.008974193,-0.00517619,-0.0060228165,0.008486573,-0.008620241,0.0050084223,-0.0008590389,0.00017412739,0.008842128,-0.0036188792,-0.006932111,0.0007643269,0.0077767223,0.009154178,-0.0037156509,0.0027325496,0.0049671126,-0.005342959,0.0069173514,-0.006448614,0.0020710442,0.0045775487,0.004423116,-0.004675195,0.0026666876,0.007314528,0.008651922,-0.009558098,0.005636603,0.005002604,-0.0015690225,0.009268391,-0.0041653984,-0.0016792088,-0.0068717394,-0.0038220116,0.00028701356,-0.003300193,-0.005452876,0.0065504317,-0.005204846,-0.006356968,0.007685015,0.009661467,0.0039940435,0.00012206274,0.0009282256,-0.0009126042,0.00681798,-0.006169634,0.0005408475,0.004315988,-0.0020327456,0.00095662393,0.0037185566,0.009807317,0.0021083737,0.0095488755,-0.0058614425
subdur,0.004804783,-0.0036200676,-0.004292611,0.0011964482,-0.004076925,-0.005709509,0.0031744912,0.008385929,-0.0065753064,-0.009119464,-0.0033464532,0.007526506,-0.009696849,0.0096255,-0.0003948097,0.0023223315,-0.0018317677,-0.0057726027,0.003127768,0.006155243,-0.007078718,-0.0011308461,0.0015566978,0.004263996,0.0071376855,-0.003566762,0.0072708856,-0.0055866623,-0.0022284575,0.009061534,0.005401827,-0.008494322,-0.0016598959,-0.008859555,-0.0016258688,0.00569601,-0.007444904,0.0054847044,0.0060764574,-0.0038121657,-0.00966674,-0.0025337578,-0.002564276,0.0037830505,0.0089447545,0.0020404558,-0.0021187677,0.0029446767,-0.006801515,-0.0012731402,-0.0015024816,0.009633167,-0.005830691,-0.0070174336,0.0023732965,0.0026194856,-0.0071415687,-0.0058823535,-0.0011793413,-0.0032739113,-0.008971459,-0.0040636943,-0.002969958,0.0065025175,0.0009560732,0.001638266,0.00026122172,-0.00339698,0.0030815506,0.0007330829,0.0059962217,-0.0007883685,-0.008869336,0.00090712175,0.009963007,-0.0052413763,-0.0052332883,-0.0025106943,0.008535975,-0.0008441293,0.009389639,-0.008270793,0.008987346,-0.009684323,0.009189815,0.0018787674,0.0027102958,-0.0057975533,0.008466429,0.0060178298,-0.005445699,-0.0095127765,0.006952231,-0.005473086,-0.009301494,0.0025972973,-0.0049324976,-0.007409577,0.009719278,-0.0015958792
stroketia,-0.0015110135,-0.004034504,-0.0043988526,-0.0046293857,-0.005595714,-0.0053018034,-0.008022303,0.009518845,0.0063990653,-0.0036066938,0.0024784422,-0.0076424945,0.0075231018,0.008304736,0.00078943017,-0.006832991,-0.002957728,0.004733969,-0.002939384,0.0031764733,0.009408716,0.004353106,-0.0051454795,0.005467093,-0.0028791917,-0.0063939407,0.0070078014,-0.009253933,-0.0011306572,-0.0013853407,-0.008415947,-0.0011023998,0.0055972575,-0.005267652,-0.007026136,0.0062002684,-0.0034264398,-0.007819556,0.00029337048,-4.9802064e-05,0.007540907,0.00056930183,0.007882459,-0.009812782,0.0040332675,0.00621811,0.0010294437,-0.002836411,0.0010266149,-0.00083912135,-0.008108269,-0.0067834724,0.001200155,-0.0020178736,0.009549418,-0.0009494269,0.0061186957,0.002046138,0.008099689,-0.00929052,0.0023927295,-0.0014512575,0.0021549999,-0.00021979929,-0.006640631,0.009050456,-0.002843398,0.001914314,-0.006441698,0.003714218,0.009995805,-0.0011962545,0.006580218,-0.00012432098,0.007928181,0.00965093,-0.00039128662,-0.0016983438,-0.009521616,0.009874873,-0.0025329662,0.0021891915,-0.0016988862,0.008327348,0.008343778,0.0015368855,0.002885666,0.0064340653,0.0022477007,0.006444316,0.00014674067,-0.002285471,0.0053072535,-0.0034152747,-0.0026156104,0.008791729,-0.009154693,-0.0034136428,-0.0029241275,0.00566893
hip,0.007961953,-0.0064171623,0.0058116857,-0.00024826743,-0.009000594,-0.0024942053,-0.0015535844,-0.00445364,-0.0008500238,-0.0052484716,0.005919458,0.00927603,-0.0015580738,0.0034140002,-0.0007102341,-0.0006852038,-0.0069948477,0.0014476655,0.0038805758,0.0068843993,0.0065544005,0.003560577,0.004614067,-0.007445256,-0.0014348023,-0.005774606,0.006804455,0.007803642,-0.0043086717,0.0011706755,0.005185295,0.0017823423,0.0007491749,-0.006776735,0.009844406,-0.007196449,-0.0060261735,-0.0056647114,-0.006335358,-0.0035575468,-0.009438003,0.0011536637,-0.0037813913,-0.0025499174,0.005787483,0.003614243,0.0018119345,-0.001368078,0.009897848,0.00027085707,0.0050135106,0.009000621,-0.009785576,-0.009126106,0.009967329,0.0027474116,-0.0019040478,0.004718553,-0.004321935,-0.0063733496,-0.008263212,0.0072079618,-0.0024509213,-0.007525795,-0.0058972184,0.006195693,-0.0024893894,-0.0061846264,-0.0016339867,-0.0014215419,-0.0032561508,-0.0021011576,0.00412546,0.0014219886,-0.0034610205,0.0027199103,0.0051915864,-0.009171445,-0.0075719887,0.0062929057,-0.008984092,0.00057482213,-0.009042134,0.0084070135,-0.004323022,-0.006614013,-0.0013771598,-0.0010686577,0.007612329,0.009110693,-0.00029778114,0.002724863,0.004737488,0.00016087992,-0.0057704807,-0.0006255867,0.0022010219,0.008252877,-0.0035679773,-0.009840416
tracheal,0.005407748,0.009828027,-0.007049972,-0.00061133853,-0.005048235,0.0063520544,0.009695982,-0.000256574,0.005072183,0.0065201945,0.004396776,-0.008048769,0.0031383133,-0.0014713602,-0.0021178985,0.0054512904,-0.0013199783,0.009905341,-0.00061937864,0.00018075242,-0.00228219,-0.008458669,-0.009840258,0.004939898,-0.0066611953,0.0029686755,0.0027578396,-0.0070000743,-0.003131587,-0.0058284565,-0.008531481,3.985157e-05,0.009757455,-0.0066801948,-0.0043257726,0.0083937785,0.009314871,0.009779781,-0.009913069,0.004976593,-0.006668104,0.0068615223,0.0061024376,-0.0033413428,0.0069170836,-0.007858808,0.0045504235,0.0045479913,0.005918377,0.0058632316,-0.0026910808,0.003903297,-0.006125455,-0.0064369095,0.0027455578,-0.009486041,-0.00031517426,0.0010692877,0.00800784,-0.006976716,-0.0023712886,-0.004125363,-0.0052196677,-0.00047242118,0.0045972145,-0.00494165,-0.0016522752,0.008668075,-0.0013507829,-0.0035221125,0.007420542,0.0012159683,-0.0003404632,0.0094882855,0.008153176,0.0034462698,0.0033347178,-0.0022756187,0.008056662,0.005086367,-0.005466636,-0.006073781,-0.0006139877,-0.007867037,0.0033440187,-0.009210161,-0.0015015253,0.0034307714,0.0031005924,0.0031601614,-0.009007295,0.003434118,0.0053248988,0.0035011745,0.0078224735,0.0016622673,0.0063217757,0.008776424,-0.00090369955,-0.0008096436
fall,0.0022562097,-0.0075213206,0.0056112753,-0.004990618,-0.0032457858,-0.0018600102,0.008246792,0.0022814227,-0.0009499924,-0.0028524278,-0.0020950711,-0.0012955694,-0.005095676,-0.0041278107,0.00020021066,0.0045709466,0.0017974284,0.006873114,0.00062807667,-0.003241002,-0.0073994226,0.0060694194,0.0069640502,-0.0060339575,0.0046849414,0.009488791,-0.006382958,-0.0028750983,-0.0091140345,0.0032168047,-0.0034271067,0.0020558133,0.009436257,-0.0084109465,-0.009326813,0.0017496612,-0.008024343,-0.009111767,-0.009362179,-0.00033780123,-0.0011010811,0.00071556243,-0.0013627311,0.009071803,0.008829312,-0.006322636,0.008703831,-0.009046133,-0.0013015907,0.0025231268,-0.00010603441,-0.0037973023,0.000463489,0.0010124086,-0.009428363,-0.0049225795,-0.007718294,0.0038109578,-0.00087203,-0.0074703796,0.0056522656,0.00026201643,0.0027124435,0.0054443195,-0.0042467695,0.0078787375,-0.007894048,-0.0034340555,-0.007411553,0.0009775305,-0.0074085463,0.009070677,0.0055605927,-0.0072215223,0.006214349,0.0066193957,-0.0074481,0.0046616322,-0.007735792,0.009308488,0.004702578,-0.00020728495,-0.008958669,-0.0008858314,-0.00027036894,0.00091126957,0.008704901,-0.002755054,-0.008680996,-0.008840354,-0.0010309508,0.0013925863,6.633369e-05,-0.002167142,0.00857847,0.0001025019,0.0064275614,0.003958757,-0.0071898676,-0.002151992
effus,-0.007781991,-0.006750822,-0.003173792,0.0065811207,-0.00081749464,0.008857786,-0.0022686757,-0.005262845,0.003919127,0.002202017,-0.00029030888,-0.0024714158,-0.006006361,0.0040521743,-0.007597059,-0.008911248,-0.009156862,0.008349617,0.0040092003,0.0070413034,0.009891853,-0.0071863267,0.0040129055,0.0028012246,0.0061311675,-0.0034128337,0.009334601,-0.005837452,0.0070206043,0.0069334134,-0.00037257423,0.005053547,0.0066510336,0.0015400271,0.007364,0.0024291754,-0.0015185776,0.0074070543,0.004674164,-0.0032084787,0.0016653242,-0.00012636583,0.004972068,-0.005396687,-0.0041593057,-0.00093067647,0.0038332783,-0.0065957424,0.007858855,-0.0030781322,0.0057449015,0.0028555726,0.006819735,-0.0044742553,-0.0032022959,0.0030480884,-0.0027461099,0.005944787,-0.0059836507,0.002617524,-0.0007207599,-0.0005977315,0.002545592,-0.002182013,-0.004255538,-0.008526525,0.0024625505,0.0053157904,-0.00588239,0.0091263,0.004039561,-0.0051852386,-0.0013024247,0.0039432063,-0.0069752703,0.00205015,0.0055098752,0.006261763,0.005403645,0.0036525347,-0.0027609156,-0.006047591,0.008152979,-0.007266043,-0.0016236877,-0.0032432326,0.006504721,-0.006234062,0.003394461,0.0020652914,-0.0040226947,-0.008231325,-0.008060046,0.003527878,-0.009533958,0.005721395,-0.002906948,-0.009195616,-0.00512001,0.007736919
diseasecoronari,-0.0017137893,0.006548718,-0.009373231,-0.009271438,-0.0050447364,0.00078137015,-0.0070596146,-0.009266894,-0.009033511,-0.00045091627,0.007363689,-0.008399543,-0.005380212,0.0016125455,0.0034422018,-0.008455739,0.007865194,-0.008384983,0.004716356,0.0092201885,0.0055737374,0.0064171706,0.008165831,0.0033963122,-0.007181814,0.005671945,-0.00832512,-0.0058555827,0.0057316655,-0.007965858,-0.0057829907,-0.0036031278,0.00336146,0.0051406575,0.0020804587,0.005267096,-0.0026864135,0.0043671173,-0.0069861994,-0.0019703086,-0.007835783,7.136935e-05,0.004660678,0.0049220975,-0.0046015163,0.0018861007,0.007813653,-0.0055622063,-0.003837925,-0.00053105573,-0.004677726,0.008722549,0.0075466936,0.009273613,0.00944042,-0.0085558025,-0.00038125846,-0.007587466,-0.0048966845,-0.008801977,0.0034416928,0.00014862843,-0.006944208,0.007914151,0.0008979528,0.00036307218,-0.00360757,-0.003299452,-0.002802502,0.007738355,0.002590339,-0.0051057423,0.004890234,0.0011447597,-0.002607514,0.0077279587,-0.004049602,0.007493003,-0.004328448,-0.0074894056,-0.0044673537,-0.0036815861,-0.0007896639,-0.0017674711,0.0051612086,0.0054767234,-0.00162718,0.003960669,-0.001982376,0.00080133317,-0.0011094947,-0.002338715,-0.004797116,-0.004137072,0.0002062998,0.0016691828,-0.009323235,0.0058912337,-0.0015926218,-0.0031343247
obst,-0.004811655,-0.004303516,-0.0048288396,-0.009861413,-0.00076468405,-0.0078922445,-0.0047956365,-0.0072680633,0.009928778,-0.0013821085,-0.007796436,0.0054835575,-0.008084164,-0.001894953,0.0028142172,-0.007066303,-0.008774266,-0.006702118,0.0074980296,0.008957286,0.0039625154,0.0024690742,0.004099905,-0.004086272,0.009753528,0.006888757,0.0041325907,0.008913333,-0.008424902,0.0008882024,0.0088773025,-0.00093071046,-0.006796575,-0.0022884891,-0.0027850473,-0.0024598176,-0.0018658096,0.0072842413,-0.00029517082,0.0041997274,-0.0036962093,0.008234799,-0.006545735,-0.009332926,-0.004105893,-0.007356652,-0.004883922,0.00046544056,0.002412596,0.0017374735,0.005032351,-0.0013971375,0.0022853,0.00037452314,0.007837921,0.008039036,-0.001978125,0.0012215553,-0.006000699,-0.004735049,-0.006966733,1.6950959e-05,-0.004889597,-0.0040902183,0.0014983501,0.0026495717,-0.009169926,0.0017656058,0.005094405,0.0041925344,-0.0028456063,0.009508621,0.009489072,1.7907128e-05,0.0009126591,-0.009256496,-0.0048094825,-0.00011190373,0.003983658,0.00016702086,-0.008759225,0.0059021185,-0.0074654375,0.008610799,0.005494056,-0.0067743384,0.002912375,0.0078053833,-0.006060444,-0.006577528,0.009283358,0.0018349063,0.009730174,-0.009817924,-0.0014154384,0.0069172564,-0.0014112709,-0.0018263663,-0.0071277707,-0.0056664078
bypass,-0.0065041077,0.009017028,-0.0016957538,-0.008431652,0.008205364,-0.0031296755,-0.001226357,-0.0005296907,0.002743335,-0.004750247,-0.00021654593,-0.002956706,0.008751827,0.0069520916,0.0011428482,-0.00610159,0.0031710719,0.00097423117,-0.006050846,-0.0059698904,-0.0031323673,0.002523974,-0.008162221,-0.005034732,0.008024045,-0.0037821492,0.007993715,0.00043855803,-0.0056156227,-0.005031846,-0.00014026724,0.004604373,-0.0060954336,-0.0055682026,-0.0068153734,0.0068624844,-0.002433788,0.004015988,-0.0016305975,-0.0076634684,-0.0012173433,0.00038250163,0.00353083,-0.008563921,-0.0067782574,-0.0064775846,0.003042507,-0.0037689374,0.0009894036,0.004192345,0.00456342,0.002342894,-0.002835001,0.00064994325,-0.00534393,-0.0064672106,0.00879854,-0.0040304204,-0.00938358,0.0038246685,0.008512142,-0.0002100884,0.0023263989,-0.0035608215,-0.0041997563,-0.008609011,-0.007869231,-0.009089962,-0.006113637,0.008557717,0.00958392,-0.0016769485,0.00015476099,0.008003405,0.0013727238,-0.0051860744,0.002579723,0.0018201529,-0.0038443417,-0.0050176783,0.009623191,0.007861764,-0.008665203,-0.0055038803,0.001427012,0.0009343666,-0.008208952,0.00954855,-0.005352154,0.004662202,0.0095373215,0.0011752442,0.0041702124,-0.0025974612,-0.009562737,0.0006106642,-0.0010348442,-0.010064409,0.0070774048,-0.007469755
graft,0.00519442,-0.0042641927,-0.009289404,-0.0092193615,0.0063667307,-0.0054837572,0.0053544254,-0.001437814,0.009612589,0.0071070674,0.009910718,0.008346775,-0.007872557,-0.009490375,-0.005487443,-0.0008071865,0.005038025,0.0035775923,-0.0019778542,0.004904223,-0.0034319398,-0.006597337,0.004678922,-0.009840522,0.00084996794,-0.0050717844,0.0076145953,-0.0037851257,0.0027001302,-0.0063378154,0.009677762,-0.0056386814,0.0035340004,0.0031808082,0.008934536,-0.005411621,-0.0043903175,-0.0062410813,0.0061367955,-0.0048457333,0.00477832,-0.00091017695,0.007244755,-0.005973536,-5.323129e-05,2.7567417e-05,-0.0085274745,0.008696948,-0.0021307021,0.0064406795,0.00011251076,0.00506964,0.0021838376,0.00887782,-0.008307324,0.008296677,0.008733812,0.0010412657,0.0043491116,0.0038845367,0.0040993025,-0.0029586034,0.0028593051,0.00074090436,0.0047959266,0.008517139,-0.0078059467,0.00011087778,-0.008876713,-0.0014772097,-0.0089310855,0.0032068805,-0.001481751,-0.00056314416,0.0065786894,-0.00810519,0.0010642156,-0.0023738581,-0.0038973666,-0.007361709,-0.00800882,0.008506979,-0.007530559,0.004905714,-0.003797761,-0.0012256362,0.0029230888,-0.008367119,-0.0056119687,-0.007758956,-0.009219883,-0.0046860445,-0.0032371618,0.0005714425,-0.00059775065,-0.00790959,-0.003656001,-0.0029447482,-0.0063604726,-0.006451278
statu,-0.0026387365,-0.007854712,-0.008311484,-0.007610577,0.0036771195,-0.0077168844,-0.0036604097,0.006736716,0.0073228744,-0.0064197723,0.006796996,-0.00782384,0.00015816552,0.0067141014,-0.0027721531,0.009235761,-0.00037681535,0.0046438538,0.007004975,-0.008650567,-0.0061134133,-0.0071812146,-0.0012494398,-0.007100519,0.00012633242,-0.008140454,0.0005663983,-0.00044545738,0.0063807317,-0.008963269,-0.003094696,0.0059018405,0.009223763,-0.0018244566,0.00078523037,-0.0060085854,0.00079222245,-0.008150182,-0.0076068323,0.0012266686,-0.00010566042,0.005542939,-0.009829722,0.0016902307,0.0016209175,-0.0051799556,7.041091e-05,0.0060682306,-0.0066236835,0.0003049267,0.0039206645,0.0017065367,0.0028193027,0.008186712,0.0067253513,0.0034686015,0.007978127,-0.007725413,0.007571068,0.003938861,-0.0058420366,-0.0041386997,0.0064099664,0.0057393895,-0.009905776,0.0012743791,-0.00043850992,0.00082950183,0.007089091,-0.007151647,0.009730129,-0.009441804,0.0063013835,0.009575512,-0.0037098145,-0.009380359,0.006162052,-0.008998291,-0.008366455,-0.00086203334,-0.006649908,0.008850724,0.007819454,0.00082514365,0.007978832,0.009859149,0.0052618952,0.00443018,0.005465081,0.0064216754,0.0048563723,0.006477785,-0.007465914,0.008988728,0.00841043,0.009419929,-0.008911916,-0.0035097538,-0.00037523723,0.0040706214
motor,-0.008204251,0.00020589866,0.005967618,0.009554743,-0.0027736346,0.0017013189,0.006347722,-0.0018422147,0.001921846,-0.009350912,0.0006920321,0.0045281374,0.004497266,-0.009749044,-0.0050801253,0.0030348846,0.0015448555,-0.00477884,0.005937917,0.0033688059,-0.007880386,0.009989643,-0.00777659,-0.0030081999,0.009722384,0.0010828942,-0.0055273036,0.0010849205,-0.0041048527,-0.0067669577,-0.007712315,0.0047585475,-0.00900626,0.0040690303,-0.005539234,0.0055095665,-0.004341965,-0.005633207,0.0063766115,-0.008805353,0.001320138,-0.0021244907,-0.006778651,-0.0076182275,0.0067915595,-0.0044446443,0.004607183,-0.00970618,0.0018754374,-0.0019459515,-0.0059019467,-0.0027821455,-0.008665918,-0.003479525,-0.0025327282,-0.002308859,-0.005060029,-0.009216339,0.005407812,-0.0012381341,0.0061855135,0.0030859832,0.008546597,-0.003549519,-0.008979747,0.0014100358,-0.00907904,0.006081966,0.008445926,0.00047557606,0.007770714,0.0085371975,0.004264741,0.0055286977,0.009207057,0.0011237507,-0.008285182,-0.008348602,-0.0018752054,-0.0006416886,0.008847319,-0.009194986,-0.002570869,0.009188533,-0.0014599682,-0.009040801,0.0020844354,-0.0057280925,-0.0053796703,-0.0063651013,0.00027061393,0.007259365,0.0041006496,0.0082599465,0.008974068,0.0045500468,-0.0059542917,0.007029586,-0.009481335,-0.0048998673
sda,0.008052432,0.0079717655,-0.005452443,-0.0080132745,0.008103501,-0.003906307,-0.0040187873,0.0072810827,0.0053941365,0.0038032073,-0.0012388725,0.008686407,0.008463934,0.006969831,0.009093695,-0.005751827,0.0010307005,-0.0016544148,0.0063620037,0.009706557,0.0051553245,0.004185235,0.006444245,0.0059094317,6.888939e-05,-0.008351328,-0.0021903198,0.0090378085,-0.005106948,0.0010077538,0.0048966007,-0.006943384,0.00817069,0.0014526017,0.0024562255,0.008400596,0.0014851178,0.00083184894,-0.00942885,0.009766861,-0.009894228,0.008519697,0.005045903,-4.910156e-05,-0.007819309,0.0094153285,-0.0013879525,0.0053273444,-0.0030555231,-0.004929407,0.00016426443,-0.008027704,-0.0066842814,-0.009437984,0.005337643,0.00037638017,-0.0009154093,0.005103022,-0.0019751585,-0.0073498036,0.0028738664,-0.0059845597,0.0004958262,0.009456213,-0.0009784336,0.00620545,0.0044173324,-0.0035278264,-0.0052855154,0.008880576,0.0021290153,-0.00039782375,0.0009194353,-0.0048744166,0.0036115607,-0.0030884396,0.004137873,-0.0045303027,-0.0008725778,0.0038994225,-0.007158827,-0.0024179632,-0.008750655,0.0016164217,0.0019997153,0.0024028476,0.0011537716,0.00016108326,0.0022711076,-0.0009759191,0.0059638913,-0.0029059749,-0.0051418785,-0.005288828,-0.009609674,-0.008123114,0.0021800613,0.00391637,-0.005744194,-0.009754768
vehicl,-0.0060955198,0.0046730023,-0.009121747,0.0050532483,0.006424011,0.0060926015,-0.0076170554,0.0029356747,-0.0055050794,0.009054453,-0.004346685,-0.0024144542,0.0052220016,-0.0007393913,0.0051474236,-0.0041177967,0.0049263034,-0.009842869,0.006175479,-0.0013608402,-0.005677119,6.163295e-05,-0.0012772294,-0.00072061643,-0.0017696179,-0.009318087,-0.007817319,-0.006849815,-0.008693057,-0.0045243865,0.00921141,-0.0018416462,-0.007584706,-0.0059097637,0.003583006,-0.0026699668,-0.0015837754,-0.0042503607,0.0059287776,-0.00794289,-0.0075430456,0.007524819,-0.00699614,0.0022283958,0.00040199028,0.009686718,0.0042106523,0.002055046,0.0027218957,0.0023485194,0.0022311667,-0.0027481287,0.0040510567,0.0061441604,0.00899222,-0.0007445041,-0.0012068028,0.006492021,-0.008472368,-0.00061937084,-0.0066727065,0.004753335,-0.008967688,0.003279182,0.008970998,-0.002020467,-0.008827928,-0.008210784,0.0032867694,-0.0053638034,0.00651475,-0.001140784,0.007920946,-0.00046357594,-0.006159516,-0.005693519,0.00074875803,-0.0047655804,0.0065242527,-0.00356494,-0.005623573,0.0010614014,-0.0048568593,-0.0081647625,-0.005284289,-0.0018088871,0.00047536948,0.0037397274,0.0069651203,0.0067572775,0.0059745423,0.00039562563,-0.005868581,0.0091123525,-0.00060260325,0.004715228,-0.0013740866,0.005779253,0.0053651547,-0.007368371
casda,-0.0027359012,0.00011544712,0.00204387,-0.009319337,0.0048628966,0.0033422906,-0.0001558433,-0.0034788975,-0.0076464256,0.007592639,-0.008615949,-0.007413652,0.004487962,-0.008522776,-0.0032425136,-0.002065989,-0.001911546,-0.006829066,0.0043076943,0.0009763926,0.0036431039,-0.0012866852,0.0069356435,-0.009559951,0.005829392,-0.0051360736,0.0016797374,-0.006927782,-0.0024986747,-0.006474484,-0.0033483924,0.009725262,0.0026834118,0.0016023961,-0.006070583,0.0056100697,-0.00812274,-0.0023102092,-0.006483708,-0.0063783615,0.0022802318,-0.0033007788,0.0024149888,0.003926705,-0.006231064,-0.0017155077,-0.0027804696,-0.0097876545,-0.009846288,0.0010993592,0.004385557,0.0002513313,-0.0048788222,0.0036383949,0.0016602864,-0.009424875,0.007183802,0.0077851764,-0.007727739,-0.00074899266,0.006009205,-0.0027860526,-0.0003333124,-0.0042139683,0.0061160033,0.007041401,0.0020837307,-0.0047186594,-0.0018469881,-0.0040066065,-0.009769859,0.00784742,-0.0005937071,-0.0005904871,0.0071145156,-0.009024924,0.006318254,-0.0075724237,-0.005364853,0.0050809323,-0.003531115,-0.0034563085,-0.0063101607,-0.0038947193,-0.0026803922,-0.004081239,0.009479776,0.009477148,-0.00034037454,-0.00026754348,-0.0056191115,0.007945131,-0.0049456297,0.0059015257,0.009138051,0.005765533,-0.0009145516,0.0055084107,0.00694763,-0.003895069
upper,0.00064440735,0.006494498,0.0058878735,-0.00019797214,0.0023883695,-0.006562856,-0.009356293,-0.0048988173,-0.005359942,0.00054179906,-0.0039666034,-0.00039428554,0.007656889,0.00974677,0.007872435,0.0023899542,-0.0027227295,0.0024034877,-0.0027316646,-0.0090214135,0.0069070356,-0.008632086,0.0037540218,-0.003939824,-0.00557881,-0.0010259696,-0.006548232,0.008567306,-0.0068866075,-0.0089691505,0.0057913717,0.004492626,0.004708683,0.0024066183,-0.003734865,-0.0050617387,0.00178611,0.008332678,-0.0056909,-0.002385552,0.001860964,0.0067212973,-0.0064149452,-0.00454454,-0.0025951017,0.0013160702,0.0053709676,0.005529173,-0.0087137045,0.0072659603,-0.0024919633,-0.0028572988,-0.008855874,-0.0057851155,0.009435637,0.0030660585,-0.008059182,0.002782566,-0.0070829825,-0.00903436,0.003873259,0.0020376164,0.0012690424,0.008828758,0.0062678005,-0.0050781462,0.002722427,0.002555327,0.0023926469,0.008328565,-0.006912338,-0.0022886293,0.001008324,0.00639852,-0.0006398111,0.007937204,-0.004670545,-0.009046815,-0.0070715416,-0.0041422434,0.009561734,-0.005093669,-0.004855207,0.008181665,-0.0074551245,0.0020178554,0.0057863584,-0.007507106,-0.0002527487,-0.0023769494,0.005561923,-0.0045234207,-0.0066011976,0.009891701,-0.0045974087,0.007614406,-0.008451204,0.006996109,-0.0033872284,-0.007801065
pulm,-0.0012186775,-0.0023923698,-0.0018428242,-0.0011969397,-0.00645215,-0.0036605492,-0.00316805,0.007813826,0.0058072824,-0.0009264229,-0.00487757,0.005259446,-0.00880342,0.0016623231,0.004073879,-0.0019387114,-0.0045383237,-0.008273617,-0.008270975,0.0070722033,0.003649786,-0.00031902007,0.009644962,-0.008519886,0.0006054687,-0.00047894803,-0.008099161,-0.009121295,0.0071386695,-0.0037093922,-0.007884081,0.007996337,-0.0062940563,-0.0032009592,0.0018050222,-0.003316016,-0.007965951,-0.003981047,-0.009022274,0.0013186897,-0.004630922,-7.833989e-05,0.002643607,-0.0023292447,0.008906309,0.007102877,-0.00057840033,-0.00064055575,0.0008913564,0.0067445165,0.0089740595,-0.0019257151,-0.0016000466,-0.0029977032,0.0005162511,-0.006501469,-0.001875909,-0.0086712,0.00070737104,0.0015211921,0.003719966,-0.0028256995,0.0059716604,-0.007137527,0.009777574,0.00055567967,0.002232093,0.0043949145,0.00039280794,0.0026143226,0.0016501617,-0.009615403,-0.003073404,-0.0025727982,-0.009195665,0.0034127603,0.0048017516,-0.002092502,0.007387715,-0.0012194228,-0.00035738535,0.005893007,-0.008488549,-0.0068782363,0.0073056296,-0.0065758587,0.008522019,0.005452063,-0.007985206,0.008368735,0.0064113326,-0.0066873035,-0.008458092,-0.008742539,0.003908344,0.0064027123,-0.0020410176,0.0012860167,-0.008421889,-0.0051480266
mitral,0.0046906197,-0.009064174,-0.009266232,0.0009940123,-0.0085402755,-0.0069981166,0.0047771395,0.008038844,-0.007372158,0.008104837,0.009391345,0.0047028936,-0.004434099,0.009679048,-0.007682221,-0.003902958,0.0019424153,-0.007663132,-0.009885395,0.002851129,0.008170563,-0.0050590616,-0.004327466,0.0038909293,0.00070076983,-0.008574128,0.0065536587,-0.0031798643,0.003560673,0.003128991,0.008897806,0.008740273,0.0072982097,-0.008316818,0.0011929673,-0.000915827,0.000867585,0.008908631,0.0047733663,-0.00899814,0.009808261,-0.00091122853,0.00038764393,0.0049819867,-0.00620166,-0.00037884162,0.00137226,0.0070485985,0.00429906,-0.0019403565,-0.008449619,-0.0038692898,0.008785243,-0.009465671,0.009835515,-0.0001647222,-0.0011127203,0.009586552,0.009554097,0.008300497,0.009007358,-0.009958174,0.007521613,-0.0094038155,-0.0077281026,-0.008816437,0.002137821,0.0072065056,-0.006348295,-0.0026995742,-0.0023320378,-0.0044777007,-0.0012811564,0.00488508,0.0037543862,-0.0032578441,-0.0037178458,-0.0023199485,-0.0032690768,0.0038933596,0.00972912,0.007919002,-0.0075806794,-0.0064314734,-0.009119504,-0.0059175896,0.0036472853,-0.005952673,0.0017121541,0.008874623,0.0034124914,0.0012062675,0.008930011,0.006434232,-0.0014248417,-0.006189202,-0.0010318301,0.0072462754,0.007509433,-0.004076483
cancersda,0.009933086,0.0024029869,0.0051263603,-0.0056945393,0.0043990808,0.0002351842,-0.009583401,0.0050828946,-0.009010484,-0.00647191,0.0027745534,0.009262449,-0.0021332472,0.006966576,0.0050672116,0.0040535387,-0.0062031164,0.0050652325,-0.008305406,-0.0043215114,0.0054448918,-0.008130038,0.005728452,-0.0034981405,1.9094374e-05,-0.0073570684,-0.0062385015,-0.0032953562,0.008595728,0.0053338087,-0.0096999,-0.0065849163,0.0034261048,-0.008524563,0.0066560935,0.00615495,-0.009305142,0.008638227,0.007849285,-0.0018122923,0.0017718114,-0.0056927605,0.006198192,0.0077087786,0.0040721158,-0.008859255,0.004955792,-0.0030624017,-0.0021939704,0.0061115935,0.0018440749,0.0046328185,-0.0062732943,0.005243794,-0.003550236,-0.00039414564,0.006232269,0.0040773423,0.007467675,-0.003909348,0.0035283735,0.007327342,-0.0032802331,0.0057460982,-0.009417764,0.008856909,0.0037510896,0.0053264494,0.0046334043,0.0045822607,-0.0033014512,-0.0062126284,-0.0022658103,0.0013935282,-0.0029244788,-0.008482352,-0.0062896316,0.008336284,0.009320135,0.00595407,-0.004126595,0.00071156526,-0.0085837785,0.0066747093,0.00047707153,0.0073693674,-0.005351388,-0.0028224604,0.0028488536,0.003458932,-0.0065354886,-0.007350149,0.0020368353,-0.009006678,0.00581477,0.0054840785,-0.0037969819,-0.005653802,-0.008315657,-0.0019053719
gastrointestin,0.00697013,-0.00020182645,-0.007953541,0.008888803,-0.008550085,0.0055554034,0.006473074,0.0009882787,-0.008700178,0.006166189,-0.007849243,-0.0050220825,0.009626055,-0.00828302,-0.0076183565,-0.004900934,0.003456743,0.0019098121,-0.0055565652,-0.003290962,0.008576254,0.009767701,0.009915544,0.0010379021,0.0040391297,0.0013627047,0.0016664434,0.004827818,0.0022048373,0.0002869505,-0.0031584841,-0.006519037,0.007990853,-0.0059722085,0.002785607,-0.0009288087,-0.003651181,-0.0049344925,0.0032221412,-0.0058488296,-0.007480141,-0.0026504635,0.0046822242,0.0060500423,-0.0014541749,0.0072907154,-0.0075958576,-0.004739313,-0.007865724,-0.0060434784,0.0073018996,-0.009278489,-0.0086471,-0.009813366,0.009206461,-0.0026566857,0.0010015101,-0.0061298674,-0.0025317944,7.120053e-05,-0.0024925272,-0.0073684463,-0.0061862557,0.0025316016,-0.009501557,0.0011482488,-0.0019935917,0.00827549,-0.00039374092,0.0062120236,-0.00708529,-0.0075648553,0.0055470048,0.0009482455,-0.0050893994,-0.0026545422,0.008778705,-0.009175314,-0.0036736669,0.0010063677,-0.0002095542,0.009518292,-0.0019339694,-0.0070962394,-0.0076744724,-0.009890209,-0.007808264,-0.0060276263,-0.0059438087,-0.0013973472,-0.0005349511,-0.004715231,0.0021296917,0.003881241,0.009041781,-0.0046475437,0.0051278723,0.007252307,-0.0037705214,-0.007440297
infect,-0.003341706,-0.006892503,0.0064656497,0.0093969675,0.008319649,-0.008620415,0.005093576,0.0051489733,0.005566256,-0.008340758,-4.830166e-06,-0.0068388013,-0.00893856,0.0025153416,0.009969009,0.0064999154,-0.007076815,0.0023285444,-0.0039055815,0.009910867,-0.008829892,0.009778903,-0.0065780017,-0.0070246547,0.001639779,-0.0006944242,-0.008529082,-0.0006232197,-0.00039227924,-0.006303471,0.005794131,0.00317429,0.008408592,0.0073890127,-0.0066354754,0.0048397253,0.005688444,0.005766901,0.0052263825,-0.0048692846,0.0043255934,0.0012636456,2.8184946e-05,-0.006438883,0.001541381,0.0052914573,-0.009230628,0.008615948,0.002993532,-4.8929323e-05,-0.003363233,0.00038174578,0.006108182,0.0047939243,-0.0059501966,0.007874607,-0.00064393925,-0.008182574,0.008866749,0.0051131244,0.0036480476,0.007915332,-0.007528296,-0.005869743,-0.0020252573,-0.0040757097,-0.0016147872,-0.0005736904,-0.008419438,0.0019288508,0.0025711865,-0.0008375503,0.004897251,0.0015020593,0.0060400716,-0.0022351034,0.008496597,-0.0015587872,0.0030657337,-0.0038137306,0.0061273,0.0031573514,0.0005154885,0.008778173,-0.007842723,0.009727911,0.0008149637,-0.002319673,-0.0040809303,-0.009123642,-0.0021633036,0.0027080432,0.0065737856,0.009100601,-0.008726243,0.009056143,-0.008829813,0.0036718624,0.008050103,-0.0025376112
diseas,-0.007870698,-0.008329565,0.001143404,-0.00077081483,-0.009507545,0.0029986114,0.0022664166,0.0045117335,0.004399891,0.00319716,-0.009853719,0.0056812433,0.004255838,-0.0077663995,-0.0020699282,0.0003890986,-0.000642503,-0.0010442489,-0.005519153,-2.0573189e-05,0.0043772445,-0.0005928752,0.00079040613,0.0020656297,-0.0039670137,-0.007833135,0.009135426,-0.009783511,-0.0025157416,-0.0013095377,-0.0076734475,0.0017631117,0.007914195,-0.0015441497,0.008125307,0.00034216853,-0.0057439497,-0.0020133094,-0.0007303801,0.0062084543,0.007090103,0.0061841873,-0.0060484298,-0.0069676195,0.0061508543,0.0025088883,0.005333149,0.0004488547,0.007903259,-0.008915115,0.009894368,-0.008220141,-0.0017136977,0.0063128825,-0.009232597,0.004323757,-0.0069599533,-0.0068699247,0.002368861,0.0017719566,-0.0028034074,0.007889252,-0.0070069446,0.00045492008,0.008721347,0.0020800515,-0.006946903,0.0035490857,-0.0050485274,0.00058828166,0.0028508473,0.0076272325,0.007432803,-0.0048643705,0.009526876,-0.0054752068,0.0075743888,-0.00799847,-0.007860648,-0.001079459,-0.008189268,-0.003379612,-0.00051321264,5.998562e-05,-0.009990425,-0.0064827176,-0.0073813545,-0.00030648246,0.005239376,-8.9092806e-05,0.010015477,-0.0038673505,0.0080789225,0.006143352,0.008360535,0.00013831831,-0.00037303683,0.0018552403,-0.009969019,0.00900751
lung,-0.0023796463,0.007581453,0.002021704,0.0028880169,-0.0012258864,-0.009947929,0.0014275422,0.0029220413,-0.009849275,-0.0039344225,-0.002387196,-0.0050825453,0.0039564827,0.002123047,0.004386684,-0.0064704367,-0.0060202517,0.004700574,0.0068132207,0.005490017,0.004795014,-0.007220089,0.008154649,-0.0069641164,-0.007707793,0.008490729,-0.0025011713,-0.009460999,-0.0031072795,0.00596777,-0.0028933398,0.0049053365,0.00011656695,0.004028841,0.0012125882,-0.0092920065,-0.0036589927,0.008864118,0.001542713,-0.005960137,0.0070187915,0.0074486984,0.007221784,3.6688507e-05,-0.009128114,-0.0034657994,0.0051252972,-0.006508544,0.009738873,-0.009760534,-0.008136859,-0.0053457418,0.0060345684,-0.00766277,0.008677997,-0.009861887,0.0034828624,0.003276338,3.071493e-05,0.009570453,0.0051277233,0.0003008313,0.0048474674,0.0064178114,0.0029977756,0.009419746,-0.0013516464,-0.008371365,-0.0044875243,-0.0014631076,-0.007262147,-0.0015472905,0.008003967,-0.0050305706,0.0051486157,0.0043713236,-0.0007104439,0.0010866505,0.005701251,-0.0066505657,0.0038950194,0.008956696,-0.0035352719,-0.007642588,-0.009233532,-0.00902874,0.0038995903,0.0051952447,0.0070953025,-0.0014558816,0.0010027004,0.0030760514,-0.009913236,-0.009373302,0.004633364,-0.008390216,-0.003153111,-0.0043193335,0.005912885,-0.0034877595
basal,0.0100163855,0.0005767442,-0.0051714154,-0.0036979017,0.0012597739,-0.0054083806,0.0074318256,0.009115675,0.004264954,-0.0073705935,-0.005990837,3.3795663e-05,-0.0009760153,-0.0055105914,0.007983552,0.006264349,-0.0041786428,0.0023620424,0.005182208,0.0023588825,0.008550176,-0.001255523,-0.0065932646,-0.0008477336,-0.008359918,0.009843372,-0.008635657,-0.0015161805,-0.0029010258,0.003143598,0.005001952,-0.008238711,-0.0044404943,0.00048479543,0.0040123244,0.0051761265,-0.0013935048,-0.0006728111,-0.0078302445,0.0044902326,-0.007678272,0.0032884853,-0.0034809452,-0.007798446,0.006918845,-0.00044790792,-0.009567959,-0.009414991,0.00058803114,-0.008184365,0.0037290407,0.0034591784,0.0033387288,-0.005591068,0.0080195945,-0.008976477,0.007443393,-0.00063035014,-0.0014692794,0.0040026517,-0.0024607307,-0.0043842043,-0.0024150359,-0.0061895805,-0.0004013848,-0.0053742277,0.0045559397,-0.0095629785,-0.004348743,-0.009130125,-0.009587035,-0.00073101727,-0.008057777,-0.00565875,0.0028430864,-0.0014164466,0.003086734,0.00827548,-0.009681699,0.0061006476,-0.007945377,0.006595679,0.0074413205,0.00867196,-0.007974715,0.0033549755,-0.007782849,-0.0012079999,-0.0051710727,-0.008552635,0.005011611,0.004486879,-0.004094661,-0.007753055,0.0036028298,-0.0039563505,-0.008840906,-0.0044573243,-0.0021522662,0.008738928
urosepsi,-0.0064564645,0.0073323892,0.0061229146,-0.004908136,-0.001758852,-0.0025048994,0.0031226445,-0.00045303107,-0.0027636087,-0.009045644,0.0064344313,-0.009615391,-0.008650444,0.0013819778,0.0029734327,4.7421454e-06,0.00037010072,0.0025892723,0.0018025708,0.007568313,-0.003446393,-0.0072333897,-0.00788418,0.007919614,0.0019462728,-0.005807856,0.006391193,0.008453579,0.007946606,-0.0068279803,-0.0051414394,-0.0020103382,-0.0066176713,0.004728824,0.005664438,-0.005995921,0.007199256,-0.007656555,0.0062029026,-0.004625329,0.0019614566,-0.0032713367,0.0033896612,0.0077184713,-0.0013945032,-0.004985187,-0.00856165,0.0036374521,0.004231018,0.0066972245,-0.004289763,-0.009732989,0.006821517,-0.0045247437,0.0044197715,0.008054533,-0.0039428137,0.0016341746,-0.0035891545,-0.0066137468,-0.005684339,-0.00013659001,-0.0075132754,-0.0019958054,-0.002487917,0.0067084394,0.0013637447,0.0058521964,0.0038193201,-0.0035164417,-0.005091473,0.009661293,0.007070396,-0.009044231,0.0052457834,0.008193034,0.0091923,-0.00805466,-0.0020131744,0.0010854984,0.0029083753,-0.001621958,-0.004704926,0.0064684176,0.006932578,-0.00038987756,-0.005843141,-0.0043717623,-0.0051488746,0.0042562988,0.0005137396,-0.002359662,-0.009084906,-0.0014964581,0.006431346,0.006324997,0.0042235423,-0.0028758978,0.00905161,0.00060097576
sepsispneumoniatelemetri,0.0011347234,0.006174861,-0.006593491,0.0065341983,0.009794316,0.0036727618,0.0034324396,0.004196546,-0.0019464791,-0.008096277,0.0014800942,0.0009046066,-0.006797297,0.0019593919,0.005443902,-0.007177912,0.0025119793,0.0077667725,-0.008621219,0.0035135662,-0.008564608,-0.007937057,0.007091025,-0.007565397,-0.0013685488,-0.007928683,-0.0078653935,-0.007103605,0.00040596127,0.001794883,-0.007906519,-0.008049076,-0.003180132,-0.001824404,-0.0061704637,-0.004226774,0.0036070598,0.0030711652,0.0065946756,0.0042466833,-0.00088664773,0.0027672017,0.009049989,0.001908176,0.0018196488,0.0011240005,-0.009286896,0.005351924,0.005043949,2.553463e-05,0.009212247,-0.0057180882,0.0032491565,-0.007811786,-0.0089405645,0.0020009638,0.004744922,0.0061003957,-0.008687585,0.0043530716,0.002398505,0.0041559553,-0.0006745219,0.005543709,0.007291638,-0.008386932,-0.009932266,0.0070149074,-0.00095197203,-0.009374607,-0.0040858854,0.0011912441,0.008426614,-0.0016904592,-0.0010216295,-0.0073646666,-0.007652612,0.0014624643,-0.00047345756,-0.0077002333,0.0008799255,-0.008988475,-0.002477033,0.0042172647,0.0011170149,0.007830691,0.006585375,-0.0011890733,0.0049564564,0.006129242,0.008731773,0.009078525,0.0049281693,0.0046114624,0.007185029,-0.0015663934,-0.005649698,0.008868068,0.0012105549,-0.0050547267
ganglin,-0.0008884447,-0.0052083097,0.009107336,0.0033613557,0.0043379418,0.0064405627,0.008224382,-0.004713647,-0.006417797,-0.0037411915,-0.0037431521,-0.009505198,-0.0005905579,-0.008109132,0.009787972,-0.0033998145,-0.0063162413,-0.008160671,-0.0035534569,-0.009616609,0.0007696244,0.0054935184,-0.0029152196,0.0076511516,-0.0018970189,-0.0073004263,-0.003135607,-0.0031842443,-0.0071552466,-0.009732481,-0.0040592477,-0.001593882,0.005011008,-0.0076558776,-0.0049801683,0.0014287024,-0.0016902977,0.0035281326,-0.0018972779,0.0042412914,0.008007825,-0.0079382965,0.0037238451,0.0060257968,-0.00053498487,0.006801113,-0.0054011326,-0.004582911,-0.007832004,0.00945238,-0.00939905,-0.0032701504,-0.00042018652,-0.004844779,0.009495929,-0.006852861,-0.008031837,0.00926897,-0.008305922,0.00975277,-0.0040736315,0.0056893458,-0.00038459298,-0.0039825155,-0.0075208996,-0.0062561654,0.0068365335,0.0063230903,0.00012221093,0.0064320136,0.0038690257,0.0038600771,0.0027515173,-0.009696978,0.009305941,-0.00820437,-0.003043435,0.001424825,0.005227188,-0.009282698,0.0016641307,0.0064459885,-0.008793833,0.009601845,-0.00524181,0.009573701,-0.00647567,0.0066783666,0.009404264,-0.0092087835,0.00040319163,-0.007711054,0.008123008,0.009649306,-0.005979158,0.00086257077,-0.0022163428,-0.0078105233,0.0008563686,-0.009956426
motorcycl,0.0025840919,-0.007705187,0.005664938,0.0075841495,-0.002563813,-0.0040542176,-0.009593495,0.004939411,0.0029007783,0.008754321,0.0033021646,-0.002919097,0.0035191113,0.008644936,0.009218828,0.007648226,-0.008563698,-0.0076214722,0.007266084,-0.007461596,0.0032218732,0.008078723,-0.0032032868,0.0067816037,-0.008190056,0.0064649256,0.0056022983,0.0032885813,-0.008156189,0.009160774,0.008300473,-0.0015799975,0.004110736,0.00637364,-0.0017623071,0.0054986468,-0.004046255,-0.0012929299,-0.0012028653,-0.004220899,-0.0007371512,-0.0076810955,0.0036101881,0.009079599,0.0048096017,0.006420084,-0.00471943,0.0048434422,-0.0066657425,-0.004970321,0.00986648,0.0063896608,-0.0049835164,-0.006088226,0.007263614,0.0027123392,0.006603089,-0.0067602983,-0.00095370197,-0.00094982533,-0.00019503506,0.002253873,-0.0067633823,0.0043740645,-0.002763276,0.008347548,-0.0010772542,0.009185396,-0.00082284346,0.005203513,-0.0075820177,-0.009139009,-0.00031766464,-0.0022449563,0.009997404,0.0045493864,-0.0056035523,0.0073810746,0.00053873623,-0.00957708,0.0057040667,-0.0019974145,-0.009434783,0.008728334,0.007232468,0.008539041,0.0003962774,0.007713617,0.0052092983,-0.0069573647,0.009307481,-0.0035339613,-0.009751982,0.008609636,-0.0052565066,0.008408567,-0.007833077,0.009296425,-0.005922093,0.003952642
seizur,0.00978409,0.004202155,-0.002127043,-0.0049552466,-0.009720695,0.004206293,0.0074358927,-0.004736222,0.005920967,0.006840651,-0.009016923,0.0020980537,-0.006839578,-0.0043298863,0.000856843,-0.007028967,-0.0041387584,-0.0075126137,-0.00702773,-0.006938139,0.00991433,0.008322913,-0.00018445491,-0.0026248468,0.0062486185,0.00133919,-0.008993888,-0.0070596277,0.0010280252,0.007934226,0.0031984712,0.009840041,0.006552087,0.0002949798,0.008651973,0.0089997705,0.008059152,0.009402272,-0.009382622,0.0035131024,-0.007812917,-0.0071413503,-0.008426254,0.0032024991,-1.05130675e-05,-0.0063514053,0.0055457377,0.007904219,0.0042972374,0.007832834,-0.0042779446,-0.006389071,0.003979193,-0.0029255378,-0.0071752034,0.003670503,-0.0033224297,-0.0051983013,0.0026289714,0.0068538594,0.006401373,0.00014903903,0.008650059,0.0029431654,0.006568195,-0.00089957,0.0021090256,0.006163751,-0.009793651,0.005828723,0.0012870133,0.006084757,-0.0014455986,-0.0026966953,-0.0055811987,-0.0028463923,-0.0025709784,-0.005147079,0.00097062945,0.007990416,0.0051383795,-0.0076500797,-0.0074191405,-0.0028935408,0.0039071646,-0.009318068,0.0061217356,0.0031166517,-0.0028216827,0.00919409,0.008061082,0.0007147682,0.004828162,-0.00930287,-0.008788269,-0.002946515,0.009276314,0.003234347,0.0056125904,-0.00677065
cancershort,0.0042479946,0.0004580919,-0.00090912974,-0.0032993637,0.005055004,-0.009232099,0.0051583885,0.0057712365,-0.0024652123,-0.004276296,-0.0074269697,-0.0064418637,-0.0051226714,0.0031760973,-0.0047493344,-0.0012105157,-0.00895357,-0.0035135718,-0.0007381373,-0.008054309,0.0032430955,0.009816323,0.0043239095,0.0018752678,-0.0049083596,-0.0011739427,0.0022526188,0.0017148614,0.008811029,-0.0009938206,0.0070280423,0.0057943817,0.0030469992,0.0073211743,-0.0049609398,-0.003899407,0.0070221135,0.008591188,0.0031566028,-0.004168753,0.007687238,0.0027368984,-0.0003010985,0.008886251,0.0043674395,0.003971683,-3.7582786e-06,-0.008976179,-0.003108429,0.0024469115,-0.005626148,0.0071329353,0.0074680327,-0.00894573,-0.005348262,-0.006019388,-0.00063341664,-0.001821569,-0.0020047133,-0.002166798,0.003606284,0.00965144,-0.00455509,-0.008331872,0.0037079256,-0.006458925,0.0066454955,0.002661982,-0.007919011,-0.0077127907,-0.009235922,0.0023444179,0.00278639,0.0026837653,0.0002116642,0.0010057754,0.0030776002,-0.0016039892,-0.008114524,-0.00064130424,0.0036857103,-0.002533547,-0.0021749896,-0.0022274898,0.0072747814,-0.0030190847,0.009509431,-0.0038393184,-0.009924364,-0.0065783584,-0.0042983457,0.0012748572,0.005139206,0.0022168544,0.009143459,0.0009294406,0.0056744856,0.00012628056,-0.0021191635,0.0061707553
metastasi,0.0020146396,0.008279253,-0.008297088,-0.008780155,-0.00048650726,-0.0019689102,-0.0022965574,-0.00051715615,-0.005105023,-0.008078375,0.008207419,-0.0033588503,-0.0028161458,-0.0015813119,-0.0012079976,-0.009176662,-0.0018119586,-0.0013603062,0.008703492,-0.008004458,-0.004738325,-0.0018547318,0.002821582,-0.006025309,-0.0055487966,-0.007992201,0.0055310857,-0.00875515,-0.0032722116,0.00025599997,0.0014644072,-0.009939919,0.008625735,-0.0020756088,0.0003794441,-0.008731753,-0.008168968,0.0037574545,0.003985842,0.0029171181,0.0058288807,-0.0069378037,-0.0012761687,-0.002691741,-0.0013632432,0.004486616,0.0013504411,-0.007483259,0.003275613,0.006246605,-0.0060963077,0.0032350153,-0.004346475,0.0088698305,0.0041470677,0.0020272194,-0.001050203,-0.009137825,0.008643153,-0.0017682976,0.0073843137,0.003783397,-0.0082308445,-0.0006267948,0.0027039433,-0.0025430892,0.009697565,-0.005001,-0.007160242,0.0038414886,-0.003550518,-0.0068679512,0.0020480822,0.005290447,-0.005450993,-0.0043575186,-0.0071971226,0.0015366003,-0.004802562,0.008463145,0.00071078533,0.0019345247,-0.003360978,0.0073850313,-0.0006670786,-0.008210382,-0.0072753145,0.00028492155,0.007816063,0.0030619132,-0.0052682064,-0.006720212,-0.00989435,0.003996462,-0.0094873095,0.00320606,0.0017020282,-0.00086391764,-0.009951218,0.0058829426
hematomasp,-6.245518e-05,-0.009913538,-0.007572992,0.008525958,0.0019207937,-0.008231271,-0.0007801559,0.005461415,-0.00930321,-0.0069143455,-0.0010212559,-0.009755532,0.00048577704,0.0019521429,0.008570879,0.0010069932,0.0013015892,0.004874498,-0.0042663575,0.0071877968,0.00013174469,-0.00061951374,-0.00973203,0.0004879383,0.0067858575,0.0017433552,-0.008116801,-0.0033413633,-0.0060661267,0.0059893676,-0.006481707,0.005260536,-0.0052998224,-0.006853685,-0.0075857537,0.0038271875,-0.008814499,-0.0057288646,-0.00705841,-0.0043528234,-0.004017483,0.001492501,0.006458995,-0.0011866682,-0.0054565645,0.0015668804,0.0056232987,-0.005317683,-0.005347484,0.005195942,0.00626827,-0.007773314,0.0082008485,-0.009860808,-0.0074339737,-0.0058829496,0.0018235943,5.6402438e-05,0.003459973,0.00702756,0.004807083,-0.003213325,-0.006416838,-0.008267878,-0.0004917983,0.00974545,-0.007712035,0.0036306535,0.004372302,-0.0043459884,-0.0069449954,-0.005430193,-0.0050399583,-0.0069575333,0.005976242,-0.0077963546,-0.002938444,0.0043897945,0.00013483671,-0.0076870415,-0.0047061658,0.0036571347,0.0025446063,-0.0019402681,-0.00073972857,0.0025327841,0.0014913352,-0.002600189,0.005363572,-0.0076955287,0.0064118127,-0.009980622,-0.0022534549,0.006713919,-0.0035730314,0.006543691,0.0054901433,-0.007440221,-0.00026763306,-0.0045042015
cath,-0.008053261,-0.0008927648,0.0063669025,0.00872496,-0.005048104,-0.0026695386,-0.006030065,0.0011752594,0.002649231,-0.009838121,0.0024068067,-0.008835844,0.00043016367,0.004783121,-0.005275706,0.0002712006,-0.0021676451,-0.008717676,-0.0024071117,0.004438151,-0.00857199,-0.0059215548,-0.0005612689,0.008053958,0.0013899845,0.009750453,-0.007676737,0.009000881,-0.004742401,-0.006354799,-0.0078026233,0.0018634938,-0.0027674835,0.007534153,-0.00051401946,0.0025392624,0.005961863,-0.008657365,-0.0020744195,-0.00481149,-0.008694959,0.0034097333,0.0024100642,-0.0024079175,-0.0018998843,-0.006710246,-0.0032601873,0.001311006,0.0077392114,0.007079568,-0.003601185,0.003607405,-0.0025896102,-0.004717438,-0.0036321788,-0.006169167,0.003487397,-0.007801543,-0.007527495,-0.0044735335,0.0073999655,0.0018076344,0.005462073,0.008219727,-0.006243459,-0.0046354444,0.007671052,0.0049393517,0.0046559935,0.009017253,0.008820091,-0.0026812465,0.0010548942,0.005488756,0.008921078,0.009855182,-0.008279276,-0.0051191794,0.004981852,0.0009541026,0.00014455443,0.007533347,0.0063908617,-0.007213479,-0.0026177915,-0.008490301,0.007059941,0.0027959198,-0.0022144031,0.0018673708,0.007683763,0.008153465,0.006164101,0.003158807,0.0015410098,0.008126189,0.0013289782,0.00041158535,-0.009527324,0.00252787
b,-0.008454307,0.0064992257,-0.0057909307,-0.0017489902,0.0009705743,-0.0019147471,-0.009111493,0.00400118,-0.006581024,-0.008806189,0.003904358,-0.0007727216,0.0065067736,-0.0070218197,0.00079888134,-0.0006722541,0.0057367706,-0.009744649,0.005942584,-0.00901452,-0.007810968,0.00075558486,-0.002676942,-0.0038931232,-0.005316317,0.0041319556,-0.009319109,0.0011809921,0.0042037847,-0.00028900887,-0.00049203885,0.007157493,-0.009555629,-0.009008188,0.004445325,0.008745732,-0.007777321,-0.008312606,-0.0006412586,-0.009058897,0.0021351648,0.009223461,-0.006144129,-0.0067685326,0.008911165,-0.00075583387,-0.003757603,-0.002725093,-0.008770461,-0.004639285,-0.004162228,0.00027534924,0.00069057196,0.007633884,0.0068389513,-0.0015123922,-0.009972922,0.002573538,-0.006098497,0.009081934,0.0037996015,-0.0010039286,0.006609553,-0.003484255,-0.003705881,-0.00030387938,0.008398062,0.005932947,0.0015473868,0.0037762728,-0.0029884523,0.009267384,-0.0071398336,-0.0032216744,-0.0052816193,0.008738361,-0.0031365885,-0.0023916091,0.007120023,-0.009672415,-0.0028954323,0.0029003893,-0.0062682033,0.008779025,0.0011670972,-0.0052232267,0.0049395105,0.008006214,0.0009383236,0.006810417,-0.006840978,-0.003601994,0.009911058,0.005683458,0.0016137979,-0.003491326,0.004426519,0.002515458,0.008347822,-9.3481134e-07
alcohol,0.008607393,-0.0058507845,-0.0076162335,-0.0014091994,0.0029579285,-0.0019763985,0.0058852904,-0.008414445,-0.009018074,0.0075762146,0.0063237166,-0.0040950147,-0.004026417,-0.0035602879,-4.6481247e-05,0.00908068,0.00096206384,-0.0020631163,-0.003386155,-0.0020979724,-0.0092208,0.0068379166,-0.00903466,-0.0030915458,-0.0071144607,0.0090748565,0.0057712626,-0.0004741885,0.0039079664,-0.0024396616,0.00980577,-0.0036233696,0.0048630955,-0.0038012555,0.009546351,0.009504209,0.006236317,-0.00024070076,-0.0017053619,-0.008659179,0.009328316,-0.008438732,-0.0065714763,0.005579193,-0.0022887508,0.007976988,-0.007879436,0.009190665,0.0022271276,-0.008544584,0.0039401827,-0.004955112,0.0063826265,0.0065990016,-0.0087508345,0.0064568017,0.0052704513,0.006482544,-0.007053521,-0.0065633007,-0.008872599,0.005255834,-0.0040223175,0.004812209,0.0047911988,0.00809851,0.0022379046,-0.0011049634,0.001454083,0.0029725062,-0.008771143,-0.0059372196,-0.00093267387,0.0049023214,-0.00015106972,-0.009662364,-0.00063800067,0.007145289,0.0063285716,0.0034818563,-0.0046000355,-0.0037097314,-0.002069179,-0.005979415,-0.008598505,-0.0005523694,0.001814414,0.0048421198,0.0035822736,0.008567062,-0.006762721,0.009303362,-0.0033598633,0.0008243408,-0.0042632427,-0.0040388666,-0.0014792379,-0.0075039202,0.008970479,0.004555546
regurgitationcoronari,-0.0022519655,0.0019637968,0.007764553,-0.005660892,0.0038904191,0.000671585,0.0029192695,-0.0020835465,-0.00992133,0.005902687,-0.0014368797,-0.008315012,0.00071541255,-0.006109074,0.007709374,-0.006413184,-0.0016333833,-0.00046618606,-0.0042813667,-0.0034595088,0.00732674,0.0019089032,-0.00943572,-0.00032223586,-0.009542317,-0.0032016605,0.0049717524,0.003658243,-0.005797206,0.0014561263,0.005867526,-0.007522855,-0.0034170551,-0.0024876697,-0.008893864,0.0021562167,0.0064780586,0.0024432412,0.002401683,-0.0009300911,-0.0008141155,-0.0062969173,-0.00047934294,0.0066373656,0.002960756,0.00059212215,0.007798726,0.0028255957,-0.007413281,0.007332015,0.0095776655,-0.0090849595,0.0072250464,-0.007586907,-0.00034260517,0.00458722,-0.0056935824,-0.007940186,-0.00734967,-0.009897961,-0.0066253613,0.009584675,0.0029537035,-0.009064588,0.008482799,0.0072161388,0.007866268,0.0096143335,-0.008746536,-0.0021258644,0.002146712,0.0024073708,0.0048670294,-0.0077062836,0.004885626,0.0099132825,-0.008972793,0.007944046,0.00316841,-0.0042089876,-0.0015359783,-0.008432484,-0.00754949,0.0055484357,-0.0031197448,0.009982748,-0.00799485,-0.0069508553,0.0061551016,0.007899823,0.003785635,0.0073099425,0.0064430176,-0.005732386,0.008728048,-0.0063603027,-0.0028649033,-0.006069295,0.0061348085,-0.004432239
mvr,0.0031216831,-0.0014965311,-0.001260012,-0.005940663,-0.005678511,-0.0037002661,0.00036448118,0.0015876815,-0.0033977986,0.0019254413,-0.005665056,0.009911446,-0.0007905875,-0.006861157,-0.0018009365,0.007964786,-0.0011259933,-0.005214313,-0.008007326,-0.00595488,-0.003207732,0.00785686,-0.0072455145,0.0014454811,-0.0001284712,0.003882447,-0.007955703,0.007918688,-0.002874899,0.00522886,-0.009452101,0.005053717,-0.008248893,-0.0033119237,-0.0011570813,-0.0035415685,-0.0007203322,7.70392e-06,0.0044931453,-0.0023796407,-0.0040468792,-0.0062169866,0.008240857,0.0046954174,0.009127766,0.0055909264,-0.004617941,0.008304089,-0.0069621284,0.0030483631,-0.0033257555,0.00028249738,0.0037691428,-0.0028095504,-0.004391726,-0.0020070907,0.00055407267,0.0064109373,-0.0059217187,0.004708125,-0.0037120106,-0.007950956,-0.0055994056,0.0018568357,0.0087527465,0.007944463,0.009155666,0.006879607,-0.0030601425,-0.0023495718,0.008851147,0.0065078274,0.006084826,0.0069378153,0.0017238721,0.002427104,-0.008250197,0.007556101,0.0093858875,-0.0071255,0.0011167763,0.008878543,0.0036292854,0.006993092,0.0076058097,-0.0018663283,0.008963357,0.006118144,-0.0018385964,9.8022174e-05,0.009848443,0.0058848914,-0.0067485734,-0.0034187217,-0.0034303404,0.0030956676,0.0011463707,-0.008707662,0.0022158409,0.009541744
valv,0.0023759173,0.0043474664,0.0019009835,0.008026828,0.009027011,0.0030131047,-0.0024029184,0.0037363651,-0.007823021,0.007989116,-0.004054471,0.0098854,-0.009578767,-0.0024904662,0.008998038,-0.0041002715,-0.001965473,0.004956406,0.009344691,-0.00046712253,-0.0068293726,0.010150303,-0.0096236775,0.0012501177,0.005601704,-0.007910503,-0.0056422013,-0.009104956,-0.0001284718,0.0049226657,-0.0081842095,-0.0030744784,0.008388503,-0.0045000846,0.003175798,0.0036015897,-0.003568155,-0.005205339,0.008377391,-0.0027068504,0.008949627,-0.0024869211,0.0030374401,0.005662969,0.0005794226,0.0044790828,-0.0059690503,0.008450039,-0.0016852163,-0.0044081127,0.0051252083,0.009977266,-0.0056792125,0.0008211503,0.0043486706,-0.0028224844,0.00069826783,0.0088430885,0.007716459,-0.0063941125,-0.003162495,0.00923597,-0.00026437416,-0.0095996605,-0.0007847134,-0.006780667,0.0009041339,0.00083404855,-0.004535634,-0.004498609,0.008889988,0.0046035745,0.0026453012,0.0019518724,0.008353799,-0.0050357254,0.0060855257,-0.00095309084,-0.0077479742,-0.0097728,-0.0016565814,0.008304776,0.0021464343,-0.008928406,0.0012518589,-0.0035896713,-0.003994553,0.008300277,0.0058646537,0.00037074124,0.0026306377,0.00094468176,-0.009967367,0.003075597,0.007228315,0.003995823,0.0025697423,-0.0036807274,0.0024186447,-0.0077690207
replac,0.004273064,0.0024800133,-0.0004740141,-0.0006572243,0.0027501187,0.0020905868,0.0015474907,0.009300995,0.0034187865,0.0014016607,-0.0029651753,-0.006086315,-0.009337765,-0.0032081814,0.0044328957,0.007647832,0.0006161728,-0.004844651,0.003643411,-0.004003324,-0.0008075899,0.009027476,0.008078993,-0.00043320828,-0.005950381,0.0036343075,0.009815097,0.008636717,-0.0019698294,0.0071381046,0.009325705,-0.0096269,0.008918144,-1.2640109e-05,-0.0051623834,0.0037886305,0.008989791,-0.007281357,0.0069062053,-0.006599114,-0.007817783,0.0054513062,-0.004620946,0.0048665884,0.007427467,0.009755562,0.0056924336,-0.00885267,0.0032152103,-0.009004586,-0.00036342783,0.009818779,-0.0051426473,0.004138705,-0.005692579,-0.008093816,0.008073136,0.0032666917,0.0073931124,0.0029814758,0.0011698488,0.0037212176,-0.008416487,0.0065696333,-0.0045370557,0.0046541067,-0.0054852897,0.0010794419,0.0039337436,-0.0024328113,-0.0074853655,-0.0060195867,-0.009875859,0.009803243,-0.0042875293,-0.0010394236,-0.009111597,-0.0045416723,-0.0049964846,0.0029688333,0.0056606038,0.003684808,0.0098572,0.001949445,0.009880951,0.0076066973,0.00282248,0.0022882316,-0.007431044,-0.0023632676,0.005800218,-0.008043735,0.0022162898,-0.007485929,0.009768518,-0.00014840119,0.00097323995,-0.004906804,0.006230124,-0.0072377366
syncopetelemetri,-0.007410362,0.0066182576,-0.0033724105,-0.00091466424,0.005359088,0.0045699333,0.0062081125,0.007027713,0.005616398,-0.00891883,0.005144527,0.009125321,-0.0040063607,0.0010816014,-0.0032792091,-0.0034029423,0.008693296,-0.00027982713,0.0034074627,-0.0055328486,0.0057739685,-0.0033548998,-0.0049688267,0.002191869,0.0097215315,-0.006131165,0.0035739136,-0.0009928012,-0.0071910145,-0.0043305624,-0.008219322,0.005589943,-0.0027526962,-0.0051993635,0.0009980166,0.00458894,0.009498108,-0.009735213,-0.0002757585,-0.001229682,-0.0027000736,-0.00053002476,0.008129929,-0.0018766213,0.009334334,0.0003780532,-0.0010646307,0.0069046007,0.006942637,0.00045891522,-0.00030289293,0.0063429163,-0.0038443613,0.0045933365,-8.502126e-05,-0.0060780393,0.006443784,-0.0040332736,0.0022166455,-0.00684589,0.0026867497,0.00557614,0.0051115416,-0.008073871,-0.005907736,0.007128726,0.0031156028,0.0010988164,-0.0061874557,-0.0013832616,-0.009224623,0.0012573279,-0.004568696,0.0007552326,0.004485375,0.0023915924,-0.0071189846,0.0008507061,-0.006719929,-0.0038795162,0.0018995845,0.0079723075,-0.0065113916,0.002336303,0.008144179,0.009908818,0.006166598,-0.007388672,0.0038613058,0.0088277925,0.00414773,0.0025157356,-0.0015901172,0.0035783374,0.004153396,0.008824278,-0.0038112819,-0.008750725,0.0065029035,-0.006219412
right,-0.0006079448,0.0014185344,-0.0012047301,-0.0040398613,0.0008757817,-0.009714911,0.0013993214,-0.0041362434,-0.0058041536,0.003804257,0.0014357785,0.0036583196,0.0008944168,-0.009495352,0.009996777,-0.0035379475,-0.0021864262,0.0071506687,0.00010422209,0.003033381,0.0022419621,0.0024076363,0.006732205,0.009480589,-0.0005573714,-0.0034401764,0.004550883,-0.008353758,0.008472945,0.0023850817,0.0060040527,0.0028044572,-0.0013292718,0.00096643774,-0.0047879806,0.009106878,0.0050432957,0.0035907975,-0.005017108,-0.008669232,0.007945408,0.002957904,-0.004277316,-0.008672366,-0.003954906,0.0014119731,-0.009196768,4.6687062e-05,0.0028238387,-0.009959845,-0.0001546918,-0.006069266,-0.0036193044,-0.0016163939,-0.009977145,-0.00361076,-0.007024789,-0.0073536006,0.0016303863,0.0023636864,0.009295675,0.008876086,-0.0064024297,-0.009221772,0.007869242,0.0054409076,0.006897219,-0.0029465568,-0.0052425805,-0.004566471,-0.008339359,0.005892675,-0.0034437738,0.008640222,-0.0056719827,0.009623068,-0.0044968617,0.00865689,-0.005433711,-0.0075151757,0.0076559484,-0.0097439485,-0.008789959,0.004969175,-0.009760471,0.0052783377,0.0036607594,-0.0069982163,0.003177213,0.0014510229,0.008670911,0.0028832946,-0.00513675,-0.0023133454,0.0068840696,-0.0066075036,0.009330563,-0.003210951,-0.0046597878,-0.004385278
failiuresyncopehyperkalemia,0.0030839064,-0.009840245,0.0032180734,-0.0045035128,0.009678758,-0.00502514,-0.008025015,0.0035186366,0.00895985,0.0027470978,-0.0022755736,0.0035074765,-0.008933543,-0.0041332897,-0.0043804976,0.001879187,-0.0063095484,-0.0075952113,-0.006529481,0.0052970196,0.0027555346,0.008802049,0.0023319153,0.0053104623,0.0043287952,0.0046328204,-0.0049588527,0.0014351101,0.0003035849,0.005262125,-0.0066113793,-0.00073188276,0.0040282924,-0.004854741,-0.008503887,0.005578945,-0.00086052774,0.00034172903,-0.006071958,0.008501974,0.0008861338,0.0017331729,-0.00039583366,0.0006903119,0.005785897,-0.009214732,0.0023546992,-0.005580093,0.009449868,0.004369503,-0.0055094333,-0.0012225691,-0.0055471924,0.0085298885,0.009090664,0.0022905057,0.009645795,-0.0047247875,0.0028257861,-0.0051088077,-0.008778197,-0.00415767,-0.0013923459,-0.0056431815,-0.0045495974,0.00064188876,-0.00012593318,-0.008305485,0.0069208955,0.0015760827,-0.009494456,-0.0014281007,-0.0076037925,0.0075790915,-0.0010528392,0.007811386,0.005015041,-0.0040511326,-0.009078652,-0.0061813453,0.00887735,-0.0015536159,-0.00029942705,0.00012763693,-0.008239418,0.004226199,-0.008199563,0.009426849,-0.008132075,0.007895839,-0.0019759901,-0.0020669696,-0.0022853387,0.0009787711,0.0024665582,0.0016354792,-0.0005770829,0.0075693754,-0.006429459,-0.007904999
