,0,1,2,3,4,5,6,7,8,9,10,11,12,13,14,15,16,17,18,19,20,21,22,23,24,25,26,27,28,29,30,31,32,33,34,35,36,37,38,39,40,41,42,43,44,45,46,47,48,49,50,51,52,53,54,55,56,57,58,59,60,61,62,63,64,65,66,67,68,69,70,71,72,73,74,75,76,77,78,79,80,81,82,83,84,85,86,87,88,89,90,91,92,93,94,95,96,97,98,99,100,101,102,103,104,105,106,107,108,109,110,111,112,113,114,115,116,117,118,119,120,121,122,123,124,125,126,127,128,129,130,131,132,133,134,135,136,137,138,139,140,141,142,143,144,145,146,147,148,149,150,151,152,153,154,155,156,157,158,159,160,161,162,163,164,165,166,167,168,169,170,171,172,173,174,175,176,177,178,179,180,181,182,183,184,185,186,187,188,189,190,191,192,193,194,195,196,197,198,199,200,201,202,203,204,205,206,207,208,209,210,211,212,213,214,215,216,217,218,219,220,221,222,223,224,225,226,227,228,229,230,231,232,233,234,235,236,237,238,239,240,241,242,243,244,245,246,247,248,249,250,251,252,253,254,255,256,257,258,259,260,261,262,263,264,265,266,267,268,269,270,271,272,273,274,275,276,277,278,279,280,281,282,283,284,285,286,287,288,289,290,291,292,293,294,295,296,297,298,299
sepsis,-0.00018111135,7.930118e-05,0.0017007518,0.0030022992,-0.0031019803,-0.002372068,0.0021561657,0.0029954147,-0.0016753091,-0.0012539568,0.0024594036,-0.000510795,-0.0015166939,0.0021826879,-0.0016214679,-0.00060494046,0.0009614208,0.00033152342,-0.00276298,-0.0031533088,0.0024350095,0.0016903671,0.0022532453,0.00025423028,0.0021189477,-0.0011370968,-0.00031841928,0.0019187821,-0.0025052787,-0.0013146864,-0.0025048906,-0.0003082628,0.0031810869,-0.0024408933,-0.00078082155,-0.0006430482,0.0026967158,-0.0019812935,1.4792863e-05,-0.001579344,-0.0032023338,0.0016692074,-0.0029175759,-0.001464028,-8.785673e-06,-0.000100353354,-0.0025522832,0.003207472,0.0016627313,0.003077876,-0.002715723,0.0014973643,-0.0013761746,0.00027274585,0.002831717,-0.0014861114,0.0015093489,-0.0022627742,-0.0011801218,0.003134163,-0.00052482786,0.00010644968,-0.0013811381,-0.0025614428,-0.0005036434,0.00082362007,-0.00029648305,0.0018469701,-0.0009127519,0.00075117894,0.0018169044,0.0027800105,-0.00048355214,-0.0030723794,0.0014558798,0.00019269825,0.0024805607,-0.0002714557,-0.00087882025,-0.0029125821,-0.0002872235,0.0009420736,0.0017985092,0.0023551479,-0.0019010773,0.00062231906,0.0020274885,-0.0016003563,-0.0010342682,0.0022671935,0.00054403144,6.461383e-05,0.0011604774,7.152485e-05,0.0032084945,0.0016860442,-0.0029724473,-0.002349015,0.0003027743,0.0021336423,-0.0028729192,0.0012204555,0.0017326429,0.0019116827,0.0024893356,-0.0020606031,0.00036844134,0.002016719,-0.0009484547,-0.002056757,-0.00013686848,-0.0027886669,-0.0018668496,0.0023674807,0.0011159485,0.0024109788,0.0022691584,0.0025105933,-0.0012610807,-0.0001893212,0.000781089,-0.001505541,0.0027980856,-0.003285486,0.0022548907,0.0009741035,-0.0016419506,0.0014638588,-0.00058041216,0.0022388874,0.003321852,-0.0014566047,-0.0001962579,-0.0019020174,0.0012788839,0.0009285381,0.002296756,0.0020329228,0.003179224,0.0030868503,0.0026317525,-0.0023319747,-0.0030529408,-0.000120193305,-0.001031565,0.0026302692,0.0019758986,-0.0005183382,0.00050373224,0.0005963548,0.0026083165,-0.0031746929,-7.134022e-05,0.0011564171,-0.00031434695,0.0027945903,0.0030017402,0.002176259,-0.00023999055,0.00257202,-0.002843986,0.0010698342,-0.001548133,-0.0016931358,0.0011948819,0.001794401,0.0025879731,-0.0019245405,0.0024761262,0.0022090457,-0.001237909,-0.0029173282,0.0018127338,0.0021709916,-0.00026224312,-0.0022369958,-0.0023598275,-0.0008342257,0.0017139955,-0.0012202193,-0.0031202014,0.0012769724,0.0016264191,-0.0021422303,0.00039673367,-0.00069204427,7.464375e-06,-0.003292448,0.0008964823,-0.0015831202,0.00036151762,-0.00052443333,0.0007329699,-0.0026257806,-0.0009018774,0.000888476,0.0017845505,-0.00079923985,-0.003171022,0.0015014167,2.84225e-05,0.0010240462,-0.0022702578,-0.00045592836,0.0025560632,0.0024494596,-0.0012258396,0.00087915343,-0.0027732637,0.002069119,-0.0015451602,-0.0010567161,0.0031026304,0.00029142646,0.0024969606,-0.0020255814,0.0017169754,0.0033049374,-0.0028212494,-0.0017127041,-0.0023523187,-0.0016237862,-0.0012617595,-0.00284869,0.0026512712,-0.0016149814,0.0028063506,0.0017535085,-0.002181678,0.0013215058,0.0018221191,-0.002474613,-0.002466876,-0.00082222174,-0.0028781535,-0.000527261,-0.00013583925,0.0010992725,0.00047935304,-0.00029625115,-0.0018597298,0.0005795568,-0.00029685273,0.0022671258,0.0013232294,0.0015072934,0.00047936474,-0.00090098666,-0.0014571201,-0.0003464176,0.00047961308,-0.00088151434,-0.0023583428,-0.002600453,-0.0030439442,-0.0019783562,-0.000614879,-0.0014407204,-0.0021559405,-0.0012380331,0.0014298245,-0.0012448764,0.0027905288,0.0005077363,-0.0024181658,0.0031446253,0.0025444443,0.0018323872,-0.002285903,0.0019440792,0.0013336143,0.0017269903,0.0014173674,0.00064513716,-0.0010541225,0.0027818363,0.0032078207,0.0012631982,-0.0009471085,2.2946057e-07,0.00040409362,-0.0028177097,-0.00274047,-7.604565e-05,0.0004123757,-0.0019131782,-0.0015764142,-0.0024477358,0.0027773336,3.9613748e-05,-0.0015008217,0.0019004366,0.003059585,-0.0013684297,0.0026527862,0.0017935749,0.0019601085,0.00017037231,0.0027429466,-0.002341249
failure,-0.0027458495,0.003102812,-7.1501214e-05,-0.00066676555,0.0015355292,-0.0013683895,0.0009309274,0.0023280645,0.0020238971,-0.0025132804,0.0031299389,0.0015521416,0.0013184953,-0.0020921102,0.0028221945,-0.0007127721,0.0029481414,-0.0017944118,-0.0027119042,0.0022766872,0.00055007474,-0.00073959085,0.003170624,0.0031653023,-0.003254703,0.00082564686,0.0020456973,0.0012952273,0.0006733971,0.00014132968,0.00022804586,-0.0012680496,-0.0023849295,-0.00070595986,0.0013014189,0.0029402042,0.0030876598,-0.0020031747,-0.0031386213,0.003260483,0.0011461357,0.0017276509,0.0020936555,-0.00093938585,0.002449903,0.0009432564,0.0009617676,-0.00078345335,-0.0010499636,-0.00078300404,0.0014291883,1.5046049e-05,-0.003200576,-0.0032285466,-0.002050039,-2.4154737e-05,0.0006718109,0.0031552026,0.0018658108,-0.0014274232,9.146559e-05,0.001650782,0.0025642875,-0.0003796676,0.0014373127,-0.0019290391,-0.00025956257,0.0026981721,-0.0007869721,-0.0032285557,0.0019313031,-0.0013050704,-0.00040192768,0.003313189,-0.00075254356,-0.0015857038,-0.0017895794,0.002327086,-0.0018967525,0.00072237686,-0.0017498783,0.0020416025,0.0014626657,0.0008932445,-0.00048708715,-0.0009187834,0.0029875247,0.0017509501,-0.00071338005,-0.0031596194,-0.0024698696,-0.00035038815,-0.00026511177,-0.00084978034,0.0032348728,-0.00015057648,0.001964049,-0.0024817197,-0.0008268511,-0.0018346143,-0.0023778894,0.00041676915,-0.0023789885,-0.00075182226,0.0012388561,0.0019423671,0.0004072736,0.00070134667,-0.0013837877,0.002411055,-0.002095775,0.0015501777,-0.0027395743,0.0006806277,-0.0016533033,-0.0014248984,-0.0010383583,0.0018901818,0.0019358213,-0.0016773916,0.0002643827,-0.002827529,0.0026000033,0.0030958105,-0.00092071865,0.00027507418,0.00025854324,0.0018172725,-0.0028673674,0.00020884592,0.0022973397,0.00074330176,0.00037973784,-0.0031121061,0.0028213933,-0.0020813374,-0.0010062184,0.0011530818,-0.0002669597,0.00046384006,0.0005943582,-0.0022844605,-0.003236578,0.0030206412,0.0020775509,-0.002313217,0.001125111,6.335099e-05,0.0015882511,-0.0023774006,0.0013425198,0.0014280181,0.003301816,-0.0014874698,-0.00047034424,-0.0024372295,-0.003240683,-0.003030114,-0.0003397602,-0.0021667792,0.0016175625,-0.002047045,0.0008368216,0.0002570063,-0.0011442425,-0.00032137698,0.0033244914,0.0030502686,-0.0014997516,0.0030308922,-0.0018939908,0.0019719698,-0.0010262559,0.0011408445,0.0010004762,0.0023081955,-0.0007844021,0.002921891,0.0025239994,-0.0031808864,-0.0026664156,-0.0025481076,0.00097184535,-0.00093089894,-0.0023188894,-0.0027035247,0.0027751669,0.0006785707,-0.0031206312,-0.0016073275,0.0010417729,-0.0015687114,0.0017527802,-0.0014080225,0.00089325494,-0.0026828097,0.0020719122,0.0016017924,0.00027029525,0.0010091746,-0.0029155586,0.00070743146,-0.0002894967,-0.00310662,-0.0031456873,-0.0004697137,0.0014744574,0.0012310444,-0.0021670407,-0.0022951157,-0.0016705549,-0.00076936523,-0.002425233,-0.0031968262,-0.0009084693,-0.0027962828,-0.0020185374,-0.0019096356,-0.0007931163,-0.0005710209,-0.0029831133,-0.0002467223,0.0027114288,0.0025599373,-0.00241725,-0.0012298762,0.0010497605,-0.0031913125,0.00049637625,0.0021851864,0.0019238096,-0.0029284703,-0.0015070009,-0.0027093454,1.33191e-05,0.0030894808,0.002005472,0.0016893755,0.001682716,-0.0010827166,0.0031927642,-0.002449607,-0.0024307505,-0.000747284,-0.00025782958,-0.0010773286,-0.00019801287,0.0024965794,-0.00022185678,-0.0005424724,0.0009125732,-0.002779801,0.002623742,0.0028483493,-0.0032001191,0.0008072034,0.0033122466,-0.002553289,-0.0023365573,-0.0025913247,0.0028124792,-0.000211436,0.0030522076,-0.002740177,0.0012334201,0.000875452,0.00024805267,0.0007727561,-0.0025052566,-0.0031213448,0.00078656094,0.0020475409,0.00265276,0.0019059372,-0.0002490488,0.0027664863,-0.003116073,0.0011380302,8.2221304e-05,0.0012788624,0.0024603084,-0.0022457547,0.0018642813,-0.0031653028,-0.00027022182,-0.0028889575,-0.0017161777,0.003096412,-0.0006188933,0.00097213534,0.003028838,0.0029881832,-0.0027296005,-0.0010087276,0.0032999981,0.0016992311,-0.00052894326,-0.0029017234,0.0009859857,-0.0022125659
pneumonia,0.0027107573,-0.0014857781,-0.00035611907,0.00033545494,-6.370465e-05,0.0003827258,0.0020379536,-6.75718e-06,-0.0010819884,-0.0005035762,0.0019657663,0.00050470076,-0.00024142067,0.0031110824,-0.0016404279,-0.00027946988,0.0030584706,0.0022498092,0.000500952,-0.0029608535,0.00038291534,-0.0007627519,0.0031227458,0.00040330927,0.0004966879,0.00080213667,-0.0006120022,-0.0016665447,7.74765e-05,-0.00067139347,0.002200311,0.002980041,-0.00022491813,0.0009923383,-0.002035885,0.0005664416,-0.0023087442,-0.0028980088,-0.0019667344,-0.0029854917,0.002425865,-0.0019240105,0.002758784,-0.002414515,0.0011405583,0.0032249994,-0.0025951492,-0.0033150192,-0.0014430487,-0.00089437683,-9.0429785e-05,-0.0029438504,-0.0028725192,0.00093340356,-0.002735469,-0.0030231122,-0.00078015524,-0.0028772692,-0.0023522167,-0.0028003836,-0.000100442965,-0.0015214328,0.0022090583,0.00050905347,-0.0011138252,0.002036324,-0.0020044283,-0.0015520565,-0.002402503,-0.0014455267,-0.00060311,0.0021632144,-0.0009234643,0.0016396558,0.0023014809,-0.0024879018,0.0015216168,0.0020423261,-0.0009848248,0.0022083407,0.0020419597,-0.0021478282,-0.0022548505,0.0008463196,-0.000541273,-0.0020217092,0.003166403,-0.0017100489,-0.002184699,-3.9961735e-05,-0.000900476,0.00014813343,-0.0011791528,-0.00013977686,-0.00023620526,0.00027427357,0.0027316057,-0.0019122359,-0.000553176,0.0018572025,0.0027227069,-0.0014810109,0.0029951446,0.0027512216,-0.0014784074,0.00010103504,0.0014248304,-0.0013087734,-0.0018533218,-0.0021707742,-0.00022357941,-9.864052e-05,0.001487695,-0.0008246847,-5.7536363e-05,0.0008206252,0.001622533,-1.0269483e-05,-0.0021131365,-0.0030869357,8.885861e-06,0.0022206313,0.00048867427,-0.0029888407,-0.0026462015,0.0021839675,-0.0012618935,0.0020849975,-0.0022270107,0.002826554,-0.002172108,0.0010960066,-0.0003523286,-0.0022625092,-0.0010958656,-0.00038713732,-0.0018236466,-0.00040378253,-0.0025211044,0.0008822199,0.0030233827,-0.00079241674,-0.00032550335,0.0011711871,0.0028883624,-0.0019739508,-0.0022958592,-0.0009776616,0.003049232,0.0002887559,-0.0028928001,-0.00048232634,0.0031598217,-0.0025164958,-0.0017860329,0.0031055207,-0.002991242,0.0012753026,0.00022181352,0.0022202337,0.0027709177,-0.0009502618,-0.001330771,0.0029659725,0.0006965486,0.0020829805,-0.0031485716,0.003196708,-0.0004494361,-0.0020173716,0.0009975116,-0.00015220363,0.0015688308,-0.0007610071,-0.0013792809,0.0007592996,0.0027847947,-0.001665202,0.00088955957,-0.0026635183,-0.0022577823,-0.00015588959,-0.002922576,0.0009298126,0.0005328651,-0.0007732308,0.0016679303,0.0032495956,0.0028180892,-0.0006267417,0.0006860506,-0.0013345631,-0.0027471352,0.002092652,-0.0006497272,-0.00022206824,-0.000590444,-0.0015118885,0.0013539032,-0.0014233935,-0.0031928488,0.0029810385,0.0013883563,0.0030782449,0.002214501,0.00097491225,0.0032680067,-0.0014748804,-0.0022677705,0.0014091269,0.001243,-0.0018882037,0.00323492,-0.0011861023,0.0031831355,0.00027824202,-0.0021128189,-0.000659039,-0.0024590183,-0.0009931743,0.00034723242,0.003160896,0.0031186158,-0.0021986258,0.0011583837,0.0007585235,-0.0008297841,-0.0030763908,0.00034237542,-0.0027219022,0.0021067297,-0.0019333601,0.0018451464,0.0032779078,-5.3333442e-05,0.0015094975,-0.00060313346,0.002453587,0.0013133656,-0.0030034415,-0.0007995013,0.0012095897,-3.3189455e-05,-0.0004004236,-0.00035181284,-0.0005572005,0.00020165085,0.001388365,-0.0014175972,-0.0012778739,-1.7605622e-05,8.978526e-05,-5.626877e-05,-0.001595169,0.0014378007,-0.0007239731,0.0007011799,0.00022217432,0.0019898922,-0.0022807936,-0.0022719034,-0.0014920859,0.0031452763,-0.00053062756,-0.003143081,-0.00018168052,-0.0014829743,0.0020000264,-0.0031945617,0.0009530004,-0.0030842773,0.00041660032,0.0019997326,0.0024657825,-0.0025404878,-0.0020176745,-0.0022794802,-0.0026394466,-0.00316636,-0.00070849893,-0.00027864418,-0.002418734,0.0022623455,0.00037320654,0.0019429557,0.0004909555,0.0002631219,-0.0024560431,-0.0007255526,0.0014403597,-0.0016951049,0.00037692985,0.00096112135,-0.0005121203,0.0033107651,0.0027832114,0.0008052222,0.0023727485,0.0019638126,-0.0018602058
bleed,-0.0017194023,-0.002218366,-0.0025942272,0.0027667847,-0.0006651626,-0.0022837564,-0.0013880978,0.001720838,-0.00095603045,-0.0012541508,0.0005433736,-0.0009301077,-0.0005302088,0.00035496918,-0.0009973699,0.0028405718,0.0013074055,-0.0033218283,0.0020955945,-0.0022515228,0.00024802884,0.0014692235,-0.0017051039,-0.0007037539,0.0026994317,-0.0014114566,-0.0025614123,0.0030875835,-0.00071930717,-0.0015835873,0.0028599948,0.0014312639,0.0014447417,0.0031001566,-0.0028207975,0.0017624397,0.0006834901,0.0013869002,0.00055468746,0.001497015,0.0015004324,0.0020457888,-0.0010712163,-0.0015293442,-0.00013176922,0.00085089344,-0.001085234,0.0020212138,0.0013871678,0.002594707,0.0008646052,0.0026993973,-0.00046463826,0.0026977314,0.0012387064,-0.0026764919,-0.0013100217,-0.00082076626,0.001634976,-0.00029496255,-0.0009452917,0.0026097423,0.0030983586,-0.00053506123,-0.001720666,-0.0015632032,-0.0016146204,-0.0032035094,0.00045571642,-0.0014125193,0.000835684,0.0018796505,-0.001353299,-0.0032136552,0.00051762245,-0.0022243722,0.0008305444,-0.001257187,0.0023587092,0.00022743604,0.0011837576,-0.0009223533,-0.00057195325,0.0025685504,0.00046941897,-0.0019494976,-0.0026153126,0.0004144496,0.0021618947,0.0018610313,-0.0029918088,0.0028668498,0.0013449583,0.002489491,0.0032557673,-0.0024272937,-0.0030078294,0.0019528266,0.0031329736,0.00118028,0.0023620669,-0.00052672264,0.002660396,-0.0031642693,-0.0026770101,-0.0022209198,-0.001336429,0.0016616507,-0.001280749,-0.0027727543,0.0028060805,-0.0012536518,0.0028636013,-0.0016271392,0.0013091625,0.0016482966,0.00079291157,-0.0009341122,0.00095057994,-0.0027649705,-0.0009280763,-0.0008625828,0.0024235982,-0.0011526963,-0.0022066508,0.0014560793,-0.00015438141,-0.0012082827,0.002289802,0.0012903505,-0.0012897587,0.00026453516,0.0030506763,0.0025764375,0.0021234648,0.0015581957,0.0007961083,-0.000611658,-0.0021310328,-0.000103283826,-0.0005258413,-0.0002014601,-0.002094639,0.0024841686,-0.0021943478,-0.002421827,-0.00092498877,-0.00050889957,-0.002542456,0.00023125745,-0.0017788168,-0.00044186215,-0.002462005,0.00065205427,0.0010867395,-6.0183256e-06,-0.0018268732,-0.0005833972,0.002350304,0.0012491829,-0.0029671574,-0.0011343794,0.00078224204,0.00072514446,-0.0031593964,0.0015242524,-0.002898972,-0.0024619363,0.0011501253,-0.0011501797,0.001179047,0.0029711297,-0.0011915021,0.003111299,0.0005689804,0.0032838779,0.0019114568,-0.0030545723,-0.0011065693,0.0021781293,0.0018672802,0.0028974765,0.002309808,0.0026765177,-0.0032789295,0.0014405691,-0.0016713269,0.0011870429,0.0020101576,0.0014634943,0.0025076638,0.0005053985,-0.00042530237,0.0019261622,-0.0018766517,1.2381512e-05,0.0031562066,-0.0018252368,0.0012714755,-0.0027009454,0.0032467972,0.002730405,0.00042731513,0.0016958606,0.0004668459,-0.0021522257,-0.000477038,0.0021481428,-0.0015446787,-0.0013355628,0.0016381674,0.00090002065,-0.00061756355,-0.0009615271,0.0020062816,-0.0019137379,-0.0010780529,-0.002176883,-0.0014147029,-0.0028616171,-0.0014840717,-0.0028432445,0.00045840492,-0.0028769148,-0.0033126485,-0.0027357012,-0.0022601627,0.002221031,0.0012604968,0.00012503832,-0.0009819522,-0.0024750284,0.00016851664,0.00016448773,5.649376e-05,0.0002914393,0.00026018382,-2.6761927e-05,-0.0026711542,-0.0019684567,-0.0027768654,-0.0004485415,0.0006080812,0.0024767022,-0.00065527076,-0.0007821484,0.0031648634,2.5575027e-05,-0.0008000082,0.0028696554,0.0008988655,-0.0017770896,0.0022054354,0.0015065282,-0.0023590114,-0.000112215486,0.00028600314,0.0019156376,-0.00058822706,-0.00094764505,0.000591764,0.00029029383,0.00039470167,-0.0008897365,-0.0020055387,0.0024416917,0.0025349997,0.0027653393,-0.002870669,0.0008753632,-0.0011900023,0.0032130852,0.0009732727,0.001542437,0.0008068573,0.0022075747,-0.001905756,0.0026388597,-0.0008062124,-0.0015199982,-0.0006847935,0.003248618,-0.0022833163,-0.00072597194,0.0023376644,-1.6220582e-05,-0.0021116696,-0.0021302097,0.0029808448,0.002143507,0.0015968764,-0.001079591,-0.0030852791,0.0012589386,0.0023889374,-0.0018747956,-0.0026287588,-0.000994042,-0.0016411381,-0.00076164654
acute,-0.0006444397,-0.0017290566,0.0031363852,-0.0031210908,0.0014901244,0.0017905362,-0.00047398388,0.0030239113,0.0032854648,-0.0018335237,-0.0020021105,-0.002277155,-0.0026321602,-0.0010181966,-0.0018645615,-0.002790912,0.00026006918,0.0009863245,0.0021473556,-0.0008865733,-0.0014949876,0.00041794818,0.00013029671,0.0027118723,6.27488e-05,0.0024095913,-0.0027851793,0.0027886226,-0.0006445395,0.0028780496,-0.0025408843,0.0006026115,0.00034653975,1.8000983e-05,-0.0017164487,-0.003068983,-0.002414455,-0.0026641528,0.00063887937,0.00017503944,-0.0005900012,0.0023869795,-0.000840038,-0.0004521031,-0.0029526185,-0.0032877377,0.0030063742,-0.0019101313,-0.0021314493,0.0017331772,0.002239353,-0.0022792998,0.00031944585,-0.001989935,0.00053502916,-0.0014019591,-0.0011358259,0.0007405817,0.0028911517,0.0022412376,-0.0032390994,-0.0018780227,0.0025913583,0.0006787787,-0.0014120681,0.00020568859,0.003179195,-0.00037475623,-0.0031389063,0.00052522117,0.0020675657,0.002103915,0.0013823258,-0.001905711,-0.00013203757,1.2597158e-05,0.0015092728,-0.0026783145,-0.0026782893,0.00012688802,-0.0028681587,0.0019127115,-0.00014530354,0.0033627565,-0.0017878774,-0.00015198956,0.0025638628,-0.0013443968,-0.0016585476,0.00053193496,0.00089543476,-0.00084903796,0.0021468345,-0.0025514204,0.0011366152,0.00018140783,0.0029219645,0.0019919334,0.0022824358,0.0026237867,-0.0031751834,0.0031802764,-0.0025757074,-0.0008867607,-0.0016364742,-0.001681051,-0.0026755768,-0.0026028943,-0.0015177098,-0.0003994624,-0.0017132207,0.0020569307,-0.0031827013,-0.0017526777,0.0031466396,0.002339768,0.0025558474,0.0014158221,0.00018884926,-0.002017711,0.0020120519,0.000888721,0.002579034,0.002129925,0.002640108,0.002926681,-0.0032847205,-0.0022715093,0.00044710067,0.0021605263,0.0024887908,0.0018671076,0.00254637,-0.0017281257,0.0021884963,-0.0013580185,-0.0030161613,0.0030515392,0.00043616857,-0.0009330874,-0.00083827163,-0.0014323067,0.0015986618,0.0014607877,-0.00087110384,-0.0024638115,-0.0012078837,-0.00012893156,0.0020538536,-0.0009427334,-3.0204365e-05,0.00026086348,-0.0023998322,0.0006951755,-0.00047483156,0.00094566797,0.0015876218,-0.00046977785,-0.0009562413,0.0025887825,0.0016619269,0.0022471405,0.0014895339,0.002911776,0.0024765607,-0.00036000294,0.0029077923,0.0015290859,0.0017928325,-0.00043616004,-0.0007010485,-0.0014654316,-0.0028338965,0.0010230865,0.0029522807,0.0029644317,-0.0006261633,0.0020057298,0.0012716333,-0.0014310976,0.00068552233,-0.0018207898,0.0027260047,0.0018208164,0.0010498516,0.0013738102,0.0029073427,0.002470425,-0.00029759092,-0.002373763,0.0027794573,0.002419046,0.0005642437,-0.00045773925,-0.0019702795,-0.0015199021,0.0028812848,-0.0010596105,-0.0021222665,0.0032928758,0.0025393362,0.0030650555,0.000377406,-0.002776736,0.002793783,-0.0012386807,0.0019078107,0.001460235,0.0032428184,-0.0031005936,0.003064414,-0.00310828,-0.0023013377,-0.00303177,-0.0018499229,0.0024417748,0.0030584203,-0.0011296298,0.0012135127,-0.0012153138,0.0026435289,0.0019377966,-3.3666303e-05,-0.0012277375,-0.00242308,0.0015855172,0.00048815596,-0.0008893656,0.0026119743,-0.0013451718,-0.0030438963,-0.0007438337,2.6219826e-05,-0.0022223624,-0.0018367278,-0.0028157472,0.0030708897,0.002467764,-0.00010660642,0.0024194047,0.002686492,-0.0002774125,0.002206825,0.0012610222,0.0016961746,0.0023931223,-0.0015591171,-0.00072978204,0.00031360402,0.0014289037,0.0011064695,0.0017016004,0.0015499676,-0.0028167225,-0.0010969461,-0.0024251137,0.0032375585,0.0016536015,3.6858066e-05,0.001352177,-0.0025214588,-0.0020859742,0.0010217526,0.002147515,0.0013015624,0.0019968157,-0.00066237967,-0.0011175354,5.3954136e-05,-0.0010461537,-0.0018479595,-0.0025992543,0.002177211,-0.00036285323,-0.0005988747,-0.0025930007,0.003146592,0.00030264189,0.0005690445,0.00083362655,-0.0024611342,0.0005530699,0.0009986882,-0.0028468156,0.0016638519,0.0008207195,0.0024812394,0.0016979001,-0.0010113104,-0.0023826105,0.0023833676,0.0006587217,0.0017500215,0.0021154843,0.00063068833,-0.002038693,-2.8156087e-06,0.002749975,-0.002014721,0.0031541735
breath,-0.0023972604,0.0014242422,0.00072744023,0.0024757811,-0.001637348,-0.0015300785,-0.0020281621,0.0011061087,-0.0015004736,0.00283886,-0.0014365431,-0.003042443,-0.0016028959,0.0021369979,-0.0021233894,-0.0017619674,-0.002438947,0.0020097871,0.0011152466,0.00094126916,-0.0010481449,0.002013345,-0.002056212,-0.0006634631,-0.0019914093,-0.00033326758,-0.0006844366,0.0028253945,1.8677894e-05,-0.0028668076,-0.0018134676,-0.0022870842,0.00089598494,0.0031537123,-0.001953544,0.0027607004,0.0028567617,-0.0023562936,-0.002962327,0.0031677582,0.002802645,-0.0015532774,-0.0022560153,0.0026083454,0.0012614689,0.0027082,-0.0025188122,-0.0031664257,0.00052952796,-0.0032708775,-0.0016217533,-0.0011584902,0.0032043864,0.002881329,-0.00095137727,0.0019587472,0.0027460332,-0.0007469138,0.0031850429,0.0023895097,0.00068372063,-0.0012910487,-0.0017110516,-0.0010126738,0.0026306775,-0.0020655186,-0.0009749053,0.003057563,0.0011502913,0.0020169117,-0.0026829257,-0.00024511598,0.001845155,-0.0015855649,0.0024898108,0.0031155557,-0.00014088744,-0.00069065875,-0.00019979579,-0.0019062478,-0.0027914066,-0.00050097937,-0.00085913535,0.0014795898,-0.002301139,0.0018156773,-0.0022601509,-0.0026039062,0.0028296541,0.0029760946,-0.0011641443,0.0011690618,-0.0019377545,-0.0029224483,-0.0018390765,0.002262826,0.0021483563,0.0031503695,0.0023580575,0.00225795,0.0004321732,-0.0032783973,0.0015459079,-0.00018024084,0.002109102,0.00058099243,-0.0010402836,0.0025896549,0.0005144303,2.6359861e-05,-0.0015395134,-0.002825132,-0.002584672,0.0029000312,-0.00298464,0.0030291833,-0.0030978774,-9.8065684e-05,-0.0006208746,-0.0029849953,0.0028801807,0.002259154,0.0010130212,0.001609281,3.6267753e-05,0.0031606476,0.0023480258,-0.003288766,-0.0014758755,-0.0004314052,0.0010233739,-0.0014289172,0.00048422767,-0.0026304615,0.00092533696,0.001572531,0.0016471405,-0.0010593708,-0.002816594,-0.0030810721,-0.00024819613,-0.002451181,-0.0022785394,0.0020441806,0.0024027277,0.0007024087,-0.002641741,-0.0019062733,0.0026913139,0.0013107669,-0.0017488475,-0.0024752645,0.0002395125,0.0011638086,0.0006909377,0.001040369,-0.0018886098,-0.0033157007,-0.0023548494,8.0955644e-05,0.0015263342,0.0015128802,0.00062159926,0.0017282986,-4.6446326e-05,0.0013706434,-0.0030333544,0.0025634018,0.0020537474,0.0017235386,0.0023948725,0.002814308,0.0002360838,-0.00056641217,0.0001711549,-0.0031104733,0.0028067306,-0.0021420107,0.0028211533,-0.0014160465,0.00021595904,-0.0030533953,-0.003188908,-0.0026203715,-0.0025837498,0.00012940589,-0.0024055305,-0.0016375313,-0.0017603836,-0.0014322835,0.0023305877,0.0016168278,0.0028855063,0.0023631863,-0.0019111828,0.0024140996,-0.0030970327,-0.0008641214,-0.0025885634,0.0014042183,0.0005934579,0.0023574887,0.000972897,-0.0023271067,0.0025709323,-0.0019977528,0.0029946575,0.0009882207,-0.0013419136,-0.0015614651,-0.0014816817,-0.0020565465,0.0031370206,-0.00087514275,0.002589845,-0.0032392673,0.0007049854,-0.00041797326,0.0025070754,-0.0030227278,0.0024866422,-0.0017187654,-0.0020128842,-0.0018960714,-0.0011281177,-0.0011392587,-0.0010674725,-0.0025065152,0.00023501305,-0.00018917584,-0.00056081405,0.0012519718,-0.0025423008,-0.0010730067,0.0017168138,0.0028608479,-0.0032784387,0.002395744,0.0017739718,-0.0013098903,0.0028817335,-0.0030842898,0.0024146468,0.0017960096,0.00042999035,-0.0017417709,-0.0013866615,-0.0011235141,0.0005400743,0.0005317803,0.002467883,0.0033237864,0.0029779372,-0.001335606,0.003202395,-0.00021246217,0.0016167832,0.00084933784,-0.00021905654,0.0012202862,-0.0017620652,-0.0019166551,-0.0025379974,0.0006193571,0.0021753036,0.0002888293,0.00041618667,0.0010686123,0.002707693,-0.0025719036,0.00075119536,-0.002490614,0.0012442869,0.0031741026,0.0025240066,0.0021509249,0.00268934,0.002190402,0.0022830153,0.0028996253,-0.0016601352,0.003073993,0.0016848131,-0.00071198633,0.0028312604,0.0016961204,0.0032201353,0.0009447604,0.0032964218,0.0003968422,0.0030539334,0.0012047894,0.002195944,-0.0012127107,0.002266256,0.0024155036,-0.0007121932,-0.0006134691,0.0012147562,-0.002336801
esophageal,0.0032419323,-0.0032500767,-0.002173567,0.0009229407,0.0021358018,-0.0017915609,0.0009292781,0.0030564247,-0.0022798781,-0.0020403953,-0.0016608256,-0.0012305306,0.00062224903,0.003225517,0.0021460603,0.00013540994,0.0008288825,0.0028078228,0.0030477357,0.0018744745,0.001975962,-0.002537688,-0.0012766474,-0.0018897009,0.0020571155,-0.000751905,-0.0029440515,0.0025327178,0.0027967228,-0.0011211364,0.003043878,-0.0002461893,-0.0012088835,-0.00012951669,5.8524627e-05,-0.001165824,0.00093902915,0.0019052929,0.0022865082,-0.0029650396,-0.00073071854,-0.0018198745,0.0025004565,0.0021605908,-0.0014505276,0.00078911195,-0.0019797366,8.546954e-05,0.0031548594,-0.0008645278,-0.0017248358,-0.0024666649,-0.0009792288,-0.0002827014,0.0011702614,0.0032689255,-0.0011334973,0.0006498844,0.003232816,0.00050542457,0.00032837273,0.0032707702,0.0030873218,0.0025726329,-0.0020555612,0.0033389002,0.0019593486,0.0030164088,-0.0006673866,0.0011110355,0.0022769356,-0.0012886397,0.002224814,0.00084185647,0.0031011167,-0.0010036197,-0.0010391235,0.0020783239,-0.0030222149,-0.0023943263,-0.00216441,-0.00025436387,-0.00078528817,0.0022927257,0.003086865,-0.0003111003,0.0004580694,0.0006888057,-0.0006648279,-0.0026812314,0.0024868567,-0.0014356105,0.0015267734,0.0030327195,0.0010248082,0.0010528435,0.0013648291,-0.00090077316,0.0012776466,0.00012325477,0.0018785235,0.0018340629,0.00062429457,0.0019160239,-0.002985923,0.0021766468,0.0030860156,-0.0014006586,0.0005269922,-0.0017299787,0.0003459256,0.0009253282,0.0027283148,0.00018904767,0.00085433887,0.0004401414,0.0027964003,-0.0019006686,-0.0020751352,-0.0012275914,-0.0007589449,0.0016824576,-0.002705499,-0.0009364437,-0.0027380912,0.001730572,-0.0008498465,-0.0030297006,0.0013558373,0.0030196612,-0.0010027395,-0.0019412842,0.0010058397,-0.00015295355,-0.0033211159,0.0028169774,-0.002440125,-0.0016482015,-0.00088949123,-0.0018287086,0.0005704854,0.0032293706,0.001521647,0.0027056248,-0.00014971412,0.00020715858,-0.00090543134,-0.0029275538,0.0011489594,0.0006894028,-0.0031382407,-0.0016760718,-0.0032586826,-0.0019046866,0.0013524255,0.0028889938,0.0013558578,0.0007884677,0.0027006378,-0.0003684101,-0.00047393402,-0.0029115507,-5.133816e-05,-0.000842068,0.000115824434,0.0024301258,-0.0023510265,-0.0013188442,-0.0022359903,-0.0011696679,-0.0011281518,0.00071867974,0.0011127219,-0.0016529548,-0.0015245978,0.00038311898,0.0018214404,0.0017805632,-0.0009860321,-0.0014141379,-0.0018781201,-0.00018590373,0.00065397046,0.0005091044,0.0024375403,-0.0009043982,-9.382731e-06,-0.0018244601,-0.000392408,-0.0025820155,-0.00032175012,0.00044740038,-0.0028742482,0.0029204176,-0.0030697281,-0.0032171393,-0.0028394586,0.0024319037,0.0018255722,0.0030904403,0.0008465849,0.00029514107,-0.0008516115,0.0031132204,0.0009187772,0.0013720909,-0.00039922787,0.0002987999,0.0022075588,-0.00024358065,0.001111082,-0.00023673555,0.0017474765,0.0012161735,0.0008683398,-0.0017803919,-0.0015656915,0.0014246153,-0.0019806768,-6.533936e-05,-0.00020663335,0.0011607661,-0.0028297126,0.0029310794,-0.0004979068,-0.0017916075,0.0013514808,-0.00064955023,-0.0025897576,-0.0014951518,-0.00012448314,-0.0029834963,0.0001851868,0.00081000355,-0.0010825656,0.0008696468,0.00083041633,0.0033259583,0.00047664644,0.00065790565,0.00094129593,-0.0006992585,-0.0028986454,0.0026815815,-0.000660663,-0.0032435714,-0.0021783672,-0.0013141406,0.0013289783,0.0016803485,0.0020337144,-0.0022593837,0.0002390471,-0.0009156349,-0.0017557911,0.0023235627,0.0013235073,-0.0010374024,-0.002778396,-0.0017308828,-0.00020217149,0.0026207152,0.0020151036,-0.0028371816,-0.0031958225,0.0023745776,-0.0007737554,-0.0012371497,0.0019039056,-0.0019494068,0.0016891948,-7.533743e-05,-0.002293971,-0.00011909761,0.0021397334,0.0031006522,0.0007517716,0.0016964226,-0.0016680835,-0.0002675522,-0.0017753703,0.00039921358,-0.0006001683,-0.0012063909,-0.0023390702,0.003224941,0.0009768446,-0.0007528443,-0.0013955323,0.0025689718,-0.0021458482,0.0010548988,0.00026027267,0.0027649277,0.0022797443,-0.0009716231,0.0008426157,-0.0005687689,-0.00314481,-0.00086321274
artery,0.0004368332,0.0022040987,0.003323721,0.0030032105,-0.0026955497,0.0021648183,-0.0018680686,-0.00027556613,0.00013605968,0.0021771777,0.0014848468,0.0015164001,0.003173523,9.5423115e-05,-0.0020129485,-0.0021310966,0.0021428028,-0.0017780337,-0.00092937885,0.001361197,-0.0007681385,-0.0020158526,-0.0007593008,0.00041152973,0.00075133616,0.0020045512,-0.0017866499,0.0010000416,0.0023925772,0.00070539885,0.0017953075,-0.0015954981,0.0020689112,-0.0025302146,0.0011485378,-0.0030905788,-0.0008556337,-0.0030698709,-0.00054232846,-0.0017589196,-0.0013036571,0.00044182083,0.0009191962,-0.00050665037,-0.0027119338,-0.0019311749,0.0002951793,-0.001276943,-0.0031629172,-0.00022243639,0.0022348613,0.0019709864,-0.0033466977,0.0010394068,-0.0020181637,-0.002995003,6.461228e-05,-8.182662e-05,-0.0023073584,-0.002111413,-0.0008413612,0.0023666406,-0.0025627455,0.0025793763,-0.00015695737,0.00038474076,0.0031804855,0.0015699923,-0.0012051577,0.0012170679,0.0011661877,0.0021458063,4.0824583e-05,-0.0015303493,0.00043683362,-0.0017778509,0.0004372796,0.0016564466,0.0017193852,0.0031506347,-0.0025101388,-0.001836205,0.002165385,0.000536721,-0.0021973394,0.0002974692,0.00086047425,-0.0008069178,-0.0016205506,0.0016434931,0.0032347392,-0.0024373275,-4.350258e-05,-0.0008549485,-0.0021292043,-0.00043673074,-0.001727881,0.0030319884,-0.0019156886,0.0012676013,-8.173754e-05,0.0014085029,0.000757066,0.003331522,0.00021608172,-0.0018504758,-0.00038755138,0.00069840305,-0.0011573065,-0.0025822828,-0.001860841,-0.0022560523,0.0021188625,0.0013371126,0.0027544368,0.0021664705,-0.0020623708,0.0009053557,0.0028512424,0.00048323994,0.0010307118,0.0019391264,-0.0029373958,0.0030552351,0.0022489803,0.0028685257,-0.0027268867,0.0020075531,0.002238575,-0.00042472765,-0.002065288,0.0018086983,-0.0022981048,-0.0018095282,0.0011527144,0.002705919,0.0029081365,-0.0014788697,-0.0030740285,0.0031669475,0.002080303,-0.0013521244,-0.002822084,-0.0015646463,-0.0012885883,-0.0011114744,0.00022731745,-0.000108462315,-0.0010014885,-0.002018899,0.0031492824,-0.0016426339,-0.0024721436,0.0025807032,0.00082850223,0.002909726,-0.0015147261,-0.0023449492,0.00028830697,-0.0003899288,-0.0031638646,-0.00051338295,0.0009912944,0.0022211215,0.0022330293,0.001088301,-0.0015191516,-0.0006196441,-0.0013730151,0.001952893,-0.0021906013,0.00071165717,-0.00042302115,-0.0019345736,-0.0024300492,0.0019555376,-0.0027487832,-0.00026697235,0.000938165,0.0026105035,-0.0024212429,0.0010987747,0.0032542425,-0.0023366378,-0.0011954581,0.001733527,0.0017712221,0.0006056038,0.0026487412,0.00024635956,0.0006042306,-0.00051719195,-0.0027535202,0.0010974937,0.00067638955,-0.002924759,-0.00022276807,2.7881148e-05,1.0015827e-06,0.002905054,-0.0008872666,-0.0019321607,0.0024999785,-0.0024064314,-0.0030245143,-0.0006216204,-0.0027865043,0.00010023141,0.00064688525,-0.000825377,-0.0021618945,-0.0001302286,-0.00038489062,0.0011791135,0.0027029472,0.001917802,0.002825703,-0.0030340555,0.0030953889,-0.00077839755,0.0029036049,0.0007743146,0.0011486657,-0.003224436,-0.0032175577,0.0029669472,-0.00094911334,0.0009241765,0.0021329771,-7.852549e-05,0.003268518,-0.0003431469,-0.0032333236,-0.0023732686,-0.00037642915,-0.002864798,0.0024745688,0.0011655728,-0.0029197468,0.0027810708,0.0030334087,0.0019424419,0.002321728,-0.0031663207,0.00015936255,-0.0031136065,-0.0012053637,7.9391546e-05,-5.6478806e-05,0.00049227045,0.0011025287,0.0007076017,0.0017937643,0.002510412,-0.002016784,0.002634426,0.0020197849,0.0032564763,0.001480423,-0.0011300787,-0.0012143407,-0.00016600254,-0.00054391817,0.0032101679,0.00034777593,0.0013119925,0.001136926,-0.0029618975,0.0022010005,0.002732792,-0.00058355054,0.00079786417,-0.002169396,-0.00204973,0.0028229575,-0.0010092172,0.0022855417,0.0005492379,-0.0006999555,0.0010015224,-0.001353603,-0.000570707,0.0004816147,0.001652628,-0.00047727546,0.00022703463,-0.002688293,0.0031794407,-0.0029285937,0.0023605614,0.0013331096,-0.002278765,-0.0017251575,-0.0026737785,-0.0017042177,0.0023654236,0.0032072638,0.0006999676,0.00024186021,0.0032151723
accident,-0.0016482598,-0.00040042587,0.0010680687,-0.0021782222,-0.0032553803,-0.0031064497,0.0030194493,0.0018241786,-0.0016016596,-0.0028118945,0.00045323666,0.0009368026,-0.0004132075,0.00041669694,-0.0014441197,0.0015999901,0.0005224582,0.002951989,-0.0033261338,-0.0017704812,-0.0030484726,-0.00012480264,-0.0026332443,0.0016849603,-0.0021282693,-0.002007522,0.0016542799,-0.0027532068,0.00048868736,-0.0024545481,0.0033050312,0.0028742945,0.00059333316,0.0019318534,0.001511429,-0.0019684907,0.0032668158,-0.0032599522,0.0026767433,0.0009432534,-0.0010211773,-0.0011632357,0.0030117268,-0.0018483056,0.0027476388,-0.0019787613,0.0028219246,-0.00015916137,0.0026498588,-0.0010386215,0.0020325677,0.0029278824,0.00085517036,0.0004432363,0.0016693956,0.0027049477,0.0028613785,0.002859528,0.0023528738,0.002665839,0.0028794005,-1.0657173e-05,-0.00036962377,0.0005715885,-2.7274125e-06,0.00023492258,-0.002858182,-0.0032190513,-0.0007486098,0.0029543445,-0.0012327988,-0.0023207197,0.0016507818,0.0003178741,0.0006025312,0.0012421018,0.001170721,0.0019152258,0.0004134961,0.00034489986,0.00303128,0.00091179344,-0.001579437,0.0022651786,0.0017536219,0.0009634573,-0.0010770865,0.0011421237,0.0021525698,0.0023766952,0.00031891942,-0.002840827,7.1467744e-05,0.00014820577,0.0013408196,-0.0031482156,0.0032410112,-0.002324748,0.0019453064,-0.0031179271,0.0032252849,0.0024272236,0.0004663418,-0.0011345368,-0.00013537396,0.00010254272,-0.0021289978,0.0019076591,0.0007645325,0.0012948542,-0.0024247982,0.0028513279,0.00015007639,-4.8476795e-05,-0.0030319872,0.0013517056,0.0022639772,0.0024668837,-0.0021159414,-0.0026537424,-0.0018391699,-0.00018398673,-0.0027576804,-0.0027441452,-0.0006397843,0.00041309526,-0.0031376993,-0.0012629976,0.00019717464,0.0022907248,0.00061169796,-0.00020136104,-0.0024936097,-0.0022797515,-0.00022746027,0.0025121188,0.0018152389,-0.0005114791,0.00038550125,-0.0032310688,-0.0004863986,-0.0015728014,0.0019376863,-0.0007628948,-0.0015726485,-0.0031864003,-0.00042157745,-0.0024377792,-0.0005548954,-0.0013464362,-0.00077239185,-0.0011521386,-0.002775171,-0.00042428708,0.00056499103,-0.0013539438,-0.0025907606,-0.0012071389,-0.0030721298,-0.00023435013,0.0019218228,-0.0009824147,0.0010297205,0.0017057785,0.002803598,0.0018779335,0.0031571153,-0.0032142987,-0.0026847976,-0.002237557,-0.0025306393,-0.0026616503,-0.002604974,-0.00096559216,0.00046656825,-0.0009518291,-0.0029273187,0.0016279328,0.00031197577,0.0015476367,0.002410295,0.0025579163,-0.00026036415,0.0012136048,-0.0017416087,0.0006477792,0.0015216096,0.0033782828,-0.0010976376,0.00093905797,-0.0019328679,-0.0007093962,0.0026943516,-0.001305344,-0.00038628923,-0.0031042097,-0.0031288727,0.002959344,-0.0019131878,0.0016714793,-0.0023594704,-0.0007997588,-0.002688207,0.0024964653,0.002012367,0.0017710152,0.0027787096,-0.00024025969,-0.00310724,0.0030494218,-0.0016518546,0.0026024964,0.0018381644,-0.00035147855,-0.002538023,-0.0005102898,0.0020635026,-0.0023592624,0.00044413915,-0.0026627914,0.0029435693,-0.0009781424,0.0030969952,-0.001928962,-0.003263167,-0.0029053185,-0.0013496386,0.0015385619,-7.600925e-05,0.003082351,0.001054612,0.00126514,0.0009883373,0.0027322166,-0.0008283127,0.0024874527,-0.0031870694,0.0009655712,-0.0002351844,0.00011358439,0.0023273907,-0.00095367694,-0.00080454623,-1.26516925e-05,-0.00016935689,-0.0012248607,0.0021207698,-0.0021897631,0.0026451969,-2.7911774e-05,0.0008704227,0.0010842617,-6.963044e-05,0.00057498645,-0.0010852005,0.001566793,9.7911245e-05,-0.0011043673,-0.0029554176,-0.0033725768,0.0001581617,-0.0018890678,-0.00037286893,-0.0014622766,-0.0029241603,0.00032445876,0.0019973973,-0.00072090275,-0.0024306383,0.0010647274,-0.00014974443,-0.0018386829,-0.00037113455,-0.00022909744,-0.0010132516,-0.0033136578,0.0025758292,0.001267093,-0.0008719154,0.0024169171,0.00014303025,0.002380613,-0.0005151841,0.0025051578,-2.059175e-05,-0.0020297416,-0.0016145345,0.003221217,0.00022007243,0.00033290364,0.002829608,-0.0020622718,-0.00057356583,-0.0027392432,-0.0022301793,-0.0028586425,0.0013026431,0.00090577966,0.0019020216,0.0008587556
shortness,0.0007069709,0.0019150334,-0.0007175225,0.0010637499,0.0028113157,0.00012773961,0.0020931927,-0.0022479168,0.002195596,0.0015602105,0.0016987387,-0.003307039,-0.0001381012,0.0010690611,-0.0019415688,-0.002233998,0.0021143174,-0.002282716,-0.0017345691,0.0027131718,-0.0023418528,0.0028494024,0.00022061802,0.0014611692,-0.0010023634,-0.0018101451,-0.0029922999,-0.00020761185,-0.0016972225,-0.0010226376,0.002698376,-0.0025524185,-0.0021022377,-0.0017599929,-0.0022120883,-0.0029394063,-0.00037184014,0.003154986,0.0026901532,-0.0017618681,-0.0027254603,-0.0007563913,-0.0030961602,-0.0016941223,-0.0019879583,0.0010084573,-0.0025162187,0.00041577365,0.0007622936,0.0017662295,-0.0006693634,-0.0032616113,0.0017418907,-0.0019697782,0.0016254032,0.000656857,0.0029408308,0.0005259881,-0.0006158758,0.0021677325,-0.0023583309,-0.002797091,0.0012624545,-0.0008482838,-0.0013897438,-0.0006465097,-0.0032961303,8.703351e-05,-0.0003474237,-0.0009884394,0.0008325567,0.0015611361,0.002116344,-0.0026400792,-0.001668577,-0.0029364156,-0.0029895417,-0.0012412289,-0.00041551606,-0.0027353473,-0.0017951553,-0.0007179298,0.002122601,0.0005344399,0.002768235,-0.002781948,-0.0015396826,-0.0002528763,0.0029403418,0.0003605888,0.00051647174,0.0004368575,0.0009768606,-0.0031244843,0.0010849561,0.0018214309,0.0017603518,0.001480501,-0.002703376,-0.001350176,0.0027892857,-0.00019342636,-0.0031444128,0.0015886549,-0.0020189977,0.0022276433,0.0017950407,-0.0016805115,0.000863619,0.001808303,-0.0012027172,-0.00050259696,0.0030656802,0.0030281488,-0.0031395208,0.0025239903,0.0033068978,-0.0009557899,0.00082523626,-0.0009458455,0.002896629,-8.390769e-05,0.0018680712,0.0030792926,0.0013752775,-0.0023758954,-0.00063814805,0.00032593025,0.0006763205,0.0009934749,0.003156614,0.0014723059,0.0033110268,-0.0028936896,-0.0019242425,0.0006718811,0.0012145699,-0.0003483088,-0.0023096034,-0.0010785466,-0.0028409788,0.0031343803,0.0012455317,-0.0026251813,0.0010579529,0.0013827445,-0.0018874336,-0.0019757084,0.00034283442,0.0029898752,-0.003213531,-5.8748665e-06,-0.002297229,-0.00030582416,0.0010103013,-0.0016774675,-0.0009285471,0.00021738946,-0.0021191302,0.0024257256,0.0014508086,-0.002860522,-0.000729897,0.0010499805,-0.0027892818,-0.0023557413,-0.002808071,-0.0018391936,0.0029477433,0.0023662015,0.0009594839,-0.0028517046,0.0019144444,0.0015449013,4.01692e-05,-0.0029532358,-0.0006281158,5.5240176e-05,-0.0025839207,0.0008156217,0.00016488915,-0.0023453108,-0.0027610532,0.0020197025,-0.002794498,-0.0018542893,0.0018723581,-0.0001641916,-0.0010228653,-0.0017434079,-0.00041115342,0.0017607108,-0.001993025,-0.0016622359,-0.0016521501,-0.0015883244,-0.0026650748,-0.003267075,0.0025299678,0.0026646042,-0.0014301619,-0.0031057152,-0.0006329477,-0.001237432,0.0030310869,0.0009852465,-0.0019994092,-0.0011329395,-0.0033029246,0.0006499296,-0.0013279852,-0.0009084766,0.0017277069,0.00252932,0.0014650729,-0.002274119,0.0022407684,-0.003218704,-0.0023368592,-0.0026683707,-0.0007561588,0.00016028078,-0.0012614281,0.0006067628,0.0030557024,0.0022261532,-0.0003426857,0.0030303774,0.0005194101,-0.0006586486,-0.0021965213,0.002159524,-0.0030272624,-0.00062745746,0.0025689676,-0.0008708793,0.00053384795,-0.0024424132,0.001662806,0.0024554322,-0.0031036097,-0.001087483,0.00263738,0.0009667346,9.157506e-06,0.00010620891,-0.003287414,0.0033213238,-0.0006571969,-0.0016287998,0.0009227221,0.00034910822,-0.0019708634,0.0019385114,-0.00083894766,-0.0020667126,0.0024157162,0.002158779,0.0029387057,0.00038651767,0.00017462997,-0.0026414876,0.0015586134,0.0031202463,-0.00022889659,-0.00059417944,-0.0012757652,-0.00015759308,-0.0025413583,0.0019062927,0.00050466886,0.003097635,-0.0021453288,-0.0016922026,-0.0020796275,-0.002428734,0.0009177324,0.0016397878,0.00044635526,0.001179582,-0.00314068,-0.00035647824,-0.0025839095,0.0009857415,-0.00089551037,0.0029626486,-0.0011464311,0.0022791005,0.0013767981,0.00046333353,-1.1252071e-05,0.002728548,0.0007915419,0.002757767,0.00111123,0.0018149824,0.001697856,-0.0025521393,-0.001935657,0.00041832463
fever,6.4769585e-05,0.0007151123,0.0003552143,0.0025288984,-0.0014738981,0.00010819912,0.0023355118,0.0007505981,0.0014142501,0.0014344259,-0.00042188208,-0.0027741918,0.001014752,-0.002957714,-0.00088695326,-0.0031306816,-0.00015400529,-0.0026210973,0.0024713255,-0.001630106,0.0033061,-0.003010755,-0.0014373919,0.00064297556,-0.0009991435,0.0004819278,-0.0012269481,-0.000298057,-0.0019091221,-0.003273671,0.0021130661,0.00012788494,0.0021698386,-0.002490876,0.0012211836,-0.0032992954,0.0025369104,0.0019748488,-0.0020391599,0.0027376867,-0.0018600158,-0.0028511996,0.0005000953,0.0010599876,-0.0026988669,-0.0029780876,0.0030571076,0.00054792484,0.00029144206,0.0008260775,-0.0011690478,0.00057834666,0.0006526943,0.003268667,-0.0018693769,0.00075767556,0.002102381,-0.0022257774,-0.00297793,0.002885406,0.0022793503,-0.0013399248,0.0019141149,0.0002628398,-0.0016702279,-0.0004499189,-0.0016327882,0.0020449257,0.00065395515,-0.002773313,-4.875342e-05,-0.0008825803,0.0022021756,-0.0003818965,0.0025553675,0.0006494252,-0.00127684,0.002719386,0.0009831786,-0.0013233459,-0.001866614,-0.0010297557,-0.0017115235,0.0011467071,-0.0030942115,-0.0019402842,0.001113741,6.5883396e-05,0.0019983673,-0.0012018597,-1.99159e-06,0.0008250006,0.0018202185,0.00053712924,0.0032720314,0.0012394043,-0.0023940594,-0.00046869158,-0.0027893765,-0.0017756912,-0.0007317992,-0.0032358833,0.0030984299,0.00067732256,-0.00038706063,-0.001834569,-0.0028366104,-0.0033011583,0.0029814616,-0.0008331418,0.0015307923,-0.0015057882,0.0033193529,0.0012182402,0.0003418978,-0.0013480346,0.00040354053,-0.00088226795,0.0024502461,0.0014927511,0.00032889406,0.0011610293,0.0012381169,-0.0022617916,0.002976921,0.00057874364,-0.0019291547,0.002885561,-0.00043049257,0.0027290126,-0.0005022903,0.0023292173,0.0009087988,-0.0014532431,-0.0012493094,0.0030639274,0.000530622,-0.002002337,0.000116540985,-0.00065413275,0.00052817503,-0.0025724391,0.0024613624,0.0004374087,0.0026250656,0.001484348,-0.001464624,0.0012508937,-0.00021282832,-0.0032854164,0.0027473767,0.0032164578,0.0032177968,-0.0012666015,-0.0028165411,0.0016092348,-0.002551827,0.0028440172,0.00092008355,0.0018677791,0.0020388314,0.00015493591,-0.0006982982,0.00025772414,0.003278653,-0.0023748453,-0.00051748473,-0.0007861805,0.0016220026,0.002150013,-0.0013773465,0.0012078898,-0.001493709,0.0010901554,0.0027228245,0.001209536,-0.0015242704,-0.0010030548,0.002622135,0.0032013536,0.0019390313,-0.0010913451,-0.0006084275,-0.0020857977,-0.0014318582,0.0011247874,-0.002162582,-0.002205387,0.0027038066,0.0031684872,0.002713528,0.00050347805,-0.0029319632,-0.0025323888,0.00052402617,-0.003175877,-0.0024700698,0.0006747079,-0.00097372296,-0.0030523369,0.0021384775,-0.002983714,-0.0024484908,-0.00058371463,0.0005660029,-0.00034474014,-0.0017347578,0.0021930838,0.0029276037,-0.0024706991,0.003268522,0.0024555493,-0.0024869083,-0.0006333192,0.001417346,0.0023532016,-0.0012212289,-0.0023243607,0.001574945,-0.003012869,-0.0019501011,-0.00042782704,0.0018269726,-0.001895647,0.0015949286,-0.00014498194,0.0008890879,0.002134643,0.00047254364,0.0025695248,-0.000107467175,-0.002754568,0.0030594997,-0.0016194009,0.0015739687,-0.0013009278,-0.002443173,-0.0021708831,0.0015591113,-0.0002198108,0.00048675656,-0.002976093,-0.0017155175,-0.0020181409,0.0028042626,-0.002899144,0.0016749481,-0.00028711717,6.312569e-05,0.0029332526,-0.0011951459,-0.002312446,0.00025452653,0.0025809451,0.0030402879,-0.0012282372,0.0009109358,0.0016475371,-0.0017640161,0.0022841783,-0.00215099,0.00070028106,0.001529086,0.0014617041,-0.0015554281,0.00088080723,0.0024366546,0.002870563,-0.0031708435,0.0018582491,0.0016560212,-0.000531586,0.0030622948,-0.0013936702,-0.0005829076,-0.0022877692,-0.0012588918,8.089185e-05,-0.0010905111,-0.0018057545,0.0021896248,-0.0017676187,-0.0021072102,0.0025469891,0.0032170613,0.0013316397,8.775393e-06,0.0002630973,-0.00032051763,0.0022875508,-0.0020843316,0.00016920328,0.0014307165,-0.0007038045,0.00029796083,0.0012367137,0.0032366845,0.0007252534,0.003166721,-0.001943281
renal,0.0015995349,-0.001203582,-0.0014248816,0.0003991569,-0.0013760932,-0.0018850999,0.0010546254,0.0027914515,-0.002183792,-0.0030474775,-0.0011072202,0.0025032097,-0.0032297617,0.0032002137,-0.00013916045,0.0007736561,-0.00061259366,-0.0019163445,0.0010363447,0.0020610616,-0.0023494605,-0.00039362785,0.00051641563,0.0014206802,0.0023825923,-0.0011881602,0.0024238587,-0.0018553034,-0.00072391017,0.0030275334,0.0018039017,-0.0028289524,-0.00055390206,-0.0029446098,-0.00054716185,0.0018845316,-0.0024655173,0.0018305426,0.002026439,-0.0012539326,-0.0032157695,-0.00083379186,-0.00084558973,0.0012464586,0.0029854574,0.0006712516,-0.0007026859,0.0009985083,-0.0022651122,-0.00042765087,-0.00049286283,0.0032054344,-0.0019371654,-0.0023475403,0.0007881667,0.0008922507,-0.002387196,-0.0019600936,-0.00039468135,-0.0011043546,-0.0029874274,-0.0013481799,-0.0009976646,0.0021689346,0.00032089278,0.0005350648,9.500055e-05,-0.0011309432,0.0010317457,0.00023654007,0.0019917255,-0.0002596712,-0.0029623425,0.00028993963,0.0033134008,-0.0017473468,-0.0017425958,-0.0008377837,0.00285749,-0.0002663909,0.0031441257,-0.0027806035,0.002998042,-0.003222302,0.0030716874,0.0006242732,0.0008781519,-0.001953824,0.002818496,0.0020189479,-0.001827587,-0.0031653822,0.0023151964,-0.001838945,-0.0030983626,0.00086664956,-0.0016594561,-0.0024548764,0.0032545703,-0.00052031456,-0.0005045741,-0.0013467429,-0.0014551325,-0.0015450018,-0.001866611,-0.0017728045,-0.0026733761,0.003174222,0.0021264374,-0.0011953479,0.0008304433,-0.0025404855,0.0025029404,0.0027657608,0.00026820318,-0.0022811196,-0.0009861729,0.0015858398,-0.0009777548,0.0010547233,0.003131764,0.0014529307,-0.0017145424,0.0018195655,-0.0009627409,-0.0021245694,0.0023440055,-0.0030906461,-0.0003865437,-0.00046459681,-0.0028092,-0.00037288383,0.0018609872,-0.0017503247,-0.0023401247,0.0020756496,-0.0011411511,-0.0026136932,9.4048715e-05,-1.7608394e-05,0.0025120014,0.00018670005,0.002622678,-0.0032634789,0.001349324,0.0020651259,0.0003409508,-0.0009505122,0.00034208765,-0.0002781142,-0.002703888,-0.0022708753,0.000393081,-0.0006748356,0.0031793173,-0.00032007546,0.002029377,0.0006827468,0.002693759,-0.003097908,0.00079587306,-0.00048127928,0.0007200251,-6.295266e-05,-0.0022135552,0.0030180856,-0.0009480899,0.00063973776,-0.002154711,0.0012357417,0.003325168,-0.0004008031,0.0021886562,-3.787099e-05,0.0026412138,0.0032214737,-0.00012789409,-0.00056749425,-0.003174281,0.003291891,-0.00084312615,0.00072467513,-0.00056893,0.0027756551,0.0027796235,0.0005168568,0.00096232747,0.002158463,0.00073843414,0.0021452017,4.614195e-05,-0.00075803255,0.0017695226,-0.0011421234,-0.0008652238,0.0029277224,-0.0030471329,-0.0011306882,-0.000977852,0.0018846,0.0026399766,-0.0021520532,0.001929559,-6.5687105e-05,-0.003019359,-0.0008138771,-0.0005318462,-0.0014942216,-0.00026125513,-0.0017435544,0.0019753044,0.0030952876,-0.0005328115,0.0011244059,-0.00025061486,-0.00024069184,-0.0023427259,0.00047675392,0.0012905195,0.0023038534,0.0021911883,0.0011733025,0.0015510978,-0.0024792016,-0.0004721653,-0.0019329087,0.0022739326,0.002602496,-0.0014216924,0.00038887444,0.0017085507,0.0006033195,0.00026162254,-0.0022400839,0.0032689883,-0.0024152566,-0.0020179874,-0.0018864992,-0.002122819,-0.0011729916,-0.0031232303,0.00038914362,-0.0012670833,-0.00084277673,0.0019250173,0.0011777588,0.0006236634,-0.00046176914,0.0032955478,0.000100289784,0.0016711765,0.003010208,-0.0032491712,-0.003057231,0.0032990554,0.00090551405,-0.0006277371,0.0015724096,-0.0014499071,-0.0021451178,-0.0027451594,0.0024103809,-0.00081362406,-0.002530111,-0.0019824968,0.0020542631,-0.00081991754,-0.0020430565,-0.00054126274,-0.0004938473,-0.001083679,-0.0007036889,0.0013678387,0.00048564008,-0.0011494001,0.0009064073,0.0017456616,-0.0030663495,-0.002528113,0.0020914946,-0.0029768164,0.00017338408,-0.0029976333,0.0027911442,-0.0014345001,-0.0022131875,-0.00047002675,-0.0003707677,0.0025116524,0.0030336578,-0.00011668347,0.0008998779,0.0015827806,4.5674315e-05,-0.0019253646,-0.00019997057,0.000725462,0.0027695142,-0.0011979198,-0.0032808157
liver,0.0017988131,0.0032911254,-0.0023655372,-0.00021257284,-0.0016962356,0.0021390405,0.0032195705,-0.00010487458,0.0017128765,0.0021620314,0.0014736599,-0.0026769408,0.001039743,-0.00050305686,-0.0007048143,0.0018005215,-0.00043748273,0.0032901969,-0.00020271141,8.8850466e-05,-0.000762961,-0.0028397497,-0.00326511,0.0016480425,-0.0022012028,0.0009778554,0.00090294436,-0.0023472034,-0.001062751,-0.0019546216,-0.0028450217,2.8269988e-05,0.003257312,-0.002221661,-0.0014570572,0.0027962504,0.003110077,0.0032756096,-0.0033049001,0.0016900331,-0.002209648,0.0023173904,0.0020409646,-0.0011391235,0.0022943974,-0.0026063437,0.001525547,0.0015435057,0.0019682788,0.0019695943,-0.0008783452,0.0012935927,-0.0020561474,-0.002150008,0.0009128828,-0.0031508398,-9.733574e-05,0.00038259866,0.002667207,-0.0023446404,-0.00078137475,-0.0013662346,-0.0017491181,-0.00014504879,0.0015376018,-0.0016489152,-0.0005439775,0.0028786666,-0.00043207823,-0.0011994138,0.0024796857,0.00041015426,-0.00011586271,0.0031406719,0.0027101485,0.0011510672,0.0011206729,-0.00075859885,0.0026975991,0.0017094578,-0.0017968331,-0.002044866,-0.00020214143,-0.00261482,0.0011256107,-0.0030689542,-0.0005252765,0.0011380739,0.0010217105,0.0010524185,-0.003013012,0.0011469478,0.0017899167,0.0011668364,0.0026020077,0.00055401545,0.002090576,0.00294808,-0.0003026773,-0.0002622699,0.00073330407,-0.002518929,0.0018930305,-0.0016826211,-0.0010993208,-0.00062524853,0.0027502635,0.00075077394,-0.00031330233,-0.0009316609,-0.0007012409,-0.00042721644,-0.0016919516,-0.0013690366,7.149327e-05,0.0015262241,0.0006005916,0.0023063226,0.00022851629,-0.0011036638,-0.0024593617,0.0020057468,0.0023293402,-0.002033615,0.0015504053,0.0031830221,-0.002126236,-0.0009789664,-0.0030286731,0.0010863632,-0.0011208368,0.0006979466,0.003140267,-0.0027937796,-0.0031164978,0.0005854281,-0.0026794581,-0.003028046,-0.0031221623,-0.00010988461,-0.00037823815,0.00023208353,-0.00045105006,0.0030081265,0.0029521831,-0.0021257254,0.0028838594,-0.0030156136,-0.00043547453,0.0008475104,-2.6872558e-05,-0.001298653,0.0001263147,0.00034549952,-0.0031365792,-0.0016242344,-0.0025873233,0.0012651032,-0.00030901592,-0.0024926853,0.0018609613,8.4457795e-05,0.00087978627,0.0018238556,-0.0014191956,0.0026167338,-0.002626686,-0.001171878,-0.002462361,0.000341061,-0.0024901673,0.003027808,0.0018457817,-0.002413494,0.0020357575,0.0022003388,-0.002457908,0.001539265,-0.0025624088,0.0031107913,0.0015593409,-6.60776e-05,-0.0029946917,-0.0002909642,-0.00010335663,0.0003196894,0.0028971892,-0.0009106799,-0.0029096007,-0.0029508455,-0.0003574444,0.00046247194,1.6309365e-05,-0.0007394464,0.0028526327,3.1270756e-05,0.0021443325,0.0013292537,-0.0024104775,-0.00071385986,-0.0026150544,-0.002237797,-0.0010573467,0.0021998433,-0.00028216996,0.0029642256,-0.0007726492,-0.0017716589,0.0013079297,0.000740908,-9.241663e-05,-0.000815538,-0.002000128,0.00134815,-0.0025389576,-0.0029786814,-0.0030565455,0.002775931,0.0013107057,0.0023635677,0.0033051444,-0.002422742,0.001329985,0.0009453656,0.0020452363,-0.0011484328,0.0031226007,-0.0019417227,0.0023391533,0.002327532,-0.0001293817,0.0016875238,0.0022179086,0.00050331524,0.0024437301,0.00081893685,-0.00050471054,0.00246019,0.0015624186,-0.0010769857,0.0005713645,-5.4805405e-05,0.0016498051,-0.0017967954,-0.0013992336,-0.00032022037,0.0012831078,-0.0021895636,0.0026245262,-0.001020134,0.001912803,0.0009558758,0.0022879515,-0.0014832206,-0.0010852517,0.001014881,-0.00092230557,0.0019814947,-0.002005296,0.00084527285,-0.00021877227,-0.00019240426,0.0008501958,-0.0007653373,-0.0014295425,-0.0028619973,0.00083579856,0.0017777883,-0.0019628978,0.0030462143,0.001341894,-0.0017101958,-0.00044409905,0.001303758,-0.002312576,0.00069306174,0.0018421706,0.0020867868,0.0017972067,0.0012250011,-0.0009239795,-0.0020296506,0.0027203176,-0.0024267256,-0.00053844485,-0.0010866994,0.0021467963,-0.002090972,0.0011367382,0.00068148156,-0.0013584926,-0.0027326725,-0.0026646422,0.0011615314,-0.0031887165,0.0019002813,-0.00097485085,-0.0030674606,-0.0017170676,0.0025861375
pulmonary,-0.00057217246,0.0021517635,-0.0031082006,-0.0030640578,-0.0017416654,0.00031074425,-0.0023863732,-0.0031359054,-0.0029658412,-0.00017274413,0.0024713897,-0.0027996625,-0.0017821466,0.00050485425,0.0011141999,-0.0028227475,0.0026305702,-0.0027471485,0.0015869074,0.0031475169,0.0018760536,0.0020647838,0.0027554797,0.0011470916,-0.0023693275,0.0019160112,-0.0027979396,-0.0019162777,0.0019618063,-0.002663074,-0.0019443574,-0.0011903133,0.0011370013,0.0017400103,0.0006670663,0.0017144432,-0.0008779697,0.0014486285,-0.0023603288,-0.00054835883,-0.0025776974,7.327947e-05,0.0015564322,0.0015943532,-0.0015452673,0.0006088378,0.002612975,-0.0018447298,-0.0012679873,-0.00018553597,-0.0015594405,0.0028930188,0.0025076328,0.003084514,0.003115155,-0.0027915463,-0.00016673403,-0.0025210076,-0.0016063189,-0.002947623,0.0011389921,3.8650192e-05,-0.0023295165,0.0026694906,0.00031373976,0.0001129135,-0.001181618,-0.0011309049,-0.000878204,0.0025341592,0.0007938851,-0.0017217585,0.0015869458,0.0003064553,-0.0009157683,0.0025807465,-0.0013225299,0.0024818012,-0.0014084905,-0.002422311,-0.0014970802,-0.0013053899,-0.00023168714,-0.000585474,0.0017087896,0.0018188726,-0.000594104,0.0012581757,-0.00066074874,0.00024399938,-0.00043728983,-0.0008142719,-0.0015763051,-0.0014181181,4.4246648e-05,0.0005611539,-0.0031480927,0.0020267102,-0.00055425335,-0.00097554654,-0.0016013297,-0.0014417481,-0.0015843827,-0.0032756953,-0.00026197138,-0.0026202037,-0.0015988288,-0.0024619985,0.0033094753,-0.00043943676,-0.0025805437,0.0018464929,-0.002686352,-0.00062595966,0.0009172166,-0.0023556734,-0.0029109262,-0.0022180504,0.002505578,0.003004296,0.001347634,0.00080843415,0.0013838261,-0.0013540589,0.0032495076,0.0023154067,0.0013857554,0.002969436,-0.0028026903,0.00032312394,0.0029847042,-0.000300738,-0.0022504807,-0.00076323596,-0.0009294742,-0.00082694733,-0.0006185995,0.0024239325,-0.00010031368,0.0014026925,-0.0012645067,0.0027407773,-0.002168348,-0.0031135024,-0.0013691975,-0.0024700027,-0.0016495966,0.00015281652,0.0008075976,0.00058081927,0.0016746869,-0.00049194566,0.00073943014,0.00012536938,0.0026187205,0.0026889474,-0.00067389297,0.00041239566,-0.0020321098,-0.0015803524,-0.0023437485,3.37548e-06,-0.0016615294,-0.0013394896,0.0004789741,0.0008747644,-0.0030438553,0.0005736384,0.0017010234,0.0013974487,-0.0009854375,0.0031571072,0.0031510866,-5.655558e-06,0.00027240548,-0.0030808512,-0.0015956867,-6.406141e-05,0.0013462852,5.2314525e-05,-0.002912117,0.0019478695,-0.0024739583,0.0028538704,0.0018322407,-0.0022520667,0.00095952046,0.0026010561,-0.00204773,-0.0021890367,0.003062037,0.000613109,0.0032234774,-0.0033066166,-0.00051180023,0.0022904621,-0.0004811551,-0.00059121166,-0.0023682115,-0.0018847409,-0.0021841454,0.0029943695,-0.00054205075,-0.00276793,0.0026682601,-0.0009932176,-0.0004542227,-0.00022911518,0.00094414497,-0.0015793141,-9.261235e-05,-0.0009573998,0.0029314954,0.00229752,0.0003720448,-0.0020422298,0.001049201,0.00035821134,-0.0020619556,-0.0019250979,-0.0010291012,0.0007792843,-0.0027396295,-0.001681281,0.0026875758,-0.0012466264,0.0026663144,0.0001739646,-0.0018524155,-0.00165803,-7.174328e-05,0.0015390853,-0.0020323722,-0.0018362838,-0.0022822942,0.0022557478,-0.0008040134,0.0013315823,-0.00054931775,-0.002499474,-0.0003938074,0.00012913537,0.0011865563,-0.0028791935,-0.0022657376,-0.0022025877,0.0010054605,-0.001254772,0.00035307885,0.0013855228,0.0015084916,0.0007880454,-0.0009469937,0.00021806739,-0.0018194416,-0.002128914,0.00291609,-0.0013592818,-0.0031292334,0.00122508,0.0028443993,-4.7367583e-05,0.00075495394,-0.0012139414,-0.0014069767,-0.002880883,-0.0026198789,-0.0030269113,-0.0020105026,0.0028328456,0.0031335568,-0.0005571943,4.337233e-06,0.0026120418,0.00044964108,-0.0017110634,0.0008995356,0.00060860725,-0.0012634238,-0.0016362054,0.0032158748,0.002562536,-0.0028730754,-0.0018324521,0.00047436525,0.00030938294,-0.002804199,0.0031232352,-0.001789202,0.0015295378,0.0030893546,0.00039462326,0.001423433,-0.00091359013,-0.0032303233,0.00020336227,-0.00036259752,-0.0033088753,0.0023431026,-0.0024611405
thrive,0.001706053,-0.0014740858,-0.0030652885,-0.0030225855,0.0020777413,-0.0017449128,0.0017521548,-0.0005246785,0.0032323657,0.0023858568,0.0032986642,0.0027930094,-0.0026249252,-0.0031939403,-0.0018582015,-0.0002674268,0.0016682275,0.0012268628,-0.00067403715,0.0016799768,-0.0011334098,-0.0022699984,0.0015695901,-0.0032838585,0.00029583246,-0.0016697679,0.0025315997,-0.0012393994,0.00093620224,-0.0020863004,0.0032059941,-0.001863972,0.0011899568,0.0010809468,0.0029792262,-0.001854167,-0.0014567486,-0.0020736023,0.0020499865,-0.0015278362,0.0016046468,-0.00029991826,0.0024246136,-0.002013621,-3.1165997e-05,-2.7569757e-05,-0.002846361,0.0029120746,-0.0007010425,0.002146084,3.0575036e-05,0.00167894,0.00073894055,0.0029496585,-0.0027760856,0.0028115127,0.0028839489,0.0003523561,0.0014731293,0.0012787401,0.00135156,-0.0009805001,0.00094908976,0.0002532774,0.0016092921,0.0028064772,-0.0025829934,5.1612788e-05,-0.002908973,-0.0005263914,-0.003012539,0.0010547477,-0.0005246303,-0.00022980335,0.0021459737,-0.0026989374,0.0003837798,-0.0008066051,-0.0012457311,-0.002427146,-0.00265831,0.0027656157,-0.0024775323,0.0016040555,-0.0012617806,-0.00040558135,0.0009360089,-0.0028648234,-0.0018848054,-0.0025783826,-0.0031363054,-0.0015823939,-0.0010531012,0.00016559979,-0.00023101488,-0.0026242181,-0.0012624803,-0.00091472256,-0.0021287191,-0.002123799,-0.0008671004,-0.0026395663,-0.002751068,-0.0025302186,0.0011825131,-0.0025314323,-0.0012360825,0.0022103926,0.002468634,-0.0021317778,0.0022682631,-0.002587585,4.2333028e-05,0.0022025972,-0.0009456603,0.003072806,-0.000105668645,0.0015643021,0.002316235,-0.0028461306,-0.002022606,-0.002430012,-0.00039384956,-0.0023639125,3.721862e-05,-0.002680451,0.00017149425,-0.00013217168,0.0021569158,-0.0029590218,-0.0010594109,0.00196767,0.003076556,-0.00059207866,0.00025796713,-0.0020320516,0.00027443012,-0.0027127496,-0.002545693,0.0004602732,-2.8527347e-05,0.0018514338,-0.0032440943,0.0005492453,0.0005249115,-0.001751067,2.4391144e-05,0.0020178682,-0.0021998025,9.715797e-05,0.001296668,0.0005701493,0.00095521525,0.0027163594,0.0022299187,0.0011662154,0.0026581837,-0.002553654,0.0025137768,0.0012983849,-0.0019629467,-0.0013970797,0.0021322141,0.0019327109,-0.0032848206,0.0004170322,-0.00013077074,0.0002709981,0.0023616308,-0.00239211,0.003213719,-0.0031541116,0.0020698472,0.0031655668,-0.0012738075,-0.0031287803,0.0020615612,-0.0029872383,-0.0027655752,-0.00027954413,-0.0022142676,0.0029154315,0.0026162672,0.00027868454,0.002666334,0.0032827277,0.0017301167,0.0014396647,0.001792244,0.0021369087,0.0015763553,0.0021289133,-0.002483258,0.002952653,0.0027618252,0.0031241265,-0.0030042792,-0.0011520042,-0.00011726434,0.0013881841,-0.002739421,5.5957265e-05,0.002006079,0.003190735,-0.00094855047,0.00060757884,0.0021062137,-0.0006623005,0.00065690716,-0.0031067478,0.00023908702,0.0015278109,0.0014977634,-0.003247946,-0.0017184821,0.0009920036,0.00053150987,-0.0015673632,0.0019385703,0.0011708947,-0.0026066662,0.0032793,-0.0025708154,-0.0010075383,0.0032475542,0.0003819397,-0.0018486636,0.00037586343,-0.0013623799,-0.002246333,-0.0025877547,0.0015878993,-0.0030108814,0.0013547834,-0.00184419,0.0018091035,-0.0014552916,-0.0018614599,0.0021171828,-0.002880498,0.00044270096,-0.0007058888,-0.002231819,-0.0025505503,0.0022527997,-0.0014876511,0.0015317356,-0.0032213577,0.0006378022,-0.00065241515,-0.0019684238,-0.0009251372,-0.0028869652,-0.001158999,-0.00086158776,-0.0007618565,-0.0017024447,-0.0030667626,0.0017824896,-0.00043401998,0.002057475,0.0010223466,0.0028481388,-0.0011695363,-0.0029657364,0.0004442841,-0.0029940212,0.0020150957,0.002817022,0.00016773275,0.002567785,0.0028422815,0.001399848,0.0018054798,0.003040569,0.00038274578,-0.0027479234,-0.0027782721,-0.0005932659,-0.00020999394,0.002938993,-0.0031018448,-0.0008608507,0.0030372425,-0.00048163522,-0.0030257138,0.00067151495,-0.0019467646,-0.0018277101,-0.002116901,4.212983e-05,0.0024072593,0.0013739291,0.0027169753,0.0029496993,0.0015097511,-0.0020169537,0.002356817,-0.0031801066,-0.0015986459
gi,0.002669112,0.0026470106,-0.0018088334,-0.0026603157,0.00269157,-0.0012735331,-0.001350966,0.0023996918,0.0018023367,0.0012700253,-0.00041187785,0.002886566,0.0028172508,0.0023230517,0.0030247164,-0.0019236754,0.00034071392,-0.00054427754,0.00211987,0.0032591403,0.0017252967,0.0013481415,0.0021801745,0.0019548563,3.9836155e-05,-0.0027831544,-0.00072699616,0.0030228798,-0.0016982354,0.00033184045,0.0016275776,-0.0023124553,0.0027259854,0.0004878737,0.0008066609,0.0027639568,0.00048613222,0.0002907779,-0.0031412747,0.0032910316,-0.0032875985,0.0028626737,0.0016830044,-2.1974347e-05,-0.0026210991,0.0031142998,-0.00045888402,0.001784978,-0.0010146342,-0.0016299785,5.1581053e-05,-0.0026784206,-0.002221896,-0.0031508585,0.0017838171,0.00015139641,-0.00030772877,0.0016995,-0.00065519987,-0.0024666328,0.0009577689,-0.0019904536,0.00015521342,0.0031616732,-0.0003197445,0.0020454891,0.0014927249,-0.0011821958,-0.0017468464,0.0029479766,0.0006990911,-0.00014432696,0.00029522405,-0.001651368,0.0011760645,-0.0010270854,0.0014031803,-0.0015222313,-0.0002658431,0.0013064857,-0.0023799336,-0.00084378093,-0.0029105302,0.00053470617,0.0006764186,0.00080363284,0.00036217054,3.196004e-05,0.0007388602,-0.0003161294,0.001974658,-0.000986184,-0.0017002013,-0.0017777289,-0.0032174208,-0.002697843,0.0007039085,0.0013284581,-0.0019176158,-0.0032248911,-0.0020579023,0.0015517628,-0.0030213157,0.0016947505,0.0021220606,0.0020324471,-0.002539367,0.00094509777,-0.0018253573,0.0030209098,-0.0014358565,-0.00078199373,0.0017381812,-0.0002688489,0.0017048359,-0.0014108919,0.0016629733,-0.003263843,0.0020287454,-0.00040991572,-0.0018695198,-5.403368e-06,-0.00039724997,-0.00024532975,-0.00058752554,-0.0030873606,-0.0025991593,-0.0022740127,-0.0028753919,-0.001508705,0.003066973,-0.00060654565,-0.002535921,-0.001968137,0.0012019344,-0.0008998936,-0.0005205132,-0.0014160238,0.0019871118,-0.002615588,-0.0025015746,0.0025124534,-0.0023240945,0.0007178416,0.00012929265,0.0032285573,0.0014079738,0.0006899181,0.0009236004,0.0007674309,0.00073996064,-0.00091848365,0.0013551401,0.0020357901,0.0029776588,-0.00024877375,-0.00040770296,0.0021521465,-0.0028292905,-0.00022130499,-0.0022274938,0.0015986677,-0.002985987,0.0010898111,0.0029999595,-0.0006895533,-0.002951725,-0.0027269134,0.0010786225,-0.0017812828,0.002142412,-0.00039939236,0.0026222232,-0.00016273804,-0.002075376,-0.0019035967,0.0002561952,-0.0016003095,0.0021877,-0.0011658936,-0.001878993,0.00031690247,-0.0016259856,-0.0027404635,-0.0017502,-0.00062269066,0.00014566517,0.0012187411,0.0022814553,0.0022465945,0.0019594654,0.00010771096,-0.0019440313,0.0030012482,-0.00021683222,0.0015727112,-0.00047287525,0.0019322498,0.0017667667,-0.0024290255,-0.00091327686,4.0418206e-05,0.0006823525,-0.003092548,0.0016122935,0.0011253839,-5.6604877e-05,-0.0011635899,-0.002542699,0.0025295862,-0.0028673562,-0.002465218,0.0014814985,-0.0028351047,-0.0010962475,-0.0007035908,-0.0006375401,-0.0022848982,0.0014216905,0.00033198672,0.0012173732,-0.00044418836,0.0023023947,-0.003183132,0.0019502972,-0.0017132567,0.00057147455,-0.0023157268,-0.00082831515,-0.0021477423,-0.0011189384,0.003246066,0.0008956281,0.00053419545,-0.0020307319,0.0018642308,-0.0027058613,-0.0007632123,-0.0021558218,-0.002133126,0.0007731904,-0.0010985871,0.0008072596,0.0013103005,-0.0020912003,-0.00057990645,-0.00091994635,-0.0032664018,-0.0032827554,0.00037139808,0.0014643103,7.228941e-05,-0.0016247692,0.0012112521,0.00055558566,-0.0031517872,0.002397224,0.0025958216,-0.0025841158,-0.00026159317,0.002016077,-0.0009225837,-0.00011119199,-0.001419874,0.0020312138,0.0023285642,0.0006936996,-0.0015700408,-0.00062165724,-0.0013359918,-0.003261622,0.0026090043,-0.00020442199,-0.00020312455,0.002371965,-0.0030075542,0.0021095134,-0.0025164047,-0.0017922517,0.0016873832,-0.0011627044,-0.001166336,-0.002109494,-0.0013056258,-0.0008871967,-0.0013636617,0.0031491888,0.0031503495,-0.00012744254,-9.63073e-05,-0.0018766825,0.0026464744,-0.0016426663,0.0019642138,0.0030406606,0.00191169,-0.0003191091,0.0018442333,0.0023182852,-0.0012918795
pain,0.00022416977,0.002174203,0.0019541509,-6.6817345e-05,0.0007885649,-0.0021725944,-0.0031148477,-0.001646891,-0.0017962708,0.00017387328,-0.0013181395,-0.00013308924,0.0025458855,0.0032465742,0.0026329607,0.000798945,-0.0009043144,0.0008167216,-0.00090379856,-0.0029868314,0.0022888957,-0.0028911815,0.0012696948,-0.0013200092,-0.0018443365,-0.0003443653,-0.002200156,0.00285999,-0.0022995425,-0.0029973919,0.0019365583,0.0014891842,0.0015701344,0.0008099244,-0.0012412452,-0.0017046834,0.0005939201,0.0027792235,-0.0018826158,-0.00078782544,0.00062672124,0.0022586624,-0.0021411635,-0.0015188652,-0.0008777328,0.00046072036,0.0017999292,0.0018585243,-0.0029098382,0.0024371333,-0.0008323935,-0.00095582503,-0.0029546032,-0.0019312996,0.0031491928,0.0010466832,-0.0026792209,0.0009440512,-0.0023619873,-0.0030231716,0.001286225,0.00067705073,0.0004104193,0.0029645127,0.002093876,-0.0016928386,0.0009123456,0.00084823044,0.00080740446,0.0027761944,-0.002311908,-0.0007604312,0.0003451218,0.0021299596,-0.00021610866,0.0026520994,-0.0015581093,-0.003007994,-0.0023618252,-0.0013681878,0.0032013643,-0.001724946,-0.0016217778,0.002743462,-0.0024831602,0.0006773215,0.0019076102,-0.0025186294,-7.504171e-05,-0.00078912394,0.0018567477,-0.0015111673,-0.002211114,0.0033035548,-0.0015425945,0.0025444697,-0.0028236797,0.002346114,-0.0011237037,-0.0026110625,-0.0003911382,-0.0007928447,-0.00059205986,-0.00039645736,-0.0021695688,-0.0011893912,-0.0010668559,0.0025736415,0.00195793,-0.00029088822,-0.0016060715,0.0017700215,-0.0029483521,0.0005623207,0.001332392,-0.00065271737,-0.0014988086,-0.0027291349,-0.0027537786,0.0023705724,0.001218921,-0.00012029061,0.0032372198,-0.0028482608,0.00020097237,-0.00013908779,-0.0026814963,-0.0030450644,0.0024022984,-0.0012201358,-0.0026259094,0.0026607586,-0.002077475,-0.0010515257,0.00058608776,-0.0011186836,-0.0026596035,-0.0013055715,-0.0030054753,0.00045937797,-0.001556907,-1.7353315e-05,0.0009192247,-0.000795364,0.0029411344,0.0023408576,-0.00019454202,-0.0002224865,0.0002883443,0.0022505436,0.0029941064,-0.0006552573,-0.00054597197,-0.0009906645,0.000164012,-0.0021633513,-0.0006402541,-0.002893017,0.00020647128,0.00047909626,0.0012347787,-0.0009578272,0.001975304,-0.0023485986,0.003273473,0.00018082351,0.000763663,0.0014514431,0.00013279212,0.00086915115,0.00053745304,-0.003208972,-0.0010595872,-0.0008685915,-0.003082229,0.0011526275,0.0016045453,-0.0007053888,0.0024729862,-0.00040293986,-8.887327e-05,0.0019309621,-0.0028279934,-0.0023042343,0.00245045,-0.0021919832,0.002833582,0.0018085719,-0.002690934,0.0027991983,0.0021036046,-0.0022394126,-0.002839079,-0.0029470364,0.0012762084,0.0021046083,-0.0007115339,0.00045638828,-0.0028047105,-0.0017087399,0.0015532931,-0.0030161655,-0.003085299,0.00033543125,-0.0028824622,-0.002322115,0.0015874375,0.0026758593,-0.0024474063,0.0027144435,0.0031290513,0.0015742268,-0.001469529,0.003236652,-0.0025833328,-0.0013009002,0.00063842564,-0.0025562975,-0.003306348,0.00095738814,0.002741389,-0.0017155061,-0.0014446115,0.001295624,0.00023183359,-0.0028532299,0.0022004822,-0.0010562076,0.0011962935,0.0010524462,0.0029710836,0.0029267361,0.002435058,-0.002761886,0.00040016044,-0.00032601046,0.0002963446,0.0029718946,0.0015906141,-0.002979541,0.0032898684,-0.0002979262,0.00012425116,0.0016653886,-0.002074019,-0.0001384323,0.00047630328,0.0023553967,0.0014352886,-0.00065150403,-0.002820582,-0.0012908585,0.0029339513,-0.0031657051,0.0032723814,-5.2349686e-05,-0.00037148298,0.0032032914,0.003182873,0.002752983,0.0030111033,-0.0033260398,0.002503744,-0.0031298648,-0.0025879336,-0.0029553007,0.0007249222,0.0023989356,-0.002113441,-0.0009051623,-0.00078748056,-0.0014963148,-0.00044258864,0.0016142207,0.0012468958,-0.0010790739,-0.0012303945,-0.00077631377,-0.0010924006,0.0013213861,0.0032425136,0.0026244272,-0.0025190492,-0.0021431802,-0.0030602554,-0.0019783701,0.0011991153,-0.0020107043,0.00057178404,0.0029626582,0.0011191418,0.00041770132,0.0029933727,0.002137427,-0.00047988506,-0.002060568,-0.00035682647,0.0024299256,0.002499345,-0.0013466652
left,0.0033184048,0.00081415003,0.0017064514,-0.0018974784,0.0014521853,7.260068e-05,-0.0031871207,0.0017008105,-0.003010515,-0.0021614316,0.0009377864,0.0030852715,-0.00070441386,0.0023277844,0.0016926817,0.0013546225,-0.002065174,0.0016858685,-0.0027667051,-0.001440425,0.001819296,-0.0027202545,0.0019179821,-0.0011614393,1.4173512e-05,-0.0024511272,-0.0020984868,-0.0011208025,0.0028699043,0.0017662047,-0.003225637,-0.0021954086,0.001139489,-0.0028329834,0.0022151791,0.0020520533,-0.0030925814,0.002883635,0.0026113752,-0.00059755915,0.0005903685,-0.0018904513,0.0020615493,0.002564396,0.0013569562,-0.0029404236,0.0016587604,-0.0010092028,-0.0007339751,0.002040771,0.0006299694,0.00154055,-0.0020975266,0.0017449352,-0.0011845457,-0.00011156381,0.0020678777,0.0013719877,0.0024942711,-0.0013110259,0.0011831779,0.002432186,-0.0011096076,0.001930767,-0.0031373806,0.002946084,0.0012509681,0.0017679383,0.0015446157,0.0015088888,-0.0010995081,-0.0020676863,-0.00075403834,0.00044933907,-0.0009871208,-0.0028121735,-0.002104617,0.0027845094,0.0031122607,0.0020133373,-0.001364829,0.00022578046,-0.0028607752,0.002247729,0.0001618548,0.0024613866,-0.0018040208,-0.00093065604,0.0009639221,0.0011503126,-0.002169556,-0.0024535637,0.0006770343,-0.0029995171,0.0019367305,0.0018331592,-0.0012753583,-0.0018728399,-0.0027677873,-0.0006224496,0.0023200738,-7.013088e-05,-0.0026372678,0.0029599632,-0.002853008,0.0018411367,0.0021606754,0.00032482122,-0.0029090962,0.0020692977,-0.0026173142,-0.0016676195,0.0032081776,-0.0027528675,-0.0025432184,-0.0016343012,0.0011566468,0.00063888635,-0.0018371243,-0.0011137709,0.0028672104,0.003260983,0.003306611,0.00035091728,0.0013423831,0.00046418761,0.0005715901,0.0016049087,0.0007321396,0.000104703555,-0.0010396213,-0.0021597187,0.002668167,-0.0019944627,0.0009168172,-0.00029458542,-0.0012203658,-0.0016588955,0.0010667384,-0.0019631998,-0.0025062216,-0.00088198757,0.0015618865,0.0020192787,-0.00047912294,0.0024182494,-0.0025409984,-0.0015828251,-0.0026169512,-0.0020175234,0.0024368826,-0.0031169064,-0.0029054766,-0.0032704351,0.003071412,-0.0008864645,0.00031779497,-0.002049811,-0.0008635361,3.3214685e-05,-0.000847662,-0.0024609198,-0.0020767555,0.00085645186,-0.0031776587,0.00038066233,-0.00066601054,0.0027563688,-0.0001452397,0.0020916266,-0.0023808305,-0.0025181596,0.0018399728,0.00031228928,-0.0017004599,-0.0008830733,0.002925596,-0.0030744115,-0.0012151595,0.00034267385,-7.510385e-05,0.0031763928,-0.00065604615,-0.0023593481,-0.0025722492,-0.0032969408,-0.0025911196,-0.001986785,-0.0019970024,-0.00048172963,-0.00018232297,-0.001571554,0.0007039709,0.0012817128,0.0030194959,-0.0015543053,0.0017133881,0.0024145644,-0.001254472,-0.0024733907,-0.0011259813,-0.0022914985,0.0021588353,0.00312961,0.0027509572,-0.0028424733,0.0016816871,0.0016970166,0.0018817876,-0.0027840901,5.15583e-06,-0.0022890142,-0.0029687623,0.0008347802,0.003311972,0.0021574912,-0.0023616967,0.0007627575,-0.0013228225,0.0033073209,-0.0029265913,0.0032306407,-0.0021904525,-0.0023446959,0.00053321786,-0.00022946257,-0.0028309007,-0.00021598018,-0.00012063635,-0.0020827923,0.0019220418,0.0010636672,0.0027994714,0.002465764,-0.002219825,0.0016057611,0.0018935164,0.0019225136,0.001732623,-0.001607162,0.001457521,0.00044543398,1.8819019e-05,-0.0021436685,0.00050511444,0.0017375952,-0.003061502,0.0028709853,0.0009957174,-1.034919e-05,-0.001116548,0.000119972035,0.0020383904,0.0015916507,-0.002003845,0.0026194488,-0.00020482189,-0.0027193802,0.0029434417,0.0016743932,0.0012254129,0.002649546,-0.0025047753,-0.001966794,-0.00068591017,-0.0013906773,-0.00053395185,-0.00019317454,-0.0028051555,0.0006368986,0.00085170276,-0.00028146798,0.001622655,0.0004825234,0.00201489,-0.0007457117,0.0028546439,-0.0005164649,0.0010073334,-0.0012675851,0.0020378714,0.001032546,0.0001849901,0.0029182984,-0.0026193953,0.0032389478,0.00024337985,-0.0007772973,-0.0013703034,-0.0030408038,-0.0007354453,0.00090599945,0.0021976691,0.003022285,-0.0029222881,0.0030251925,-0.0029460425,0.0012412677,0.002678651,-0.000831552
respiratory,-0.0026218279,-0.002771779,0.00038132854,-0.00026096342,-0.0031698942,0.0010263303,0.0007539005,0.0014984419,0.00148004,0.0010743407,-0.003266533,0.0019107934,0.0014236431,-0.0025780073,-0.00070922007,0.00011990276,-0.00021733945,-0.0003228344,-0.0018453099,1.0904644e-05,0.0014698219,-0.00022820671,0.00026809733,0.00069907715,-0.0013213478,-0.0026266887,0.0030544153,-0.0032641727,-0.00083070225,-0.0004239051,-0.002556338,0.000587722,0.0026500525,-0.0005026802,0.0027040017,0.000102887665,-0.0019236736,-0.0006604305,-0.00024837255,0.0020897416,0.002380611,0.0020717508,-0.0020014755,-0.0023291341,0.0020402153,0.00082899205,0.001785259,0.00015436235,0.0026209427,-0.0029602358,0.0032928786,-0.00274565,-0.00056942995,0.0020908215,-0.0030795874,0.001448348,-0.0023245604,-0.0022816972,0.0007697444,0.0005719601,-0.00093445805,0.0026197617,-0.002344383,0.00014919102,0.002913563,0.0006744236,-0.0022765356,0.0011791522,-0.0016784867,0.00018830896,0.0009488385,0.0025311026,0.0024637699,-0.0016356843,0.003178167,-0.0018232402,0.0025396543,-0.0026630962,-0.00261392,-0.0003593355,-0.002713789,-0.001160602,-0.00017326244,7.0481815e-06,-0.0033241347,-0.0021749951,-0.0024781523,-0.00013036658,0.0017294757,-2.431088e-05,0.00332225,-0.0012973682,0.0026829566,0.002035525,0.0027599814,3.9439816e-05,-0.00014343316,0.0006317496,-0.003297861,0.0030207161,-0.00079855305,0.002514754,0.0006883542,0.0009662606,-0.00041290172,-0.0033033546,0.0004647793,0.0009660669,-0.0032712924,-0.0012978008,-0.0007783008,-0.0016841295,0.0013121107,0.00069710286,0.0014510587,-0.0021659927,-0.0019992634,0.0015748058,0.002259647,0.0018367799,0.0015999161,-0.0024176575,0.0027235015,-0.002318798,-0.0025639557,0.0028443167,-0.0008156148,-0.003142386,-0.0010304776,0.0019906303,-0.0009641063,0.0016490038,2.9260214e-05,0.0013576582,0.0003964829,-0.0031068642,-0.0012162116,0.0029405472,0.0005116761,-0.0019718455,0.0023350907,0.002475655,0.0024107555,8.163636e-06,-0.0030428732,-0.001163894,0.0017137579,-0.0021714442,0.003253169,-0.0032577228,-0.0027085014,-0.0017790576,0.002005936,-0.0025607387,0.002880166,-0.0032927063,0.0011620327,0.0010957979,2.1107515e-05,0.003178659,0.0017023154,0.000100935766,0.0016077021,0.002145563,0.0010034004,0.0031358611,-0.0004480738,-0.002793784,-0.001493499,-0.0004941619,-0.002424711,-0.0005185296,0.0026459706,-0.0016724361,0.0017042418,0.0014550171,-0.0002291595,0.00035651083,0.0019129809,-0.0022144173,0.0013010241,0.0029655225,-0.0011780187,-0.002538621,-0.0030649686,-0.003000194,0.0012948189,0.0017151473,0.002342332,-0.00048482296,0.00032273933,0.001019125,-0.003293892,-0.0031401992,0.0015376549,-0.0028032863,-0.0010566015,-0.0014437804,0.0019774474,-0.0011554871,0.0033261685,0.00018944163,-0.0017138314,-0.001210082,0.00040901723,-0.0017961538,0.00246658,0.0030070846,0.0014307644,-0.0024524555,-0.0019851753,1.1583588e-05,-0.00034657886,-0.0018489114,0.0026412334,0.0020785718,-0.0013990157,0.00078916404,0.0017038275,0.0008045353,0.0028579077,-0.0004348721,-0.0021810937,-0.00027736498,-0.0027816955,0.003277163,-0.002875658,-0.00051079696,-0.0009448661,0.001048717,0.0016586616,-0.002743387,-0.0014647163,0.00016634271,0.0013276916,0.0017114334,-0.00046178585,-0.00021108921,-0.0026152993,0.0015074614,-0.0025449684,0.0010904559,-0.0011503813,-0.0025996775,0.0022908815,-0.0001576097,-0.0031724952,-0.003126887,0.00019780864,-0.0027193725,0.0012467793,0.0011541735,0.0011217283,-0.0018748945,0.0026532044,-0.0029958023,0.0024899151,-0.00021412005,-0.0004948273,0.0013156692,-0.00082370813,-0.001463819,-0.0008049229,-0.0020717958,-0.00012024444,-0.0017973505,0.001539032,-0.0031769476,-0.0014554902,-0.0030611444,-0.0032120158,-0.00025227747,-0.0026909527,-0.0018940972,0.00093364844,-0.0004733138,0.0010366077,0.0027541209,-0.0032149362,0.0020254198,-0.0026407256,0.0021774862,0.0024934816,0.0028639135,-0.0026526519,0.0011094812,-0.0026202681,-0.00042131537,-0.0017409065,-0.0028416733,0.0016453612,0.001485078,-0.0013550322,-0.0025968775,0.001194286,-0.0013118264,-0.0029604095,-0.0014618488,-0.00072525605,0.002916445
sp,-0.0021482022,0.002448066,0.0020381357,-0.001651194,-0.00058629905,-0.0008539474,0.0010577333,-0.00013265418,-0.0009334428,-0.003018212,0.002152089,-0.0032185884,-0.002891863,0.0004561233,0.0009881108,-3.2097105e-06,0.00013123949,0.0008644355,0.00059989287,0.002513025,-0.0011560427,-0.002419194,-0.0026263993,0.0026472264,0.0006536759,-0.0019506824,0.002118827,0.0028012292,0.0026477457,-0.0023022564,-0.0017012506,-0.00066755747,-0.002198529,0.0015838523,0.0018802321,-0.0019861595,0.0024110875,-0.0025593778,0.0020594946,-0.0015342418,0.0006595583,-0.0010933893,0.0011304506,0.002563206,-0.00046030758,-0.001647987,-0.0028463486,0.0012214477,0.00141506,0.002241628,-0.0014097978,-0.0032473488,0.002276682,-0.0015131846,0.0014696658,0.0027072355,-0.0013020142,0.0005481231,-0.0011870388,-0.0022050047,-0.0018914476,-4.387726e-05,-0.002518044,-0.0006666085,-0.00083286024,0.0022426546,0.00046385452,0.0019504162,0.001282286,-0.0011883838,-0.00169983,0.0032145053,0.002373985,-0.003026547,0.0017463418,0.002747438,0.0030594359,-0.0026859348,-0.00067090313,0.000390079,0.0009782778,-0.0005424307,-0.001567218,0.0021917718,0.0023232242,-0.00011796146,-0.0019582128,-0.0014436166,-0.0017008429,0.0014218771,0.00017132986,-0.00078026555,-0.0030338631,-0.0004919863,0.0021519202,0.0021109811,0.0014106567,-0.0009584623,0.0030225443,0.00020964656,0.00037535818,0.0020543085,-0.0021748524,0.0021746762,0.003275102,0.001204634,0.0011596542,0.0013948404,-0.0006581332,-0.002691407,0.0004946576,0.00030078302,-0.0022735246,0.000659643,0.0018141342,-0.0023903137,0.0008293819,0.0025868465,-0.0028727828,0.0011497535,-0.0028591144,-0.0026419384,0.002389306,-0.0025174003,-0.00044996262,-0.0026274163,-0.002607635,-0.0023781895,0.00012477038,0.0006095366,-0.0026290107,-0.0026890947,-0.0010513737,-0.00061937247,-0.002057352,-0.001410259,0.0012043443,0.0010186986,0.00218878,0.0014088125,-0.00030523018,0.0009105629,0.0030135587,0.00064149615,0.0006176333,0.00036133928,-0.0030989589,0.0017699142,0.0016885547,1.68685e-05,0.0030733845,-0.0019333573,0.001061306,-0.0026117705,-0.0029782814,0.000664339,0.0015554271,0.0020287635,-0.002920335,0.0014653187,0.0007883364,0.0013869976,-0.0002286198,0.0018625093,0.0024175185,-0.0027919633,-0.0033176665,0.0023402711,-0.00033135078,-0.0031119832,-0.001380477,0.00039981227,0.002806357,-0.0005570283,-0.00035131586,-0.0024415504,-0.0025413337,0.0004752168,-0.00015096998,-0.0025549843,0.00030079435,-0.0030020936,-0.0008202325,0.001406485,0.00035635152,0.0026095782,0.0021993606,-0.00035553653,0.0016335334,0.0020327235,0.0028987695,0.0030350531,0.0016356756,0.0015276432,0.0024017796,-0.0005180813,-0.0018661628,0.0029573408,0.0004063463,-0.0016840361,-0.00030365845,-0.0017369463,0.0030265506,0.001123062,0.0014279488,0.0021783863,0.002717359,-0.0015942786,-0.0021137595,-0.0012470351,-0.0012407172,-0.003154823,-0.00020883163,-0.0026967486,0.0032684999,-0.0011455669,-0.0021245272,-0.002715281,-0.0012029783,-0.0032021427,0.0002758869,0.0017946651,-0.0009771385,0.0025499673,-0.00062683644,-0.002438118,-0.0010413523,-0.0010586558,-0.0023628648,-0.0032195435,-0.0013516682,-0.0005212813,0.001669164,-0.0025310053,-0.0016755624,0.0004576541,-0.0005608038,0.0011781751,-0.0006217588,0.0014252452,0.0026890335,-0.0026408297,0.0012457132,0.0020037773,-0.00019580938,0.0022388916,-0.0017908966,-0.0015334653,-0.0026083193,0.0031591924,-0.003135355,-0.0010757162,-0.00013480794,-0.0016091722,0.0031403666,-0.0022898053,-0.0026643248,0.003077367,-0.0027804838,0.0032162154,-0.001340724,0.001901227,-0.00014136477,-0.0013632968,-0.0025183228,-0.0020981594,0.002295116,0.0021106577,3.642479e-05,0.0021335369,0.0012743276,0.0012777811,0.00088923064,-0.0032432962,0.0031042276,-0.0027404309,-0.000992917,0.0004890058,0.0017332876,-0.0030789212,0.00057098083,0.0021136987,-0.002921664,0.0031814082,-0.0017394483,0.0031861607,-0.0021997618,0.0022008533,0.0031294315,-0.0030818144,9.822553e-05,-0.00256805,0.002706233,0.0031811793,-0.0020274848,0.00028748348,-0.00074740616,-0.0025860325,0.0002850734,-0.0032983094
tract,0.00087930716,-0.0025497808,0.0018916576,0.0025125581,-0.00085736107,-0.0013501886,-0.0032029254,0.0016589947,0.0009652912,0.0029025474,0.0011092423,-0.0009716678,0.001183783,0.002875044,0.0030832782,0.0025446527,-0.0028501283,-0.0025371513,0.0024195656,-0.0024886676,0.0010721914,0.0026690583,-0.0010626987,0.0022568423,-0.0027117673,0.002149843,0.0018463206,0.0010913151,-0.0027097324,0.003036734,0.0027479474,-0.00051881897,0.0013683623,0.002124775,-0.00058058056,0.001830645,-0.001346233,-0.00042637927,-0.00040249783,-0.0013786693,-0.00023461507,-0.0025475598,0.0012039619,0.0030064462,0.0015932498,0.002142363,-0.0015656349,0.0016339418,-0.002226427,-0.0016470606,0.003310227,0.0021350158,-0.0016706849,-0.0020254462,0.002400848,0.0009256776,0.002190809,-0.0022412713,-0.00032057308,-0.0003253065,-7.734267e-05,0.00072857586,-0.0022690918,0.0014715107,-0.0009111985,0.002786865,-0.00033079463,0.0030449051,-0.0002843751,0.0017196363,-0.00252949,-0.0030263045,-0.000103930586,-0.00077018875,0.0033230106,0.0015209264,-0.0018661999,0.0024527784,0.00019799476,-0.0031469127,0.0019205909,-0.0006836453,-0.0031442896,0.002938838,0.0024183153,0.0028598942,0.000104110215,0.0025784739,0.0017434824,-0.0023133026,0.0031050548,-0.0011817003,-0.0032506613,0.0028543216,-0.001760753,0.0028118691,-0.0026194537,0.003088831,-0.0019674206,0.0013450017,0.003257887,0.0013940375,-0.00068769464,-0.0016549852,-0.0032349841,0.0013880095,0.0024870313,-0.0015836592,0.0019633996,0.002294373,-0.0030131063,0.0006999277,-0.0022776711,-0.0014347357,0.00029068004,-0.0023422688,-0.00137506,-0.0025015997,-0.002326781,-0.0023370532,0.003301364,0.0027797127,-4.5207024e-05,-0.00087360456,0.0020837598,0.00045864555,-0.0029863238,-0.0023712583,0.00033673513,0.0026455002,0.0010806317,0.0032991134,0.002186877,8.724502e-05,0.0028802,0.003009927,0.0026961544,0.0031291142,-0.0031271365,0.0011520752,-0.002617557,-0.0023895418,-0.0028073073,0.001073655,7.907935e-06,-0.0021294795,0.0018324151,0.0026317304,0.0014414234,0.002610696,-0.0014227721,-0.0021621701,0.0012945408,-0.0009769408,-0.0023828826,0.0012217022,-0.001124181,-0.0017375314,0.0008497153,0.0022964878,0.0021135837,4.924712e-05,0.0028720023,0.0009926455,0.0021769926,-0.000306348,0.00070179283,0.0020459825,-0.0032844762,0.001956974,0.0004095793,0.0020311195,-0.00048455634,-0.0008959445,-0.00186781,-0.00094543875,-0.0008531332,-0.0017376684,0.00033313892,0.002669487,0.001716314,-0.0025506127,-0.0024716142,-0.00096394494,0.0012835884,-0.0031001817,0.002057434,0.0010772109,-0.0009548131,0.003058583,0.0026815454,0.00025068122,0.0015998365,-0.0031079135,-0.0029306547,-0.0009849867,0.003102652,0.0010804236,0.0018683064,-0.002262353,0.0014020121,0.0001465797,-0.0003216914,-0.0010841195,0.0016451002,-0.0030315963,0.0017015785,0.0018834135,-0.00081818644,-0.0014061808,-0.0024676127,-0.002134919,-0.0017072728,0.0010526462,-0.0015988519,-0.00041104958,-0.0029743607,-0.0011796968,-0.00028278946,-0.002657367,0.0010976074,0.0032417686,0.001441819,0.0006072866,-0.0016290266,-0.00038181586,0.00075391936,0.00056669785,0.0029345495,-0.00030615294,0.0023341966,0.0019414527,0.0010185733,0.002440614,-0.0016546331,-0.0013146822,0.0023180712,0.0028605165,0.0010438568,-0.0013874853,0.002572546,0.00090023427,-8.1649356e-05,0.0029528537,0.0014383101,0.001305135,1.6942262e-05,-0.0029790315,-0.0010315477,0.0008129075,-0.001863482,0.002372919,0.002490249,-0.0029779195,-0.0018183644,-0.002010441,-0.00021916348,-0.00060382625,-0.0006993891,-0.0007476117,0.0012210542,0.0032132217,-0.0015284381,-0.002795828,0.0012259675,-0.0021752059,0.0022281606,0.00089397974,-0.0026372795,-0.0025824087,-0.003094432,0.00079176325,0.0009155129,0.00086557557,8.023456e-05,0.00034321818,0.0010409964,-0.0005095249,-0.0026972007,-0.00020739711,0.001222241,-0.0008663048,-0.0007139418,-0.0007469269,0.0024299049,-0.0010136317,0.0031284778,-0.0012893504,-0.0033145733,-0.002190312,-0.001453107,0.0004315888,0.0017174825,0.0007118711,0.00301112,0.00030280696,0.0018699374,5.3361764e-05,-0.00070414424,0.002086037
hypotension,0.0006724041,0.0027530638,-0.002765722,-0.0029188085,-0.00017695985,-0.00063585816,-0.00078056747,-0.00019731984,-0.0016885838,-0.002673036,0.0027539958,-0.0011151963,-0.00095262757,-0.00054481655,-0.0004113051,-0.003064928,-0.0006000296,-0.00044697264,0.0028806352,-0.0026532302,-0.0015844079,-0.0006274324,0.00096309086,-0.0020054374,-0.001848525,-0.0026564125,0.0018464958,-0.0029097637,-0.001082742,9.9154015e-05,0.00048398878,-0.003318192,0.002886243,-0.0006857438,0.00011920762,-0.0029319862,-0.0027226482,0.001261454,0.0013388044,0.0009934639,0.0019473134,-0.0023136665,-0.00041389954,-0.0009093519,-0.00046637753,0.0014914207,0.00045762182,-0.0024804897,0.0010803284,0.002080503,-0.0020331454,0.0010793939,-0.0014382368,0.002941309,0.001376134,0.0006805868,-0.00033955826,-0.003039299,0.0028836394,-0.00060503796,0.0024588995,0.0012542093,-0.0027535814,-0.00020892365,0.00091454753,-0.0008548711,0.0032428196,-0.0016615709,-0.0023883693,0.0012646078,-0.0011903327,-0.002296139,0.00068073295,0.0017580701,-0.0018306111,-0.0014582971,-0.002390739,0.00051573914,-0.001585864,0.002813811,0.00023950952,0.0006237539,-0.0011116983,0.0024612178,-0.00021815147,-0.0027377212,-0.0024474103,6.703727e-05,0.002579173,0.0010324197,-0.0017761058,-0.00225073,-0.0032851293,0.0013092207,-0.0031696064,0.0010614655,0.00055185246,-0.00027573924,-0.0033172718,0.001960852,-3.258665e-05,-0.0033113554,-0.0025113146,0.0028527237,0.0006285982,-0.002728491,-0.00026941422,0.0018016711,-0.003106506,-0.0022927797,-0.0003388205,-0.0032536443,0.00016213483,0.0006444966,0.0028489332,0.0003251663,0.00043561126,0.0016259431,-0.0014294585,0.0024127054,5.0475104e-05,-0.00022363188,-0.0032323226,0.00016940355,0.0022644612,0.0005860398,-0.0026939525,-0.0011101697,-0.0020178005,0.0020070535,-0.0021584714,0.0017505251,-0.0017522706,-0.0022729593,-0.0025311185,0.0012716574,-0.002935009,-0.0019061597,-0.0023497064,-0.0014394548,-0.0013437783,0.0004938449,0.0021611818,-0.0003996818,-0.001831653,0.0005177718,0.0018807882,-0.0017590161,-0.0017823862,0.0017255598,0.0020889624,-0.0025893915,0.0027378337,-0.0032826755,-0.0024706037,-0.001960131,0.0006058331,2.3981616e-05,0.0011558956,0.0023393857,0.001597852,-0.0010670634,-0.0021465935,-0.0027493369,-0.00015918449,0.0032429306,-0.0025554432,0.0012158985,0.0014637704,-0.0014468491,-0.0023204773,-0.0018169598,-0.0016817821,-0.0023344366,0.0019794563,-0.0025884714,-0.0009800998,0.001457628,6.0856783e-05,-0.0025621152,-0.0015644612,0.0011955037,0.00084582675,-0.0006513246,-0.00024458213,0.00084806787,0.00047261352,-0.0008787445,0.0017773006,-0.0025551582,0.0021224425,-0.0033313765,-0.0007489128,0.0022238432,-0.001199546,0.0021793582,0.0018112763,-0.0024692677,-8.27199e-05,-0.0014982681,-0.0026877334,-0.0002968506,0.0021283396,0.0029096217,-0.0016783105,-0.00087954284,-0.002016237,0.00038877546,0.0008854658,-0.0032798443,0.0008026797,-0.0029400573,0.0001348009,0.0015863796,-0.0017514159,8.57536e-05,-0.0007312684,-0.0028936854,-0.0008050976,0.001482621,-0.0028571524,-0.0019790856,-0.00018214084,0.0026791934,0.00047294144,0.0032562285,-0.00255415,0.0029942438,-0.0015762926,-0.0021192592,-0.0026149822,0.0006170832,-0.0009176741,0.0025196734,-0.00017398327,0.0008364815,0.0019850244,-0.002882692,-0.0006891085,-0.0015930841,-0.0028926958,0.0011409399,0.00080178207,-0.00080170284,-0.0006407127,-0.0022453899,-0.0010816007,0.0004318201,0.0025760075,0.002354043,-0.001196109,0.0012054427,-0.00086147804,-0.0015762523,-0.0012114698,-0.0020505197,0.0011661475,-0.002595115,-0.002502838,-0.0015007547,0.002466628,0.0006082179,0.0018166879,0.0027390847,-0.0020795076,-0.0015427936,0.0025610225,0.0016465867,0.0015547876,0.0029979509,0.002937425,-0.0008948905,0.0003457297,0.0018267415,0.002962709,0.0032827652,-0.0027519974,-0.0017099986,0.0016653222,0.00031574673,5.5039487e-05,0.0024986484,0.0021303014,-0.0024119525,-0.0008638816,-0.0028262923,0.0023467434,0.0009217909,-0.00073969446,0.0006268094,0.0025519207,0.002707368,0.0020556801,0.0010523121,0.00051456236,0.0027130058,0.00043977125,0.00014603832,-0.0031855986,0.00083761633
fracture,-0.00281423,0.0021672405,-0.0019353576,-0.0005899938,0.00031724523,-0.0006306495,-0.0030368275,0.0013410653,-0.0021976011,-0.0029393933,0.0013072839,-0.00026246547,0.0021718792,-0.0023422504,0.00026509198,-0.00023141874,0.0019229141,-0.0032497414,0.0019821776,-0.0029940235,-0.0026009781,0.00024479817,-0.00088224735,-0.0012994498,-0.0017582778,0.0013705968,-0.00312329,0.00038189284,0.0014023513,-9.8967255e-05,-0.0001601802,0.0023895244,-0.0031903756,-0.003002768,0.0014763238,0.0029154303,-0.0025960733,-0.002776403,-0.00020917594,-0.0030146583,0.00070692145,0.00308446,-0.0020512708,-0.0022545888,0.0029841783,-0.00023903593,-0.0012368517,-0.00089000666,-0.0029192402,-0.0015408616,-0.0013737221,8.180049e-05,0.00022549904,0.0025449437,0.0022669507,-0.00048690764,-0.0033305013,0.00087969087,-0.0020438042,0.0030326112,0.0012676754,-0.000330763,0.0021893943,-0.0011589031,-0.0012319558,-0.0001052845,0.0028041159,0.0019741857,0.00052417535,0.0012540566,-0.000999545,0.0030888743,-0.0023731196,-0.0010982018,-0.0017775237,0.0029150953,-0.0010494802,-0.000792197,0.0023840934,-0.0032078563,-0.00096935633,0.00094716274,-0.0020810692,0.0029418152,0.00039825297,-0.0017481777,0.001628577,0.0026714434,0.00031545747,0.0022696524,-0.0022639667,-0.0012086626,0.00330645,0.001896181,0.0005385989,-0.0011570607,0.0014708579,0.0008444506,0.0027831385,1.0686484e-05,0.0028632758,-0.0019552591,-0.0025225538,-0.00047081403,0.0009850556,-0.0006732041,0.0019605488,-0.0028018733,-0.0030077754,0.002543905,0.0021116135,-0.0013580639,-0.0013398632,-0.0011817275,-2.5154393e-05,0.0030286578,0.0003195417,-0.0006849799,-0.0011232825,-0.0007094326,-0.0030601777,0.0022840772,-0.0030175764,-0.001027352,-0.0023793778,0.0030315383,0.0019417886,-0.00016632135,0.0013070619,-0.00080276147,0.0032824161,-0.0011976748,0.0016161477,-0.0012686686,0.0031781395,0.0031785911,0.002075923,-8.8775174e-05,-0.00056471716,-0.002890209,0.0031110318,-0.0028255219,-0.0021935813,0.0018561973,-0.00075807475,0.0026459703,-0.0026361248,0.0030551977,0.0007537182,-0.002855708,0.001321649,-0.0016677387,0.0021107113,0.002200483,-0.0029192425,0.002161775,0.0017442227,0.0021570998,-0.0023588596,-0.002186854,-0.0029657683,0.0017568661,-0.0013532821,0.0016107769,0.0015811024,0.0026967714,0.0007428456,-0.0003686361,0.0004774546,0.0010097434,-0.0029301401,-0.0019876102,-0.00032215976,0.0016357489,-5.2593914e-05,-0.0032288688,-0.00020566028,0.002369556,0.0021047497,0.0011617347,-0.0015338118,-0.0012316222,-0.00069801044,-0.0019999985,-0.002871842,-0.00018204363,0.0006105153,0.001628951,0.0011913172,0.00284165,-0.0022671572,0.0030976462,-0.0011240863,0.00026572563,-0.0014142257,-0.0013599104,-0.000492738,-0.0025129018,0.0029888293,0.0015150663,-0.000768915,0.00065296784,0.0026016277,-0.0018709656,0.0012577644,0.0002321905,0.00095752,-0.0007172031,-0.0032925496,0.0019633723,-0.00047524384,-0.0027845576,0.00023577464,-0.0020569076,0.002556133,-0.002140482,-0.00054104184,-0.00014600583,-0.0014518249,-0.0011321355,0.0024486068,0.00060726167,-0.0031456777,-0.000105315376,-0.0031916248,-0.0010606026,0.001655848,0.0012260834,-0.001913353,0.0004909926,0.0019434644,-0.0024918162,-0.0011327352,-0.0008208651,-0.002973121,0.0007069941,0.0021648977,0.0008051811,0.0007896355,-0.0002870504,-0.00025974272,-0.0020859484,-0.00016710344,0.002202892,0.0009983884,0.00016877167,0.0026168332,0.00093641825,-0.0024707546,0.002434765,0.0031879784,-0.0030283087,0.0024162561,-0.0025250346,-0.00014346869,0.0015313051,-0.0019082831,-0.002648702,-0.0024469362,-0.0033167002,-0.0022098368,0.0031979948,0.0009789597,-0.0030358215,0.0028229733,0.0023955796,0.0026213734,0.003206495,-0.0029093476,-0.00072532,0.0006858993,0.0007996829,0.0016066551,-0.00257826,0.0016271437,0.0033204572,-0.0029740306,0.0026335923,0.0010583164,-0.0013888092,-0.00051088154,-0.0028307117,-0.0024919503,0.0018469684,-0.0010470125,0.0033310547,-0.0026923462,-0.0023441894,0.0020455774,0.0026287665,0.0012377979,0.0024326511,0.0021712345,-0.001933402,0.0029022577,-0.002100139,-0.0009614629,-0.002003838,0.0020340653,-0.001451929
heart,0.0010173902,-0.0005294772,-0.0004005117,-0.001962303,-0.0019227626,-0.0012029258,0.000110829336,0.000497819,-0.0011086925,0.0006393829,-0.001887794,0.0033145864,-0.00028362256,-0.0023190565,-0.00062152045,0.0026469291,-0.00036259432,-0.0017073012,-0.0026815985,-0.0019679945,-0.0010612193,0.0025658603,-0.0024088693,0.00048404923,-2.6977303e-05,0.0013077513,-0.002656004,0.0026515983,-0.0009290755,0.0017560803,-0.0031699394,0.0016899963,-0.0027524808,-0.0010750619,-0.0004027954,-0.0012193214,-0.00022816494,-2.6387986e-06,0.001504201,-0.0007436934,-0.0013267496,-0.0020656993,0.0027694097,0.0015344301,0.0030419165,0.0018335519,-0.0015245373,0.0027678453,-0.0023196156,0.001021501,-0.0011155856,8.922889e-05,0.0012550072,-0.000943922,-0.0014748202,-0.0006295391,0.0001766223,0.0021521924,-0.0019509207,0.0015595631,-0.0012390232,-0.0026443163,-0.0018761309,0.0006224581,0.002928301,0.002635122,0.0030549893,0.0023062315,-0.0009799966,-0.0008121838,0.0029375036,0.002168467,0.002016038,0.0022926622,0.0005409298,0.00080248335,-0.0027438407,0.0025146655,0.0031400637,-0.0023456826,0.00038841952,0.00290724,0.0012181709,0.0023363777,0.0025540846,-0.00063911173,0.0029448732,0.0019898321,-0.00062848727,1.8594426e-05,0.0032376773,0.0019456029,-0.0022379851,-0.001155152,-0.001152465,0.0010503422,0.00038412787,-0.0028696829,0.0007286536,0.0032182427,0.00078175304,0.0014259302,0.00066699414,0.0027010865,0.002958214,0.0010458332,-0.0008122451,0.0012028445,-0.0025752094,0.00268308,-0.0013363772,0.0033152453,-0.0032072042,-0.00085222523,0.002964011,-0.0013553239,-0.00066329126,0.0016813147,0.0030996057,-0.0001298157,-0.0022618,0.0033269522,-0.0031738349,0.00042168796,0.0018624086,-0.002605673,-0.0018625692,-0.0030458935,-2.1662656e-05,0.0016756284,-0.002743989,-0.0010303059,0.002801196,-0.001494817,0.0010518581,0.0011734256,-0.0011988408,-0.0017282843,0.0027699494,-0.0008424782,0.002980437,-0.00081598124,0.001025586,0.001871681,0.00018532263,0.0014456891,-0.0020018618,0.002798848,-0.00054435025,-0.0014648385,0.0017067097,0.0032986426,-0.0019017067,0.00027788727,0.0014555574,-0.0009205808,0.00019773844,0.0029420166,0.0025845503,-0.002141616,-0.0010636733,0.0030808488,-0.00010843922,-0.003177506,-0.00024732747,-0.002273888,0.0003062058,0.0002827342,-0.0014701771,-0.0015189664,0.002924693,0.001530944,0.0008536404,0.0006144303,0.002735407,-0.0016609532,0.0020471988,-0.00033789547,-0.0025574586,-0.0032349692,-0.00055677403,0.0026972303,0.0007382765,-0.002990883,0.00039632816,-0.001209454,-0.0013518125,0.002731573,0.0019311407,0.00011171789,0.0008120055,0.00030914095,-0.0033152485,0.0009946806,0.002403302,0.0013271665,0.00083184626,-0.0011859038,0.00076704397,-0.0025432343,0.0013967502,0.00080256176,-0.0001378982,-0.00019865198,0.000867609,0.0007407725,0.0004873069,0.0030577423,0.001183574,0.00046411518,-0.0009734515,-0.0020272476,-0.0031116894,-0.0010766922,0.0014568829,0.0025173922,0.00021256534,-0.0016057438,0.0011876553,-0.0013066378,-0.00024767703,0.0029422909,0.0027156544,-0.00014428502,-0.001984233,0.0012245717,0.00326869,0.0028922204,-0.00062646106,0.0023888685,0.0031003277,-0.0031785963,0.0029503985,1.1943522e-06,-0.0017467391,0.0012335575,0.0029924363,-0.002418106,0.002299205,-0.0021474133,-0.00259073,0.0018330575,-0.0015259349,0.0015977585,0.0024581905,0.0032106007,0.0019149077,-0.0029587846,0.0010921357,-0.0030032992,-0.00013385693,0.0032694743,-0.0017026841,0.0013674624,-0.0019239173,-0.002687644,0.002679838,0.0010854072,0.0024497404,0.00097508024,0.00039652654,0.001253975,-0.0028062249,0.0021886434,-0.0015174304,0.001537121,-0.001818831,0.00035077502,0.0013326338,-0.0008242469,-0.0025059623,-0.0020154736,-0.003323063,0.0032320751,-0.0014514425,-0.00034078918,-0.0030083957,-0.0015231788,-0.0016423148,0.0009966351,0.0018915735,0.0011684797,0.0032904819,0.00063384546,0.003287019,0.0025247727,0.0009072602,0.00071750535,-0.0025068247,-0.000790008,0.0018892966,-0.0027081752,0.00075713976,-0.0025386496,0.0032059802,-3.0161222e-05,0.00030830462,-0.0015989427,0.0020492247,-0.0023785308
