,0,1,2,3,4,5,6,7,8,9,10,11,12,13,14,15,16,17,18,19,20,21,22,23,24,25,26,27,28,29,30,31,32,33,34,35,36,37,38,39,40,41,42,43,44,45,46,47,48,49,50,51,52,53,54,55,56,57,58,59,60,61,62,63,64,65,66,67,68,69,70,71,72,73,74,75,76,77,78,79,80,81,82,83,84,85,86,87,88,89,90,91,92,93,94,95,96,97,98,99
sepsis,-0.0005438516,0.00023528039,0.005108512,0.009012716,-0.009299126,-0.007115301,0.00647925,0.008975621,-0.0050205635,-0.003760275,0.0073649315,-0.0015283679,-0.0045226864,0.006555642,-0.0048511764,-0.0018294376,0.002872017,0.000996288,-0.00829058,-0.009448319,0.007316536,0.0050823954,0.006751256,0.0007659394,0.006352261,-0.0034002238,-0.0009475145,0.0057545626,-0.0075333295,-0.003940326,-0.0075131156,-0.00093316875,0.009545544,-0.0073167454,-0.002349035,-0.0019128744,0.008073389,-0.0059248386,4.136744e-05,-0.004765739,-0.009612568,0.005014291,-0.008758671,-0.0043740496,-3.708559e-05,-0.00030263973,-0.0076626334,0.009613351,0.004979323,0.009230584,-0.008165732,0.0044876877,-0.0041356,0.0008177182,0.0084957285,-0.0044641513,0.00451343,-0.0067920773,-0.0035506575,0.0093989875,-0.0015765617,0.00031134312,-0.0041346727,-0.0076971776,-0.0015137113,0.0024769388,-0.0008970199,0.0055541713,-0.0027581963,0.002259312,0.0054424126,0.008362445,-0.0014390864,-0.009220662,0.0043778946,0.00058160786,0.007437557,-0.00081033295,-0.002649351,-0.008750831,-0.0008642627,0.0028309417,0.005411245,0.0070598605,-0.0056954343,0.0018521916,0.006093355,-0.0047951946,-0.0031071275,0.0067925705,0.0016439159,0.00020596827,0.0034732772,0.0002322144,0.009626161,0.005063807,-0.008910566,-0.007046458,0.00090830406,0.0063959374
failure,-0.008654916,0.0036522688,0.005174745,0.005721386,0.0074495384,-0.0062249773,0.0011465178,0.006114702,-0.0028669422,-0.0061851805,-0.0004608629,-0.008381357,-0.005606839,0.0071025183,0.0033831454,0.0071774274,0.0068353433,0.0075378483,-0.0037481303,-0.00057371217,0.0023851509,-0.004462577,0.008312012,-0.009874691,0.0067624366,0.002935986,-0.0049798135,0.004365395,-0.0018286668,0.0067584137,0.009972294,-0.0043675685,-0.00059652346,-0.005755015,0.0038053843,0.0028982542,0.0068328553,0.006042226,0.009518981,0.009208056,0.0078589255,-0.007005031,-0.00913215,-0.0002949984,-0.0030355325,0.007880737,0.0059513343,-0.001584699,0.0014761452,0.0017819566,0.00791592,-0.009578192,-0.0001364196,0.003428915,-0.0009828416,0.008432798,0.009002075,0.006557754,-0.00073362567,0.0077267503,-0.008507058,0.0032432494,-0.0046425853,-0.0051488387,0.003589914,0.00548794,0.007732423,-0.00570183,0.0073809843,0.0066447975,-0.0037504341,-0.008755396,0.005463251,0.0064985803,-0.0007053118,-0.0066747563,-0.0071452325,-0.0024000162,0.0051374235,-0.0036968482,-0.009432022,0.0039328486,0.004832252,-0.0063415994,0.001193211,-0.0020444077,9.6717675e-05,-0.009903415,0.0027341251,-0.004783132,0.0011900782,-0.0015501764,0.002154169,-0.007883389,-0.0026691733,0.0026950063,0.0054382277,-0.002461061,-0.009499497,0.0044470876
pneumonia,9.456396e-05,0.0030773198,-0.006812645,-0.0013754654,0.007668581,0.0073464094,-0.0036732971,0.0026427018,-0.00831713,0.006205486,-0.0046373224,-0.0031641065,0.009311357,0.0008733857,0.007490703,-0.0060740625,0.005160507,0.009922823,-0.0084573915,-0.0051356913,-0.007064837,-0.0048626517,-0.0037785638,-0.008536199,0.007955606,-0.004843938,0.008423613,0.0052625705,-0.006550026,0.0039578713,0.0054701497,-0.007426536,-0.0074057197,-0.0024752307,-0.008625725,-0.0015815723,-0.00040343284,0.0032996845,0.0014418805,-0.00088142155,-0.005594058,0.0017303658,-0.0008973718,0.006793691,0.00397359,0.0045294715,0.0014343059,-0.0026998555,-0.0043668128,-0.0010320747,0.0014370275,-0.0026460087,-0.007073783,-0.007805307,-0.009121787,-0.0059351693,-0.0018474245,-0.0043238713,-0.0064606704,-0.0037173224,0.0042891586,-0.0037390434,0.008378175,0.0015339935,-0.0072423196,0.0094337985,0.0076312125,0.005493282,-0.0068488456,0.005822679,0.004009093,0.0051853694,0.0042559016,0.0019397545,-0.0031701624,0.008353845,0.00961218,0.003792603,-0.002836995,7.1275235e-06,0.0012188185,-0.008458325,-0.008223945,-0.00023101569,0.0012372875,-0.0057433806,-0.0047252737,-0.0073460746,0.008328616,0.00012129784,-0.0045093987,0.0057017053,0.009180015,-0.004099872,0.007964682,0.005375434,0.005879123,0.0005125904,0.008213084,-0.0070190406
bleed,-0.008278841,0.0093253385,-0.00020610492,-0.0019552058,0.0045946916,-0.0041133882,0.0028095236,0.0069922726,0.006032989,-0.007516828,0.0093542915,0.0046396684,0.003998602,-0.006212975,0.008463269,-0.0021572113,0.008830766,-0.005354901,-0.008115285,0.0068297465,0.0017035559,-0.0021715926,0.0094757285,0.009524195,-0.009766221,0.002508721,0.0061830133,0.0038803362,0.0019694392,0.00042417544,0.00069422025,-0.0038290876,-0.007159619,-0.0021060559,0.00391347,0.008892704,0.009306344,-0.006027498,-0.009425966,0.009732359,0.0034123403,0.0051618875,0.0062736766,-0.0027781376,0.0073666763,0.0028563328,0.0028605917,-0.0023826421,-0.003152949,-0.0023866675,0.004331908,1.942941e-05,-0.009545057,-0.009726496,-0.0061802226,-9.788938e-05,0.0019961689,0.009428033,0.005571847,-0.004317865,0.0002963062,0.004970285,0.007701239,-0.0011818482,0.004337201,-0.005759927,-0.0008264037,0.008177512,-0.002403705,-0.00962693,0.0057330816,-0.003942096,-0.0012288018,0.009970798,-0.0022136539,-0.004732278,-0.0053912043,0.007042819,-0.005686122,0.002098111,-0.005300416,0.0061275535,0.004329145,0.0026416837,-0.0015020384,-0.0027386295,0.00905736,0.005179379,-0.0021135744,-0.009506927,-0.007401609,-0.0010319328,-0.0008439407,-0.0025191405,0.009706407,-0.00046465715,0.0059296954,-0.0075080786,-0.0024763383,-0.0055804793
acute,-0.0072305044,0.001253056,-0.0072793276,-0.0022480236,0.003770031,0.0058348496,0.001354118,0.002237372,-0.004186536,0.00727264,-0.0063468493,0.0046312287,-0.008183494,0.0020678851,-0.004922379,-0.004265606,-0.0030998886,0.005595718,0.0057920297,-0.0050216564,0.0008354028,-0.008309153,0.0077964454,0.009259592,-0.0026606182,0.0007629995,0.00067544845,0.0053626066,-0.008691889,0.00057978,0.006937042,0.0022502453,0.0011475768,-0.009421969,0.008502648,-0.006090364,-0.0030532468,0.0034598226,-0.0008038914,0.0012783858,0.0017554332,-0.006924557,-0.009689033,0.00911478,0.006294179,-0.006907922,0.00332442,0.00020948294,0.004749434,-0.007146633,0.0041690194,0.0042408286,0.009994917,-0.0045540472,-0.0015031303,-0.007313856,-0.009670242,-0.009081596,-0.0010184878,-0.0065542962,0.004891881,-0.006104215,0.0025733104,0.0006578382,-0.003452999,-0.00087705447,0.009969528,0.009318786,-0.004671182,0.009168083,-0.005688141,0.0059365747,-0.003059426,0.0034585022,0.0030909122,0.006884246,-0.0024272618,0.008809805,0.007539152,-0.009525591,-0.00808387,-0.0076134014,0.0028508352,-0.0027209732,-0.006929307,-0.008132013,0.0084414175,0.001993037,-0.009321715,-0.004774509,0.0032692559,-0.0046467124,0.005219115,-0.0041886377,0.0027516873,-0.008004401,0.006403719,0.0047248504,0.0008224924,0.0028982267
breath,-0.008783256,0.0021782017,-0.00089702936,-0.009326689,-0.009400034,-0.0014370437,0.004473075,0.0038019274,-0.0065193227,-0.006861147,-0.005020173,-0.0022951441,-0.007175677,-0.009581825,-0.0027010767,-0.0084264595,-0.006048554,-0.0056771217,-0.0023289004,-0.0017220841,-0.00889338,-0.0006714509,0.008099353,0.0077451174,-0.0072123217,-0.0037286605,0.0030924168,-0.009590412,0.0014409561,0.006542786,0.0057866615,-0.008775551,-0.0045233113,-0.008176161,5.1805022e-05,0.009374591,0.0060164155,0.005062432,0.005032945,-0.0032441178,0.009548488,-0.007410268,-0.0072472487,-0.0022582256,-0.00077519927,-0.0032265335,-0.0006153253,0.0074837306,-0.00071985583,-0.0016493271,0.0028064442,-0.008426524,0.007884103,0.008465242,-0.009616542,0.0024749443,0.009936306,-0.0076596597,-0.0069729607,-0.0077553056,0.008416402,-0.0006672049,0.009162485,-0.008231255,0.0037423247,0.0026939004,0.00075361994,0.0024085743,-0.007576789,-0.009311283,0.0023661542,0.0061295964,0.00803288,0.005728126,-0.00071452244,0.0083138645,-0.009366514,0.0034303067,0.00022026354,0.0038644797,0.007288031,-0.006706403,0.0055271536,-0.009466559,-0.0008363592,-0.008662023,-0.0050748317,0.009284403,-0.0017892154,0.0029033748,0.009140849,0.008956212,-0.008228013,-0.0030242736,0.009919103,0.0050937035,-0.0015045938,-0.008735898,0.0029730937,-0.006795373
esophageal,0.008124001,-0.0044400357,-0.0010710843,0.0010514051,-0.00017022314,0.0011501528,0.006198035,3.7521146e-05,-0.0032814809,-0.0014919358,0.005867089,0.0014799511,-0.0006654378,0.009333454,-0.004926595,-0.0008644531,0.0091991825,0.006707099,0.0015146299,-0.008887127,0.0011689899,-0.0022232379,0.009365697,0.0012381483,0.0015253519,0.0024125949,-0.0018519295,-0.0050085764,0.00019986928,-0.0019962995,0.0065987664,0.0089599565,-0.0006476067,0.0029410848,-0.006128379,0.0017624863,-0.006925593,-0.008709915,-0.0059060236,-0.009048563,0.0072316076,-0.0057992176,0.008283874,-0.007212395,0.0034750956,0.009687934,-0.0078073503,-0.009961317,-0.0043461854,-0.0027035344,-0.00025735862,-0.008885939,-0.008616328,0.0027374628,-0.008193724,-0.009090513,-0.0023458826,-0.008634553,-0.00705851,-0.008401196,-0.00029715235,-0.0045826556,0.0066585424,0.001510602,-0.0033857906,0.0061313207,-0.0060290135,-0.004592597,-0.007274732,-0.004307872,-0.0018338043,0.006508216,-0.0027128079,0.004922074,0.006900493,-0.0074772136,0.004583152,0.006119104,-0.0029853028,0.0066296803,0.0061170426,-0.006405033,-0.0067696706,0.0025669166,-0.0016395788,-0.0060891397,0.009539611,-0.0051237615,-0.0065270667,-0.00011890791,-0.0026623267,0.00046228286,-0.0035542052,-0.00038325184,-0.00064620026,0.0008446822,0.00827967,-0.005751541,-0.0016542623,0.0055511105
artery,0.008111722,-0.0044316077,0.008895448,0.008311533,-0.0043747434,0.00013224864,0.0045735016,-0.0037036447,-0.0058282274,-0.006447617,-0.00074184645,-0.00036164853,0.0046225213,-0.0024870378,0.00014943322,0.0023711463,0.0048859883,-0.00031425158,-0.0063870326,-0.009325892,0.00013531554,0.00716532,0.0014119841,-0.009103199,-0.007895339,0.0065700947,-0.004121098,0.006179655,-0.0069610416,0.008461075,-0.0064069694,0.0032979765,-0.0009909937,-0.0071228035,-0.0033304223,-0.00065160537,-0.0056545073,-0.0012510854,-0.007729497,0.0023420106,0.008954025,-0.0024759062,-0.0009892397,0.0038027319,0.008950544,-0.0058205854,-0.006958802,-0.0029493386,0.009188527,0.00080814736,-0.008407316,-0.0017714588,0.009648721,-0.007910542,-0.005459949,0.009409758,-0.00896568,0.0039398447,0.00057382614,0.006612474,0.008362897,-0.0027496393,-0.004023815,0.008808311,0.0020871572,0.0067458027,-0.009603257,0.010007502,-0.0016981297,-0.0058943713,0.0028952898,-0.0005177647,0.0049393545,-0.0021927692,-0.003920187,0.002218808,0.00824368,-0.00491506,0.0027323007,-0.00804967,-0.0071667666,-0.00038436698,-0.009109637,0.0030468,0.0016217411,-0.0022710275,0.005274561,0.0098392125,0.008680704,-0.0018105105,0.0024999056,-0.0039012085,-0.00845352,0.006313722,-0.0017474846,-0.0005496391,-0.0015250745,-0.0046524825,0.0040784604,-0.004627274
accident,-0.009604639,0.0090230005,0.0041067316,0.009310375,0.006716238,0.0028603966,0.0100803645,-0.004196654,-0.006975253,0.0042714197,0.0036153698,-0.005728348,0.009880283,-0.0035651047,0.00974447,0.00084232655,-0.0063892277,-0.002095056,-0.0073422524,-0.003084197,0.0011466106,0.009884313,0.009311291,-0.0066470173,0.0036136378,0.0023392315,-0.0026884167,-0.009372853,0.000845356,-0.008151317,0.006341041,-0.005762675,0.0056808083,0.009692845,-0.0002737923,0.0049385275,-0.00197406,0.0072946614,0.003810437,-0.009262498,-0.002546008,0.0035776093,2.6694497e-05,-0.00096619176,-0.0008314104,-0.001668244,0.00048165832,0.0041717696,-0.004316083,-0.0038499916,0.00013226268,9.8725766e-05,-0.00013804088,-0.0050295475,0.0042392053,-0.0021490115,0.0020634988,0.00070081174,0.0059838723,-0.0069883103,-0.006864153,-0.004494144,0.009496793,-0.0016724927,-0.009513339,-0.00016333268,-0.004553818,0.0062854635,-0.009935468,0.0029953076,-0.009371592,0.0013658343,0.006215165,0.0074053225,-0.007473907,-0.00603999,-0.006937358,-0.007880247,-0.009585555,-0.0020628213,-0.0009905458,-0.007253156,0.0066292197,0.0012153155,0.005949572,0.0015617338,0.0010631997,-0.007420267,-0.0020831286,0.004338631,-0.004863808,0.001298882,0.002716041,-0.0015197787,0.010111667,0.008421388,0.0026136816,0.0070519904,0.0058839787,-0.0057465867
shortness,-0.005236707,-0.006651877,-0.007811232,0.008378254,-0.0020124232,-0.006821815,-0.0040376824,0.0051735663,-0.0029216285,-0.0037506497,0.0016241786,-0.0027982455,-0.001556242,0.00107862,-0.0029940198,0.008492777,0.0039226515,-0.010043184,0.00621453,-0.0068286797,0.00077454036,0.004484196,-0.0051172385,-0.002113923,0.008084339,-0.004235323,-0.007690095,0.0092524495,-0.0021728824,-0.004772178,0.00861688,0.004317611,0.004308666,0.009301923,-0.008461782,0.0052926415,0.002074121,0.004197184,0.0016856522,0.004428568,0.0044947006,0.006073937,-0.00324302,-0.004546785,-0.00034917763,0.002541469,-0.0032557808,0.006046058,0.004198498,0.0077634645,0.0025565426,0.008113118,-0.0013976173,0.008034182,0.0036765109,-0.0081042815,-0.00392617,-0.0025306134,0.004887145,-0.0008714062,-0.0028224988,0.00785311,0.009378889,-0.0016691072,-0.0052048275,-0.0046941675,-0.0048712357,-0.0095554385,0.0013045428,-0.0042221593,0.002494408,0.0056481007,-0.0040302943,-0.009561766,0.001527616,-0.0066732187,0.0024801572,-0.0037788434,0.0070543266,0.00065073103,0.003594277,-0.002787828,-0.0017194176,0.0076822573,0.0014370736,-0.0058869184,-0.0077888924,0.0012225806,0.006397194,0.0056129456,-0.008958471,0.008652574,0.004031276,0.0075272676,0.009831996,-0.0072967256,-0.009014177,0.0058448208,0.009423414,0.003493092
fever,0.007088797,-0.00156793,0.007947499,-0.009488659,-0.008029499,-0.006640371,-0.0040034545,0.004989216,-0.0038135587,-0.008319905,0.008411777,-0.003747002,0.008608696,-0.0048957514,0.003918594,0.004922017,0.0023926091,-0.0028188038,0.0028491246,-0.008256236,-0.0027655398,-0.0025911583,0.007249006,-0.003463403,-0.006599703,0.004340427,-0.00047448516,-0.0035975564,0.006882472,0.0038723124,-0.0039002013,0.0007718885,0.009143502,0.007754656,0.006361872,0.0046673026,0.0023844899,-0.0018416261,-0.006371293,-0.0003018105,-0.0015653884,-0.0005722857,-0.006262871,0.0074340473,-0.006591493,-0.0072392775,-0.0027571463,-0.0015154004,-0.0076357173,0.000698241,-0.0053261113,-0.0012755442,-0.0073651113,0.0019605684,0.0032731986,-2.3138524e-05,-0.005448358,-0.0017260861,0.007084917,0.0037362587,-0.008881049,-0.0034135508,0.0023541022,0.0021380198,-0.009464008,0.004571166,-0.008656997,-0.007387068,0.003483112,-0.0034709584,0.003564471,0.008894091,-0.0035743224,0.009320425,0.0017110384,0.009847774,0.005705043,-0.009149483,-0.0033277308,0.006530175,0.0056027793,0.008705515,0.0069261026,0.008038888,-0.009823008,0.0042988253,-0.0050300765,0.003512386,0.006056688,0.0043921317,0.0075123594,0.0014977157,-0.0012649416,0.0057684006,-0.0056395675,3.8591625e-05,0.009456587,-0.00548125,0.0038142789,-0.008113021
renal,0.0097568855,0.008162369,0.0012708433,0.005092949,0.0014386949,-0.006461922,-0.0013797904,0.0064949533,-0.0046287063,-0.003990775,0.0049071694,0.002715467,-0.001852379,-0.002887176,0.0060276105,-0.0057323766,-0.0032355124,-0.00651651,-0.0042273183,-0.00860448,-0.004444621,-0.008475207,0.0013803124,-0.008631128,-0.0099105975,-0.008212972,-0.0067957737,0.006672986,0.0037526842,0.0003452878,-0.0029247687,-0.0074132956,0.0004909008,0.00049755257,0.00020589218,0.00085570355,0.0007730926,-8.893306e-05,-0.007997115,-0.005892494,-0.008399898,-0.0013453334,0.0018123969,0.0074395253,-0.0019166698,-0.00229652,0.009503318,7.393032e-05,-0.0024153884,0.008623461,0.0027080385,-0.0053546233,0.006595311,0.004509547,-0.007085636,-0.00033468116,0.00081367284,0.0057397527,-0.0017305582,-0.0028131749,0.00176585,0.0008621445,0.001215287,-0.0026507548,-0.0059840735,0.0073400196,0.007582766,0.0083359415,-0.008598074,0.002641517,-0.0035551018,0.009632111,0.002925193,0.0046363086,0.002386323,0.006601376,-0.005764521,0.007882434,-0.002413021,-0.0045694537,-0.002062886,0.009731498,-0.0068899193,-0.0021770452,0.007015372,-6.84471e-05,-0.0062420326,-0.0064089163,0.00892566,0.006430485,0.0048131067,-0.003261517,-0.009266921,0.00379794,0.007201103,-0.0056080073,-0.007827989,-0.0029974026,-0.0049327556,-0.0023617933
liver,-0.0019508693,-0.0052280715,0.009421243,-0.009280416,0.004551661,0.005335899,-0.0013572337,0.009079174,0.009854934,-0.005464198,-0.0060873386,-0.0067781243,-0.007867513,-0.0030637959,-0.0055021835,-0.008377625,0.0007902001,0.0029727395,0.006498551,-0.0025929778,-0.0044254707,0.0013697798,0.00035209832,0.008160733,0.0002370038,0.007262774,-0.008337652,0.008407812,-0.0019644704,0.008737959,-0.0076077925,0.0018026199,0.0010804088,5.8996807e-06,-0.0051091486,-0.009051188,-0.007268271,-0.007998548,0.00188378,0.000386172,-0.0018909636,0.0071055833,-0.0024590252,-0.0012593343,-0.00886991,-0.00987478,0.008917222,-0.0057330597,-0.0063901106,0.0051731346,0.0067323456,-0.0069316025,0.001059676,-0.0061034355,0.0016234934,-0.0042340076,-0.0034263432,0.002237997,0.0086568585,0.0066849906,-0.009674588,-0.005602271,0.007884806,0.0019748185,-0.0042806016,0.00068421924,0.0094603645,-0.0009501458,-0.009554189,0.001676967,0.00619879,0.0062896023,0.0041565467,-0.0056508267,-0.00029226852,-5.5058867e-05,0.0045280894,-0.0080054775,-0.008015988,0.00024872654,-0.008716963,0.005889084,-0.00044396523,0.010078265,-0.005357037,-0.00046940806,0.007872131,-0.0040494883,-0.004954755,0.0015542911,0.0027678213,-0.0025278386,0.0063762986,-0.007632775,0.003395143,0.00054561615,0.008833638,0.005911785,0.006795622,0.007710821
pulmonary,-0.009526982,0.0095525505,-0.007814794,-0.0025979797,-0.0049146055,-0.0050021647,-0.007939928,-0.0076767188,-0.0046160845,-0.0013129273,-0.0051476248,0.006132969,-0.009452702,-0.0052970354,0.009534562,0.0070295846,0.007702681,0.00421517,0.00053257257,-0.0059657106,0.0060552144,0.0027889481,0.0076433737,0.006399582,0.008032438,0.008716236,-0.010015132,-0.0068285633,0.0012584479,0.0065104766,0.0073385662,0.005548557,0.007705346,-0.0051871794,0.006522502,-0.003915267,-0.009140478,0.009101053,0.0012640075,-0.0028560206,-0.002505484,-0.004253841,0.0048413905,0.0044759363,-0.0025715157,-0.007333803,-0.0035808398,-0.0003486809,0.0060594324,-0.0028518701,-4.3669585e-05,0.0007835,-0.00708169,0.0019184229,-0.001469442,0.0027825537,0.0048179068,-0.0013508039,-0.0027440223,0.0077281483,0.0050631533,0.006751175,0.0045021256,0.008612731,0.007429565,-0.0009214767,0.008733527,0.004744586,0.005339355,-0.0013103838,-0.002075267,-0.0044178604,-0.008476199,0.0030321265,0.008948377,0.008937514,-0.0020083534,0.006107068,0.003760874,-0.0042674593,0.0019636794,-0.00542512,0.008184107,0.0055086375,0.0032061595,0.0041341153,0.0087557025,0.0072686933,-0.0008183402,-0.0071126544,0.008505968,0.0072648153,0.0016668478,-0.0012844151,-0.005825355,-0.004501135,0.008763365,-0.003194485,-0.006375575,0.0098127145
thrive,0.0076778554,0.009142146,0.0011517444,-0.008306174,0.008402382,-0.0036836779,0.0057529383,0.0044026934,0.009686138,-0.009301032,0.00922072,-0.009278008,-0.0068947324,-0.009111603,-0.0055526285,0.0073752236,0.00918644,-0.003340667,0.0037244922,-0.0036426967,0.007878962,0.0058889445,-2.2099957e-06,-0.003627179,-0.007228983,0.0047828155,0.0014407204,-0.0026080862,0.007841482,-0.0040461146,-0.009150268,-0.0022545133,0.00012589668,-0.0066458066,-0.005496927,-0.0084860325,0.009231604,0.0074246065,-0.0002956748,0.0073509044,0.007944263,-0.00078968785,0.0066141086,0.00377967,0.005082472,0.007249487,-0.004733393,-0.0021974281,0.00086291396,0.0042295507,0.0032915086,0.0050904434,0.0045732884,-0.008442389,-0.003191617,-0.007246143,0.009682288,0.0049968427,0.00017541483,0.00410496,-0.007650419,-0.0062953737,0.0030892019,0.006537529,0.0039355243,0.0060181934,-0.0019857732,-0.0033412294,0.00019717409,-0.0031903486,-0.005510039,-0.0077830986,0.006545274,-0.0010847108,-0.0018951917,-0.0077839834,0.009324366,0.0008770149,0.0017557612,0.0024960255,-0.0073774513,0.0016297032,0.002975879,-0.008554318,0.004953562,0.0024463318,0.0075026685,0.005046117,-0.0030427899,-0.007154687,0.0071005602,0.0018976688,0.005187671,0.006384866,0.0019222803,-0.0061351066,-8.513752e-06,0.008274701,-0.00609959,0.009429411
gi,-0.0072144675,0.00425636,0.0022010864,0.0074637984,-0.004896465,-0.0046009906,-0.0060274093,0.003337242,-0.0045240168,0.008539235,-0.004311097,-0.00915681,-0.0047919177,0.0064052045,-0.006335243,-0.005322786,-0.0073254267,0.0059898966,0.0033867941,0.0028254415,-0.0031156167,0.006073997,-0.0061926264,-0.0020045468,-0.0060107377,-0.0009955604,-0.0020388844,0.0084748715,4.037194e-05,-0.008606152,-0.0054307636,-0.0068795974,0.0026815943,0.0094516175,-0.0058440487,0.00832953,0.008539112,-0.0070582298,-0.008893205,0.009434778,0.008366299,-0.0046924776,-0.006739647,0.007913631,0.0038123406,0.008091443,-0.007587606,-0.009534696,0.0015718867,-0.009799758,-0.004862098,-0.003502143,0.009655295,0.0086003,-0.0028368728,0.0058715115,0.00825608,-0.0022762227,0.009518727,0.007155973,0.002023905,-0.0038201788,-0.005058092,-0.0031000366,0.00788403,-0.0061573396,-0.0029735004,0.009276779,0.0034025155,0.0060947156,-0.008073613,-0.00074508897,0.0055765295,-0.0047276258,0.0075291703,0.009337849,-0.00043882124,-0.0020406847,-0.0006091308,-0.0058209016,-0.0084266355,-0.0014654987,-0.002614311,0.0044352375,-0.0068501374,0.005437301,-0.006722964,-0.0078048757,0.008514779,0.008910374,-0.0034460113,0.0035210727,-0.0058084675,-0.008752872,-0.0054646805,0.0067677996,0.0064502726,0.009432264,0.0070709325,0.006705004
pain,0.0012945018,-0.009750835,0.004587139,-0.0005125908,0.006401623,0.0017343345,-0.0030984199,0.007829762,0.0015472473,6.5176915e-05,-0.0046462226,-0.008510406,-0.0077030454,0.008720591,-0.008863512,0.009029268,-0.00930097,-0.00029371312,-0.0018667844,-0.008929433,0.008672093,0.006868538,0.0030162695,0.0048417156,0.0001433956,0.009435554,0.0069775027,-0.0098812,-0.0044965507,-0.00126033,0.0030466276,-0.004354766,0.0014711369,-0.007880491,0.0027420896,0.004774694,0.004933768,-0.0031878422,-0.008436374,-0.009262945,-0.0007809048,-0.007321306,-0.006794113,0.0061425706,0.007177324,0.0021146277,-0.007897837,-0.0057082097,0.008046182,0.003919957,-0.0052024582,-0.0074562198,0.0008115828,0.0034054648,0.0021243214,0.0031041384,-0.005623653,-0.00984512,-0.007020699,0.0001976824,0.004607041,0.0045175035,0.0018721129,0.005162779,-0.00012459425,0.0041752784,-0.00917284,0.0077433237,0.0060943854,0.005154132,0.007169249,0.008448129,0.0007954316,-0.0017506086,0.00052053353,-0.009310572,0.008390035,-0.0063922284,0.008387028,-0.0042346627,0.0005676102,-0.009131292,-0.009596076,-0.0078103268,-0.007702421,0.0003892708,-0.0072184587,-0.0049600154,-0.005206428,-0.0043115844,0.0070659,0.0048351786,0.008650693,0.0070943236,-0.005668784,0.0072506196,-0.009238398,-0.00258827,-0.007760911,0.004158702
left,0.0017957393,0.0070490176,0.0028992733,-0.0069594868,0.007780476,-0.0060475613,0.0091187535,0.0030745275,-0.0041157138,-0.004653698,-0.004491573,-0.006232139,0.0094586965,-0.0026408138,0.007885279,-0.00974765,0.0020936257,-0.0012868475,0.0075811828,-0.009051402,0.007510303,-0.004937196,-0.006090813,-0.0057055093,-0.0033276172,-0.003433072,-0.0032953792,-0.007552895,0.0006084592,-0.0005717163,-0.0016660471,0.0037736539,-0.0076377513,-0.0033024512,0.0051703337,0.008695519,-0.009864954,0.00714812,0.0053058555,-0.004033792,0.00853777,-0.009283749,0.0073012947,0.0054543437,0.0013895641,-0.005169003,-0.0042637694,-0.0033286395,0.0016021943,0.0015845203,0.0075143566,0.009849607,0.008995306,-0.0041088094,0.009621246,-0.00056114286,0.004878376,0.002599365,-0.0006719755,0.0036675876,-0.005323953,-0.005719009,-0.007629486,0.0018383646,0.006523643,0.0010516725,0.0011744684,0.003328789,0.008015313,-0.007648176,0.0021903398,-0.007478386,0.0038288778,0.009485434,0.0075867632,0.006415053,0.008018904,0.006580656,0.0068690954,0.008669227,-0.0050779874,0.009330803,0.0049360855,-0.0020519765,0.008501966,0.005111715,0.009767437,0.0028441225,0.009995687,0.0012084582,0.0092670135,0.0036434717,0.0064759343,-0.003581401,0.006867217,0.007322408,-0.002031102,-0.0019506924,0.0036460124,-0.0071730255
respiratory,0.009719112,-0.009776063,-0.006529007,0.002787691,0.006479347,-0.005410763,0.0028117679,0.009189199,-0.006830777,-0.0060915374,-0.004988111,-0.003702977,0.0018809598,0.009695974,0.006486074,0.00038148137,0.0024509043,0.008424364,0.009151066,0.005607729,0.0059916186,-0.0075533,-0.0038417636,-0.005683277,0.0062055173,-0.002268017,-0.008801804,0.0075720986,0.00835925,-0.0033178178,0.009150952,-0.00076102297,-0.0035966062,-0.00042320346,0.00017746372,-0.003438574,0.002781132,0.005727956,0.0068610767,-0.008948839,-0.0021970759,-0.0055305567,0.007524458,0.0065380945,-0.004310921,0.0023390257,-0.0059726555,0.00023907283,0.009462348,-0.0026255732,-0.0051347427,-0.007408078,-0.0028890793,-0.00088162563,0.0035022302,0.009756918,-0.0033782811,0.0018975122,0.009691725,0.0015265819,0.0010077278,0.009819764,0.009314819,0.007678844,-0.0062139886,0.010043268,0.005831071,0.009138951,-0.0020497816,0.0033920512,0.0068037636,-0.0038934627,0.006671217,0.0025638368,0.009337096,-0.0030425286,-0.0031159385,0.006213878,-0.009112564,-0.007261227,-0.006543325,-0.00072697224,-0.0023927474,0.0068281577,0.009247269,-0.00088894967,0.0014392476,0.0020190985,-0.0019912967,-0.008044786,0.007488912,-0.0042963345,0.004580339,0.0090952655,0.0030883763,0.0031518019,0.0041284095,-0.002740512,0.0038347547,0.0002817333
sp,0.0056031616,0.0055420273,0.0018437214,0.0057994863,-0.008969676,0.0065384214,0.009403226,-0.004128244,0.0015243879,-0.0052421447,0.0010123691,0.0026897078,0.008255196,0.0005269079,0.0026476406,0.0012841504,0.008390807,-0.005739452,-0.006254113,-0.0036516094,-0.0022353628,0.0051885247,-0.008188628,-0.0028758673,-0.008182768,0.0051947464,-0.002621206,-0.009155476,0.0039916495,0.009006346,-0.0030701929,-0.005828376,0.0030898408,-0.00051997666,-0.010072394,0.00862328,-0.0074010035,-0.004952534,-0.002738964,-0.005592253,0.0016287962,0.009765803,0.0046018665,0.0082026,-0.00037443932,0.0006522383,-0.0027130942,-0.008828023,0.0034025765,0.00212198,-0.009369775,-0.0051138652,-0.009717198,-0.0058104247,0.0040220553,0.008655552,0.0040908186,0.0024024553,0.008153965,-0.0011488991,-0.0014104743,-0.008724328,-9.9625024e-05,-0.0026459806,0.0003168414,0.007440963,-0.0071456595,-0.0038120872,-0.006821654,-0.0034969354,-0.003384424,0.0021639378,0.0034136076,-0.004990618,-0.004443117,0.0011483593,0.0053680213,0.0054440903,-0.003012419,-0.0042310627,-0.0056645474,-0.00054606394,0.0018484271,0.0015466892,0.007370796,-0.002690325,5.232497e-05,-0.0055389,-0.0011070843,-0.007746241,-0.0008936865,0.001379694,-0.008675025,0.008756034,-0.009127606,-0.009588797,-0.008404461,0.007326935,0.005470621,0.009167979
tract,0.0025369057,0.0008813363,-0.0025809559,0.009405808,0.0028413048,0.0041001937,-0.0011081838,0.0009945608,0.006548938,-0.0006978245,0.0033147463,-0.00072773796,0.005320393,0.003658666,0.0026397558,-0.0053344304,-0.0047288164,0.0042678076,-0.0058607142,-0.00017629354,-0.0005903158,0.0036359068,-0.008496967,0.008788049,-0.0014308026,-0.0053381184,0.0039789136,-0.0019864552,-0.007827933,-0.0045172777,-0.00035421186,-0.008956971,0.0005902573,0.0023738614,-0.003256701,0.0026854395,0.0024368393,0.0099932505,0.0014372467,0.0019155906,0.002751596,-0.002100571,-0.008671315,0.008082731,-0.0019297963,-0.009684357,-0.0065805623,-0.003967246,0.0039399597,0.0050354605,0.006172585,-0.006842053,0.0007344683,-0.0028611918,-0.005238678,0.006979427,0.0039577843,-0.0030837334,-0.0082801115,-0.0051759095,-0.0006811754,0.007832662,0.006034026,-0.008490781,-0.009592082,0.0072010783,-0.002366836,-0.0035871007,0.005650897,-0.0057824505,0.0050462717,-0.00024614693,-0.006829886,-0.00032253235,0.006385537,0.009263661,0.002204952,0.0050521973,-0.0050216196,-0.0007852822,-0.005411333,0.0012353007,-0.0018295436,-0.0035865502,-0.007001209,0.009664587,0.0030597956,-0.0023028618,-0.0041427757,0.0077427877,-0.006404171,0.0031265698,0.0007311086,0.008365539,0.006920091,-0.0028720307,0.0025936747,-0.0017282406,-0.009439353,-0.002657942
hypotension,0.0013312923,0.006546304,0.009993231,0.009057094,-0.0080214,0.0064919917,-0.005705618,-0.0009681704,0.00047847696,0.0065833163,0.0044716247,0.004608115,0.00948935,0.00037345616,-0.006032368,-0.006336709,0.0064291647,-0.0052487273,-0.0028519654,0.0040753633,-0.002293912,-0.0060162316,-0.0023287325,0.0011989847,0.0021749595,0.0060928445,-0.005211818,0.003082527,0.0072412947,0.0021846772,0.005396343,-0.0048391446,0.006156702,-0.0075919386,0.0034931814,-0.009325898,-0.002612246,-0.009071862,-0.001588941,-0.005367283,-0.0039494135,0.0011549438,0.0028031433,-0.001523629,-0.008166138,-0.00591483,0.0008274691,-0.003946751,-0.009433202,-0.00077727315,0.00663529,0.005974896,-0.009918749,0.003108983,-0.0059939884,-0.00917636,0.00016554866,-0.00036642843,-0.0069689997,-0.006285415,-0.0024244047,0.007089118,-0.007542976,0.0076931426,-0.00047517358,0.0011039854,0.009479179,0.0047309385,-0.0035713108,0.0037515836,0.0035252613,0.006333469,7.651391e-05,-0.004419806,0.001319447,-0.0054192254,0.0014044687,0.0049205273,0.0051543065,0.009190899,-0.0075051226,-0.0054063457,0.006448591,0.0013524956,-0.0066009373,0.0008817732,0.0026917148,-0.0025353658,-0.00494925,0.0050125774,0.009626171,-0.0073675024,-0.00012186206,-0.0025722424,-0.0063574244,-0.0013819734,-0.005247184,0.009058083,-0.0057832045,0.00367175
fracture,-0.00025398913,0.004228109,0.0020839304,0.01001339,0.00069308945,-0.0054996177,-0.0011320339,0.0021668752,-0.0034163268,-0.007828256,-0.0056513823,-0.0067800195,0.0064128377,0.0039694733,0.008284106,0.006494269,-0.0061357985,0.0026670273,0.008519446,0.0015704628,0.0031233157,0.00588518,-0.008878878,0.009104714,0.0068671955,0.0085263,-0.008286085,0.006133375,0.006555672,-0.0013487824,-0.006295959,0.005372369,-0.0068675694,-0.005370157,0.003486471,0.008188366,0.008630135,-0.0044371975,-0.009197598,0.00949511,0.0062344023,-0.003980795,-0.008431721,-0.004642574,-0.0038822074,-0.00325126,0.0007680312,-0.00029344665,-0.0030994127,-0.005993697,0.009476677,-0.0047684335,-0.007217135,0.007631191,0.0025135016,0.008638765,-0.0044928524,-0.006884454,0.0009887824,-0.0011844567,-0.009400123,-0.001616565,0.0030602254,0.006523443,0.006815325,0.0033140425,-0.00448241,-0.001748852,-0.004022744,0.005810033,-0.006419406,0.0021287613,-0.001295638,-0.0058142864,-0.007232803,0.0058341203,-0.008351755,-0.00068104756,0.0028052086,0.007745543,-0.007325644,0.0033601024,0.00977445,-0.006937512,-0.003500125,0.005135964,0.0053598885,0.0016316202,0.008049709,0.00084714586,0.0019355232,-0.0015736417,-0.008226347,0.003308021,0.00202283,-0.008665016,-0.0005736619,3.881704e-05,-1.5064483e-05,0.0086522335
heart,-0.0025293394,-0.0058946535,0.007450948,-0.0072776736,-0.00897683,-0.001793456,-0.008346611,0.000424575,0.0019510678,-0.0024753134,-0.00644793,-0.00028938128,-0.0011082849,0.0034706267,0.008157637,0.0058532483,0.008498324,-0.009021064,0.009417249,-0.0023916077,0.008707988,0.0024585866,0.003544144,-0.009608121,-0.00949064,0.008988502,-0.0029282991,0.0028208443,0.0064023067,-0.0002704482,0.009731547,-0.0010192716,-0.009687434,-0.007087495,-0.0010472749,-0.008624027,0.0074106315,0.003585443,-0.008743974,0.008454872,0.008910948,0.0058257477,0.0069330484,-0.009561287,0.0005266476,-0.0092023555,-0.003663467,0.00026487463,-0.00029201098,0.0014717211,0.003321264,0.0020924404,0.0053306757,0.0074959714,-0.0059387833,0.007969393,0.00600606,0.009810107,0.004611303,-0.0033118683,-0.0037187538,-0.0006107014,-0.0016608209,0.009856139,0.001142572,0.004068491,0.0034174994,-0.008839928,0.006689648,0.008194502,-0.001655625,0.0023103817,-0.006468806,-0.00611528,0.008257921,-0.003055537,0.006729494,0.0015822862,-0.0019627723,0.0030342124,-0.004055564,-0.0017327252,0.0013262933,0.00493531,-0.0013991649,0.0006561234,-0.007874278,0.00949204,-0.008749076,0.0070829648,0.0039850264,-0.0069804024,-0.005319882,-0.007935666,-0.005117939,0.0070889564,0.009661752,0.0021178606,0.00065122417,0.009474632
congestive,-0.005008333,-0.0012581382,0.0032737553,-0.0064286254,-0.009710374,-0.009293944,0.009045705,0.0054005287,-0.0047730906,-0.008352348,0.0012976023,0.0028661278,-0.0012686568,0.0012615635,-0.004340497,0.004813576,0.0014775378,0.008845755,-0.010005315,-0.005284912,-0.009123205,-0.00032694315,-0.007863438,0.005031326,-0.0064054085,-0.00592152,0.005071553,-0.008159704,0.001418196,-0.007222887,0.009900293,0.008637305,0.0017685761,0.0057652844,0.0045754802,-0.005992857,0.009794659,-0.009718058,0.008044824,0.0027405822,-0.0030698327,-0.0036058193,0.009077393,-0.005468797,0.008211585,-0.006022163,0.008432522,-0.00057746714,0.007941147,-0.0031395229,0.006027285,0.0087765,0.0025635909,0.0012914664,0.0050005005,0.0080118235,0.008573332,0.008489747,0.0070510535,0.007995373,0.0086481925,-2.821269e-05,-0.0009838386,0.0016269992,4.837181e-05,0.0007272439,-0.008593453,-0.009574929,-0.0023339535,0.008932925,-0.00365827,-0.00698554,0.004906049,0.0010843399,0.0018600301,0.0036805766,0.003456463,0.005756544,0.0012410181,0.0008442746,0.009035417,0.00281318,-0.0047483277,0.0065638665,0.0052412986,0.002844988,-0.003119642,0.0033166523,0.0063532623,0.0070685023,0.0009912632,-0.008508621,0.00025887447,0.0003724891,0.0039826394,-0.009502366,0.009718299,-0.0070173466,0.0057723,-0.009453473
distress,0.009625169,0.0073129465,0.0012435442,-0.0033960086,-0.000432561,0.00039648562,-0.0063925236,0.005774387,0.0023703475,0.0037807757,-0.007272792,0.008514779,0.00050459185,-0.00019905457,-0.009050044,0.004066645,0.006774676,0.00734282,-0.006406112,-0.007859625,-0.0055259448,-0.0005594778,-0.008348015,-0.008254611,-0.0018988013,0.0011639597,-0.009543128,-0.003755747,0.00059125794,0.006811684,0.0017608867,-0.00063763536,-0.0074803685,-0.0067618564,-0.00070994935,0.0074990285,0.00542953,-0.0014831554,0.0011755412,-0.009642733,-0.001391804,-0.0046368134,0.0058047036,-0.0023231658,-0.004738938,-0.00947627,-0.0012116273,-0.0071780295,-0.001686281,-0.0040722056,-0.0023525837,-0.0032567931,-0.008128329,-0.0012578154,0.0016425597,-0.0040399274,-0.0076461686,-0.003577526,-0.009060586,-0.00076055713,0.00587875,-0.0029602088,0.0031587055,0.0049849916,0.008476383,0.0056561045,0.009483071,-0.0095954025,-0.00799296,-0.0067417156,-0.0074776993,-0.007934122,-0.0077702715,-0.0029452906,0.0014196069,-0.0028617184,-0.008841603,0.0049839173,0.000899852,0.0045729293,0.0071651833,0.007660995,-0.0008244516,0.0037016273,-0.005133354,0.0019045968,0.0045758127,0.009902266,-0.0031980546,0.0028315394,-0.005708277,-0.002184619,0.008115258,-0.0038894424,-0.0011793236,-0.009248832,-0.009450781,0.00886065,-0.005697216,0.0050229426
gastrointestinal,-0.006973326,-0.0024545207,-0.008014031,0.0075276587,0.006106108,0.0052556973,0.008392329,-0.00067461067,-0.009325631,0.009122443,-0.0049388623,0.007846779,0.0055515226,-0.0010603487,-0.007676144,-0.0014882742,0.0062576886,-0.0069613312,0.0014582332,-0.007945569,0.008739897,-0.0028484024,0.009421784,-0.0057289577,-0.009732063,-0.008657898,-0.004081839,0.0047138673,-0.0002645347,0.00920837,0.0030909576,0.0037300375,0.0030006773,0.008157738,-0.002430724,0.0074326834,-0.009546602,0.0029247694,-0.00068579544,0.00046584968,0.0068580024,-0.0028282858,-0.0023801501,-6.818698e-05,-0.0004575161,-0.0035658637,0.0062536825,-0.0065940497,0.007908936,-9.261646e-05,0.0025833,0.0032268527,-0.00028502572,0.0017052565,-0.0031288099,0.004763762,0.00024278424,-0.003276162,-0.008708747,-0.009997906,0.0003236035,-0.005734838,-0.0011240132,-0.0042237164,-0.008653388,0.0010526682,0.005876976,-0.002186355,-0.0071497303,0.0031511087,-0.0003932902,-0.005525749,-0.0010886205,-0.00062456925,-0.0031757965,-0.009935428,0.0076605445,0.0037175533,-0.0025446576,0.0073122545,0.0004440425,0.0071840454,-0.0015461623,0.0075126537,-3.5935012e-05,-0.0060808165,-0.004737573,0.009626179,0.00061146496,0.0010319527,0.0084477505,-0.0063003656,-0.0017852138,-0.00816914,-0.0066490453,-0.008548154,0.0039611594,0.0027478011,0.0056151124,0.0025689616
infection,0.0021083783,0.005751226,-0.002153662,0.0031873605,0.008510362,0.0003324942,0.0063377605,-0.006660597,0.006542428,0.004689334,0.005044561,-0.009964484,-0.00041217002,0.0032421628,-0.0057327487,-0.00670243,0.0063413545,-0.006835937,-0.0051587764,0.008156012,-0.006997693,0.008675123,0.00060765236,0.004427526,-0.0029758117,-0.005428293,-0.009053268,-0.00065105624,-0.0051850993,-0.0030910613,0.008128632,-0.0076453527,-0.006310916,-0.005344302,-0.00659747,-0.008736173,-0.0011196929,0.009421804,0.008000015,-0.005340606,-0.008158261,-0.002289221,-0.009239899,-0.004999753,-0.0058843414,0.0030499266,-0.007606344,0.0012656209,0.002313506,0.0052945986,-0.0019426957,-0.009844688,0.005302759,-0.006023344,0.0048635215,0.001974756,0.008821579,0.0015529889,-0.0018496324,0.0064665657,-0.0070579085,-0.008361086,0.0037949008,-0.0026025628,-0.004194924,-0.0018210185,-0.009917035,0.00037586832,-0.0011243634,-0.0029286584,0.002473297,0.004693575,0.006383109,-0.0079406435,-0.00492066,-0.008785141,-0.008971289,-0.0037581846,-0.0012768919,-0.00823598,-0.0054927636,-0.0021359436,0.0062728175,0.0015938991,0.008324413,-0.008302322,-0.0044890246,-0.00078208593,0.00887681,0.0011104424,0.0016179729,0.0013160965,0.0028652947,-0.009376211,0.0032958554,0.00548727,0.0053455885,0.004396456,-0.008078352,-0.004155926
cholangitis,0.00835377,-0.00056935777,-0.009441903,0.0047803987,-0.0060310233,0.0066785812,0.005382131,-0.0050300285,0.0025699665,0.0054145954,-0.0035953429,-0.0015098513,0.009180774,0.009058506,-0.009394333,0.0075819716,0.009895769,-0.0028480925,0.0024637538,-0.0028002118,0.008645231,-0.0002493708,0.0056408686,0.00922432,0.004121402,-0.0071139405,-0.0019375413,0.0009789452,0.0020282418,0.0029639336,0.009448056,0.0044032875,0.009923098,-0.008666184,-0.005758073,0.0020048765,0.003656662,-0.0009990439,-0.006913923,-0.0032131453,-0.008531491,0.009406776,0.0037366755,-0.007879122,0.003201976,0.004181228,-0.0056480123,-0.0059089162,0.0010422184,0.0089547485,-0.009642858,1.4463499e-06,-0.0068757003,-0.00094341364,0.0030379286,-0.005030421,-0.0027722775,0.0006946995,-0.0063492917,0.0072753336,0.0043779644,-0.008564141,-0.0021476103,0.0031796445,-0.008330648,-0.0070499526,-0.008450746,-0.005497059,0.008847104,0.0070843166,0.0028798066,-0.008550388,0.0057511693,0.0046444396,0.00011245232,-0.0088507375,-0.0018796651,0.00017711849,-0.007769719,0.0024864192,0.00047757072,-0.0070534484,-0.008269897,0.006046531,-0.008337207,-0.0055808774,0.0055992277,-0.00048649957,-0.0030537236,-0.0051891655,-0.0011928757,0.0052790553,-0.0059554246,-0.004971445,-0.0049379547,-0.004753738,-0.007964317,-0.009764938,0.0075753178,0.007993981
subdural,-0.0042906012,-0.009359239,-0.0019077538,-0.0037011346,0.009145485,0.0028857898,-0.0059300214,-0.0032858367,-0.009942545,0.0019657763,-0.004019275,-0.0027046145,0.0051851976,0.0076269396,0.004415475,-0.006832676,0.0066797067,-0.009674315,-0.006966757,-0.007993983,-0.0022394734,0.0005661964,-0.0037823254,0.0018322617,0.0092648445,0.0066666813,-0.0011067924,0.009066487,0.0015015486,-0.0019648513,-0.0065724086,0.006496966,-0.009056589,-0.0019341531,0.0076978556,-0.0024970365,0.0015620729,-0.007367498,0.0049681654,0.007314815,-0.009335749,-0.0033056142,0.007892009,0.0029876484,4.972539e-05,0.0003595398,-0.009888262,0.009955484,-0.001993352,-0.0048881923,0.0027875686,0.0009798354,-0.005895668,0.005753383,-0.0025128708,-0.0061755767,0.007233793,0.006478289,0.008820083,0.0011623933,0.0005163143,-0.0079059135,0.004640283,0.009344648,-0.00068789884,-0.0016912464,-0.003814747,-0.00040200716,-0.0076827654,0.005727095,0.0014491308,0.009300871,-0.0063814227,-0.005103999,-0.006215248,-0.0072900476,0.0027623402,0.0048700743,0.0013417426,0.0035270702,-0.009453099,-0.0010342922,-0.0077636903,0.003019527,-0.0026850228,0.008881267,-0.0033718897,0.006852441,0.0041300743,0.0013722559,4.0448213e-05,0.008197251,0.0023315866,0.008290766,0.003361037,0.005455294,0.0051794657,-0.0076722554,-0.005787025,0.0011901044
cancersda,0.00017583305,0.0021311746,0.0010513689,0.0075954944,-0.0044227964,0.00034114716,0.0070305737,0.002265912,0.0042291465,0.0043210057,-0.001268199,-0.008325365,0.003033384,-0.008869309,-0.0026463135,-0.0094032455,-0.00045051388,-0.007880953,0.0074058557,-0.0048949486,0.009918147,-0.009007829,-0.0043253726,0.0018995524,-0.003011415,0.0014424615,-0.0036980794,-0.00091125595,-0.0057450966,-0.00982149,0.0063566566,0.0003675641,0.0064977626,-0.007488133,0.003651934,-0.009899432,0.0075803096,0.0059371726,-0.006105472,0.008184126,-0.00558707,-0.00857177,0.0014763684,0.0031986025,-0.008078537,-0.008918872,0.009162733,0.0016515241,0.00087552535,0.0024856124,-0.0035019345,0.0017330208,0.0019731363,0.009793428,-0.005632622,0.0022845652,0.006294929,-0.0066890065,-0.008951675,0.008664991,0.0068272646,-0.0040091835,0.0057253935,0.0007736171,-0.0050250986,-0.0013261976,-0.0049194377,0.006152708,0.0019650813,-0.008309444,-0.0001288627,-0.0026401062,0.0066120415,-0.0011443592,0.0076806396,0.0019327425,-0.0038356127,0.008165974,0.0029578623,-0.003991733,-0.005606171,-0.0030908876,-0.005150338,0.003440898,-0.009280525,-0.0058356747,0.0033454653,0.00020224776,0.0059965937,-0.003599295,2.2405364e-05,0.0024649485,0.0054615582,0.0016065172,0.00981747,0.0037434318,-0.007171821,-0.0014154854,-0.008365021,-0.005348509
mi,-0.0022148122,-0.009670608,0.009287756,0.002069511,-0.0011189372,-0.0055504167,-0.008405604,-0.009854972,0.00887171,-0.002469795,0.004558966,-0.0045492467,0.010070241,0.0036552039,0.001107157,-0.0040790443,0.0012150315,-0.002669266,0.007365187,0.004459868,0.0010546022,0.0036065492,0.003679004,-0.0067570102,0.0089622745,0.0017655506,-0.0058606444,0.0086288955,-0.0013294491,0.0082062,-0.0015225755,0.0069885016,0.00273053,-0.004410919,-0.003774103,0.009336243,0.0015469786,-0.006008211,0.0003193627,-0.002078474,0.0015144112,-0.0077350913,0.007423795,0.0013846497,0.007938865,0.004486983,-0.004441634,0.0037513773,-0.00068792305,-0.00987913,0.008304867,0.0095974635,0.009684511,-0.003909775,-0.008468877,0.0048077507,-0.0076524983,0.008557506,0.002747939,0.0056058983,0.0060897074,0.00043671855,-0.0020910648,0.0007060842,0.009815043,-0.007044499,-0.0015578666,-0.00223593,0.004768275,0.006479428,-0.0041845194,0.0036233815,-0.0044355155,0.0032902206,0.008214225,0.0036432624,-0.004625217,-0.002944238,0.00784879,0.009618117,0.0057282182,-0.0032151283,-0.0018461549,-0.006232815,-0.0042743147,0.0033916428,-0.0063953036,-0.0066038766,0.008183819,0.009502122,0.00820999,0.0015641405,-0.008859084,-0.007579651,0.0016496219,-0.009493903,-0.0073013795,0.0019862356,-0.002897762,-0.009198556
cholecystitis,0.0063975863,-0.008953635,-0.007371998,-0.0017529412,0.0017233846,-0.0010234487,-0.0051850644,0.0066005257,0.008764905,-0.007407648,0.009811997,0.0073786573,-0.007422396,-0.0018841667,0.004270389,0.0070719733,-0.003642021,-0.006996823,0.004716566,-0.0090528745,-0.005832154,-0.0012342549,0.0054770173,-0.005680354,0.0048141526,-0.00042763894,0.0026505105,0.006378669,0.0013890008,0.00771744,-0.0003047013,-0.008264536,0.009187579,-0.0048981775,0.004732094,-0.0038668355,-0.0073548085,-0.006505827,0.0046677548,-0.00068527815,0.0014556826,-0.008954908,-0.0051532057,-0.0060510505,0.008423429,-0.008692292,0.00502703,-0.0008583546,0.00019504108,0.008791874,-0.0035547877,-0.006959116,0.00075186515,0.0077025793,0.009100149,-0.0037100394,0.0027253975,0.0049498533,-0.005300193,0.006845728,-0.006451151,0.0021080729,0.004590013,0.004394432,-0.0046842596,0.0026882635,0.007314004,0.008629141,-0.009540766,0.0056049763,0.004971638,-0.0016008334,0.009182093,-0.0041726315,-0.0017439683,-0.0068776566,-0.0037968303,0.00024066262,-0.0032657324,-0.005391331,0.00653717,-0.0053148055,-0.006344804,0.007649537,0.009646909,0.0039889994,5.452773e-05,0.00079632626,-0.00096353353,0.006875966,-0.0062239706,0.0005130581,0.004286711,-0.0020859265,0.0009124407,0.0037081318,0.009739866,0.0021492091,0.009487228,-0.0058444026
fall,0.0048213843,-0.0036281543,-0.0042568054,0.0012155923,-0.004111598,-0.0056597777,0.0031980334,0.008379373,-0.0065986556,-0.009110144,-0.0033458876,0.0075051226,-0.009640405,0.009596454,-0.00039388106,0.002294352,-0.0018361806,-0.0057749026,0.0031035715,0.0061876317,-0.007037688,-0.001150394,0.0015484164,0.0042351685,0.0071506933,-0.003537319,0.0072561484,-0.0055776434,-0.0022280246,0.009079911,0.005372995,-0.00848088,-0.0016495298,-0.008885556,-0.0016672872,0.0056966506,-0.007433066,0.0055075795,0.0060674152,-0.0038091918,-0.009672184,-0.0025350973,-0.002540649,0.0038075694,0.008973712,0.0020056863,-0.0021201791,0.0029740504,-0.0068348534,-0.0012907431,-0.0014716183,0.009589435,-0.005794266,-0.007073212,0.0023436903,0.00265305,-0.007156973,-0.0058686463,-0.001182931,-0.0033196828,-0.008996218,-0.0040744566,-0.0029724564,0.006506103,0.0009784859,0.0016562357,0.0002612556,-0.0033508602,0.0030584875,0.00072729454,0.005950142,-0.0007587265,-0.00886708,0.0008963788,0.009948434,-0.00525523,-0.005225598,-0.0024958125,0.008589237,-0.0008246542,0.009395855,-0.008297103,0.009004627,-0.009711443,0.009203911,0.0018788787,0.0027132384,-0.005837588,0.008474768,0.006044119,-0.0054656817,-0.009487137,0.0069462024,-0.005543524,-0.009283612,0.0026195522,-0.004918208,-0.007383098,0.009734249,-0.0016000514
chest,-0.0015184003,-0.004002922,-0.004420549,-0.004594633,-0.0055519706,-0.0052859555,-0.0079706805,0.009614623,0.006333968,-0.0035944693,0.0024848182,-0.0077013243,0.0076084537,0.00833141,0.0008698437,-0.0068657496,-0.0029736531,0.0046891444,-0.0029329492,0.0031724754,0.009440156,0.0044163037,-0.005179404,0.0054813223,-0.0028820396,-0.006430853,0.0069741462,-0.0093202125,-0.001152879,-0.0014172631,-0.008405594,-0.0011002484,0.005591166,-0.0053288136,-0.0070345746,0.0063083223,-0.0034359589,-0.0078481,0.00025398328,-0.00012400285,0.0075364863,0.000530086,0.0079105245,-0.009784577,0.0040418915,0.0062419693,0.00096364046,-0.0028324306,0.0010319126,-0.00085307664,-0.008046452,-0.006837958,0.0012190467,-0.0020861393,0.009541348,-0.0009636043,0.0061388197,0.0020242753,0.008089156,-0.009318512,0.0023760202,-0.0014528043,0.0021754452,-0.00030929397,-0.006664356,0.009095059,-0.0028743835,0.0019726423,-0.006545123,0.0037429165,0.009986582,-0.0012281702,0.006586527,-0.00013713072,0.0079741785,0.009655166,-0.0003874435,-0.0016897464,-0.009556092,0.0098992465,-0.0025923888,0.002211149,-0.0017402351,0.00832838,0.008324103,0.0015819889,0.0029107996,0.006454455,0.0023203995,0.006481065,0.00020673337,-0.0022888167,0.005248866,-0.003409558,-0.0025847026,0.008805125,-0.0091224,-0.0034500633,-0.0028976384,0.0055674105
hip,0.007948103,-0.0064553483,0.005790446,-0.00019437255,-0.008990879,-0.0024366127,-0.0015610923,-0.0044588866,-0.0008210498,-0.0052194144,0.00593554,0.009296986,-0.0015616233,0.003380107,-0.00073786883,-0.00074107235,-0.0070213536,0.0014370576,0.0039010057,0.0069320025,0.006571559,0.0035638947,0.004637954,-0.0074387807,-0.0013854279,-0.005821681,0.006777255,0.007843939,-0.0042786277,0.0011337585,0.005111122,0.0018247145,0.000749333,-0.006752208,0.009865447,-0.0072385278,-0.006026193,-0.0056654746,-0.0063369814,-0.0035183667,-0.009401438,0.0011385825,-0.0037160849,-0.0025291776,0.005813906,0.0035600355,0.0017959807,-0.0013592374,0.009873232,0.0002753207,0.005064789,0.009027991,-0.0097458875,-0.0091986675,0.009912633,0.00273225,-0.0018782527,0.0047233263,-0.0043395194,-0.0064007496,-0.008261699,0.0072190817,-0.0024306101,-0.0075876545,-0.0059215417,0.006182306,-0.0024697843,-0.006083283,-0.0016253978,-0.0014735021,-0.0032365758,-0.002095711,0.0041285674,0.0014644141,-0.0034767017,0.0026832426,0.005228558,-0.0092072245,-0.0075573153,0.006273406,-0.008971346,0.00054228154,-0.009021215,0.0083651235,-0.004287629,-0.0066391504,-0.0013537803,-0.0011062975,0.0075750356,0.009143252,-0.00033415662,0.0026995488,0.004716647,0.0001475399,-0.005745952,-0.0005815048,0.0021918502,0.008277918,-0.0035737192,-0.009914347
vehicle,0.005307681,0.009866145,-0.007027172,-0.00046462982,-0.005034403,0.0063833264,0.009852763,-0.00022810699,0.0050337925,0.0065668887,0.004357789,-0.008155163,0.0031930604,-0.0014938776,-0.0020356162,0.005372765,-0.0013948976,0.009885665,-0.00063186785,0.00024236788,-0.002267111,-0.00833606,-0.009881206,0.0048991977,-0.0065733716,0.003000413,0.0026836302,-0.007165197,-0.0032374128,-0.0058196676,-0.0085711805,4.6667228e-05,0.009888483,-0.006717355,-0.00450334,0.00857914,0.009238364,0.009815919,-0.009938373,0.004864515,-0.0067086173,0.0068966523,0.0061545293,-0.003212589,0.007007923,-0.00784914,0.0044870405,0.004539569,0.0058823735,0.005884901,-0.0025560248,0.0037553906,-0.0060253995,-0.006582239,0.0027201625,-0.009419917,-0.00026582557,0.0011028849,0.008063032,-0.007071326,-0.0023391258,-0.00407689,-0.005196952,-0.0006193917,0.0045147804,-0.0047880188,-0.001780262,0.008845533,-0.0015321611,-0.003513284,0.007332785,0.0012824599,-0.00017180567,0.009441326,0.008198864,0.003390146,0.003240789,-0.0022366014,0.008007912,0.005031931,-0.005510774,-0.006135832,-0.0006742649,-0.007881644,0.0034161035,-0.009164369,-0.0014265662,0.0033207096,0.003164096,0.0031128256,-0.00900806,0.0035041277,0.0052798376,0.0034851246,0.007927046,0.0017296866,0.0064104535,0.008858291,-0.00092151214,-0.00091240375
motor,0.002194827,-0.007431625,0.0056194775,-0.0049276752,-0.0032599734,-0.0018873138,0.008444924,0.0023870792,-0.0010155402,-0.0028406505,-0.0021735663,-0.001416659,-0.0049666436,-0.0041726776,0.00030689593,0.0045594852,0.0017390872,0.006850566,0.0006627958,-0.0032732608,-0.0073279534,0.006190622,0.0069483747,-0.006166517,0.004722545,0.0095592495,-0.0064434046,-0.0030614396,-0.009235502,0.0031904909,-0.0034337651,0.0020268548,0.009620521,-0.008438277,-0.00949053,0.0019806747,-0.008138409,-0.0090799965,-0.009434125,-0.00048923126,-0.001195173,0.0008461872,-0.0013189543,0.009197004,0.00898399,-0.0063834973,0.008719471,-0.009072841,-0.0013626568,0.0025599936,-5.6415927e-05,-0.0039629755,0.0004928718,0.0008816144,-0.009458929,-0.004839301,-0.007749598,0.003858926,-0.00082544406,-0.0075920913,0.0056233495,0.0002566679,0.0027617526,0.0053747357,-0.004301257,0.008071641,-0.008017438,-0.0032746363,-0.007619031,0.001053662,-0.007529689,0.00915323,0.005691409,-0.007233309,0.006282191,0.0065991324,-0.0075242626,0.0046886317,-0.007770006,0.009346622,0.0046307114,-0.00026329813,-0.009090572,-0.0008384186,-0.0001808518,0.0009347675,0.008856015,-0.0028309233,-0.008637672,-0.008889349,-0.001029255,0.0014777326,7.5227326e-06,-0.0022101619,0.008724037,0.00019799119,0.00658151,0.0040193684,-0.007167798,-0.0022212488
status,-0.007809749,-0.0067107705,-0.0031939063,0.0066230744,-0.00080889784,0.0088271,-0.0021847854,-0.0051720394,0.003882523,0.0022341013,-0.0003486319,-0.0025035485,-0.0059305043,0.004050121,-0.007532146,-0.008953758,-0.009193186,0.008328152,0.0040454525,0.007068694,0.009928559,-0.007100423,0.004034208,0.00274791,0.006274193,-0.0033446301,0.009254496,-0.005877762,0.006930207,0.0069348556,-0.0003888987,0.005111163,0.0066609704,0.0015097172,0.007344661,0.0025611876,-0.001615695,0.007327213,0.0047264295,-0.0033400417,0.0015830351,-0.0001515279,0.0049993275,-0.005346984,-0.004098902,-0.00087797194,0.0037948657,-0.0065801037,0.007815132,-0.0030660883,0.0058463607,0.0027633002,0.0069304854,-0.0045777205,-0.0031973305,0.0031313468,-0.0028210704,0.005983376,-0.0059764995,0.0025617108,-0.00067991717,-0.0006396758,0.002553666,-0.0022421018,-0.004272993,-0.008406673,0.0023865846,0.005495239,-0.005991617,0.009206694,0.0040010004,-0.0051263855,-0.0011734829,0.003965503,-0.0069860336,0.0020203746,0.0054896916,0.0062740943,0.005444305,0.003671307,-0.0028456005,-0.0060040522,0.008091944,-0.007212447,-0.0015927004,-0.0032609862,0.0066638733,-0.0063672457,0.0034864892,0.0020233886,-0.0039847414,-0.008218061,-0.008104864,0.003575745,-0.009504123,0.00583147,-0.0027728907,-0.009245809,-0.0051818467,0.0076247444
metastasis,-0.0017475749,0.006408485,-0.009318589,-0.0091388,-0.0051700533,0.0008989959,-0.0071570943,-0.009392078,-0.008909344,-0.00045110786,0.0073699346,-0.008396644,-0.005339625,0.0015293037,0.0033711933,-0.008473518,0.007865634,-0.008216317,0.004765293,0.0094407145,0.005690012,0.0062522213,0.008230167,0.003444573,-0.0071079778,0.0057650325,-0.008356966,-0.005752941,0.005850031,-0.007919054,-0.005830561,-0.0035652022,0.0034145596,0.0051804176,0.0020385091,0.0052014505,-0.0026565446,0.0043320153,-0.0070656547,-0.0017232549,-0.007808088,0.000194776,0.0046907063,0.0048156413,-0.004647487,0.0017835278,0.007821113,-0.0055995076,-0.00379132,-0.00061840116,-0.0046609244,0.008634394,0.0075731687,0.009168992,0.009358784,-0.008447496,-0.00047348623,-0.007588137,-0.004804523,-0.008836035,0.0034284657,0.00011631583,-0.0069285785,0.00794549,0.000937328,0.0003841664,-0.003610496,-0.003289836,-0.0026886268,0.0076680635,0.0023552526,-0.0052017765,0.0047469595,0.0009937233,-0.0027071212,0.0076817693,-0.0039913664,0.0074488455,-0.0042281453,-0.0073765167,-0.004548893,-0.0038563383,-0.0007503413,-0.0018067459,0.0051031555,0.005446861,-0.0016807601,0.003715511,-0.0020065983,0.0007187375,-0.0012948941,-0.0024644898,-0.0047475137,-0.0042559267,0.00015539481,0.0016772539,-0.00939569,0.0060376576,-0.0017080045,-0.0030394031
asthmachronic,-0.0048088706,-0.004367696,-0.0048398054,-0.009802303,-0.0007675793,-0.007878754,-0.0047070794,-0.0073201736,0.0099390615,-0.0013338684,-0.007819249,0.0054928684,-0.008126895,-0.0019658674,0.0028032886,-0.0070872284,-0.008769806,-0.0066758012,0.0074607637,0.009102167,0.0039891093,0.00252493,0.0040828628,-0.0041586305,0.009825223,0.0069215335,0.004071616,0.008874182,-0.00851744,0.0009727305,0.008919495,-0.0009420173,-0.006708639,-0.0023400604,-0.0028439902,-0.0024132906,-0.0018755611,0.007254052,-0.00029749385,0.0041540074,-0.0037956485,0.008195919,-0.0065133255,-0.00928396,-0.004062322,-0.0073511987,-0.004914458,0.00050683384,0.002386646,0.0017592292,0.0051010125,-0.0015045772,0.002408154,0.00030438788,0.0077896025,0.008100428,-0.0019699403,0.0012696399,-0.006059449,-0.004748063,-0.006941777,7.613348e-05,-0.0049671703,-0.0041284384,0.0015244038,0.0027399433,-0.009210934,0.0018775405,0.0050637177,0.004152496,-0.0029504988,0.00951685,0.009527074,-6.489395e-05,0.00096025853,-0.009264102,-0.0048539704,-6.672234e-05,0.0040448983,9.0212685e-05,-0.008806321,0.005901544,-0.007482644,0.008649096,0.005493402,-0.006778266,0.002913273,0.0077105113,-0.0061008134,-0.0066140415,0.009315382,0.0018517738,0.009715817,-0.009891963,-0.0014297391,0.0069746114,-0.0013874321,-0.0018337981,-0.0071220445,-0.0057583204
tracheal,-0.006543584,0.008941594,-0.001617138,-0.0083047,0.008021574,-0.002944073,-0.0012579069,-0.00061341055,0.0027723613,-0.0046993657,-0.0002910064,-0.0028937045,0.008847425,0.0068823993,0.0011086182,-0.00608727,0.003131919,0.0010891128,-0.006144815,-0.0058208504,-0.003058312,0.0024568443,-0.008122294,-0.0049778586,0.008096049,-0.0037183117,0.007958812,0.00048275545,-0.005604229,-0.004994922,-0.00019041581,0.004611355,-0.006071424,-0.0055817957,-0.0068569058,0.0068301978,-0.0024283384,0.0039762966,-0.0016623598,-0.0075025833,-0.0013036641,0.00037103274,0.0035933314,-0.00862049,-0.0067180153,-0.006564617,0.0029691816,-0.0037537608,0.00101642,0.004179761,0.004610803,0.0023332813,-0.0028348346,0.00054737256,-0.005457469,-0.0063725584,0.008680287,-0.0040849657,-0.009352887,0.003691951,0.008478571,-0.00015173515,0.0022958645,-0.0036192304,-0.004210045,-0.008550222,-0.007916587,-0.009000381,-0.0060909544,0.008507867,0.009379843,-0.0016626543,2.4709607e-07,0.007858057,0.0013174873,-0.0051428406,0.0025912633,0.001882056,-0.003750583,-0.0048584826,0.0096232975,0.0076317,-0.008638059,-0.0054798964,0.0014156328,0.0009283619,-0.008278117,0.009318451,-0.0053392337,0.004601859,0.009267292,0.0011176551,0.0042129043,-0.002691465,-0.009604301,0.000624103,-0.0009998775,-0.009972013,0.0070038373,-0.007457741
obst,0.005115432,-0.0044603883,-0.009252378,-0.009041037,0.0062756445,-0.005312449,0.005339945,-0.0014916637,0.0096717365,0.0071821692,0.009831434,0.0083718235,-0.007923839,-0.009611426,-0.0055002463,-0.000806522,0.004968867,0.0036387893,-0.0020402644,0.005053314,-0.00337064,-0.006719391,0.004650324,-0.009939562,0.00093770353,-0.0050139586,0.0075504957,-0.0037904442,0.0027345961,-0.0062467963,0.009669775,-0.005584216,0.0035756829,0.0031887703,0.008936914,-0.0054858085,-0.0044253026,-0.0062614023,0.0061602597,-0.0046759625,0.004802118,-0.00093492726,0.0072980635,-0.006002783,-3.5161032e-05,-5.904478e-05,-0.008591421,0.008777271,-0.0021038698,0.006466071,0.0001761501,0.004935362,0.0023241595,0.008818103,-0.008401369,0.00850159,0.008639585,0.0010688307,0.004400125,0.0038280438,0.0040971492,-0.0028574502,0.0028344686,0.00069501786,0.0048456467,0.008534419,-0.0077930614,0.00030227654,-0.008806591,-0.0015463674,-0.0090762675,0.0031491686,-0.0015361669,-0.0007295374,0.0064702025,-0.008142416,0.0011308065,-0.0023998767,-0.0037163096,-0.0073367804,-0.008049691,0.008368398,-0.0075267353,0.0049104113,-0.0037896424,-0.0012117838,0.002899373,-0.008606553,-0.005631601,-0.0077807354,-0.0093037225,-0.0047467826,-0.0031867987,0.00053970754,-0.00062698306,-0.007831231,-0.0037349588,-0.0028884767,-0.006395718,-0.006468629
stroketia,-0.002607931,-0.00791861,-0.008259738,-0.007585689,0.0035540771,-0.0075884545,-0.003710761,0.00662868,0.007399565,-0.0063979235,0.006798301,-0.007771077,0.00013180851,0.0066165566,-0.0028397667,0.00922022,-0.00032455564,0.0046845553,0.0069524013,-0.008540753,-0.0060704304,-0.007295449,-0.0011709523,-0.007089524,0.00010927677,-0.008043634,0.0005104637,-0.00038909435,0.0064722206,-0.008881645,-0.0031734514,0.005898355,0.009234394,-0.0017851782,0.0007772481,-0.0060945093,0.0008211219,-0.008139475,-0.0076386104,0.0013829279,-8.144021e-05,0.0055616437,-0.0097366385,0.0016551495,0.0015750825,-0.0052475943,7.1128605e-05,0.0060580564,-0.0065998747,0.00028917432,0.00389516,0.001705457,0.002860496,0.008154632,0.0066902316,0.0035060525,0.007975804,-0.007666818,0.0075333845,0.0038895153,-0.0059011113,-0.004192121,0.0063938843,0.005800183,-0.0098604,0.0012479639,-0.0004006064,0.0008136869,0.0070778416,-0.007172923,0.009641128,-0.009457558,0.006219598,0.009496334,-0.0038256205,-0.009392841,0.006184089,-0.0089638615,-0.008295257,-0.0008296287,-0.0066444445,0.00874774,0.007851567,0.00082879665,0.008002034,0.009844699,0.0051898016,0.004318818,0.0053776647,0.006413385,0.004728636,0.0063861907,-0.0074497582,0.008860124,0.008282507,0.009378528,-0.00901782,-0.0034470118,-0.00034225226,0.0041669165
sda,-0.008236495,0.00016658143,0.0059415647,0.009658272,-0.0028508902,0.0017159174,0.0064816414,-0.0017976217,0.0017216045,-0.009305907,0.0006267514,0.0045541585,0.004627744,-0.009787711,-0.0049390723,0.002935596,0.0016488767,-0.0049101165,0.005763007,0.0035013652,-0.007752567,0.010149735,-0.007825417,-0.0031167436,0.009798873,0.0011893429,-0.005812437,0.001109083,-0.004273472,-0.006691167,-0.007757304,0.0048289895,-0.009090207,0.0038077557,-0.005584688,0.0057435655,-0.0045136157,-0.0056662904,0.006223587,-0.008861009,0.0012223269,-0.0022682413,-0.0066224053,-0.007488937,0.0069595682,-0.004338442,0.0045401515,-0.00965368,0.0018415222,-0.0019707282,-0.00570002,-0.0030503662,-0.008537639,-0.0037494483,-0.002703465,-0.0022768758,-0.0051738517,-0.009193743,0.005268372,-0.0013014269,0.006218756,0.0030774032,0.008561575,-0.003581902,-0.008828636,0.0017077369,-0.009060651,0.0063506183,0.008212149,0.0005932037,0.0076514767,0.008519746,0.0043782815,0.0054003545,0.009253248,0.0011332907,-0.008363462,-0.008267261,-0.0016604951,-0.0006775572,0.008598037,-0.0092310645,-0.002804823,0.009278913,-0.0013937593,-0.009076816,0.0022323234,-0.0057823895,-0.005370754,-0.0062651243,0.0004501643,0.0072725597,0.003894557,0.008176205,0.0089738015,0.004579512,-0.0058787866,0.0068961727,-0.009567806,-0.0050031943
bypass,0.008022557,0.0080057,-0.005527833,-0.007970014,0.0082068555,-0.003962202,-0.0038714865,0.0074594817,0.0052423757,0.0038439175,-0.0013369934,0.008679517,0.008623547,0.006977476,0.009325756,-0.005836584,0.0009577549,-0.0018470545,0.006348455,0.009738238,0.0053024287,0.0044490714,0.006381984,0.0058264607,0.0001241501,-0.0083639715,-0.0023994439,0.009031874,-0.0053099403,0.0010242554,0.0048758714,-0.006901235,0.00812559,0.0012349033,0.0023820621,0.00870374,0.0013515332,0.0007547591,-0.009532503,0.009590885,-0.01001526,0.008475289,0.005084708,0.00016015301,-0.00760329,0.009470404,-0.0014491377,0.0053854096,-0.0030080578,-0.0049288147,0.00036268224,-0.008290609,-0.0065190033,-0.009734822,0.005250023,0.0004985576,-0.0009994511,0.005190116,-0.00203952,-0.007482589,0.002959309,-0.0059603006,0.0005487005,0.009429113,-0.00087405735,0.006563953,0.0044062487,-0.00315838,-0.005537384,0.00899985,0.002057071,-0.0004082429,0.0010803058,-0.0048997323,0.0036507782,-0.003129381,0.004142426,-0.0045487294,-0.00071249844,0.0037772222,-0.00739165,-0.0024803919,-0.009050645,0.0017137257,0.0020719108,0.0023725622,0.001388252,0.00015776968,0.0024314413,-0.00089330075,0.006261868,-0.0028547444,-0.0053320085,-0.005274615,-0.009516173,-0.007993056,0.0023322692,0.0038488454,-0.0057345536,-0.0099787405
diseasecoronary,-0.006172504,0.004674368,-0.009143682,0.00518847,0.006532507,0.006062471,-0.0074319467,0.0029673793,-0.005644573,0.009112497,-0.0043294257,-0.0024539016,0.0053476174,-0.000740928,0.0052597784,-0.0043279985,0.0050229575,-0.0100285765,0.0060952767,-0.0012263644,-0.005495186,0.00033478913,-0.0012709174,-0.0008296771,-0.0017385262,-0.009318788,-0.007981191,-0.0067879735,-0.008798966,-0.0045568794,0.009314539,-0.0018052354,-0.0076227826,-0.0061181905,0.0035460356,-0.002408769,-0.00163881,-0.004342783,0.0058589936,-0.008086009,-0.0076472666,0.007450187,-0.0069257715,0.0023434728,0.00050555816,0.009783529,0.0041719773,0.0020540815,0.0028147465,0.0023235504,0.0023646408,-0.0029200565,0.004172555,0.0058930037,0.008773642,-0.0006868886,-0.0012431717,0.0065483544,-0.00859081,-0.0007573063,-0.0066513247,0.00485967,-0.008930853,0.0032223372,0.008976945,-0.0017981032,-0.008996438,-0.007943763,0.003016625,-0.00529396,0.006389388,-0.0011403341,0.008016622,-0.00047854442,-0.006108609,-0.0057941545,0.0007435509,-0.004763948,0.0066257776,-0.0035827907,-0.005865319,0.0009936646,-0.0051659956,-0.008154264,-0.0052874386,-0.0018691064,0.0006126802,0.0036059467,0.007052787,0.00686776,0.006104662,0.0003625748,-0.006070258,0.009024679,-0.0005658197,0.0048265476,-0.0013106152,0.00572128,0.0053778687,-0.007586081
upper,-0.0027550026,0.00011275975,0.0020360118,-0.009288233,0.004821932,0.0033690818,-0.00016172834,-0.0034814738,-0.007602006,0.0075985743,-0.008608163,-0.0073739123,0.004457326,-0.008505419,-0.003293081,-0.0020853125,-0.0018881093,-0.006828463,0.0043024556,0.0010002918,0.0036644924,-0.0013260251,0.006932188,-0.009535454,0.005849185,-0.0051266295,0.0017060686,-0.0069647706,-0.002488826,-0.0064246934,-0.003359355,0.009729083,0.002702232,0.0015875499,-0.006086958,0.005588419,-0.00813381,-0.0022917974,-0.0064729005,-0.0064026075,0.0023022948,-0.003294084,0.002422286,0.003928081,-0.0062543703,-0.0017495146,-0.0027658073,-0.009801727,-0.009842676,0.0011024053,0.004380298,0.0002253103,-0.0048771827,0.0036140964,0.0016763783,-0.009435323,0.0071859704,0.0077683837,-0.007724508,-0.0007695752,0.006042781,-0.0027747336,-0.00032793445,-0.0042233705,0.006099007,0.0070035905,0.0020826194,-0.0046674865,-0.001841576,-0.003989236,-0.009778849,0.0078071854,-0.0006066538,-0.000594592,0.0070997397,-0.00903962,0.0063309995,-0.0075648404,-0.005372899,0.0050784107,-0.0035006555,-0.0034798433,-0.0063047055,-0.003893629,-0.0026565786,-0.004115415,0.00947105,0.009463854,-0.00037418216,-0.00030197334,-0.0056454386,0.007922406,-0.0049418616,0.005897581,0.009131464,0.005758812,-0.00090949825,0.005540288,0.0069417874,-0.0038870217
casda,0.0006593952,0.006507016,0.005852189,-0.00018797403,0.0023627374,-0.006512417,-0.00933744,-0.004930481,-0.0053771087,0.0005832682,-0.0039801495,-0.00037361056,0.0076136664,0.00974442,0.007849268,0.0023881686,-0.0027284122,0.0024048162,-0.002696109,-0.00896718,0.0068831276,-0.008653539,0.003795941,-0.003966831,-0.005550545,-0.0010614471,-0.00655176,0.0085631395,-0.0069169295,-0.008983236,0.005777023,0.0044572684,0.0047447365,0.0024067594,-0.003747469,-0.0051266137,0.0018044559,0.008318404,-0.005662951,-0.002401967,0.0018437707,0.0067159827,-0.0064055817,-0.004518438,-0.0026045812,0.0013223387,0.005366068,0.005558418,-0.008686229,0.007281468,-0.0025109658,-0.0028358344,-0.008858039,-0.005769614,0.009436161,0.0030930708,-0.008050972,0.002778066,-0.007071926,-0.009078811,0.0038994076,0.0020694016,0.001294325,0.008828861,0.006259106,-0.0050582616,0.0027144777,0.002568203,0.0023502484,0.00833457,-0.0069265985,-0.0022750038,0.0010248392,0.0063849483,-0.00063605723,0.00793855,-0.0046571055,-0.009028683,-0.0070538204,-0.0041485038,0.009614311,-0.0051448033,-0.0048741964,0.008191786,-0.0074484167,0.0019738078,0.0057366104,-0.007522541,-0.00027550128,-0.0023733396,0.005559093,-0.004519276,-0.006601273,0.00990439,-0.004589587,0.0076192487,-0.008438875,0.0070164967,-0.0033867317,-0.007844453
mitral,-0.0012367471,-0.002384129,-0.0019124912,-0.0011258348,-0.006511622,-0.0036421304,-0.0030473443,0.007907948,0.0057164063,-0.00090575265,-0.00489076,0.0052900384,-0.008753127,0.0016142782,0.004149495,-0.0019704578,-0.0044758325,-0.008359013,-0.008299825,0.0071482365,0.0036735316,-0.00014639276,0.009628636,-0.008583047,0.0006539081,-0.00043204223,-0.008255182,-0.009135015,0.006997134,-0.0036154825,-0.007862739,0.007960742,-0.006277781,-0.003303785,0.001689962,-0.003124294,-0.008075504,-0.003984215,-0.009092653,0.0012505939,-0.0047370535,-5.6906512e-05,0.002754372,-0.0022522374,0.009011183,0.0071276394,-0.0005520516,-0.00063282694,0.0007886731,0.0067722667,0.009103309,-0.0020942125,-0.0015164303,-0.0031764435,0.0003978061,-0.006450081,-0.0019008622,-0.008606896,0.0006352285,0.0014080616,0.0037488844,-0.0028473684,0.005928604,-0.0071516577,0.009806781,0.0008119989,0.0021867815,0.00458403,0.00027404152,0.0026760013,0.0015514069,-0.009637636,-0.0030137256,-0.0025678906,-0.009161104,0.0033928414,0.0046766046,-0.0020065985,0.0074605416,-0.0012428638,-0.00043609875,0.005867136,-0.008605434,-0.0067921598,0.0073843617,-0.0065483185,0.008639043,0.0053651687,-0.007946895,0.008403495,0.0065140785,-0.006693857,-0.0085708,-0.008801516,0.003940569,0.0064150156,-0.0019526001,0.0012171083,-0.008388456,-0.0053381207
effusion,0.004696686,-0.009064012,-0.0092486795,0.0010413054,-0.008570571,-0.0069632116,0.0048022675,0.008042477,-0.0074183466,0.008121855,0.009344379,0.004667571,-0.0043916698,0.009675721,-0.007680797,-0.003918531,0.0019373886,-0.007666984,-0.009864599,0.0028551882,0.008193052,-0.005051802,-0.004322993,0.0038809527,0.00071631983,-0.008528926,0.0064917007,-0.003195606,0.0035297878,0.003139848,0.008876837,0.008756854,0.007317214,-0.008338766,0.0012023611,-0.0008957741,0.00084309134,0.008935317,0.0047622123,-0.008986766,0.009810054,-0.0009137924,0.00038929813,0.0050096684,-0.0061656097,-0.0003937605,0.0013596396,0.007041282,0.0042951126,-0.0019380411,-0.008424114,-0.0039134542,0.008811332,-0.00951613,0.009840234,-0.00014021502,-0.001124427,0.009608282,0.009582971,0.008278417,0.008991887,-0.00995566,0.0075093233,-0.009403539,-0.0077269296,-0.008770591,0.0021149064,0.0072512208,-0.0063468684,-0.0026982455,-0.00240238,-0.004480228,-0.0012673979,0.004843873,0.0037597762,-0.003248574,-0.0037384424,-0.0023417035,-0.0032332246,0.003951996,0.009697773,0.0078865215,-0.007584882,-0.0064104274,-0.00910672,-0.0059297755,0.0036801358,-0.0059971744,0.0017482833,0.0089086555,0.0033790085,0.0012232519,0.008903286,0.006425549,-0.0013757013,-0.0061742095,-0.0009958956,0.0072620623,0.0074817454,-0.004071109
graft,0.009928261,0.0023977365,0.0050004423,-0.005695972,0.0045314515,0.00017562276,-0.009500813,0.0051792343,-0.009112637,-0.006410737,0.0027633277,0.009307609,-0.0020243956,0.00698742,0.0052819448,0.0039952,-0.006150778,0.0049401796,-0.008303745,-0.004276022,0.0055105356,-0.007865239,0.005586471,-0.0035533407,5.2547184e-05,-0.007422064,-0.0064069913,-0.0033016726,0.008408879,0.0053488705,-0.009623921,-0.0065991096,0.003402497,-0.008695471,0.006650631,0.0063851853,-0.009401277,0.00854513,0.007775945,-0.0019203731,0.0016861927,-0.005755936,0.006207393,0.007815383,0.004137704,-0.008788162,0.004934642,-0.0030034755,-0.0021808664,0.006099925,0.0020103005,0.0044248104,-0.0061717113,0.0050640954,-0.0036465684,-0.00029460705,0.0061905063,0.0041980795,0.0073836003,-0.0039363885,0.0036177568,0.007368191,-0.0033136115,0.0057540126,-0.009350608,0.009160545,0.003658145,0.0055019874,0.0045044674,0.004664302,-0.003325498,-0.0062311026,-0.0021828453,0.0013636625,-0.0028092,-0.0085552735,-0.0063480404,0.008387559,0.009412285,0.0058623794,-0.00435301,0.0007476386,-0.008859477,0.006792224,0.00044441604,0.007400432,-0.005215679,-0.0028340542,0.0030270142,0.0035027815,-0.006292514,-0.0073363804,0.0018735952,-0.008966137,0.0058446224,0.0055230237,-0.003702644,-0.0057618334,-0.008298372,-0.0021594171
hepatitis,0.00699175,-0.00019977552,-0.00794653,0.008903969,-0.008525323,0.005540239,0.0065092575,0.0009898434,-0.008721955,0.0061873477,-0.007849233,-0.005041275,0.009644361,-0.008295069,-0.007580492,-0.0049146325,0.003458321,0.0018923996,-0.0055579026,-0.0032829968,0.008604732,0.009837473,0.009887256,0.0010252009,0.004034599,0.0013758038,0.0016384945,0.004827657,0.0021799298,0.00028563367,-0.0031479215,-0.0065308376,0.007984079,-0.00598967,0.0027613533,-0.00089035963,-0.003668461,-0.004942827,0.0032010335,-0.005884919,-0.007497199,-0.0026635798,0.0046868757,0.0060816435,-0.0014106359,0.0073026633,-0.0076120016,-0.0047432547,-0.007852003,-0.0060546664,0.0073075886,-0.00933213,-0.008632896,-0.009835494,0.009194087,-0.0026492795,0.0010001534,-0.0061181406,-0.00253778,8.0426325e-05,-0.0024913147,-0.0073705865,-0.0061797127,0.0025294733,-0.009490613,0.001184966,-0.0020079026,0.008320891,-0.00041880348,0.006237537,-0.0071091885,-0.007573894,0.005571504,0.0009259613,-0.00507617,-0.0026666145,0.008766726,-0.009199156,-0.0036894118,0.0009737284,-0.00024350881,0.009528692,-0.0019743491,-0.0070697535,-0.0076739714,-0.009896368,-0.007791412,-0.0060200626,-0.005922177,-0.0014045213,-0.000507419,-0.004701924,0.00214402,0.0038743129,0.009063571,-0.0046301167,0.0051649846,0.007235874,-0.0037531133,-0.0074705635
pulm,-0.003400789,-0.006894155,0.0064274287,0.009423489,0.008328648,-0.008594088,0.0051816036,0.005194053,0.005636203,-0.008303461,5.3499944e-06,-0.0068072365,-0.008919,0.0024707203,0.010042237,0.0064752437,-0.0070724543,0.002256914,-0.0039427476,0.009979243,-0.008801066,0.009927248,-0.006518578,-0.00711935,0.0017088801,-0.0006359256,-0.008624813,-0.00072620536,-0.00045870396,-0.006249955,0.0057838424,0.0031121185,0.0084706955,0.0073308693,-0.006687872,0.004927165,0.0055982578,0.0057635074,0.0051698666,-0.004891523,0.0042428565,0.001300628,9.171225e-05,-0.0064147473,0.0015515237,0.0052912664,-0.00933202,0.008594782,0.0030098269,-2.3677278e-05,-0.0033316484,0.0002316319,0.0061463453,0.004724775,-0.0060072057,0.007944798,-0.00057790015,-0.008127665,0.008905927,0.005081113,0.003692471,0.007918833,-0.007544415,-0.0059022717,-0.0020420784,-0.003976159,-0.001720137,-0.0004640365,-0.00850486,0.0019367406,0.002486871,-0.00082765595,0.004951186,0.001420457,0.0060436022,-0.0022990706,0.008519166,-0.0015297834,0.0030206519,-0.0038535637,0.006010961,0.0031729634,0.0004818533,0.008881124,-0.007860002,0.009742665,0.0008407445,-0.0023640946,-0.00412659,-0.009188038,-0.0021167323,0.002722656,0.006551483,0.009130472,-0.008720488,0.009113653,-0.008787141,0.0036651082,0.008,-0.002686452
disease,-0.007894014,-0.008302651,0.0011019929,-0.0007593247,-0.009486192,0.0030819166,0.00231882,0.0045065354,0.0044198064,0.0032515358,-0.009828472,0.00571856,0.0042588017,-0.0077408664,-0.0020641836,0.00036842457,-0.000646812,-0.0009789082,-0.0055544376,2.8873003e-05,0.0044245417,-0.0005961805,0.00080597127,0.002053153,-0.00392824,-0.007858383,0.009128525,-0.009842964,-0.0025447623,-0.0012746608,-0.007614714,0.0017560892,0.007981723,-0.001566323,0.008089564,0.00034980994,-0.0058048186,-0.0019595264,-0.00071869104,0.00618579,0.007089472,0.006191844,-0.0059575345,-0.006990661,0.0061255856,0.0024825225,0.0052782823,0.0004877691,0.007870173,-0.0088725155,0.009938531,-0.008279518,-0.0016814409,0.0062254807,-0.009249523,0.004357142,-0.0069560353,-0.006838696,0.002321337,0.001706328,-0.0027839136,0.007892719,-0.0070322775,0.0004322161,0.008707174,0.0021147823,-0.0068994416,0.0035896795,-0.005088097,0.0005950691,0.002808416,0.007600517,0.007431268,-0.0048712585,0.009558437,-0.0055314405,0.00761323,-0.007976731,-0.007840597,-0.0011184062,-0.008184353,-0.0034131976,-0.0005458717,3.9401453e-05,-0.009952399,-0.0064966595,-0.007365687,-0.00042088216,0.0051922756,-0.00010100028,0.010007628,-0.0038709652,0.008044736,0.006088221,0.008316079,0.00015421267,-0.00037823073,0.0018539625,-0.009949191,0.008971935
motorcycle,-0.0024102097,0.0075707426,0.0020486766,0.0029316295,-0.0012378362,-0.009930674,0.0014876642,0.002937647,-0.009837712,-0.0039094863,-0.0023896433,-0.005110544,0.0040090284,0.002106242,0.004395938,-0.0064904504,-0.0060153953,0.004716659,0.0068029077,0.0055329083,0.0048163617,-0.0071571586,0.00814392,-0.0069781695,-0.0076310122,0.008539925,-0.002509234,-0.009460922,-0.0031441236,0.0059666093,-0.0029111977,0.004946495,0.00015933359,0.0040298775,0.0011144391,-0.0092185065,-0.003684565,0.008836922,0.0015076575,-0.0059654308,0.0069626505,0.0074966066,0.0072506065,7.272644e-05,-0.009088861,-0.0034825576,0.0051243347,-0.006540663,0.009735467,-0.009771889,-0.008106151,-0.005390909,0.006031914,-0.007733897,0.008649955,-0.00985434,0.0034896205,0.0033131342,7.89135e-05,0.009519983,0.0051108547,0.000296114,0.004820259,0.006364077,0.002973395,0.009477218,-0.0014012547,-0.008322813,-0.004555535,-0.0014751609,-0.007310021,-0.0015405009,0.008021114,-0.0050403853,0.005128406,0.004360793,-0.00072529935,0.0010710068,0.005691773,-0.006629071,0.0038844373,0.008936841,-0.0035438852,-0.007620212,-0.009190906,-0.009001559,0.0039342917,0.005124767,0.0070829676,-0.001482916,0.0009791572,0.0030929863,-0.009902513,-0.009394065,0.0046486324,-0.00837145,-0.0030863679,-0.004302656,0.0059161433,-0.0034999882
ganglin,0.0099775335,0.0005648683,-0.0051470743,-0.0036231857,0.001272935,-0.005377857,0.0074340096,0.009046324,0.004274187,-0.007343896,-0.005952293,2.7614844e-05,-0.0010015398,-0.0055401474,0.007961055,0.006215088,-0.0041958713,0.0023792011,0.0051349555,0.0024031762,0.008597132,-0.0012529632,-0.006527398,-0.00081393425,-0.008314842,0.009853829,-0.008637136,-0.0015116411,-0.0028463271,0.0031553602,0.0049506812,-0.008242745,-0.004405778,0.00048079534,0.0039985594,0.00515057,-0.0013784053,-0.0006246955,-0.007832796,0.0045323777,-0.007660398,0.0032770634,-0.0034078404,-0.0077906763,0.0069080573,-0.00044532804,-0.009557289,-0.009378704,0.0005870404,-0.008189043,0.0037659209,0.0034538824,0.0033772548,-0.005632277,0.007984683,-0.009007102,0.007468166,-0.00062678434,-0.0014713582,0.003974651,-0.0025075336,-0.004394991,-0.0024107161,-0.006217464,-0.0003721554,-0.0053663715,0.004595362,-0.00949908,-0.0043819654,-0.009169909,-0.0096311355,-0.00075398874,-0.00806841,-0.005694379,0.0027847479,-0.001445807,0.0030901737,0.008277299,-0.0096478285,0.0060852338,-0.007973773,0.0065538594,0.0074647707,0.008576599,-0.007951224,0.003348227,-0.007828336,-0.001246666,-0.0051949355,-0.00853238,0.0049354816,0.0044333907,-0.004065688,-0.0077781533,0.0035907233,-0.003908638,-0.008838909,-0.0044143824,-0.0021657299,0.008739711
basal,-0.0064533195,0.0073557594,0.0061159786,-0.004912583,-0.00176685,-0.002520653,0.0031351768,-0.00044421616,-0.002778334,-0.009041517,0.0064162747,-0.009628451,-0.008635857,0.0013906338,0.002993607,9.316511e-06,0.0003591498,0.0025763656,0.001799332,0.0075507346,-0.0034330257,-0.007219177,-0.007904929,0.00790327,0.001943071,-0.0058092712,0.0063784737,0.008443135,0.007925322,-0.006847595,-0.0051515754,-0.0020046516,-0.006612523,0.0047269207,0.005648397,-0.005979002,0.007202016,-0.007664817,0.0061897035,-0.004652665,0.001946352,-0.003269073,0.0033824835,0.007737657,-0.0013659918,-0.00497816,-0.008567048,0.0036444727,0.0042490023,0.0067097987,-0.004283342,-0.009748709,0.0068444465,-0.004541435,0.004416202,0.008070361,-0.003958739,0.0016237942,-0.0035952793,-0.006623197,-0.005674113,-0.00012394218,-0.007506307,-0.002008008,-0.0024934907,0.006744876,0.001337265,0.0058804965,0.0037955134,-0.0035011347,-0.005118044,0.009672839,0.0070850584,-0.009055338,0.0052574086,0.008202026,0.009182468,-0.008039059,-0.0020012986,0.0010810967,0.0029124257,-0.0016213909,-0.0047475128,0.0064878054,0.006950324,-0.00039897635,-0.005825454,-0.0043641846,-0.0051227105,0.0042683654,0.00052844244,-0.0023351503,-0.009111681,-0.0014864113,0.0064510712,0.006346765,0.0042471816,-0.0028777046,0.009057188,0.00058478373
seizure,0.0011347234,0.006174861,-0.006593491,0.0065341983,0.009794316,0.0036727618,0.0034324396,0.004196546,-0.0019464791,-0.008096277,0.0014800942,0.0009046066,-0.006797297,0.0019593919,0.005443902,-0.007177912,0.0025119793,0.0077667725,-0.008621219,0.0035135662,-0.008564608,-0.007937057,0.007091025,-0.007565397,-0.0013685488,-0.007928683,-0.0078653935,-0.007103605,0.00040596127,0.001794883,-0.007906519,-0.008049076,-0.003180132,-0.001824404,-0.0061704637,-0.004226774,0.0036070598,0.0030711652,0.0065946756,0.0042466833,-0.00088664773,0.0027672017,0.009049989,0.001908176,0.0018196488,0.0011240005,-0.009286896,0.005351924,0.005043949,2.553463e-05,0.009212247,-0.0057180882,0.0032491565,-0.007811786,-0.0089405645,0.0020009638,0.004744922,0.0061003957,-0.008687585,0.0043530716,0.002398505,0.0041559553,-0.0006745219,0.005543709,0.007291638,-0.008386932,-0.009932266,0.0070149074,-0.00095197203,-0.009374607,-0.0040858854,0.0011912441,0.008426614,-0.0016904592,-0.0010216295,-0.0073646666,-0.007652612,0.0014624643,-0.00047345756,-0.0077002333,0.0008799255,-0.008988475,-0.002477033,0.0042172647,0.0011170149,0.007830691,0.006585375,-0.0011890733,0.0049564564,0.006129242,0.008731773,0.009078525,0.0049281693,0.0046114624,0.007185029,-0.0015663934,-0.005649698,0.008868068,0.0012105549,-0.0050547267
humeral,-0.0008771005,-0.0052272934,0.009122412,0.0033896507,0.0042737317,0.0064994246,0.008180565,-0.0047783093,-0.0063464064,-0.0037271606,-0.0037173512,-0.009450565,-0.0006049875,-0.0081055425,0.009768421,-0.003409696,-0.0063104387,-0.008104971,-0.0035623263,-0.009553481,0.0007906635,0.0054189186,-0.0028860709,0.0076586516,-0.0018753214,-0.0072609633,-0.003128387,-0.00314099,-0.0071003637,-0.00968067,-0.004064424,-0.0015867515,0.00500183,-0.0076166517,-0.0049785357,0.001364363,-0.0016776079,0.003551764,-0.0018659825,0.0043142037,0.007988984,-0.007920081,0.003770881,0.005990128,-0.0005617112,0.006760625,-0.0054166624,-0.004569741,-0.007853584,0.009472128,-0.009407766,-0.003254135,-0.00042836947,-0.0048523853,0.009461799,-0.006826553,-0.008017718,0.009246406,-0.008302107,0.009699037,-0.0040917434,0.005672167,-0.0004153546,-0.004003215,-0.0075026285,-0.006266628,0.006844769,0.0063355495,0.00016753214,0.006398719,0.003850078,0.0038377773,0.0026807028,-0.0097179,0.009261913,-0.008199692,-0.0030151343,0.0014317515,0.0052443175,-0.009210106,0.0016909991,0.0063636233,-0.008757894,0.0095682,-0.0052121137,0.009553471,-0.0065137423,0.0065940367,0.00936477,-0.009226969,0.00028856753,-0.0077301776,0.008130266,0.009578524,-0.0060488633,0.0008437238,-0.0022228332,-0.00777093,0.00081498787,-0.009907775
alcoholic,0.0026058024,-0.0076940735,0.005696488,0.0075656683,-0.0025511694,-0.004035401,-0.009608453,0.004933216,0.002897926,0.008744119,0.0032887177,-0.0029092832,0.0035679026,0.008634494,0.00923918,0.007640274,-0.008561106,-0.0075717876,0.0072637433,-0.007463751,0.0032567726,0.00804049,-0.003210997,0.0067634,-0.008157764,0.0064987224,0.0055784807,0.0033392885,-0.008133416,0.009162788,0.008242453,-0.0015590658,0.0041063316,0.006371497,-0.0017434201,0.0054959655,-0.0040385127,-0.0012610925,-0.0011980301,-0.004173514,-0.0007009094,-0.0077078156,0.00364976,0.009061042,0.0047931415,0.006379488,-0.0047437404,0.004879236,-0.0066862674,-0.0049791457,0.009873916,0.006401615,-0.004984663,-0.0060856845,0.0072257314,0.0027047081,0.00658707,-0.006761189,-0.00097329187,-0.00094310177,-0.0002281941,0.002216726,-0.006742997,0.004376479,-0.0027479515,0.008362584,-0.0010134737,0.0091744615,-0.00086021,0.005223872,-0.0076045846,-0.009089001,-0.00032864706,-0.0022644026,0.009976255,0.0045478223,-0.005569787,0.0073609296,0.00058824866,-0.009549924,0.0057231565,-0.0020118253,-0.009421171,0.008728918,0.0072590304,0.0085508,0.000379512,0.007694206,0.0051873517,-0.0069253496,0.009296808,-0.0035383052,-0.009747221,0.008562783,-0.005292599,0.008399518,-0.007841933,0.009268468,-0.0059199072,0.0040001264
lung,0.009731949,0.0042252927,-0.0021904036,-0.0049254936,-0.00972471,0.004210279,0.00752592,-0.0046724607,0.0058876416,0.0068351547,-0.009043014,0.002067033,-0.0068348846,-0.0043255286,0.00086260936,-0.007054846,-0.004132208,-0.0075706793,-0.0070323637,-0.006973348,0.00994394,0.008406871,-0.00019510313,-0.0025891063,0.0062735486,0.0013585662,-0.009068376,-0.00709526,0.0010137213,0.007954588,0.0032260718,0.009879645,0.0065596737,0.00023887282,0.008680547,0.009110234,0.008081972,0.0094270855,-0.009385437,0.0034378471,-0.007821007,-0.0071905884,-0.008422115,0.0032423649,1.6042144e-05,-0.0063531096,0.005502907,0.007900621,0.004307709,0.007816532,-0.004226273,-0.0064561274,0.0040207664,-0.0029754906,-0.007229446,0.0036566157,-0.0032760142,-0.0052364585,0.0026200367,0.0068741576,0.0064217043,0.00017170947,0.008662315,0.0028932968,0.0065464466,-0.0008720092,0.0021050966,0.006261832,-0.009896324,0.005857758,0.0012872169,0.0060876273,-0.0014172704,-0.002657756,-0.005537772,-0.0028456312,-0.0025980314,-0.005117445,0.0009579515,0.007999497,0.005084085,-0.0076282662,-0.007414188,-0.0028694437,0.0039095283,-0.009330487,0.0062121344,0.0031504147,-0.0028253398,0.009188682,0.008153388,0.0007503499,0.0047999592,-0.009271566,-0.008748085,-0.002943186,0.009321088,0.0032032442,0.0056217522,-0.0068026036
cancershortness,0.0042048846,0.000409348,-0.0009014866,-0.0032221656,0.0049712616,-0.009142065,0.0051906626,0.005716837,-0.002451861,-0.0042231,-0.00743851,-0.0063850945,-0.005092464,0.0031568792,-0.0047751395,-0.0011935567,-0.008943166,-0.0035426791,-0.0007794557,-0.007953356,0.0032858388,0.009814046,0.0043786042,0.0018568237,-0.004821773,-0.0010960469,0.0022039528,0.0017381056,0.00875849,-0.0009192957,0.0070065516,0.005836353,0.0030460802,0.0072968937,-0.0049726786,-0.0038791243,0.0069776084,0.0086161075,0.0031334239,-0.004133226,0.0076211616,0.0027260666,-0.00023860965,0.008886272,0.0043673865,0.0039564525,-8.519274e-06,-0.008945686,-0.0031223411,0.0024490869,-0.005562109,0.0070947716,0.0074618324,-0.00898739,-0.005410063,-0.005976893,-0.0006796355,-0.001819424,-0.0020413895,-0.0022155973,0.0035740985,0.009627248,-0.0045742705,-0.008313333,0.0037458364,-0.0064122793,0.0066763205,0.002726061,-0.00792328,-0.007739169,-0.009288729,0.002390531,0.0027651426,0.0026343537,0.00017278262,0.0010579566,0.0030254708,-0.0015534419,-0.008031382,-0.00060826354,0.003696723,-0.002573244,-0.002129894,-0.0022050356,0.007281969,-0.0030378783,0.009543765,-0.0038845818,-0.009969212,-0.006548417,-0.0043176897,0.0012712477,0.0050759353,0.0021517447,0.009108461,0.0009097125,0.005679787,0.00012824811,-0.0021322928,0.0062281666
urosepsis,0.0020193087,0.008259695,-0.0082975235,-0.008752119,-0.0005409515,-0.001892829,-0.002347741,-0.0005953157,-0.0050706733,-0.00802021,0.008254425,-0.0033411551,-0.002843275,-0.0016452015,-0.0012307597,-0.009189159,-0.0017992663,-0.001348027,0.008648293,-0.007960443,-0.0047497023,-0.0018860555,0.0028854883,-0.006020081,-0.0055474555,-0.0079651475,0.005532079,-0.008717095,-0.003248185,0.00029382945,0.0014490497,-0.009941127,0.008659907,-0.002055372,0.00035226703,-0.008793196,-0.008167935,0.0037706005,0.00401258,0.0029851748,0.005845773,-0.0069301603,-0.001245743,-0.002724408,-0.0014065563,0.0044774804,0.0013715756,-0.007439362,0.0032385266,0.0062564625,-0.0061026667,0.0032297052,-0.004312105,0.00882676,0.0041302075,0.0020369852,-0.0010193908,-0.009108195,0.008654691,-0.0018175113,0.007374895,0.003772235,-0.00825876,-0.00061668514,0.0027457261,-0.0025650286,0.009732382,-0.0049881507,-0.0071646417,0.0037977588,-0.0035697746,-0.0068882382,0.002034911,0.0052708425,-0.0054975892,-0.0043804515,-0.00717654,0.0015494394,-0.0047564926,0.008435508,0.0007221794,0.0018632972,-0.0033373034,0.0073791887,-0.00066037657,-0.008212486,-0.007342117,0.0002062416,0.0077362643,0.0030871534,-0.005322231,-0.0067531443,-0.009854483,0.003922988,-0.009518245,0.0031844045,0.0016626811,-0.00082174776,-0.009953121,0.00588423
mvr,-9.5679294e-05,-0.009928004,-0.007666203,0.008646042,0.002040042,-0.008297378,-0.0006551216,0.0056096027,-0.009507297,-0.0068442845,-0.0010928715,-0.009853282,0.0006197408,0.0019875662,0.008738693,0.0009091248,0.001315742,0.004705823,-0.00429073,0.007198101,0.00026790897,-0.00037126834,-0.009777289,0.0004544261,0.0069320966,0.0017178647,-0.0082916515,-0.0033779016,-0.0062772622,0.0059886603,-0.006383901,0.0053011756,-0.0052501494,-0.0070196544,-0.0076495023,0.004161939,-0.008922781,-0.005801592,-0.007146542,-0.004558238,-0.004170452,0.0013754701,0.006508358,-0.0010480416,-0.005277016,0.001682262,0.0055981698,-0.005240341,-0.0053508445,0.0051760697,0.0064690365,-0.007974199,0.008335728,-0.010062104,-0.007509594,-0.0058147134,0.001738654,9.7063195e-05,0.003402485,0.0069536143,0.0048664636,-0.0031700504,-0.0064134137,-0.008283406,-0.00047306187,0.010046942,-0.007838334,0.0039364523,0.004192144,-0.0042317086,-0.007020812,-0.0054109152,-0.004883992,-0.0069816955,0.0060363403,-0.007852993,-0.0029660235,0.0043906416,0.0002608649,-0.0077688843,-0.004918766,0.003636307,0.0023224498,-0.0018030293,-0.0007188327,0.0025836704,0.00166688,-0.0026659737,0.0055088666,-0.0076168748,0.006638135,-0.009974309,-0.002387903,0.006770925,-0.0034884475,0.0066881613,0.0056416164,-0.007533596,-0.000250775,-0.004736273
sepsispneumoniatelemetry,-0.008060759,-0.00089183927,0.0063890363,0.00873659,-0.005042392,-0.0026579679,-0.0060377787,0.0011617958,0.0026642715,-0.009837792,0.002411685,-0.008813521,0.0003986788,0.0047600614,-0.0052560843,0.00025791884,-0.0021824145,-0.008687263,-0.002409929,0.004456809,-0.008575824,-0.005937272,-0.00054614665,0.008037414,0.001406138,0.009760814,-0.0076703965,0.008991897,-0.0047288905,-0.0063556097,-0.007836437,0.0018455946,-0.0027555441,0.0075524626,-0.0005141616,0.0025094736,0.005960394,-0.0086482195,-0.0020586872,-0.00478127,-0.008669741,0.0034173024,0.0024138128,-0.002402191,-0.0019146538,-0.006730969,-0.0032605957,0.0013105846,0.007738345,0.0070671346,-0.0035937524,0.0036083437,-0.002579385,-0.004719883,-0.0036249019,-0.006146641,0.0035013603,-0.0077899755,-0.007508168,-0.0045036604,0.007398263,0.0018272507,0.0054589654,0.008216331,-0.006234714,-0.004626666,0.0076803686,0.004940561,0.004661748,0.008992459,0.00881204,-0.0026761247,0.001039406,0.0054817703,0.008891535,0.009847198,-0.008265051,-0.005125456,0.0049909055,0.00095594884,0.00016318679,0.007504299,0.00640329,-0.007237103,-0.0025938833,-0.008483734,0.007044022,0.0027665328,-0.0022286116,0.0018797826,0.007663952,0.008131565,0.006174213,0.0031653107,0.0015491641,0.008139429,0.0013163317,0.00044244886,-0.00955314,0.0025240958
b,-0.008472026,0.0064796926,-0.005792535,-0.0017492115,0.0009790377,-0.0018877942,-0.009133036,0.0039896783,-0.006577281,-0.008785228,0.0039130626,-0.0007621932,0.0065301405,-0.007009582,0.0008005158,-0.00068662706,0.0057312134,-0.009742015,0.0059255552,-0.00898287,-0.0077874386,0.0007391521,-0.0026746881,-0.0038947945,-0.005318696,0.0040992764,-0.009332461,0.0011788858,0.0041935937,-0.00029829796,-0.00048366556,0.007156001,-0.0095731085,-0.009020161,0.004434153,0.00872451,-0.00780636,-0.008303423,-0.00064470014,-0.009043763,0.00212132,0.009231413,-0.0061120894,-0.0067711077,0.008913464,-0.000750636,-0.0037596943,-0.0026929,-0.008742911,-0.004626749,-0.004140474,0.0002511608,0.00069101236,0.007612386,0.0068229525,-0.0015076911,-0.009983841,0.0025897052,-0.006117539,0.00910905,0.0038023656,-0.0009957487,0.0066139195,-0.0035036716,-0.0036781204,-0.00031217278,0.0084161265,0.0059477715,0.0015575135,0.003773232,-0.0029795514,0.009260845,-0.0071269493,-0.003240926,-0.005290011,0.008719643,-0.0031282683,-0.002389599,0.0071575795,-0.009712317,-0.0029052906,0.0028769982,-0.0062865177,0.008771931,0.0011681978,-0.0052293204,0.004922319,0.007983566,0.0009475295,0.0068240976,-0.0068212356,-0.003609592,0.009927451,0.0056833923,0.0015983133,-0.003495552,0.00441674,0.002525447,0.008364093,-1.5151157e-05
regurgitationcoronary,0.008571863,-0.005829079,-0.0076090815,-0.0013600112,0.0030302394,-0.002017151,0.006024161,-0.008322304,-0.009110415,0.0075985226,0.006258898,-0.004129535,-0.0039282353,-0.0035558215,9.182663e-05,0.009034039,0.0009777466,-0.0021876479,-0.0034187324,-0.0021028477,-0.009128986,0.007122304,-0.009094619,-0.0031590837,-0.007073499,0.009092383,0.005622824,-0.00047504672,0.003807496,-0.0024217705,0.009843195,-0.003580885,0.0048200106,-0.003925287,0.0095061,0.00974631,0.0061440626,-0.0003002952,-0.0017142345,-0.00886243,0.009269331,-0.008494047,-0.006531927,0.0056845276,-0.0021546686,0.0080482345,-0.007939038,0.009177013,0.0022564866,-0.008582473,0.0040640286,-0.0051349876,0.006441221,0.0063637826,-0.008827255,0.006541927,0.0052209217,0.0064962744,-0.007139522,-0.0065927673,-0.008838195,0.0053008953,-0.00398866,0.0047655883,0.0047942703,0.008297299,0.0021631017,-0.00087584683,0.0013031403,0.0030609537,-0.008764818,-0.005943335,-0.0008435801,0.004930448,-4.5697307e-05,-0.009686335,-0.000659509,0.0071676704,0.0063846842,0.0034177098,-0.0047422517,-0.0037198479,-0.0022682096,-0.0058531794,-0.008598219,-0.0005612438,0.0020102593,0.0047990866,0.003707412,0.008597945,-0.006564516,0.009354316,-0.003473,0.000827475,-0.0042014387,-0.0040048775,-0.0014163192,-0.0075576967,0.008967698,0.00441808
replacement,-0.0022635716,0.0019402895,0.0077515063,-0.005558562,0.0038960106,0.0005851557,0.0030410718,-0.0019396185,-0.010052185,0.0059460797,-0.0015071769,-0.008396984,0.0007932031,-0.00620437,0.007877921,-0.0064418744,-0.0016697159,-0.0005584262,-0.0043272837,-0.0033974624,0.007396509,0.0021177835,-0.009506699,-0.0003740266,-0.009507348,-0.0032094694,0.004761054,0.003688351,-0.0059809615,0.0014307802,0.0058860886,-0.00748861,-0.0034236996,-0.002631707,-0.009000779,0.0023508575,0.0064174584,0.0023470917,0.002276211,-0.0009816616,-0.00092950027,-0.006322994,-0.00043533847,0.0067088455,0.0031643366,0.0006784924,0.007789506,0.0028222285,-0.007477029,0.0073535577,0.0097619565,-0.009323444,0.0073369853,-0.007821002,-0.00044138843,0.004677485,-0.005788496,-0.007915773,-0.007360686,-0.009970759,-0.0066461004,0.009586091,0.002930552,-0.009178059,0.008584493,0.007534673,0.007780646,0.009885651,-0.0088379495,-0.00211934,0.0020839842,0.0024333964,0.0050141816,-0.0077397535,0.0049412134,0.009908418,-0.009050451,0.007932374,0.0033049593,-0.0042967657,-0.001729348,-0.008506207,-0.007762234,0.005667595,-0.0031335137,0.010039747,-0.007841498,-0.0070893145,0.0063005704,0.007920659,0.0039361916,0.00729385,0.006326568,-0.005777954,0.008819842,-0.0062625436,-0.0027567504,-0.006102811,0.006089941,-0.0046486547
valve,0.0031078255,-0.0015772249,-0.0012413854,-0.005824708,-0.005704731,-0.0036882102,0.0005154538,0.0016630092,-0.0034712602,0.0019432371,-0.005752765,0.009954578,-0.0006870471,-0.006998611,-0.0016334559,0.007887455,-0.0010971588,-0.0053235292,-0.008051405,-0.005859294,-0.0031824233,0.008032829,-0.007376261,0.0013138438,-6.0448376e-05,0.003961568,-0.008180714,0.007944525,-0.0029762427,0.00529716,-0.009492733,0.005085335,-0.008324735,-0.003421275,-0.0012824463,-0.0033525873,-0.0008922192,-7.197542e-05,0.004446252,-0.002444291,-0.004115326,-0.006246033,0.008378772,0.0047447626,0.00928237,0.0055890386,-0.00466359,0.008347573,-0.0070471317,0.0030721682,-0.0031904313,4.9916147e-05,0.0038709743,-0.0030926967,-0.004542682,-0.0018446515,0.00045638683,0.0065104067,-0.005924689,0.004595405,-0.0037051702,-0.007967207,-0.005637902,0.0017845738,0.008840668,0.008220811,0.009070783,0.00715894,-0.003162363,-0.002341112,0.008802167,0.006524076,0.006184713,0.006869904,0.0017598828,0.0023427797,-0.008292144,0.0075957016,0.009553903,-0.0071416334,0.00094208226,0.008818727,0.003380897,0.0071227103,0.0076888264,-0.0019021719,0.0090904115,0.006012286,-0.0017414693,8.292788e-05,0.009970545,0.005866651,-0.0068577393,-0.003481469,-0.0033929828,0.00324325,0.0012192976,-0.008739344,0.0021913606,0.009372799
hydration,0.0023390457,0.0043331594,0.0019409622,0.008139119,0.008981682,0.003120206,-0.002380519,0.0037451875,-0.007756816,0.008056545,-0.004068865,0.0098913135,-0.009489397,-0.0025242053,0.008971397,-0.0041212244,-0.0019945153,0.0050029336,0.009354255,-0.0003784572,-0.0067304755,0.010110678,-0.009600957,0.0012224854,0.0056156605,-0.007858447,-0.0056946115,-0.00918914,-0.00015721619,0.005011441,-0.008243382,-0.0031136412,0.008421513,-0.0045379917,0.0031439855,0.003681487,-0.0036044782,-0.005192158,0.008337665,-0.0026522798,0.008874913,-0.0024540299,0.0030714546,0.005673858,0.00060385314,0.004409713,-0.006003449,0.008439504,-0.0016536772,-0.0044249687,0.0052095414,0.009861411,-0.005600455,0.0008060787,0.004323571,-0.0027341417,0.00063716865,0.008855188,0.007702532,-0.0064916248,-0.003223847,0.009231583,-0.00030757167,-0.009621291,-0.00076038216,-0.0067085717,0.0008744257,0.000935513,-0.0044981493,-0.0045470167,0.008767103,0.0046182103,0.00265897,0.0018221426,0.00827718,-0.005011024,0.0060853017,-0.00096223626,-0.0076879286,-0.009704661,-0.0017599016,0.008199944,0.0021316782,-0.008961949,0.0012267538,-0.003585632,-0.004006695,0.008135655,0.0059083425,0.00038050275,0.0025538066,0.00092581555,-0.009983104,0.003005672,0.0072583756,0.004072666,0.0025668324,-0.003564806,0.0023663784,-0.007746357
melanomabrain,0.0042329966,0.0024209546,-0.00041017006,-0.00059499196,0.0026412949,0.002197709,0.0014975449,0.009154443,0.0035361415,0.0013974083,-0.0029608114,-0.0060579684,-0.009329308,-0.0032798643,0.0043660034,0.007569233,0.00063370797,-0.004821249,0.0036115828,-0.0038961717,-0.00075524295,0.008906243,0.008162294,-0.00041941367,-0.005899459,0.0036944519,0.009809098,0.008667006,-0.0019164922,0.0071792067,0.009275784,-0.00956027,0.008878636,5.0240037e-06,-0.0052149813,0.003710902,0.008978373,-0.0072596683,0.0068806247,-0.0064779967,-0.007835759,0.0055110073,-0.0045800107,0.0047788857,0.007378936,0.009677455,0.005713787,-0.008871602,0.0032459993,-0.008994457,-0.00035454557,0.009766428,-0.0051125498,0.0040887524,-0.0057481756,-0.00804317,0.008015367,0.0032542252,0.0073689665,0.002927181,0.0011627827,0.0037206283,-0.008427096,0.006583742,-0.0044679595,0.004632407,-0.0054790694,0.0010523003,0.0039987313,-0.0024710326,-0.007529388,-0.0060245167,-0.009928243,0.009691458,-0.0043910895,-0.0010736635,-0.009031196,-0.004582335,-0.0048910957,0.0029985746,0.0056627435,0.0035165388,0.009827371,0.0019076463,0.009882882,0.007536417,0.002797463,0.0021538131,-0.007509226,-0.0023645775,0.0056814365,-0.008143072,0.0022375488,-0.007597031,0.009655465,-0.00011328672,0.00093109376,-0.004804554,0.00610392,-0.007159636
critical,-0.0074823927,0.0066556553,-0.003498824,-0.0009085552,0.005404989,0.004555044,0.006337809,0.0071695475,0.0055590165,-0.00891823,0.005086651,0.009091467,-0.003957083,0.0011081095,-0.0032586718,-0.0034360443,0.008696158,-0.00041132793,0.0034526351,-0.0055954764,0.005844682,-0.0031587034,-0.0049965736,0.0022382946,0.009840171,-0.0061235703,0.0034909272,-0.0009944113,-0.007301264,-0.0043118373,-0.008173283,0.005644579,-0.0027368576,-0.00527439,0.0009552319,0.0047621033,0.009539953,-0.009812065,-0.00030900945,-0.0013482405,-0.0027821031,-0.0006210413,0.008166752,-0.0018121256,0.009424779,0.00037399345,-0.0011003203,0.006910418,0.0069739814,0.0004038877,-0.00019259402,0.0062758634,-0.003799099,0.004466107,-0.00020403869,-0.0060665854,0.006465398,-0.004054327,0.0021768333,-0.006931994,0.002726754,0.005639716,0.005147512,-0.0081367185,-0.0059655444,0.0073254565,0.0030844267,0.0012171094,-0.006343788,-0.0013203914,-0.0092323795,0.0013129229,-0.0045001823,0.00083258824,0.00453674,0.0023738493,-0.0071773063,0.0008722469,-0.006746417,-0.0038682867,0.0018447245,0.008013512,-0.006627718,0.0024101646,0.008135131,0.009921508,0.0063536316,-0.007414169,0.0038852782,0.008847122,0.0043171537,0.0026108986,-0.0016578075,0.003561657,0.0042242683,0.008894419,-0.0036987592,-0.008832363,0.0065562595,-0.0063512106
brain,-0.0006096989,0.0014094978,-0.0011871158,-0.0039982256,0.00086442416,-0.00969075,0.0014137289,-0.004166292,-0.0058134566,0.0038195497,0.001446059,0.0036330516,0.00091136043,-0.0095161395,0.009993051,-0.0035535484,-0.0021955252,0.0071186507,8.645801e-05,0.0030522088,0.0022690292,0.002423694,0.0067649856,0.009464213,-0.0005405949,-0.0034236098,0.0045324983,-0.008349024,0.008445339,0.0024100137,0.0060098153,0.0028011028,-0.0013176815,0.00093791576,-0.004823276,0.00911871,0.0050071566,0.0035990488,-0.0050071264,-0.008699173,0.007920473,0.0029420585,-0.0042490717,-0.008650952,-0.003950626,0.0014286271,-0.00920405,2.6304482e-05,0.0028015224,-0.009949386,-0.00013827175,-0.0060936324,-0.003595313,-0.0016481073,-0.009979331,-0.003613809,-0.007021952,-0.0073455083,0.0015884894,0.0023429124,0.0092877755,0.0088614635,-0.006415445,-0.009233099,0.007888594,0.0054410878,0.006905147,-0.002908515,-0.005256818,-0.0045621456,-0.0083447695,0.0058759917,-0.0034299977,0.008631664,-0.005674993,0.009616797,-0.004494915,0.0086495085,-0.0054134857,-0.007529768,0.007637375,-0.009771633,-0.008792593,0.0049637705,-0.0097581195,0.0052732816,0.0036798518,-0.007025187,0.0031600979,0.0014571514,0.008661354,0.0028762189,-0.0051429584,-0.0023333852,0.006861295,-0.0066002537,0.00931336,-0.0031978998,-0.0046579707,-0.004400509
variceal,0.0030817583,-0.009837279,0.0032284753,-0.004452899,0.009675526,-0.00501409,-0.008001245,0.0035297559,0.008940788,0.0027572925,-0.0022678722,0.0035056404,-0.008883835,-0.004136565,-0.0043882933,0.0018476801,-0.0063040415,-0.0076024393,-0.006516806,0.00529098,0.002765204,0.008807728,0.00231976,0.0052903695,0.004326727,0.00459666,-0.0049742954,0.0014420846,0.0002864572,0.005239733,-0.006623065,-0.0007214274,0.004014986,-0.0048418487,-0.008531298,0.005591918,-0.0008716802,0.00032456173,-0.006077286,0.0084991045,0.000896961,0.0017311448,-0.000400964,0.00071007706,0.005809424,-0.009204562,0.0023696204,-0.0056066527,0.009451442,0.004373331,-0.0055022696,-0.0012329078,-0.0055559687,0.0084953485,0.009097504,0.0022883993,0.009631071,-0.004722845,0.0028061927,-0.0051040417,-0.0087649105,-0.0041830717,-0.0013648386,-0.005675147,-0.0045599546,0.00062355725,-0.00013438442,-0.008302106,0.006918832,0.001570295,-0.009503347,-0.0014149555,-0.0075776144,0.0075801397,-0.0010476866,0.007828796,0.005043198,-0.004075199,-0.00907785,-0.0061966376,0.008877315,-0.0015616294,-0.00031986396,0.00012701777,-0.008238726,0.00420289,-0.008212692,0.009401957,-0.008110883,0.007924903,-0.0019714572,-0.0020725285,-0.0023038678,0.0009881756,0.0024793576,0.0016431364,-0.0005748995,0.007597751,-0.00642583,-0.007912462
