,0,1,2,3,4,5,6,7,8,9,10,11,12,13,14,15,16,17,18,19,20,21,22,23,24,25,26,27,28,29,30,31,32,33,34,35,36,37,38,39,40,41,42,43,44,45,46,47,48,49,50,51,52,53,54,55,56,57,58,59,60,61,62,63,64,65,66,67,68,69,70,71,72,73,74,75,76,77,78,79,80,81,82,83,84,85,86,87,88,89,90,91,92,93,94,95,96,97,98,99,100,101,102,103,104,105,106,107,108,109,110,111,112,113,114,115,116,117,118,119,120,121,122,123,124,125,126,127,128,129,130,131,132,133,134,135,136,137,138,139,140,141,142,143,144,145,146,147,148,149,150,151,152,153,154,155,156,157,158,159,160,161,162,163,164,165,166,167,168,169,170,171,172,173,174,175,176,177,178,179,180,181,182,183,184,185,186,187,188,189,190,191,192,193,194,195,196,197,198,199,200,201,202,203,204,205,206,207,208,209,210,211,212,213,214,215,216,217,218,219,220,221,222,223,224,225,226,227,228,229,230,231,232,233,234,235,236,237,238,239,240,241,242,243,244,245,246,247,248,249,250,251,252,253,254,255,256,257,258,259,260,261,262,263,264,265,266,267,268,269,270,271,272,273,274,275,276,277,278,279,280,281,282,283,284,285,286,287,288,289,290,291,292,293,294,295,296,297,298,299
sepsi,-0.00017766438,8.0556965e-05,0.0017010927,0.0030063181,-0.0030996175,-0.002374973,0.0021567617,0.0030016415,-0.0016752797,-0.0012556145,0.0024553423,-0.0005086845,-0.0015117308,0.0021872546,-0.0016185495,-0.0006037698,0.000960212,0.00032714178,-0.0027593817,-0.0031545844,0.002437136,0.0016885567,0.0022528577,0.00024864875,0.002117851,-0.0011348814,-0.0003226895,0.001924872,-0.0025102468,-0.0013134044,-0.0025032992,-0.00030471702,0.003179177,-0.0024390388,-0.00078389706,-0.0006416772,0.002695402,-0.001978312,1.6750111e-05,-0.001582153,-0.0032035483,0.0016693061,-0.0029198395,-0.0014626739,-7.476926e-06,-9.592364e-05,-0.0025534881,0.0032130475,0.0016610991,0.003079256,-0.0027166074,0.0014993169,-0.0013791092,0.00027239864,0.0028301321,-0.0014777166,0.0015081477,-0.002262367,-0.0011787853,0.0031335964,-0.000527956,0.00010869133,-0.0013838985,-0.0025611713,-0.0005064909,0.0008283695,-0.00029848225,0.0018455669,-0.00091740704,0.0007500931,0.0018160051,0.002784859,-0.0004873751,-0.003074622,0.0014548482,0.00019618282,0.0024808652,-0.00026417695,-0.0008804191,-0.002911461,-0.000287202,0.00094236183,0.0018033419,0.0023598047,-0.001899562,0.00062476494,0.002027764,-0.0015992905,-0.0010289749,0.0022683933,0.000546683,6.57516e-05,0.0011608376,7.422888e-05,0.0032131006,0.0016954774,-0.0029713507,-0.0023466803,0.00029969253,0.0021368035,-0.0028725534,0.0012228079,0.001731688,0.001915481,0.002485982,-0.0020615202,0.00037442858,0.0020191045,-0.0009531628,-0.002055196,-0.00013653256,-0.0027858894,-0.0018657708,0.0023668727,0.0011208837,0.0024115865,0.0022701758,0.0025109157,-0.001261842,-0.00019271005,0.000784499,-0.0015040421,0.002794397,-0.0032850916,0.0022513072,0.0009763547,-0.0016410811,0.0014583934,-0.00058178423,0.0022413149,0.0033251247,-0.0014476387,-0.00019624816,-0.0019008794,0.0012823069,0.0009383278,0.0022972205,0.002036721,0.003178916,0.0030857814,0.0026352196,-0.0023372122,-0.003054293,-0.00011810097,-0.001031757,0.0026316997,0.0019768286,-0.0005130262,0.00050293293,0.0005962607,0.002603038,-0.0031813486,-7.25267e-05,0.0011611755,-0.00031806188,0.0027963896,0.0029966217,0.002177966,-0.00024003357,0.0025762112,-0.0028419087,0.0010715773,-0.0015513435,-0.0016942703,0.0011919667,0.0017904688,0.002589048,-0.0019254289,0.0024743993,0.0022124597,-0.0012362954,-0.0029149652,0.0018148177,0.0021692095,-0.0002625259,-0.0022402313,-0.0023554552,-0.00083768956,0.0017124383,-0.0012216473,-0.0031219737,0.0012761956,0.001624387,-0.0021471337,0.00039738804,-0.00068803,1.5877076e-05,-0.0032919797,0.0008924266,-0.0015853635,0.00036541524,-0.0005241056,0.00072412455,-0.0026256328,-0.00090260734,0.00088365836,0.0017838147,-0.0008031428,-0.0031711096,0.0015052048,3.2482745e-05,0.00102599,-0.0022682757,-0.00045682615,0.002554947,0.0024488317,-0.0012277727,0.0008762115,-0.0027725373,0.0020705578,-0.0015429062,-0.001060992,0.0031025743,0.00028954103,0.0024934427,-0.002028102,0.0017175813,0.0032989425,-0.0028257966,-0.0017137505,-0.0023515455,-0.001620395,-0.0012632973,-0.0028489232,0.0026457952,-0.0016212754,0.0028099888,0.0017512825,-0.0021841475,0.0013201919,0.0018245387,-0.0024789695,-0.002469314,-0.0008202231,-0.002878597,-0.000522444,-0.00013355458,0.001100601,0.0004780784,-0.00029942303,-0.0018579352,0.0005730627,-0.00030092077,0.0022725598,0.0013254834,0.001507304,0.00047796793,-0.00089537265,-0.0014557589,-0.0003475417,0.00047976623,-0.0008808205,-0.002357955,-0.0026003297,-0.0030523182,-0.0019809725,-0.00061402796,-0.0014400311,-0.0021600171,-0.001241957,0.0014271857,-0.0012401248,0.0027961887,0.00050245813,-0.002420094,0.0031441294,0.002544592,0.0018315748,-0.0022896694,0.0019362913,0.0013333221,0.0017245914,0.0014172741,0.00064615597,-0.001050441,0.0027891141,0.0032054852,0.0012646726,-0.0009544309,2.27595e-06,0.00040302775,-0.002815017,-0.0027432523,-7.696409e-05,0.0004095294,-0.0019083738,-0.0015792559,-0.0024489164,0.0027754435,3.8647082e-05,-0.0015008356,0.0019012069,0.0030609402,-0.001367678,0.0026566908,0.0017914833,0.0019587707,0.00016580225,0.0027430172,-0.002341154
failur,-0.002752473,0.0031074423,-6.439339e-05,-0.0006558641,0.0015334387,-0.0013686664,0.0009235173,0.0023415133,0.002020475,-0.0025016358,0.0031305177,0.0015545926,0.0013271943,-0.0020762302,0.0028217407,-0.00072945777,0.0029459659,-0.0017989872,-0.0027069557,0.0022660396,0.00055604876,-0.0007416761,0.0031739087,0.0031666362,-0.0032519654,0.00083149015,0.0020418451,0.0012915081,0.0006794704,0.00014746771,0.00022913357,-0.0012669598,-0.0023802489,-0.0007023899,0.0013081077,0.0029438667,0.0030873807,-0.0019913272,-0.003134921,0.0032657376,0.0011334067,0.0017137926,0.0021003792,-0.00093560317,0.0024445592,0.00094835873,0.00096811453,-0.0007851708,-0.0010456619,-0.0007889772,0.0014240715,3.6093435e-05,-0.0031972171,-0.0032193772,-0.0020505136,-2.8477049e-05,0.00066403544,0.0031420016,0.001859726,-0.001433605,9.228997e-05,0.0016514797,0.002567247,-0.00037416088,0.0014324714,-0.0019284408,-0.00025717934,0.0027084253,-0.00079380325,-0.003235227,0.0019334505,-0.0013073686,-0.0004046386,0.003323589,-0.0007625158,-0.0015832661,-0.0017864138,0.002333034,-0.0018931228,0.00071799697,-0.0017565859,0.002034483,0.0014493343,0.0008919946,-0.000494482,-0.00091205304,0.002994028,0.0017506593,-0.00071719434,-0.0031696334,-0.002467431,-0.00034881104,-0.00025643266,-0.000838084,0.0032400275,-0.00014733571,0.0019644208,-0.0024779784,-0.00084124383,-0.0018510823,-0.0023782556,0.00041404596,-0.002385448,-0.00074980775,0.001234051,0.0019433857,0.00040336367,0.000698807,-0.001366634,0.0024169667,-0.002095722,0.0015545547,-0.0027368097,0.0006833423,-0.0016540413,-0.0014086283,-0.0010245244,0.0018715443,0.001940744,-0.0016667857,0.00025949886,-0.0028181484,0.0026052268,0.0030811932,-0.0009167262,0.00027879392,0.000252334,0.0018170967,-0.0028607326,0.00020347003,0.0022836286,0.00075456087,0.00036986358,-0.00310733,0.0028241947,-0.0020757355,-0.000996976,0.0011661629,-0.0002596271,0.00045407924,0.00059896125,-0.0022921287,-0.003245359,0.0030256135,0.0020626958,-0.0023128258,0.0011253265,6.559389e-05,0.0015850138,-0.0023855658,0.001345583,0.0014415288,0.0033159922,-0.0014855511,-0.0004742689,-0.0024308579,-0.0032303939,-0.0030200328,-0.00034638532,-0.0021598726,0.0016245897,-0.0020563833,0.00082930876,0.00025930945,-0.0011305062,-0.00032673497,0.0033325267,0.003052893,-0.0014944366,0.003033585,-0.0018973773,0.0019714562,-0.0010308897,0.0011498532,0.0010148254,0.0022966606,-0.00079425256,0.0029175414,0.0025336053,-0.0031785832,-0.0026650995,-0.0025396566,0.0009713254,-0.00093826605,-0.002320032,-0.0027169855,0.0027820098,0.0006728067,-0.0031106204,-0.0016039751,0.0010475816,-0.0015642834,0.0017537574,-0.0014123975,0.0008831041,-0.0026922764,0.002071429,0.0016043695,0.00026463158,0.0010113635,-0.0029112785,0.00070981076,-0.00029718975,-0.003109096,-0.0031466817,-0.0004695264,0.001475014,0.0012316278,-0.0021720482,-0.0022979497,-0.0016626568,-0.0007727767,-0.0024222748,-0.0032109136,-0.00092133,-0.0027915277,-0.0020285659,-0.0018994961,-0.0007948208,-0.0005695072,-0.002988113,-0.00024451915,0.0027027475,0.0025497978,-0.0024196922,-0.0012234444,0.0010444536,-0.0031932564,0.00048964465,0.0021707278,0.0019120811,-0.0029236674,-0.0015009764,-0.0027064953,4.6319515e-06,0.0030891753,0.001999216,0.0016994777,0.0016914477,-0.0010976074,0.003201366,-0.0024495148,-0.002435945,-0.0007528386,-0.00024919317,-0.0010905681,-0.00019048306,0.002497503,-0.00023966377,-0.0005354235,0.0009231015,-0.0027892468,0.0026249771,0.002837765,-0.0032130606,0.00080749585,0.0033094133,-0.0025609555,-0.0023406951,-0.0025833007,0.0028000765,-0.0002103184,0.003066204,-0.00274347,0.001245283,0.00087628036,0.00024792258,0.0007856591,-0.0025053734,-0.0031185327,0.00078804063,0.0020420265,0.002662107,0.0019050024,-0.00025101076,0.00277326,-0.003109007,0.0011394722,7.492182e-05,0.0012748195,0.002462771,-0.0022513708,0.0018503362,-0.003173579,-0.0002752186,-0.0028912134,-0.0017119363,0.0031044108,-0.00062930444,0.0009684784,0.0030232468,0.0029844819,-0.002735454,-0.001002309,0.0033016044,0.0017089761,-0.0005277453,-0.00290004,0.0009974549,-0.0022159654
pneumonia,0.0027107573,-0.0014857781,-0.00035611907,0.00033545494,-6.370465e-05,0.0003827258,0.0020379536,-6.75718e-06,-0.0010819884,-0.0005035762,0.0019657663,0.00050470076,-0.00024142067,0.0031110824,-0.0016404279,-0.00027946988,0.0030584706,0.0022498092,0.000500952,-0.0029608535,0.00038291534,-0.0007627519,0.0031227458,0.00040330927,0.0004966879,0.00080213667,-0.0006120022,-0.0016665447,7.74765e-05,-0.00067139347,0.002200311,0.002980041,-0.00022491813,0.0009923383,-0.002035885,0.0005664416,-0.0023087442,-0.0028980088,-0.0019667344,-0.0029854917,0.002425865,-0.0019240105,0.002758784,-0.002414515,0.0011405583,0.0032249994,-0.0025951492,-0.0033150192,-0.0014430487,-0.00089437683,-9.0429785e-05,-0.0029438504,-0.0028725192,0.00093340356,-0.002735469,-0.0030231122,-0.00078015524,-0.0028772692,-0.0023522167,-0.0028003836,-0.000100442965,-0.0015214328,0.0022090583,0.00050905347,-0.0011138252,0.002036324,-0.0020044283,-0.0015520565,-0.002402503,-0.0014455267,-0.00060311,0.0021632144,-0.0009234643,0.0016396558,0.0023014809,-0.0024879018,0.0015216168,0.0020423261,-0.0009848248,0.0022083407,0.0020419597,-0.0021478282,-0.0022548505,0.0008463196,-0.000541273,-0.0020217092,0.003166403,-0.0017100489,-0.002184699,-3.9961735e-05,-0.000900476,0.00014813343,-0.0011791528,-0.00013977686,-0.00023620526,0.00027427357,0.0027316057,-0.0019122359,-0.000553176,0.0018572025,0.0027227069,-0.0014810109,0.0029951446,0.0027512216,-0.0014784074,0.00010103504,0.0014248304,-0.0013087734,-0.0018533218,-0.0021707742,-0.00022357941,-9.864052e-05,0.001487695,-0.0008246847,-5.7536363e-05,0.0008206252,0.001622533,-1.0269483e-05,-0.0021131365,-0.0030869357,8.885861e-06,0.0022206313,0.00048867427,-0.0029888407,-0.0026462015,0.0021839675,-0.0012618935,0.0020849975,-0.0022270107,0.002826554,-0.002172108,0.0010960066,-0.0003523286,-0.0022625092,-0.0010958656,-0.00038713732,-0.0018236466,-0.00040378253,-0.0025211044,0.0008822199,0.0030233827,-0.00079241674,-0.00032550335,0.0011711871,0.0028883624,-0.0019739508,-0.0022958592,-0.0009776616,0.003049232,0.0002887559,-0.0028928001,-0.00048232634,0.0031598217,-0.0025164958,-0.0017860329,0.0031055207,-0.002991242,0.0012753026,0.00022181352,0.0022202337,0.0027709177,-0.0009502618,-0.001330771,0.0029659725,0.0006965486,0.0020829805,-0.0031485716,0.003196708,-0.0004494361,-0.0020173716,0.0009975116,-0.00015220363,0.0015688308,-0.0007610071,-0.0013792809,0.0007592996,0.0027847947,-0.001665202,0.00088955957,-0.0026635183,-0.0022577823,-0.00015588959,-0.002922576,0.0009298126,0.0005328651,-0.0007732308,0.0016679303,0.0032495956,0.0028180892,-0.0006267417,0.0006860506,-0.0013345631,-0.0027471352,0.002092652,-0.0006497272,-0.00022206824,-0.000590444,-0.0015118885,0.0013539032,-0.0014233935,-0.0031928488,0.0029810385,0.0013883563,0.0030782449,0.002214501,0.00097491225,0.0032680067,-0.0014748804,-0.0022677705,0.0014091269,0.001243,-0.0018882037,0.00323492,-0.0011861023,0.0031831355,0.00027824202,-0.0021128189,-0.000659039,-0.0024590183,-0.0009931743,0.00034723242,0.003160896,0.0031186158,-0.0021986258,0.0011583837,0.0007585235,-0.0008297841,-0.0030763908,0.00034237542,-0.0027219022,0.0021067297,-0.0019333601,0.0018451464,0.0032779078,-5.3333442e-05,0.0015094975,-0.00060313346,0.002453587,0.0013133656,-0.0030034415,-0.0007995013,0.0012095897,-3.3189455e-05,-0.0004004236,-0.00035181284,-0.0005572005,0.00020165085,0.001388365,-0.0014175972,-0.0012778739,-1.7605622e-05,8.978526e-05,-5.626877e-05,-0.001595169,0.0014378007,-0.0007239731,0.0007011799,0.00022217432,0.0019898922,-0.0022807936,-0.0022719034,-0.0014920859,0.0031452763,-0.00053062756,-0.003143081,-0.00018168052,-0.0014829743,0.0020000264,-0.0031945617,0.0009530004,-0.0030842773,0.00041660032,0.0019997326,0.0024657825,-0.0025404878,-0.0020176745,-0.0022794802,-0.0026394466,-0.00316636,-0.00070849893,-0.00027864418,-0.002418734,0.0022623455,0.00037320654,0.0019429557,0.0004909555,0.0002631219,-0.0024560431,-0.0007255526,0.0014403597,-0.0016951049,0.00037692985,0.00096112135,-0.0005121203,0.0033107651,0.0027832114,0.0008052222,0.0023727485,0.0019638126,-0.0018602058
bleed,-0.0017096807,-0.0022222125,-0.002589159,0.002774364,-0.00063877506,-0.0023054976,-0.0013773178,0.0017510491,-0.0009579829,-0.0012490896,0.00053386186,-0.00092782103,-0.000547489,0.00036031322,-0.0009770993,0.0028475155,0.0013128958,-0.0033413963,0.0020946441,-0.0022701288,0.0002607422,0.0014743828,-0.0017021104,-0.00071913033,0.0027117706,-0.0014059076,-0.0025632593,0.0030749955,-0.00073245366,-0.0015804574,0.0028745309,0.0014361294,0.0014376376,0.003109841,-0.0028465919,0.0017568823,0.00069156993,0.00138705,0.00057207484,0.0015019317,0.0015119126,0.002031051,-0.0010743928,-0.0015255377,-0.00014623434,0.00083872286,-0.0010694176,0.0020384889,0.0013820775,0.002603745,0.00087427936,0.0027108619,-0.00047641908,0.0026934433,0.0012330887,-0.0026645137,-0.001297726,-0.00082188065,0.0016393268,-0.0002932403,-0.0009670248,0.0026086695,0.0030950431,-0.00052648544,-0.0017304334,-0.0015564035,-0.001605825,-0.0032001354,0.00044941404,-0.0014234801,0.0008275753,0.0018626738,-0.0013698519,-0.0032170985,0.00048648132,-0.0022015725,0.00082075695,-0.0012581861,0.002356289,0.00024776568,0.0011746931,-0.0009270657,-0.0005786339,0.0026004142,0.0004893199,-0.0019323782,-0.0026271702,0.00040787208,0.0021560835,0.0018618425,-0.0029866784,0.0028830972,0.0013496276,0.0024983704,0.0032857785,-0.0024112202,-0.003020212,0.0019596983,0.0031307528,0.001186101,0.0023472684,-0.00051576464,0.0026562081,-0.0031839656,-0.0026787461,-0.002228162,-0.0013327971,0.0016487575,-0.0012841151,-0.0027631498,0.0028140775,-0.0012398479,0.0028513207,-0.0016279608,0.0013452414,0.0016633393,0.0008013359,-0.00093638833,0.0009519542,-0.0027854263,-0.00094647735,-0.00085492537,0.0024292965,-0.0011522656,-0.0022227475,0.0014609866,-0.0001404597,-0.0012266262,0.0022936312,0.0013067662,-0.0013021289,0.0002822024,0.0030765878,0.0025807153,0.0021237165,0.0015901491,0.00080308743,-0.0005947782,-0.0021402843,-0.00011513649,-0.00053071877,-0.0002033501,-0.0020890317,0.0024800864,-0.0021929967,-0.0024180862,-0.0009364525,-0.0005145398,-0.0025572274,0.00023334177,-0.0017661585,-0.00046445784,-0.0024771523,0.00065875263,0.0010691235,1.12356665e-05,-0.001837871,-0.00057846744,0.0023537837,0.0012761574,-0.0029609127,-0.0011239729,0.00076545565,0.0007301425,-0.0031697308,0.0015236207,-0.0028915985,-0.0024736314,0.0011469794,-0.0011321978,0.0011948724,0.002973196,-0.0011992016,0.0031267677,0.00056992634,0.0032662249,0.0019377177,-0.0030844316,-0.0011148414,0.0021880232,0.0018793842,0.0029021562,0.0023205532,0.0026830758,-0.0033116445,0.0014543736,-0.0016653268,0.0011841372,0.0020083208,0.0014652663,0.0025090654,0.00050614105,-0.00044398656,0.0019296636,-0.0018563976,-4.3607997e-06,0.0031775567,-0.0018470756,0.0012623993,-0.0026990129,0.00324086,0.0027422132,0.0004212303,0.0016964009,0.00046893276,-0.0021768836,-0.00048421294,0.0021318498,-0.0015360191,-0.0013375044,0.0016686197,0.0009003288,-0.00064569013,-0.0009595937,0.0019958813,-0.0019156934,-0.0010913884,-0.0022138625,-0.0014544566,-0.0028728442,-0.0014954959,-0.002833808,0.00045830323,-0.002872437,-0.0033268027,-0.0027387985,-0.0022768874,0.002210771,0.0012498271,0.00013535579,-0.0009925675,-0.0024951731,0.00016791318,0.00018257259,5.5855955e-05,0.00030041282,0.00027158434,-2.0199865e-05,-0.002670811,-0.0019840486,-0.0027757797,-0.00043663112,0.0006035462,0.0025005566,-0.0006491424,-0.00078541035,0.0031762868,2.7968706e-05,-0.0008113173,0.002889643,0.0009035692,-0.0017902894,0.0022070943,0.0015032323,-0.0023911153,-0.00011358742,0.0002911403,0.0019221766,-0.0005892263,-0.0009468832,0.00059677265,0.0003097551,0.00039288696,-0.0008998778,-0.0020110514,0.0024641105,0.0025385704,0.0027781301,-0.0028914977,0.000876339,-0.0012106478,0.0031994313,0.0009724986,0.0015386967,0.00081982266,0.0022213673,-0.0019080422,0.0026489436,-0.00084061205,-0.0015301544,-0.0006789474,0.0032468876,-0.0023014995,-0.00072358566,0.002329721,-1.6533577e-05,-0.002116424,-0.0021155875,0.0029932219,0.0021562085,0.0016143415,-0.0010753884,-0.0030934846,0.0012561422,0.0024112982,-0.0018726859,-0.0026177394,-0.0009954921,-0.0016252238,-0.0007747591
acut,-0.0006416892,-0.0017591673,0.003163215,-0.0030895679,0.0015053813,0.0018053113,-0.00045249792,0.0030398632,0.0032895836,-0.0018188271,-0.0020150836,-0.0022454555,-0.002648059,-0.0010103177,-0.0018520921,-0.0027845197,0.00026944577,0.0009832666,0.0021453025,-0.0008846307,-0.0014861048,0.00041072763,0.00013972128,0.0026905797,6.601381e-05,0.0024094856,-0.0027640609,0.0028038588,-0.0006392053,0.0028925752,-0.0025237345,0.0006061712,0.00035871493,2.0803096e-05,-0.0017134242,-0.0030713694,-0.0024129224,-0.0026531762,0.00062869483,0.00017800082,-0.0006046573,0.002378013,-0.00082328846,-0.0004548466,-0.0029652037,-0.0033096974,0.0029997816,-0.0018918647,-0.0021159553,0.0017391299,0.0022412112,-0.0022613397,0.0003067865,-0.0019941372,0.0005430901,-0.0014029362,-0.0011426224,0.0007171109,0.0028852476,0.002233738,-0.003247777,-0.0018745248,0.002618004,0.0006653636,-0.0014303741,0.0002113309,0.0031715713,-0.00035623793,-0.0031499995,0.0005106103,0.0020670919,0.0021021967,0.0013579864,-0.0018986595,-0.00014454043,1.4196555e-06,0.0015205572,-0.0026664701,-0.0026794972,0.00012088434,-0.002872927,0.0019325503,-0.000131371,0.0033501196,-0.0017653857,-0.00014599637,0.0025677462,-0.0013451128,-0.0016536693,0.000532256,0.0008924725,-0.00083136675,0.0021650412,-0.00254743,0.0011564443,0.000185677,0.0029253927,0.002000632,0.0022626526,0.0026240186,-0.003171648,0.0031980996,-0.0025816855,-0.00087836396,-0.0016438573,-0.0016616493,-0.0026734248,-0.0025824062,-0.0015298723,-0.00041654293,-0.0016999368,0.0020430773,-0.003181153,-0.0017567053,0.0031533567,0.0023446924,0.0025684868,0.0014034988,0.00017986642,-0.0020126677,0.0019905125,0.0008796616,0.002565899,0.0021226306,0.0026346364,0.0028874178,-0.003292599,-0.0022622503,0.0004384243,0.0021640933,0.0024633775,0.0018684305,0.0025744245,-0.0017064787,0.0021794925,-0.0013510452,-0.003006451,0.0030673263,0.00043946537,-0.00093225733,-0.00082571176,-0.0014169784,0.001606184,0.001457584,-0.000876548,-0.0024604378,-0.0012028901,-0.00010983124,0.0020177304,-0.00095589267,-4.717581e-05,0.00025315644,-0.0023664527,0.00069841475,-0.00047878438,0.0009580634,0.0016043939,-0.0004556081,-0.0009288908,0.0026047418,0.0017035814,0.0022524868,0.0014904502,0.0028978935,0.0024820892,-0.00036217252,0.0029052338,0.0015175024,0.0017993365,-0.0004486298,-0.0006699644,-0.0014758293,-0.0028207568,0.0010157868,0.0029707027,0.0029509694,-0.00063428323,0.0020141148,0.001249673,-0.0014296594,0.00068738393,-0.0018002262,0.0027283465,0.0018048744,0.0010350634,0.0013792863,0.0029115102,0.002422204,-0.00027984704,-0.0023733121,0.0028168831,0.0024133842,0.0005587216,-0.00043730627,-0.0019415654,-0.001531061,0.002890741,-0.0010568049,-0.0021169335,0.0032918092,0.002552794,0.0030348413,0.00037359862,-0.0027690139,0.0027902254,-0.0012441158,0.00190079,0.0014486548,0.0032267368,-0.0030967626,0.0030755722,-0.00309726,-0.0023130453,-0.0030404609,-0.001867747,0.0024492547,0.0030478227,-0.0011406473,0.0012287106,-0.0012051115,0.002620328,0.0019537397,2.205262e-06,-0.0012071999,-0.0024295144,0.00157492,0.00047742887,-0.0008707056,0.0026067032,-0.001348806,-0.0030510665,-0.0007596062,4.0992156e-05,-0.0021934335,-0.0018368112,-0.0028142526,0.0030799923,0.0024620332,-0.00010143334,0.0024338507,0.002673086,-0.00025904915,0.0022000703,0.0012594953,0.0017014773,0.0024173176,-0.0015823441,-0.0007219876,0.00028744104,0.0014043679,0.0011076189,0.001706097,0.0015172954,-0.0028096184,-0.0011044823,-0.0024263188,0.0032371916,0.0016674277,2.2254477e-05,0.0013790602,-0.0025518886,-0.0020830925,0.0010416224,0.002154398,0.0013051116,0.0020147485,-0.00065845385,-0.0011178792,3.2357057e-05,-0.0010724033,-0.0018452833,-0.002599067,0.0021716447,-0.00037480544,-0.0006187958,-0.002592406,0.0031106696,0.00029368245,0.0005588791,0.0008274713,-0.002470079,0.0005542253,0.0009882152,-0.0028433122,0.0016423234,0.00082159444,0.0024798836,0.001696735,-0.0010203812,-0.0023854298,0.002377833,0.00063707755,0.0017314287,0.002115085,0.00063214684,-0.0020291894,-8.705722e-06,0.002746123,-0.00201589,0.0031359822
breath,-0.0023902517,0.0014104946,0.00071858993,0.0024751707,-0.001629024,-0.0015187446,-0.002024704,0.0011135536,-0.0014948815,0.0028456035,-0.0014282146,-0.003037063,-0.0016045517,0.0021396074,-0.0021132245,-0.0017579081,-0.0024264574,0.001997691,0.0011168775,0.0009435853,-0.0010442229,0.002011763,-0.0020437415,-0.0006659987,-0.0019905635,-0.00033505925,-0.0006740668,0.0028279382,2.600734e-05,-0.0028603242,-0.0018011924,-0.002287146,0.0008892612,0.003154018,-0.0019413339,0.002765174,0.0028424282,-0.002357407,-0.002956451,0.0031602876,0.0027946439,-0.001569444,-0.0022400878,0.0026163845,0.0012553053,0.002699435,-0.0025238276,-0.0031643254,0.0005221075,-0.0032663897,-0.001625363,-0.0011405818,0.0032059755,0.0028827307,-0.00094506465,0.0019427523,0.002752304,-0.00075256504,0.0031783485,0.0023863895,0.0006775423,-0.0012786863,-0.0016904676,-0.0010216403,0.0026191645,-0.0020518051,-0.00097618287,0.0030641495,0.0011506435,0.0020137695,-0.0026853245,-0.00024478938,0.0018382806,-0.001578306,0.0024805486,0.0031126612,-0.00013188417,-0.0006812158,-0.00019370836,-0.0019218924,-0.002799878,-0.00050072256,-0.00084804016,0.0014714508,-0.0022794232,0.0018155694,-0.0022607185,-0.002606944,0.0028337922,0.0029745183,-0.0011597066,0.0011670035,-0.0019211356,-0.0029124552,-0.0018301695,0.0022571671,0.0021416857,0.0031541642,0.0023485613,0.0022504013,0.0004324956,-0.0032632635,0.0015329855,-0.00017728693,0.002108206,0.0005904058,-0.0010417596,0.0025908914,0.0005130546,1.8753399e-05,-0.0015345169,-0.0028222525,-0.0025921855,0.0028939617,-0.0029768506,0.003017709,-0.0030854032,-9.0788126e-05,-0.000626515,-0.0029923534,0.0028757688,0.0022613758,0.0010058391,0.00160681,2.7649156e-05,0.0031428675,0.0023478016,-0.0032921254,-0.0014709425,-0.00042338515,0.001019963,-0.0014302266,0.0004839798,-0.0026163901,0.0009284021,0.0015767867,0.0016490853,-0.0010567104,-0.002814246,-0.003084531,-0.0002453485,-0.0024420575,-0.002272951,0.0020424277,0.0023863106,0.00070332736,-0.0026409975,-0.0018992152,0.0026757827,0.0013050773,-0.0017435773,-0.0024816003,0.00025025595,0.0011672938,0.00069575396,0.0010404448,-0.0018752514,-0.0033026962,-0.0023419338,8.0205726e-05,0.0015378075,0.0015118746,0.00061751954,0.0017269411,-4.5921177e-05,0.0013684644,-0.0030413675,0.0025693914,0.0020554732,0.0017152933,0.002408997,0.0028150408,0.0002528157,-0.0005609645,0.00017541464,-0.0031180985,0.0028136852,-0.002136785,0.0028013333,-0.0014121763,0.00021875543,-0.0030411975,-0.003182216,-0.002614562,-0.0025839699,0.00013175115,-0.0024040076,-0.0016440819,-0.0017572341,-0.0014378264,0.002341523,0.0016113692,0.0028834306,0.002368559,-0.0018892182,0.0024066998,-0.0030968124,-0.00086685864,-0.0025798925,0.0013983621,0.00059667823,0.002353814,0.000986581,-0.0023303435,0.0025707236,-0.0020002476,0.002999769,0.0009845727,-0.00133673,-0.0015616838,-0.0014691454,-0.002058243,0.0031213842,-0.0008928577,0.0025875084,-0.0032248502,0.0006891483,-0.0004278692,0.0025091458,-0.0030213725,0.0024748023,-0.0016980873,-0.0020082947,-0.0018791803,-0.0011348762,-0.001143378,-0.0010644267,-0.0024990535,0.00023553956,-0.00020083557,-0.00056417653,0.0012471493,-0.0025466173,-0.001064678,0.0017138812,0.0028585535,-0.003269411,0.0023992322,0.0017700128,-0.0013058241,0.0028655143,-0.003075264,0.0024131488,0.0017947103,0.0004362481,-0.001735432,-0.0013906148,-0.0011113468,0.00053297915,0.00053807546,0.0024671345,0.0033279064,0.002958621,-0.0013335703,0.0031968358,-0.00021186216,0.0016227629,0.00084769516,-0.00021916813,0.0012178475,-0.0017654278,-0.0019119723,-0.0025294235,0.00062603294,0.0021708931,0.0002999245,0.00042510103,0.0010590642,0.0027007223,-0.0025722599,0.0007531719,-0.0024897477,0.0012326044,0.0031695156,0.0025137404,0.0021512976,0.002672183,0.0021890576,0.0022793252,0.0028956616,-0.0016541835,0.0030688092,0.0016834823,-0.00070850825,0.0028228003,0.0017006616,0.0032100987,0.0009457983,0.0032948856,0.00039921782,0.0030435415,0.0011980168,0.0021825437,-0.00120764,0.0022703635,0.0024180785,-0.0007207637,-0.0006212728,0.0012047911,-0.0023452567
arteri,0.0032714377,-0.0032536087,-0.0021668598,0.00094621786,0.002149025,-0.0018012596,0.0009713258,0.003130785,-0.0022927914,-0.0020401753,-0.0016943638,-0.0012265211,0.00060996163,0.0032501298,0.002183081,0.0001177807,0.0008328191,0.0027734754,0.0030711747,0.0018396646,0.002002198,-0.002553173,-0.0012673961,-0.0019364869,0.0020738288,-0.0007412362,-0.0029725903,0.002552626,0.002773241,-0.0011246784,0.003092751,-0.00024698433,-0.0012038727,-0.00011521173,4.2698142e-05,-0.0011185722,0.0009693334,0.0019147558,0.0022793615,-0.0029727707,-0.00071841606,-0.0018445047,0.0025002353,0.0021543673,-0.0014495099,0.000808867,-0.0019490609,0.0001187514,0.003133216,-0.00086353486,-0.0016915073,-0.0024264366,-0.0010049581,-0.00029995383,0.0011627607,0.0033273858,-0.001111152,0.0006113402,0.0032207589,0.0004991759,0.0002927012,0.0032676687,0.003097374,0.0025796248,-0.0021013804,0.003366436,0.0019389661,0.0030464253,-0.0006848588,0.001076333,0.0022517447,-0.0012724668,0.0022121407,0.00083149655,0.0030619134,-0.0009702018,-0.0010621396,0.002110532,-0.0030184453,-0.0023453902,-0.0021822064,-0.00025039288,-0.0007553711,0.0023538342,0.003119217,-0.0002635589,0.0004456379,0.00069636747,-0.00063544675,-0.0026817005,0.0025195493,-0.001383005,0.0015675181,0.003054049,0.0010735405,0.0011004377,0.0013684558,-0.00086789567,0.0012517727,0.00013429024,0.0018546198,0.0018405502,0.00063359464,0.001914729,-0.0030131105,0.0021545014,0.003108897,-0.0013921355,0.000507423,-0.0017167786,0.0003758845,0.0009373464,0.0027319174,0.00022169888,0.0008787455,0.00045216695,0.0028437758,-0.001916127,-0.002050798,-0.0012533583,-0.0007647664,0.0017268723,-0.0027231872,-0.00097053126,-0.0027505455,0.0017424194,-0.0008293996,-0.0030588317,0.0013509429,0.0030556095,-0.0009898809,-0.0018855191,0.0010278326,-0.00014726736,-0.0033329614,0.002896393,-0.0024416514,-0.0015986282,-0.0008894653,-0.001846147,0.0005629473,0.0031891803,0.0015389665,0.0026894761,-0.00013198936,0.00019486716,-0.0009066905,-0.0029127826,0.0011179046,0.00068533677,-0.0031646527,-0.0017380022,-0.0032680447,-0.001854401,0.001310641,0.0029266234,0.0013317969,0.00081809517,0.0027074602,-0.0003014165,-0.00042964044,-0.0028980689,-6.411036e-05,-0.0008137241,0.00011443719,0.0024148512,-0.0023476735,-0.0013540025,-0.0022154315,-0.0011259359,-0.0010947941,0.0007141151,0.0011515464,-0.0016551876,-0.0015198443,0.00033455098,0.0018570534,0.0017262109,-0.0009823834,-0.0014203893,-0.0018677633,-0.00014479493,0.0006081262,0.00048917317,0.002388458,-0.00087230763,2.9341021e-05,-0.0018464734,-0.00042144637,-0.0025976317,-0.00029513834,0.00043052042,-0.0029390634,0.0029422648,-0.00303137,-0.0032628602,-0.0028172384,0.0023882969,0.0018111601,0.0031176012,0.0008382401,0.00026067207,-0.00084563834,0.0031257058,0.00088004826,0.0013420006,-0.0004331623,0.0002664057,0.0022224193,-0.00026894204,0.0011517055,-0.00025560358,0.0017411334,0.0011974841,0.0008359183,-0.0017799344,-0.0016121725,0.0013417586,-0.0020277812,-7.501224e-05,-0.00020665482,0.0011996424,-0.002849795,0.0029674866,-0.00054602645,-0.0018093404,0.0013703112,-0.0006808778,-0.0026073025,-0.0015063641,-0.00012212915,-0.0030123265,0.00017527786,0.0008684288,-0.00111406,0.0009009521,0.00084504456,0.0033488264,0.00047592015,0.0006218012,0.0009824627,-0.00067737757,-0.0029429302,0.0027038392,-0.0006314526,-0.0032631399,-0.0021995797,-0.0012879209,0.0013154295,0.0016894931,0.002050983,-0.0022369092,0.00023883532,-0.00093083794,-0.0018562578,0.002308985,0.0013397336,-0.0010189426,-0.0028464014,-0.00171636,-0.00023361867,0.002682555,0.002067624,-0.0028855342,-0.0032082447,0.0024007997,-0.0007477239,-0.0012331665,0.001853612,-0.0019690508,0.0016949008,-0.00010993746,-0.002308066,-0.0001438921,0.002167559,0.0031185225,0.00073712866,0.0016783768,-0.0017355443,-0.0002885518,-0.0017871024,0.00039931384,-0.00063962373,-0.0012002924,-0.002364607,0.0032591864,0.0009349319,-0.00075072737,-0.0014159549,0.0025684487,-0.002149254,0.0010599571,0.00027197457,0.002750371,0.002280033,-0.00094466266,0.00083851605,-0.00057789567,-0.003121339,-0.000887728
short,0.00044302802,0.0021770843,0.0033328414,0.003025763,-0.0026649402,0.0021644905,-0.0019017113,-0.00031235788,0.0001668092,0.0021968973,0.0014841971,0.0015357445,0.0031595845,0.00012772765,-0.0020116384,-0.0021186012,0.0021440415,-0.0017472435,-0.00095094444,0.0013558202,-0.0007641964,-0.0020132996,-0.0007669368,0.000403434,0.0007301329,0.0020303188,-0.0017411654,0.001022777,0.0024097518,0.00073425175,0.0017970814,-0.0016149987,0.0020539905,-0.002531011,0.0011596595,-0.003107259,-0.0008687613,-0.0030274112,-0.0005307419,-0.0017867154,-0.001312835,0.00038891914,0.00093944336,-0.0005068404,-0.0027189546,-0.0019733505,0.00027873495,-0.0013130925,-0.0031390614,-0.0002569316,0.002220259,0.0019985896,-0.0033105072,0.0010365029,-0.0019951395,-0.0030660222,5.4035874e-05,-0.00012167272,-0.0023267046,-0.002102674,-0.00081179733,0.0023636287,-0.0025103407,0.0025609282,-0.0001620833,0.0003680672,0.0031602718,0.0015833965,-0.00119435,0.0012466417,0.0011694295,0.0021156664,1.7169446e-05,-0.0014776188,0.00044240832,-0.0017970123,0.00047059142,0.0016450419,0.0017147104,0.0030667395,-0.0025080997,-0.0018000809,0.0021588353,0.00045729775,-0.00220368,0.0003002524,0.00089421315,-0.0008451994,-0.001655361,0.0016634553,0.00321745,-0.0024533824,-3.2862874e-05,-0.0008606789,-0.002114768,-0.0004523311,-0.001744471,0.0030158667,-0.0019284284,0.001227425,-8.0604004e-05,0.0014085794,0.0007064202,0.003340226,0.00020461358,-0.0018240234,-0.00040072206,0.00069062697,-0.0011289143,-0.0026175429,-0.0018699127,-0.0022456485,0.002114643,0.001311589,0.002740493,0.002170614,-0.0020339496,0.0009011714,0.0028284378,0.0005317853,0.0010160882,0.0019391507,-0.002943019,0.0030435992,0.002273519,0.0028289917,-0.0027436526,0.002046236,0.0022102227,-0.00044365053,-0.0020958527,0.0017794088,-0.0022911693,-0.0017824777,0.0011700774,0.0026990715,0.0028986915,-0.0014643779,-0.003061123,0.0031986048,0.0020967843,-0.0013289752,-0.0028247242,-0.001572015,-0.0013209042,-0.0010917704,0.00027090067,-9.566244e-05,-0.0010390457,-0.0020007621,0.0031359382,-0.001582285,-0.00242162,0.002564904,0.00083247287,0.0028781549,-0.0014939164,-0.0022986967,0.0003251002,-0.00039451406,-0.0031287984,-0.0005304525,0.0010063066,0.002184896,0.0022832525,0.0010609073,-0.0014815205,-0.00061954325,-0.0013194201,0.0019300581,-0.002118995,0.0007039963,-0.00044149818,-0.0019341493,-0.0024132007,0.001949255,-0.0027904594,-0.00022786752,0.0009415488,0.0025778592,-0.0024281056,0.0011037372,0.003264045,-0.0023218805,-0.0011848881,0.0017192707,0.0017567549,0.00054430414,0.00265202,0.00026934902,0.00062242296,-0.0005340422,-0.0027231323,0.0010844859,0.00065863866,-0.0029122836,-0.00021916565,2.4416357e-05,-8.29091e-06,0.0028960744,-0.0008440888,-0.0019718895,0.0024918092,-0.0024211397,-0.002995089,-0.0006000049,-0.0027844266,0.00012346351,0.00064647733,-0.0008245672,-0.0021451584,-0.00010729014,-0.00036561184,0.0011545618,0.0026991845,0.0019552822,0.0028218322,-0.0029951823,0.0031489157,-0.0007912077,0.0028912635,0.0007941485,0.0011974343,-0.0031869963,-0.0031675526,0.0029940777,-0.00095706014,0.00093852903,0.0021331157,-0.00010237015,0.0032271347,-0.00034095495,-0.0032278432,-0.0023548526,-0.00034766505,-0.0028855598,0.0024750542,0.0012076295,-0.0029220995,0.0028332765,0.0029755253,0.0019480184,0.0023116826,-0.003194947,0.00017002477,-0.003070416,-0.0012246266,8.311749e-05,-9.26847e-05,0.0004898002,0.0010993975,0.00071202347,0.0017679814,0.0025234707,-0.0019728786,0.002649315,0.001994415,0.0032669064,0.0015307624,-0.0011104731,-0.0012493116,-0.00021832774,-0.0005442897,0.0032906919,0.00036952258,0.0013345041,0.0011470756,-0.0029582013,0.0022368575,0.002729968,-0.00055958534,0.00077760767,-0.0021523926,-0.002041304,0.002735383,-0.0010092059,0.002247347,0.0005257384,-0.0006655699,0.0010201905,-0.0013424417,-0.00059702224,0.00046017996,0.0016325065,-0.00047444797,0.00022657949,-0.0026471086,0.003175864,-0.0029249839,0.0023661898,0.0013059935,-0.002332701,-0.0017681334,-0.002643449,-0.0017130541,0.002355662,0.0032149504,0.00070951757,0.00021246403,0.0031789022
liver,-0.0016584663,-0.00042699804,0.001087524,-0.0021350414,-0.00323544,-0.0030908114,0.0030144723,0.0018201764,-0.0015929312,-0.002777729,0.00042139983,0.0009517733,-0.00041701653,0.00043282672,-0.001432074,0.0015929898,0.0004986747,0.0029497584,-0.0033216074,-0.0017723748,-0.003032716,-0.00012924285,-0.0026190423,0.0016723571,-0.002125141,-0.0019823583,0.0016855204,-0.0027279512,0.0004821751,-0.0024218166,0.0032930726,0.0028822392,0.00058983715,0.0019334,0.0015246308,-0.0019898505,0.0032519195,-0.0032262853,0.0026797499,0.00091128633,-0.001017256,-0.0011944525,0.0030242258,-0.0018140525,0.0027276343,-0.0019942485,0.0028032486,-0.0001669885,0.002652265,-0.0010465482,0.0019974848,0.002946041,0.0008443599,0.00044726522,0.0016773834,0.00268262,0.0028529542,0.0028279058,0.0023454987,0.002657776,0.0028599685,-1.2738968e-05,-0.00033942584,0.0005520605,-3.0272327e-07,0.00024595181,-0.002862096,-0.0031928218,-0.00077933085,0.0029678429,-0.0012150678,-0.0023109391,0.0016322796,0.00035461553,0.0006100974,0.0012342161,0.0011858724,0.0019114281,0.00040780142,0.00029318655,0.003017174,0.0009296588,-0.0015495943,0.0022019255,0.0017325461,0.00096119393,-0.001059563,0.0011073529,0.002133353,0.0023656574,0.00031913898,-0.0028378852,9.78574e-05,0.00012276958,0.0013306147,-0.0031410716,0.0032443462,-0.002313731,0.001908105,-0.0031355326,0.0032127071,0.0024520352,0.000424834,-0.001132878,-0.0001587403,0.0001297426,-0.0021421202,0.0019226176,0.0007852626,0.0012587084,-0.002422286,0.0028384977,0.00016838963,-6.893233e-05,-0.0030097263,0.0013585475,0.002267072,0.0024497062,-0.0021327964,-0.0026339423,-0.0018390509,-0.00019981044,-0.0027755464,-0.0027473336,-0.00063935464,0.00039580523,-0.0031699394,-0.0012586059,0.0002184247,0.0022866335,0.0005737102,-0.00019284005,-0.0024922278,-0.0022389868,-0.00023794177,0.0025079867,0.0018195637,-0.00049140595,0.00038407175,-0.0032105923,-0.0004591885,-0.0015494725,0.0019394893,-0.0007732696,-0.0015869552,-0.0031653775,-0.0004064586,-0.0024001698,-0.0005666066,-0.0013765481,-0.00079102954,-0.0011066629,-0.002718165,-0.0004088071,0.0005597722,-0.0013403392,-0.0025523694,-0.0011971993,-0.0030193091,-0.00023756783,0.0019691754,-0.0009799385,0.0010380788,0.0016645198,0.002817422,0.0018692069,0.0031687587,-0.0032221773,-0.0026553562,-0.0022419712,-0.0024874639,-0.0026609465,-0.0025887077,-0.0009834055,0.0004598093,-0.00096684287,-0.002930416,0.0016448447,0.00029878286,0.0015295087,0.0024014711,0.0025600966,-0.00027331093,0.0012146861,-0.0017300833,0.00064452126,0.0015280449,0.0033011397,-0.0010645499,0.0009367621,-0.0019037134,-0.00073382095,0.0026879308,-0.0012970367,-0.0003797442,-0.003107565,-0.00315899,0.0029517175,-0.001905005,0.0016839427,-0.0023204735,-0.00081508444,-0.0026900268,0.0024993299,0.0020421287,0.0017504577,0.0027843963,-0.00023984726,-0.0031023233,0.0030418488,-0.0016398528,0.0026132257,0.0018394236,-0.00036968713,-0.0025635194,-0.0004857378,0.0020790217,-0.0023446956,0.00047342596,-0.0026550689,0.0029076822,-0.0009486985,0.0031444726,-0.0019008188,-0.0032518727,-0.0028829968,-0.0013605691,0.0015646237,-8.172182e-05,0.0030721303,0.0010355121,0.001238694,0.0009951895,0.0027278138,-0.0008016635,0.0024801374,-0.003179722,0.00096790615,-0.00022663908,0.00013486667,0.0022964985,-0.0009488735,-0.0007868607,-3.1039923e-05,-0.0001586167,-0.0011986828,0.0020844871,-0.0021808082,0.0026272354,-3.284268e-05,0.00087642117,0.0010733434,-9.280701e-05,0.00056436413,-0.0010693242,0.0015745728,7.513089e-05,-0.0010956868,-0.0029173477,-0.003335709,0.00010654327,-0.0019052752,-0.00036185564,-0.0014223326,-0.0028872243,0.00036111314,0.0019717494,-0.0007345398,-0.0024083664,0.001045864,-0.00013358843,-0.0018488653,-0.0003718427,-0.00021969767,-0.0010473275,-0.003312266,0.0025422727,0.0012551969,-0.0008598027,0.0024352944,0.00014218267,0.0023928657,-0.00052786805,0.0025082356,-2.3161556e-05,-0.0020143453,-0.0015853473,0.00321515,0.00019132793,0.0003404981,0.00282214,-0.0020953869,-0.00059228553,-0.0027407159,-0.002224094,-0.0028504396,0.0013032621,0.0009130892,0.0018757832,0.00085306505
fever,0.0007045051,0.0019117184,-0.00070546946,0.0010574325,0.002814587,0.00012935718,0.0020981943,-0.002247856,0.0021919406,0.0015631588,0.0016934494,-0.0033062617,-0.0001431481,0.0010687042,-0.0019419964,-0.0022312626,0.0021213018,-0.0022745836,-0.0017275,0.0027072795,-0.002340099,0.0028484582,0.00021820744,0.001468569,-0.0010041468,-0.001809245,-0.0029825112,-0.00020415783,-0.0017007458,-0.001025345,0.002703818,-0.0025493035,-0.002103093,-0.0017545592,-0.0022012468,-0.0029468744,-0.0003700137,0.0031486594,0.0026788458,-0.0017580322,-0.0027125024,-0.0007524649,-0.0030889274,-0.0016892465,-0.0019826023,0.0010083739,-0.002523014,0.00041686176,0.0007623005,0.0017711051,-0.0006734653,-0.0032572201,0.0017405557,-0.0019688313,0.0016285853,0.00065825146,0.00293914,0.00051044585,-0.0006091543,0.0021629233,-0.0023566405,-0.0027963542,0.001263057,-0.0008589836,-0.0013946132,-0.00064162613,-0.0032916975,8.6845954e-05,-0.00035221817,-0.0009904723,0.0008335483,0.001564465,0.0021142021,-0.0026379155,-0.0016629982,-0.0029291566,-0.0029830118,-0.0012433537,-0.00042456866,-0.0027375445,-0.0017921067,-0.0007172581,0.0021142291,0.0005228694,0.0027715627,-0.0027720693,-0.0015252916,-0.00026802777,0.002933393,0.00036878386,0.0005133259,0.0004302617,0.00097420695,-0.0031319822,0.0010848006,0.0018215616,0.0017621092,0.0014799627,-0.002695456,-0.0013532591,0.0027829702,-0.0001910305,-0.003145593,0.0015945458,-0.0020150458,0.0022271646,0.0017912594,-0.0016818909,0.00085647625,0.001805547,-0.0011951018,-0.0005053445,0.0030565239,0.0030210698,-0.0031309882,0.0025224364,0.0032960165,-0.0009467232,0.000819782,-0.00093445025,0.002881815,-9.442766e-05,0.0018787694,0.0030709652,0.0013700823,-0.0023734632,-0.0006419432,0.0003260084,0.0006780255,0.0009847382,0.0031497865,0.0014670336,0.0033046333,-0.0028859011,-0.0019181387,0.0006621019,0.0012187243,-0.00033039332,-0.0023038827,-0.0010705543,-0.002842524,0.0031369047,0.0012414785,-0.0026264726,0.0010623229,0.0013912785,-0.0018796615,-0.0019709305,0.0003461222,0.0029873482,-0.003215427,2.0968914e-06,-0.002288315,-0.0003107496,0.0010136672,-0.0016766556,-0.0009253347,0.00022519588,-0.0021207405,0.0024288595,0.0014594742,-0.0028528448,-0.00071632385,0.0010548433,-0.0027758647,-0.0023563043,-0.0028179137,-0.0018328639,0.0029520325,0.0023590163,0.00096190453,-0.0028515232,0.001914411,0.0015444724,3.9658942e-05,-0.002947646,-0.0006279099,6.36216e-05,-0.0025859808,0.00082338654,0.0001612556,-0.0023533432,-0.0027564697,0.0020140635,-0.0027834969,-0.0018599284,0.0018600416,-0.00016211708,-0.0010181216,-0.0017314589,-0.00039931576,0.0017572391,-0.0019821464,-0.0016590579,-0.0016495411,-0.0015854493,-0.002660031,-0.003252155,0.0025273887,0.0026655837,-0.0014281059,-0.0031093538,-0.00062417187,-0.0012360907,0.00303287,0.0009800474,-0.0019927148,-0.0011194284,-0.0033008277,0.0006480404,-0.0013294562,-0.0009029011,0.0017254968,0.0025330074,0.0014612754,-0.0022734723,0.0022328806,-0.0032105974,-0.002329096,-0.002668667,-0.0007543103,0.00015994668,-0.0012574275,0.0006151243,0.0030690618,0.0022260186,-0.0003516082,0.0030309863,0.0005189653,-0.0006579705,-0.0021983166,0.0021579675,-0.003023201,-0.00063220185,0.0025641327,-0.0008622869,0.00053539756,-0.002448705,0.0016593604,0.002457689,-0.0031028464,-0.0010926183,0.002630913,0.0009779405,4.847447e-06,0.00011443615,-0.003288476,0.00331225,-0.00066711346,-0.001629107,0.00091641344,0.00034332395,-0.0019771964,0.0019308813,-0.0008344885,-0.0020594602,0.002411903,0.0021544918,0.002940094,0.00038779815,0.00017000039,-0.0026432066,0.0015496277,0.0031203784,-0.00022654653,-0.0005876565,-0.0012710559,-0.00016395887,-0.002539145,0.0018964151,0.00049696205,0.003097582,-0.0021414682,-0.0016964101,-0.0020782168,-0.0024255638,0.00091885566,0.0016315393,0.0004473233,0.0011802498,-0.003129425,-0.00035652996,-0.0025809621,0.0009840457,-0.0008953786,0.0029609997,-0.00114478,0.0022794064,0.0013716232,0.00045479776,-1.3487339e-05,0.0027241781,0.0007872458,0.0027527427,0.0011117951,0.001807704,0.0017006377,-0.0025429272,-0.0019295334,0.00041139245
accid,6.967065e-05,0.000716222,0.00034127804,0.0025421816,-0.001466594,0.00011248313,0.0023938154,0.00082615984,0.0014237128,0.0014246501,-0.00043890683,-0.002779504,0.0010145828,-0.0029711763,-0.00085873913,-0.003138468,-0.00013046143,-0.002667218,0.002462244,-0.0016566991,0.0033225992,-0.0030407931,-0.0014271424,0.0006340667,-0.0009899747,0.00047651917,-0.0012525022,-0.00030565762,-0.0019094811,-0.0033024878,0.0021450403,0.00016348065,0.002163719,-0.0025054943,0.0012233519,-0.003286039,0.0025657841,0.0019744106,-0.0020506568,0.002768923,-0.0018548307,-0.0028763781,0.0005052704,0.0010612076,-0.0026804388,-0.0029682592,0.0031053626,0.0006089224,0.00030142348,0.00082177226,-0.0011365396,0.0005923547,0.00061474025,0.003271355,-0.0019165047,0.00082363427,0.0021268898,-0.002245329,-0.0029751249,0.0028968717,0.0022677234,-0.0013334401,0.0019122666,0.00026807826,-0.0017198161,-0.00041056305,-0.0016467413,0.0020863938,0.00063067605,-0.002821418,-5.945217e-05,-0.0008871474,0.002223536,-0.00041627054,0.0025383309,0.0006804271,-0.0013017397,0.0027762526,0.0009786674,-0.0012740997,-0.0019001671,-0.0010267275,-0.0017033059,0.0012247633,-0.0030747377,-0.0019164148,0.0010913381,9.875903e-05,0.00204626,-0.0012095933,2.3669365e-05,0.0008428272,0.0018611335,0.0005667131,0.0033418464,0.0013044535,-0.0023870189,-0.00044834046,-0.0028211318,-0.0017549584,-0.0007380271,-0.0032321794,0.0031252832,0.000667668,-0.0004093387,-0.0018758903,-0.0028039657,-0.003318331,0.0029616999,-0.0008014905,0.0015525758,-0.0014860082,0.0033339306,0.0012379253,0.00036122117,-0.0013483862,0.0004345909,-0.0008854066,0.002498938,0.001447856,0.00033524298,0.0012043021,0.00124227,-0.0022698354,0.00296111,0.0006043545,-0.0019097073,0.0028711308,-0.00045517302,0.0027692073,-0.00048422525,0.002383666,0.0009404489,-0.0014647614,-0.001264845,0.0031345463,0.0005404054,-0.0019848053,9.878883e-05,-0.00070754974,0.00053748814,-0.0026100052,0.0024782356,0.0004591079,0.0026418387,0.0014565866,-0.0014875373,0.001228734,-0.00022739203,-0.0033218067,0.0027630988,0.0031531996,0.00321086,-0.0012537005,-0.0028620106,0.0016417969,-0.0025727346,0.0028592623,0.00093151367,0.0019153242,0.002092269,0.00017237086,-0.0007479715,0.0002997386,0.0032607038,-0.0023795215,-0.00052289595,-0.0008060444,0.0016022475,0.0021950162,-0.0014042864,0.0012207277,-0.0014657011,0.0010818974,0.00274259,0.0011845825,-0.001489174,-0.001047393,0.0026289031,0.003215055,0.001970673,-0.0010671418,-0.0006324762,-0.0021239182,-0.0014902826,0.001136038,-0.0021231875,-0.0021946991,0.0026878617,0.0031700404,0.0027340136,0.00050248415,-0.0030029505,-0.0025483472,0.00056001754,-0.003241442,-0.0024584685,0.0006665893,-0.0009667054,-0.0030466078,0.0021309468,-0.0030019083,-0.0024725464,-0.00059334416,0.00056738325,-0.00036523287,-0.0017688555,0.002186771,0.0029426967,-0.0025068359,0.0032896576,0.0024452265,-0.0025182166,-0.0006511877,0.0014152336,0.0023527734,-0.0012999149,-0.002414218,0.0015146583,-0.003038383,-0.0019392216,-0.00040892404,0.001800664,-0.0019010033,0.0015482269,-0.00017913328,0.0008933049,0.002126277,0.0004673519,0.002591276,-9.581789e-05,-0.0027913612,0.0030590275,-0.0015760427,0.0015673265,-0.001273106,-0.0024519956,-0.0021680128,0.0015547331,-0.000257648,0.0005431495,-0.002989703,-0.00176356,-0.0019981177,0.0028404077,-0.0029500125,0.0016699226,-0.00027628161,6.283816e-05,0.0029570938,-0.0011686954,-0.0023150337,0.00027308497,0.0025841815,0.002980182,-0.0012562249,0.0009382799,0.0016561678,-0.0018307588,0.0022836027,-0.0021644144,0.00076893007,0.0015615986,0.0013919512,-0.001589861,0.00088313874,0.002467558,0.002888484,-0.0032469458,0.0018306936,0.0016448764,-0.00055555045,0.0030336194,-0.0014260449,-0.0005626009,-0.0022657283,-0.001265829,9.7956305e-05,-0.0011657719,-0.0018363115,0.0021920286,-0.0017786814,-0.0021217053,0.002572644,0.003175563,0.0013828807,-3.9445345e-05,0.00027302103,-0.0003428808,0.0022829014,-0.002085191,0.00019654703,0.001441181,-0.0007226966,0.00032875867,0.0012563745,0.003247381,0.0007111735,0.0032075115,-0.0019395922
renal,0.0015950213,-0.0012076029,-0.0014234887,0.00041505005,-0.0013770531,-0.0018777905,0.001069894,0.0027907172,-0.0021824457,-0.0030458255,-0.0011210124,0.0025132457,-0.0032317913,0.003189828,-0.00012846373,0.0007625829,-0.0006154082,-0.0019256815,0.0010355812,0.0020562557,-0.0023420146,-0.00038700082,0.00051841984,0.0014126374,0.0023840112,-0.0011802337,0.0024130575,-0.0018603525,-0.00073069276,0.0030222433,0.0018027669,-0.0028201903,-0.00055070344,-0.002956085,-0.0005481831,0.0018881245,-0.00246511,0.001843124,0.0020218673,-0.0012530956,-0.0032174345,-0.00083347433,-0.00085342705,0.0012590082,0.0029824076,0.0006640839,-0.0006898813,0.0010043727,-0.0022575445,-0.0004276024,-0.00048082753,0.0031956674,-0.0019408407,-0.0023543613,0.00077580044,0.0008947726,-0.0023772402,-0.0019557578,-0.00039936148,-0.0010929892,-0.002988356,-0.0013479731,-0.0009976745,0.002169833,0.00031797492,0.00053438224,8.6184526e-05,-0.0011171995,0.0010312049,0.00022562467,0.0019889274,-0.00026200115,-0.0029654917,0.00027970623,0.0033126557,-0.0017406582,-0.0017472077,-0.0008328629,0.0028589284,-0.00026083252,0.003126868,-0.002775801,0.0030000457,-0.003219384,0.003069817,0.0006259548,0.0008871888,-0.0019498786,0.0028275915,0.002020821,-0.0018176403,-0.0031647393,0.002329679,-0.0018396009,-0.0030893385,0.0008829787,-0.0016618221,-0.0024561281,0.0032339548,-0.00051599013,-0.00051158114,-0.0013431931,-0.0014607265,-0.0015419421,-0.0018666404,-0.0017777893,-0.002667743,0.003168622,0.0021214364,-0.0011975638,0.00083314563,-0.0025448399,0.0025125789,0.0027723543,0.0002679146,-0.002276489,-0.0009787838,0.0015747016,-0.0009807145,0.0010561458,0.0031395173,0.0014571398,-0.001710879,0.0018178992,-0.0009622421,-0.0021247491,0.0023433354,-0.0030892931,-0.00039389494,-0.0004500322,-0.002799526,-0.00036698178,0.0018769073,-0.00176405,-0.002352253,0.0020777595,-0.0011443966,-0.0026004943,0.000100468016,-1.8824969e-05,0.0025177768,0.00018506005,0.0026350403,-0.0032760296,0.0013481975,0.0020739655,0.00033587022,-0.0009434475,0.00034062943,-0.0002874696,-0.0027021589,-0.0022725675,0.00039868726,-0.0006771475,0.0031633049,-0.00031190523,0.0020236662,0.00068365474,0.0026936359,-0.0030875742,0.000804347,-0.0004810457,0.0007069007,-6.714421e-05,-0.002215118,0.0030204812,-0.00095297815,0.0006265864,-0.0021565843,0.0012427103,0.003325971,-0.00039344808,0.0021984372,-4.4653883e-05,0.002644421,0.003221409,-0.00012586916,-0.00056937855,-0.0031726528,0.003296581,-0.00083491596,0.00072830584,-0.0005730329,0.0027591137,0.002770598,0.00051063235,0.0009714581,0.002145954,0.0007389113,0.0021512152,5.541435e-05,-0.0007640421,0.001749396,-0.0011488326,-0.0008695384,0.002912186,-0.0030427924,-0.0011426454,-0.0009767456,0.0018962724,0.0026460616,-0.0021607887,0.0019316357,-7.533572e-05,-0.0030033716,-0.0008185042,-0.0005357276,-0.0014990596,-0.00026282264,-0.0017493855,0.0019804148,0.0030929905,-0.00054139603,0.0011200957,-0.000249399,-0.00023942396,-0.0023498863,0.00046577427,0.0012886127,0.0022980191,0.0021883657,0.0011789971,0.0015586303,-0.0024765553,-0.00046874932,-0.0019355816,0.0022733444,0.002607401,-0.0014280565,0.00039527006,0.0017108821,0.0005971695,0.00026540738,-0.002242291,0.0032795346,-0.0024141776,-0.0020216806,-0.0018929893,-0.002120704,-0.0011755052,-0.0031195753,0.00039138884,-0.001262254,-0.0008492206,0.0019355895,0.0011710576,0.0006015888,-0.00045530056,0.003295955,9.77126e-05,0.0016817545,0.0030111475,-0.0032448769,-0.0030396609,0.003288899,0.00090237474,-0.0006165951,0.0015886571,-0.0014519958,-0.0021409239,-0.002759597,0.0024171318,-0.0008136088,-0.0025238788,-0.0019796228,0.0020649103,-0.00081888854,-0.0020470503,-0.0005601445,-0.000493866,-0.0010929123,-0.00070370466,0.001366082,0.00046900383,-0.0011576363,0.0009038958,0.0017457935,-0.0030536246,-0.0025330791,0.002092627,-0.0029817354,0.00018499991,-0.0030002678,0.0027927973,-0.001442327,-0.0022000936,-0.0004706654,-0.0003678374,0.002508984,0.0030415151,-0.00011737446,0.00090422947,0.001579489,4.3244858e-05,-0.0019361773,-0.0001933616,0.0007254187,0.0027616539,-0.0011867976,-0.0032807386
esophag,0.001794288,0.0032719069,-0.0023510451,-0.00018818652,-0.0016838032,0.0021481875,0.0032406794,-7.312681e-05,0.0017019474,0.0021890898,0.0014610296,-0.002672127,0.0010244091,-0.00050214294,-0.00069924846,0.0017897994,-0.00042472756,0.0032933473,-0.00021706747,7.487439e-05,-0.00076247245,-0.0028439779,-0.0032698992,0.0016325953,-0.0022061386,0.0009867208,0.0009006551,-0.0023417007,-0.00104871,-0.0019551555,-0.0028447532,2.5658766e-05,0.0032630782,-0.0022344303,-0.0014561433,0.0027920834,0.003105613,0.0032800264,-0.0033134655,0.0016910098,-0.0022108199,0.0022883934,0.002042095,-0.0011255093,0.0022872393,-0.0026159047,0.001543475,0.001541056,0.001972002,0.0019657223,-0.00087699544,0.0013125264,-0.002044841,-0.0021471002,0.0008955912,-0.003129249,-8.5975866e-05,0.00036753246,0.0026680944,-0.0023280801,-0.00078544416,-0.0013773581,-0.0017352687,-0.0001575634,0.0015303206,-0.001650892,-0.00054673245,0.002907094,-0.0004546986,-0.0012186997,0.0024780212,0.00040883335,-0.000117372976,0.0031388681,0.0026882053,0.0011566285,0.0011130781,-0.0007442126,0.0027016995,0.0017154231,-0.001817801,-0.0020464633,-0.00018724831,-0.0026110534,0.0011231918,-0.0030697556,-0.00052485237,0.0011364104,0.0010331714,0.0010573094,-0.0030015078,0.0011536324,0.0018083911,0.0011612333,0.0026298321,0.0005860634,0.0021025927,0.0029581443,-0.00033291668,-0.0002461805,0.0007343727,-0.0025110266,0.0018900782,-0.0016768172,-0.0010864268,-0.0006213684,0.0027571032,0.00075367955,-0.0003195949,-0.00093880884,-0.00070045434,-0.00043046355,-0.001691181,-0.0013639389,7.101528e-05,0.0015321432,0.00061412406,0.0022872922,0.00022686883,-0.0011029831,-0.0024516513,0.0020225728,0.0023153883,-0.0020220364,0.0015537472,0.0031746493,-0.0021129078,-0.00096593547,-0.0030315204,0.0010959986,-0.0011369572,0.0007099419,0.003161609,-0.002790078,-0.0031078772,0.00061128824,-0.0026755426,-0.0030133645,-0.003124598,-0.00012132513,-0.00036310652,0.00022893479,-0.0004387099,0.0030108977,0.0029399057,-0.0021234166,0.0028797283,-0.0030081377,-0.00045717112,0.0008272242,-3.6583348e-05,-0.001299705,0.00015449114,0.0003572847,-0.0031528194,-0.0016118637,-0.0025784692,0.001271826,-0.00028729474,-0.002465389,0.0019035646,8.697247e-05,0.0008743807,0.0018277869,-0.0014192837,0.0026120744,-0.0026234798,-0.0011678596,-0.0024505006,0.0003550227,-0.002463574,0.003025948,0.00186218,-0.0024096104,0.0020712966,0.0021774743,-0.0024487607,0.0015271631,-0.002571879,0.0031138475,0.0015701243,-5.575288e-05,-0.0029916838,-0.0003233331,-0.00012502543,0.00030906638,0.0029035062,-0.0009297214,-0.0029013578,-0.0029639965,-0.00033526815,0.00046209822,4.128817e-06,-0.00072670187,0.0028717027,9.6930235e-06,0.0021467675,0.0013128743,-0.0024037233,-0.0007047125,-0.0025935345,-0.0022565804,-0.001059665,0.0021924896,-0.00027837604,0.002945339,-0.0007787887,-0.0017789559,0.001308655,0.0007378799,-9.026193e-05,-0.00083205843,-0.0020188063,0.0013386778,-0.0025520967,-0.0029749877,-0.0030623,0.0027567341,0.0013118013,0.0023665235,0.003307041,-0.0023977265,0.001328795,0.00093963207,0.0020314998,-0.0011511538,0.0031111343,-0.0019390258,0.0023383184,0.0023221206,-0.00013002868,0.0016833812,0.002204459,0.00053311785,0.0024539276,0.0008146413,-0.00050539273,0.00246284,0.0015712274,-0.0010908078,0.00056657754,-4.3976004e-05,0.0016484325,-0.001798511,-0.0013812293,-0.00032890192,0.0012704257,-0.0021747404,0.0026145978,-0.001031307,0.0019252293,0.0009606146,0.0022720098,-0.0014890677,-0.0011086978,0.0010141357,-0.0009059322,0.0019839187,-0.0020120388,0.00086824934,-0.00024657708,-0.00016556935,0.0008647264,-0.0007553298,-0.0014205003,-0.0028479262,0.0008296992,0.001783483,-0.001985164,0.0030260985,0.0013467848,-0.0017389115,-0.00044807076,0.001292843,-0.0023195094,0.00069043634,0.001821558,0.00209541,0.0017797535,0.0012112014,-0.0009231408,-0.0020280746,0.0027138365,-0.0024252587,-0.00055082195,-0.0010679566,0.0021425488,-0.0020851688,0.0011275354,0.0006778234,-0.0013552599,-0.0027304268,-0.002679644,0.0011559572,-0.003187652,0.0019142681,-0.0009741908,-0.0030668066,-0.0016909767,0.0025746895
thrive,-0.00057380396,0.0021353785,-0.0030921788,-0.003048844,-0.0017340593,0.000317413,-0.0023918715,-0.003148675,-0.0029618896,-0.00015433789,0.0024711704,-0.0027928627,-0.0017776731,0.0005058344,0.0011064446,-0.0028193886,0.002622587,-0.0027387918,0.0015787677,0.0031384365,0.0018867246,0.002057621,0.0027455436,0.0011509708,-0.0023814861,0.0019156893,-0.0027709801,-0.0019079546,0.0019685586,-0.0026431342,-0.001956793,-0.0011861213,0.00113102,0.0017398989,0.0006850918,0.0017028507,-0.0008756912,0.001450661,-0.0023494656,-0.0005534148,-0.0025816003,5.793532e-05,0.0015660528,0.0016000104,-0.0015517569,0.00058349094,0.0026037423,-0.0018579395,-0.0012625849,-0.00019918005,-0.0015732534,0.0028989534,0.002514043,0.0030738048,0.003120962,-0.002816946,-0.0001599133,-0.0025354603,-0.0016032556,-0.0029465687,0.0011385913,3.548304e-05,-0.0023052266,0.0026543613,0.00031766016,9.952386e-05,-0.0011880219,-0.0011155355,-0.0008808124,0.002540725,0.0007981976,-0.0017236435,0.0015766466,0.0003301656,-0.0009110494,0.0025698165,-0.0013157463,0.0024771735,-0.0014051449,-0.0024521542,-0.0014988446,-0.0012994993,-0.00023480097,-0.00061483664,0.0017037392,0.0018168561,-0.00057961186,0.0012445644,-0.0006761551,0.0002448686,-0.00045547922,-0.0008209415,-0.0015722744,-0.0014205957,4.2340755e-05,0.0005498163,-0.0031495697,0.0020254524,-0.0005602058,-0.0009914597,-0.0015980247,-0.0014388497,-0.0016001995,-0.0032679904,-0.00025913795,-0.0025974624,-0.0016040083,-0.0024583268,0.0033118944,-0.00045196494,-0.0025847475,0.0018388967,-0.002688785,-0.00063742837,0.0009118219,-0.0023597153,-0.0029111756,-0.0022138576,0.0024894476,0.0030192323,0.0013304993,0.00080122787,0.0013792836,-0.00135681,0.003252679,0.0022964403,0.0013712446,0.0029829629,-0.0027979212,0.00031136235,0.0029640698,-0.0003130452,-0.0022459587,-0.00075626053,-0.00092947204,-0.0008327421,-0.00061472773,0.002427556,-0.00010015647,0.0014141126,-0.0012505102,0.0027441247,-0.0021673853,-0.0031127592,-0.0013798289,-0.0024552664,-0.0016255382,0.00016493241,0.0007949507,0.000579956,0.0016691932,-0.00046521504,0.00076073327,0.00011714776,0.0026151342,0.0026755962,-0.0006578306,0.00041914423,-0.0020106372,-0.0015861957,-0.002323608,-1.0561943e-06,-0.0016382333,-0.0013487657,0.0005015679,0.0008700025,-0.0030394038,0.0005824701,0.00171007,0.0013868547,-0.0009689868,0.0031601996,0.0031497586,-9.05633e-06,0.00028509894,-0.003082757,-0.0016016368,-3.3833585e-05,0.0013478303,5.2817664e-05,-0.0029082124,0.0019382902,-0.0024716926,0.0028512597,0.0018387954,-0.002258482,0.0009474957,0.0025727607,-0.002036346,-0.0021823044,0.0030663454,0.00060159725,0.0032368163,-0.003302212,-0.00050047,0.002299943,-0.00048772732,-0.0005855254,-0.0023596713,-0.0018885898,-0.0021737032,0.002974422,-0.0005282271,-0.002761165,0.0026719857,-0.0009869632,-0.00044400175,-0.000225269,0.00094227196,-0.00157226,-8.593877e-05,-0.000948505,0.0029253133,0.002292967,0.00036651452,-0.0020220978,0.0010442039,0.00037882925,-0.0020414598,-0.0019174401,-0.0010321942,0.0007955007,-0.0027050055,-0.0016639475,0.0026995086,-0.0012307696,0.0026526423,0.00017860254,-0.0018447908,-0.0016546997,-7.172744e-05,0.0015308928,-0.0020278255,-0.0018360666,-0.0022703302,0.0022488202,-0.0008012569,0.0013386841,-0.0005421297,-0.0024718242,-0.00042277973,0.00013436795,0.0011954642,-0.0028920022,-0.0022684543,-0.0021856371,0.0009974292,-0.0012473857,0.00033904554,0.0013856828,0.0015062761,0.00078853924,-0.00095769326,0.00021354874,-0.0017972235,-0.0021175758,0.0029052424,-0.001350226,-0.0031059985,0.0012437372,0.0028180564,-6.276011e-05,0.0007549135,-0.0011823988,-0.0013974678,-0.0028732785,-0.002617668,-0.0030264112,-0.0019902003,0.0028292986,0.0031455536,-0.000559744,5.0922235e-06,0.0026176185,0.0004208521,-0.0017150907,0.00087601744,0.0006019286,-0.0012421282,-0.0016300499,0.003214574,0.0025495791,-0.002856714,-0.001841712,0.00047380367,0.00030503192,-0.002783668,0.00310939,-0.0017939329,0.0015337698,0.0030770365,0.00036343097,0.0014068616,-0.0009051657,-0.0032274493,0.0001999565,-0.00036129553,-0.003306903,0.002335206,-0.0024619962
pain,0.0017268914,-0.0014553,-0.0030627265,-0.0030265588,0.0020926048,-0.0017604537,0.0017645701,-0.00047295805,0.003242447,0.002395612,0.0032970353,0.0027904399,-0.0026325004,-0.0031889577,-0.0018443305,-0.00027537462,0.0016862623,0.0012068606,-0.00066746335,0.0016628056,-0.0011356357,-0.0022781286,0.0015805897,-0.003298535,0.00030764053,-0.0016674489,0.0025247405,-0.0012335702,0.00093980355,-0.00208572,0.0032338703,-0.0018591989,0.0011788203,0.001080901,0.0029616347,-0.0018391135,-0.0014429463,-0.0020834063,0.002043926,-0.0015208478,0.0016092132,-0.00030687157,0.0024413837,-0.0020159974,-2.4467108e-05,-1.6414415e-05,-0.0028444654,0.0029385572,-0.00071045186,0.0021628682,3.887042e-05,0.0017081436,0.0007293924,0.0029626382,-0.0027737154,0.002847115,0.002895993,0.00035028494,0.0014773258,0.0012721943,0.0013473715,-0.0009904618,0.0009420895,0.0002741925,0.0015927878,0.0028320632,-0.0025689167,4.963504e-05,-0.0029244858,-0.000542401,-0.0030265728,0.0010592197,-0.0005301672,-0.0002344893,0.0021265042,-0.002689433,0.00037652827,-0.00079609564,-0.0012439938,-0.002400455,-0.002663694,0.0027649133,-0.002473405,0.0016550211,-0.0012483213,-0.00037898825,0.00091553974,-0.0028602134,-0.0018594819,-0.0025848565,-0.0031339084,-0.0015588447,-0.0010411518,0.00016820141,-0.0001964869,-0.0026024098,-0.0012476988,-0.0009036719,-0.002147953,-0.0021269065,-0.0008764565,-0.0026319155,-0.0027479844,-0.0025435996,0.0011774229,-0.0025415777,-0.0012317497,0.002222565,0.0024622541,-0.0021249058,0.0022728546,-0.0025950584,3.3300625e-05,0.0022122853,-0.0009395957,0.0030869436,-8.9073976e-05,0.0015634777,0.0023379049,-0.0028792808,-0.0020289577,-0.002413108,-0.00038738962,-0.0023620196,2.1426393e-05,-0.0026727198,0.00018708772,-0.00013933459,0.0021527696,-0.0029578034,-0.0010644483,0.0019997323,0.003098517,-0.0005871944,0.00026067352,-0.0020027289,0.00027079857,-0.0027063575,-0.002555742,0.00044500423,-2.954136e-05,0.0018503484,-0.003246311,0.0005526461,0.00053260627,-0.0017729946,1.2296361e-05,0.0020191798,-0.002216279,9.1734044e-05,0.001295528,0.0005301587,0.0009466545,0.002740392,0.002214558,0.0011911003,0.0026532232,-0.0025632859,0.002514367,0.0013278751,-0.001958111,-0.0013896619,0.002112894,0.0019436601,-0.0032994796,0.00040604244,-0.0001230503,0.00027616107,0.0023694518,-0.0023796754,0.0032200688,-0.0031712418,0.0020866427,0.0031817963,-0.0012776176,-0.0031578522,0.0020813833,-0.003026391,-0.002776506,-0.0002759087,-0.0022273979,0.0029300896,0.0026146686,0.00027215507,0.0026454658,0.00330544,0.0017525825,0.0014615927,0.001773314,0.0021231845,0.0015936629,0.0021400722,-0.0025153584,0.0029694831,0.0027973638,0.0031089915,-0.0029949013,-0.0011626707,-0.00012365243,0.0014063322,-0.002754604,5.7390433e-05,0.0019995698,0.0031929682,-0.000956545,0.000596439,0.0020962649,-0.0006732863,0.0006539979,-0.003112626,0.00024680383,0.001513504,0.0014862193,-0.0032633462,-0.0017471598,0.0009846771,0.000500522,-0.001621678,0.0019185167,0.0011756445,-0.0026192486,0.0032939247,-0.0025835903,-0.0010167507,0.0032276355,0.00037517137,-0.0018431918,0.00035892872,-0.001369138,-0.002257023,-0.0025895936,0.0015800357,-0.0030216887,0.0013844626,-0.0018658286,0.0018274373,-0.0014398587,-0.0018571635,0.00212794,-0.002922187,0.00047997283,-0.0007161991,-0.0022570859,-0.002537823,0.0022554782,-0.0014991242,0.0015514281,-0.0032113327,0.00063177117,-0.00064631156,-0.0019538873,-0.00092524564,-0.0028883524,-0.0011657097,-0.00090928184,-0.0007784155,-0.0016954872,-0.0030810332,0.0017478608,-0.00044150482,0.0020730584,0.001052761,0.0028664581,-0.001215262,-0.0029702345,0.00045983042,-0.0029968203,0.0020307924,0.0027953004,0.00015295965,0.0025738236,0.002835501,0.001399654,0.0018000469,0.0030769473,0.0003933362,-0.002758896,-0.0027777986,-0.0006251521,-0.00021578974,0.0029430399,-0.0031185956,-0.0008850632,0.0030450856,-0.0004952506,-0.0030161135,0.0006599078,-0.0019254352,-0.0018352427,-0.0021264334,5.3058826e-05,0.002428916,0.0013860584,0.0027211711,0.0029712578,0.0015338915,-0.0020333426,0.0023498705,-0.0031691878,-0.0016153879
respiratori,0.0026761503,0.0026458642,-0.0018127667,-0.0026512507,0.0027004685,-0.0012821424,-0.0013339685,0.002422364,0.0018082417,0.0012731098,-0.00041407242,0.0028764177,0.0028198333,0.002322526,0.0030246906,-0.0019338595,0.00033625498,-0.0005492919,0.002119893,0.0032548814,0.0017298156,0.001341464,0.0021781204,0.0019512535,4.731607e-05,-0.0027894054,-0.00073280063,0.0030117475,-0.0017034442,0.00032289227,0.001631683,-0.0023051933,0.0027370795,0.0004825271,0.0008103616,0.0027736707,0.00049399864,0.00028243396,-0.0031522939,0.0033004882,-0.0032887615,0.0028541677,0.0016884243,-2.4013023e-05,-0.0026169561,0.0031075212,-0.00044011802,0.0017920987,-0.0010183571,-0.0016311946,6.444166e-05,-0.0026785086,-0.0022261073,-0.0031496412,0.0017772376,0.00016619786,-0.0003006011,0.0017005554,-0.00066195044,-0.0024474533,0.0009581428,-0.0020011126,0.00016445067,0.0031603917,-0.0003383107,0.0020565807,0.001496588,-0.0011709075,-0.0017502259,0.0029347506,0.0007000888,-0.00015096212,0.00028878235,-0.0016477337,0.0011778063,-0.0010213742,0.0013964601,-0.0015026991,-0.00025538728,0.0013191189,-0.0023850703,-0.0008545891,-0.002905139,0.00053639075,0.0006722446,0.0008109174,0.00036284438,4.515208e-05,0.00075139024,-0.00032073434,0.0019790116,-0.00097528053,-0.0016790745,-0.0017776918,-0.003208573,-0.0026978753,0.00069529196,0.0013333117,-0.0019277041,-0.0032233146,-0.0020624844,0.001551257,-0.0030043707,0.0016944873,0.0021206222,0.0020359731,-0.0025423886,0.0009311611,-0.0018277626,0.0030211657,-0.0014277975,-0.0007783852,0.0017490203,-0.00026549547,0.0017101767,-0.0014041539,0.0016664742,-0.0032652647,0.0020331286,-0.00042264376,-0.0018760569,9.485767e-06,-0.0004171421,-0.00025014987,-0.00059591566,-0.0030823818,-0.0025857354,-0.0022685882,-0.0028826566,-0.0014977761,0.003075713,-0.000580272,-0.0025252718,-0.0019670187,0.0011973031,-0.00088539574,-0.0005173469,-0.001420879,0.0019840943,-0.0026315462,-0.0025068815,0.002490627,-0.0023202123,0.000718189,0.00013430933,0.0032181663,0.0014035185,0.00069277507,0.0009101141,0.00075446116,0.0007426136,-0.0009307119,0.0013541087,0.0020399848,0.002956104,-0.00023694026,-0.000419127,0.0021796061,-0.0028282444,-0.00021956209,-0.0022182066,0.0016036684,-0.0029989516,0.0010980001,0.0030032422,-0.0006918672,-0.0029574155,-0.0027351622,0.0010741669,-0.0017656048,0.0021400396,-0.0003922875,0.002616617,-0.0001556715,-0.002066018,-0.0019015674,0.00026861907,-0.0016147409,0.0021915366,-0.0011570285,-0.0018611333,0.00031443674,-0.0016306271,-0.0027387713,-0.0017715876,-0.0006111998,0.00015421897,0.0012218376,0.0022748057,0.0022401654,0.0019518008,0.000108159154,-0.0019629167,0.0029923106,-0.00020298612,0.0015519274,-0.00046976062,0.001924873,0.0017683981,-0.0024324162,-0.00092115917,2.4485022e-05,0.00067194196,-0.0030945116,0.001601883,0.001122881,-6.844891e-05,-0.0011719968,-0.002528927,0.002527738,-0.002855282,-0.0024681152,0.0014716272,-0.0028274462,-0.0010984403,-0.0006907336,-0.0006459664,-0.002297506,0.0014285818,0.0003233697,0.0012184181,-0.0004444037,0.0023068443,-0.0031807618,0.0019423945,-0.0017146476,0.0005790129,-0.00232128,-0.0008345685,-0.0021336747,-0.0011193028,0.003238655,0.0008925308,0.0005466927,-0.0020309405,0.0018669455,-0.0027081154,-0.0007615484,-0.0021588425,-0.0021322216,0.00077607034,-0.0011071443,0.0007901879,0.0013100975,-0.0020748996,-0.00060711143,-0.00091876194,-0.0032609284,-0.0032807817,0.00038180937,0.0014681332,7.085229e-05,-0.0016188336,0.0012160933,0.0005454033,-0.0031502484,0.002399522,0.0025888393,-0.002605576,-0.00027478323,0.0020034893,-0.0009025539,-0.00010286602,-0.0014277016,0.0020356097,0.002332156,0.000708666,-0.0015569369,-0.0006346508,-0.0013278987,-0.0032506455,0.0025948663,-0.00019628981,-0.00021265123,0.0023696038,-0.0030071116,0.0021087194,-0.0025161365,-0.001799065,0.0016792045,-0.0011634799,-0.0011742088,-0.0021129113,-0.0012922047,-0.0008878192,-0.0013599666,0.0031380774,0.0031582073,-0.000121239915,-8.547167e-05,-0.0018853716,0.0026483708,-0.0016413728,0.0019678955,0.0030388231,0.00192529,-0.00031283216,0.0018441167,0.0023256275,-0.0012961554
tract,0.00023303393,0.0021808143,0.0019422373,-6.876058e-05,0.0008012128,-0.002181247,-0.0030888242,-0.0015915664,-0.0017937016,0.0002065094,-0.0013364587,-0.00012888029,0.0025311706,0.003251982,0.002640472,0.00079168373,-0.0008812152,0.00079603,-0.00089346647,-0.0030102585,0.0022988715,-0.0028907543,0.0012662221,-0.0013341645,-0.0018335709,-0.00034226725,-0.0022082608,0.0028503574,-0.0022952757,-0.003006013,0.0019521747,0.001493781,0.0015721106,0.00081237336,-0.0012548248,-0.0016941666,0.00059583003,0.002789528,-0.0018982823,-0.0008016758,0.00062952767,0.0022365018,-0.0021258378,-0.0015147469,-0.0008790464,0.00045845515,0.0018125122,0.00188202,-0.00290324,0.002432942,-0.00080825435,-0.0009340783,-0.002961462,-0.0019248335,0.0031367044,0.0010658004,-0.002661763,0.0009384145,-0.002361801,-0.0030224037,0.0012803752,0.0006593599,0.0004159286,0.002950587,0.0020775124,-0.0016663576,0.0009174989,0.00085843366,0.000783108,0.0027437897,-0.0023141925,-0.00075648015,0.000335339,0.0021155314,-0.00023733781,0.002674229,-0.0015628379,-0.0030026748,-0.0023520857,-0.0013320079,0.0031849393,-0.0017044549,-0.0016022485,0.0027722497,-0.0024646607,0.0006935478,0.0018892797,-0.0025133956,-5.8220834e-05,-0.00077724026,0.0018753514,-0.0015090404,-0.0021865014,0.0033068527,-0.0015076695,0.002572628,-0.0028081306,0.0023525252,-0.0011487938,-0.002582317,-0.0004036749,-0.00078086957,-0.0005845283,-0.00040625714,-0.002175249,-0.0011988493,-0.0010546109,0.0025713625,0.001937839,-0.00029266227,-0.0015917242,0.0017601689,-0.002956012,0.0005600477,0.0013666801,-0.00063422637,-0.0014787684,-0.0027487073,-0.0027591223,0.002337456,0.001212902,-0.000101267964,0.0032339091,-0.0028552813,0.00018678528,-0.00014019954,-0.0026729796,-0.0030639828,0.0023872354,-0.0011879615,-0.0026307479,0.0026921395,-0.0020608888,-0.0010433856,0.0005831773,-0.001071811,-0.0026520884,-0.001303349,-0.0030191678,0.0004432857,-0.0015493187,-2.2439255e-05,0.00092147465,-0.00079365785,0.0029486346,0.0023409042,-0.0002008539,-0.00020822688,0.0002637675,0.0022379125,0.0029816218,-0.00069673045,-0.0005401261,-0.00096891733,0.00015670381,-0.0021342188,-0.00063000014,-0.002881243,0.0002092492,0.00051428605,0.0012586166,-0.0009395084,0.0019509859,-0.0023412977,0.0032576611,0.00017258471,0.0007618031,0.0014321645,0.00014300701,0.0008966372,0.00055319624,-0.0032076885,-0.0010342392,-0.000856348,-0.0030904806,0.001126545,0.001639592,-0.00073098583,0.0024688824,-0.00040242556,-7.8442434e-05,0.0019506495,-0.002838901,-0.0023220994,0.002416082,-0.0021656414,0.002837635,0.0017885019,-0.002705936,0.0027768128,0.0021229656,-0.002241576,-0.0028676684,-0.002936739,0.0013077161,0.0020855637,-0.0007005048,0.00042331274,-0.00280153,-0.0016992121,0.0015542587,-0.0030284538,-0.0030929893,0.00031989548,-0.0028638334,-0.002332811,0.0015645025,0.0026448355,-0.00243881,0.0027006913,0.0031341908,0.0015587596,-0.0014920163,0.0032165926,-0.0025860989,-0.0012897154,0.00061877386,-0.0026001434,-0.003317869,0.00095389946,0.0027354662,-0.001687478,-0.0014453717,0.0013234238,0.00021662306,-0.0028521174,0.002189902,-0.0010654287,0.0011934959,0.001044946,0.0029611122,0.002915897,0.0024200692,-0.0027329985,0.0003973193,-0.00030229226,0.00028815385,0.002965123,0.001599052,-0.0030199352,0.0033071712,-0.00029061324,0.00010957494,0.0016566854,-0.0020674395,-0.00015942921,0.00046140258,0.0023654427,0.0014210299,-0.00064413005,-0.0028026053,-0.0012753259,0.0029365579,-0.0031604748,0.0032301364,-7.08714e-05,-0.0003631518,0.0032020009,0.0031557071,0.0027530103,0.0030159657,-0.0032970582,0.002514471,-0.0031501108,-0.002585866,-0.0029264833,0.0007239029,0.00240467,-0.0021288998,-0.0009151196,-0.00078638404,-0.0015003752,-0.0004496519,0.0015951201,0.0012587736,-0.001068921,-0.0012387392,-0.00076360244,-0.0011150176,0.0013092625,0.003239127,0.0026100564,-0.0025334845,-0.002146932,-0.0030680418,-0.0019578622,0.0011908745,-0.002002752,0.00056365016,0.0029647627,0.0011147484,0.00040976604,0.0029676047,0.002117985,-0.00048620682,-0.0020535165,-0.00036541524,0.0024258448,0.0024989378,-0.0013548143
pulmonari,0.0033150474,0.0007898863,0.0017130302,-0.0018774245,0.0014588748,7.730126e-05,-0.003177466,0.0017387187,-0.0030116048,-0.002147105,0.0009117794,0.0030824551,-0.0007224187,0.0023318764,0.00171469,0.0013545005,-0.0020477937,0.0016669558,-0.0027797567,-0.0014526126,0.0018153653,-0.0027247777,0.001922645,-0.0011769214,1.4784235e-05,-0.0024442114,-0.0020965084,-0.0011110511,0.0028619335,0.0017720809,-0.0032131441,-0.0021744836,0.0011609963,-0.0028249586,0.0022053008,0.0020655436,-0.0030711784,0.002887082,0.002607156,-0.000591465,0.00059695746,-0.001910016,0.0020820554,0.002580834,0.0013629448,-0.002946978,0.0016849057,-0.0009889414,-0.0007418357,0.0020332956,0.0006331262,0.0015721605,-0.002107832,0.0017474353,-0.0012042172,-9.657106e-05,0.0020861558,0.0013524975,0.002499552,-0.0013029345,0.0011606272,0.0024377592,-0.001096126,0.0019077855,-0.0031685156,0.002966424,0.0012437243,0.0017752291,0.0015390378,0.0014913846,-0.0011119856,-0.0020715713,-0.0007539444,0.00043272894,-0.0009892047,-0.0028031853,-0.0021022677,0.0028167814,0.0031292266,0.002021886,-0.0013817005,0.00023782722,-0.0028363497,0.002265597,0.0001562035,0.0024708328,-0.0018222332,-0.000932934,0.0009842912,0.0011650396,-0.002155939,-0.00244211,0.00071373105,-0.0030089645,0.001978438,0.0018538183,-0.0012633473,-0.0018636533,-0.0027764433,-0.0005973989,0.0023157508,-7.507294e-05,-0.0026415482,0.00295389,-0.0028556634,0.0018347462,0.00217964,0.00032478335,-0.002944915,0.0020641936,-0.0026110555,-0.0016623643,0.0032213037,-0.0027523434,-0.0025274768,-0.0016157429,0.0011739501,0.0006501854,-0.0018377933,-0.0011296389,0.0028645238,0.003280005,0.0033051863,0.00033192383,0.0013256574,0.00046900095,0.0005854141,0.0015921377,0.00071595964,0.00012527322,-0.0010359908,-0.0021385492,0.0026755112,-0.0019861457,0.00091753964,-0.00026521712,-0.001224804,-0.0016358197,0.0010678697,-0.001992408,-0.0024980644,-0.0009056206,0.0015650252,0.00201692,-0.00047300445,0.002408676,-0.0025483528,-0.0015862032,-0.0026407898,-0.0020358132,0.0024272406,-0.0031507595,-0.0028953047,-0.0032469274,0.0030456996,-0.0008533684,0.0003095409,-0.00202888,-0.0008328088,5.2585932e-05,-0.000808755,-0.0024583135,-0.0020979396,0.0008746405,-0.0031891786,0.00037795887,-0.00067487994,0.0027446465,-0.00012948326,0.0021058063,-0.002356321,-0.0025191172,0.0018763846,0.00031611274,-0.0016938177,-0.0008995936,0.00296453,-0.0030958392,-0.0012254181,0.00035135195,-4.7537964e-05,0.003196032,-0.0006598979,-0.0023751287,-0.0026061633,-0.003298085,-0.002595255,-0.00201255,-0.0020122782,-0.00047896596,-0.00015924254,-0.001580675,0.00068425224,0.0012740038,0.0030417296,-0.0015892084,0.001736136,0.0024001717,-0.0012571926,-0.0024880467,-0.0011265199,-0.0023007395,0.0021736955,0.0031323484,0.0027578606,-0.0028597321,0.0016735852,0.0017025801,0.00188424,-0.0027891695,1.8513732e-05,-0.0022870267,-0.0029923979,0.00082142913,0.0032922078,0.0021655797,-0.0023818552,0.00072642247,-0.0013346163,0.0032979683,-0.0029387788,0.0032461344,-0.0021977297,-0.002333318,0.00051248196,-0.00023768836,-0.0028432095,-0.00021378773,-0.00012518244,-0.0020705415,0.0019191998,0.0010309914,0.0028018325,0.0024978744,-0.0022141857,0.0016170999,0.0018854045,0.0019278397,0.0017275151,-0.0016361688,0.0014604261,0.00043499257,2.0381008e-06,-0.0021448468,0.00052395766,0.0017249646,-0.003084257,0.0028884716,0.0009935424,7.1827185e-07,-0.0011051839,0.00012255581,0.0020349417,0.0015882003,-0.002054824,0.0026166236,-0.00019829362,-0.0027187767,0.0029102468,0.0016843509,0.0011995424,0.0026853755,-0.0025044705,-0.0019821124,-0.0006761551,-0.001350826,-0.00050105306,-0.0001809255,-0.0028456824,0.00063158217,0.00085251895,-0.00029995505,0.0016170046,0.00047439037,0.0020042977,-0.00071701844,0.0028491279,-0.0005149959,0.0009815223,-0.0012745569,0.0020340749,0.0010294453,0.00018284228,0.0029324272,-0.0026209245,0.0032649508,0.00023638866,-0.0007763001,-0.00137979,-0.0030396522,-0.0007342446,0.0009012398,0.0021878479,0.002988536,-0.0029167975,0.0030256244,-0.0029469403,0.0012323092,0.00270484,-0.0008309635
sp,-0.0026224449,-0.0027842224,0.00039231154,-0.0002508526,-0.0031747557,0.0010407433,0.0007748743,0.0014883326,0.0014880982,0.0010829238,-0.0032881412,0.0019069737,0.0014162589,-0.0026017022,-0.0007000821,0.00010851707,-0.00020334325,-0.00033099018,-0.0018550997,-2.387698e-06,0.001474751,-0.00023047952,0.00027623167,0.00069910724,-0.0013214122,-0.0026175762,0.0030671712,-0.0032734254,-0.0008236792,-0.00043548818,-0.0025507126,0.000610035,0.0026419032,-0.0005145301,0.0027006813,8.80602e-05,-0.0019135464,-0.0006618462,-0.00025538867,0.0020939717,0.0023792584,0.002065254,-0.0019962122,-0.002325944,0.0020359315,0.00082186254,0.0018000128,0.00017099363,0.0026318994,-0.0029588202,0.0033003322,-0.0027460689,-0.0005704959,0.0021022889,-0.0030913367,0.0014413691,-0.0023229483,-0.0022843273,0.0007654611,0.0005878622,-0.0009311994,0.0026245143,-0.002332846,0.00014917503,0.0029054473,0.0006828773,-0.0022850505,0.001189858,-0.0016873373,0.00018375569,0.00095449534,0.0025302013,0.0024668653,-0.0016448274,0.0031746493,-0.0018188962,0.00253911,-0.002651086,-0.0026076676,-0.00035558848,-0.0027341358,-0.0011525934,-0.00015806608,9.812712e-07,-0.003322686,-0.0021686056,-0.0024740594,-0.00012676315,0.0017509088,-2.167871e-05,0.0033312358,-0.0012876511,0.0027074064,0.0020235856,0.0027714206,4.5795397e-05,-0.0001348925,0.0006300839,-0.003321085,0.0030290359,-0.0008004076,0.0025130704,0.00068694726,0.00097100035,-0.00041142365,-0.003315141,0.00046762062,0.0009554037,-0.0032831784,-0.0012979849,-0.0007817705,-0.0016898527,0.0013220448,0.0007056849,0.0014450657,-0.0021681436,-0.0020022567,0.0015755282,0.0022767652,0.0018333248,0.0015987799,-0.0024089853,0.002724166,-0.0023273483,-0.0025587385,0.0028311843,-0.00081850303,-0.0031274199,-0.0010403952,0.001991594,-0.00095933944,0.0016575143,4.0742816e-05,0.001356782,0.00038746194,-0.003097647,-0.0012236165,0.0029530013,0.0005134504,-0.0019702527,0.0023449415,0.0024887612,0.0024261365,1.4930566e-07,-0.0030454118,-0.0011724544,0.0017029786,-0.0021676165,0.0032454531,-0.003274979,-0.0027049528,-0.0017797073,0.0020147446,-0.0025551403,0.0028741802,-0.00328001,0.0011590202,0.0011103156,2.6492668e-05,0.0031953205,0.0017235536,0.00010399127,0.001584258,0.0021417544,0.0009996673,0.0031282108,-0.00044386857,-0.0028136082,-0.001493397,-0.00048723837,-0.002431948,-0.0005217617,0.0026529606,-0.0016825147,0.0017152189,0.0014400111,-0.00022900605,0.00035662224,0.0019117728,-0.0022004528,0.0013095501,0.0029878158,-0.0011768842,-0.0025509382,-0.0030852281,-0.0030002054,0.0013004136,0.0017024769,0.0023426188,-0.0004865956,0.00034074354,0.0010148425,-0.003313332,-0.003148987,0.0015473474,-0.0028195616,-0.0010537796,-0.001434559,0.0019667796,-0.0011472375,0.003329451,0.00018016089,-0.0017244084,-0.0012258858,0.00042504308,-0.0017923608,0.0024583547,0.0030186272,0.001437725,-0.00245583,-0.0019785445,1.7461489e-05,-0.00034896136,-0.0018547577,0.0026413396,0.0020798666,-0.0014073254,0.00076797605,0.0017109842,0.00080552854,0.0028559715,-0.00042917486,-0.0021729798,-0.00027517782,-0.0027807096,0.003278139,-0.0028681185,-0.0004934589,-0.00095020304,0.0010579441,0.0016584186,-0.0027562322,-0.001471305,0.0001682721,0.0013449988,0.0017095979,-0.00047869407,-0.00022607754,-0.002612124,0.001508752,-0.0025452075,0.0010876316,-0.0011531599,-0.0025977131,0.00231302,-0.00015694165,-0.003194691,-0.003122703,0.00019995112,-0.0027214263,0.0012510798,0.0011543097,0.0011096711,-0.0018641396,0.0026566696,-0.003013492,0.0025030868,-0.0002001382,-0.0005112607,0.0013294826,-0.0008374537,-0.0014607868,-0.00079777575,-0.0020652763,-0.00012619862,-0.0017909879,0.0015548836,-0.0031872692,-0.0014663845,-0.0030593728,-0.003215538,-0.0002595288,-0.0027081275,-0.0019107134,0.0009189515,-0.00047409648,0.0010281197,0.002763901,-0.0032267864,0.0020277253,-0.0026511548,0.0021836453,0.0024900853,0.0028821107,-0.0026548563,0.0011318987,-0.002626868,-0.00041324488,-0.0017406269,-0.0028451516,0.0016356772,0.0014754169,-0.0013537399,-0.0026087915,0.0011841032,-0.0013109696,-0.0029538958,-0.0014697512,-0.0007090542,0.0029186711
fractur,-0.0021570413,0.0024475083,0.0020424784,-0.0016340581,-0.0005874658,-0.000835218,0.0010443503,-0.00013888993,-0.00091701734,-0.0030133289,0.0021432082,-0.003207075,-0.0028850432,0.00045642097,0.000991286,8.274658e-07,0.00012575343,0.00085851265,0.0006042219,0.0025192115,-0.0011461644,-0.0024117,-0.0026243632,0.0026378483,0.00065139413,-0.0019357133,0.0021278793,0.0028149462,0.0026466148,-0.0022789945,-0.0017127278,-0.00066720904,-0.0022088066,0.0015806495,0.0018869473,-0.00199794,0.0024030583,-0.002558355,0.002065947,-0.0015379352,0.00065240863,-0.0010888755,0.0011291939,0.0025738424,-0.00046402277,-0.001659283,-0.0028536387,0.0012184663,0.0014127298,0.0022376596,-0.0014261788,-0.003241196,0.0022768113,-0.0015069154,0.0014716837,0.0026937227,-0.0013136264,0.0005402718,-0.0011957381,-0.0022062925,-0.0018975303,-4.5539615e-05,-0.0025056666,-0.0006643887,-0.0008316852,0.0022397744,0.00045591054,0.0019494462,0.001268038,-0.0011773028,-0.0017015341,0.0032240786,0.0023604417,-0.0030155357,0.0017409832,0.0027347745,0.0030624059,-0.0026832412,-0.0006724499,0.0003688884,0.0009686851,-0.0005389781,-0.0015681483,0.0021648789,0.0023148719,-0.00012710167,-0.0019541092,-0.0014577077,-0.0017088802,0.0014230151,0.00017204242,-0.00078099506,-0.0030221718,-0.0004999883,0.002154195,0.002113193,0.0014103646,-0.0009566409,0.0030158206,0.00019813301,0.00037806353,0.0020617705,-0.0021953075,0.0021742666,0.0032653902,0.0012184037,0.0011453422,0.0014013858,-0.00065477827,-0.002696139,0.0004953469,0.00030213955,-0.0022692839,0.00065462495,0.0018180922,-0.002388217,0.0008393681,0.002596606,-0.0028693872,0.0011653216,-0.0028536965,-0.0026449135,0.0023654592,-0.0025234935,-0.00046083634,-0.0026379898,-0.0026198586,-0.0023705997,0.00013427102,0.00059960136,-0.0026340575,-0.002674871,-0.0010581472,-0.0006044414,-0.00205995,-0.0014040207,0.0012018383,0.0010316956,0.0021952027,0.0014075363,-0.0002939372,0.0009218181,0.0030182682,0.00063630106,0.0006083097,0.00036885156,-0.003098177,0.0017808317,0.0016802091,5.369489e-06,0.0030740479,-0.0019121089,0.001078288,-0.0026022592,-0.0029842146,0.00066606444,0.0015782774,0.002033169,-0.0028983522,0.0014588356,0.0008053855,0.0013916116,-0.00023304722,0.0018518729,0.0024290457,-0.0027949715,-0.0033118473,0.0023379556,-0.000319141,-0.0031193935,-0.0013665605,0.00039809797,0.0028097744,-0.0005620427,-0.0003386498,-0.0024599284,-0.002545291,0.00047849576,-0.00015662561,-0.0025668556,0.0002961528,-0.0029958172,-0.00083165755,0.0014069407,0.00036391252,0.0026155198,0.0022006514,-0.00039388335,0.0016485938,0.0020388395,0.002914795,0.003023625,0.0016352282,0.0015374232,0.0024041808,-0.00052769174,-0.0018815064,0.0029507382,0.00040128327,-0.0016804857,-0.00029210153,-0.0017427776,0.003040111,0.0011324558,0.0014286191,0.002168583,0.0027206976,-0.0015933817,-0.0021130103,-0.0012436367,-0.0012339152,-0.003152582,-0.0002088671,-0.0027034904,0.003252233,-0.0011370551,-0.0021105018,-0.0027117452,-0.0011945126,-0.0031861889,0.00026203354,0.0018043668,-0.00096099,0.0025520108,-0.0006319657,-0.0024241908,-0.0010435797,-0.0010492135,-0.002365675,-0.0032231836,-0.0013577706,-0.00053461135,0.0016661254,-0.00253059,-0.0016630176,0.00045896447,-0.0005604545,0.0011818155,-0.00062282995,0.001435694,0.0026701465,-0.0026357677,0.0012538502,0.0019976906,-0.0001887286,0.0022497498,-0.0018050225,-0.0015212212,-0.0026160218,0.0031551733,-0.003130724,-0.0010828414,-0.00014597161,-0.0016185308,0.0031520748,-0.0022838018,-0.0026712164,0.0030808114,-0.0027718965,0.003227553,-0.0013680826,0.0018921914,-0.000133178,-0.0013410184,-0.0025056829,-0.0020898583,0.0022805324,0.0021066358,5.2154606e-05,0.0021265047,0.0012843363,0.0012741853,0.0008860226,-0.0032395222,0.003093652,-0.0027301365,-0.0010027231,0.00047663835,0.001741551,-0.0030719617,0.00056628097,0.002119618,-0.0029197189,0.0031908771,-0.0017428894,0.0031878275,-0.0021801176,0.0021989897,0.003119092,-0.0030810975,9.7947894e-05,-0.002577142,0.0027094209,0.003189639,-0.0020123587,0.0002851805,-0.0007498721,-0.0025892733,0.00027902718,-0.0033051062
gi,0.0008791637,-0.0025758042,0.0019023516,0.0025232641,-0.0008420666,-0.0013350939,-0.0031776556,0.0016792938,0.0009747926,0.0029184276,0.0010884869,-0.00097323686,0.0011796996,0.002869558,0.0030911767,0.0025479265,-0.0028399548,-0.0025351855,0.002424841,-0.002493154,0.0010860558,0.002667567,-0.0010529907,0.002232142,-0.0027151664,0.002163369,0.0018564386,0.0011124373,-0.0027141164,0.0030505997,0.0027672749,-0.0005070981,0.0013650352,0.0021319631,-0.0005970039,0.0018366368,-0.001345331,-0.00042303975,-0.00040783655,-0.0013792055,-0.00022288978,-0.0025684338,0.0012156115,0.0030214048,0.0015868843,0.0021299645,-0.0015578393,0.001644418,-0.0022383693,-0.0016519397,0.0033032745,0.0021461942,-0.0016779569,-0.0020262378,0.0024033417,0.0009341132,0.002213819,-0.0022581408,-0.0003187623,-0.00032289283,-9.416016e-05,0.00075070193,-0.0022582347,0.0014575105,-0.0009362011,0.0028026921,-0.00034757165,0.0030635903,-0.00029544497,0.001715133,-0.0025424974,-0.0030310678,-0.00011350533,-0.00076698663,0.003307149,0.0015261055,-0.0018572505,0.002474699,0.00018705412,-0.0031591435,0.0018972661,-0.00067808415,-0.0031366586,0.0029295047,0.0024414812,0.002861364,0.00010521513,0.0025602304,0.0017464128,-0.0023125894,0.0031184896,-0.001172985,-0.003238205,0.0028620802,-0.0017398064,0.0028293228,-0.0026060853,0.003108939,-0.0019757403,0.001349637,0.0032528471,0.0014081341,-0.0007033866,-0.001649251,-0.0032572797,0.0013865524,0.0024902013,-0.0015834975,0.0019712483,0.002288731,-0.0029980156,0.00070994714,-0.0022875795,-0.0014210951,0.00029720046,-0.0023287463,-0.0013643354,-0.0025096308,-0.002335009,-0.0023417966,0.0032937706,0.0027878655,-6.304623e-05,-0.0008863646,0.0020710595,0.00045918988,-0.0029921643,-0.002378673,0.00034370413,0.0026726658,0.0010739159,0.0033000757,0.0021935592,9.545117e-05,0.0028917552,0.0030283432,0.002698484,0.0031565204,-0.0031421636,0.0011520124,-0.0026140744,-0.0023973016,-0.0028034693,0.001074109,1.4404068e-06,-0.0021287159,0.0018391241,0.0026230589,0.0014276181,0.002615921,-0.0014322348,-0.0021644551,0.0013145031,-0.0009578756,-0.002410044,0.0012404855,-0.0011181777,-0.0017333068,0.0008751309,0.0023070876,0.0021497016,5.5182958e-05,0.0028806448,0.0010008633,0.0021782217,-0.0003106936,0.00069225725,0.0020396137,-0.0032687339,0.001959403,0.00044181602,0.00203667,-0.0004591626,-0.0009030145,-0.0018562991,-0.0009681973,-0.00083956093,-0.0017325103,0.00031035938,0.002666,0.0017231589,-0.0025318435,-0.0024713324,-0.00097520574,0.0012807451,-0.0030905213,0.0020594238,0.0010522214,-0.0009484677,0.0030546433,0.0026916137,0.00024765334,0.0015904278,-0.0030947644,-0.002913017,-0.0010099418,0.0030966871,0.0010765869,0.0018698489,-0.0022515613,0.0014079448,0.00013658172,-0.00031054046,-0.0010730491,0.0016417187,-0.003047023,0.0017020005,0.0018724237,-0.0008183359,-0.0014138345,-0.0024533793,-0.0021344088,-0.0017182009,0.0010419436,-0.0016136995,-0.0004040142,-0.0029876686,-0.0012050564,-0.0002836278,-0.002652903,0.0010842165,0.003261335,0.0014516606,0.000631791,-0.0016494661,-0.00039924053,0.0007546721,0.00058107916,0.0029268474,-0.00031378653,0.002321964,0.0019241534,0.0009981162,0.0024577712,-0.0016494826,-0.0013031705,0.0023371386,0.0028807523,0.0010409233,-0.0013840753,0.0025700938,0.00090145215,-8.392067e-05,0.0029649264,0.0014536554,0.0013136055,-5.4341144e-06,-0.0029649904,-0.0010384456,0.00082473626,-0.0018578041,0.0023844705,0.0024852075,-0.0029850213,-0.0018444994,-0.0020018327,-0.00020894154,-0.00059577025,-0.00071633916,-0.00073203555,0.0011963992,0.003234802,-0.0015102638,-0.0027851823,0.00123149,-0.0021399963,0.0022465037,0.00089262513,-0.0026534635,-0.0026032582,-0.0030935225,0.00077599037,0.00090609095,0.00086008117,8.5248364e-05,0.00036835924,0.0010240516,-0.0005067189,-0.0027085487,-0.00020711748,0.0012356043,-0.0008631734,-0.00071555586,-0.00074269413,0.0024076542,-0.0009974043,0.0031295528,-0.0012878511,-0.0033310628,-0.0021778236,-0.0014529544,0.0004322398,0.0017063965,0.0006954505,0.0030216605,0.0002975828,0.0018765514,4.4344953e-05,-0.0006912208,0.0020844636
hypotens,0.0006731029,0.0027532314,-0.002765841,-0.0029173729,-0.00018031716,-0.000630943,-0.00078258035,-0.00019843856,-0.0016902244,-0.0026734034,0.0027514747,-0.0011137184,-0.0009477584,-0.0005484005,-0.0004102532,-0.003063053,-0.00059975544,-0.00044934233,0.0028827644,-0.0026534812,-0.001583234,-0.0006286852,0.00096182944,-0.0020066937,-0.0018491518,-0.002655049,0.0018440263,-0.0029056983,-0.0010827283,9.794315e-05,0.00048301657,-0.003313709,0.0028866355,-0.000685124,0.00011742234,-0.0029310652,-0.0027226447,0.0012568668,0.0013375266,0.0009950582,0.0019485911,-0.0023100534,-0.0004152477,-0.00090813596,-0.00046885211,0.0014924936,0.00045719187,-0.0024797872,0.0010795089,0.0020854874,-0.0020342222,0.0010765684,-0.0014373683,0.0029422534,0.0013767357,0.00067899504,-0.00033979694,-0.003036065,0.002884897,-0.0006058371,0.002458298,0.0012574117,-0.00275292,-0.00020556172,0.000915242,-0.00085500954,0.0032441274,-0.0016627169,-0.0023882138,0.0012659197,-0.0011899249,-0.0022960794,0.00067830365,0.0017569475,-0.0018325297,-0.0014601505,-0.00239218,0.00051647983,-0.0015854974,0.002811836,0.00024072647,0.0006210991,-0.0011124344,0.0024597296,-0.00022012551,-0.0027374956,-0.0024473723,6.8747206e-05,0.002578755,0.0010290511,-0.0017740771,-0.002251048,-0.0032848278,0.0013076627,-0.0031727485,0.0010614682,0.00055422704,-0.00027391594,-0.003317707,0.00196141,-2.9819012e-05,-0.003312003,-0.0025111865,0.0028562702,0.0006301967,-0.0027268752,-0.0002728788,0.0018017269,-0.0031063461,-0.0022916559,-0.00034123618,-0.0032547712,0.00016010404,0.0006485939,0.0028468263,0.00032799004,0.00043425005,0.0016264899,-0.0014304209,0.0024102703,5.3474505e-05,-0.00022629817,-0.0032325657,0.00016878605,0.0022630347,0.0005870072,-0.002696878,-0.001109685,-0.002012566,0.0020066842,-0.0021558595,0.0017522995,-0.0017525891,-0.0022748364,-0.0025286174,0.0012704047,-0.0029335911,-0.0019034076,-0.0023535788,-0.0014390127,-0.0013448723,0.0004951799,0.002161693,-0.0003989331,-0.0018290563,0.0005192999,0.0018787308,-0.0017573452,-0.0017798678,0.0017232974,0.0020886182,-0.0025900404,0.0027375969,-0.003281861,-0.0024723895,-0.0019599092,0.0006048834,1.8674134e-05,0.0011557798,0.0023379258,0.0015975125,-0.0010677171,-0.0021448159,-0.002750033,-0.00016036988,0.003243705,-0.0025580819,0.0012163528,0.001461705,-0.0014461641,-0.002321927,-0.0018144266,-0.0016793036,-0.0023331023,0.0019785718,-0.002589625,-0.0009780307,0.0014598068,5.996108e-05,-0.0025619464,-0.0015626005,0.001197364,0.0008474052,-0.0006524797,-0.00024124225,0.00084985414,0.0004744768,-0.000881304,0.0017804411,-0.0025530844,0.0021223326,-0.0033308216,-0.00075131457,0.0022275308,-0.00120103,0.002178125,0.0018107255,-0.0024655631,-8.0932776e-05,-0.0014984091,-0.0026869199,-0.00029727977,0.0021296786,0.0029121968,-0.0016807973,-0.0008859893,-0.002012593,0.0003872653,0.0008880905,-0.003279264,0.000803895,-0.0029378403,0.00013289292,0.0015866872,-0.0017520281,8.597295e-05,-0.0007274715,-0.0028957545,-0.00080330967,0.0014856028,-0.0028586083,-0.0019790907,-0.00018204888,0.0026791382,0.00046871265,0.0032536045,-0.0025567987,0.002997299,-0.0015762969,-0.0021185367,-0.0026121459,0.0006151982,-0.00091851474,0.0025174876,-0.00017138719,0.0008364912,0.0019867981,-0.0028827398,-0.0006862291,-0.0015937567,-0.0028899137,0.0011391008,0.00080460426,-0.00080073037,-0.0006382179,-0.0022436564,-0.0010868653,0.0004368615,0.0025794483,0.0023557115,-0.0011979175,0.0012027812,-0.000859795,-0.0015732944,-0.0012083006,-0.0020488803,0.0011671202,-0.0025966584,-0.0025027227,-0.00150122,0.0024660877,0.00060908357,0.0018196551,0.002738777,-0.002078238,-0.0015422221,0.0025601229,0.0016468536,0.0015539161,0.0029974862,0.0029373467,-0.00089204154,0.00034646867,0.0018272566,0.002963845,0.0032823991,-0.0027550168,-0.0017084853,0.0016636351,0.0003186496,5.4395598e-05,0.0025014328,0.00213443,-0.0024123676,-0.0008646278,-0.0028279114,0.0023480074,0.0009221776,-0.00074287056,0.00062659424,0.0025546507,0.0027105217,0.0020580709,0.0010551035,0.00051638804,0.0027131431,0.0004387772,0.00014748295,-0.0031843802,0.00084136525
left,-0.0028355378,0.00217522,-0.0019314718,-0.0005778213,0.00033741258,-0.00063021656,-0.003017962,0.0014113501,-0.0021899457,-0.002934064,0.0012960929,-0.00025403948,0.002159042,-0.002356946,0.00030398826,-0.00024509258,0.0019284672,-0.003297385,0.0019763953,-0.0030095172,-0.0025868712,0.00023332924,-0.000880254,-0.0013071997,-0.0017426502,0.0013689131,-0.0031391408,0.00038418995,0.0013908454,-0.00011538541,-0.0001426466,0.0024195951,-0.0032071895,-0.003022731,0.0014829888,0.0029221869,-0.0025779402,-0.002764366,-0.00022437796,-0.0029926763,0.00072245434,0.0030657274,-0.0020514962,-0.0022325118,0.0029699053,-0.00026067288,-0.0011807025,-0.00085665105,-0.0029283685,-0.0015403222,-0.0013576393,7.910941e-05,0.00021480113,0.0025289345,0.0022370392,-0.000447089,-0.0033011576,0.0008646908,-0.0020566254,0.0030584002,0.0012584747,-0.00034890437,0.0022133023,-0.0011462579,-0.0012510818,-8.794824e-05,0.0028100212,0.0020307652,0.0004984187,0.0012095008,-0.0009911461,0.0030876098,-0.0023899258,-0.0011329214,-0.0017960963,0.0029557145,-0.0010680066,-0.00076540053,0.002385732,-0.00317498,-0.0009908164,0.00095618074,-0.002092783,0.002999988,0.00041315032,-0.0017336543,0.0016297009,0.0026989828,0.00034912594,0.0022902943,-0.00223323,-0.0011921155,0.003335522,0.0019131673,0.0005744833,-0.0011020802,0.0014740922,0.00086302747,0.0027737287,2.6732356e-05,0.0028376877,-0.0019509335,-0.0025135463,-0.000492577,0.0009803098,-0.000687697,0.0019973498,-0.0028386516,-0.003024702,0.002539714,0.002122555,-0.0013606597,-0.0013516294,-0.0011784881,1.0828866e-05,0.0030546566,0.00035798925,-0.00069632696,-0.0011424617,-0.00076200237,-0.0030591872,0.0023187383,-0.0030174137,-0.0010421054,-0.0023906843,0.0030551034,0.0019482039,-0.00018266136,0.001294032,-0.0007698186,0.0032947476,-0.0011634097,0.0016486358,-0.0012764694,0.0031614397,0.0032399923,0.0020846648,-6.038347e-05,-0.00058864366,-0.0029252681,0.0031115785,-0.0028682228,-0.0021848553,0.0018747506,-0.0007505507,0.0026346967,-0.002657185,0.003064315,0.00074424787,-0.0028857314,0.0013257884,-0.001721766,0.0021304225,0.0022210535,-0.0029672224,0.0021975092,0.001734536,0.0021650414,-0.0023589614,-0.0021396591,-0.0029303338,0.0017696765,-0.0013814132,0.0016539259,0.0015745076,0.0026854284,0.0007317755,-0.00036414815,0.00046489015,0.0010566843,-0.0029485363,-0.0019825946,-0.00030580527,0.0016400199,-5.9651375e-05,-0.0032391185,-0.00016634449,0.0023445692,0.0021334414,0.0011825144,-0.001509679,-0.0012223584,-0.00071464945,-0.0020329584,-0.0029119074,-0.00018506922,0.0006363544,0.0016386542,0.0011649466,0.0028418314,-0.0022357034,0.0030881795,-0.0011696734,0.00026039858,-0.0014004428,-0.0014033214,-0.0004863652,-0.0025347588,0.002995007,0.0015495677,-0.00075259473,0.00063253776,0.0026137116,-0.0018938633,0.001283024,0.00020562267,0.0009494003,-0.0007430631,-0.003294015,0.0019501016,-0.00045596677,-0.002799318,0.000191154,-0.002082369,0.0025519258,-0.0021499223,-0.0005971895,-0.00020470427,-0.0014939368,-0.0011678331,0.0024785795,0.0006310428,-0.0031467802,-0.00010928652,-0.003223649,-0.001080482,0.0016847966,0.0012375099,-0.0019100012,0.0005038408,0.001956521,-0.002511257,-0.001151097,-0.0008045181,-0.0029781894,0.0007085223,0.002166896,0.00080824597,0.000797874,-0.00031769922,-0.0002234173,-0.0021041946,-0.00019656234,0.0022113016,0.0010170537,0.0001551577,0.0026164805,0.00094654923,-0.0024888362,0.0024610206,0.0032063741,-0.0030163978,0.0024281219,-0.0025227787,-0.00019161547,0.0015128247,-0.0018884337,-0.002636042,-0.0024808547,-0.0033258281,-0.0022216544,0.00327423,0.0010062911,-0.0030875576,0.0028141467,0.0024145797,0.0026297765,0.0032387653,-0.0029860372,-0.00075336784,0.00069376634,0.00079002476,0.0016142417,-0.0026104127,0.001635959,0.003346885,-0.002989147,0.00266303,0.0010062758,-0.001413119,-0.0005149524,-0.0028570655,-0.0025083576,0.0018463344,-0.0010706354,0.0033663614,-0.00272813,-0.0023361114,0.002043659,0.0026232924,0.0012284382,0.002439925,0.0021723765,-0.0019490493,0.002908815,-0.0020879274,-0.0009348957,-0.0020104926,0.0020773958,-0.0014684488
congest,0.0010267445,-0.00052740885,-0.0003973683,-0.0019498139,-0.0019234061,-0.0011916959,0.00011248055,0.0004921709,-0.0010985284,0.0006476928,-0.0018903478,0.0033315415,-0.00027783183,-0.00232029,-0.00061491353,0.0026425042,-0.0003675731,-0.0017185166,-0.0026860647,-0.0019604466,-0.0010634065,0.0025751789,-0.0024052816,0.0004780797,-2.3609244e-05,0.0013132205,-0.0026500323,0.0026462625,-0.0009284658,0.0017646576,-0.0031630306,0.0017029725,-0.0027503069,-0.0010843485,-0.0003952713,-0.0012182818,-0.00023810397,1.2612108e-05,0.0015024793,-0.0007491734,-0.0013340642,-0.0020550685,0.0027780973,0.001535615,0.003035288,0.0018283293,-0.0015317054,0.0027651284,-0.0023170891,0.0010158471,-0.0011160512,8.95153e-05,0.0012466926,-0.0009423064,-0.0014740637,-0.0006451521,0.00017464279,0.0021542744,-0.0019494016,0.00155208,-0.0012370558,-0.0026513499,-0.0018686166,0.0006181556,0.002927665,0.0026271062,0.0030577548,0.0022956175,-0.0009937774,-0.00081629795,0.0029405942,0.0021612446,0.0020030516,0.002290902,0.0005421457,0.0007987317,-0.0027362907,0.0025189705,0.0031471285,-0.0023568617,0.00038888177,0.0029152425,0.0012231063,0.0023217918,0.0025427353,-0.0006349786,0.0029530264,0.0019943335,-0.0006309011,2.3315017e-05,0.0032375169,0.0019422006,-0.002227013,-0.0011687698,-0.0011563511,0.0010474375,0.00036729238,-0.002865923,0.0007222063,0.00320735,0.0007834455,0.0014248735,0.0006584204,0.0027032609,0.0029590325,0.0010506236,-0.00080698135,0.0012018323,-0.0025752499,0.0026707195,-0.0013374274,0.0033103137,-0.0031903284,-0.0008540487,0.002962531,-0.0013591131,-0.0006529237,0.0016775349,0.0030975458,-0.00012524563,-0.0022674687,0.0033331,-0.003170749,0.00041335972,0.0018563371,-0.002612653,-0.0018749428,-0.0030429128,-2.745238e-05,0.0016683836,-0.0027416092,-0.001022411,0.0028018965,-0.0014882884,0.0010535391,0.0011735157,-0.0011962218,-0.0017233718,0.0027709317,-0.0008403665,0.0029871198,-0.00080784556,0.0010185465,0.0018661638,0.00019202524,0.0014671993,-0.0019888068,0.002804067,-0.00055109465,-0.0014744028,0.0017054956,0.0033027034,-0.0018887686,0.00028401805,0.001445221,-0.00091314566,0.0002083812,0.0029424822,0.002574485,-0.0021495475,-0.0010661323,0.0030721326,-0.00010905295,-0.003183195,-0.0002446607,-0.002272344,0.0003086945,0.00026802692,-0.0014651275,-0.0015261858,0.0029309809,0.0015290191,0.00085756794,0.0006139773,0.00274378,-0.0016670525,0.0020405576,-0.00032864584,-0.0025542828,-0.003226517,-0.0005626567,0.002705941,0.00073603645,-0.0029946202,0.0004034146,-0.0012067462,-0.0013492123,0.0027096577,0.0019351272,0.00011938505,0.000822541,0.00029497448,-0.0033139158,0.0009943215,0.002398947,0.0013289942,0.0008235087,-0.0011785585,0.0007789156,-0.0025446918,0.0014002123,0.00079763896,-0.0001393655,-0.00019885221,0.00088084675,0.0007444142,0.0004896335,0.003046839,0.0011763985,0.00046634628,-0.000978811,-0.0020218415,-0.0031079836,-0.0010843818,0.0014498555,0.0025273731,0.00020724567,-0.0015971422,0.0011988644,-0.0012982506,-0.00025095206,0.0029547096,0.0027239604,-0.00013836559,-0.0019663572,0.0012292819,0.0032725185,0.0028898856,-0.000635655,0.002382102,0.0030893916,-0.0031840845,0.0029628836,6.311107e-06,-0.0017283655,0.0012307916,0.0029826313,-0.0024170205,0.002290632,-0.0021506858,-0.0025915508,0.0018345243,-0.0015261456,0.0015906839,0.002455761,0.0032171302,0.0019025638,-0.002948884,0.0010797577,-0.002997285,-0.00012367866,0.0032621557,-0.0017060111,0.0013670715,-0.0019159486,-0.0026826032,0.0026745594,0.0010839076,0.0024582748,0.0009776336,0.00038899528,0.0012444325,-0.002804015,0.0021934856,-0.00149943,0.0015343875,-0.0018180498,0.0003468054,0.0013377385,-0.00082895876,-0.0025113036,-0.00201035,-0.0033165934,0.0032283321,-0.0014632763,-0.00035016405,-0.0030047835,-0.0015251234,-0.0016348495,0.0010068921,0.0018850581,0.0011686353,0.0032870474,0.00063279225,0.0032890881,0.0025196276,0.00092054246,0.00071073294,-0.0025044584,-0.00078865705,0.0018770191,-0.002712055,0.00075644,-0.0025304842,0.0032151258,-3.885198e-05,0.0003034024,-0.0015951517,0.002039879,-0.0023725757
